0: [233596.40625, 18.13328742980957, 21643.78515625, -387.3427734375, 920.399169921875, 2048.96533203125, -200.57763671875, -799.3836669921875, -417.542724609375, 10.98193359375, -1315.28466796875, -15559.779296875, -19.67727279663086, -2240.778564453125, 233.86328125, 5627.2177734375, 1539.1031494140625, -745.27978515625, -44857.4140625, -11432.009765625, -18.508380889892578, 143.40773010253906, 39224.6015625, -1558.277587890625, -27007.375, 27344.609375, -9209.806640625, -6.695412635803223, 86039.453125, 35134.40625, -20.728515625, 10697.8369140625, -229.12420654296875, -920.3585205078125, -3968.06005859375, -8082.7646484375, -4040.01220703125, -11.374917984008789, -13320.423828125, -3214.465576171875, -132.1636962890625, 501.63494873046875, 2703.41943359375, -3500.359375, -5061.60009765625, -782.5553588867188, 6535.9462890625, -1758.829833984375, -311969.78125, -1869.1171875, -10432.5927734375, 44.78971862792969, 132.47755432128906, -29564.2265625, -5809.208984375, 58290.2734375, 24.562952041625977, -2978.05712890625, 153.73599243164062, 707.16015625, -2067.152587890625, 239.3629150390625, -6058.59423828125, -13.83221435546875, 5927.564453125, -2850.703369140625, -359.9412841796875, -452.02752685546875, -4501.5888671875, -130.87692260742188, 151101.96875, 3615.864990234375, -348.18072509765625, -139.65626525878906, -4620.56201171875, -1440.562255859375, -7173.70703125, 21.75, -1577.013671875, 8428.8603515625, -106402.25, -271.5893249511719, 99.25938415527344, -1781.2691650390625, 2064.27392578125, 27356.87890625, -43087.640625, 3133.567626953125, -174.16006469726562, -917.9075317382812, -22.83793067932129, 2509.0751953125, -809.3175048828125, -4257.98828125, -234.72152709960938, -3.0926856994628906, 2725.07080078125, 792.0977172851562, -3707.97412109375, 13233.66796875, -5220.1162109375, 434.5785217285156, -80.7222900390625, 1274.390869140625, -1060.19189453125, 2673.57177734375, -5245.1611328125, -667.52392578125, 39.593711853027344, -55423.62890625, -714.3453369140625, -1629.7432861328125, -576.6929321289062, 362.58837890625, 76.87921142578125, -176.02748107910156, -182.99853515625, 6391.55859375, 4028.242919921875, 6.539761543273926, 38568.4140625, 56.68231201171875, -2323.47216796875, -157.47055053710938, 934.9541015625, -2745.8310546875, -2226.663330078125, 2288.9951171875, 281.990234375, -487.5074462890625, -1469.601806640625, -660.1527099609375, 155190.75, -15131.1123046875, 177620.96875, -712.7901611328125, -7532.37744140625, 16302.232421875, 147301.875, 54.17657470703125, 14824.7734375, 28164.8125, 131.40509033203125, 2655.43017578125, 4402.49658203125, -792.4566650390625, 4502.8779296875, -1178.1939697265625, -3947.40673828125, -347.4026184082031, -2919.248046875, -45.15595245361328, 930.033203125, 10073.638671875, -32765.62890625, -90.03189086914062, 2913.22314453125, -933.5599365234375, 36410.421875, -5460.5283203125, 8433.0126953125, 3457.866943359375, -383.9638671875, -603.7982177734375, -66.38648986816406, -62.869834899902344, -919.1635131835938, -1624.614990234375, -15261.013671875, -297.6563720703125, -4399.27197265625, 4374.38427734375, -261063.953125, -51833.16015625, -217.8408203125, -3216.333740234375, -13209.0146484375, 2092.11865234375, -29088.818359375, -18157.208984375, 19318.96875, -96497.015625, 89535.7890625, -2206.48095703125, -46.94427490234375, 202.3298797607422, -34960.046875, 1622.480712890625, 5376.591796875, 24816.845703125, 1139.8990478515625, -1133.7659912109375, 466.0324401855469, 770.2415771484375, -2561.916015625, 359.78607177734375, 892.1648559570312, 1466.67333984375, -14950.7109375, 307.9702453613281, -855.226318359375, -2573.70361328125, 57425.1328125, -6967.7138671875, -2755.15283203125, -53.2445068359375, 613.784423828125, -148955.296875, 628.348876953125, 105.10274505615234, -9676.072265625, 379.96533203125, 151524.390625, 9.071815490722656, 284.3101501464844, -218.37203979492188, -15820.0078125, -63.51139831542969, -3226.853515625, 581.6126708984375, 20.404136657714844, -203.93435668945312, 419.68798828125, -160.6436309814453, 165762.390625, -1742.03515625, -7674.00439453125, -10994.251953125, 17795.25, 273.3828125, 1070.8265380859375, 176.2021484375, 75402.953125, 16.560680389404297, -5955.93798828125, -291.162109375, -1258.8226318359375, -294.1351623535156, -13322.2421875, 7763.541015625, 112026.921875, -673.6639404296875, -1079.5059814453125, 497.93133544921875, -3962.359375, 490.3438415527344, 80949.09375, -12336.466796875, -839.041015625, 321.1342468261719, -80556.40625, 1146.96240234375, 4057.671875, 35.274024963378906, -6846.2451171875, -1200.1807861328125, -60313.1796875, 47.33595275878906, 9093.6015625, -1555.4449462890625, 46269.30859375, -1055.998291015625, -74093.140625, 12.075786590576172, -108979.109375, 687.7127685546875, -0.248046875, -8417.6787109375, 82354.25, 245.925537109375, 2582.00927734375, 43.957149505615234, -11880.7958984375, 9038.453125, -49315.4296875, 106.63002014160156, 330.4200439453125, 418.9531555175781, 493276.625, -3138.4609375, -19078.4609375, -70.34564208984375, 44458.484375, 8.570192337036133, 1238.953125, -5278.03955078125, -1530.190673828125, -7025.6875, 199.39413452148438, 1.1803054809570312, 1128.38671875, -7283.1982421875, 1398.6611328125, -0.02838897705078125, -593.47900390625, 1016.2371826171875, 29.260452270507812, 78.77825164794922, -2437.14111328125, -1449.836669921875, 15005.669921875, 1379.9210205078125, -548.9109497070312, 0.5293909311294556, -217721.765625, 2145.0927734375, -1053.883544921875, 480.39129638671875, 16.945213317871094, 252.296875, -124.1300048828125, -546.6226196289062, 1374.066650390625, -10298.01953125, 1822.8455810546875, 699.0921630859375, 76612.28125, 156.30538940429688, 4599.99072265625, 8223.4580078125, -216.0488739013672, -1837.4134521484375, -3590.029052734375, -4225.4453125, -5670.76953125, 61.89701843261719, 81.17828369140625, -2187.759033203125, 23173.6875, 101.30722045898438, -3542.0478515625, -11787.390625, 2588.0302734375, 1434.905029296875, 1506.1199951171875, -2166.981201171875, -945.3048706054688, -113.64192962646484, -14197.60546875, 80.15617370605469, 33173.5234375, -253.8650360107422, 1154.4483642578125, -4212.19091796875, 20717.03515625, 802.185546875, -3178.16015625, 33.3700065612793, -1091.6131591796875, -20.119125366210938, -3028.42431640625, -2047.654296875, 15418.869140625, 2298.7548828125, 2425.9580078125, 128.34375, -4021.025390625, 1039.3505859375, -3365.196533203125, 4.405216217041016, 730.7763671875, -880.3406372070312, 16835.609375, -56.471282958984375, -5941.33447265625, 32.84532165527344, -200.16094970703125, -336.2898864746094, 49117.83984375, -63.34908676147461, -49596.375, 126.57858276367188, -270.9827880859375, 54.880821228027344, -79647.859375, 86.46231079101562, 13774.58203125, -133.1793212890625, 6.585076332092285, 72.17912292480469, 1586.862060546875, 113.26968383789062, 2081.4443359375, 1822.2379150390625, 9103.0634765625, 1.8818879127502441, -272.4949951171875, 238.99234008789062, -60963.34765625, 3698.7001953125, -1460.42578125, 62035.63671875, -884.55712890625, -492.6329650878906, -179.912109375, -55.8065185546875, 14553.40625, -153.59375, -87.3074951171875, 2.6211163997650146, 213.40118408203125, -7719.86865234375, -257.5935974121094, -143.20263671875, 27236.5546875, -362.67950439453125, -763.8824462890625, 31.6800537109375, -721.6290283203125, 16052.4951171875, 847.7750854492188, 584.2247314453125, -4415.826171875, -11.3043212890625, 69479.125, 499.4633483886719, -2751.037109375, -16017.3564453125, 170078.609375, 13874.3857421875, 292720.25, -597.4359130859375, 20.031978607177734, 5411.833984375, -4491.00537109375, -59269.88671875, 3369.543212890625, 0.747115969657898, -3026.2314453125, 1.2038917541503906, -5855.54296875, -1379.38818359375, 1313.292724609375, 357.0670166015625, -43451.0859375, 7.17288875579834, 5302.87646484375, -6708.3681640625, 368.17254638671875, 56.40850830078125, 2263.400146484375, -1847.1904296875, -1039.60791015625, -226.62890625, -215096.625, -224.19468688964844, 42618.6875, 274.90625, -2141.38134765625, 894.6359252929688, 1408.159423828125, -180.15380859375, -480.1969299316406, 1266.1134033203125, -934.027099609375, -429.27392578125, 1431.6634521484375, 348.7972412109375, 13.158832550048828, -23945.763671875, -5015.8994140625, -614.958740234375, 1.0665667057037354, -6924.1884765625, 168.93951416015625, -296.3262939453125, 7378.13134765625, 22.501527786254883, 3709.489013671875, 3047.765625, 81692.296875, 746.384033203125, -72846.09375, 51.13749694824219, 407.1397705078125, 759.8603515625, 2033.76171875, 598.837890625, -182.1123046875, -3786.616943359375, -74972.609375, -2.09161376953125, 71451.34375, 45.10003662109375, 189.184326171875, 3748.189453125, -3070.040283203125, -22786.896484375, -84550.125, 28431.984375, -314.26776123046875, 309.67578125, 6595.498046875, -2330.923583984375, -107720.65625, 166.2921142578125, 1749.119873046875, 6405.72705078125, -3894.361328125, 106.52876281738281, -56142.71875, -43587.48828125, 71798.34375, -121298.75, -518.3583984375, -278.2578125, -8962.6318359375, -607.2587890625, -866.103271484375, -57629.6640625, 11275.0283203125, 1269.0595703125, -33045.3515625, -1441.25048828125, 246672.21875, 43.830322265625, 2695.228515625, 281.474609375, -8091.5498046875, 5.574505805969238, -882.2740478515625, 370.052978515625, 60.24420166015625, -4707.3203125, 410.29132080078125, -4297.88134765625, 20.569461822509766, 996.3072509765625, -123640.671875, -49140.07421875, 17819.212890625, -496.61846923828125, 1029.70654296875, 8924.80859375, -834.6421508789062, 1030.5859375, -15813.6884765625, 751.8125, 1593.08154296875, -609.5366821289062, -10696.3125, -1672.04150390625, -2201.1943359375, -118.3973388671875, 565877.0625, -70.87049865722656, -1279.450927734375, -125223.28125, 3554.3916015625, -4367.07763671875, -1700.2342529296875, 4531.82861328125, 1704.910888671875, 2151.99560546875, 24410.61328125, -1636.349609375, -75.53564453125, -1056.274169921875, 91898.703125, 13952.0546875, -2569.85888671875, -73246.0390625, -7.8551788330078125, -573.0419921875, -25212.18359375, -62787.66796875, 4040.46630859375, -73.97286987304688, 205.34201049804688, -35.090545654296875, -834.251708984375, 7.388465881347656, -145.9180908203125, -201.313232421875, -14170.671875, -3139.029052734375, 35900.8125, 68.92141723632812, -69433.609375, -3960.30078125, -6302.97607421875, -32229.890625, -509.42919921875, -13746.43359375, 107669.6796875, -1704.24169921875, 2751.435546875, 1336.702880859375, 4952.09375, -17629.4140625, 1509.3671875, -1726.26171875, -20561.421875, -163.78143310546875, -3103.0498046875, -45516.2578125, 178.2388916015625, -3013.64208984375, 625.239013671875, 3551.8798828125, -5545.533203125, -332.98486328125, 154259.75, -22.834197998046875, 27502.078125, 1579.143310546875, 3836.203369140625, -31659.1171875, 26331.775390625, 564.50244140625, -46299.4453125, 72516.234375, -36.572200775146484, -195160.5625, -137005.03125, -217.05349731445312, 1785.5806884765625, -27.9892578125, -1256.156005859375, 40.7255859375, 2013.0086669921875, -4172.9267578125, -2839.9892578125, -62468.4921875, -61.34820556640625, 9174.716796875, 60039.1953125, 70702.125, 23124.83203125, -87844.3671875, -18137.2890625, -35833.87890625, 211.43055725097656, -3.02996826171875, 1312.4501953125, -65464.15625, 2513.5478515625, 12455.7177734375, -222.2049560546875, 10.603447914123535, 101.34147644042969, -56231.6171875, 1217.32080078125, -789.645263671875, -144377.0625, -7662.2373046875, -10183.03125, 1444.25537109375, 1200.7861328125, -237.87725830078125, 13071.5390625, -20.71881103515625, 90814.609375, 621.0224609375, 117.79650115966797, -1577.7296142578125, -19.031572341918945, 1158.0875244140625, -21199.2578125, -260256.9375, 26272.1171875, -47129.71875, -136.1415252685547, 208.52279663085938, 67863.4375, -131049.1875, 994.531494140625, 13256.9404296875, -236.23068237304688, 5.623621940612793, -129957.59375, -1108.32373046875, -399.0645446777344, -68.609375, -61048.4921875, -128.98443603515625, 2655.99365234375, -10112.4365234375, 351.4835205078125, 10214.6640625, -10156.783203125, -44.91393280029297, 72972.859375, 6.582847595214844, 10.887229919433594, 0.343017578125, 158.14617919921875, -1983.4180908203125, 141668.796875, 16.413135528564453, 745.24609375, -1068.838623046875, 4384.20068359375, -1807.108642578125, 10363.23828125, -1027.0831298828125, 2573.9765625, -13701.9296875, 4642.7626953125, 3640.407470703125, -3888.45703125, -412.75128173828125, 34.8927116394043, 143.65234375, -34889.06640625, -420.353515625, 13052.978515625, 2322.52392578125, -9318.9970703125, -174.97366333007812, 162.34832763671875, -40.1234130859375, -57951.84375, -1.8889312744140625, 1526.76171875, -737.2217407226562, 15442.609375, -972.2236328125, 53430.67578125, 29.259002685546875, 96691.1015625, 6.083889007568359, 2274.576904296875, 180.55029296875, 39.982627868652344, 2120.514404296875, 14353.732421875, 1087.2281494140625, 20086.013671875, -18485.25, -2305.5146484375, -1925.6917724609375, 857.2706298828125, 395.40521240234375, 904.6470336914062, -70.89883422851562, -3864.69921875, 48.96094512939453, -2148.072998046875, -1823.242431640625, 79800.484375, 5422.46484375, -19624.88671875, 35.50278854370117, -75222.6796875, 335.41546630859375, -299.5400390625, -563.0303955078125, 192827.0625, -72295.421875, 9044.12890625, 2442.105224609375, -380.2440185546875, 1.87445068359375, -3479.09375, 7169.4580078125, 102.43849182128906, 1385.544921875, 462.257080078125, -2114.610107421875, -23499.25, -53.7045783996582, 146.92120361328125, 391.81787109375, -665.5633544921875, -289.08056640625, 1474.406982421875, -4787.1865234375, 829.5673828125, 10728.9990234375, -288692.1875, 1380.1441650390625, 7677.67138671875, -29.541040420532227, 204.19125366210938, -1679.74609375, -785.9490356445312, -95.85038757324219, -198322.0625, 1390.44775390625, 12.8968505859375, 18.6868896484375, 28580.19921875, 591.637451171875, 202836.875, 82.90708923339844, 74030.875, 31.265899658203125, 178801.0625, -7228.56298828125, 2946.4541015625, -102.65438842773438, 20535.474609375, -2652.6396484375, -80.48776245117188, 445.09466552734375, 4012.2685546875, -958.7078247070312, 112.67682647705078, 3462.744384765625, 2065.82177734375, 162957.484375, -2541.926513671875, 217.6468963623047, 1484.9874267578125, 42290.59765625, -765.7919921875, -431.16485595703125, -26191.265625, 1151.68603515625, -20571.283203125, 3512.8798828125, -3541.279296875, 22524.103515625, 186.35914611816406, 23467.984375, -132.6250762939453, 31578.703125, 1091.18505859375, 327.1065673828125, 5550.2958984375, 781.9677734375, -6688.3505859375, -116.74171447753906, 557.4251708984375, 150.72926330566406, 1164.076416015625, 8786.298828125, 34251.04296875, -88.71694946289062, 23611.46875, 69.1585693359375, 249785.125, 1464.482421875, 10.709989547729492, 449.62939453125, -34922.83984375, 13056.00390625, 3339.86181640625, -54.0970458984375, -681.158935546875, -15.104330062866211, 12029.7265625, 96740.0390625, 18404.3125, 15643.06640625, -10261.9453125, -78.42120361328125, 11043.7255859375, -2.4072113037109375, 179738.53125, -7081.802734375, -3017.4931640625, 586.0230712890625, -113166.765625, -1823.520263671875, -29598.041015625, -7948.09130859375, 11217.64453125, -149.33871459960938, 33.16847610473633, 80113.21875, 459.4312744140625, 75288.1796875, -4687.2919921875, 1131.8321533203125, 72566.7890625, -7491.8984375, 3375.732421875, -595.112548828125, -2863.82421875, -12.869873046875, 147.61669921875, 123.03605651855469, -631.5045166015625, 18.323593139648438, -2654.2421875, -20.870586395263672, -4979.544921875, -23380.265625, 103.54859924316406, -2559.000732421875, -394.6629333496094, 590.56201171875, -75540.171875, 462.2923583984375, 5580.68359375, -259.266357421875, 5103.8828125, 10685.1015625, -10820.0654296875, 135.236572265625, -356403.03125, -97.5230712890625, -12517.5927734375, -2919.03271484375, -98557.9140625, 246.7141876220703, -256.81903076171875, -59329.08203125, 14450.8583984375, -141.08920288085938, 91543.2578125, 1496.366455078125, 222.415771484375, 319.2061767578125, 7383.61328125, 355.3268737792969, 369.87579345703125, -465.3871765136719, -18423.255859375, 58.365234375, 2261.06103515625, 547.1988525390625, 357.5098571777344, -16658.998046875, 129229.71875, -101.57759857177734, -2085.66796875, 1048.72607421875, 813.01025390625, -2266.29541015625, -74934.03125, -5.245977401733398, 49568.421875, 98.1849365234375, 169.95289611816406, 17.674442291259766, -173.71575927734375, 1464.683837890625, -1145.728515625, -740.652587890625, -20587.02734375, 152898.40625, 4146.1337890625, 504.8203125, -2493.407470703125, -14.3702392578125, 5590.458984375, -42386.5703125, 8970.6396484375, 1385.697265625, 491.45050048828125, -11122.166015625, -2134.716796875, -597.1212768554688, -44818.5546875, -598.9309692382812, -887.376220703125, -2.08258056640625, -404.48602294921875, -384.576171875, -839.781494140625, -33131.015625, -5304.6796875, -13912.9365234375, 40453.53125, -718.951416015625, -17832.921875, -303.757080078125, 103.44966888427734, 1912.320556640625, 113.81163787841797, 5207.5185546875, -2741.689453125, 978.1288452148438, 957.296875, -130.1771240234375, -11055.302734375, 877.7789306640625, 910.8046875, 4190.3896484375, 230.08204650878906, -950.041259765625, -81322.515625, -94.00701141357422, 1.599334716796875, -9363.1748046875, 1087.31640625, -425.2523193359375, -903.4794921875, 88.51809692382812, 201.123046875, -37386.546875, 297.70159912109375, -657.78076171875, -4815.62939453125, -25.302284240722656, 1596.6202392578125, 1029.420654296875, -178.24853515625, -6355.3125, -938.06494140625, 1867.654296875, 6.341909408569336, 326310.40625, -9336.28125, -1461.262939453125, -13187.392578125, -3491.24658203125]
1: [18.133262634277344, 6.806654453277588, 43.01564025878906, 22.370315551757812, 15.998929023742676, 6.0794196128845215, 3.0661141872406006, -0.2792850732803345, 12.21385383605957, 0.6589634418487549, 3.9543874263763428, -25.53164291381836, 0.018341032788157463, 4.944209098815918, 14.817957878112793, -23.611103057861328, 2.791116714477539, -1.9217424392700195, -85.65602111816406, 35.16167449951172, 3.2068347930908203, 28.488788604736328, -132.29196166992188, 16.252391815185547, 688.4010620117188, 196.42967224121094, 131.76260375976562, 0.0025116982869803905, 527.4027709960938, -203.42864990234375, -10.24598217010498, -17.150325775146484, 6.608100891113281, 622.4299926757812, 92.68099975585938, -23.1910457611084, 9.390824317932129, 1.6200528144836426, -41.22736358642578, 8.71967601776123, 8.587751388549805, 5.160541534423828, 5.133125305175781, 41.712730407714844, 18.08768081665039, 2.776548385620117, 0.5009112358093262, -13.242210388183594, -112.766357421875, 14.54391860961914, 8.511533737182617, 15.327132225036621, 0.6536641120910645, 106.3226318359375, 28.649505615234375, 59.622779846191406, 1.403346061706543, 44.0830078125, 4.52260684967041, 24.892066955566406, 32.05049514770508, 4.641715049743652, 32.06270980834961, 73.48060607910156, -128.6283416748047, 6.130220413208008, -2.145082712173462, 4.724573612213135, 588.9205322265625, 22.855865478515625, 257.3328857421875, -13.635791778564453, 5.092528343200684, 1.5108227729797363, -2.813089609146118, 159.19317626953125, 26.155258178710938, 13.43927001953125, 88.11515045166016, -0.5366649627685547, -2680.18310546875, 51.95726013183594, 0.4824710786342621, 0.14302444458007812, -1.6883068084716797, -79.38567352294922, -75.71224212646484, 53.19601058959961, 11.45608139038086, 1.081992745399475, 0.03275468945503235, -3.568805694580078, 44.70735168457031, 16.99382209777832, -0.5025163888931274, 1.5944397449493408, 2.8306541442871094, 3.655844211578369, 8.626787185668945, 187.69088745117188, 136.38800048828125, -1.8702256679534912, 7.051328659057617, -1.275724172592163, 21.768768310546875, 30.558950424194336, 19.679258346557617, -0.26739561557769775, 131.01380920410156, -466.35784912109375, -1.3947150707244873, 0.2834736108779907, 5.847766876220703, 12.235219955444336, 1.4663410186767578, 1.9289244413375854, -1.7032442092895508, 448.69927978515625, 301.42474365234375, 0.4489153027534485, 100.46463775634766, 46.95087814331055, 7.746365547180176, 0.26490211486816406, 25.512203216552734, -15.610294342041016, 4.035375595092773, -5.108238220214844, 8.616595268249512, 6.3705244064331055, 4.322831153869629, 7.476093769073486, -280.9655456542969, 79.35252380371094, 330.5437316894531, 0.5942040085792542, 7.449104309082031, 1.448638916015625, -259.8723449707031, 1.4465241432189941, -191.6378631591797, -23.16857147216797, 19.017379760742188, -21.6163330078125, -16.396907806396484, -2.5585198402404785, -65.72537231445312, 5.627538681030273, -1366.740966796875, 0.3367827534675598, 18.07501220703125, 4.297797203063965, 15.794503211975098, 65.81356811523438, -83.42294311523438, 0.5930765867233276, 155.22950744628906, 1.1919862031936646, 38.3660888671875, 63.83549499511719, -36.80780029296875, 19.41880989074707, 13.024043083190918, 2.9552175998687744, 3.0089099407196045, 0.39138227701187134, 6.369975566864014, 10.795097351074219, -119.0293197631836, 20.73675537109375, 9.53877067565918, 38.02700424194336, 87.74763488769531, 16.216346740722656, 13.45246696472168, 3.0825581550598145, 20.583498001098633, 45.12638854980469, -2833.766845703125, 7.780766487121582, -289.6006774902344, 107.78866577148438, 10.906875610351562, 33.323692321777344, 5.74754524230957, 0.6829607486724854, 31.584644317626953, -50.05840301513672, 12.084293365478516, -27.344924926757812, 16.74846649169922, -5.46427059173584, 19.611270904541016, -3.3616507053375244, 34.06755828857422, 14.709100723266602, -0.8452403545379639, 0.3421287536621094, 16.866374969482422, 7.4618330001831055, 9.8273344039917, 29.268558502197266, 79.34616088867188, 6.983632564544678, 18.83380699157715, 12.34549331665039, 37.57089614868164, 218.20358276367188, 12.605445861816406, 8.560182571411133, 651.6839599609375, 6.261966705322266, -674.36328125, 0.08448415994644165, 0.4239537715911865, -0.09865561127662659, 554.302490234375, 1.359264850616455, 8.338523864746094, -2.384686231613159, 1.6212338209152222, 0.6612145900726318, 16.433961868286133, -1.1667147874832153, 88.99446105957031, -8.045764923095703, 42.693504333496094, 81.90718841552734, -865.6275024414062, 9.031225204467773, 5.147109508514404, 18.20001220703125, 2459.47412109375, 1.1494951248168945, 1046.921875, 0.42155563831329346, -2.279737949371338, 4.137763023376465, 28.138671875, 22.46489715576172, -137.40579223632812, -9.12041187286377, -2.146796703338623, 0.09482431411743164, -659.0135498046875, 1.029948115348816, 4658.4453125, 26.422809600830078, 6.475744247436523, 23.413009643554688, 350.04901123046875, 11.256528854370117, 2.8778915405273438, 1.2439169883728027, -38.22807312011719, 2.6760358810424805, -31.485671997070312, 0.7643918991088867, -2.208759307861328, -11.158580780029297, 873.8389892578125, 5.49783182144165, -1462.3944091796875, -0.10521507263183594, -447.87689208984375, 0.4585440754890442, -10.865095138549805, 46.66645812988281, -214.7903594970703, 11.986444473266602, 36.47987365722656, 0.5001269578933716, 55.71599578857422, 93.01480102539062, 169.0716552734375, 1.190805196762085, 17.011409759521484, 2.249058961868286, -1303.137939453125, -3.200465679168701, -7.436878681182861, 0.09020799398422241, -984.5421752929688, 0.4540817439556122, 182.2784423828125, 26.907367706298828, 2.4956302642822266, 40.18745422363281, 0.2746443450450897, 0.7330900430679321, 19.576736450195312, 6.06096887588501, 41.74490737915039, 0.8405708074569702, 17.976150512695312, -10.002009391784668, 3.955789089202881, 0.5071569681167603, -0.775353193283081, -0.15889716148376465, -175.808837890625, -11.409499168395996, 1.4007937908172607, 0.1709623634815216, 372.927734375, 0.6169905662536621, -144.94932556152344, -1.2586116790771484, 0.7563742399215698, 15.777280807495117, 5.5899810791015625, 7.49081563949585, 3.1571922302246094, 56.191162109375, 44.73854064941406, 5.852217197418213, 490.0331726074219, 1.462944507598877, 11.519912719726562, 20.852008819580078, 12.572494506835938, 1.261092185974121, 11.200161933898926, 2.565845489501953, -52.17669677734375, 1.6056708097457886, 10.912471771240234, 3.7533164024353027, -193.91680908203125, 0.6676610708236694, -4.756951808929443, 21.16891860961914, 4.31569766998291, 12.451272964477539, -9.781759262084961, -2.25762939453125, 8.55238151550293, 0.20112156867980957, 72.69969177246094, 0.9887340664863586, -252.44387817382812, 0.16232571005821228, 9.928336143493652, -5.274789810180664, -61.69398498535156, 23.33490562438965, 70.17974853515625, 0.298002153635025, -0.27390480041503906, -0.12440061569213867, 13.682242393493652, 22.02430534362793, 73.78224182128906, -9.597888946533203, 59.17585754394531, 15.796064376831055, 9.093461990356445, 17.785110473632812, 25.093957901000977, 0.6140612363815308, 4.753913402557373, 2.145423412322998, 29.967390060424805, 0.47033071517944336, 1.2224197387695312, 0.9931507706642151, 7.143078804016113, -3.680481195449829, -202.28433227539062, 0.5410757064819336, -917.1622314453125, -1.5066322088241577, 29.723915100097656, 0.5256334543228149, -16.408050537109375, 1.0179216861724854, 228.73081970214844, 0.5882430076599121, 0.033258989453315735, 0.32680627703666687, 12.257040023803711, 1.061637043952942, 22.479042053222656, 3.059112548828125, -233.46548461914062, 0.8315812349319458, 1.5264291763305664, -0.732478141784668, 291.5693664550781, 42.75519561767578, 109.11488342285156, 71.2000732421875, 0.7111761569976807, 4.217595100402832, 61.10328674316406, -0.3733644485473633, -388.87786865234375, 6.019398212432861, 3.4953227043151855, 0.7732683420181274, -0.37392354011535645, 27.563304901123047, 2.2934815883636475, -12.081748962402344, 99.91209411621094, 0.8415296077728271, 8.91137981414795, -11.983688354492188, 12.231322288513184, 3.764007568359375, 4.855671405792236, 2.2966957092285156, 152.72988891601562, 0.6626870632171631, -44.37944030761719, 3.823223114013672, 30.776470184326172, 25.308551788330078, -333.3412780761719, 13.746257781982422, 114.3040771484375, 4.6794304847717285, 0.08018505573272705, 15.852603912353516, 19.77777099609375, -21.067296981811523, -15.873128890991211, 0.08964911103248596, 6.368929862976074, 0.2694246470928192, -22.57585906982422, 7.418706893920898, 5.824424743652344, 7.043063163757324, 6.339515686035156, 0.863632321357727, 8.156715393066406, -20.406415939331055, 7.410803318023682, 3.744114398956299, 104.75360107421875, 20.76582908630371, 40.398765563964844, 13.697467803955078, -854.3057861328125, 2.3060760498046875, -387.113525390625, 12.723762512207031, 44.45502471923828, 7.33790397644043, 24.43242645263672, 18.52768325805664, 3.76607608795166, 54.58844757080078, 9.897103309631348, 18.020740509033203, -2.4691596031188965, 30.14474105834961, 2.3176536560058594, 52.03672790527344, 6.521390438079834, 3.726553440093994, 0.2788551449775696, 2.5536139011383057, 32.175453186035156, 0.7462897300720215, 42.30977249145508, -0.09662145376205444, -69.21897888183594, -13.838300704956055, -172.65350341796875, 17.03754997253418, -176.9618377685547, 14.108230590820312, -4.422231674194336, 18.961395263671875, 0.037703514099121094, 8.145332336425781, -0.9949650168418884, -3.461672306060791, -438.87103271484375, -0.8228003978729248, -261.25250244140625, -1.1893210411071777, 7.739109039306641, -19.132793426513672, -5.042230129241943, 4.879371643066406, -36.942726135253906, 475.2024841308594, 0.656126856803894, 49.63615417480469, 76.94908905029297, 94.77114868164062, -7433.36962890625, -0.7597104907035828, -27.16702651977539, -32.917015075683594, 12.875204086303711, 0.21545040607452393, 158.89617919921875, 86.74576568603516, 450.5262145996094, -357.5914001464844, -309.1197509765625, 0.18480145931243896, 14.000958442687988, 29.61955451965332, 9.777517318725586, 332.56512451171875, 20.7324275970459, -10.230732917785645, 137.56280517578125, -4.141057968139648, 294.32470703125, -0.06713247299194336, -4.576966285705566, -60.992713928222656, -37.66642379760742, 0.41196924448013306, 6.381446838378906, -5.280892372131348, -0.03310577571392059, 25.22458839416504, 35.52204132080078, 32.60054397583008, 2.8169922828674316, 204.9520721435547, 88.24909973144531, 38.06086730957031, 50.423683166503906, -0.06418991088867188, 8.29958438873291, 145.26419067382812, 3.9735186100006104, 86.80259704589844, 17.69169807434082, 2.98949933052063, 21.007850646972656, 4.247655868530273, -45.451534271240234, 5.633658409118652, 89.98152160644531, 8.708985328674316, -1159.76904296875, -2.0659310817718506, 3.7492144107818604, 46.677398681640625, 4.051946640014648, 1.0436909198760986, 4.745957374572754, 32.53524398803711, 9.340930938720703, 7.955808639526367, -303.3848876953125, 56.43039321899414, 12.194695472717285, 2.0811221599578857, -424.5544738769531, 23.4605712890625, -39.86708068847656, 90.8138427734375, -0.05371570587158203, 205.2357940673828, 74.70501708984375, 79.08915710449219, 2.742060661315918, 1.8404372930526733, 3.241457939147949, -0.08180087804794312, 9.555261611938477, 1.1767274141311646, 2.446038246154785, 20.78756332397461, 103.89515686035156, -9.215627670288086, 214.41342163085938, 3.063530683517456, -92.91810607910156, -51.17407989501953, -1.5982818603515625, 160.88906860351562, 64.60917663574219, 78.3205337524414, 219.68118286132812, 0.7293555736541748, -23.189992904663086, 17.025606155395508, 437.8580627441406, 55.04366683959961, 54.179752349853516, -23.155189514160156, 25.43639373779297, 4.876564979553223, -116.75210571289062, 133.00608825683594, 24.073829650878906, 37.725189208984375, -3.337089776992798, 25.722864151000977, 38.99429702758789, 39.21906661987305, -570.0811767578125, 21.703882217407227, 144.64654541015625, 4.293107986450195, 33.338497161865234, -1.4901123046875, -102.82960510253906, 12.222394943237305, 101.20269775390625, -53.59600830078125, 4.395627498626709, 186.9383544921875, -77.97134399414062, 3.0381078720092773, 63.52043533325195, -1.509961724281311, 21.907203674316406, 19.33003044128418, -12.578547477722168, 6.99517822265625, -208.50375366210938, 250.0360565185547, 1.3162758350372314, -20.424549102783203, -1091.282958984375, -72.21589660644531, -62.46113586425781, -48.40650177001953, 278.9846496582031, -96.63229370117188, 1.3637540340423584, 36.647727966308594, -8.24798583984375, -1642.315673828125, 12.79044246673584, 51.01313781738281, 3.4562251567840576, 2.842891216278076, 0.636728048324585, -141.66091918945312, 6.9561920166015625, -6.669525146484375, -585.544921875, -2.734407424926758, 18.10324478149414, -5.64344596862793, 18.345272064208984, 0.8794686794281006, -64.2286376953125, 1.331181287765503, 161.288330078125, 42.61894989013672, -0.22045019268989563, 2.6304352283477783, 13.01085090637207, 42.80836486816406, 23.826465606689453, 193.78317260742188, 50.96894836425781, -39.52124786376953, 27.20763397216797, -0.9337395429611206, 76.55442810058594, 463.3396911621094, 204.4627685546875, 369.67889404296875, 44.83053207397461, 3.0794904232025146, -1689.251953125, 7.990135192871094, 0.9750503897666931, 2.022946357727051, -74.37364196777344, 1.1657167673110962, 15.87752914428711, 27.383819580078125, 4.879598140716553, -44.284767150878906, -72.70005798339844, -0.1942768096923828, 172.8470001220703, 0.9186148643493652, 0.05627747252583504, -7.620604515075684, 2.0524182319641113, 8.048632621765137, -176.91470336914062, 15.242246627807617, 38.34669494628906, 12.32109260559082, 34.433841705322266, 83.29216003417969, -146.49285888671875, 7.348143577575684, 189.85543823242188, 3.431643486022949, 23.02968978881836, -51.0291748046875, -156.74305725097656, 2.042694568634033, 7.548154354095459, -1.4163475036621094, -92.45785522460938, -0.1324148178100586, 12.106243133544922, 3.3024239540100098, -54.83971405029297, 25.078758239746094, 6.214484214782715, 9.64067268371582, 1522.47607421875, 5.229540824890137, 14.305720329284668, 2.3877060413360596, 63.349849700927734, 1.6951513290405273, 115.34230041503906, -3.6048800945281982, 150.15789794921875, -0.2043015956878662, -14.259056091308594, 6.799945831298828, -0.009800359606742859, 8.38841438293457, -33.83623123168945, 7.194625377655029, -48.05354309082031, 42.971214294433594, -12.644822120666504, 3.374934673309326, 6.7060346603393555, 17.52535057067871, 0.5645368099212646, 4.136726379394531, -488.3316650390625, -1.7140538692474365, 22.154346466064453, -3.2551755905151367, -462.13629150390625, 13.926321029663086, -98.47389221191406, 4.918198108673096, 281.15625, 11.261730194091797, 23.704627990722656, 5.417266368865967, 605.7644653320312, -80.50369262695312, -7.20201301574707, -8.172880172729492, 2.0997800827026367, 2.2934627532958984, 133.69374084472656, 5.480425834655762, 0.18461555242538452, -15.198738098144531, 0.2723950147628784, -6.875523567199707, -168.1818084716797, 0.1378050595521927, 19.020172119140625, 1.9805775880813599, 1.8698198795318604, 11.383228302001953, 3.9791617393493652, 39.06412124633789, -41.55673599243164, 6.334817886352539, -1693.16162109375, -4.614400863647461, 8.379907608032227, 0.46853339672088623, 0.8224109411239624, 76.34456634521484, 29.97723388671875, 0.4072740375995636, 1767.0115966796875, 7.951015949249268, 7.049019813537598, 1.5136823654174805, -253.2340087890625, 10.18237018585205, -500.0810546875, 1.3227633237838745, -12.423194885253906, 2.7778215408325195, -907.5966186523438, 48.248817443847656, 438.5107421875, 1.0434892177581787, -123.65087890625, 23.18600845336914, 0.3451305329799652, 0.42960333824157715, -3.851097822189331, 3.358299493789673, 0.6223527193069458, -1.1969636678695679, 22.74691390991211, -165.03125, 5.713512420654297, 0.03170686960220337, 12.075063705444336, -3.256044387817383, 45.913917541503906, 19.308349609375, -41.29109191894531, 13.414276123046875, 10.48572826385498, 24.39281463623047, 4.504384994506836, 106.51875305175781, 0.9471659660339355, -32.531005859375, 1.1909141540527344, -71.03216552734375, 127.96473693847656, -0.31977033615112305, -6.767856597900391, 8.14770793914795, 34.585670471191406, 2.7366280555725098, -3.7727344036102295, 16.232635498046875, -6.29847526550293, 76.88920593261719, -1319.106689453125, 0.10547208786010742, 52.42163848876953, 0.5199773907661438, 681.323974609375, 19.504981994628906, 0.6442137360572815, 9.57270622253418, -866.65576171875, -23.314664840698242, 38.051910400390625, -0.05295670032501221, 3.4528608322143555, 0.6098252534866333, 57.384910583496094, 220.9998779296875, -210.78250122070312, -25.23529624938965, 757.0423583984375, 0.4956563413143158, 36.00267791748047, 9.298843383789062, 144.93292236328125, 11.100115776062012, 22.98722267150879, 1.2531235218048096, -757.9407348632812, 3.3234975337982178, 38.137142181396484, 29.468236923217773, -22.004779815673828, 29.775066375732422, 2.989489793777466, 378.6014099121094, 2.046112537384033, 72.13041687011719, 347.71807861328125, 0.3338218629360199, 17.923583984375, 58.49929428100586, 5.322114944458008, 104.16488647460938, 104.81916046142578, 6.158961772918701, 37.3868293762207, 1.1267887353897095, -1.6856458187103271, 0.44567400217056274, -80.32255554199219, 1.431548833847046, -16.328685760498047, 39.60331726074219, -0.2947743237018585, 15.693716049194336, 25.273426055908203, 1.0118439197540283, -932.7715454101562, -1.2115358114242554, -39.283416748046875, 4.639244556427002, -15.819820404052734, 788.07275390625, 11.761978149414062, 5.478494644165039, -262.82373046875, -24.544082641601562, 48.779266357421875, 31.39291000366211, 60.12348937988281, -0.003421485424041748, -10.681601524353027, 235.18544006347656, 2.925994873046875, 1.1186268329620361, -8587.412109375, 1273.86474609375, 0.7001253366470337, 8.937241554260254, 187.1058807373047, 3.798569679260254, -0.15222883224487305, 4.109652996063232, -941.0697631835938, 0.03801584243774414, -2.8982996940612793, -8.578640937805176, 19.445602416992188, 47.279510498046875, 817.9549560546875, 8.494222640991211, -94.28973388671875, 5.445647716522217, 24.760732650756836, -12.436208724975586, 147.1140899658203, 0.06646086275577545, 281.5180358886719, 1.2408037185668945, 3.359264373779297, 15.227751731872559, 1.9112157821655273, -5.664319038391113, 62.125953674316406, 21.484548568725586, -40.98591613769531, -346.989501953125, -1.8413095474243164, -116.07469940185547, -35.904579162597656, -0.7775326371192932, 78.62205505371094, 124.48759460449219, -72.3355484008789, 7.69697904586792, 1.6329951286315918, 1612.633544921875, -0.6126213073730469, 2.53951358795166, 192.816650390625, 5.418112754821777, -23.988332748413086, 46.66138458251953, -2.360802412033081, 5.512557029724121, 52.189937591552734, -22.480297088623047, -51.385581970214844, 107.66323852539062, -61.4209098815918, 189.35736083984375, 39.30712127685547, 6.431489944458008, -1.9168297052383423, 9.096085548400879, 0.24747821688652039, -28.755281448364258, -116.15961456298828, 81.92330932617188, -507.7275390625, -1.9227279424667358, -291.8961181640625, -2.565274715423584, 73.36937713623047, 32.761077880859375, 0.9352095723152161, 2.8730106353759766, 94.28030395507812, 0.39533406496047974, 0.8657629489898682, -6.112096786499023, 45.618980407714844, 79.22029113769531, 30.945728302001953, 0.41866517066955566, 13.97494888305664, -11.247323989868164, 94.12017059326172, 3.6257505416870117, 4.1785888671875, 0.05512712895870209, 31.455312728881836, 19.54471206665039, 12.926715850830078, 97.11404418945312, 1.5806936025619507, 14.97844409942627, 0.13431021571159363, -25.5013427734375, 5.799587249755859, 111.55850219726562, -273.33782958984375, 4.3184943199157715]
2: [21643.779296875, 43.01570129394531, 259653.859375, 1206.85498046875, 20291.021484375, 1263.2568359375, -143.79583740234375, -50.546531677246094, 157.97711181640625, -15.674690246582031, -16.350997924804688, -133.032470703125, 1.637150764465332, -2913.90234375, 738.7444458007812, 1049.7138671875, 1072.4444580078125, -660.4736328125, -89060.484375, -3824.748046875, 3264.377197265625, 223.33456420898438, 7582.734375, 2801.77392578125, 51079.6640625, 13929.5009765625, 18324.53515625, -2.4348556995391846, -100408.359375, -31005.55078125, 2283.145751953125, 1080.5653076171875, -1957.5997314453125, 55394.8125, -2695.747802734375, -4880.376953125, -1063.4969482421875, 6.585508823394775, 5737.38134765625, -4109.8818359375, -64.2218017578125, 172.2640380859375, 58959.34765625, 3509.1416015625, -637.37109375, 2182.72412109375, -5622.03125, -985.4276733398438, -170076.46875, 1592.3853759765625, 4131.7705078125, 186.1065673828125, 368.79278564453125, 74753.53125, 64152.1328125, 12597.9365234375, 14.5521821975708, 12957.8583984375, 1257.761474609375, 2131.7197265625, 89437.2890625, 8587.7626953125, -1819.288330078125, 555.20849609375, 18754.11328125, -407.261962890625, -103.33389282226562, 557.9182739257812, -10925.578125, 273.820556640625, -36518.61328125, 1646.34912109375, 172.17208862304688, -65.91787719726562, 1853.2039794921875, -1601.1097412109375, 12647.6484375, 2094.9794921875, 6379.07275390625, 3605.94677734375, -210466.0625, 105.86802673339844, 84.44808959960938, -2644.07666015625, 4030.90283203125, 6994.1728515625, -23002.7578125, 3725.171142578125, 71.01350402832031, -265.726318359375, -49.57022476196289, 1564.0234375, 20644.349609375, -2471.08837890625, 326.1888732910156, 11.134538650512695, 5138.00537109375, 490.455078125, 1460.7625732421875, 5552.29345703125, 24556.15625, -1079.5179443359375, -220.25814819335938, 659.31298828125, 64.01220703125, -1983.389892578125, -393.47265625, -119.18466186523438, -2727.5888671875, -39213.9375, 203.163330078125, -753.1690673828125, 95.8310546875, 2306.005615234375, 20.715105056762695, -673.1051025390625, 5824.546875, 44361.7890625, 1509.309326171875, 3.5710058212280273, -31134.392578125, 182.31236267089844, 2428.902099609375, 977.8428344726562, 705.1749267578125, 995.7185668945312, -773.437255859375, 7011.533203125, -600.0457153320312, -481.7891845703125, 45.32737731933594, 586.820068359375, 115411.078125, 3138.03125, -160900.90625, -79.61492156982422, 2780.870849609375, 12401.001953125, 32222.3671875, 461.47314453125, 33839.484375, -5071.3037109375, 9810.7578125, -18656.986328125, -1647.0477294921875, 77.3116683959961, -20841.5, -991.2247924804688, 250507.15625, -4.967094421386719, 34089.9375, -845.0875244140625, -1091.3924560546875, 23703.7890625, 126135.921875, -102.80889129638672, 826.0753784179688, -303.8692932128906, -151251.21875, 9261.7685546875, -124946.765625, 4704.03515625, 5398.2216796875, 803.68994140625, 3033.91357421875, -46.381309509277344, -686.748291015625, 3702.74609375, 14915.9921875, -49.982505798339844, 6111.525390625, 2219.486572265625, 398506.125, -6865.416015625, 747.60498046875, 249.02169799804688, 15393.365234375, -4517.3837890625, -98448.3984375, -1775.418212890625, 56497.97265625, -33665.921875, 39933.265625, -798.60400390625, -121.10334777832031, 684.872314453125, -2592.3896484375, 3954.8671875, -9337.951171875, -17245.22265625, 2933.5166015625, -212.7032470703125, 402.30865478515625, -101.5159912109375, 22168.30078125, 3450.22900390625, 1126.1900634765625, 1370.0294189453125, 2344.8779296875, 3425.72998046875, -508.72747802734375, 3543.796875, 13690.388671875, -2120.23779296875, -2571.2412109375, 812.662109375, 474.9966735839844, -118757.828125, -302.4853515625, 23.742929458618164, 4088.97998046875, -326.790771484375, 177386.046875, 3.592634677886963, 872.1495971679688, -16.878765106201172, -1605.07275390625, 178.94277954101562, 349.185546875, -256.81103515625, 374.15692138671875, -253.519287109375, 24319.64453125, -270.21337890625, -67094.9765625, 6760.51171875, -18018.208984375, 4469.0078125, -15738.859375, -40.65435028076172, -76.964599609375, -149.08291625976562, 125763.46875, 140.31591796875, 3236.8447265625, -7.273213863372803, -463.1048278808594, 1091.40673828125, -14351.5830078125, 14994.2626953125, -27620.75390625, -649.7391357421875, -193.01553344726562, 651.2113647460938, -49483.59765625, 405.3550720214844, -21390.408203125, 29793.015625, -981.275390625, -399.92059326171875, 61149.2109375, 13.40985107421875, -1068.2763671875, 37.415069580078125, 18916.96484375, 146.38511657714844, -102585.78125, 161.79296875, 8585.1171875, -115.32135009765625, 23871.642578125, -3538.257080078125, 7210.515625, 140.0772705078125, -368099.125, 491.07232666015625, 1085.2822265625, -6851.22265625, -238918.359375, -370.71343994140625, 2399.26513671875, 202.7261505126953, 37512.2890625, 59837.8359375, -8670.74609375, 652.7727661132812, -59.262359619140625, 476.38409423828125, -60884.58984375, -1246.3450927734375, 11327.384765625, -21.38899803161621, -65214.65625, 6.068855285644531, -32874.9296875, 14627.6875, -566.9617919921875, 17103.33984375, 225.5687255859375, 117.37443542480469, 866.9819946289062, -2058.277099609375, 16830.55078125, 4.166356563568115, 12314.529296875, 690.2863159179688, 60.359317779541016, 101.11491394042969, 206.32159423828125, -276.3795166015625, -12862.390625, -33.68896484375, -410.1029052734375, 0.6517360210418701, -77752.828125, 3949.1953125, -1421.275634765625, 2426.556396484375, 25.0281982421875, -352.9012451171875, 270.36688232421875, -2241.22705078125, 2079.320556640625, 3488.79296875, 18981.0625, 375.7745361328125, 37150.2109375, -42.4613037109375, 3409.614990234375, 22683.501953125, 0.5983448028564453, -652.9225463867188, 1338.5750732421875, -7415.40576171875, 16572.830078125, 146.5162811279297, 97.84750366210938, -159.52105712890625, -17016.078125, 167.13011169433594, 89.4287109375, -31479.478515625, 259.75506591796875, 1566.1954345703125, -9677.181640625, -1224.87060546875, 3452.958251953125, 441.4100341796875, 38670.16015625, 88.83888244628906, -126034.1640625, -36.62908935546875, 655.644775390625, 3732.76806640625, 3944.6640625, 2623.02783203125, 63596.4921875, 51.14619827270508, 1112.841552734375, 221.30746459960938, -2000.449462890625, 5381.71923828125, 7123.3798828125, 5437.5908203125, 21261.35546875, 2388.253662109375, -644.298583984375, 3166.685546875, -184.3218994140625, 6.46473503112793, 869.5372314453125, -264.4621276855469, 40799.1640625, 561.92919921875, 36.14453125, 118.92230224609375, -232.00265502929688, -259.87176513671875, -13324.46875, -8.258926391601562, 67845.015625, 397.7698974609375, 8256.890625, 259.31256103515625, 25007.734375, 76.44572448730469, -5691.7578125, 313.84881591796875, 5.905867099761963, 244.8403778076172, 15809.650390625, 246.41485595703125, 1436.5115966796875, 4771.3447265625, -24260.84375, 49.389915466308594, -1111.21484375, 857.1068725585938, -34254.58203125, 16521.576171875, 5355.1708984375, 92626.140625, -217.07369995117188, 704.849853515625, -13804.904296875, -294.6845703125, 8952.296875, 2476.222412109375, -589.0084838867188, 2.3791158199310303, 306.3764343261719, -12761.36328125, -52.329437255859375, -563.6200561523438, -9428.896484375, -2.27117919921875, 69.10595703125, 318.069580078125, 168.73074340820312, 43105.34375, 774.3426513671875, 1055.1505126953125, 55371.69921875, -130.99412536621094, 124195.59375, -194.5063934326172, -287.4754333496094, 5309.91015625, -148396.90625, 39193.15234375, -47138.3125, -2030.4659423828125, 808.1397705078125, 22921.21875, 6119.279296875, -14673.494140625, -3732.673583984375, 0.7049409747123718, 548.542236328125, -0.09538406133651733, -8939.8203125, -5610.5830078125, 1487.9429931640625, 577.2346801757812, -111963.421875, 3.190338611602783, 11306.0634765625, 7748.98583984375, 2433.358154296875, 146.82321166992188, 1469.923095703125, 4328.125, 13090.89453125, -150.56277465820312, 69919.609375, 181.43031311035156, 11698.90234375, 3680.88427734375, 1958.102783203125, -13497.099609375, -1097.3956298828125, 232.68557739257812, 635.9779052734375, 1107.3306884765625, 338.42047119140625, 1796.45654296875, 2440.429931640625, 7630.54296875, 14.491905212402344, -8999.55859375, 5212.82373046875, 465.0528869628906, 4.339468002319336, -569.594970703125, -800.54541015625, -167.10462951660156, 5978.19580078125, 36.51892852783203, -3255.7626953125, 1744.862060546875, -131856.359375, 3245.267578125, 21618.0625, 252.68954467773438, 105.20590209960938, 2314.09619140625, -6797.22509765625, 2268.568603515625, 280.86273193359375, -1931.795166015625, -37792.93359375, 675.444091796875, 34196.40625, 501.46435546875, 661.9640502929688, 8854.578125, 113.429443359375, -4822.296875, -41911.83984375, 1355.576904296875, 193.52590942382812, 20302.208984375, 20085.1953125, 12185.921875, -305122.90625, 70.18232727050781, -4513.71875, 61188.71875, -2275.25634765625, 252.2883758544922, -535738.75, 37393.640625, 54531.546875, 61600.7421875, -62112.796875, 896.2166748046875, -3950.359619140625, 2701.518310546875, 4583.57177734375, 85483.6171875, 5699.7451171875, 6758.12158203125, -2520.515625, -107.300537109375, 69522.234375, -494.4944763183594, 3435.0224609375, 41200.1171875, 2302.839599609375, 6.1721272468566895, 4461.1728515625, 1381.846923828125, 120.82036590576172, -109.1171875, 109.48971557617188, 23912.787109375, -16.890499114990234, 3852.638427734375, 32977.33984375, 6526.58984375, 10302.5126953125, 2094.25537109375, -2006.646728515625, 55501.1171875, -694.8982543945312, 13817.11328125, -25756.8203125, 795.8568725585938, 1384.75732421875, 659.6220703125, -26486.447265625, 385.8309326171875, -976.24365234375, 15.957229614257812, -33950.1640625, -316.1876220703125, -62.231353759765625, -125650.5390625, 2216.62451171875, -1027.781005859375, 4343.3681640625, 7647.63720703125, 491.88970947265625, 1893.9906005859375, -40795.046875, 5697.775390625, 273.951416015625, 101.97358703613281, -145992.0, 53287.08203125, 15465.5546875, -7819.69775390625, 529.8336791992188, 9600.0546875, -2468.93359375, -47459.9765625, 4300.021484375, 1237.9775390625, 618.3864135742188, 504.77862548828125, -1563.9317626953125, 132.07470703125, -263.98577880859375, 1098.55029296875, -4128.1767578125, 797.5798950195312, 172588.421875, 46.724693298339844, -130428.9375, -788.7667846679688, 3468.4697265625, -25256.015625, 1056.4903564453125, -17101.912109375, 109504.9375, -84.9749755859375, 12145.779296875, 2862.53369140625, 188248.1875, 68905.8828125, 10555.8134765625, -642.3989868164062, -49224.515625, 690.9967041015625, -27040.1484375, -29663.537109375, 26.775527954101562, -3870.45703125, -341.6829528808594, 8142.13525390625, 9298.73828125, 31828.470703125, -6927.52734375, 357.7689208984375, 12960.0234375, 18289.591796875, 28571.181640625, -32168.265625, -12329.265625, 3309.440185546875, 5280.35546875, 49127.78125, 19.090673446655273, -79431.921875, -115076.578125, -189.00323486328125, 33120.88671875, 1267.385498046875, 278.9351806640625, 2619.63916015625, -524.6502685546875, 14232.2646484375, -4865.79833984375, -33657.96875, 498.40032958984375, 9115.9931640625, -2674.421875, 81162.296875, 9024.73046875, -72207.140625, -50617.71875, 67491.5703125, 836.49853515625, 262.57305908203125, 10312.0087890625, -292761.9375, 5498.53662109375, 7098.2333984375, -51.57036209106445, 22.493362426757812, -96.77828216552734, 1829.65625, 1318.6171875, -176.90478515625, 66450.1171875, -1550.9564208984375, 76166.0390625, 11551.767578125, 961.1807250976562, -60.71038818359375, 3129.36328125, 892.3865966796875, 19006.2890625, 1622.20751953125, 433.4742431640625, -98.4725341796875, 151.82052612304688, 5750.00830078125, 2440.080078125, -120202.0625, -46873.484375, 9073.3828125, 433.27783203125, 1194.7406005859375, -50380.96875, -122938.578125, 1322.6396484375, 5319.505859375, 640.942138671875, 29.285659790039062, -164684.375, 282.7983093261719, -119.29071044921875, -126.38533020019531, 77394.6796875, 316.7948913574219, -234.37045288085938, 3616.5244140625, 580.2863159179688, -4675.63818359375, -9184.2998046875, -675.6815795898438, 287750.1875, 206.55543518066406, 21.27181625366211, 217.29995727539062, 1432.5638427734375, 3332.07568359375, -46867.7890625, 212.7794952392578, -31351.875, 2158.659912109375, 11092.119140625, -7140.24072265625, -20506.197265625, 537.1775512695312, 57611.0234375, -13937.2431640625, 3388.4599609375, -24.0599365234375, 32410.556640625, -1549.244873046875, -26.349807739257812, 714.0537719726562, 2327.95703125, -1093.96826171875, 32213.2109375, 5196.76220703125, 9741.0126953125, 204.49276733398438, -200.51260375976562, 1793.0804443359375, -27355.94140625, 781.34716796875, 2476.217041015625, 99.04534912109375, 16935.6171875, -436.7395324707031, 128672.421875, -390.453125, -142789.265625, -207.06295776367188, -159.6517791748047, 630.2728881835938, 118.60118103027344, 477.77874755859375, -6535.4580078125, 6458.58544921875, 18128.02734375, 20756.5078125, 2142.8974609375, 405.4482421875, 404.69683837890625, 78.26282501220703, -285.47930908203125, -994.6896362304688, 25722.26171875, -174.61065673828125, 628.5078125, -2777.12109375, 79868.1640625, 20849.705078125, 59210.12890625, 105.96285247802734, -155986.65625, 307.00909423828125, 8085.3056640625, 1158.691162109375, 1448.890625, -308123.5, 3602.16650390625, -197.5205078125, 1129.470703125, 1874.10107421875, 62207.30078125, 20341.66015625, -72.92121887207031, -386.6352844238281, -6.30746603012085, -2345.9130859375, -32755.22265625, -39.629634857177734, -15497.8916015625, 808.6939697265625, 999.1067504882812, 933.276123046875, -240.7677001953125, 3006.33154296875, -8753.767578125, 6832.4404296875, -214494.96875, -998.0546875, 12155.744140625, 289.7174377441406, 171.4454803466797, 9304.294921875, -638.1728515625, 84.53411102294922, -158008.546875, 843.4503173828125, 46.97557830810547, 25.905134201049805, 14233.5859375, 1142.078125, 55563.0078125, -340.81146240234375, 25766.69140625, 41.71156311035156, -159590.65625, 1065.21826171875, 5967.4814453125, 31.16876220703125, 15658.755859375, 1256.673828125, -52.00617218017578, 1799.002685546875, 2140.497802734375, 537.8314208984375, 487.51483154296875, -90.049072265625, 24451.158203125, -373288.6875, -5917.22265625, 1085.5902099609375, 11623.3212890625, -5176.498046875, 61505.03125, -2407.9736328125, 17883.36328125, 3793.709228515625, -4019.94140625, 5924.40234375, 3780.03076171875, 46915.8046875, 108.01348876953125, 365.6025390625, -262.768798828125, 502.73681640625, 1209.2960205078125, 729.0381469726562, 9076.6923828125, 3025.8046875, -2289.201171875, 614.8174438476562, 3407.301513671875, 166.693359375, 4992.482421875, 118227.90625, 507331.875, -117.13688659667969, 8766.609375, 65.86653137207031, 31365.07421875, 2266.2265625, 101.92527770996094, 1752.590087890625, -840.69921875, -234.1693115234375, -877.0971069335938, 338.4803466796875, 880.8995361328125, -26.77881622314453, 28748.078125, 5996.2109375, 18723.857421875, -4046.791259765625, 93930.71875, 211.1098175048828, 70277.03125, 27.188323974609375, 345746.875, -1302.6142578125, -2438.095703125, 286.969970703125, -140689.109375, -1560.659912109375, 4454.63427734375, 3978.67333984375, -25473.37890625, 194.8238067626953, 20.303260803222656, 22101.73046875, 127.56295776367188, -98452.65625, -168641.09375, 1000.1768798828125, 126842.546875, -1511.93505859375, 8006.083984375, 1107.7236328125, -5777.166015625, 1499.207763671875, -200.23158264160156, 195.92916870117188, 33.24958038330078, 229.0961456298828, 12074.0283203125, 341.51727294921875, -12081.8447265625, -2977.056640625, 237.5013427734375, -3879.0, 15807.326171875, 580.151123046875, 38688.70703125, -101.8097152709961, 12697.1376953125, 1307.7354736328125, 10819.96875, 13928.8671875, 2809.285888671875, 1374.25732421875, -241093.96875, 1516.349365234375, 13484.92578125, 2192.29052734375, -104463.7734375, 473.5035400390625, 4360.1513671875, -15417.525390625, -728.6015625, -577.638671875, -51446.09375, 18324.1328125, 955.0574951171875, 1137.6051025390625, 75562.7265625, 263.4845886230469, -7.4786376953125, 424.05181884765625, -4484.171875, 376.8115234375, -440.9346923828125, -1342.94091796875, 11056.14453125, 9032.8515625, 116077.15625, -1181.4432373046875, 23375.294921875, 1986.91259765625, -277.190185546875, -895.5477294921875, -91072.75, -38.10387420654297, 25762.33203125, 104.69619750976562, 2479.388671875, 144.1502227783203, 1904.605712890625, 5234.142578125, -7023.1982421875, -2178.243408203125, -21869.7734375, -158364.5625, 5081.74658203125, -17387.990234375, 8616.22265625, 85.64561462402344, 30958.845703125, -42739.0859375, -11874.41796875, 2058.052978515625, 439.0517578125, -15808.873046875, -2855.65625, 168.43154907226562, 113404.25, -339.1657409667969, 6896.4384765625, 297.2919921875, 459.364013671875, 1686.2164306640625, 311.63861083984375, -17605.83984375, 4441.6142578125, -11275.353515625, -5567.4560546875, 2111.284912109375, -28555.798828125, 1609.9578857421875, -472.5431213378906, 836.8261108398438, 196.80191040039062, -5826.71630859375, -18020.390625, 954.4314575195312, 76047.625, -642.8228759765625, 48578.84375, 1027.261962890625, -66.1279296875, 4791.59033203125, -38.32500457763672, -691.6192626953125, -53469.2265625, 53.936439514160156, 220.50595092773438, -9942.3349609375, -7251.720703125, 525.9462280273438, 9395.51953125, 215.07565307617188, -5578.20361328125, -15524.904296875, 43.20526123046875, 3901.46142578125, -8887.5, -121.67683410644531, 16077.8544921875, 1068.067626953125, 6764.86181640625, -23925.140625, 126.98567199707031, 3865.409912109375, 111.7544174194336, 14038.08203125, -4078.340576171875, 1148.7587890625, -5843.0947265625, -1970.51708984375]
3: [-387.34075927734375, 22.37030792236328, 1206.8548583984375, 6933.775390625, -506.95501708984375, 291.34625244140625, 287.4862976074219, -20.605363845825195, 543.1422729492188, -3.5584888458251953, 1.2389922142028809, -525.24169921875, -0.13555306196212769, -145.86923217773438, 499.8707580566406, -401.18194580078125, 374.0645751953125, -0.031646728515625, -1090.4697265625, 1989.145751953125, 167.72349548339844, 144.55142211914062, -4913.9423828125, 4753.09228515625, 29284.609375, 2212.012939453125, -364.20208740234375, 0.09129323810338974, -3500.1357421875, -14185.474609375, -495.52728271484375, -399.32940673828125, -104.2537841796875, 12817.154296875, 321.71661376953125, -1797.836669921875, -177.08401489257812, 7.8737311363220215, -597.3805541992188, 264.556396484375, 520.682373046875, 486.7926025390625, -526.00927734375, 1170.9586181640625, -459.52777099609375, 235.53631591796875, 1943.2919921875, -63.32646179199219, 473.9505615234375, 262.2191467285156, 437.2233581542969, 100.53601837158203, 6.470876693725586, -3061.864013671875, 4751.1357421875, 6319.09521484375, 9.589032173156738, 1980.701416015625, 269.6587219238281, 4438.01806640625, 1537.1151123046875, 1033.1051025390625, 249.489013671875, 449.8981018066406, 494.929931640625, 124.86151123046875, -55.111244201660156, 817.3714599609375, 4408.15869140625, 162.38613891601562, 28760.890625, 314.203369140625, 180.0296173095703, -51.38977813720703, -64.63505554199219, 798.3353271484375, 1245.18896484375, 3209.40966796875, 13047.28515625, -256.8251647949219, -56245.40625, 244.09400939941406, 6.453056335449219, -331.6114196777344, 139.3693389892578, 2526.52587890625, -1699.236572265625, 999.3602294921875, 77.03842163085938, 107.30972290039062, -7.788617134094238, 88.37266540527344, 1671.819091796875, 159.92007446289062, 163.26109313964844, 8.265087127685547, 113.7708740234375, 299.68487548828125, 13.555801391601562, 19063.859375, 1671.7545166015625, -97.11465454101562, 259.9942626953125, -111.17110443115234, 1070.928466796875, 2380.629150390625, 92.003662109375, -8.515401840209961, 1230.447021484375, 13984.16796875, -94.89112091064453, -24.55941390991211, 301.8147888183594, 1986.8780517578125, 8.180562973022461, 20.25552749633789, -464.58599853515625, 4880.2060546875, 1667.1373291015625, 2.202305793762207, 3130.15283203125, 249.48289489746094, -1598.36962890625, -33.59674835205078, 1937.3079833984375, 2234.23876953125, -40.255706787109375, -470.70880126953125, 646.5816040039062, -92.61862182617188, -29.27838897705078, 294.3649597167969, -22558.91796875, 3480.537109375, 33895.0390625, -11.328998565673828, -874.7117919921875, -3385.638427734375, 122.936767578125, 58.12391662597656, -1714.147705078125, -2542.7529296875, 746.4027709960938, -136.47119140625, -702.848876953125, 31.303197860717773, 23.5401611328125, 123.839111328125, -18276.642578125, 3.393786907196045, 508.6337890625, -7.8302154541015625, 1079.531982421875, 4701.04248046875, -354.5859375, 5.919167518615723, 692.6144409179688, -61.534812927246094, 377.0283508300781, 1315.9267578125, 21625.630859375, 396.5343322753906, 109.2076416015625, 292.1905212402344, 346.43865966796875, -2.9285621643066406, 353.06951904296875, 613.1925048828125, 1312.7161865234375, 85.51856994628906, 350.28363037109375, 66.67901611328125, 23701.64453125, -3351.8271484375, 705.541015625, 51.74259567260742, 652.9261474609375, 4328.25390625, -11433.5966796875, -125.20426940917969, -28299.2578125, -2197.91552734375, 2263.466064453125, 370.9244689941406, 336.31842041015625, -5.71097469329834, 599.490234375, -224.6212158203125, -137.96923828125, 449.513671875, -116.96919250488281, -33.52338409423828, 99.28561401367188, -71.06428527832031, 1434.5546875, 939.996826171875, 124.06462097167969, 345.5289306640625, -1922.908203125, 475.2098693847656, 591.8765258789062, 8110.48291015625, 14050.8134765625, -2.308380126953125, 577.469970703125, 1487.205810546875, 257.46893310546875, -13305.505859375, 939.819580078125, 82.31205749511719, 7050.03857421875, 490.1769714355469, 1719.93359375, 1.2116944789886475, 42.970703125, -3.4941794872283936, 3870.988525390625, 48.760440826416016, 251.22254943847656, -25.87887954711914, 26.015623092651367, -11.844375610351562, 2451.646728515625, -29.21654510498047, 78345.84375, 752.080810546875, -2052.255859375, 610.8065795898438, -18456.025390625, 55.8838005065918, -426.4978332519531, 1245.1314697265625, 14599.2392578125, 19.357650756835938, 6504.46044921875, 10.642284393310547, -70.8962631225586, 166.5631866455078, 1429.21337890625, 329.2286376953125, -23556.546875, -51.50065612792969, 19.406967163085938, -35.83078384399414, -2068.3076171875, 115.2417984008789, 29860.98046875, 2487.454345703125, 841.291259765625, 212.56837463378906, -2140.01806640625, 1054.488037109375, -91.65645599365234, 19.246809005737305, -2650.3974609375, 21.302722930908203, -11925.359375, 27.526962280273438, 454.15966796875, 13.346160888671875, 5867.478515625, -255.57855224609375, 25850.90625, -1.4814741611480713, -42361.6953125, 142.23025512695312, -1512.06884765625, 837.6761474609375, 7429.3486328125, 896.1236572265625, 2106.53515625, 41.29582977294922, 2722.916748046875, 3084.703857421875, -6684.375, 30.760120391845703, 454.56646728515625, 61.031585693359375, -17895.20703125, 20.43472671508789, -691.1817626953125, -2.3785247802734375, -29383.615234375, 3.0567803382873535, 6891.24072265625, 1350.472412109375, -10.53515625, 1321.929931640625, 3.0318236351013184, 37.751136779785156, 1462.93896484375, -643.4642944335938, 707.2129516601562, 5.134521007537842, 1703.510986328125, -453.0, 23.1678524017334, 11.597325325012207, -88.32780456542969, 23.165847778320312, -5685.9580078125, -214.950439453125, -30.389366149902344, 0.9918614029884338, -13286.4091796875, -1.8803253173828125, -1205.465576171875, -91.89961242675781, 9.40138053894043, 4023.845458984375, 698.0206298828125, -97.3658447265625, 161.55999755859375, 850.71142578125, 797.83544921875, 1342.405517578125, 10242.287109375, -1.7261862754821777, 281.8464050292969, 1663.9599609375, 91.54399108886719, -9.731346130371094, -13.826805114746094, -210.591796875, 153.8753662109375, 0.49292898178100586, 44.85365295410156, -151.7222137451172, 1463.91357421875, 26.381717681884766, -42.78497314453125, 666.357666015625, -92.9694595336914, 66.7366714477539, -2460.30908203125, 52.153038024902344, 53.255455017089844, -20.194042205810547, 5232.98388671875, 5.9137864112854, -1491.4033203125, -3.694188356399536, 511.1692810058594, -1465.6114501953125, -2355.94287109375, 3899.056396484375, 3554.126953125, 0.8818502426147461, 839.1873779296875, -13.9918212890625, -429.009521484375, 8945.46875, 384.755859375, 243.4351806640625, 1538.5693359375, 2597.03076171875, -15.432304382324219, 2915.328369140625, 1736.2476806640625, 4.046717166900635, -646.1488647460938, -52.28136444091797, 3950.84912109375, 125.93154907226562, -1780.046875, 11.876811981201172, 285.30230712890625, -84.31163024902344, -2344.62548828125, 17.28781509399414, -45631.71484375, -6.681077003479004, 1138.8544921875, 31.90890121459961, 1207.72119140625, 13.935958862304688, -3289.375, -18.97196388244629, 0.46657782793045044, 27.510766983032227, 352.3661804199219, 15.942045211791992, 1294.315185546875, 429.78155517578125, -2052.385498046875, 12.800878524780273, 273.8153076171875, -31.300310134887695, -8730.0439453125, 2249.95703125, -3955.474365234375, 13231.1865234375, -54.000572204589844, 142.10760498046875, 6277.61279296875, -116.81321716308594, -3505.889892578125, 1614.21533203125, 378.3980712890625, 4.065221309661865, 52.5643424987793, 413.881103515625, 69.95917510986328, -70.29549407958984, -3057.767822265625, -2.7896018028259277, 512.5489501953125, -230.89349365234375, 483.1123046875, 3190.923583984375, -191.06173706054688, -32.763427734375, 1409.000244140625, 29.822195053100586, -5119.75048828125, 179.6922607421875, 2117.00048828125, -118.0257568359375, -26377.734375, 2850.937744140625, -13611.8681640625, -14.227325439453125, 0.03692436218261719, 1913.091796875, -573.6566162109375, -1136.646728515625, 283.8321838378906, 0.543647289276123, -201.8327178955078, 1.8952722549438477, -240.930419921875, 94.9376220703125, 93.00839233398438, 24.833755493164062, -11288.044921875, 4.731342315673828, 685.5156860351562, 177.7499237060547, 333.9595642089844, 50.654266357421875, 753.469482421875, 835.2826538085938, 1394.023681640625, 4059.51416015625, -36383.73046875, 89.3317642211914, -197.71319580078125, 3831.148681640625, 1028.4541015625, -410.824951171875, 1802.576904296875, 141.76002502441406, 104.45472717285156, 230.76980590820312, 510.66748046875, 3343.048583984375, 246.93194580078125, 531.8456420898438, 14.857646942138672, -2764.52978515625, 201.62770080566406, 112.52484130859375, 1.6366461515426636, -274.32501220703125, 230.73353576660156, -11.243507385253906, 3327.724853515625, -1.3332059383392334, 229.47528076171875, 774.7753295898438, 52759.04296875, 420.1860046386719, -53904.19140625, 43.12611389160156, -21.61562728881836, 2750.244873046875, 248.2274932861328, 181.3407745361328, 36.77302551269531, 160.13784790039062, -14354.2138671875, 23.44715118408203, -5283.6572265625, -24.791366577148438, 348.73040771484375, 1340.3477783203125, -79.84796142578125, 301.606201171875, -511.7880859375, 2042.6572265625, 26.217130661010742, 7307.37255859375, 21707.369140625, 2597.18408203125, -45104.45703125, 29.993017196655273, -87.98861694335938, -2458.029541015625, -210.76797485351562, 43.39122772216797, -33129.0234375, -1174.78759765625, -3971.58251953125, -12771.302734375, -2793.18603515625, -21.27820587158203, 554.0979614257812, 4870.24462890625, 2995.366455078125, -16295.09375, 6092.15625, -1918.6044921875, -511.1346435546875, -30.604101181030273, 2233.929443359375, 25.657669067382812, 508.8216552734375, 2328.89892578125, -1492.651611328125, 2.7950570583343506, -3.8196029663085938, -98.92498779296875, 1.511453628540039, -274.5821228027344, 194.36216735839844, 1754.022216796875, 19.1650333404541, 1233.91357421875, 10912.541015625, -4411.1357421875, 1651.7119140625, 108.085693359375, 924.9948120117188, 12460.765625, 57.881866455078125, 17063.57421875, 967.967529296875, 51.810142517089844, 3035.54736328125, 205.60801696777344, -1128.90478515625, 369.12322998046875, 651.0299072265625, -433.8616943359375, -11202.96875, -83.67974853515625, -91.37705993652344, 6848.48828125, 540.2844848632812, -11.573103904724121, 40.2752685546875, 917.207275390625, 866.3920288085938, 1754.7109375, -3086.5068359375, 1282.5750732421875, 774.7572021484375, 16.426986694335938, -6154.4814453125, 4445.64794921875, -87.96856689453125, -4300.7314453125, 22.727344512939453, 4053.82080078125, 2910.0263671875, -2094.201171875, -279.1334228515625, -67.62342071533203, 97.42039489746094, 39.79902648925781, -9.940597534179688, 45.821407318115234, 445.15057373046875, 2832.537353515625, -6404.69873046875, -416.0561218261719, 4428.5673828125, 18.70574378967285, -5831.904296875, -475.6044921875, -95.2834701538086, -948.5986938476562, 368.1265563964844, -1122.6739501953125, 482.36865234375, 156.2866973876953, 616.7218017578125, 1779.046142578125, -26846.9921875, 4617.95263671875, 3425.77001953125, -142.90179443359375, 2947.87353515625, 675.8863525390625, 2829.6904296875, 1811.8580322265625, 211.77220153808594, -2268.292236328125, -335.3046875, 82.77659606933594, 2080.89404296875, 2612.23193359375, -3096.2626953125, 99.02273559570312, 11453.3203125, 1861.355712890625, 2750.83837890625, 925.943359375, -637.6578369140625, 2488.7587890625, 5335.58935546875, -19252.83984375, 34.51198196411133, -12996.6787109375, 7037.310546875, 316.57891845703125, 2985.253662109375, -41.62556076049805, 1151.2894287109375, 693.3668212890625, 38.79688262939453, 1220.040283203125, -1413.156982421875, -1042.119140625, -29.367998123168945, 1056.2484130859375, -34996.1484375, 16784.00390625, -2314.25048828125, -8987.943359375, -7473.87109375, -2567.602783203125, 68.21453857421875, 158.75180053710938, 518.7548217773438, -36483.875, -123.60711669921875, 5953.2919921875, 149.663330078125, 14.253456115722656, 43.23795700073242, -8757.931640625, 74.17121887207031, 198.15451049804688, -75035.0078125, -533.291259765625, -19481.126953125, 2991.745361328125, 1389.9705810546875, -64.5140380859375, -10195.6591796875, -88.64640045166016, -685.8950805664062, -111.578857421875, 18.740175247192383, 193.8217010498047, 109.1831283569336, 1039.63330078125, -1291.253173828125, -17152.51171875, -2502.01513671875, 11169.447265625, 191.33334350585938, 45.81419372558594, 8.42626953125, -9125.740234375, 1581.090576171875, 1685.3416748046875, 467.6582946777344, 12.546560287475586, -30242.36328125, 2050.10693359375, 9.404417037963867, -18.459869384765625, -30050.37890625, 33.89166259765625, 892.8421630859375, -415.7135009765625, 353.8807373046875, -495.00164794921875, -627.8766479492188, -91.56209564208984, 5825.2685546875, 5.5949201583862305, 0.03665459156036377, -119.10678100585938, 92.29183959960938, 123.91252899169922, 1115.7349853515625, 88.298095703125, -5545.091796875, 3327.055908203125, 1590.9334716796875, 1202.080078125, 8516.2939453125, 75.27066040039062, -1057.1025390625, -2660.175537109375, 3727.196533203125, -593.5578002929688, 371.79443359375, -73.51754760742188, 42.93696594238281, 90.41160583496094, -3090.538818359375, -492.1339111328125, 3395.735595703125, 572.8154907226562, 1828.975341796875, 158.70458984375, 321.6400146484375, 1470.8079833984375, 7550.263671875, 32.71780776977539, -3045.64892578125, 19.34762191772461, 2558.572509765625, 29.520475387573242, 4913.77978515625, -48.19324493408203, -10367.48046875, -73.86207580566406, 316.62457275390625, -70.53691101074219, 6.471462249755859, 127.88347625732422, 1932.1827392578125, 701.4879760742188, 1037.6348876953125, -2445.53076171875, -57.27309799194336, -28.525802612304688, 31.081520080566406, 71.41404724121094, 127.94586944580078, -102.40253448486328, -18328.115234375, -28.701444625854492, 1100.99169921875, -105.0791015625, 8329.787109375, 1540.4957275390625, 1466.8489990234375, 19.987565994262695, -17770.80859375, 54.66904067993164, 436.978271484375, 977.655029296875, 13380.5361328125, -7050.013671875, -672.7635498046875, -21.9145450592041, -47.41779327392578, -90.92826080322266, 1587.1622314453125, 987.984375, -4.0767436027526855, -47.179725646972656, -46.74933624267578, -80.7276611328125, -2486.93115234375, 25.739551544189453, 215.068359375, 4.301168441772461, 27.7430419921875, 3382.25341796875, 341.2933044433594, 632.2918090820312, -947.2479858398438, 1429.41845703125, 29399.130859375, -44.91141891479492, 511.38153076171875, -3.5628762245178223, 8.881040573120117, 1050.9854736328125, 217.35789489746094, 37.877079010009766, -29505.333984375, 1050.3577880859375, 255.36529541015625, 7.042200565338135, -9865.849609375, 1834.783447265625, 12190.9931640625, -31.602489471435547, -1028.5009765625, 14.905187606811523, -12062.216796875, 266.0398254394531, 2529.2763671875, 43.467777252197266, -374.44580078125, 747.5067749023438, -13.741788864135742, 68.190185546875, 341.61260986328125, 251.95355224609375, 13.558270454406738, -11.616636276245117, 967.4788818359375, -3054.772705078125, 373.70855712890625, 21.128902435302734, 925.8218994140625, 159.10467529296875, -587.3125, 577.7598876953125, -6137.7890625, 4814.56982421875, -738.4736328125, 92.225830078125, 37.35833740234375, 7019.0947265625, 3.4387879371643066, -409.29949951171875, 15.759883880615234, 463.83837890625, 647.310302734375, -29.974788665771484, 652.85009765625, 1459.76513671875, 2331.931640625, 150.9553680419922, 27.983444213867188, 69.1846694946289, 12.202239990234375, 7653.892578125, -9069.63671875, -33.47351837158203, 1812.1109619140625, 22.220691680908203, -5711.88427734375, 2975.869140625, 29.679311752319336, 1999.7613525390625, -2335.691162109375, -88.503173828125, 1795.9580078125, 12.668922424316406, -78.70869445800781, -19.409889221191406, 2461.767333984375, -16762.36328125, 454.41375732421875, -182.92062377929688, 7020.6640625, 38.46284484863281, 868.7239990234375, 41.421016693115234, 3139.62890625, 383.967041015625, -131.36029052734375, -54.30108642578125, 11672.91015625, -73.7027359008789, -1099.95849609375, 182.40850830078125, -6946.77392578125, 167.18173217773438, 14.276455879211426, 5558.64599609375, 62.37676239013672, 4002.056396484375, 11501.39453125, 160.32455444335938, 13080.8212890625, 492.84246826171875, 145.29913330078125, 334.6741638183594, 10891.900390625, 1062.7249755859375, 438.2935791015625, 13.259769439697266, 17.107370376586914, 6.995861053466797, 5846.041015625, 53.91057586669922, -2501.344482421875, -2043.021728515625, -12.117639541625977, -13.789306640625, 985.45654296875, 17.12887954711914, -42837.734375, 76.94297790527344, 1662.012939453125, 113.62724304199219, -646.3240356445312, 4437.85693359375, 213.48171997070312, 897.9076538085938, -62379.3125, 36.668487548828125, 2713.35888671875, 230.06658935546875, -4281.48291015625, -2.4081974029541016, 15.397903442382812, -2498.071044921875, 2808.2060546875, -63.578277587890625, -88094.859375, 6055.40673828125, 39.580421447753906, 1686.1365966796875, 4370.673828125, 69.63321685791016, 158.7811279296875, 23.24716567993164, -7010.63623046875, -14.979157447814941, -223.83349609375, -54.59418869018555, 967.359619140625, -573.291259765625, -14881.544921875, 72.62088012695312, -1739.8685302734375, 1091.599853515625, 2863.07666015625, -10.13055419921875, -4513.2666015625, 20.18512725830078, 4199.71875, 45.693443298339844, 195.14215087890625, 75.52433013916016, -195.5124969482422, 219.8309326171875, 774.9580078125, 520.0877685546875, -4329.033203125, -5796.2880859375, 278.268798828125, -6281.3759765625, -476.2008056640625, 3.8868722915649414, -1544.80126953125, -3120.302734375, -3652.79248046875, 1424.2481689453125, 5.058373928070068, 7482.57275390625, 93.73341369628906, 107.7171401977539, -8024.74951171875, 13.41387939453125, -205.3662109375, 253.9417724609375, -3.455206871032715, 1202.96630859375, 461.2257995605469, -1229.749267578125, -771.9822998046875, -1745.142578125, -1256.4439697265625, 1149.2904052734375, 259.261474609375, 2054.20458984375, -30.390975952148438, 1540.737060546875, -0.9655213356018066, -1339.661376953125, 194.5579833984375, 288.6403503417969, -17317.3515625, -15.933599472045898, 1948.63525390625, -6.440798759460449, 2823.316162109375, 496.2519836425781, 37.04996109008789, -182.15142822265625, -12456.1591796875, 15.106962203979492, 79.84595489501953, -960.7694091796875, 5470.357421875, 379.24530029296875, 1390.548828125, -34.503047943115234, 3062.2822265625, -1764.9615478515625, 735.4396362304688, -375.40716552734375, 272.3297119140625, 20.272146224975586, 1446.662109375, 479.932373046875, 1317.222900390625, -7988.74267578125, 22.758359909057617, 2789.93212890625, 3.160198450088501, -1129.4140625, -746.4512329101562, 698.2418212890625, -954.1472778320312, -546.4537353515625]
4: [920.3984375, 15.998886108398438, 20291.02734375, -506.9555969238281, 82398.28125, 248.3206787109375, -235.85812377929688, 140.1193084716797, -557.9320678710938, 72.64257049560547, 262.26287841796875, 3431.157470703125, 3.1490323543548584, 769.7422485351562, -136.69268798828125, -6457.43115234375, 647.956787109375, -917.3955688476562, 10592.01171875, -10225.083984375, 2196.954345703125, 85.930419921875, -24209.921875, 145.98834228515625, 45320.20703125, 12377.640625, -2333.8095703125, 0.5799960494041443, -41857.125, -51834.3125, 582.3502197265625, -3480.515625, 1148.854736328125, 35746.30078125, -2080.782470703125, 1503.48095703125, 786.9630126953125, 3.4887962341308594, 376.8541259765625, 1436.7158203125, 36.959381103515625, 744.7273559570312, -10007.1845703125, 3709.5810546875, -497.8094787597656, 4241.7099609375, -4043.57958984375, 544.6182861328125, -102861.53125, -768.8314208984375, 2588.4833984375, 4.973445892333984, 160.09982299804688, 20000.70703125, 31561.96875, 1370.14306640625, -3.9114489555358887, 29555.943359375, 1137.098388671875, 1274.060546875, 22153.43359375, 1498.2081298828125, 1261.32177734375, -106.16082763671875, 3054.96142578125, -405.6683349609375, 494.90118408203125, -75.027099609375, -4446.865234375, -204.91653442382812, 13262.24609375, -3107.75732421875, 112.77388000488281, 333.6470642089844, 2170.669921875, -2166.10546875, 16959.98046875, 2561.77587890625, 6566.4208984375, -7125.30419921875, -257944.9375, 146.80133056640625, 24.8121337890625, 723.3595581054688, 1297.9189453125, -1356.666015625, -21415.9609375, 493.84759521484375, -71.67621612548828, 122.44570922851562, 6.152340412139893, -2888.551025390625, 8590.078125, -163.190673828125, 122.97125244140625, 3.0852251052856445, -1271.774169921875, 226.45901489257812, 1094.75048828125, 7768.6865234375, 8999.57421875, -642.7910766601562, 122.25167083740234, -762.0217895507812, -2492.486572265625, -714.838623046875, 2678.14794921875, 40.431854248046875, -3007.421875, 10872.5546875, -153.808837890625, 141.0476531982422, -399.1053466796875, 633.0087280273438, -12.48422622680664, 37.89837646484375, -3919.4033203125, 22200.291015625, 100.44244384765625, 0.38356804847717285, 22192.396484375, -64.615966796875, -1661.8455810546875, -314.3975830078125, 454.531494140625, -8087.44921875, 562.1046752929688, 1686.346923828125, 284.32098388671875, -103.47442626953125, 78.61776733398438, 329.85577392578125, -8363.421875, 12455.158203125, -125117.15625, -54.68621826171875, 1628.9150390625, -10948.3837890625, -29346.076171875, 124.66450500488281, 19931.052734375, -22041.1171875, 4200.12646484375, -32903.171875, -4323.37060546875, 47.97772216796875, -3098.5224609375, 580.2972412109375, 13803.15234375, 115.96971130371094, 3038.28369140625, 172.58331298828125, 960.4122314453125, 13883.787109375, 18500.21875, 31.74960708618164, -1975.6866455078125, -69.32376098632812, -62949.5625, -3266.58642578125, 14700.28515625, 2090.77587890625, 6241.0537109375, 470.1436767578125, 1501.49658203125, 24.156402587890625, -1007.4511108398438, 1568.312255859375, 23468.8125, -30.316085815429688, 3134.24365234375, -664.54345703125, 146714.0625, 3960.279296875, 280.8576354980469, -212.1920166015625, 8971.2705078125, -1835.444580078125, -77383.796875, -2400.419921875, 43195.28125, -8600.2138671875, -20838.734375, 397.51861572265625, 58.90478515625, -301.6695861816406, 2861.107666015625, 458.3052978515625, -5077.443359375, -5366.0068359375, 21.26678466796875, -137.80227661132812, -75.5848388671875, -665.736083984375, 10679.23828125, 4814.552734375, -62.23291015625, 2654.9267578125, -4158.3525390625, 965.7244262695312, 66.85549926757812, 1037.62353515625, -31753.353515625, -382.01422119140625, 116.4876708984375, 386.3009033203125, -168.97386169433594, -8128.5859375, 1394.239013671875, -127.19002532958984, 1022.02294921875, 584.1102294921875, 84260.515625, 2.0574755668640137, 48.103515625, -3.7706527709960938, 2075.1533203125, 248.28472900390625, 909.9073486328125, -112.29054260253906, 150.58778381347656, 34.83039093017578, 12050.9619140625, -152.1379852294922, 4926.8671875, -893.8692626953125, 3868.35595703125, 16588.171875, 60542.171875, -126.00384521484375, 103.9735107421875, 1173.40087890625, -39360.82421875, -86.1429214477539, 3056.287109375, 75.42558288574219, 222.20526123046875, 272.12982177734375, 2278.8359375, -1352.2177734375, -9180.6796875, 427.66937255859375, 79.92723083496094, -50.53582763671875, -12675.859375, 161.05563354492188, -2256.7412109375, 48682.0234375, -1796.7027587890625, -412.0395202636719, 42814.390625, 438.388671875, -1974.754638671875, -16.76987648010254, 14054.947265625, -46.958282470703125, 17360.78515625, -15.997430801391602, -855.123046875, -142.8079833984375, 8173.365234375, 188.6587677001953, 61420.00390625, 24.737442016601562, -201652.78125, 176.69151306152344, 14099.35546875, 10161.2734375, -286475.3125, 842.450927734375, -370.53033447265625, 24.916255950927734, 27454.69921875, -11566.7265625, 27258.296875, 316.1993713378906, 733.760498046875, -48.72111511230469, -233036.5, -74.51779174804688, 15917.8798828125, 1.4379701614379883, -160613.625, -0.2774538993835449, -16934.46875, 11019.494140625, 389.53485107421875, -3853.074951171875, -9.224227905273438, 8.460201263427734, 1172.6837158203125, -397.818603515625, 11904.0947265625, -2.042543888092041, 4144.953125, 909.516845703125, -28.656766891479492, 69.90950012207031, 323.292724609375, 711.2152709960938, -14243.263671875, -956.2864990234375, 288.3514709472656, -0.5334593057632446, 21159.5, -911.311279296875, 1227.6473388671875, -305.2930908203125, 6.3301544189453125, 1335.0506591796875, -252.58740234375, 838.822021484375, -799.271240234375, 13719.86328125, 4052.616455078125, -533.4718017578125, 16730.515625, -94.5655746459961, 987.757568359375, 9446.27734375, -87.19583892822266, -41.301910400390625, 2045.46142578125, 830.371826171875, 67.9007568359375, -45.56985855102539, 41.92371368408203, 148.7320556640625, -15607.5830078125, 8.340723037719727, 618.3267822265625, -2915.464111328125, 51.839599609375, -114.0660400390625, -7155.2099609375, -604.8963012695312, 911.7965087890625, 40.80242919921875, 9385.4453125, -2.8220672607421875, 58264.109375, 0.8466644287109375, -859.1931762695312, 5521.98828125, -51491.01953125, -130.35037231445312, 73098.0234375, -11.998848915100098, 1379.139404296875, 112.38801574707031, 4607.1318359375, 4688.75048828125, 3169.90625, 2739.1435546875, -3185.75634765625, 2686.322998046875, 33.72261047363281, 4841.1513671875, -1482.796875, 1.4721941947937012, 1390.22607421875, 87.49767303466797, 22991.05859375, 128.2912139892578, -15425.05859375, 31.732101440429688, 87.7842788696289, 316.0874938964844, -5858.73828125, 8.61662483215332, 69599.640625, 48.92521667480469, 3546.542724609375, 58.137664794921875, 432.0625, -15.881807327270508, -3209.265625, -129.92874145507812, 0.11842161417007446, -35.90855026245117, 4498.5771484375, 57.63551330566406, 2929.89306640625, 2311.0888671875, -2331.11181640625, 8.188714027404785, 171.45849609375, 348.73126220703125, 14007.173828125, 12974.5068359375, 11553.4296875, -81755.65625, -236.79847717285156, 204.17010498046875, -7856.48583984375, 325.37713623046875, -5664.7412109375, 1220.0711669921875, 90.22929382324219, -0.7342777252197266, 121.01597595214844, 1374.868408203125, 141.4958038330078, -241.54315185546875, -39756.72265625, 3.4117660522460938, -606.4834594726562, -479.6224365234375, 213.67593383789062, 31746.0, -70.3363037109375, -292.5648193359375, -17269.23828125, 177.2225341796875, 67940.21875, 245.92578125, 740.9920043945312, -254.6728515625, -24177.0390625, 31985.31640625, -6300.390625, -14.532516479492188, 486.0671691894531, 18485.03515625, 6344.7099609375, -1645.4375, -3208.71630859375, 0.06177717447280884, 1046.050537109375, -1.7669873237609863, 8402.583984375, 398.48236083984375, 195.00404357910156, 358.0106201171875, -34784.23046875, -7.529768943786621, 1313.20751953125, -1797.647705078125, 2193.654052734375, 867.1239013671875, -28.36309814453125, 5223.966796875, 7090.939453125, 1459.9791259765625, 86864.625, 162.2813720703125, 20575.048828125, 2512.390380859375, -3858.3359375, -121.59136962890625, 2413.263916015625, 149.4986572265625, 872.4561157226562, 307.299560546875, -451.09027099609375, 1359.3092041015625, 985.1332397460938, -93.86602783203125, -7.771164894104004, 1032.34326171875, 3713.18359375, 174.33135986328125, 0.3019425868988037, -2699.63427734375, -1011.4988403320312, 26.76934051513672, 1641.8167724609375, 16.323421478271484, -1823.3494873046875, -1140.78759765625, -71502.796875, 992.2742919921875, 11153.833984375, 115.45976257324219, 186.713134765625, 473.9647216796875, 80.78814697265625, -21.81201171875, 111.98892211914062, 1452.208984375, 1224.65625, 169.63723754882812, -73035.3828125, 281.7833557128906, -56.08624267578125, 1997.6083984375, 125.41049194335938, 9957.54296875, 36466.78125, -954.37548828125, 160.62808227539062, 7490.90234375, 15725.1884765625, -1947.6220703125, -28634.9609375, 372.3076477050781, -2249.851806640625, 15500.3828125, 1363.840576171875, 297.96380615234375, -178963.15625, -1741.3388671875, 48475.5546875, 56238.3828125, -11777.71875, -285.6228332519531, 5712.29248046875, -107.7623291015625, 473.8418273925781, 43730.30859375, 6259.630859375, 3178.080322265625, 5567.52734375, -147.30410766601562, -31019.92578125, 136.72860717773438, 2508.734619140625, 12142.01953125, 8215.9462890625, 1.4373064041137695, 2566.5517578125, 96.95233154296875, 43.698219299316406, -248.717529296875, -72.97187805175781, 10506.953125, -50.301536560058594, 2195.8779296875, -7530.25, 30781.328125, 6432.70556640625, 429.5010681152344, -2861.4873046875, 19750.513671875, 773.6525268554688, 2589.29150390625, -616.701171875, -485.68487548828125, 2600.445556640625, 212.63058471679688, -42855.93359375, -60.3709716796875, -1435.3804931640625, -53.85009765625, -95000.359375, 87.2398681640625, 555.367919921875, 22438.72265625, 164.3240966796875, -320.69647216796875, 2323.128173828125, -509.5928955078125, -80.92803955078125, 1294.356201171875, -16241.4609375, -2806.90576171875, 717.847900390625, -24.251556396484375, -13626.12109375, 553.62890625, 6539.97509765625, -19758.91015625, 85.57373809814453, -2846.947265625, 22636.716796875, 14973.796875, 5728.109375, 308.953125, 83.2804946899414, 15.848175048828125, -729.8046264648438, 31.405635833740234, -163.54592895507812, 497.5652160644531, -7843.86962890625, 817.9260864257812, 43288.06640625, 18.940414428710938, -3329.42236328125, 492.448486328125, 6088.0087890625, -6018.7314453125, 996.982421875, 1710.09423828125, 19385.388671875, -391.1082763671875, 10891.7900390625, 1304.93896484375, 241.375, -5408.97265625, -13089.912109375, -300.24102783203125, 7878.81298828125, 214.61251831054688, -3422.470703125, 58518.51953125, -257.88067626953125, 4669.0849609375, 634.7579345703125, -1635.247314453125, 7942.94873046875, 4065.294921875, -18692.62890625, 46.224456787109375, 8492.4072265625, -177.45672607421875, 10613.4541015625, -1391.42919921875, 6320.7919921875, -544.7850952148438, 40933.8671875, 100197.2734375, 21.444683074951172, -18250.1953125, -21829.685546875, 315.83599853515625, 20274.53515625, 1074.542724609375, 1742.1304931640625, -1401.3883056640625, -543.4761962890625, 6175.25439453125, 480.36865234375, 20198.48046875, 339.56964111328125, -50.9375, -40065.921875, 71008.859375, 15637.0205078125, -24697.58203125, 27801.671875, -71191.8671875, -129.89398193359375, -51.85693359375, 6082.033203125, -12509.24609375, -73.645751953125, 3305.840087890625, -21.184463500976562, 13.265121459960938, -188.28778076171875, 7076.328125, 355.043701171875, 1107.043701171875, 62537.62890625, 2078.545166015625, 23723.6640625, -6002.46826171875, 1110.106201171875, 193.21728515625, -6992.921875, 158.2010498046875, -15934.2392578125, 2612.58837890625, 98.31256866455078, 86.4005126953125, -72.15460205078125, 1181.8369140625, 4111.34228515625, -33963.49609375, 11378.6083984375, -9109.220703125, 253.51583862304688, 285.4469909667969, -84378.4375, 26997.228515625, -1197.04931640625, 4131.7998046875, -164.2578125, 4.017697334289551, -90072.15625, 70.25494384765625, 95.4705581665039, -154.861083984375, -512.28369140625, 181.4705810546875, 1155.5809326171875, 11697.7177734375, 224.71084594726562, -2741.2197265625, 4300.68017578125, 62.54228973388672, 39682.765625, 11.325263977050781, 1.0885248184204102, -865.2473754882812, 241.37417602539062, 861.5700073242188, -33502.9140625, 41.368804931640625, -27732.0859375, 2079.1357421875, 11956.119140625, -1882.08447265625, -21975.13671875, 328.0296325683594, 16997.830078125, -6486.029296875, 2910.388916015625, -159.8040771484375, -2781.15625, -7.40960693359375, -47.40830612182617, -262.7148742675781, 9914.640625, 202.626220703125, 16319.9990234375, 3521.807861328125, 5.1083984375, -59.6630859375, 29.641061782836914, -315.39501953125, 2028.8095703125, 90.01091003417969, -155.6036376953125, 79.13238525390625, -7263.14599609375, 586.3531494140625, -2267.07421875, -92.00519561767578, -141471.765625, 184.56077575683594, 1485.5260009765625, -577.5291748046875, 23.884193420410156, -41.4610595703125, -5400.22900390625, 4095.937255859375, 17694.892578125, 21945.525390625, 1146.305419921875, 65.27020263671875, 161.5692138671875, -64.26288604736328, -99.45378112792969, 73.94161987304688, -8693.6015625, 68.38301849365234, -902.7890014648438, 113.09286499023438, 55067.30859375, 7763.13916015625, 15206.736328125, 26.51586151123047, -21696.265625, 107.93414306640625, 292.161865234375, -279.3521423339844, -78803.9453125, -93143.5625, -6299.46630859375, -227.15084838867188, 1449.7470703125, 87.4105224609375, -4237.1953125, 8581.341796875, -32.094261169433594, -254.4710693359375, -100.93698120117188, 33.942840576171875, -7552.0859375, 6.099544525146484, 5010.88330078125, 1669.8358154296875, 377.4063415527344, 2029.5557861328125, 34.73798751831055, 2031.73974609375, -5045.94189453125, 1302.0595703125, 52756.26953125, -209.0482177734375, 14832.400390625, 27.454574584960938, -11.127840042114258, -4288.376953125, -388.2108154296875, 42.38812255859375, 81117.984375, 472.48199462890625, -40.054412841796875, 4.707294464111328, -49594.8515625, 1205.9107666015625, -19025.845703125, 18.726417541503906, -33907.9921875, 0.6429634094238281, -307148.6875, 2530.049560546875, 243.271484375, -26.42961883544922, -7932.458984375, 6713.8359375, 55.5225830078125, 909.0916748046875, 1656.1002197265625, -224.79263305664062, 132.2169189453125, -336.21197509765625, 10305.931640625, -153403.375, 749.086181640625, 391.59649658203125, 3880.099365234375, -7011.9970703125, 42168.015625, -450.450927734375, 9849.4814453125, 2378.15576171875, -830.892822265625, -63.681640625, 6176.6025390625, 19097.69140625, 29.289291381835938, -3547.79931640625, 154.76051330566406, -6677.28857421875, 360.1058349609375, 388.6371765136719, -1021.2890625, -712.5155639648438, -1528.36181640625, 86.91983032226562, 662.1788940429688, 140.5560302734375, 1795.078857421875, 29813.494140625, 9491.8125, 52.0225944519043, 14754.4365234375, -4.642707824707031, -55674.59765625, 675.149169921875, 11.853046417236328, 1361.4072265625, 46367.6875, -1853.9793701171875, 241.5045166015625, 158.00682067871094, 385.65496826171875, 42.00834274291992, 20568.51171875, 30204.7265625, -347.76947021484375, -2058.033447265625, 170482.453125, 33.860008239746094, 17511.900390625, 18.811283111572266, 8530.177734375, 4262.3642578125, 2084.0966796875, -520.578369140625, -270018.4375, 479.0929870605469, 7874.806640625, 1905.24169921875, -17766.69921875, 118.5975112915039, -1.4604415893554688, -6617.515625, 47.93077850341797, -22119.01953125, 2761.90234375, 378.0367736816406, 46615.9375, -1144.70556640625, -395.835693359375, 313.51654052734375, -17095.392578125, 194.4560089111328, -1303.420166015625, 0.2928314208984375, -62.132476806640625, 421.86724853515625, 5493.7626953125, 257.3016357421875, -1432.0576171875, -9153.240234375, 118.022705078125, 1283.353515625, 8052.373046875, 121.2374267578125, -59875.83203125, 11.324554443359375, -12313.076171875, 650.8056640625, -6515.751953125, 1172.45556640625, 1962.4298095703125, 606.8729858398438, 19337.80859375, 1376.7916259765625, 4809.974609375, 2016.221435546875, -24079.345703125, 144.7810516357422, 192.81924438476562, 14688.123046875, -12549.646484375, 114.64930725097656, -208337.90625, 15905.912109375, 12.98809814453125, -606.0253295898438, 25543.123046875, -160.2970733642578, -596.4635009765625, 286.83709716796875, 37839.5625, -28.593116760253906, 1036.8045654296875, 349.51483154296875, 5225.27734375, 922.9267578125, -27933.609375, -663.2221069335938, 9729.6103515625, 519.3219604492188, 2079.474609375, -1215.0980224609375, -833.341796875, 53.019065856933594, -9096.59765625, -102.38914489746094, 1413.062255859375, 21.538475036621094, 267.18212890625, 538.53515625, 4773.70166015625, -2512.73095703125, -8758.10546875, -116947.984375, 1897.572998046875, -4950.208984375, 1374.583740234375, -9.267457962036133, 13705.8193359375, 15549.6318359375, -21003.125, -244.49072265625, 142.4857635498047, 23142.126953125, -1402.1190185546875, 98.63916015625, -9202.693359375, -277.76812744140625, 2680.234375, 310.813232421875, 533.7090454101562, 85.93643951416016, 117.95526123046875, -2958.4560546875, 6290.642578125, 7601.6953125, -3771.083984375, 30.6328125, 17054.390625, 1048.252197265625, 21.15869140625, 728.7069702148438, -9.434303283691406, -3179.175048828125, -611.4580078125, 185.02191162109375, 8251.0, 376.9600524902344, 35208.9140625, 549.656494140625, -6311.44140625, -3920.240234375, 63.08440017700195, 623.8344116210938, -55984.35546875, 74.97427368164062, 109.37528991699219, 2485.94140625, -13217.181640625, 266.70648193359375, 9244.2431640625, 46.28459167480469, -4315.0830078125, -2643.64404296875, -583.9832763671875, -347.066650390625, -419.90655517578125, -6.020057678222656, 6821.4638671875, -220.284912109375, 4595.283203125, -6115.05078125, 450.9541015625, 1662.817138671875, 14.912307739257812, -52706.7265625, 3516.43798828125, 1112.6767578125, -2064.32080078125, 1859.49560546875]
