0: [0.0088567603379488, 3.481473186184303e-06, -5.114998202770948e-06, -0.0007336948183365166, 0.0016045751981437206, -1.0238709364784881e-05, 2.7654259611153975e-05, -0.00012528097431641072, -0.00016961524670477957, -3.295220813015476e-05, -0.00013392585969995707, 0.0010211938060820103, -1.6888903928702348e-06, 0.00046220162766985595, -0.00036259673652239144, 0.0005713960854336619, 2.251839032396674e-05, 0.0002989444765262306, 0.0005010489840060472, 0.0012928543146699667, 2.292135832249187e-07, 2.5120538339251652e-05, 0.006209464278072119, -0.000638782512396574, -0.011805562302470207, 0.008259315975010395, -0.002683832310140133, -6.231031193237868e-07, -0.0016124690882861614, 0.0034877676516771317, -0.00021717208437621593, 0.001871772576123476, 0.00036804366391152143, -0.006297623738646507, -4.2244355427101254e-06, 0.0014108074828982353, 0.00020134300575591624, 5.293550771057198e-07, -0.0002741689095273614, 0.0005304019432514906, -2.1821002519573085e-05, 0.00014218271826393902, 0.00024114229017868638, 9.602701175026596e-05, -0.0004297229170333594, 0.00011097108654212207, 0.002477268222719431, 0.0002219375455752015, -0.01572592556476593, -0.0008560753776691854, -0.0012605726951733232, 6.87313422531588e-06, -5.271933332551271e-06, -0.002493829932063818, 0.0006440169527195394, 0.005128965713083744, 1.407912463946559e-06, 0.000294053228572011, -3.0690571293234825e-05, -0.0008870502933859825, -0.0007055398309603333, -0.0005333573208190501, 8.550423081032932e-05, 0.00012420360872056335, -0.0031790260691195726, 0.00018662080401554704, 3.2901876693358645e-05, -0.000106716004665941, 0.0015160908224061131, 2.1750851374235936e-05, -0.005624901503324509, -0.00011509447358548641, -5.914132634643465e-05, 6.290751480264589e-05, -0.000732436659745872, 0.0006262477836571634, -9.629374835640192e-05, -0.0005681766197085381, -0.0013731637736782432, 6.625153764616698e-05, -0.005386918783187866, 8.528008038410917e-06, 1.7104279322666116e-05, 0.00024671899154782295, 0.0003654328465927392, 0.004769674502313137, -0.007286776788532734, 0.00014801690122112632, 1.050096943799872e-05, -7.175559585448354e-05, 7.3764645094342995e-06, 9.311239409726113e-06, -0.0013535355683416128, 0.00021765637211501598, 2.927158675447572e-05, 1.4853561651761993e-06, 0.00011065880244132131, 0.00021192590065766126, -0.0006814672378823161, -0.0022959059569984674, 0.0028488649986684322, 2.875396421586629e-05, -0.00019161631644237787, 8.0638870713301e-05, -0.0005905514117330313, -0.0005206677014939487, 0.0003925807250197977, -6.710358866257593e-05, 0.00030969173531048, -0.01101408526301384, 9.682936070021242e-05, -0.0001722169399727136, -2.695667717489414e-06, -0.0003411008510738611, 5.902388124923164e-07, -7.421163172693923e-05, 0.0008875436615198851, 0.01115582138299942, -0.00010103010572493076, 5.3866187954554334e-08, 0.004797531757503748, 6.81073433952406e-05, 0.0005524837179109454, -1.714198697300162e-05, -2.882418266381137e-05, -0.00022303825244307518, 1.0377443686593324e-05, -0.0004010480479337275, -7.19427116564475e-05, 5.7436569477431476e-05, -0.00013226426381152123, -0.00011245678615523502, 0.055566638708114624, 0.0008758938638493419, -0.0168185755610466, -5.808651985717006e-05, -0.0006825552554801106, 0.006274514365941286, 0.008107846602797508, -1.6371237506973557e-05, 0.0030058231204748154, 0.0009622731595300138, -0.0002883232955355197, -0.0002958045806735754, 0.0004617731901817024, 7.104894757503644e-05, 0.0018151722615584731, 0.00039703439688310027, 0.00035892054438591003, -2.7899313863599673e-05, -0.0035354886204004288, 0.00011954108776990324, -0.00021251683938317, 0.0012472947128117085, -0.0029396400786936283, 1.4103266948950477e-05, 8.989230263978243e-05, -0.00012066483759554103, -0.003996441140770912, 0.000628585577942431, 0.009983900934457779, 0.0005780721548944712, 0.0005260789766907692, -0.00010645722068147734, -5.155269900569692e-05, 4.997154064767528e-06, -0.00021214426669757813, 0.0002646512002684176, 0.002840026281774044, 4.181380063528195e-06, 9.434748790226877e-06, 0.0008694921270944178, -0.008636130020022392, 0.0038523150142282248, -0.00012642476940527558, 0.00036597735015675426, 0.00024166007642634213, -0.0006283813854679465, -0.01809508167207241, -0.0025536941830068827, 0.0011965716257691383, -0.00894126109778881, 0.013240834698081017, 0.00041334889829158783, -2.0469688024604693e-05, -1.0492271030670963e-05, 0.0018280652584508061, 0.000648841611109674, 0.0014778297627344728, 0.004370313137769699, 0.0005479844403453171, 8.279238682007417e-05, -1.2330344361544121e-05, 1.341880124527961e-05, -0.0007988057914189994, 0.00010436591401230544, -1.5850644558668137e-05, 0.0010158909717574716, -0.0009983386844396591, 0.00011073842324549332, -1.2112715921830386e-05, -0.0011666947975754738, -0.007338396273553371, -0.0009313322952948511, 0.001628697500564158, -0.00037670432357117534, 8.518337563145906e-05, -0.021815236657857895, -7.49115934013389e-05, 2.0984527509426698e-05, 0.00044014875311404467, -5.834487819811329e-05, -0.0008040172979235649, 2.34184358305356e-06, 2.4147411750163883e-05, -1.3793119251204189e-05, -0.000174396438524127, -1.8323860786040314e-05, 0.00012552720727398992, 6.422212754841894e-05, -9.417708497494459e-07, 3.3998028811765835e-05, -0.0007490494172088802, -2.4242162908194587e-06, -0.03014245070517063, 0.0010416519362479448, 0.0015511594247072935, -0.00019091472495347261, -0.023270979523658752, 5.574944952968508e-05, 0.0001327681529801339, -0.00034651701571419835, 0.0010078854393213987, 3.174921221216209e-05, 1.5527999494224787e-05, -2.895898069255054e-05, -1.0444866347825155e-05, -7.504435779992491e-05, 0.0010775786358863115, 0.00541006401181221, 0.025579135864973068, 5.6622709962539375e-05, -8.881840039975941e-05, 2.3199841962195933e-05, 0.01220010407269001, 0.00011379799980204552, 0.003493332304060459, 0.0009525305940769613, 4.500331124290824e-05, 0.00012187690299469978, -0.008327473886311054, -0.00012465810868889093, 0.0006828177138231695, 3.335427027195692e-05, -0.01882150024175644, -0.0001190187394968234, 0.004079482052475214, -1.5158226233324967e-05, 0.0007316804258152843, 0.0005002801772207022, 0.0008628133218735456, 0.00048066163435578346, -0.00462770089507103, 6.825127456977498e-06, 0.014051254838705063, 0.00012548900849651545, 0.002694222377613187, -0.00022197607904672623, 0.00028885528445243835, -8.323832298628986e-05, -0.0008072239579632878, -1.774316478986293e-05, -0.001496612560003996, 0.016010040417313576, 0.013155550695955753, -2.175209010601975e-05, -0.00019075375166721642, 0.00010105283581651747, 0.04516248404979706, -0.00019198370864614844, 0.001300482777878642, -5.8075775086763315e-06, -0.006426420994102955, 8.26084942673333e-08, 0.010317451320588589, 0.00017292361008003354, 6.654181925114244e-05, 0.0035867667756974697, 1.3847167792846449e-05, -9.237646736437455e-06, -0.00031438839505426586, -0.0005016868817619979, -0.001145112095400691, 5.999345376039855e-07, -0.00047274905955418944, 0.00045453000348061323, 1.2440114005585201e-06, -9.258283171220683e-06, -0.0001922607480082661, 0.00011422065290389583, 0.008989045396447182, 3.617786569520831e-05, 1.424571564712096e-05, 1.192403829008981e-07, 0.007215952500700951, 1.795809657778591e-05, 0.0003281002282164991, 7.082671800162643e-05, -4.39733094026451e-06, -0.00043741287663578987, 3.089362144237384e-05, 0.00042848585871979594, 8.729465480428189e-05, -0.0007289981585927308, -0.0007254267111420631, -9.151073754765093e-06, 0.015152636915445328, 1.0540850780671462e-05, 0.00045345001854002476, 0.001015612855553627, 5.514965778274927e-06, -0.00013337087875697762, 5.228136069490574e-05, 0.0007355883135460317, -1.7842408851720393e-05, 2.904126995417755e-05, 3.854711394524202e-06, -0.00013834229321219027, 0.0009774289792403579, -7.020117664069403e-06, -0.00030896029784344137, 0.0028649393934756517, 0.0002227195363957435, -7.374645065283403e-05, 0.0013367446372285485, 0.00018774776253849268, -0.0003022751188836992, 1.8565491700428538e-05, -0.002680598059669137, 2.4124856281559914e-05, -0.003816603682935238, -3.188287519151345e-05, -9.592649439582601e-05, 0.0009406744502484798, 0.005158950574696064, -0.00024599285097792745, 0.013137124478816986, 1.0150273737963289e-05, 0.0007124208495952189, 1.2926394447276834e-05, 0.0003774132637772709, -0.0016406816430389881, -0.000807611970230937, 0.00019785857875831425, -0.0009365741279907525, -0.00035016334732063115, -0.00040711648762226105, -0.0002885416033677757, -0.0007592017063871026, 6.077598300180398e-07, 0.00033614106359891593, -0.00011479328532004729, 0.002145546255633235, -6.118080636952072e-05, 0.0015093666734173894, 6.9158772930677515e-06, -4.786803765455261e-05, 7.540670048911124e-05, 0.011169184930622578, -1.744051587593276e-05, 0.013936297968029976, 9.628980478737503e-06, -0.0005274790455587208, -7.288363121915609e-06, 0.008159625343978405, 2.7861085982294753e-05, 0.00404110923409462, -7.23317134543322e-06, 9.382067105434544e-07, -1.7894615666591562e-05, -0.00013339091674424708, 2.204516567871906e-05, -0.0010101847583428025, 0.00027361189131624997, 0.0037366203032433987, 1.7231544916285202e-05, 9.203462832374498e-05, 5.0050475692842156e-05, 0.006591440178453922, 0.0013272310607135296, 0.00295262411236763, 0.018548619002103806, -7.420373731292784e-05, -1.7759895854396746e-05, -0.0022093607112765312, 9.246029367204756e-05, 0.00813310407102108, -0.00024887791369110346, -1.6686663002474234e-06, 4.022864459329867e-07, 2.4946575649664737e-06, 0.0014084000140428543, -5.4668689699610695e-05, 0.0002664051717147231, 0.012395904399454594, -5.641151074087247e-05, -5.751255957875401e-05, 0.0005020762328058481, -0.0001881923235487193, 0.0019152789609506726, 0.0005824448307976127, 2.888214476115536e-05, -0.0029171076603233814, -3.115693834843114e-05, -0.009283364750444889, -2.38324446399929e-05, -6.927296635694802e-05, 0.0025255088694393635, 0.0034347763285040855, 0.0018742703832685947, 0.025453895330429077, 0.0002504139265511185, 4.416430965648033e-05, 0.0009911117376759648, 0.00023146707098931074, -0.006811079569160938, -0.0003504444903228432, 3.973378781552128e-08, 0.00026202539447695017, 4.6958371058281045e-07, 0.0006454153917729855, 0.00042053437209688127, 0.00017141728312708437, -0.000249280798016116, 0.0039178356528282166, 1.583128096172004e-06, -0.0008816610788926482, 0.0028828992508351803, -0.00011889149027410895, 0.0001644378644414246, 0.0001244770537596196, 8.483013516524807e-05, -0.000620467122644186, -0.0005775365862064064, -0.012503222562372684, 4.547463322523981e-05, -0.001292311237193644, -0.0006507658399641514, 0.0008855400956235826, 0.0009565020445734262, -0.0003907029749825597, 2.303024666616693e-05, -0.0002337928453925997, 0.00010491129796719179, -7.829404785297811e-05, -0.0002362435043323785, 0.00013504830712918192, -0.0002949540503323078, 1.1148924841108965e-06, -0.0073038870468735695, 0.00024797499645501375, -5.928892642259598e-05, -1.3306191704032244e-09, 0.0008536963723599911, 2.179842340410687e-05, 7.307403848244576e-06, -0.00021639509941451252, -1.4805664250161499e-08, -0.0003803822328336537, -0.00035101923276670277, -0.040771279484033585, 9.755157952895388e-05, 0.006520099006593227, 1.2014651474601123e-05, 6.674686301266775e-05, -0.00021493613894563168, 0.00015944572805892676, 0.00016816874267533422, -4.147131221543532e-06, -0.0007157144136726856, 0.003437676001340151, -5.456159124150872e-05, 0.011629801243543625, -1.1542952051968314e-05, -2.6608828193275258e-05, -0.00037654879270121455, -0.0006225815159268677, 0.0003547689993865788, 0.006492698099464178, 0.00025208599981851876, -4.164833080722019e-05, -0.0009109196835197508, -0.004058074206113815, -0.0010365196503698826, -0.0196748748421669, -7.61701594456099e-05, 0.0005680320900864899, 0.000581165892072022, 0.00029111700132489204, 2.4173899873858318e-05, -0.025991056114435196, 0.00017245439812541008, 0.012832162901759148, 0.010986872017383575, 0.01118576992303133, 2.57191204582341e-05, 0.0008023601840250194, -0.0005800268263556063, -0.0004297910491004586, -0.044875748455524445, -0.001452084630727768, 0.0007288705091923475, 0.003926093690097332, 9.181624045595527e-05, 0.028426924720406532, -1.294896355830133e-05, 4.988517321180552e-05, -0.00016200635582208633, 0.0002241175970993936, 4.643056570330373e-07, 0.00016892881831154227, -9.309397137258202e-05, 9.485802365816198e-06, 0.0009201900102198124, 4.8339243221562356e-05, 0.0006100312457419932, 8.876522770151496e-06, 0.00038872763980180025, -0.00690460205078125, 0.002086545340716839, 0.0014373708982020617, -0.00010228765313513577, 0.0004889346309937537, -0.0024930115323513746, 0.00011645411723293364, -0.002987955929711461, 0.002277003601193428, 0.00032630463829264045, -0.0006887848721817136, 3.457033017184585e-05, -0.012920907698571682, -0.00017894015763886273, -7.139651279430836e-05, 0.000544089125469327, 0.054233141243457794, 9.989640966523439e-05, -0.0002213460684288293, 0.03167606145143509, 0.001036754110828042, -0.0004038166953250766, 0.00032807255047373474, 0.0006225083488970995, -0.000127733830595389, -0.00022891080880071968, 0.008763816207647324, 4.9769070756156e-05, -0.00012912601232528687, -0.00015657390758860856, -0.00380693469196558, -0.0044629694893956184, 0.0007661831914447248, -0.016569936648011208, 6.023916284902953e-06, -0.002280276734381914, -0.0024993186816573143, 0.006470588967204094, 0.0006420575082302094, 1.5529301890637726e-05, 1.3572263924288563e-05, -3.243530954932794e-05, 0.00023489765590056777, 1.1055742106691469e-05, 1.9969560526078567e-05, -0.00014424460823647678, -0.006633790209889412, 0.00031279807444661856, -0.0017186200711876154, 1.2298228284635115e-06, 0.0011317076859995723, 0.00020715805294457823, 0.0004883526125922799, -0.008333323523402214, 0.0001088354765670374, 0.0009690936421975493, -0.0063628810457885265, -0.00014987033500801772, 0.0006493511027656496, -0.0004612767370417714, -0.017869945615530014, 0.003151287790387869, -0.0012593923602253199, -0.00014467482105828822, 0.0026310516986995935, -8.26569230412133e-05, 0.00751785933971405, 0.001388503354974091, 7.124795956769958e-05, 0.001543041318655014, 0.00025732142967171967, 0.0001511329464847222, 0.0008144755847752094, -4.692253423854709e-05, 0.022456996142864227, 3.906041820300743e-05, -0.0011743394425138831, -0.0008286298252642155, -0.0005830891896039248, 0.004460236057639122, -0.0008626386988908052, -0.0002050850889645517, 0.0037200325168669224, 0.01835290715098381, 7.451227247656789e-06, -0.027573930099606514, 0.012084663845598698, -1.720899308566004e-05, -0.0013039406621828675, 1.2898781278636307e-05, -0.0004867530660703778, -9.036311530508101e-05, 0.0005804006941616535, 0.0006035217083990574, 0.0014676922000944614, 0.01013773400336504, 4.053111479151994e-05, 0.000260370405158028, 0.0051849475130438805, -0.0045761168003082275, 0.0020299244206398726, -0.00925635639578104, 0.02677149698138237, 0.0013317707926034927, -3.576507879188284e-05, 0.00014957999519538134, -7.295451359823346e-05, 0.03736270219087601, 0.0001701640576357022, -0.0017775073647499084, -8.411338058067486e-06, 2.4330795440619113e-06, -1.7946453226613812e-05, 0.004286678973585367, 0.00027003392460756004, -0.0014871521852910519, 0.022968539968132973, -0.0020577963441610336, 0.0018687285482883453, -0.0017270778771489859, -8.586558396928012e-05, 5.7949178881244734e-05, 3.108952660113573e-05, 5.1472052291501313e-05, 0.006700859405100346, 0.001516462303698063, 2.1054651369922794e-05, -0.00016570303705520928, -2.3893677280284464e-05, -0.0004214713117107749, 0.00017183634918183088, -0.03507298603653908, 0.0034937062300741673, -0.00702196778729558, 8.107346729957499e-06, -0.00014664446644019336, 0.008570313453674316, 0.027870431542396545, 0.00043414480751380324, 7.988710422068834e-05, 0.00011454313062131405, 2.976144514832413e-06, -0.02106250822544098, -0.0002621324092615396, 5.47800118511077e-06, 6.683712126687169e-05, 0.015249288640916348, -7.64896540204063e-05, -0.00013275997480377555, -0.0005543447332456708, 7.138423825381324e-06, 0.0014203551691025496, -0.0019102510996162891, 8.73463723110035e-05, -0.007983151823282242, 8.520733899786137e-06, 1.0378569186286768e-06, 0.00022847429499961436, 1.4253226254368201e-05, 0.0002034200879279524, 0.009031007997691631, 1.7364596715196967e-05, 0.010062096640467644, -0.00018562513287179172, -0.0004265157040208578, 0.00146970571950078, 0.012758709490299225, -0.00022312626242637634, -0.0007330722874030471, -0.0019452571868896484, -0.0006168730324134231, 0.0014237964060157537, -0.004720555618405342, 0.00010060278145829216, 1.030555085890228e-05, -6.736934301443398e-05, 0.0015550678363069892, 0.0003468881477601826, -0.0007773812394589186, 0.000292542070383206, 0.0020693691913038492, 3.2235693652182817e-06, -0.00014313816791400313, -0.0002203753829235211, 0.0008763859514147043, 7.873168215155602e-05, 0.0006426475010812283, -0.00014273564738687128, -0.0006204188102856278, -6.610339187318459e-05, -0.007639576680958271, 2.1961834136163816e-05, 0.041217461228370667, 7.859709876356646e-05, 0.0006428482010960579, 7.224999717436731e-05, 2.897393414968974e-06, -0.00010412741539767012, 0.0018484089523553848, 0.0003005224571097642, 0.0010539147770032287, -0.002616667188704014, 5.7104844017885625e-05, -0.0003721671237144619, 0.00018024563905782998, 2.7227231839788146e-05, 0.00010433217539684847, 0.00013990982552058995, 0.004368253517895937, 2.212178151239641e-05, -0.00010570334416115656, 0.0006094167474657297, -0.0017473036423325539, 0.00145223387517035, -0.0033976442646235228, 7.45914348954102e-07, 0.008141675963997841, -4.072006049682386e-06, -0.0010572427418082952, -6.027909694239497e-05, 0.03502853214740753, -0.009854353033006191, -0.0003723647096194327, 0.0002175461413571611, -0.00037229876033961773, 2.2521704522660002e-05, -0.008560672402381897, 0.0006264372495934367, 4.95425865665311e-06, 0.0001310633379034698, -3.3227537642233074e-05, 0.0002510849153622985, -0.00877293385565281, 7.909739906608593e-06, 0.0008846885757520795, 0.0001175485085695982, 2.3740227334201336e-05, -0.0004810833197552711, 0.0003850146022159606, -0.001033304026350379, 0.0013299130368977785, -0.0002861462126020342, -0.006545825395733118, 0.00020150495402049273, -7.199251558631659e-05, 4.6434515752480365e-06, 2.0035918169014622e-07, 0.004594908561557531, 8.742936188355088e-05, -3.5974017009721138e-06, 0.04040975496172905, -0.00028839873266406357, -6.684302934445441e-05, -2.7041892280976754e-08, 0.003767499001696706, -0.0004364750348031521, 0.043681852519512177, 5.832590613863431e-05, -0.0010751131922006607, 3.1661379580327775e-06, 0.00548810139298439, -0.0014573575463145971, 0.00016516156028956175, -5.030902684666216e-06, 0.0024476738180965185, 0.00010115321492776275, 6.742636742274044e-06, 9.787593444343656e-05, 0.0005505039007402956, -7.681125862291083e-05, 1.3637904885399621e-05, 0.0002543315349612385, 0.0009462478337809443, 0.005903499200940132, 0.0008767432300373912, 3.061527604586445e-05, -0.00012487689673434943, 0.002584775909781456, 0.0023750481195747852, 0.0003314194909762591, -0.014213519170880318, -0.000836813822388649, 0.00099805963691324, -0.0018785169813781977, 0.0003909169463440776, -0.00020005065016448498, 3.1083105568541214e-05, 0.0017439493676647544, 1.3485682757163886e-05, 0.006053719203919172, 3.098877641605213e-05, 7.813062256900594e-05, -4.0902799810282886e-05, -8.396942575927824e-05, -0.0004897993057966232, -1.1892243492184207e-05, 0.0001109219083446078, 2.678525743249338e-05, -0.00012433360097929835, 0.006072417367249727, -0.01865231618285179, 1.8384087525191717e-05, 0.00455969013273716, 1.4286915757111274e-06, 0.037727974355220795, -0.0003802103747148067, -8.2265150922467e-06, -0.0005237512523308396, 0.011114757508039474, 0.0015769280726090074, -0.00012480236182454973, 7.3878077273548115e-06, -0.000249153352342546, 1.5891262592049316e-05, -0.0014517477247864008, -0.0295562744140625, -0.0005324427038431168, 0.0016957710031419992, -0.004511608742177486, -1.2738000805256888e-05, 0.00019752148364204913, 8.287865057354793e-06, -0.01623358763754368, -0.0003464857873041183, 0.0004597080696839839, 8.111950592137873e-05, -0.017958154901862144, -0.00012162287021055818, -0.004859830718487501, -0.0017001366941258311, 0.002441199030727148, -3.8813755963929e-05, 1.7585418845555978e-06, -0.013473022729158401, 5.0722148444037884e-05, 0.0020551420748233795, 0.003235206240788102, 4.248759796610102e-05, 0.006253187078982592, -0.0022803563624620438, 0.000475423876196146, 0.00022496349993161857, 0.0017518053064122796, -5.113442239235155e-05, 0.00022131952573545277, 2.873384983104188e-05, -6.795253284508362e-05, -6.175792077556252e-05, 0.004637653939425945, -1.726544178382028e-05, -0.0053282794542610645, 0.0026130634360015392, 3.6172723412164487e-06, 0.0007576656644232571, -0.0004652522038668394, -2.4378299713134766e-05, 0.001330917701125145, 3.984008799307048e-05, 0.0014324007788673043, -9.551487892167643e-06, 0.00046146532986313105, 7.688807090744376e-05, -0.0011723778443410993, -9.429645433556288e-05, 0.0407940074801445, -0.0006195823661983013, -0.0013867486268281937, -0.0011153178056702018, -0.009563480503857136, -2.3161590434028767e-05, 1.4636863852501847e-05, 0.010705318301916122, 0.0019885017536580563, 8.383129897993058e-05, -0.02214253507554531, 0.0006474754773080349, 4.8784029786475e-05, -1.4125023881206289e-05, -0.0010067187249660492, 7.422977068927139e-05, 1.6896869965421502e-06, -0.00012078994768671691, -0.0030714732129126787, 9.741582289279904e-06, 0.00018891951185651124, 6.224695243872702e-05, -0.0003639972419477999, 0.002350086811929941, -0.001300787553191185, 0.00012213492300361395, 0.0006617410108447075, -0.00016827679064590484, -0.0008458700031042099, 0.00027354201301932335, 0.0025085601955652237, 8.276186235889327e-06, 0.01213883887976408, -5.870337190572172e-06, -6.213349115569144e-05, 2.7230977138970047e-05, 5.5639327911194414e-05, -8.241768227890134e-05, 0.0008287825621664524, -0.0005140905268490314, 0.0023232519160956144, 0.005948932375758886, 0.0004270802310202271, 0.002185894176363945, 0.00031431784736923873, -2.621561725391075e-05, 0.0012823950964957476, 0.00608016038313508, 0.0023445207625627518, -0.00013334889081306756, 1.0739169738371857e-05, 0.004953133873641491, 0.0002968254848383367, -7.072432345012203e-05, -0.015999451279640198, 0.0003044986224267632, 0.0003807659668382257, 4.2158157157246023e-05, 1.5057950804475695e-05, -0.00011819678911706433, -1.2350014003459364e-05, -0.00456817215308547, 4.550372250378132e-05, 0.0027715025935322046, 0.003466692753136158, 0.0002826223208103329, 0.0008337119361385703, -0.0003150991688016802, 1.2832639185944572e-05, -0.00028962240321561694, 1.9075273485213984e-06, 0.0013102353550493717, 0.0032984446734189987, -4.177650043857284e-05, -0.018849141895771027, -0.00012770859757438302, -0.001217339187860489, 5.784376116935164e-05, 0.003719144035130739, 0.0006931282696314156, 5.839473305968568e-05, 0.00018728597206063569, -0.0024304729886353016, -1.705396243778523e-05, -4.058451850141864e-06, 0.0011588584166020155, -0.003922541160136461, 0.0002080276026390493, 0.0004114975454285741, -8.271413207694422e-06, -0.000855674035847187, -0.004794824402779341, 0.0002806413685902953, 0.0012855175882577896, 0.0006165915401652455, -1.86293909791857e-05, -0.0006405182648450136, 0.0003114328137598932, -0.0004141094395890832, -0.013077229261398315, -0.00010308077617082745, -0.000426841143053025, 1.926678578456631e-06, 0.01292118988931179, 0.0003265435516368598, 0.00018007602193392813, -0.005407384596765041, 0.0004448513500392437]
1: [3.4814697755791713e-06, 1.0365329927708444e-07, -5.668425728799775e-08, -2.6198722480330616e-06, -1.066592176357517e-06, 1.643483642510546e-07, -1.619938814201305e-07, -4.265122015567613e-07, -6.432976533687906e-07, -9.833831882133381e-08, -2.381689796493447e-07, -1.7781023871066282e-06, -2.4087292160857032e-09, 2.136136117769638e-06, -1.5186473092398955e-06, 2.5988565539591946e-06, 1.736846968469763e-07, 4.023223027616041e-06, 3.9708065742161125e-05, -1.0453048162162304e-05, -1.0399765670854322e-07, 5.737525157201162e-07, -1.994295780605171e-05, -2.5758083666005405e-06, -4.829411773243919e-05, 3.079230373259634e-05, 1.341029019386042e-06, -1.7757972869958394e-09, 2.984587990795262e-05, 1.7531534467707388e-05, 2.9525932632168406e-07, 3.92062474929844e-06, 2.090728685288923e-06, -2.5541990908095613e-05, 4.073586978847743e-07, -4.905018613499124e-07, 1.322645289292268e-06, 3.215177013515813e-09, 1.2869895726907998e-06, 3.1989245599106653e-06, -5.67765710002277e-07, 2.434629550407408e-06, 6.137115633464418e-06, -1.3300912087288452e-06, -1.58874331646075e-06, -1.8086741704337328e-07, 1.3788557225780096e-05, -9.71830559137743e-07, -0.00010256835230393335, -3.0081781687840703e-07, -1.9523847640812164e-06, 3.348243922118854e-07, 2.1854566156775945e-08, 3.5111679608235136e-06, -9.026201951201074e-06, 2.985866740345955e-05, 3.128629089133028e-08, -4.137160885875346e-06, -5.923519807993216e-08, -2.845822109520668e-06, -4.171027285337914e-06, -6.989837402215926e-07, 1.745205736369826e-06, 1.310573907176149e-06, -4.400510988489259e-06, -8.243810043495614e-07, 2.4985826030388125e-07, -4.584058501677646e-07, 1.1272338269918691e-05, 3.366715191077674e-07, -5.559982673730701e-05, 6.797478135922574e-07, -4.7078924581001047e-07, 3.452970531725441e-07, -5.492445325216977e-07, 3.0165756470523775e-06, 7.677321264054626e-06, -2.137790488632163e-06, -6.8752551669604145e-06, 2.502390543668298e-07, -0.00016263287398032844, 1.2580335351231042e-06, 3.7811755504435496e-08, 1.4893762454448733e-06, 9.166613494926423e-07, 1.784971755114384e-05, -2.519892223062925e-05, -2.455449248373043e-06, 1.4913489110313094e-07, -1.334576609224314e-07, 3.1567452651870553e-08, 5.997828793624649e-07, 1.6505350686202291e-07, 1.6490936332047568e-06, 9.291372862207936e-07, 2.5242727019758604e-08, 7.731921414233511e-07, 1.437917489965912e-06, -1.6048841189331142e-06, -1.0903130714723375e-05, -7.104838459781604e-06, -6.087898896112165e-08, -7.569990998490539e-07, 6.135255716799293e-07, -1.975559371203417e-06, -4.45587829744909e-06, 3.983621354564093e-06, -2.7071450858784374e-07, 1.1054551123379497e-06, -3.6940335121471435e-05, -4.268642328497663e-09, -4.513517808391043e-07, -3.065970872739854e-07, -2.1326229671103647e-06, 3.5873057413482456e-08, -1.581656761118211e-08, -7.7749939464411e-07, 3.189311610185541e-05, 6.3182033045450225e-06, 9.459928840271914e-09, 3.738120722118765e-05, 1.2940837450514664e-06, 1.1856886885652784e-06, -7.969581616862342e-08, -1.3868389032722916e-06, 1.3357261195778847e-05, 1.1943977824557805e-06, -3.244092113163788e-06, -1.0076947773995926e-06, 2.6890120352618396e-07, -3.594574309317977e-07, -3.6462094499256636e-07, 8.712956332601607e-05, -4.682124199462123e-06, 1.1090849511674605e-05, -1.876111923593271e-07, -4.118609467695933e-06, 2.8963113436475396e-05, -6.133950228104368e-05, -1.3211335669893742e-07, 1.8880931747844443e-05, 1.3140279406798072e-06, -8.157676347764209e-07, -1.2733975381706841e-05, 5.243748091743328e-06, -4.817307512894331e-07, 6.553791536134668e-07, 1.940052243298851e-06, 6.816667155362666e-05, -9.69983631193827e-08, -1.7364727682434022e-05, 5.297466145748331e-07, -1.7895844166559982e-06, -3.7487027384486282e-06, -1.5858373444643803e-05, 9.762244701505551e-08, 4.5163351387600414e-06, -3.215609467588365e-07, -9.22150047699688e-06, -8.526403121322801e-07, 4.115338379051536e-05, 3.0212208912416827e-06, -1.5644125141989207e-06, -3.122083285234112e-07, -1.0599927691146149e-07, 4.434103573203174e-08, -4.5101080559106776e-07, -7.345244057432865e-07, 5.459355634229723e-06, 4.140346732128819e-07, -7.297426805052964e-07, 2.7645237423712388e-06, -5.277980017126538e-05, 8.309125405503437e-06, -1.0402864063507877e-06, -8.280699148599524e-07, -1.2841975376431947e-06, -4.259824436303461e-06, -6.752662739017978e-05, -5.807490197184961e-06, 7.666429155506194e-05, -2.5664354325272143e-05, 9.502346074441448e-06, -2.3675365810049698e-06, -3.437770601522061e-07, -1.1678879729970504e-07, 6.6534444158605766e-06, 9.711965276437695e-07, 7.875267328927293e-06, 1.8853917936212383e-05, 6.6908597773363e-07, -6.84548126628215e-07, -3.1196925931453734e-08, -1.7493421466951986e-07, -4.4414355215849355e-07, -9.315526767750271e-07, 2.3819323402562986e-08, 5.662948751705699e-06, -7.483520221285289e-06, 3.6525023006106494e-08, -7.555929641966941e-07, -4.559335138765164e-06, 6.326127186184749e-05, -1.7839151951193344e-06, 7.444808034051675e-06, -1.1343968253640924e-06, 8.870080705492001e-07, -8.093507494777441e-05, -8.453367854599492e-07, 1.2954022565736523e-07, 1.4077750165597536e-05, -7.09846119661961e-07, 5.7903467677533627e-05, 9.693796876319993e-09, 7.570258730993373e-08, -6.596862078822596e-08, 1.892253385449294e-05, -1.1035341884735317e-07, 1.331540261162445e-06, -1.2505611834967567e-07, 3.1169761882665625e-08, 1.9541165841019392e-07, -2.3197899281512946e-06, 1.4508462697904179e-07, -0.00017486410797573626, 8.741384590393864e-06, -3.5356561056687497e-06, -1.400605651724618e-05, -7.170930621214211e-05, 1.6843827665979916e-07, 1.0955826610370423e-06, -1.7735773099047947e-06, 4.8919337132247165e-06, 1.066240997715795e-07, 2.3312850316870026e-05, -1.0246819925896489e-07, -7.87658677836589e-07, -1.7162732035558292e-07, 7.139437002479099e-06, 5.500801307789516e-07, 0.00011713388812495396, 4.955093118041987e-07, -3.5151902011421043e-07, 2.4719892621760664e-07, -5.011618122807704e-05, 5.488774945661135e-07, 0.0001549698645249009, -6.874083737784531e-06, -5.376901981435367e-07, 4.236547965774662e-07, -4.715111572295427e-05, -1.4808421155976248e-06, 2.296073489560513e-06, 1.3899750683776801e-07, -5.606786362477578e-05, -2.797585807456926e-07, 6.0949001635890454e-05, -6.685178988163898e-08, 3.710026248882059e-06, -6.563545866811182e-07, 2.6294565032003447e-05, 2.087940174533287e-06, 0.00010897031461354345, 1.2961766771013572e-08, 2.348332964174915e-05, 4.829082058677159e-07, -1.7891461538965814e-05, -4.590723619912751e-06, -3.460206789895892e-05, -9.612565463612555e-07, -3.7456193240359426e-06, -1.0777378633974877e-07, -5.088529178465251e-06, 3.9942497096490115e-06, 3.5700992157217115e-05, -2.1528758509248291e-07, -1.1467855074442923e-06, 3.4793526992871193e-07, -7.158344669733196e-05, -7.058876008159132e-07, -2.7024077553505776e-06, -2.8108502192480955e-08, 2.3444508769898675e-05, -5.767675226309166e-10, 7.521663064835593e-06, -1.1330021152389236e-05, 7.152394232434744e-07, 7.762463383187423e-07, 6.425567278256494e-08, -3.355209088340416e-08, -2.0871457309112884e-06, -1.4802226360188797e-06, -2.509669229766587e-06, 1.1457114368340626e-08, 8.244262517109746e-08, 3.442435172473779e-06, 9.946802492777351e-09, -4.753578863869734e-08, -1.843322792183244e-07, 9.424749691788747e-07, 3.987194213550538e-05, 7.622783186889137e-07, 2.2640091401626705e-07, 1.2203101862340304e-09, -3.276029747212306e-05, 5.858387908119767e-07, -5.25310633747722e-06, 8.688451771377004e-07, -2.502975604556923e-10, -2.5971830837079324e-06, -4.4455384795583086e-07, 1.7078446035156958e-06, 2.200539483965258e-08, -1.665003946982324e-05, 4.4489092942967545e-07, -4.7250290435840725e-07, 1.1844476830447093e-05, 3.403100379273383e-08, 8.799851229923661e-07, -2.7890287128684577e-06, 2.5723261387611274e-07, -5.261163096292876e-07, -7.485479613933421e-08, 4.277717380318791e-06, 7.74305021877808e-07, 6.30038883286943e-08, 2.0602345784936915e-07, -1.504739657320897e-07, -1.4334177649288904e-05, -3.6439598005699736e-08, -7.751830253255321e-07, 1.2155255717516411e-05, -9.454294627175841e-07, 1.8520461253501708e-06, 4.237042503518751e-07, -5.68074483453529e-07, -1.555022492993885e-07, 4.04130560127669e-08, -3.003739948326256e-06, 7.028686610510704e-08, 5.092498395242728e-05, -1.1030892466123987e-07, -4.1429376551604946e-07, 6.871135610708734e-06, -9.808392860577442e-06, -1.4635161278420128e-06, 1.396929110342171e-05, 4.4297632229017836e-08, 4.910247298539616e-06, 2.925643016737922e-08, -1.5645638313799282e-06, -5.408498509495985e-06, 4.619962055585347e-06, 1.963019258255372e-06, -3.930722414224874e-08, -1.5585833352815825e-06, -1.3415469766187016e-06, -1.4439572169067105e-06, -3.6154351619188674e-06, 1.0167888753187526e-08, 1.860318207036471e-06, -4.208359314361587e-07, -4.390404228615807e-06, -3.6413808857105323e-07, -1.1415213521104306e-05, 2.468333626381991e-08, -4.0004047718866786e-07, 2.5398588832103997e-07, 3.893451139447279e-05, -2.2299317947727104e-08, 5.7485420256853104e-05, 4.265465491926079e-08, -6.775089786970057e-07, -4.990750923639098e-08, -3.3503838494652882e-06, 8.847740673445514e-08, -2.2552085283678025e-05, 7.579927796541597e-09, 3.157504924189425e-09, -1.3093887218929012e-07, -1.0665340823834413e-06, 5.371977351842361e-08, -4.301254193705972e-06, -6.345621272885182e-08, -1.717144186841324e-07, 3.821718408403285e-08, 1.157104179583257e-06, 1.7279886321830418e-07, 4.299758802517317e-05, -2.892746351790265e-06, 1.6184621927095577e-05, 9.500162559561431e-05, -5.683251629307051e-07, 6.234387797121599e-07, -1.5229278687911574e-05, 3.918165702998522e-07, -1.588721170264762e-05, -1.2746795619023032e-06, -2.5535618419780803e-07, 9.432138625697917e-09, 5.405948400039051e-08, 7.018046744633466e-06, -1.1478981321033643e-07, -5.713463906431571e-07, 4.5403729018289596e-05, -1.553075463789355e-07, -6.885577477078186e-07, -1.5376265309896553e-06, -9.670526424088166e-07, -4.288061973056756e-06, 1.6067042452050373e-06, 1.5220841476093483e-07, -3.9364531403407454e-06, -4.5248000901665364e-08, -7.071250001899898e-05, 6.484983714472037e-07, -2.110748255290673e-06, 8.855772648530547e-07, 0.00014908821322023869, -3.599247520469362e-06, 1.321894524153322e-05, 9.899183623929275e-07, 1.5650039131287485e-07, -2.6544016691332217e-06, -1.3556166322814533e-06, -1.5800498658791184e-05, 6.272455266298493e-07, 4.680641985110867e-10, -8.461572065243672e-07, 4.752177318323447e-09, 1.0272742656525224e-05, 2.0406350813573226e-06, 7.477885901607806e-07, -4.2489028828640585e-07, -3.3829583117039874e-06, 1.8075564156561086e-08, 2.1855132672499167e-06, -5.012953806726728e-06, 8.910933502193075e-08, 1.3609810594061855e-06, 2.0663933355535846e-06, -2.0260686142137274e-06, 2.61062723438954e-07, -3.410884346521925e-06, 8.746648381929845e-05, 4.280727807781659e-07, -4.837259893974988e-06, -2.6119926133105764e-06, 5.101178430777509e-06, 3.89227170671802e-06, -2.6845734737435123e-06, 2.9335393492146977e-07, -2.8924267780894297e-07, 1.2600972922882647e-06, -5.389977673075919e-07, -1.7340680642519146e-06, 1.939203229994746e-06, 1.0389442195446463e-07, 5.481347997715602e-08, -1.2925984265166335e-05, -1.5193024864856852e-06, -1.5685532162024174e-07, 3.1058835503472437e-09, -1.9774124666582793e-06, -5.932213298365241e-07, 9.852208648908345e-08, -2.3133179638534784e-06, -1.228217971771528e-09, -2.9214565984148066e-06, 4.418571734277066e-06, -0.0001662239374127239, -7.289772838703357e-07, 5.673220948665403e-05, 3.408238171687117e-07, -2.747603105035523e-07, -1.414284042766667e-06, 6.960552241253026e-07, 7.565263331343886e-07, 4.243273110660084e-08, -1.0962011174342479e-06, -7.748282223474234e-05, -4.482263307181711e-07, 2.1793075575260445e-06, -5.468140784614661e-08, -5.391170816437807e-07, 2.1863966139790136e-06, -1.3515135606212425e-06, -4.063133928866591e-06, 5.292081550578587e-05, 1.3107954146107659e-05, -3.7830975685437807e-08, -5.342471467884025e-06, -2.0773157302755862e-05, -2.407653482805472e-06, 5.022913683205843e-05, -1.5303683653655753e-07, -1.2384241472318536e-06, -6.16346369497478e-07, 2.5640952117100824e-06, 2.533610938826314e-07, -9.173075522994623e-05, -1.6757368939579464e-05, -3.4942731872433797e-05, 8.723260543774813e-05, 3.975957952206954e-06, 9.34966948307192e-09, 5.117899490869604e-06, -2.4720166038605385e-06, -2.6190728021902032e-06, -0.00011187620111741126, -6.369853963406058e-06, 2.515287633286789e-06, -1.2048052667523734e-05, -5.753837513111648e-07, 3.358079266035929e-05, -3.8547543113054417e-07, -2.653198862390127e-06, 1.9430815882515162e-05, 3.474429377092747e-06, 4.924622487578745e-09, -1.5724547210993478e-06, -1.3308668656009104e-07, 2.4385570895901765e-08, -7.759672371321358e-08, 4.886510964752233e-07, -1.7943539205589332e-06, 3.990752617255566e-08, 4.036302016174886e-06, 0.000148101375089027, -7.032747816992924e-06, 5.9831027101608925e-06, -8.411765293203644e-07, 8.242375770350918e-06, -1.4845240002614446e-05, 9.44132068525505e-07, -1.2230743777763564e-05, 1.1413105312385596e-05, -6.567573791471659e-07, -2.4684677555342205e-06, 1.2892023733002134e-06, -1.4606817785534076e-05, -2.5195436137437355e-07, 8.998287626127421e-07, -8.187460025510518e-07, 4.5773645979352295e-05, 3.91585302850217e-07, -6.94911591381242e-07, 0.00021177891176193953, 2.6556979264569236e-06, -1.054455537996546e-06, -7.950188773975242e-07, 2.3987088297872106e-06, -1.0065363085232093e-06, -1.370633754049777e-06, -5.3163617849349976e-05, 1.0037199444923317e-06, -1.4075903891352937e-06, -2.3870410359450034e-07, 1.2010314094368368e-06, 5.3416275477502495e-05, 3.527907665556995e-06, -1.562755642225966e-05, 3.424833749932077e-08, -3.1224994927470107e-06, -9.364180186821613e-07, 3.7883452023379505e-05, -2.053065600193804e-06, -4.398354747081612e-08, 7.736630180943393e-08, -2.562165377639758e-07, 6.216964720806573e-07, 2.6053834289996303e-07, -2.8663063744716055e-07, -1.2680807230935898e-06, -1.347110082861036e-05, 1.8480208154869615e-06, -6.206179932632949e-06, 6.244664518817444e-08, 3.979598477599211e-05, -2.2253468614508165e-06, -8.444025070275529e-07, -1.8313103282707743e-05, 1.769778009474976e-06, -3.4199122183053987e-06, -3.5214030503993854e-05, 2.628245852065447e-07, 2.221189788542688e-06, -1.738280730023689e-06, 1.9472139683784917e-05, -5.4298557188303676e-06, -1.8677897060115356e-06, -7.89993805483391e-07, 1.8985141650773585e-05, -4.50360772674685e-07, 3.060701419599354e-05, -6.587174539163243e-06, 4.824058805752429e-07, 3.5507441680238117e-06, 3.7258104157444905e-07, 1.2817082506444422e-08, -2.0784157186426455e-06, -1.2493543181335554e-05, 6.617580947931856e-05, 4.376512379167252e-07, -9.956366739061195e-06, -4.850741788686719e-06, -1.6929277535382425e-06, 3.946216020267457e-05, 4.105284460820258e-06, -1.517017267360643e-06, -1.786819484550506e-05, 3.422809095354751e-05, 9.02386290135837e-08, -3.291069151600823e-05, -1.0848947567865252e-05, 1.0421732667964534e-06, -8.998074463306693e-07, 1.2421583051036578e-07, -1.9075982891081367e-06, -1.1455922503955662e-06, 8.021174835448619e-09, 5.44519025424961e-08, -7.478309726138832e-06, 5.8054454711964354e-05, 8.360656522654608e-08, -8.400530532526318e-06, -1.4522784113069065e-05, 3.652964369393885e-05, 3.000705510203261e-05, -1.1586364962568041e-05, 0.00012857854017056525, -4.7179048124235123e-05, -2.7180242057056603e-08, 4.519968683780462e-07, 3.0833607524982654e-06, -0.00011238601291552186, 2.6208847430098103e-06, -7.381830073427409e-06, -1.6205228803300997e-07, 4.7963844451714976e-08, -4.546389931192607e-08, -2.7870039502886357e-06, 7.190952828750596e-07, -1.5297462141461438e-06, 7.419106259476393e-05, -3.3683284073049435e-06, 3.38181052939035e-05, -3.990999175584875e-06, -1.077313868336205e-06, 3.0184031629687524e-07, 1.0131923772860318e-05, -3.977097406959729e-08, -6.534710337291472e-06, -5.138072083354928e-07, 7.890955799894073e-08, -2.612041782867891e-07, 3.2558453710862523e-09, 3.987012178185978e-07, 8.414906915277243e-06, -0.0001216347300214693, 2.7033587684854865e-05, -2.6134663130505942e-05, 5.018176807425334e-07, -7.54622703880159e-07, 2.425404090899974e-06, 0.00013431439583655447, 1.3766609754384262e-06, 8.73975659487769e-06, 7.730236006864288e-07, 7.646846711395483e-08, -0.00015786796575412154, -1.1857013078042655e-06, 1.191037526382388e-07, 2.9916080279690505e-07, 7.119221118045971e-05, -8.992257960471761e-08, -1.5334483123297105e-06, -2.522272552596405e-06, -3.8560000348297763e-07, 4.920593710266985e-08, -5.0056528380082455e-06, 5.012917654312332e-07, 2.695795046747662e-06, 6.284376574683392e-09, 2.1775481418018217e-09, 2.9274426651682006e-06, 1.4889653243699286e-07, -2.9410708179966605e-07, 4.6265202399808913e-05, 3.838847817405622e-07, -7.259286940097809e-05, -2.3339105155173456e-06, 3.0759758828935446e-07, 9.904740181809757e-06, 7.395370630547404e-05, -5.335253376870241e-07, 1.3468747056322172e-05, -7.789758456056006e-06, -2.8544127417262644e-06, -6.34079924566322e-07, -6.070754352549557e-06, 6.535580610034231e-07, 5.2546454298862955e-08, 8.562901143704948e-08, -1.8611008272273466e-06, 2.005474470934132e-06, -1.5448054000444245e-06, -6.057874202269886e-07, 1.3653081623488106e-05, 5.862715966031828e-07, -7.41152234695619e-07, -1.1050242392229848e-06, 1.7958318494493142e-05, 3.604114624522481e-07, 3.052565261896234e-06, -2.4744022653067077e-07, 1.7760912669473328e-06, -2.821226985361136e-07, -1.9520830392139032e-06, -2.1523069904105796e-07, 0.0002353722375119105, 2.7302525040795445e-07, -2.9821649150107987e-07, 1.005091974093375e-07, 1.5279510989785194e-08, 1.167882601293968e-06, 1.55270317918621e-05, -8.709841949894326e-07, 1.0336098057450727e-05, -9.817026693781372e-07, 5.83286691835383e-07, -5.273595320431923e-07, 7.658166509827424e-07, 5.068920927442377e-07, 5.931582336415886e-07, 5.899730695091421e-07, 6.955012213438749e-05, 8.908300941357084e-08, -1.4842792097624624e-06, 2.9996099328855053e-06, 7.53801577957347e-05, 8.273425464722095e-07, -2.9519378585973755e-06, 1.4073643228584842e-07, -2.1881991415284574e-05, 2.1299844377153931e-07, -6.0414276958908886e-06, -5.182614586374257e-07, 2.713641879381612e-05, -1.2845229321101215e-05, 5.665999651682796e-07, -1.770262372247089e-07, -1.3298088106239447e-06, -2.154797229536598e-08, -2.4161454348359257e-06, -6.513976131827803e-07, 8.855980837552124e-08, -5.282657866700902e-07, 4.487762907956494e-07, 1.1992649433523184e-06, -1.9476268789730966e-05, 8.658242478531974e-08, 6.742974619555753e-06, -2.0728981553475023e-07, -4.708178025225607e-08, -2.7693463380273897e-06, 1.2881556585853104e-06, -8.922279448597692e-07, -3.994877715740586e-06, 7.593760528834537e-06, 9.223607776220888e-05, -7.622986686328659e-07, -5.915943347645225e-06, 2.0211547990811596e-08, -3.6586897067536484e-08, -4.490671472012764e-06, 5.369244036046439e-07, 1.6173576966593828e-07, 5.084331496618688e-05, -1.0639897709552315e-06, -7.042808647383936e-07, 3.22564197574593e-08, -2.0442193999770097e-05, -1.7885380430016085e-06, 0.00013629053137265146, 2.5962964400605415e-07, 7.81529161031358e-06, 6.204179925362041e-08, -5.825379048474133e-05, -1.5590687780786538e-06, 1.0544258657319006e-05, 1.630580612754784e-07, 1.4919358363840729e-05, -2.858743755496107e-06, 3.871667431099013e-08, 3.0836616815577145e-07, 2.935185420938069e-06, -1.4854717278467433e-07, 7.077287733636695e-08, -4.022081157017965e-08, -1.5183095456450246e-06, 8.626044291304424e-05, 3.085356638621306e-06, 1.6485172693592176e-07, -5.175423893888365e-07, -2.577230588940438e-07, -2.335705175937619e-07, 2.4883111109375022e-06, -1.8776585420710035e-05, -3.385703621461289e-06, 5.980666173854843e-06, -1.9325957509863656e-06, -4.47148238436057e-07, 2.2340404939313885e-06, 1.3976325874409667e-07, -8.449785582342884e-07, 2.281984876617571e-07, 2.2070109480409883e-05, 2.5420326892344747e-06, 2.0846329107371275e-07, 8.962018114289094e-07, -1.1398921060390421e-06, -8.701999831828289e-06, 7.700517699049669e-07, 5.272403313938412e-07, 2.615193750443723e-07, -1.3451925724439207e-06, -4.904147317574825e-06, -8.307700045406818e-05, 9.454180371903931e-08, 1.9284030713606626e-05, 7.107347244073026e-08, 8.45416434458457e-06, -2.542255060689058e-06, -2.437180768311009e-08, -1.8935957086796407e-06, -4.420199547894299e-05, 3.510916712912149e-07, -1.6407097973569762e-06, 3.036274165424402e-08, -6.962221732464968e-07, 6.92540140789788e-08, -1.5479110970773036e-06, -4.685150634031743e-05, -2.3351021809503436e-06, 3.2099569580168463e-07, 0.00010398348968010396, -6.348556524926607e-08, -6.887696144985966e-06, 2.1528013860461215e-07, -6.870664947200567e-05, -5.659675252900342e-07, 2.384609615546651e-06, 7.361664984273375e-07, -3.422348527237773e-06, -4.073793320458208e-07, -7.89780096965842e-06, -1.7048897689164733e-06, 9.927796781994402e-06, 7.808225745975506e-07, 4.3439708719006376e-08, -1.4949037904443685e-05, 1.593555936096891e-07, 1.7798722183215432e-05, -7.118818029994145e-05, 6.088416739657987e-07, 6.32392693660222e-05, -4.059878847328946e-06, 2.0273839709261665e-06, 2.0348095404187916e-06, -2.8174904400657397e-06, -7.876304835008341e-07, -4.57885391824675e-08, 1.5201794667518698e-07, -2.8840275945185567e-07, -1.7902630133903585e-07, 2.648048393893987e-05, -6.456622969608361e-08, -1.4641729649156332e-05, -3.01437103189528e-06, 4.889532334573232e-08, 4.944835382048041e-06, -1.0477940577402478e-06, -1.1155275103647e-07, 1.4901503163855523e-05, 3.142300215586147e-07, -9.240844519808888e-06, -5.715623956348281e-07, 4.833350430999417e-06, 2.1066598492325284e-05, -1.829184839152731e-06, -6.262469014473027e-07, 0.00023553776554763317, -2.959165158245014e-06, -2.2926003566681175e-06, -1.5697825119787012e-06, -3.969690078520216e-05, -9.81113785769594e-08, 1.2751286249113036e-07, -3.688001015689224e-07, -1.0788946383399889e-05, 4.67427838657386e-07, -0.00020945932192262262, 2.9408502086880617e-05, 1.8938760604214622e-07, -8.509403528478288e-07, -1.256524683412863e-06, 2.2847372349588113e-07, -2.4223848527071823e-07, -1.3247480978861859e-07, 3.0282750230981037e-05, -5.5405454446599833e-08, -1.4951322100387188e-06, 7.104969199644984e-07, -6.169757398311049e-07, -1.6058111214078963e-06, -0.00012157780292909592, 1.0769308573799208e-06, 4.834960691368906e-06, -9.226238262272091e-07, -4.609557890944416e-06, -1.0557444056757959e-06, 3.9703150832792744e-05, 1.1380051034848293e-07, 3.03700926451711e-05, 2.16739962866086e-07, -2.0668808531354443e-07, 3.426089278946165e-07, 1.8031951753982867e-07, -3.439003876337665e-06, -1.7856323211162817e-06, 1.7284116893279133e-06, -2.3716320356470533e-06, 7.135314808692783e-05, 1.1663702252917574e-06, 1.493210675107548e-05, 2.507221779524116e-06, -2.257664988292163e-08, 1.6973608580883592e-05, 2.4415905500063673e-05, 8.784168130659964e-07, -6.648349994975433e-07, -8.274049889678281e-09, 2.7973790565738454e-05, 2.2156211798574077e-06, -1.4367070377829805e-07, -4.0387065382674336e-05, -1.6998137652990408e-07, 1.5333199598899228e-06, 9.214198826157372e-07, -2.7088304932476603e-09, -6.805821612942964e-07, 1.2203676078570425e-06, -9.154901817964856e-06, 1.2473774404497817e-06, 1.1372962944733445e-05, -3.1464837775274646e-06, 4.439120857568923e-06, 1.4572960026271176e-05, -1.7896047665999504e-06, -5.685664632437692e-07, -9.459146212975611e-07, 2.06340704522745e-08, 7.001336598477792e-06, -3.4415463687764714e-06, 1.5210464425763348e-06, -0.00012974467244930565, -4.8679282826924464e-08, 1.990147757169325e-05, 1.2004413463273522e-07, 2.2268786779022776e-06, -8.83837401488563e-07, 2.441707920297631e-07, 8.681420240463922e-07, -5.0148621085099876e-05, -7.208303287598028e-09, 2.931493270352803e-07, 8.358885679626837e-06, -1.6439145838376135e-05, 1.3690589639736572e-06, -2.460046289343154e-06, -9.480343976520089e-08, -5.163059086044086e-06, -1.3181479516788386e-05, 1.78983032128599e-06, -2.3349086859525414e-06, 2.6782695385918487e-06, -1.1287720980135418e-08, -4.576750143314712e-07, 2.8947533792234026e-06, -6.895273827467463e-07, -1.8390781406196766e-05, -3.059053454990135e-08, -1.7391683968526195e-06, 4.073396731030243e-09, 8.833219908410683e-05, 3.417710104258731e-06, 2.3430970941262785e-06, -1.9468223399599083e-05, 1.9170463474438293e-06]
2: [-5.115114618092775e-06, -5.668698577210307e-08, 0.01779738813638687, -6.046114140190184e-05, -0.005481274798512459, -0.00043665949488058686, -1.7141705029644072e-05, -2.739457704592496e-05, 2.855301136150956e-05, 0.0001401457702741027, -9.637969924369827e-06, -0.001657854183577001, -2.1403770915640052e-06, -0.0006692224415019155, 0.00023555464576929808, 0.0019802269525825977, -0.0007701102294959128, 0.0004150529275648296, 0.006410601083189249, -0.004974725190550089, 0.0005331658176146448, 1.2244800018379465e-05, -0.01959824748337269, -3.9814040064811707e-07, 0.02409503050148487, -0.005041859578341246, 0.0135374516248703, -2.0415387780303718e-07, -0.006054702214896679, 0.0017970483750104904, -0.0003071787068620324, 0.0005317877512425184, 0.00011602059385040775, -0.04539128392934799, 4.513730527833104e-05, -0.0011367836268618703, 0.0002847549330908805, -3.7342977066145977e-07, 0.0026842819061130285, -0.00014905747957527637, -8.898928354028612e-05, 0.00033831855398602784, 0.004836563020944595, -0.001235209172591567, -0.0002180625160690397, -0.0005678966408595443, 0.002559106331318617, -0.0005915262154303491, 0.02637062966823578, 0.00036815128987655044, -0.00014913466293364763, 1.9400828023208305e-05, 6.575185398105532e-05, 0.028398584574460983, -0.0038621509447693825, 0.0006204727687872946, 1.353489551547682e-07, -0.004054018296301365, 0.00035940352245233953, -0.0004064223321620375, 0.008313292637467384, 0.0027213776484131813, 0.0003769404720515013, -0.00012322654947638512, 0.012164300307631493, -0.00047864665975794196, -2.658403172972612e-05, -0.00015239615458995104, 0.0005944394506514072, 3.1855346605880186e-05, 0.007416372187435627, 0.0012949422234669328, 1.4028963050805032e-05, 0.00016307020268868655, -0.000117967625556048, -0.00025374357937835157, -0.0015270740259438753, 0.00010014523286372423, -0.0009534955606795847, 0.0018013527151197195, -0.011347809806466103, 4.2249019315931946e-05, -2.357447738177143e-05, 0.00022221959079615772, 0.00040709570748731494, 0.0004954409087076783, -0.009798889048397541, -0.001993352547287941, -4.408404493005946e-06, 0.00029816539608873427, 3.6467752124735853e-06, 0.000471599109005183, 0.004931919276714325, -5.3676238167099655e-05, 0.00016480231715831906, 2.956373919005273e-06, 0.0009851801441982388, 0.00020347310055512935, -4.745639307657257e-05, -0.004844601731747389, -0.0020844966638833284, -7.707336044404656e-05, 7.538463250966743e-05, 0.00041347998194396496, 0.00020276842406019568, -0.0004709759959951043, 2.8753274818882346e-05, 2.9995693694218062e-05, 0.0003840933204628527, -0.04440634325146675, -0.0003343955322634429, 4.395078576635569e-06, 6.301313987933099e-06, 0.000120995391625911, 5.326721293386072e-06, 0.00032368124811910093, -0.003020275617018342, -0.013728642836213112, 0.0002143176388926804, 6.929560640855925e-07, -0.011284848675131798, 6.26155233476311e-05, -0.0011812150478363037, 0.00016388432413805276, -0.000193243904504925, 0.0005010449094697833, 0.00021034445671830326, 0.0022132517769932747, -0.0002389300789218396, 0.00011440510570537299, -0.00010035829473054036, 0.0008158309501595795, -0.025453824549913406, -0.00329610169865191, -0.00914345309138298, -1.3768775716016535e-05, -0.0009422242874279618, 0.0012403718428686261, 0.0005081190029159188, 0.00011136324610561132, 0.01123350951820612, 0.0037628309801220894, 0.0013380211312323809, -0.01182580180466175, 0.0022650074679404497, -0.0002364247338846326, 0.001901746029034257, -0.000517968728672713, 0.035551950335502625, -1.5258181520039216e-05, 0.014488223940134048, -0.00011770149285439402, 0.0002191880194004625, -0.005937215406447649, -0.0003826655447483063, -5.616922408080427e-06, 0.0005338072078302503, 2.814075196511112e-05, -0.006769128143787384, -0.003124695736914873, -0.019967153668403625, -0.0006851116195321083, -0.002210945123806596, 0.00043214939069002867, 0.0004609603784047067, 7.4769141065189615e-06, 0.0005945705343037844, -0.000929703121073544, 0.005460014101117849, 1.3435055734589696e-06, -0.0006944218184798956, -0.0012405193410813808, -0.013583973050117493, -0.007906803861260414, -0.00014602881856262684, -0.0002505261218175292, -0.0008479680400341749, -0.0005038274102844298, -0.03617871552705765, 0.0003547602391336113, -0.011279873549938202, -0.008341336622834206, -0.007145653013139963, -0.0012173715513199568, -5.7602439483162016e-05, 0.0001293080858886242, 0.0012411405332386494, -0.0004665331798605621, 0.0011511908378452063, -0.005522959399968386, -0.00038696808042004704, -0.00026656145928427577, -1.0727271728683263e-05, 0.00013041897909715772, 0.0033290714491158724, -0.000973150716163218, 0.000224503775825724, 7.095839828252792e-05, -0.000890446244738996, -0.00043373636435717344, -0.00011125087621621788, 0.0002898296224884689, 0.0103895403444767, 9.284466796088964e-05, -0.0033863657154142857, -0.00011916083167307079, 0.00013508257688954473, -0.008148540742695332, -6.715497875120491e-05, 1.4497738447971642e-05, 0.0012210211716592312, -0.00010291767830494791, 0.021156156435608864, -4.346378318587085e-06, 8.414842886850238e-05, -9.70732799032703e-06, 0.0004904867382720113, 0.00012933027755934745, -0.0003116639272775501, -7.80484770075418e-05, -2.1690704670618288e-05, -6.361085979733616e-05, 0.0036744193639606237, 4.174761852482334e-05, -0.004089970141649246, 0.0009366198210045695, -0.004261231981217861, -0.004715908318758011, -0.028659004718065262, -1.3151293387636542e-07, 0.0007608002051711082, 3.740302054211497e-05, 0.0009461222216486931, -9.2112815764267e-05, 0.0016578704817220569, 3.683434897538973e-06, -0.00013369382941164076, 0.0002590348303783685, -0.002393958391621709, -0.0032930015586316586, -0.01329210214316845, -3.88262233173009e-05, -3.714519698405638e-05, 0.00023564575531054288, -0.016373327001929283, 6.0284171922830865e-05, 0.01375456340610981, -0.00827574823051691, -6.17986370343715e-05, -3.7787231121910736e-05, 0.0030619408935308456, -0.00019269998301751912, 0.00021381856640800834, -6.734261842211708e-05, -0.00011744443327188492, -5.305961167323403e-06, 0.003048329148441553, 5.239699748926796e-05, 0.0018965397030115128, -0.0004784124903380871, 0.005142684560269117, -0.00045084551675245166, -0.03218298777937889, 2.779401620500721e-05, -0.06175115332007408, 3.846332765533589e-05, -0.00011346349492669106, -0.0039541227743029594, -0.0592508465051651, -0.00010863287025131285, 0.0007837597513571382, 6.310304888756946e-05, 0.008302751928567886, -0.010311196558177471, 0.01246799249202013, 0.0001953649625647813, -8.855752821546048e-05, -0.00011967106547672302, 0.017983080819249153, -5.527232133317739e-06, -0.004841646645218134, -5.752376637246925e-06, 0.0033365972340106964, -2.496098204574082e-06, -0.007277895230799913, -0.005265551619231701, -0.00010102686064783484, -0.003747147275134921, 4.527426426648162e-05, 4.46493795607239e-05, -8.22074362076819e-05, 1.4778073818888515e-05, 0.004671754781156778, 5.943134624430968e-07, 0.0021745774429291487, 0.0010495849419385195, -1.7982056306209415e-06, 5.180978769203648e-05, -6.582210335182026e-05, -7.898118929006159e-05, -0.0009382588323205709, 0.0007379373419098556, 0.00012993748532608151, 1.5819418308637978e-07, -0.027721356600522995, 0.0007798150181770325, -0.0004180980322416872, 0.0005907324957661331, -4.1792078263824806e-05, -5.247257649898529e-05, -0.00012578708992805332, -0.00032765601645223796, 1.2382908607833087e-05, -0.004431219305843115, 0.0030102876480668783, -0.00018226596876047552, -0.004527228884398937, -0.00011388819257263094, -0.0016503339866176248, -0.0025195833295583725, 1.1055077266064472e-05, -2.675857103895396e-05, -0.0007975694024935365, -0.0004328190116211772, 0.0036852508783340454, -0.0001868979015853256, 6.4593950810376555e-06, -8.013157639652491e-07, -0.007253897376358509, 4.1848543332889676e-05, -5.97966427449137e-05, -0.007202045526355505, -5.023071571486071e-05, 0.0003439520951360464, -0.006121163722127676, -0.0008117975667119026, 0.000904470041859895, 0.00010381295578554273, 0.008449900895357132, -5.674263957189396e-05, 0.0003100186586380005, -1.3274461707624141e-05, 0.0006649011047556996, 0.000995989073999226, -0.017540913075208664, 0.00018660578643903136, -0.004499948583543301, -2.211106584582012e-05, 0.0007960686343722045, 5.17414664500393e-05, -0.0015217303298413754, 0.0007953550666570663, 0.00199244637042284, 0.001095923245884478, 0.00412558950483799, 2.5496090529486537e-05, -0.0007414492429234087, -0.00030641350895166397, 0.0005390772130340338, 1.1132528925372753e-06, -5.2026312914676964e-05, -3.357082823640667e-05, -0.008268147706985474, 0.0002618691069073975, -0.015548773109912872, -3.663766983663663e-05, 1.5196748790913261e-05, 3.582353383535519e-05, 0.0007376335561275482, 5.314025838742964e-05, 0.022537847980856895, 0.00018978057778440416, 0.0013568014837801456, 6.135235162219033e-05, -0.04772482067346573, -4.8500111006433144e-05, -0.004070930182933807, 7.858852040953934e-05, -1.4209895198291633e-06, 7.544743129983544e-05, 0.002203360665589571, -3.562010169844143e-05, 0.0006005116738379002, -0.0008130914648063481, -0.007940932177007198, -3.587548417272046e-05, 0.0001580346724949777, 0.00042691908311098814, 0.001290678046643734, -0.004018091596662998, -0.004272898193448782, -0.048729073256254196, -0.00010302113514626399, 0.00012061624875059351, 0.0009744040435180068, -1.1829142749775201e-06, -0.007335131522268057, 0.0001714290992822498, -5.607571802102029e-05, -7.02073805314285e-07, -5.8296503993915394e-05, -0.002487931866198778, 0.0001929559075506404, -0.00019318689010106027, -0.000131412991322577, -3.1441604733117856e-06, -3.155253943987191e-05, -0.0005838799988850951, -8.950584742706269e-05, -0.007410353980958462, -0.00039666169323027134, 0.00023021333618089557, 0.01722358725965023, 0.00016247149324044585, 0.06601881980895996, 0.0001841244229581207, -0.0007839250611141324, -0.0016507921973243356, 0.010542317293584347, -0.005741408094763756, -0.03802183270454407, -0.00030974633409641683, 8.242034527938813e-05, -0.003433724632486701, -0.0005556457908824086, 0.002518224995583296, 0.00011066970182582736, 1.290924274144345e-07, -0.001052272506058216, 4.946625153934292e-08, 0.0018872743239626288, -0.0009940736927092075, -0.0002563403104431927, 2.7701957151293755e-05, -0.023290839046239853, 1.949279976543039e-06, 0.0012481308076530695, -0.0028607710264623165, 0.000511433812789619, 0.00029183842707425356, -0.0002230434911325574, -0.001410441705957055, 0.0012846800964325666, 0.00029221264412626624, 0.009350847452878952, 5.630324812955223e-05, 0.012351114302873611, 0.00047069849097169936, -0.003965670708566904, -0.0017837181221693754, 0.00018420020933263004, 1.4719685168529395e-05, -4.334616824053228e-05, 0.0001831600966397673, 2.5031535187736154e-05, -1.3370372471399605e-05, 0.0003891212691087276, -0.0015097149880602956, 1.172153474726656e-06, -0.001474534859880805, -0.0011991168139502406, 0.0003587299434002489, 6.361395321619057e-07, -0.0012519267620518804, -7.982405077200383e-05, 2.656209107954055e-05, 1.43889628816396e-05, 3.7153704397496767e-06, 0.0012933353427797556, 0.0016534856986254454, 0.03805295750498772, -0.0008740014163777232, -0.011074850335717201, 3.449925861787051e-05, -5.4614101827610284e-05, -6.767494778614491e-05, -0.0012096525169909, -0.00037089851684868336, 3.637466943473555e-05, -0.0004995386116206646, -0.00720697408542037, 0.0003381519054528326, -0.04409269988536835, 5.213220720179379e-05, 2.1848401956958696e-05, 0.0019568498246371746, -0.00019459976465441287, -0.003431848017498851, -0.011427097953855991, 0.0023009618744254112, -3.349241160321981e-05, 0.00028542790096253157, -0.0018112721154466271, -0.0046509141102433205, 0.03651675581932068, -1.5450008504558355e-05, -0.0008877635700628161, 0.0112291956320405, 0.0005958870751783252, 9.273313480662182e-05, -0.032307758927345276, -0.0013804715126752853, -0.009336250834167004, -0.00038271956145763397, 0.0019970759749412537, 0.0001736460835672915, -0.0014487610897049308, -0.00014612695667892694, 6.144243525341153e-05, 0.007864790968596935, 0.0005415886407718062, 0.002131005749106407, -0.007721358444541693, -0.00020933308405801654, -0.018420521169900894, -0.00040425622137263417, -0.0002365678083151579, 0.005247347988188267, 0.001375821651890874, 5.068283144282759e-07, -0.0010687970789149404, 3.56604577973485e-05, 1.7015732737490907e-05, -0.0016468795947730541, 3.4693141060415655e-05, -0.0021281400695443153, 4.259564320818754e-06, 0.0004115016490686685, 0.023156695067882538, -0.007683965377509594, -0.0027621611952781677, 0.0007143336115404963, 0.002072329632937908, -0.0017558448016643524, 4.092416202183813e-05, -0.0008489042520523071, -0.0068828146904706955, -0.00032437575282528996, 0.00020880141528323293, 0.00019394635455682874, 0.011047005653381348, 0.0007589963497593999, -1.7844096873886883e-05, -0.00033294802415184677, -0.0054609570652246475, 7.320994336623698e-05, 7.302020821953192e-05, -0.076394222676754, -0.001237316057085991, 1.929193240357563e-05, -0.000997650669887662, -0.0019677358213812113, 0.0002668430970516056, 5.6243450671900064e-05, -0.009806179441511631, -0.005285125225782394, -9.21940227271989e-05, 1.4287612430052832e-05, -0.014264710247516632, 0.018553465604782104, 0.002018323400989175, 0.00269848364405334, 3.750543328351341e-05, -0.010774943977594376, 0.0066153500229120255, -0.001231600996106863, -0.0031088492833077908, 0.0002060101251117885, -0.00011086279846495017, 0.00015605846419930458, -0.00047269591595977545, 4.441991404746659e-05, -4.4965578126721084e-05, -0.0005515996017493308, -0.0001952475868165493, 0.00013430710532702506, 0.023962533101439476, 9.468744792684447e-06, 0.0051835328340530396, -0.0007195052457973361, -0.0017946389270946383, -0.013936277478933334, 4.5952961954753846e-05, -0.0040207807905972, -0.009568726643919945, 0.0006607311079278588, 0.0036020560655742884, -0.0003019632422365248, -0.016247354447841644, -0.011479506269097328, 0.005740509368479252, -0.0009835558012127876, -0.006689081899821758, 1.842400524765253e-05, 0.0014588043559342623, -0.01307389885187149, 3.373219078639522e-05, 0.0026262584142386913, 0.0003715845523402095, 0.0016842300537973642, -0.002217556582763791, -0.002876171376556158, -0.018804311752319336, 3.958160596084781e-05, -0.002799690468236804, 0.003933463245630264, 0.0037347814068198204, -0.01030692644417286, 0.008523117750883102, -0.00015263070235960186, -0.008478415198624134, 0.025267379358410835, -1.8859223018807825e-06, -0.008282742463052273, -0.06312039494514465, 0.0002707220846787095, 0.0060850693844258785, 0.0002841323730535805, 0.0003091167891398072, -0.0018509781220927835, -0.00031941200722940266, -0.002103656530380249, -0.0015911649679765105, -0.012265616096556187, 0.00010800301242852584, -0.00014348883996717632, -0.029884979128837585, 0.016811233013868332, 0.009147626347839832, -0.00374523620121181, 0.009862827137112617, -0.015700891613960266, 0.0001406236260663718, -8.552455983590335e-05, 0.002350185764953494, 0.03521881625056267, 0.0015125954523682594, -0.000661626283545047, -1.7726888472680002e-05, 1.0203689271293115e-06, 2.1596610167762265e-05, 0.003208184614777565, -0.0003379517584107816, -0.0012321018148213625, 0.03642728552222252, -0.00035156277590431273, -0.006498557515442371, 0.006837081629782915, -0.00021962147729936987, 0.00016666855663061142, 0.0008515260415151715, 0.0003010453365277499, -0.0027432478964328766, -0.001770763541571796, 4.74145490443334e-05, 0.0006254675681702793, 1.797611366782803e-05, -0.001403383444994688, 0.0019147354178130627, 0.013857275247573853, 0.002707421313971281, 0.028224721550941467, 1.2593269275384955e-05, 0.0004891675198450685, -0.029066525399684906, -0.03352636098861694, 0.000863890047185123, 0.001637520850636065, -6.871068762848154e-05, -1.039620201481739e-06, 0.018587473779916763, -0.00020499284437391907, 1.4706127331010066e-05, -0.0002092520153382793, -0.012214547954499722, -3.5280114389024675e-05, -9.373738430440426e-05, 0.003916849847882986, -5.34740393050015e-05, -0.0011564079904928803, 0.008208777755498886, -8.17584223113954e-05, 0.04354378581047058, 5.6713201047386974e-05, -2.0584702724590898e-06, 0.00034016260178759694, 9.550969116389751e-05, -0.0005884297424927354, -0.0035779494792222977, 1.853155299613718e-05, -0.021708041429519653, -0.00030507752671837807, 0.0034839266445487738, -0.00617726007476449, 0.0032586799934506416, -2.2129690478323027e-05, -0.005905706435441971, 0.008871084079146385, 0.0003629741258919239, -0.00015871725918259472, 0.021291254088282585, -0.00022546277614310384, 1.7260645108763129e-06, 0.00023964382125996053, -0.0027481005527079105, 0.00022489059483632445, 0.00476992130279541, -0.0010650076437741518, 0.0017249768134206533, -5.445697752293199e-06, 0.00012052396778017282, 4.91583559778519e-05, -0.005060307681560516, -0.00023118704848457128, -0.0011721530463546515, -5.212659380049445e-05, -0.00492499116808176, 0.00035187674802728, 0.03613675758242607, -3.0411043553613126e-05, -0.019463814795017242, -1.1296033335383981e-05, -0.00030725268879905343, 0.0005709907272830606, 1.2262836207810324e-05, 0.0004159428644925356, 0.0034542689099907875, -0.0009255352197214961, 0.005407633259892464, 0.008516626432538033, 0.0004460412310436368, -0.0002762343210633844, -8.61629523569718e-05, 3.394270606804639e-05, 9.777384548215196e-05, -0.00019158958457410336, 0.0038159904070198536, 1.9867720766342245e-05, 5.025649443268776e-06, -0.0003273232141509652, 0.00010108761489391327, -0.004744832403957844, 0.011308573186397552, 1.2040319234074559e-05, -0.02604427933692932, 4.894718586001545e-05, 0.004657422192394733, -0.0001082258386304602, -0.002137209754437208, 0.041019242256879807, 0.0023526372388005257, -9.395129018230364e-05, -0.00036188034573569894, 0.0003261206147726625, 0.02666783705353737, -0.002069082809612155, 2.3483917175326496e-05, -0.00023184131714515388, 0.00015617904136888683, -0.0004342886677477509, -0.003273177659139037, 1.5908397472230718e-05, -0.00224711699411273, -0.0007475865422748029, -6.470194784924388e-05, 0.00019350112415850163, 8.226626960095018e-05, -0.00039816528442315757, -0.0015687134582549334, 0.002590833231806755, -0.014497156254947186, -0.00024694824242033064, -0.00511641800403595, 4.478600021684542e-05, -4.1365557990502566e-05, -0.007741677574813366, -2.9223871024441905e-05, 3.5383640351938084e-05, -0.12077172100543976, 3.7536316085606813e-05, -1.1636569979600608e-05, 3.7450058698595967e-07, -0.021633833646774292, -0.00034048419911414385, 0.015172482468187809, -6.48479035589844e-05, 0.011445077136158943, 1.837069476096076e-06, -0.03661529719829559, -0.0003509445523377508, 0.00048340531066060066, 3.41664272127673e-05, 0.009758934378623962, -0.001454705372452736, 3.0286802939372137e-05, 0.0003235215262975544, 0.0004743591998703778, 0.00031006033532321453, 6.756468792445958e-05, -9.172220597974956e-05, -0.004748967010527849, -0.11090506613254547, -0.0015195956220850348, 0.00022760107822250575, 0.0012439738493412733, -0.002502002753317356, -0.014639345929026604, -0.0018837900133803487, -0.0012718401849269867, 0.0007302828598767519, 0.0004949504509568214, -0.00025353964883834124, -0.0018384786089882255, -0.004749295301735401, -2.293434226885438e-05, -0.00015067847562022507, 1.88495669135591e-05, -0.0004956337506882846, 0.00013221567496657372, 0.0001678177941357717, 0.0018349860329180956, -6.12424046266824e-05, -0.0020603316370397806, 0.00014765904052183032, 0.0003381461719982326, 1.820696343202144e-05, -0.00025026954244822264, -0.015942739322781563, 0.10256041586399078, 3.25030559906736e-05, -0.0024384590797126293, 5.111356131237699e-06, -0.021125245839357376, -0.00012920034350827336, 3.377912798896432e-05, 0.0005494928918778896, 0.0010876227170228958, -0.000411983928643167, -0.0005785493995063007, 5.283034624881111e-05, -0.00012482632882893085, 3.506087159621529e-05, 0.005864793434739113, -0.020004551857709885, -0.0018221591599285603, -0.00047571383765898645, -0.0025454480201005936, 8.25192837510258e-05, 0.009038044139742851, 1.4513707355945371e-05, 0.07037022709846497, 0.0016497564502060413, 0.0007629363099113107, 0.000500700029078871, -0.02700568363070488, 0.0004235666710883379, 0.00011746492236852646, -0.00015917723067104816, -0.0012261881493031979, 3.962783011957072e-05, -1.196897301269928e-07, -0.0030646882951259613, -3.76456264348235e-05, -0.04820142686367035, -0.022480659186840057, 0.00010722286242526025, -0.00117745331954211, -0.000325338973198086, 0.0006664417451247573, -3.1119467166718096e-05, -0.0013657193630933762, -9.550128015689552e-05, -0.00012019823770970106, -5.024873826187104e-05, -2.3893697289167903e-05, -0.00010302080772817135, 0.0015551026444882154, 7.72886851336807e-05, -0.003095012390986085, -0.007096162065863609, 4.657551471609622e-05, -0.0012484736507758498, 0.002947575179859996, 8.24977396405302e-05, 0.024594511836767197, 3.0754654289921746e-05, 0.00014656787971034646, -0.00019293575314804912, 0.0028851618990302086, 0.0025677108205854893, -0.0005287239910103381, 9.011193469632417e-06, -0.004227540455758572, -0.0014528350438922644, 0.005473518744111061, -7.910613203421235e-05, 0.01638541743159294, 0.00011952636123169214, 0.0007595688221044838, -0.040606990456581116, -0.010156363248825073, 6.500588642666116e-05, -0.013563040643930435, 0.0022030132822692394, 0.00023995220544748008, -0.00021120483870618045, 0.009256662800908089, -0.00025196373462677, 0.00023954501375555992, -3.570241460693069e-05, 0.0004833303391933441, 9.273547038901597e-05, -0.00038509536534547806, 0.00031281367409974337, 0.0017107290914282203, -0.0014759707264602184, -0.025030391290783882, -0.0009134836727753282, 0.004140017554163933, 0.00013458688044920564, 0.0004466667305678129, -0.0006970131071284413, 0.00023160630371421576, 1.747482383507304e-05, -0.00976581871509552, 3.456182821537368e-05, 0.0005189540097489953, 1.7506748918094672e-05, 0.0005319239571690559, -0.0011965271551162004, -0.004462370183318853, -0.00269901379942894, -0.012691839598119259, -0.06789083778858185, 0.000506031617987901, 0.006659423001110554, 0.0014001945964992046, 0.00010762071906356141, -0.0034417426213622093, 0.010291021317243576, -0.009163140319287777, 0.00010270182247040793, 6.119422323536128e-05, 0.01046533789485693, -0.0010364700574427843, 0.0002733005676418543, -0.022615082561969757, -0.0008023342816159129, 0.0014778899494558573, 0.00016889955441001803, 0.0001193645439343527, -7.45622965041548e-05, 6.526936340378597e-05, -0.0009804011788219213, 0.001776086981408298, 0.005184086039662361, 0.00032682379242032766, 0.0003385883173905313, 0.001855487935245037, -0.00020394283637870103, -1.1338372132740915e-05, 0.00017132546054199338, 3.771740011870861e-05, 0.0008539534173905849, -0.0019233431667089462, 0.00017965049482882023, -0.003355292370542884, 0.0005204783519729972, 0.009786850772798061, 0.0003585200465749949, -0.0006644312525168061, 0.000988809741102159, 3.206251858500764e-05, 0.00022636661014985293, -0.012747537344694138, -1.5359864846686833e-05, 3.4929387766169384e-05, -0.0023361577186733484, 0.0011614840477705002, 0.0002463082200847566, -0.0016326878685504198, 7.740093860775232e-05, 0.0001278930576518178, -0.0008446171414107084, -1.1751952115446329e-05, -0.0006530443206429482, -0.0019869087263941765, 6.819445115979761e-05, 0.0034551690332591534, -0.0021681180223822594, 0.0017939242534339428, 0.0441492460668087, -3.667393320938572e-05, 0.00032153615029528737, 1.2670291653193999e-05, -0.08240103721618652, 0.0009605084778741002, 1.4124641893431544e-05, 0.0007293403032235801, 0.00035537482472136617]
3: [-0.0007336946437135339, -2.6198717932857107e-06, -6.046046473784372e-05, 0.00038672154187224805, -5.7185563491657376e-05, 4.5963097363710403e-05, 2.9516988433897495e-05, 1.965571937034838e-05, 0.00014798311167396605, 4.705953415395925e-06, 1.8231719877803698e-05, -0.00025389116490259767, 3.6457984720073e-07, -4.9083042540587485e-05, 0.00025076611200347543, -0.00011830307630589232, 4.7024797822814435e-05, -0.00020733311248477548, -0.0005383022362366319, 4.830118268728256e-05, -2.1989308152114972e-07, -1.567157232784666e-05, 0.00018329406157135963, 0.00035397885949350893, 0.010491234250366688, -0.0011011542519554496, 0.00013469235273078084, 1.0476701106654218e-07, -0.0016622974071651697, -0.0011984002776443958, -9.616866009309888e-05, -0.00037092206184752285, -3.8958336517680436e-05, 0.0010909519623965025, -2.8565766115207225e-05, -0.0004331149684730917, -1.1797776096500456e-05, -2.1733593769113213e-07, -1.0000003385357559e-05, -4.291494042263366e-05, 9.457997657591477e-05, -9.817411773838103e-05, -0.000222793358261697, 3.0768627766519785e-05, 6.822364412073512e-06, 1.0549225407885388e-05, -0.0007654479704797268, -5.2032228268217295e-06, 0.004123268183320761, 7.668317994102836e-05, 0.0001655200612731278, -5.923342541791499e-06, 5.4638653637084644e-06, -0.0014935275539755821, 0.00022470243857242167, -0.0011696056462824345, -3.8714199490641477e-07, 0.00012046424672007561, 3.292724159109639e-06, 0.000478713889606297, -7.52951018512249e-05, 3.618100890889764e-05, 9.862141450867057e-05, -2.5513454602332786e-05, 0.0002907222369685769, -2.4547794964746572e-05, 2.2202964828466065e-05, 7.592925248900428e-05, -0.0006478516152128577, -7.659741640964057e-07, 0.008104858919978142, -2.714190850383602e-05, 7.079577335389331e-05, -7.248575457197148e-06, 0.0001010029882309027, -0.00011328671098453924, 0.00014430374721996486, 0.00030662486096844077, 0.0011408873833715916, -2.0142755602137186e-05, 0.0053491853177547455, -2.2781023290008307e-05, -2.0754623619723134e-07, -2.6577734388411045e-05, -2.6678280846681446e-05, -0.0008002690155990422, 0.0008309305412694812, 7.072028529364616e-05, -3.943930551031372e-06, 9.127092198468745e-06, -2.3625449330211268e-07, -2.4809014576021582e-05, 6.0419130022637546e-05, 7.049195119179785e-06, -3.788676258409396e-05, -3.988511707575526e-07, 1.5906334738247097e-06, -6.058720464352518e-05, 8.806699770502746e-05, 0.0016513183945789933, 2.2381311282515526e-05, 1.22956553241238e-05, 0.00013104896061122417, -2.2483645807369612e-05, 0.0004057536425534636, 0.0005629046354442835, -5.494098331837449e-06, 9.189475349558052e-06, -0.00014861038653180003, 0.001842436846345663, -4.636796802515164e-06, 3.130335971945897e-05, 4.7238376282621175e-05, 0.00023569574113935232, -9.574250725563616e-07, 1.0749668945209123e-05, 1.192498893942684e-05, -0.000803035800345242, -0.00015163779607973993, -1.26164636071735e-07, -0.0013304674066603184, -4.844725481234491e-05, -0.0002620849700178951, 1.1635231203399599e-05, 0.0002956143580377102, -0.0002080285339616239, -5.1965698730782606e-06, 9.401890565641224e-05, 0.0001516367046860978, 2.410462730040308e-05, 1.8606775483931415e-05, 2.0909459635731764e-05, -0.014497272670269012, 0.0001850528351496905, 0.014320524409413338, 9.067473001778126e-06, 0.00013980141375213861, -0.0026208097115159035, 0.0011504213325679302, 4.145429102209164e-06, -0.0004893961595371366, -0.00010089802526636049, 4.2152565583819523e-05, 0.0011361264623701572, -0.000254463724559173, -2.4948221835074946e-06, -0.0003791426424868405, -4.9624493840383366e-05, -0.001743845408782363, 6.128346285549924e-06, 0.0005362458759918809, -6.317484803730622e-06, 0.00024380304967053235, -5.6672259233891964e-05, 0.0004674288793466985, -4.116991476621479e-07, -0.00014017462672200054, 1.5222522051772103e-05, 0.0014027580618858337, 0.00022845229250378907, -0.004389526788145304, -3.186541289323941e-05, 1.656643144087866e-05, 9.597857570042834e-06, 3.5765024222200736e-06, 4.093798224857892e-07, 1.977749343495816e-05, 1.5171577615546994e-05, -0.0001356337161269039, -5.262364538793918e-06, 2.9875302061554976e-05, -4.847885429626331e-05, 0.001128648640587926, -0.0017190056387335062, 0.0001645836455281824, -4.252722646924667e-05, 9.362966375192627e-05, 0.0005224446067586541, 0.004381189122796059, 0.0004035551392007619, -0.008376475423574448, 0.0015592648414894938, -0.0014927880838513374, 3.477240534266457e-05, 6.761164695490152e-05, 8.20381046651164e-06, -0.00021752307657152414, -3.5481658414937556e-05, -0.00027996793505735695, -0.0002554063103161752, -9.924187907017767e-05, 4.7454068408114836e-06, -9.113970008911565e-06, 7.624229056091281e-06, 7.749356882413849e-05, 3.364831718499772e-05, 1.431307646271307e-05, -0.0004937931662425399, 0.0002553799422457814, 2.628011498018168e-05, 0.00013656394730787724, 0.0006007339106872678, 0.00034832156961783767, 0.00012709158181678504, -0.0001387899974361062, 0.0001953117607627064, -2.1620824554702267e-05, 0.0035393876023590565, 0.0001521476951893419, -5.579992830462288e-06, -0.0003968715900555253, 0.00010416732402518392, -0.0023481587413698435, -1.345834448329697e-07, 1.2004727523162728e-06, 2.542731635912787e-06, -0.00034034953569062054, 4.97478322358802e-06, -3.2171647035283968e-06, 1.419360614818288e-06, 5.584963219007477e-06, -1.8396622181171551e-06, 0.00011396873742341995, -2.92886079478194e-06, 0.016408640891313553, -0.00023994568618945777, -2.6851397706195712e-05, 0.0004233336076140404, 0.00318839680403471, -1.4986309906817041e-05, -1.090589830710087e-05, 0.0002685994259081781, -0.0016344566829502583, -2.217572728113737e-06, -0.0005916508380323648, 5.148124728293624e-06, 1.7837879568105564e-05, 1.2868266821897123e-05, -7.407765224343166e-05, -0.0007069067796692252, -0.011370673775672913, 1.6468688954773825e-06, 1.6530033462913707e-05, -6.150496119516902e-06, -0.0018478580750524998, -2.5621893655625172e-05, -0.005288302432745695, 0.00018730765441432595, 9.418126865057275e-05, -2.5803134121815674e-05, 0.0016564131947234273, 0.0002432265755487606, -0.00017298798775300384, -4.3185764297959395e-06, 0.0034579942002892494, 1.7102935089496896e-05, -0.003227987326681614, 2.036779733316507e-06, -0.00011327481479384005, -4.459921910893172e-05, -0.0010760761797428131, -5.7421086239628494e-05, -0.0028362961020320654, 8.425341775364359e-07, -0.0019226500298827887, -2.181559830205515e-05, 0.0008886571740731597, 0.00014962958812247962, -0.00036739977076649666, 0.00014909532910678536, 0.0006270091980695724, 2.754089564405149e-06, 0.0002457512600813061, -0.0018691092263907194, 0.0004222351126372814, 5.0010826271318365e-06, 0.00017772540741134435, -1.2610375961230602e-05, -0.00486154668033123, 2.851975841622334e-05, 6.913807010278106e-05, 1.6092142232082551e-06, -0.0006123813800513744, -2.0403675193847448e-07, -0.00030636522569693625, 0.00027236013556830585, 4.099707439308986e-06, -0.0005543659790419042, -6.141307267171214e-07, 1.1925817489100154e-06, 0.0003043320612050593, 1.5606425222358666e-05, 0.00011857698700623587, -4.81097401916486e-07, 5.136746040079743e-06, -0.0002756192989181727, -1.9067226730840048e-06, 1.9429960502748145e-06, 2.4220662453444675e-05, -2.7171070541953668e-05, -0.003509714500978589, -8.276194421341643e-06, 1.3481776477419771e-06, 4.0352681196509366e-09, 4.58167924080044e-05, -1.278760282730218e-05, 0.0001310012594331056, -1.0328280040994287e-05, 3.445186393946642e-06, 0.0003554914437700063, 7.629022729815915e-05, -5.024672282161191e-05, -2.9521912438212894e-05, 0.00047165725845843554, 5.2466977649601176e-05, 8.38722990010865e-05, -0.0010109159629791975, 1.948625367731438e-07, 6.756046059308574e-05, -1.262480509467423e-05, -7.290957455552416e-06, 2.0752777345478535e-05, -7.133501640055329e-06, -8.350057760253549e-05, 0.00011899783567059785, 9.927753126248717e-07, -5.827394033985911e-06, -1.2281806448299903e-05, 0.00026759819593280554, 7.273831670318032e-07, 4.616388469003141e-05, -0.0002254174032714218, 2.4772685719653964e-05, -6.696154741803184e-06, -7.292916416190565e-05, 1.5117147995624691e-06, 3.927814032067545e-05, 4.61881427327171e-06, 0.00023795419838279486, -1.6340737829523277e-06, -0.0005097630782984197, 5.818244972033426e-06, 4.17155388277024e-06, -0.0006784011493436992, -0.00021267624106258154, 0.00024115786072798073, -0.0005476518999785185, -1.9953045011789072e-06, -0.0003068597870878875, 1.4784760651309625e-06, 9.0133908088319e-06, 0.0008131986251100898, 1.3769720681011677e-05, -9.238647180609405e-06, 7.029242988210171e-05, 0.00029258790891617537, 5.841995152877644e-05, 0.0002986524486914277, 0.0005950693739578128, -1.7383665351644595e-07, -0.00013073685113340616, 1.6158941434696317e-05, -9.069372026715428e-05, 7.992897735675797e-06, 0.0004486650868784636, 1.552469711896265e-06, 6.379403930623084e-05, 1.7204256437253207e-06, -0.0036596935242414474, 2.866806426027324e-06, -0.007314110640436411, 8.420206540904474e-06, 3.933072730433196e-05, 7.5929210652248e-07, -0.0010544537799432874, -1.943558572747861e-06, 0.00015513168182224035, 3.857714546029456e-06, -8.416668606514577e-08, 2.388408120168606e-06, -5.298375072015915e-06, -2.986473646160448e-07, 0.0005981643917039037, -1.8577236915007234e-05, 0.00015751327737234533, -5.993207423671265e-07, -6.0093596403021365e-05, -1.7463516996940598e-06, -0.0013646511361002922, -5.642807809635997e-05, -0.000628775916993618, -0.004596811719238758, 2.4942159143392928e-05, -1.4181827282300219e-05, 0.0021009324118494987, -4.993249604012817e-06, -0.00010150432353839278, 0.00016925373347476125, 7.595543138450012e-05, -4.819160039915005e-07, -5.6329099606955424e-08, -0.00011272318079136312, 8.89711645868374e-06, -1.527531276224181e-05, -0.0018800015095621347, 9.994075298891403e-06, 0.00012349136522971094, 2.369682988501154e-06, 0.00015971189714036882, -0.000136130751343444, -0.0001127655414165929, -1.1322199497953989e-06, 9.16711869649589e-05, 3.984915565524716e-06, 0.0003651974257081747, -1.0759298675111495e-05, 0.00032308371737599373, -0.00030057335970923305, -0.0041613494977355, -8.014646300580353e-05, -0.001662836060859263, -2.287393726874143e-05, -5.269630491966382e-06, -4.3998530600219965e-05, -5.6691009376663715e-05, 0.0008345516980625689, 7.382965850410983e-05, -3.245825652697931e-08, 3.226869011996314e-06, -1.7303246124811267e-07, 4.453463770914823e-05, -8.179557880794164e-06, -1.853497997217346e-05, 4.2457046220079064e-05, -0.0001652970095165074, -5.68760128771828e-07, 1.2800916010746732e-05, -0.0002517671964596957, 5.108639015816152e-06, -9.50206012930721e-05, -7.516713958466426e-05, 4.316544072935358e-05, 5.2203853556420654e-05, 0.00039371158345602453, -0.01198916882276535, -1.903490374388639e-05, 0.0004312778473831713, 0.0003839021665044129, -8.456090290565044e-05, -1.3823253539158031e-05, 0.00034123967634513974, -1.1534524674061686e-05, 5.0105616537621245e-05, -4.842995258513838e-05, 0.00010723454033723101, 0.0002371350710745901, -0.00011474353959783912, 0.00010269573249388486, -1.4577937008652952e-06, 0.001081331865862012, 2.55486520472914e-06, 2.3915017663966864e-06, -8.20295227299539e-08, -6.558143650181592e-05, -1.260491626453586e-05, 1.636815113670309e-06, 0.0003894424589816481, 5.099125814922445e-07, 0.00021762978576589376, -3.547673986759037e-05, 0.020543038845062256, -9.073044566321187e-06, -0.007598715368658304, -1.066544973582495e-05, 3.6910623748553917e-06, 0.00021064106840640306, 4.848816024605185e-05, -1.669419179961551e-05, 1.8678497326618526e-07, 0.00010260250564897433, 0.0007029910339042544, 1.3721861250814982e-05, -0.0004271530779078603, 4.133131369599141e-06, 9.284904808737338e-05, -9.712634346215054e-05, 0.0001036481189657934, 0.00011211977835046127, -0.0024510675575584173, -0.00040693674236536026, 6.074061275285203e-06, 0.0009052809909917414, 0.0025567268021404743, 0.0004789367667399347, 0.00795256532728672, 1.0283565643476322e-05, 2.5422414182685316e-06, 0.0003487254725769162, -6.540254253195599e-05, -2.249711542390287e-05, 0.004205680452287197, -2.3338099708780646e-05, 0.00014494871720671654, -0.009241588413715363, -0.0012196431634947658, 5.406645414041122e-06, -3.5119446692988276e-05, 0.00037759632687084377, 0.00031562839285470545, 0.006084106862545013, 0.0008708153036423028, -0.00022427727526519448, -0.00029822858050465584, 2.3575248633278534e-06, -0.0020281593315303326, 4.469107079785317e-05, 9.511645475868136e-05, -0.0011612932430580258, -9.940518066287041e-05, -1.6459136986668454e-07, 2.4567034415667877e-05, 4.004899165011011e-05, -3.430858441788587e-07, -0.00014563329750671983, -1.784129926818423e-05, -7.563354301964864e-05, -3.002907305926783e-06, -0.00020720812608487904, -0.005372082814574242, 8.963549043983221e-05, -0.0001561525568831712, 2.2030631953384727e-05, -0.0002401381789240986, 0.002031998708844185, -1.6187279925361509e-06, 0.0015933798858895898, -0.00017991368076764047, -3.094565909123048e-05, 0.0003904928162228316, -3.132595156785101e-05, 0.0010044083464890718, 1.772882569639478e-05, -1.6249543477897532e-05, -8.356739272130653e-05, -0.006448823027312756, -4.217157038510777e-05, 2.743061850196682e-05, -0.0048742773942649364, -8.26338873594068e-05, 5.912520646234043e-05, -7.424237992381677e-06, -1.4208406355464831e-05, 0.00017620468861423433, 0.0001931339065777138, 5.1342882215976715e-05, 0.00026190385688096285, 0.0001855483278632164, 2.1705283870687708e-05, 0.0009253716561943293, -0.00037482124753296375, -5.63238536415156e-05, 0.002333797514438629, 1.0624971764627844e-06, 0.0009260464576072991, 4.562496906146407e-05, -0.0010718066478148103, 0.00012210413115099072, 3.220640337531222e-06, 1.8578416529635433e-06, 6.653999662376009e-06, -2.546624091337435e-05, -7.444671609846409e-06, 4.345735578681342e-05, 0.00016346934717148542, 0.0005736062303185463, -0.000189035534276627, 0.0004753092071041465, -1.4288169722931343e-06, -3.6146375350654125e-06, 4.9149952246807516e-05, -1.7662259779172018e-05, 0.0010726931504905224, -5.6854540162021294e-05, -0.00010636229126248509, 0.002188383135944605, 9.907340427162126e-06, 7.023924263194203e-05, 0.0002890141331590712, 0.002115872222930193, -0.00021683011436834931, 2.439678064547479e-05, 0.00010041402856586501, -0.000218646353459917, 5.64230685995426e-05, -0.0019037533784285188, 7.058875053189695e-05, -2.6690711820265278e-05, 8.725617954041809e-05, 1.3558383216150105e-07, 3.1549989216728136e-06, -0.0001487822155468166, 0.0004454029258340597, -0.005008959677070379, -1.5680352589697577e-05, 0.001550429267808795, 0.0001923169766087085, 0.00013175600906834006, -0.0005567377666011453, -0.00011778229963965714, 0.00019835498824249953, 9.025995677802712e-05, -0.001775461481884122, -3.1423653581441613e-06, 0.0019109284039586782, -0.0008463297272101045, -3.31414703396149e-05, 0.00010791220120154321, 1.451208572689211e-05, 0.00035830624983645976, 0.0001403629721608013, -4.995994095224887e-05, -4.765595804201439e-05, 0.00014925241703167558, -0.0015822465065866709, -5.045651050750166e-06, 0.00014764802472200245, 0.00014295324217528105, -0.001702125882729888, -0.0008625255431979895, 0.0006916525890119374, -0.0052725691348314285, 0.0015843261498957872, 9.92118293652311e-06, -2.4446908355457708e-05, -5.2473420510068536e-05, -0.006958315148949623, -1.0703919542720541e-05, 0.0009886965854093432, 3.725347050931305e-05, -1.1155789252370596e-06, 1.0253597793052904e-05, -0.001651184051297605, -2.4926132027758285e-05, 0.00019495637388899922, -0.008070068433880806, 0.0001777572906576097, -0.0016792829846963286, 0.00023443420650437474, 0.0001806740474421531, -7.279531018866692e-06, -0.0012256840709596872, 7.121292583178729e-06, -4.314084071666002e-05, -0.00023281443282030523, -6.748257419531001e-07, 2.57730862358585e-05, -3.6765452477993676e-06, 0.00018811909831129014, -0.0002474616339895874, 0.004400821402668953, -7.93133513070643e-05, 0.00016636215150356293, -8.577204425819218e-06, 2.4378416128456593e-05, -0.0010000201873481274, -0.003913631662726402, -0.00015284890832845122, -0.0001777544675860554, -4.376881770440377e-05, -1.6564972611377016e-06, 0.002512637060135603, 0.00015077079297043383, 4.074994649272412e-06, -7.461107088602148e-06, -0.006719066295772791, 1.0515715985093266e-05, 0.0002405730338068679, 0.00012363179121166468, 7.598035881528631e-05, 3.106397343799472e-07, 0.0003264564147684723, -2.8748775093845325e-06, 0.00014279905008152127, 2.2817230274085887e-06, 3.7574544364815665e-08, -0.00019592884927988052, -2.648043846420478e-07, -3.735516656888649e-06, -0.0021103976760059595, -9.961215255316347e-06, 0.0008361057844012976, 0.00026907725259661674, 3.847524567390792e-05, -4.3489664676599205e-05, -0.004249568562954664, 3.902216849382967e-05, -5.138105188962072e-05, 0.0005128128686919808, 0.00039780279621481895, -4.464770609047264e-05, 0.0003247037820983678, 1.2085674825357273e-06, -7.011381057964172e-06, 8.86320776771754e-06, -0.0005349203711375594, -0.00017849987489171326, 6.663452950306237e-05, -1.0643059795256704e-05, -0.000940417405217886, -1.3644024875247851e-05, 0.00012099018204025924, 0.00013438044697977602, -0.0008897754596546292, -5.745800081058405e-06, -0.00026789199910126626, 2.4111379389069043e-05, -5.494694414664991e-05, 1.2846106983488426e-05, 0.0008350787684321404, 4.410949259181507e-06, -0.01883988082408905, -2.61415152635891e-07, -1.830508881539572e-05, 1.1810344403784256e-05, -9.220440233548288e-08, 2.7365040295990184e-06, -0.0005548610351979733, 1.2794498616131023e-05, -0.00021220443886704743, 0.0002731586864683777, -5.7814468163996935e-06, 4.8785666876938194e-05, -2.5534265660098754e-05, -1.3284672604640946e-05, -2.360726830374915e-05, -1.2664533642237075e-05, -0.002884850138798356, 3.16303567160503e-06, 0.0002706423692870885, -9.073529508896172e-05, -0.0005977929104119539, -0.0001132553443312645, 0.00028831162489950657, -2.9717843972321134e-06, -0.0006588983233086765, -5.114772648084909e-06, 8.469568274449557e-05, 7.143736002035439e-05, -0.002914458978921175, 0.002242975402623415, 6.634028977714479e-06, -2.336581928830128e-06, 7.107382407411933e-05, 9.564717402099632e-06, 0.00045303755905479193, -6.150222907308489e-05, -1.7543577541800914e-06, -7.433400242007338e-07, -4.228966645314358e-06, -1.6423819033661857e-05, 0.0009661642834544182, -3.450741587585071e-06, -3.615698733483441e-05, 1.0103103704750538e-06, -2.2672716113447677e-06, 0.00033031177008524537, -7.942368392832577e-05, 0.00016286490426864475, 5.977058026473969e-05, -9.6247618785128e-05, 0.0026046084240078926, 1.1272761184955016e-05, 0.00022359764261636883, 3.7824446508238907e-07, 5.397738505052985e-07, -0.000527670606970787, -2.4089651560643688e-05, -3.751567646759213e-06, -0.003965670708566904, 0.00016411166870966554, 9.37418153625913e-05, -4.1804045736171247e-07, -3.673741593956947e-05, 0.00027275781030766666, -0.009384664706885815, -6.006287549098488e-06, 6.400374695658684e-05, -1.4144304714136524e-06, 0.0011254246346652508, 0.00019085314124822617, -0.000276000500889495, -4.756509042636026e-06, -0.0010978979989886284, 0.00010076301987282932, 6.594389105885057e-07, -4.33727018389618e-06, -0.00017906638095155358, 5.986177711747587e-06, 7.258790901687462e-09, -6.493635737570003e-06, -4.427152452990413e-05, -5.6934310123324394e-05, -6.545678479596972e-05, 6.914087862242013e-07, 1.4729273971170187e-05, 2.785587275866419e-05, 9.191047865897417e-06, -1.5106474165804684e-05, 0.0015890479553490877, 0.0004744272446259856, -7.483641093131155e-05, 0.00030099463765509427, -2.550451608840376e-05, 0.0004492548468988389, -2.8754111554007977e-06, -0.00011241772153880447, 1.2295380429350189e-06, -0.0015056774718686938, -5.139232234796509e-05, -5.47138370166067e-06, 7.083368836902082e-05, 0.0001380711910314858, 0.0002370245783822611, -1.5196297681541182e-05, -2.8416789064067416e-05, -1.5159677786868997e-05, 8.2015321822837e-06, -0.0007079442730173469, 0.0006946363719180226, -1.4445035958488006e-06, -0.000651634531095624, -3.5185217939215363e-07, -0.004973607137799263, 0.0003371565544512123, 1.0548824320721906e-06, 0.0002444441197440028, -0.0009424230665899813, -0.00011547116446308792, 0.00034350319765508175, 1.1832457857963163e-06, 4.898046245216392e-05, -5.958381734672002e-07, 0.00018288928549736738, 0.0026643991004675627, 0.00030010746559128165, -0.0001515182084403932, 0.0031518933828920126, 1.9159995190420887e-06, -3.6102755984757096e-06, -6.718099939462263e-06, 0.0008176323026418686, 5.321886419551447e-06, -8.650891686556861e-05, -6.181204298627563e-06, 0.0020476263016462326, 2.192714237025939e-05, 0.00046119053149595857, 0.000265443348325789, -0.0009128041565418243, -1.107877142203506e-05, -1.193965545098763e-06, 0.0018940914887934923, -3.7267664083628915e-06, 0.00025096710305660963, 0.000932896276935935, -1.1748379620257765e-05, -0.0006072793621569872, 0.0002983571612276137, -4.87014876853209e-05, -6.988212408032268e-05, 0.0014661182649433613, 0.00010195475624641404, -5.386034899856895e-05, -3.919539267371874e-06, 1.5330593669204973e-05, 1.1940746844629757e-05, -0.0029511733446270227, 4.030656327813631e-06, 0.00046927586663514376, -0.00028598852804861963, 1.3489808452504803e-06, -0.00010527025006012991, 6.58509015920572e-05, 1.4865113371342886e-05, -0.003102150047197938, -9.968664926418569e-06, 2.450542524456978e-06, 1.479948332416825e-05, -0.00017691703396849334, -0.0007766550988890231, 0.0001888967235572636, 9.532202238915488e-05, -0.01842367835342884, 0.0002819203364197165, 4.135968629270792e-05, 0.00018876203102990985, 0.0015816425438970327, 3.486156401777407e-06, 1.7601376384845935e-05, -0.0015963558107614517, 0.0002122611040249467, -8.902649824449327e-06, 0.008256669156253338, -0.001196844270452857, 8.53520668897545e-06, 9.888306522043422e-05, 5.121344293002039e-05, 1.5573591554129962e-06, 1.220596459461376e-05, 2.0345160010037944e-05, 0.001931354170665145, 2.658950506884139e-06, 2.8582966479007155e-05, -1.4550155356118921e-05, 5.030585089116357e-05, -0.0002208289224654436, 0.0017587239854037762, 5.886868166271597e-07, -0.00011323187936795875, 0.00011064585123676807, 0.0005549771594814956, -1.772983159753494e-05, -0.0014425886329263449, -3.990241111750947e-06, -0.0014335692394524813, -3.3226158393517835e-06, 4.694376912084408e-06, -1.0475288945599459e-05, 2.322278123756405e-05, 6.538393790833652e-05, 6.343374843709171e-05, 0.00019746946054510772, -6.119342288002372e-06, -0.0027574163395911455, -2.4625995138194412e-05, -0.0011771873105317354, -0.00014814398309681565, 3.3247247301915195e-06, -0.0007219617837108672, -0.001515340292826295, -0.00021590050891973078, 0.00011267329682596028, 3.6704143440147163e-06, -0.0022845263592898846, -1.2219479685882106e-05, 8.837523637339473e-06, 0.005316438619047403, -3.68831715604756e-05, -5.4670839745085686e-05, -3.24255415762309e-05, 2.8734284569509327e-06, 9.890436922432855e-05, -1.725029869703576e-05, 0.000558822532184422, -5.717050953535363e-06, -0.000553376623429358, -0.0001833112764870748, -0.00019402378529775888, 0.0002094357623718679, 0.0002124476886820048, 1.9302535292808898e-05, 0.00015802551934029907, 9.005241849990853e-07, -0.0004976614727638662, -0.00027712073642760515, -4.998139411327429e-05, 0.002783149480819702, 1.4051849575480446e-05, -0.0003527341177687049, 7.221611667773686e-06, -0.0005495742079801857, 3.514858690323308e-06, -1.172097290691454e-05, -4.091583105036989e-05, 0.002530795754864812, 2.644907453941414e-06, -6.3397478697879706e-06, -0.0002067089080810547, 0.0022535203024744987, -7.840954640414566e-05, 4.740257281810045e-05, 1.5845464076846838e-05, 0.0007065269746817648, 0.0005842361133545637, -0.0001237453834619373, -0.0001514311443315819, -5.102570867165923e-06, 2.2760168576496653e-06, 8.208393410313874e-06, -3.224386091460474e-05, 5.6472716096322984e-05, 0.0025909780524671078, 1.2533197150332853e-05, 0.0002489804173819721, 5.688780788659642e-07, -0.005507739260792732, -3.757554441108368e-05, -0.00011842730600619689, 0.0011390203144401312, -7.397773879347369e-05]
