0: [-237.13710021972656, 229.4585418701172, 379.94500732421875, -182.43356323242188, -113.62710571289062, -246.08905029296875, 368.380859375, -495.6818542480469, 96.61510467529297, 188.7398681640625, 69.31893920898438, 445.8075256347656, -392.8775634765625, 381.0708923339844, -82.05853271484375, -968.8138427734375, -161.50555419921875, 286.10302734375, -360.34912109375, -101.8046646118164, 35.30376434326172, -183.82545471191406, 156.44248962402344, 365.78887939453125, -275.79193115234375, -256.9055480957031, -1.7769567966461182, -7.567073822021484, -0.018114719539880753, -304.3645935058594, 106.87537384033203, 0.05363796651363373, 0.006153268739581108, -56.713783264160156, -1.0593700408935547, 102.10818481445312, -225.39260864257812, -368.49285888671875, -116.10494232177734, 317.61700439453125, 292.14794921875, 24.872390747070312, -195.86920166015625, -153.03067016601562, 86.29548645019531, -4.757375240325928, -442.6855773925781, 5.316139221191406, 160.28765869140625, -84.20381927490234, -169.2982177734375, 0.0023829739075154066, 0.20904403924942017, 242.35511779785156, -593.1756591796875, -302.5126953125, -155.60675048828125, 34.28706359863281, 23.7946834564209, -0.30739253759384155, 41.98900604248047, 197.89437866210938, -139.35247802734375, 73.69590759277344, -276.6466979980469, 163.2696533203125, -66.64505004882812, 202.2375030517578, 1.8736376762390137, -4.293798446655273, 157.12303161621094, 42.316062927246094, -419.4784240722656, -99.17811584472656, -331.9187927246094, 234.31845092773438, -51.947139739990234, 91.78897094726562, 47.91743850708008, 44.693580627441406, -192.68038940429688, 8.761594772338867, -305.4126892089844, -128.72879028320312, -283.6205139160156, 127.45906066894531, 0.004676640033721924, 0.002750408137217164, -67.47075653076172, -568.325927734375, -238.71578979492188, -571.5820922851562, -155.0792236328125, -23.411483764648438, -4.567756175994873, 39.135337829589844, -256.2563171386719, -11.427156448364258, -471.2535095214844, 374.889404296875, 211.96328735351562, -280.04302978515625, 29.392486572265625, 24.164920806884766, -507.4445495605469, -53.55290985107422, -0.0006120840553194284, -793.3580322265625, 245.08021545410156, 112.90193176269531, -57.978660583496094, -278.73486328125, 58.96590805053711, 41.46012878417969, 332.569580078125, -35.60832214355469, 60.85734176635742, -0.6785200834274292, 28.76947593688965, -355.1403503417969, -138.89303588867188, -267.7066955566406, -0.0010941242799162865, -111.92529296875, -652.9837646484375, -533.8268432617188, -329.77423095703125, -250.07705688476562, 346.03948974609375, 79.93022155761719, -0.6277215480804443, -200.73117065429688, 163.66726684570312, -175.08782958984375, -0.0029159211553633213, -446.0291748046875, -383.67608642578125, -7.517555236816406, -214.8390350341797, -94.76611328125, 95.4093017578125, -511.2729187011719, -318.51312255859375, -32.572975158691406, -13.653047561645508, -739.2808837890625, -31.0668888092041, 84.97700500488281, 321.7393798828125, 343.7425537109375, -119.60848999023438, 932.4561767578125, -63.825435638427734, 663.9078369140625, -81.73291778564453, -21.46112632751465, 488.29925537109375, 192.0404052734375, -374.02239990234375, -55.87771224975586, -72.77899169921875, -21.618640899658203, -71.15214538574219, -270.3138427734375, -21.47774887084961, 511.9525146484375, -438.12042236328125, 496.83868408203125, 26.06593132019043, 97.17381286621094, -438.5342712402344, 321.6859436035156, -784.2601928710938, 0.5519775748252869, -178.58621215820312, 108.23834228515625, -123.2176742553711, -6.583809590665624e-05, 81.94873809814453, 465.987548828125, -195.00140380859375, -0.0004474259330891073, 0.001396177802234888, 129.7613983154297, 70.40141296386719, 144.84568786621094, -47.83678436279297, 102.16972351074219, -351.0491943359375, -516.52587890625, -22.249977111816406, 0.0012031537480652332, 153.02325439453125, -268.5252380371094, -0.000336230150423944, 552.2255859375, 19.914690017700195, -984.198486328125, -932.4894409179688, -34.147560119628906, 96.45841979980469, -4.97304630279541, 338.66241455078125, 0.00011305321822874248, -411.0590515136719, 123.20143127441406, 194.9435577392578, -88.85067749023438, -351.7933349609375, -73.1105728149414, -33.92263412475586, 148.73611450195312, 123.6817855834961, 291.39044189453125, -177.52593994140625, 0.0001022143114823848, -85.52134704589844, -646.7199096679688, 314.23419189453125, 445.8376770019531, -0.000338625512085855, 28.047863006591797, 340.79864501953125, 0.31895631551742554, 71.47648620605469, -381.1789245605469, -583.813720703125, -312.29974365234375, -274.1704406738281, -484.4501037597656, 57.21818542480469, -551.8948364257812, -390.5693664550781, 7.699362754821777, -55.15213394165039, -461.38446044921875, -307.411865234375, -543.458984375, -222.64306640625, -1065.8280029296875, -92.26069641113281, -177.6804962158203, -2.79976487159729, 335.8277587890625, 39.6907958984375, 445.2895202636719, 20.915523529052734, 1.2744324521918315e-05, -204.67730712890625, 21.498695373535156, -2.3925888538360596, 230.0413360595703, -272.3337707519531, -427.2543640136719, 47.74132537841797, 59.04052734375, -95.1005859375, -20.274755477905273, -105.80427551269531, -485.2108154296875, 35.31700134277344, -357.54638671875, 228.53518676757812, 36.59617614746094, -147.3646697998047, -108.58853149414062, -253.12393188476562, -113.6743392944336, 33.31122970581055, 112.77093505859375, -181.69879150390625, 39.75794219970703, -473.95855712890625, -266.5821533203125, -292.3646545410156, -482.4457702636719, -215.29550170898438, -262.2994689941406, -131.46714782714844, -282.41033935546875, 51.45258331298828, -71.28958129882812, 79.14120483398438, -0.3176668882369995, -286.3775329589844, -0.026439717039465904, -179.6531524658203, -284.6352844238281, 1.6685305833816528, 0.0010566134005784988, 191.41348266601562, -18.319297790527344, -487.3146667480469, 64.06560516357422, 177.5558319091797, 54.262062072753906, -785.4819946289062, -790.0172119140625, -365.72149658203125, 44.02779006958008, -162.28277587890625, 10.878315925598145, -0.5819608569145203, -402.1505126953125, -779.1849365234375, -184.32901000976562, -317.187744140625, -143.0402069091797, 0.029144758358597755, 1.9638811349868774, -204.168212890625, -782.2952880859375, -422.02593994140625, -209.49205017089844, -98.39884948730469, -280.6604309082031, 2.5938825607299805, -644.4927368164062, -75.93680572509766, -157.71514892578125, -383.2373352050781, -199.5928192138672, -225.29721069335938, -250.54635620117188, -311.6732482910156, -2.9622716903686523, 6.235531806945801, -271.59246826171875, -179.3992919921875, 111.6036376953125, 273.2952575683594, -351.72662353515625, -139.10696411132812, -210.730712890625, -90.89498138427734, 20.54560089111328, -80.0212173461914, 42.100807189941406, 0.7426419258117676, 11.153318405151367, -573.6604614257812, -178.17495727539062, -46.80145263671875, 0.011493261903524399, 0.011206905357539654, 147.80775451660156, -335.95611572265625, -936.1611938476562, -485.81719970703125, -151.42938232421875, -247.5270538330078, -245.964599609375, -146.61618041992188, -234.2422332763672, 2.5145626068115234, -155.0550994873047, -129.1472625732422, 268.025146484375, -635.0536499023438, 26.11920738220215, 194.84100341796875, 75.47740173339844, -221.15292358398438, 0.014872186817228794, -111.23943328857422, -440.26800537109375, -90.65032958984375, 11.679891586303711, -114.58009338378906, 370.0856018066406, -512.288330078125, 59.32672882080078, -100.45690155029297, 12.009692192077637, 2.7394487857818604, -180.1726531982422, -448.5579833984375, -99.21076202392578, 71.38603210449219, -0.00241753738373518, -29.584630966186523, -647.2086181640625, -112.60995483398438, -307.5414123535156, -258.8356628417969, -565.0694580078125, -130.14202880859375, 0.0674976110458374, -275.3943176269531, -302.9457702636719, -340.1026916503906, -0.0070958128198981285, -8.405745506286621, -271.11639404296875, -382.93084716796875, 246.55001831054688, -22.42026710510254, -306.1020812988281, 34.607852935791016, -238.61709594726562, -354.8084411621094, -105.3819808959961, 12.888505935668945, -300.5447082519531, -233.87074279785156, -90.44001770019531, -552.1302490234375, -117.08355712890625, -291.6156921386719, -153.92938232421875, -6.30572509765625, -363.94317626953125, -27.868614196777344, -344.7134094238281, -558.6936645507812, -291.1607666015625, -204.7718048095703, -337.6033935546875, -0.8908629417419434, -190.62002563476562, -261.16168212890625, -118.05223083496094, -417.724609375, -468.2430725097656, -287.70751953125, 18.79474639892578, -170.80197143554688, -61.93971252441406, -139.1280517578125, -311.7000427246094, 0.44630947709083557, -234.2390594482422, -637.1251220703125, -613.8171997070312, 0.0018812358612194657, -463.35321044921875, -254.16024780273438, 45.032684326171875, -0.0001315357949351892, -0.0016653254861012101, 16.913278579711914, -669.974853515625, -124.77848052978516, -785.8187866210938, -86.29685974121094, -121.68515014648438, 4.981468200683594, -15.462825775146484, -0.0010475238086655736, -607.775146484375, -247.41700744628906, 0.002027487847954035, -148.18031311035156, -387.9324645996094, -540.3865966796875, 343.07452392578125, -89.85990905761719, -114.61565399169922, 14.159006118774414, -401.8521423339844, -0.0006645125104114413, -287.21502685546875, -434.8061828613281, 18.331209182739258, -275.083740234375, -520.8471069335938, -579.151611328125, 77.87928771972656, -362.42010498046875, -380.3230285644531, -98.47868347167969, -112.0592041015625, -0.000645695545244962, -430.3360290527344, -586.301025390625, -36.28329086303711, -24.27544593811035, -0.0006345931906253099, -473.9600524902344, -82.96528625488281, 1.6658543348312378, -147.82574462890625, 150.87521362304688, -613.1093139648438, -169.83831787109375, -204.31924438476562, 151.06947326660156, -273.1666564941406, -191.21849060058594, -166.58377075195312, -190.72433471679688, -19.96775245666504, -967.081298828125, -438.9880676269531, 113.57305908203125, -54.38593673706055, 77.46218872070312, -33.53056335449219, -639.1885375976562, -0.5443563461303711, -473.2238464355469, 3.0976529121398926, -524.8257446289062, -1053.849365234375, 3.281583985881298e-06, 156.91531372070312, 64.8878173828125, -3.108726978302002, 92.04244232177734, -172.85536193847656, -354.7053527832031, -362.47332763671875, 35.513023376464844, -271.4495544433594, 1008.925537109375, -469.9910583496094, -699.545166015625, -295.64776611328125, 227.9075469970703, 439.0880126953125, -2.8455581665039062, 284.37420654296875, -94.04006958007812, 61.40727233886719, -8.655795097351074, -620.1952514648438, 400.292724609375, -11.985000610351562, 42.86058044433594, 1118.568359375, -516.009521484375, -772.2218627929688, -448.6842346191406, -707.6483154296875, -228.0112762451172, -1035.5546875, 260.46221923828125, -856.9122924804688, 173.64878845214844, 182.6513214111328, 13.120169639587402, -429.81781005859375, 0.10288511216640472, -9.509765625, 637.4248657226562, -2.8897705078125, -0.024593019858002663, 202.15423583984375, -153.9940948486328, -438.3720703125, 745.7731323242188, -104.6524887084961, 177.0675048828125, -160.5973358154297, -520.2056884765625, -461.1620788574219, -331.0446472167969, 347.29486083984375, -200.7428436279297, 12.962238311767578, 454.4668884277344, 709.6537475585938, -437.2110900878906, 183.5210418701172, -177.98501586914062, -0.009904568083584309, -3.517390489578247, -299.5097961425781, -365.0511474609375, -679.214599609375, 333.092041015625, -481.8218078613281, 87.22030639648438, 10.731826782226562, 131.40020751953125, -6.347187042236328, 611.6962890625, 331.06536865234375, 311.370849609375, 55.45603942871094, 660.9169311523438, -218.6197052001953, 6.199219703674316, 1.7902650833129883, -200.7840576171875, -385.7437438964844, 368.3550109863281, -805.4877319335938, 905.2406616210938, -872.634765625, -540.8828125, -579.3553466796875, -646.7361450195312, 96.17347717285156, 928.64306640625, -16.43944549560547, 509.3556213378906, 679.2386474609375, -76.197265625, -295.5888671875, -0.01978532411158085, -0.01562389824539423, 51.25996398925781, 141.8979034423828, 881.4716186523438, 32.15299987792969, -254.82723999023438, -95.22177124023438, 202.64459228515625, 558.365966796875, -105.21653747558594, -22.749380111694336, 487.1202087402344, -631.9175415039062, 149.342529296875, -66.54293823242188, -143.05833435058594, 563.514404296875, 348.4948425292969, -927.2384033203125, 0.011983200907707214, 420.53509521484375, 295.7723083496094, 12.33111572265625, 210.08673095703125, 91.43629455566406, -602.9209594726562, 649.1654052734375, -647.9035034179688, 1018.6332397460938, -164.51300048828125, -7.828461170196533, 407.2837829589844, 955.99462890625, -0.8412628173828125, 662.440673828125, 0.008081228472292423, -978.712158203125, 502.36016845703125, -414.8529052734375, 286.428955078125, 71.06535339355469, -581.4703369140625, -669.2129516601562, 2.5733938217163086, 11.213031768798828, -36.60527038574219, 161.70419311523438, 0.010057447478175163, 503.94580078125, -381.69085693359375, -175.1376495361328, -410.01385498046875, -536.77880859375, -274.2619323730469, -132.62705993652344, 288.83648681640625, -87.89620208740234, -376.86676025390625, 889.8817749023438, 807.1096801757812, -105.66667938232422, -393.60845947265625, 224.18817138671875, 149.31658935546875, 521.547607421875, -1177.1068115234375, -78.76576232910156, 431.39813232421875, -21.8150577545166, 402.8411560058594, -370.5790100097656, 350.1589050292969, 91.14909362792969, -177.97735595703125, 14.35224723815918, 24.27168083190918, -1158.756103515625, 186.54776000976562, -308.85943603515625, -128.9196319580078, 356.7254638671875, 89.17792510986328, -2.5427017211914062, -419.096435546875, -240.70616149902344, 126.01271057128906, -1.3786786794662476, 30.35380744934082, 185.4600067138672, 126.96946716308594, 0.0017414879985153675, -162.42611694335938, -518.02783203125, 197.1299285888672, 0.0030608822125941515, -0.00953915249556303, -116.65705108642578, -270.66314697265625, -2.5559310913085938, -678.70556640625, -318.3310546875, 446.282470703125, 29.60626983642578, -2.520998954772949, -0.007823302410542965, -264.1389465332031, 450.77203369140625, 0.004237031564116478, -253.90988159179688, 181.02520751953125, 90.4843978881836, 91.0326156616211, -150.47836303710938, 455.5543518066406, -27.948755264282227, -696.8902587890625, -0.0005617109127342701, 53.11280822753906, -165.57261657714844, -1083.668212890625, -950.9649658203125, 291.85650634765625, -635.2353515625, 304.5267639160156, -239.83053588867188, -543.9906616210938, -650.5623779296875, 839.3989868164062, 0.00019710605556610972, 643.8140258789062, 429.83355712890625, -867.4837646484375, -952.2804565429688, 0.0022752603981643915, -542.9749145507812, -282.5522155761719, -10.014094352722168, -648.0778198242188, 341.7234802246094, -148.69113159179688, -385.94140625, 400.69146728515625, 429.9386291503906, 299.93743896484375, 574.4261474609375, 796.1455688476562, 209.03988647460938, 296.4203186035156, 440.3572692871094, -99.97137451171875, 171.09707641601562, -217.12213134765625, -415.16650390625, 733.5057983398438, -430.3270568847656, 7.460512161254883, -945.9129028320312, -113.35441589355469, -1280.8375244140625, 288.7909240722656, -5.827680524816969e-06, -349.39703369140625, -83.06184387207031, 20.483983993530273, -195.4025421142578, -66.29383087158203, 86.28842163085938, -144.7971954345703, -521.198974609375, -74.02192687988281, -868.4861450195312, 412.6610412597656, 626.0794677734375, 887.0146484375, 349.6502990722656, -958.5413818359375, 693.6557006835938, -827.4847412109375, 144.56394958496094, -322.7285461425781, -109.4281005859375, 840.71044921875, 491.0529479980469, -366.1044006347656, -440.6560363769531, 2293.616455078125, 837.3472290039062, 344.0201416015625, 669.2191162109375, 545.5302734375, 8.175247192382812, 575.4028930664062, 649.2221069335938, 690.29296875, -280.6351013183594, -1368.24169921875, -2.520439863204956, 872.1246948242188, -0.039489492774009705, 644.7678833007812, -48.80567169189453, 1.4986469745635986, 0.0113093676045537, -1168.9835205078125, -13.08587646484375, 1904.061279296875, -1289.2877197265625, 1.7414779663085938, 1373.22607421875, 1129.7352294921875, 799.2705078125, 1304.53515625, 480.4653625488281, -862.51806640625, 197.22384643554688, -8.484112739562988, -585.087890625, 54.3441162109375, 439.8573913574219, -363.41058349609375, 629.9550170898438, 0.04621845856308937, -0.7943433523178101, 1156.5653076171875, 1177.5118408203125, 1392.8905029296875, -216.46319580078125, 518.8455810546875, -78.78999328613281, -2.6284942626953125, -17.089820861816406, 506.6126708984375, -934.3190307617188, 138.0001983642578, -643.9398803710938, 488.040283203125, 1235.3994140625, 199.4864501953125, -0.5464687347412109, 9.75291633605957, 14.24332046508789, 352.391845703125, 447.4357604980469, -220.81268310546875, -98.09194946289062, 427.6925964355469, 450.86480712890625, 984.2074584960938, 749.8116455078125, 357.2942199707031, -98.33271789550781, 0.79119873046875, -522.9105834960938, 348.7099304199219, 561.1653442382812, 148.9329071044922, 0.02463403157889843, 0.01579711213707924, -71.98983764648438, -136.42408752441406, 847.5580444335938, 1052.75927734375, 223.8736572265625, 977.3317260742188, 721.0318603515625, 425.0050354003906, -37.650604248046875, 1.914022445678711, 263.28662109375, 269.50518798828125, -44.3306770324707, 1280.04150390625, 9.577281951904297, -620.5699462890625, 83.09657287597656, 1119.9678955078125, 0.03248254954814911, -171.0950927734375, 143.42047119140625, 1479.8221435546875, -224.4517364501953, -1103.3902587890625, -127.43578338623047, 453.5092468261719, 558.4159545898438, 736.9183959960938, -45.86843490600586, -6.38371467590332, -762.9527587890625, -888.221923828125, 822.58447265625, -157.14718627929688, -0.0015276652993634343, 945.0643310546875, 285.7544250488281, 827.3014526367188, 712.0396728515625, 204.75924682617188, 1579.88720703125, 1557.5621337890625, 0.3589435815811157, -162.26202392578125, 942.8359375, 533.8843383789062, -0.01756654866039753, 690.321044921875, 766.3674926757812, 759.837890625, -888.65576171875, -62.7493782043457, -109.76566314697266, -156.72984313964844, 228.344970703125, 1059.8736572265625, 394.5628662109375, 676.9907836914062, 48.727149963378906, 1004.609130859375, 800.4476318359375, 556.97607421875, 147.3983612060547, 56.743125915527344, 1049.146484375, 448.08740234375, 282.50457763671875, 24.30276107788086, 351.3423156738281, 65.68718719482422, -1562.783447265625, -226.71246337890625, 124.19356536865234, 19.451318740844727, 147.0686492919922, 1737.9625244140625, 256.7693786621094, 22.793869018554688, 1414.7677001953125, 521.9256591796875, -329.5340576171875, 43.56049346923828, 1262.607666015625, 127.17308807373047, 36.93824005126953, 1.7925549745559692, -1285.2315673828125, 279.5304260253906, 312.27685546875, 0.0045683421194553375, 1087.571533203125, 220.20578002929688, 1473.955322265625, 0.000874324468895793, -0.004388134460896254, 162.45928955078125, 804.5260620117188, 136.2830810546875, 996.85986328125, 903.91162109375, -822.0870971679688, 1228.18603515625, 1.9084510803222656, -0.003151611192151904, 1886.35986328125, -331.3343505859375, 0.005744019523262978, 1712.047607421875, 550.3353271484375, 1184.34912109375, 570.8762817382812, 22.55010223388672, -1264.525390625, 32.26386260986328, 486.3188781738281, -0.0009343906422145665, -233.3089599609375, -206.41342163085938, 691.6176147460938, 1435.5225830078125, 760.8963623046875, 1761.9034423828125, 293.58172607421875, 1183.2940673828125, 1156.5452880859375, 257.8005676269531, -1100.805908203125, -0.00038744864286854863, 425.7629089355469, 1335.4771728515625, 770.6947631835938, 605.8804931640625, -0.0002249583340017125, 1461.3272705078125, 1147.307861328125, 5.034713268280029, 431.366455078125, -39.75334548950195, 1725.526123046875, 1085.4466552734375, -662.5090942382812, -393.69476318359375, -152.39401245117188, 378.78192138671875, -269.3770751953125, -680.0538330078125, -84.45816040039062, 732.343994140625, 1114.4005126953125, -583.0821533203125, -436.473388671875, 510.1888732910156, -588.4844970703125, 153.546142578125, -1.1515859365463257, 1187.7073974609375, 32.676998138427734, 1656.569580078125, 613.9227905273438, -3.3337000786559656e-05, -124.76155090332031, -196.8708038330078, -13.252592086791992, 666.5304565429688, -804.7570190429688, 1139.1151123046875, 357.90435791015625, 621.1619873046875, 445.53497314453125, -1408.3856201171875, 155.87298583984375, 386.4231262207031, 25.457862854003906, 284.86248779296875, 277.2638854980469, 557.1659545898438, -558.2488403320312, -52.29229736328125, 141.1719970703125, 232.2324676513672, -161.40065002441406, -421.0119323730469, -905.0266723632812, 133.26010131835938, -413.2193298339844, 532.0747680664062, 82.96055603027344, 341.2799987792969, 415.0837097167969, 245.24697875976562, -734.6854858398438, 79.72718048095703, -107.68014526367188, -11.1273193359375, -1206.0374755859375, 2.2626729011535645, -128.21759033203125, -0.040993694216012955, 432.14892578125, -24.801162719726562, 0.9337388277053833, 0.01935250125825405, -1511.3359375, 303.9830627441406, 670.6575927734375, -168.02365112304688, -781.1507568359375, 252.49769592285156, 275.4775390625, -340.85272216796875, 60.790565490722656, 0.70269775390625, -630.6497192382812, 20.35506820678711, -5.6776533126831055, 15.886995315551758, -147.57371520996094, 53.31169128417969, -409.4697570800781, 28.5526065826416, -0.03664969280362129, 0.525418758392334, 399.1217346191406, 329.7243347167969, 576.0480346679688, -233.45852661132812, 590.6720581054688, -314.8514099121094, -9.512056350708008, -592.61767578125, 101.07650756835938, 310.44488525390625, 216.95118713378906, -683.8899536132812, -121.32913208007812, -160.9867401123047, -280.7249450683594, 1.1084764003753662, -16.63596534729004, 156.64950561523438, 659.5509643554688, -1175.64794921875, -383.1644592285156, -455.4574279785156, 292.6672058105469, -342.36993408203125, 450.6441955566406, 127.77413940429688, 117.80938720703125, -238.25765991210938, 1.5091285705566406, -477.0375671386719, 586.1011962890625, 176.6313934326172, 136.29281616210938, -0.0018140653846785426, -0.004208878614008427, 78.92621612548828, -99.57110595703125, -756.3943481445312, -29.529254913330078, 179.06661987304688, 756.95654296875, 466.57196044921875, -104.33265686035156, -2.8942337036132812, -37.478328704833984, -66.7242431640625, 89.1654281616211, 503.1418762207031, -185.83883666992188, 172.48406982421875, -477.48486328125, -68.94032287597656, 476.2646179199219, -0.0333278551697731, -41.87130355834961, 679.4305419921875, -505.80694580078125, 15.54852294921875, -193.77880859375, 879.5947875976562, 11.732433319091797, -119.17253112792969, -72.23783111572266, 174.38267517089844, 2.4050464630126953, -170.71485900878906, -773.98779296875, -446.9405212402344, -134.01495361328125, -0.0003657167253550142, 235.8250274658203, -522.7332153320312, -210.71334838867188, 353.59759521484375, -252.19354248046875, 369.2757873535156, 335.7916259765625, -2.4637038707733154, -562.1259155273438, -195.09234619140625, 282.1130676269531, 0.004241125658154488, -334.88629150390625, -623.138916015625, -631.8764038085938, -1098.9490966796875, -80.15067291259766, -31.057090759277344, -118.33161926269531, 539.202392578125, -72.19526672363281, -122.61601257324219, -444.6912536621094, 484.9185485839844, -160.06683349609375, 711.0111083984375, -339.4756774902344, 493.88787841796875, 665.4956665039062, 198.665771484375, 305.3992004394531, -9.236637115478516, -91.21131896972656, 410.1006774902344, -419.0899658203125, -694.107177734375, 607.4806518554688, 96.18751525878906, 10.384503364562988, -207.919677734375, -31.417964935302734, 370.6777038574219, -529.5958862304688, 396.0879821777344, 24.820131301879883, 65.06993103027344, -744.3487548828125, -356.8583679199219, -293.21826171875, -154.71224975585938, 2.3665452003479004, -217.67337036132812, -10.659978866577148, -202.88818359375, -0.004158452618867159, 81.24493408203125, -616.0952758789062, -325.52630615234375, -0.0029970176983624697, 0.009967225603759289, 216.114990234375, -343.1842041015625, -169.1385955810547, 311.9661560058594, 93.57470703125, -548.441650390625, 7.59912109375, 1.9945673942565918, 0.007840774022042751, 258.1169128417969, -108.9169921875, -0.006360642146319151, 240.2042999267578, 283.9345703125, -133.06756591796875, -703.1046752929688, 44.232818603515625, -802.2449951171875, -31.299293518066406, -116.4383544921875, 0.0015933000249788165, -513.192138671875, -480.3824157714844, 310.30902099609375, -507.38800048828125, -293.4143371582031, 413.447509765625, 366.3805847167969, 413.0150451660156, -39.7856559753418, 190.4410400390625, -688.529541015625, 0.00015858540427871048, 325.5860900878906, 106.11882019042969, 475.4512023925781, 619.0567626953125, -0.0012811768101528287, -54.66404724121094, 170.14205932617188, 5.928971290588379, -0.22971343994140625, -1160.1104736328125, 827.9043579101562, -49.700599670410156, -955.4222412109375, -667.6349487304688, -460.2960510253906, 111.91448211669922, -874.494384765625, -658.4742431640625, 220.3118896484375, -886.8468627929688, 308.2941589355469, -256.5394592285156, -692.4434814453125, -54.08441925048828, 24.92572021484375, -644.7008056640625, -3.6364529132843018, 670.734130859375, 92.77452087402344, 778.9450073242188, -885.6528930664062, 3.9559545257361606e-05, -136.04737854003906, 12.060894966125488, 7.2693400382995605, 283.069091796875, -277.0198059082031, -294.9994201660156, -118.09828186035156, 238.206787109375, -4.002841949462891, 2786.449951171875, -814.7310791015625, -1593.39599609375, -1837.18603515625, -574.7232055664062, 1459.3248291015625, -1694.1094970703125, 3177.138427734375, -134.3500518798828, 163.88414001464844, -317.91583251953125, -798.194091796875, 203.00714111328125, 1753.068603515625, 562.9573364257812, -1754.480224609375, -1282.7630615234375, -846.853271484375, -467.5374755859375, -1904.2373046875, -765.5935668945312, 313.0032653808594, -1562.222900390625, -240.90402221679688, 1300.5665283203125, 4419.02490234375, 3.3266913890838623, -915.0831909179688, 0.0631912425160408, -538.8888549804688, 1120.085693359375, 0.5831460356712341, -0.03821495920419693, 2729.260986328125, -619.8694458007812, -3305.059326171875, 1890.77099609375, 2418.672119140625, -1606.09619140625, -2172.895263671875, -1057.4102783203125, -2264.22216796875, -416.6910400390625, 1963.77490234375, -669.8281860351562, 25.05278968811035, 1298.3682861328125, 564.5355224609375, -478.8343811035156, 738.5797119140625, -256.1288146972656, 0.02359449677169323, 3.269118547439575, -2214.712890625, -1800.2032470703125, -1901.7530517578125, 701.4996337890625, -756.8082275390625, 153.61349487304688, 12.799449920654297, 1417.562255859375, -1414.8056640625, 1084.891845703125, -1035.49365234375, 2494.1826171875, -894.177978515625, -1144.013671875, -611.91162109375, 0.4115900993347168, 12.961130142211914, -1048.0657958984375, -1330.131103515625, 1881.48486328125, 1409.033935546875, 1386.447265625, -1652.4530029296875, -389.92266845703125, -1385.03466796875, -1977.1595458984375, -626.1841430664062, 98.4903564453125, 10.069838523864746, 1409.6524658203125, -1664.6729736328125, -454.6283874511719, -478.1554870605469, -0.015554514713585377, 0.0006883361493237317, 331.15093994140625, 868.1223754882812, 230.8114471435547, 413.7481689453125, -1303.624755859375, -1640.0970458984375, -1506.67041015625, 654.1090698242188, 313.039794921875, 50.32014465332031, -30.727874755859375, 113.54345703125, 343.940185546875, -607.2049560546875, -157.12339782714844, 1699.113525390625, 898.8025512695312, -1553.122314453125, 0.01701255701482296, 1833.9560546875, -861.1739501953125, -279.2820129394531, 301.5619812011719, 2075.374267578125, 121.73625183105469, -1138.52685546875, 78.79129028320312, -269.3790588378906, 11.683685302734375, 15.42506217956543, 1935.295166015625, 2351.9228515625, -845.9513549804688, 226.31906127929688, -0.000292976968921721, -1107.32763671875, 1300.7120361328125, -14.913803100585938, -1516.0098876953125, 77.79527282714844, -3809.55712890625, -2699.686279296875, -2.8195056915283203, 413.2094421386719, -1554.125732421875, -960.12353515625, 0.00956155639141798, 8.07147216796875, 698.6334228515625, 254.28399658203125, 3084.380615234375, 774.9744873046875, 262.9054870605469, 1284.334228515625, 133.77859497070312, -544.9703979492188, 79.08308410644531, 551.2505493164062, -139.0304718017578, -804.5782470703125, -1248.259521484375, -1434.772216796875, 470.6429443359375, -725.7717895507812, -100.34132385253906, -213.45660400390625, -60.961456298828125, 11.14333724975586, -193.0657958984375, -205.3665771484375, 3992.332275390625, -385.731201171875, -734.061767578125, -18.297714233398438, -38.73029708862305, -2472.275390625, -788.7196044921875, 430.33837890625, -2095.983642578125, -1154.205810546875, 191.58509826660156, 602.2294921875, -453.3751220703125, 363.7088623046875, 1931.6126708984375, -3.1236355304718018, 2362.72119140625, -285.42596435546875, 1224.3765869140625, 0.001921556773595512, -2039.34521484375, -61.980499267578125, -299.3149108886719, 0.002144465921446681, -0.008344290778040886, -511.37457275390625, 412.22369384765625, -247.14608764648438, -1130.683837890625, -860.49169921875, 2047.78955078125, -1326.609619140625, 45.260719299316406, -0.006759752053767443, -2449.28857421875, 528.7474975585938, 0.00249866652302444, -3112.046875, -1799.4761962890625, 273.01336669921875, 1119.95556640625, -406.2325744628906, 2129.631591796875, -47.7598876953125, -197.9870147705078, -0.0012605775846168399, 2306.19189453125, 205.10182189941406, -1474.514892578125, -1752.0765380859375, -1443.21142578125, -2247.776123046875, -341.9720153808594, -1508.2227783203125, -1050.5185546875, -1216.235595703125, 2050.21533203125, -0.0009094965062104166, -1699.9918212890625, -1150.9271240234375, -2167.187744140625, -1974.871337890625, 0.0005079936818219721, -1741.046875, -2048.234130859375, -8.995540618896484, -699.8351440429688, 2623.835205078125, -1844.326416015625, -996.1324462890625, 2080.61376953125, 1132.83642578125, 329.25433349609375, 540.525390625, 2135.393310546875, 1704.0546875, 287.287109375, 47.46022033691406, -1364.44970703125, 2542.13427734375, 1829.169921875, 2358.9091796875, 857.244140625, 2061.176025390625, -4.027482986450195, -1844.525634765625, -50.00642395019531, -3616.19873046875, -1267.404052734375, 4.801404429599643e-06, 1549.686767578125, 496.1153564453125, 8.930936813354492, -1051.73388671875, 2440.355224609375, -191.774169921875, -1262.022216796875, -617.4990844726562, -248.38812255859375, -439.02203369140625, -55.197086334228516, -25.58040428161621, 28.19287109375, -407.2449035644531, -469.6747741699219, -185.83050537109375, -912.115966796875, 41.830509185791016, -353.2745666503906, -172.73570251464844, -11.544696807861328, -139.56678771972656, -288.87371826171875, -122.34893798828125, -368.4388732910156, -482.320068359375, 44.90487289428711, -641.4780883789062, -264.6462097167969, -16.893051147460938, 239.98789978027344, -49.97381591796875, -304.59759521484375, -383.5281677246094, -266.1083679199219, -4.199872970581055, -92.35384368896484, -0.017582805827260017, -291.04205322265625, -587.0206909179688, 0.19276580214500427, 0.0024450886994600296, -40.31326675415039, -58.86398696899414, -372.69482421875, -597.4622802734375, -363.2215270996094, -408.8823547363281, -567.61669921875, -119.17997741699219, -294.8619384765625, 30.959529876708984, -360.19268798828125, -24.56950569152832, -1.2621442079544067, -348.82916259765625, -606.1710205078125, -224.32522583007812, -224.22618103027344, 221.45494079589844, 0.020602593198418617, 0.916225016117096, -16.439504623413086, -450.0993957519531, -158.31741333007812, -200.6258544921875, -556.2938232421875, -303.3287353515625, -3.5967249870300293, -807.3860473632812, 113.174560546875, -398.0672607421875, -101.45269775390625, -218.52793884277344, 33.34577941894531, -126.17668151855469, -22.957027435302734, 1.1487640142440796, 3.6949188709259033, -289.9262390136719, -6.430483818054199, -18.357954025268555, -234.1312713623047, -563.8785400390625, -268.39105224609375, 200.9558868408203, 98.83943939208984, 69.14981842041016, 134.6089630126953, -176.22720336914062, -1.2421208620071411, -222.59136962890625, -77.59291076660156, -131.7577667236328, 31.157238006591797, 0.009121553972363472, 0.007559158839285374, -63.771575927734375, -281.1058044433594, -656.544921875, -646.9081420898438, -86.95076751708984, -492.7084045410156, -283.6347961425781, -487.89898681640625, -85.8448486328125, 10.290644645690918, -229.02346801757812, -379.10064697265625, -453.0736083984375, -595.5278930664062, -47.17262268066406, -85.26278686523438, -575.797607421875, -255.96163940429688, 0.011571936309337616, -553.8035278320312, -659.9639892578125, 35.494956970214844, -108.74835205078125, -387.84619140625, -282.3318176269531, -331.1283874511719, -335.8443908691406, -407.9827880859375, -56.05635070800781, -2.8578600883483887, -385.40985107421875, -405.80816650390625, -149.248291015625, -213.59481811523438, -0.0015381451230496168, 91.53601837158203, -621.0220947265625, -221.1897430419922, -285.7550354003906, -111.77947998046875, 393.71270751953125, -304.4721374511719, 0.9421908855438232, -359.1416931152344, -167.32736206054688, 68.87651062011719, -0.006384707521647215, -345.75970458984375, -364.1412353515625, -242.28501892089844, -220.9302978515625, 149.9121856689453, -379.18609619140625, -269.3326416015625, -677.5411376953125, -23.91619110107422, -213.16189575195312, -491.15380859375, -504.8481140136719, -364.5511169433594, -86.30648803710938, 159.55233764648438, -916.0801391601562, -531.5537109375, -439.966064453125, -236.39100646972656, 35.383033752441406, 32.903472900390625, -655.0580444335938, -183.04443359375, -484.89459228515625, -318.62664794921875, 48.495548248291016, 8.641057968139648, 75.0982666015625, -83.76609802246094, -185.6403045654297, -242.56048583984375, -398.02630615234375, -172.50177001953125, -170.29844665527344, 117.90438079833984, -445.89068603515625, -39.999412536621094, -979.8856201171875, -0.19589941203594208, -504.0567626953125, -386.1082458496094, -665.4651489257812, 0.0016548020066693425, -53.957366943359375, 77.59050750732422, -102.34138488769531, 0.00041488814167678356, -0.0013588998699560761, -22.451255798339844, -949.1250610351562, -85.75873565673828, -270.4525146484375, 133.7073211669922, -127.26558685302734, -386.6014709472656, 1.777698040008545, -0.0007644611760042608, -739.0949096679688, -29.46914291381836, 0.0017618514830246568, 118.44528198242188, -396.61529541015625, -764.6131591796875, -344.8989562988281, 16.26670265197754, -329.1156921386719, 24.02616310119629, -335.6743469238281, -0.0002923347055912018, -750.0789184570312, -30.41781997680664, 268.05487060546875, 279.7470397949219, -554.831787109375, -375.322998046875, -442.7480773925781, -553.2119750976562, -632.5283203125, -119.63206481933594, -470.5483093261719, -0.00013535532343667, 50.5634765625, -337.30743408203125, 1.9410934448242188, 44.649658203125, -0.00018183820066042244, -281.17742919921875, 193.47372436523438, 2.6472549438476562, 250.81646728515625, -35.61806106567383, -948.576171875, -531.0072631835938, -249.9248046875, -133.78985595703125, -122.30374145507812, -288.6797790527344, -465.2861633300781, -471.4127502441406, -349.84429931640625, -508.8022766113281, -507.5559387207031, -537.2518920898438, -53.83277130126953, -1042.80419921875, -446.0721130371094, -744.7097778320312, 0.9834195375442505, -262.6647644042969, -8.217209815979004, -334.08819580078125, -336.8739929199219, -1.3995493645779788e-05, 34.845970153808594, -109.25160217285156, -8.215385437011719, -44.659061431884766, -294.6520080566406, -675.8934326171875, 214.87510681152344, 67.03154754638672, -343.6545715332031, 977.1513671875, 116.69271087646484, 224.7277069091797, 217.0160369873047, 114.40882110595703, -466.8429870605469, -69.62454986572266, 1131.8079833984375, 1.3764381408691406, -17.761816024780273, -108.78431701660156, 165.3834228515625, 131.25732421875, 457.1095275878906, -50.27849197387695, 569.3881225585938, 101.551025390625, 356.813232421875, 692.71875, 467.7881774902344, 100.86624908447266, 828.8096313476562, 491.5871887207031, 545.538330078125, 467.9366455078125, 535.4782104492188, -2.8526484966278076, 600.3682861328125, 0.009457209147512913, 230.85482788085938, -200.21200561523438, -0.41947123408317566, -0.0014456933131441474, 624.903564453125, 5.306365966796875, 572.4200439453125, 300.86468505859375, 523.7444458007812, 58.697120666503906, 970.2154541015625, 1064.0335693359375, 610.442626953125, 347.36260986328125, 329.1511535644531, 229.5994110107422, -3.652785539627075, 171.544921875, 231.62380981445312, 238.05636596679688, 500.3121337890625, 116.74642944335938, 0.01036568358540535, -1.6615071296691895, 49.10958480834961, 1191.3602294921875, 460.7895812988281, 79.64230346679688, 524.7481689453125, 299.6006774902344, -0.7087297439575195, 814.546875, 343.45892333984375, -491.3244323730469, 108.47750854492188, 286.0387268066406, 323.1203918457031, 218.64761352539062, 483.6676025390625, -2.3869643211364746, 12.347647666931152, 481.13983154296875, 119.42948913574219, 482.9192810058594, 176.99671936035156, 606.4254760742188, 548.80322265625, 759.548095703125, 53.00316619873047, 301.599609375, 138.6856231689453, 243.32777404785156, -9.697826385498047, 37.05473327636719, 343.80194091796875, 156.88137817382812, -35.604270935058594, 0.0032056919299066067, 0.00014683027984574437, 35.49293518066406, 394.043701171875, 849.8939819335938, 765.3362426757812, 555.4176635742188, 695.3541259765625, 62.99622344970703, 443.0398254394531, 237.40618896484375, 17.986549377441406, 93.34211730957031, 304.5872802734375, -206.90200805664062, 1182.9134521484375, -57.49273681640625, -36.77397918701172, 725.6011352539062, 348.7251892089844, 0.013578519225120544, 211.3738555908203, 268.6573486328125, 174.67739868164062, -23.2470645904541, 168.95703125, -323.8598937988281, 160.81350708007812, 634.8773193359375, 281.3901672363281, -89.7437744140625, -2.7693941593170166, -22.759357452392578, 292.8296813964844, 430.6053161621094, -1.0823631286621094, 0.000474021042464301, 168.74314880371094, 603.22119140625, 1088.1839599609375, 104.41401672363281, 350.1670227050781, 795.4830932617188, 517.2803344726562, 4.373444557189941, 715.1217651367188, 364.903076171875, 349.9075012207031, -0.004167912527918816, 139.6594696044922, 1060.900146484375, 586.5475463867188, 620.6123046875, 26.108814239501953, 550.4115600585938, 573.9215698242188, 248.68963623046875, 321.22760009765625, 796.952880859375, 170.89210510253906, 250.93423461914062, 166.1949462890625, -82.17706298828125, 486.3070068359375, 34.11684036254883, -480.7982482910156, 418.0157470703125, -149.0436248779297, 114.58303833007812, 46.02101516723633, 757.2456665039062, 793.4024047851562, 678.1273803710938, -141.41879272460938, 246.692138671875, 14.427887916564941, 270.1029052734375, 890.5675048828125, -73.44307708740234, 505.6102294921875, 618.8726196289062, 678.3472290039062, 41.2855224609375, 419.251708984375, 879.8388671875, 268.6546936035156, 1052.5987548828125, -1.0312426090240479, 51.090087890625, 582.1494140625, 651.3905029296875, 0.0016444828361272812, 340.1871643066406, 238.8678741455078, 227.67088317871094, 0.0013875956647098064, -0.003493138588964939, -18.81918716430664, 651.9632568359375, 446.0997314453125, 743.6885986328125, 117.92227172851562, 668.8041381835938, 468.0332946777344, -13.27220630645752, -0.002774141961708665, 694.9879150390625, -12.48991870880127, 0.0027530030347406864, 661.1478271484375, 330.5125732421875, 1122.8526611328125, 414.91607666015625, 209.6947021484375, 640.15625, 51.0662956237793, 911.59716796875, -0.0006319337408058345, 724.126953125, 383.03338623046875, 156.8216094970703, 945.1622924804688, 1030.5286865234375, 448.1943359375, 369.66802978515625, 379.9439392089844, 1200.0133056640625, 172.03115844726562, 458.34661865234375, 0.0002105826570186764, 293.2265625, 539.5521850585938, 34.71067810058594, 67.1618423461914, 0.0004891937715001404, 512.5966186523438, 372.7484436035156, 0.24202203750610352, 331.5310974121094, 376.2424621582031, 700.9447021484375, 1339.20361328125, 425.09808349609375, 514.962158203125, 275.455078125, -171.56845092773438, 436.76910400390625, 477.32501220703125, 203.96885681152344, 1105.8885498046875, 812.9937133789062, 446.9731140136719, 355.9190368652344, -22.42499351501465, -31.92987060546875, 959.0734252929688, 7.06755256652832, 795.0933227539062, -80.01419830322266, 790.1216430664062, 1006.8003540039062, -2.7832817067974247e-05, 67.36101531982422, -73.43218994140625, -4.010622024536133, -22.33489227294922, 377.544189453125, 743.3112182617188, 465.9622497558594, 168.51951599121094, 497.83331298828125, -1563.5609130859375, 380.676025390625, 867.6766967773438, 348.69635009765625, 316.3585205078125, -861.95849609375, 344.6469421386719, -1941.64501953125, 92.0727310180664, 407.7538146972656, 418.1768798828125, -231.05648803710938, -716.7259521484375, -709.518798828125, -92.95501708984375, -151.28298950195312, 955.3782958984375, 778.3094482421875, 334.14971923828125, 1206.5001220703125, 666.976318359375, 178.27005004882812, 430.33203125, -201.24156188964844, -700.3619384765625, -1775.24609375, -6.521706581115723, 499.5085754394531, -0.013446183875203133, -471.75299072265625, -914.6619873046875, -2.3354499340057373, 0.016616951674222946, -1278.9609375, 520.7079467773438, 1176.4605712890625, -788.3743896484375, -1772.4522705078125, 359.3568115234375, 686.2049560546875, 547.2064208984375, 1018.5496826171875, 130.84852600097656, -1016.3182373046875, 447.2077331542969, -11.17572021484375, -551.4589233398438, 101.0272216796875, 353.19281005859375, 120.59269714355469, -125.63280487060547, -0.06291112303733826, -1.6943156719207764, 504.78692626953125, 752.0573120117188, 852.6044311523438, -391.10406494140625, 193.2401580810547, 372.3749084472656, -4.0349884033203125, -655.211669921875, 372.0890197753906, -565.2859497070312, 784.4111328125, -931.963134765625, 223.2258758544922, -110.66897583007812, 515.0988159179688, -5.109665393829346, -20.341045379638672, 550.3717041015625, 532.3711547851562, -1729.709228515625, -545.46044921875, -932.3119506835938, 1273.9510498046875, 326.4490966796875, 275.67572021484375, 822.2947387695312, -148.8809814453125, -394.685791015625, -0.3766975402832031, -831.3709716796875, 878.4069213867188, 218.76901245117188, 300.6199035644531, -0.011918417178094387, -0.01532647106796503, -369.3106384277344, 255.87747192382812, -358.5034484863281, -716.6637573242188, 1151.54541015625, 245.75015258789062, 262.112548828125, -973.7290649414062, 215.3164520263672, -4.445568084716797, -389.0013122558594, -317.456298828125, -702.9183349609375, 14.988250732421875, 104.6462631225586, -1461.51123046875, -1002.843017578125, 932.0935668945312, -0.046478305011987686, -984.0476684570312, 285.69482421875, -1086.5665283203125, -123.4942855834961, -569.6343383789062, -206.73077392578125, 550.838134765625, -449.7132873535156, -1100.6793212890625, 88.59083557128906, -3.100425958633423, -720.226318359375, -586.15283203125, 150.2560272216797, -483.0948181152344, -0.0005251449183560908, 532.5675048828125, -275.8794860839844, -278.7239074707031, 913.7447509765625, 147.46499633789062, 1849.25927734375, 987.633544921875, -0.7816309928894043, -163.43267822265625, 419.8914794921875, 387.64715576171875, 0.009900887496769428, -458.0550537109375, -507.5478210449219, -156.38116455078125, -1406.0556640625, -465.6009216308594, -162.19195556640625, -811.5614013671875, -357.74505615234375, -278.166015625, -519.4288940429688, -927.61279296875, -305.0599365234375, 92.47871398925781, -11.455162048339844, 560.8451538085938, -589.5704956054688, -606.9588012695312, -107.07222747802734, -884.3439331054688, 66.73836517333984, 56.02070617675781, -805.9407958984375, 33.140342712402344, -1574.7132568359375, 573.7430419921875, 913.2228393554688, -15.789527893066406, 153.56680297851562, 1221.3526611328125, 314.6690673828125, 145.72622680664062, 917.2274169921875, -6.918712615966797, 62.931617736816406, -336.92724609375, -96.28971862792969, -503.4752197265625, -1266.6409912109375, 0.14653635025024414, -459.2724304199219, 269.45068359375, -743.341552734375, -0.006381598301231861, 821.25537109375, 430.2513122558594, -1171.4073486328125, -0.0024975663982331753, 0.01152968779206276, 66.81218719482422, -219.85073852539062, -321.4891662597656, 612.3562622070312, -30.521032333374023, -988.5045166015625, -112.52473449707031, 4.199572563171387, 0.008720441721379757, 707.2598876953125, -62.91374206542969, -0.008092198520898819, 621.6908569335938, 890.1963500976562, -463.8354187011719, -1115.8905029296875, 397.8280029296875, -713.2973022460938, -6.413128852844238, -13.572517395019531, 0.0016674300422891974, -1394.029541015625, 587.6685791015625, 760.1671752929688, 1025.649658203125, 962.9176635742188, 891.4242553710938, -344.2449951171875, 586.9024047851562, 326.74395751953125, 929.0665283203125, -1066.47412109375, 0.001351674785837531, 737.040771484375, 543.399169921875, 1351.144287109375, 1003.48876953125, 0.0001732916571199894, 791.4434204101562, 330.77020263671875, 4.264983177185059, 568.4698486328125, -1435.9881591796875, 317.0986328125, -12.947921752929688, -978.083251953125, -793.4481201171875, 241.23243713378906, -817.5437622070312, -1085.3287353515625, -390.6083068847656, -289.18505859375, -152.2816162109375, 694.741455078125, -1283.9095458984375, -832.0133056640625, -1244.070556640625, -773.6835327148438, -757.3045043945312, -2.724336624145508, 481.7615966796875, 53.85528564453125, 1551.875732421875, 838.3570556640625, 7.90653211879544e-06, -717.701416015625, -163.14077758789062, -5.947783946990967, -57.661922454833984, -698.909912109375, -595.6033935546875, 689.7034912109375, -83.0609359741211, -37.87818908691406, -235.66513061523438, 150.36341857910156, 318.8830261230469, 773.5753173828125, 159.95571899414062, 598.8904418945312, -48.031768798828125, 289.2129821777344, 12.812725067138672, -16.068143844604492, 111.46637725830078, 337.17950439453125, 331.8013610839844, -128.0449676513672, 9.460075378417969, 148.62828063964844, 282.8323974609375, 18.329923629760742, 363.1273498535156, 558.7321166992188, 216.22947692871094, -49.94001770019531, -173.1625518798828, 58.264503479003906, -219.42098999023438, -343.76556396484375, -0.5202479958534241, -112.58248138427734, -0.019467046484351158, 487.43853759765625, 195.7496337890625, 0.7142195105552673, 0.007319923955947161, 308.5700988769531, 35.196014404296875, 177.74139404296875, 67.0650634765625, 268.25103759765625, -144.0167236328125, 307.3448486328125, 125.00787353515625, 366.7828063964844, -90.76136016845703, 544.7672119140625, -96.41771697998047, -2.4233243465423584, 389.9413757324219, -133.5714111328125, 79.99534606933594, -144.50958251953125, -124.6249008178711, -0.022843586280941963, 0.7838644981384277, 382.8957214355469, 540.1717529296875, 181.49435424804688, 292.51446533203125, 31.530839920043945, 41.02748107910156, -5.336757659912109, 311.2958984375, -137.21339416503906, 679.0274047851562, -132.41514587402344, -137.03663635253906, -45.652435302734375, -255.92263793945312, 45.39708709716797, 0.2636861205101013, -5.51165246963501, 450.8432312011719, 195.64585876464844, 51.39056396484375, 428.9057922363281, -164.72994995117188, 155.15724182128906, -201.9652557373047, 101.12834167480469, 484.80615234375, -34.17829132080078, -212.3784637451172, 5.881673812866211, 392.104248046875, -391.60101318359375, 10.932592391967773, 111.68898010253906, -0.004058838821947575, -0.0029895056504756212, -72.09590911865234, -238.558837890625, 136.58494567871094, 186.50296020507812, -157.9885711669922, -176.4233856201172, 325.4829406738281, -407.0792236328125, -43.65851593017578, -6.925621032714844, 498.0379943847656, 305.9297180175781, -69.18822479248047, -107.73045349121094, 62.62790298461914, 199.96595764160156, 23.55270004272461, 133.98171997070312, -0.021082688122987747, 189.5458984375, 43.351688385009766, 147.07862854003906, -0.9575004577636719, 312.1920471191406, 112.89580535888672, 114.42977142333984, -111.3472671508789, -50.59696960449219, 8.657309532165527, 3.0487802028656006, -129.1167755126953, -142.88241577148438, 277.6417541503906, 296.49542236328125, -0.0007939388160593808, 253.8158721923828, 27.77880859375, -128.6551513671875, 68.8601303100586, 21.633480072021484, -377.5536804199219, 325.3206787109375, -1.6228984594345093, 583.5431518554688, 364.8022766113281, -308.8176574707031, 0.004369869362562895, 251.1389617919922, 5.408657073974609, -4.5422587394714355, 287.8927917480469, 311.4669494628906, 353.8369140625, 106.98931884765625, 153.5635528564453, 13.424888610839844, 80.5074691772461, 300.83544921875, -311.1382141113281, 320.4776611328125, 79.05078125, -5.230531215667725, 446.9787292480469, 460.4568176269531, 376.4140625, 150.91201782226562, -414.73309326171875, -8.035240173339844, -411.0517578125, 652.5020751953125, -38.947086334228516, 60.76725769042969, -106.36901092529297, -10.660324096679688, -161.68637084960938, 427.81463623046875, 58.67039108276367, -117.68205261230469, 182.34097290039062, -457.32049560546875, 4.921792030334473, -25.500858306884766, 129.54241943359375, 135.302490234375, 350.0305480957031, 0.42553481459617615, 434.8878479003906, -105.5083236694336, 33.71416091918945, -0.002806019736453891, 306.8782958984375, 17.361656188964844, 149.8031005859375, -0.0018086121417582035, 0.0058958581648766994, 77.24162292480469, 513.68212890625, 223.63877868652344, 248.6275177001953, -55.64410400390625, -203.84780883789062, 603.858642578125, -1.6351943016052246, 0.004556434229016304, 360.55487060546875, 81.54569244384766, -0.004232992418110371, -391.6183166503906, 328.10894775390625, 215.3990478515625, 556.5283203125, -9.853286743164062, -98.00447082519531, -3.1211700439453125, 25.836469650268555, 0.0009716770728118718, 505.445556640625, 18.586814880371094, 157.94003295898438, -111.71302032470703, 117.90377807617188, 395.6310119628906, -249.14707946777344, -48.20263671875, -159.83473205566406, 244.18153381347656, 267.97918701171875, 5.783400411019102e-05, -260.140380859375, -233.12213134765625, 122.78382110595703, 165.35562133789062, -0.0007845471845939755, 300.4110412597656, -141.48556518554688, -1.0931055545806885, -157.69102478027344, -440.03265380859375, 567.0458984375, 33.22179412841797, 418.02081298828125, 244.21018981933594, -194.93695068359375, 415.2555847167969, -116.67218780517578, -6.849188804626465, -209.38165283203125, 650.3460693359375, -212.0489501953125, -69.54133605957031, 323.8199157714844, 897.8139038085938, 350.28240966796875, 220.11085510253906, -0.6274980306625366, 55.20494842529297, 29.497055053710938, 533.1547241210938, 774.99658203125, 1.2699580111075193e-05, -276.2283630371094, 31.19356918334961, 0.24342501163482666, 100.11180114746094, -231.08375549316406, 571.5159301757812, 111.20591735839844, 32.285770416259766, 131.1279754638672]
1: [14.508232116699219, 1.6545612812042236, -4.469992637634277, -10.192675590515137, -8.71452808380127, 3.6665196418762207, -1.3083317279815674, -8.711771965026855, -1.0882422924041748, 2.972228527069092, 2.607296943664551, 12.192115783691406, -5.848021030426025, 22.656169891357422, -1.2177501916885376, -32.56863784790039, -13.83577823638916, 1.6821638345718384, -22.876201629638672, -32.735721588134766, -13.778385162353516, -29.61530113220215, -0.16955780982971191, 0.10838139057159424, -13.413273811340332, 16.40456199645996, -0.0347423255443573, -5.966973304748535, -0.00013480598863679916, -29.08596420288086, 11.112378120422363, 0.016345009207725525, 0.00010231330088572577, 7.942747116088867, -2.1080431938171387, -24.38863754272461, -5.083498477935791, -7.724462509155273, -10.57481861114502, -5.808971405029297, -4.037477493286133, -30.138954162597656, -15.795257568359375, 8.073407173156738, -3.779226303100586, -0.028571799397468567, -7.267192840576172, 2.13877010345459, 3.813281536102295, -0.6217228174209595, -6.615431308746338, -0.00012205381062813103, -0.0010880713816732168, -0.2333032190799713, -51.85215759277344, -30.105674743652344, -16.03496551513672, -23.189298629760742, 1.4565225839614868, 0.15022915601730347, 16.49257469177246, -13.20911693572998, 5.464324474334717, 3.817345142364502, -1.1737027168273926, 4.405233860015869, -6.031038284301758, 3.5712175369262695, 0.026115305721759796, 0.05752222239971161, -13.119226455688477, -14.008872985839844, 3.8124310970306396, -4.140296459197998, -0.8757453560829163, -8.554102897644043, -4.772502899169922, -8.821556091308594, -8.642205238342285, -2.7203943729400635, -0.006547033786773682, 0.1153297871351242, 1.6959600448608398, -3.552441120147705, -13.743642807006836, 1.6264498233795166, -6.05537661613198e-06, -2.5091494535445236e-05, 0.2531766891479492, -25.669544219970703, 8.87078857421875, -33.432762145996094, -25.714731216430664, -13.302946090698242, -18.832653045654297, -13.703680992126465, -10.52652645111084, 0.13640055060386658, -12.51688003540039, 9.398111343383789, 10.046034812927246, -7.51156759262085, -1.427156686782837, 10.304139137268066, -14.769784927368164, -17.58539581298828, -9.194111044052988e-05, -32.18089294433594, -19.48111343383789, 0.9035385847091675, -0.9372274279594421, -1.68752121925354, -21.265796661376953, -1.4153190851211548, 14.711685180664062, 7.429614067077637, 1.1112569570541382, -0.0809425562620163, 12.136055946350098, 2.9808316230773926, -8.993860244750977, -4.912304401397705, -2.3524653443018906e-06, -7.474564552307129, -4.643617153167725, -27.42607879638672, -5.691894054412842, -23.055339813232422, -27.28309440612793, -3.243011951446533, 0.002310650423169136, -4.26709508895874, -0.12265682220458984, -8.452864646911621, 5.460688043967821e-06, -5.831519603729248, -23.250835418701172, 3.1634933948516846, 5.832351207733154, 1.2071624994277954, -9.491719245910645, -26.773244857788086, -24.406381607055664, -5.889812469482422, 0.3486912250518799, -21.625085830688477, 6.07230281829834, 3.493993043899536, -0.41208434104919434, 10.644186019897461, -2.400270938873291, 36.3959846496582, -11.196215629577637, 19.105621337890625, -4.3347320556640625, -0.799905002117157, 6.4303107261657715, -3.2077627182006836, 6.3999128341674805, -10.577414512634277, -12.136749267578125, 0.07907634973526001, -7.3874192237854, -32.051414489746094, -0.27960774302482605, 21.158226013183594, -43.72184371948242, 6.904012203216553, -1.503430724143982, 7.7127861976623535, -23.8830623626709, 11.924651145935059, -22.834678649902344, 0.011452622711658478, -23.313186645507812, 3.4655466079711914, -7.79590368270874, -6.0703100643877406e-06, -14.659147262573242, 13.151039123535156, 0.03393733501434326, -1.0905860108323395e-05, 2.4460463464492932e-05, 0.6906565427780151, 12.8444185256958, 12.091741561889648, -7.581177234649658, -12.97119426727295, 12.975979804992676, -38.86729431152344, 0.2418174147605896, 2.5275232474086806e-05, -10.539557456970215, -8.024239540100098, -1.1336937859596219e-05, -17.444902420043945, -5.851613998413086, -56.98388671875, -26.697538375854492, -0.9187314510345459, 14.160250663757324, -0.024717047810554504, -3.7031633853912354, 1.1141332834085915e-06, 3.6532068252563477, 9.546065330505371, 3.697723627090454, -25.22555923461914, -22.553207397460938, -22.098072052001953, 0.03426527976989746, -7.342942237854004, -5.833743572235107, -2.8797736167907715, 4.2126359939575195, 4.63691276308964e-06, -26.396167755126953, -45.04819107055664, 8.276866912841797, 10.581464767456055, 1.066954837369849e-06, -15.05832576751709, -18.182697296142578, -0.0655955821275711, -1.3282873630523682, -4.393955230712891, -47.57089614868164, -32.99795150756836, 0.6288554668426514, -15.685039520263672, 10.134500503540039, -24.058509826660156, 2.9423418045043945, 3.4527573585510254, -11.02863883972168, -4.7905073165893555, -10.941401481628418, -10.681325912475586, 1.6213538646697998, -29.255090713500977, 5.510083198547363, -4.693873405456543, 0.016211437061429024, -19.559329986572266, 0.07724040746688843, -15.487319946289062, -6.217343330383301, 1.0958185612253146e-06, -9.772064208984375, -2.593771457672119, 0.03669475018978119, 1.839693307876587, -6.169342994689941, -4.964418888092041, -1.3046773672103882, -12.553833961486816, -7.860128402709961, -3.2551002502441406, 0.6702375411987305, 1.343395471572876, -0.457120805978775, 0.5293172001838684, -0.5825849175453186, 0.047861650586128235, 0.39999061822891235, 0.3165973424911499, 2.7508456707000732, -0.3834517002105713, -1.3609081506729126, 0.7703653573989868, -1.7206244468688965, 1.2960522174835205, 4.834437847137451, 4.153144359588623, -0.2616693079471588, 5.395155906677246, 5.77100133895874, 0.16988518834114075, 2.844797134399414, -0.4351619780063629, 0.10551601648330688, 2.212299108505249, -2.815347671508789, 0.016134969890117645, 2.3128485679626465, 7.330982043640688e-05, 0.8430271744728088, -1.5673515796661377, -0.00455063208937645, -5.043922283221036e-05, -2.2149882316589355, -0.5801875591278076, 4.999723434448242, 0.5763094425201416, -0.4996297359466553, 2.984771490097046, 2.8430728912353516, -0.657726526260376, 4.573999404907227, 1.0509322881698608, -1.9288699626922607, 0.6603789925575256, -0.004422198049724102, 1.909971833229065, 3.026745080947876, 1.6369847059249878, 0.018868181854486465, 0.6106157898902893, 7.917460607131943e-05, 0.006932941731065512, -0.17293283343315125, 7.355265140533447, 5.613109111785889, 1.6277713775634766, 4.847877502441406, -0.024870671331882477, -0.04997215047478676, 0.6352279186248779, 1.111580729484558, -1.2716327905654907, -0.4145171046257019, 0.35654953122138977, -0.7207849025726318, 1.1809206008911133, 0.11049658060073853, -0.022083541378378868, 0.01478610374033451, 2.4476568698883057, 0.7372276186943054, 0.500174343585968, 0.2671462297439575, -1.5123276710510254, -0.9877378940582275, -0.3532051742076874, 0.5449459552764893, -0.5932828783988953, 1.2124552726745605, -0.7868262529373169, 0.008861679583787918, -1.0767841339111328, 0.8773183226585388, 3.1187727451324463, -0.6582101583480835, -1.3997045300584432e-07, 1.873971996246837e-05, 0.6581689715385437, 4.685009002685547, -0.03254834562540054, 6.4936113357543945, 3.2381460666656494, 1.7563586235046387, 3.2989745140075684, 0.09663601219654083, 1.6696795225143433, -0.01917380467057228, 0.6836865544319153, -0.4266873896121979, -2.399617910385132, 2.8937063217163086, 0.22328795492649078, -3.1129918098449707, 0.6278331875801086, 3.9489498138427734, 4.599323438014835e-05, 3.5180904865264893, 1.854367733001709, 3.679645538330078, 0.3154681324958801, -1.1105386018753052, 2.4680333137512207, 1.3618942499160767, -2.074223518371582, -0.2940104603767395, -0.11696033179759979, 0.02108697220683098, -1.5515928268432617, 0.05671234428882599, 1.017112135887146, -0.42013949155807495, -1.2078077133992338e-06, 1.745398998260498, 2.2074790000915527, 2.831418991088867, 1.94329833984375, 2.704686164855957, 4.03941535949707, 0.27839672565460205, -0.006613973993808031, 1.463213324546814, 1.2506303787231445, 1.643210530281067, 1.022373652403985e-07, 0.050504326820373535, 2.518629550933838, -0.09608922898769379, -2.9267709255218506, 0.030569851398468018, 0.8973147869110107, 1.9791922569274902, 1.7034205198287964, 2.34442138671875, -1.0500837564468384, 1.375438928604126, -0.5413755178451538, 1.1140073537826538, 0.8580353260040283, -1.3555161952972412, 1.232481837272644, -5.842748641967773, 2.203385353088379, -2.9915575981140137, 1.131953477859497, 0.12700557708740234, -0.6767592430114746, 0.8304541707038879, -2.2751595973968506, 2.9055004119873047, 1.1070210933685303, 0.04597073048353195, 0.4944613575935364, 5.138187408447266, 0.2873084843158722, -2.5622565746307373, 5.70828104019165, -2.8261990547180176, 0.6553052663803101, -1.2157729864120483, 3.6641883850097656, -0.880336582660675, 4.965054512023926, -0.002740947064012289, 1.8728630542755127, -0.9982903003692627, 1.063353419303894, 6.006684543535812e-06, 3.1472983360290527, -2.473518133163452, 1.5301262140274048, 4.928611360810464e-06, -1.3719181879423559e-05, 0.036067500710487366, 1.2151179313659668, -3.5565145015716553, 4.374205112457275, 1.7074161767959595, -2.3295655250549316, 4.173318862915039, 0.09946490079164505, -1.177756075776415e-05, 3.2442336082458496, 0.7284945845603943, 8.113097464956809e-06, 1.889971137046814, 0.511289119720459, 8.24336051940918, 1.0320279598236084, 0.2314927726984024, -3.4347925186157227, 0.06385772675275803, 2.1609883308410645, -1.3406515790848061e-06, -0.8251173496246338, -0.40288811922073364, -0.3818263113498688, 3.669633626937866, 2.8188438415527344, 6.224771022796631, -1.411580204963684, 1.1874959468841553, -0.18551409244537354, 0.31213241815567017, -2.2101404666900635, -1.8749059336187202e-06, 4.965092658996582, 8.251298904418945, -1.0231475830078125, -1.5491888523101807, 1.3618036973639391e-06, 2.141627550125122, 2.496981620788574, 0.01839503087103367, 0.107020802795887, 3.7846384048461914, 8.954553604125977, 3.5433452129364014, -0.3472869396209717, 1.3527247905731201, -1.6777771711349487, 2.753561019897461, 0.02741169184446335, -1.3007084131240845, 0.8867484331130981, 2.1137149333953857, 2.0478355884552, -0.46385377645492554, -1.2386854887008667, 6.541386127471924, -0.5136752724647522, 2.3413310050964355, 0.0009010331705212593, 3.142982244491577, -0.014178324490785599, 2.800287961959839, 3.9169869422912598, -1.4544740167821146e-07, 3.4415957927703857, 0.5386863946914673, 0.003192740259692073, 0.22938978672027588, 2.0664870738983154, 1.5311520099639893, -0.21674129366874695, 1.784651279449463, 1.2835875749588013, -1.4046692848205566, 0.3059149384498596, 1.9255503416061401, -0.4189589023590088, 0.29933756589889526, 0.1674881875514984, 0.3063165545463562, -3.0159263610839844, -0.20580953359603882, 0.39376798272132874, 0.2835635840892792, 1.1592481136322021, -0.4913358986377716, 0.7255487442016602, -0.5495457649230957, -0.07150658965110779, -0.4691285192966461, 0.762744665145874, -0.23231416940689087, 1.4926884174346924, -0.13536453247070312, 0.29508230090141296, 0.42380157113075256, 0.5287025570869446, -0.9559563398361206, -2.595388412475586, 0.0015596291050314903, 0.5964634418487549, -4.0442846511723474e-05, -1.2807096242904663, 0.23819701373577118, -0.0009553107665851712, 1.259128657693509e-05, -1.1225624084472656, 0.17695346474647522, 1.65519118309021, -2.0461151599884033, -1.6696797609329224, 1.6182358264923096, 2.2213971614837646, 2.021247148513794, 2.502873659133911, 0.3962094485759735, -0.672674834728241, 0.14049988985061646, -0.004638983868062496, -1.2610044479370117, -0.3111515939235687, 0.8262456059455872, -1.229735255241394, -0.05898169428110123, -2.4569148081354797e-05, 0.002116976771503687, 0.6746453642845154, 0.32557833194732666, 1.1421666145324707, 0.13478009402751923, 0.8375830054283142, 0.20856860280036926, -0.003442185465246439, 0.3058677911758423, 1.154223084449768, -0.004822911694645882, -0.19431747496128082, -2.000892400741577, -0.10596659779548645, 1.088289499282837, 0.03282445669174194, -0.0013563811080530286, 0.008270698599517345, 1.0609248876571655, 0.0642898827791214, -1.2003321647644043, -1.5173019170761108, -1.1259126663208008, 0.24724842607975006, -0.40959635376930237, 0.37645673751831055, -0.21947836875915527, 0.24182404577732086, -0.18770015239715576, 0.016085628420114517, -0.5367318391799927, -0.23421001434326172, 0.5663914680480957, -0.21223638951778412, -2.057741539829294e-06, -3.061655434066779e-06, 0.2766556739807129, -0.7498454451560974, 0.3207255005836487, -0.7396324872970581, -0.02065320312976837, 0.5525875687599182, 1.9399272203445435, 0.8628718256950378, -0.0913291722536087, -0.027545657008886337, -0.6838995218276978, -0.11605700850486755, 0.3982941210269928, 0.7768798470497131, -0.13376159965991974, 0.12610486149787903, -1.482131004333496, 0.17316727340221405, -2.4438581021968275e-05, -1.7724815607070923, 1.4986571073532104, 0.9437669515609741, 0.1253429502248764, -2.102041721343994, -0.12057864665985107, 1.8718115091323853, -0.34158942103385925, 0.24671626091003418, 0.20875532925128937, -0.003647741861641407, 0.1000584289431572, -1.7171658277511597, 0.7078261971473694, -0.5210660099983215, -1.204865611725836e-06, 0.5665841698646545, -1.5394854545593262, -1.191336750984192, 0.16775384545326233, 0.6063459515571594, 1.0042692422866821, 1.4035894870758057, 0.003297419287264347, 0.7506380081176758, 1.2737982273101807, -0.0005029747262597084, 4.303688911022618e-06, -0.338908851146698, 0.153295636177063, -0.8867674469947815, -3.0589354038238525, -0.0031923726201057434, 1.0230014324188232, -2.262134313583374, -1.0312483310699463, 0.5012383460998535, -1.14068603515625, -0.86574786901474, -0.3162531554698944, 0.940796434879303, 0.5964004397392273, 1.17914879322052, -0.6713879108428955, 2.5796637535095215, 0.24351727962493896, 1.6551374197006226, -0.4789424538612366, -0.07932107895612717, 1.5820809602737427, 0.2956720292568207, -3.6066534519195557, 0.23972244560718536, 0.2044105976819992, 0.019473571330308914, 0.11500876396894455, 0.9405466318130493, 0.3580279052257538, 0.6947392821311951, -0.5905736088752747, 0.4737434387207031, -0.15575562417507172, 0.1841486692428589, -0.6755582094192505, 0.909185528755188, -2.5146093368530273, -0.0004001543275080621, -1.1629457473754883, -0.20587992668151855, -1.6504830121994019, -2.9690686460526194e-06, 1.5678569078445435, 0.9600420594215393, 0.7904213666915894, -1.596863967279205e-06, 6.527907771669561e-06, 0.017696671187877655, -0.212363600730896, 0.3740937411785126, 1.0281708240509033, 0.32051581144332886, -1.1455100774765015, 0.7093676924705505, 0.031119784340262413, 5.4461374929815065e-06, 2.6005380153656006, -0.33113208413124084, -5.604986199614359e-06, 1.470845341682434, 0.45136111974716187, -0.4875931143760681, -1.380468487739563, 0.15754711627960205, -1.9301514625549316, 0.03779124468564987, 1.2206581830978394, -6.964576186874183e-07, -2.1803200244903564, -0.14834162592887878, 0.6663678288459778, 0.4307866096496582, 0.6743401288986206, 1.5555611848831177, 0.2682931423187256, 0.3751365840435028, 0.9200888872146606, 1.0983984470367432, -1.3911244869232178, -2.56541312637637e-07, 1.0639376640319824, 0.987059473991394, 0.9601827263832092, 1.696587085723877, -2.087235316139413e-06, 1.484062671661377, 0.6881132125854492, -0.005102095194160938, -0.06232243776321411, -1.445349931716919, -0.4171461760997772, 0.26806336641311646, -1.5247974395751953, -0.7345119118690491, -0.39096707105636597, -0.6032610535621643, -2.242918014526367, 0.024861911311745644, 1.205233097076416, -0.5658621788024902, -0.26126620173454285, -3.3423171043395996, -1.2096118927001953, -3.241459369659424, 0.11147093772888184, -1.6891286373138428, 0.0060151913203299046, 1.3933724164962769, 0.0025871973484754562, 3.4334938526153564, 2.638153076171875, 3.161431294529393e-08, -0.9384984970092773, 0.023188717663288116, 0.017924435436725616, 1.7959837913513184, -2.625502347946167, -0.10401241481304169, -0.8911067247390747, -0.24663987755775452, 0.07073081284761429, 4.3919782638549805, -1.4166786670684814, -3.1753125190734863, 2.402430772781372, 1.3712482452392578, -0.25773197412490845, 0.14063161611557007, 9.801546096801758, 0.39600005745887756, -3.8040223121643066, -0.609981119632721, -2.7407455444335938, 1.761663794517517, -2.648858070373535, 0.24903714656829834, 3.4919610023498535, -0.9460514187812805, -2.537048578262329, 0.05028685927391052, -1.7072227001190186, 4.279539585113525, 2.531290054321289, -1.7397899627685547, -1.493138313293457, 3.3778488636016846, 6.152301788330078, -0.01089257001876831, -1.158583641052246, 3.984627983300015e-05, 9.587528228759766, 0.5395917892456055, 0.004310059826821089, -6.889052656333661e-06, 3.81215238571167, 0.9545469880104065, -2.093756675720215, 4.60941743850708, 8.347511291503906, -3.059697151184082, -5.927501201629639, -1.3674287796020508, -1.8187587261199951, 2.283078193664551, 2.229682207107544, 0.2844563126564026, 0.020562194287776947, 2.8779566287994385, -2.474438428878784, -3.7310194969177246, 3.1981992721557617, 0.34688493609428406, 3.05191679217387e-05, -0.008033385500311852, -1.2135915756225586, 4.317678928375244, -1.0533051490783691, 2.318235397338867, 0.09438805282115936, -0.29686295986175537, 0.03493102639913559, -3.903689384460449, 1.644103765487671, 0.6969263553619385, 0.7250353693962097, 4.266164302825928, -0.16516315937042236, -0.6711299419403076, -0.6804466247558594, 0.02352180890738964, -0.028099654242396355, -1.0744982957839966, 3.239130735397339, 1.9223138093948364, 3.769467353820801, 4.620444297790527, 2.643245220184326, 0.980286717414856, 1.1372997760772705, 1.6972806453704834, -0.7459588646888733, 0.37795332074165344, -0.05434675142168999, 2.195437431335449, 0.6521673202514648, -1.2161272764205933, 0.9433286786079407, 1.1494335922179744e-05, 4.032141077914275e-06, -1.482483148574829, 1.915753960609436, -1.5827232599258423, 4.785110950469971, 3.8521058559417725, 0.4922162890434265, -2.189030408859253, 4.178116798400879, 0.43911978602409363, 0.08115101605653763, 4.056641101837158, -0.7784993648529053, 0.5901949405670166, -2.9582955837249756, 0.303952693939209, 1.1938974857330322, 6.446089267730713, -1.131791353225708, 4.027133763884194e-05, 9.001446723937988, 1.4234344959259033, -5.002058029174805, -0.45014914870262146, 7.179378032684326, 3.513192653656006, -3.013887643814087, 0.294516921043396, -1.7919387817382812, -0.3608749508857727, -0.0012434087693691254, -0.7397016286849976, 3.557429790496826, 0.29470130801200867, 2.3722970485687256, 2.2578688003704883e-06, -1.4053153991699219, 1.9822547435760498, 4.804576873779297, -1.4520472288131714, 1.7385951280593872, 0.8404269814491272, -3.764063596725464, -0.006174102891236544, 0.04539225995540619, -2.90277099609375, 0.20725589990615845, -1.440484993509017e-05, 1.8306175470352173, 2.2030441761016846, 1.1956048011779785, 8.03123950958252, -0.512764573097229, -0.04856676608324051, 9.578360557556152, 7.807340621948242, -0.7539900541305542, 3.2653136253356934, 5.614531517028809, -0.9676971435546875, -2.8600687980651855, -2.327965497970581, -2.3428053855895996, 2.5788369178771973, -5.455399990081787, -1.436814546585083, -3.302748441696167, 0.24579446017742157, 0.16065938770771027, -1.740875005722046, 0.4349074959754944, 9.723836898803711, -0.5554121732711792, 2.24457049369812, -0.10369740426540375, 0.776065468788147, 0.18466797471046448, -0.6545006632804871, -2.325648069381714, 6.785304546356201, 1.004034161567688, 0.14100486040115356, -0.45253247022628784, 2.883105993270874, -3.242530584335327, 5.8513946533203125, 0.0007325158803723752, 7.500665187835693, 2.6685051918029785, 5.298117160797119, 4.456464466784382e-06, -2.5539345741271973, -1.582326054573059, -2.582447052001953, 1.5419913097503013e-06, -8.289326615340542e-06, -0.0601034089922905, -2.1522140502929688, 0.4482772946357727, -5.678775310516357, 1.2083516120910645, 2.6139962673187256, 4.058300018310547, -0.19141069054603577, -6.764817499060882e-06, -3.625041961669922, 0.8438284993171692, 8.735527444514446e-06, 1.1139591932296753, -1.8247730731964111, 9.062237739562988, 7.314599514007568, -0.40654802322387695, 5.49564790725708, -0.1408945620059967, -2.9841339588165283, 2.7563326057133963e-06, 7.183813095092773, 0.003182321786880493, -2.138517141342163, 1.0471500158309937, 1.770585060119629, -2.382812738418579, 1.3160210847854614, 1.479085087776184, 1.2204272747039795, -1.6348415613174438, 4.324982166290283, 9.025844747156953e-07, 1.5040019750595093, 0.14358799159526825, -2.2957770824432373, -4.345590114593506, 2.7614194095804123e-06, -0.6800740361213684, 0.8172553777694702, 0.008728996850550175, -0.43355679512023926, 0.20775018632411957, 4.604421615600586, 5.688533782958984, 4.175224781036377, 2.997882843017578, 1.3966690301895142, 4.234392166137695, 4.576884746551514, 2.4219961166381836, -0.4751065969467163, 0.34707146883010864, 1.1006755828857422, 10.722448348999023, 4.303140640258789, 6.106894493103027, -0.680327832698822, 3.0303006172180176, -0.017548302188515663, -0.9877877235412598, 0.008443715050816536, -7.479591369628906, -5.755137920379639, -1.959323157052495e-07, -0.2899341583251953, -0.1583682745695114, -0.05213015526533127, -3.2232322692871094, 4.249281406402588, 1.1016395092010498, 2.5841362476348877, 1.4458484649658203, 1.0891106128692627, 0.2641529440879822, -0.7402527332305908, -1.6896470785140991, -0.9030789136886597, 1.5807193517684937, -0.2315390557050705, -0.6091086268424988, 3.9796290397644043, 0.3885914981365204, -1.25770103931427, -0.6406605839729309, -3.4218907356262207, 0.168709859251976, -5.063092231750488, 1.0546104907989502, 2.4367470741271973, 2.669628620147705, -0.21113991737365723, 3.771620988845825, 0.5603250861167908, 1.3718819618225098, 1.9804749488830566, 1.0491578578948975, -1.0701231956481934, 2.6788811683654785, 2.0114824771881104, -0.0006560059264302254, -0.2693714499473572, 1.9294577214168385e-05, 4.382135391235352, -2.2301077842712402, -0.00043207849375903606, -9.193289770337287e-06, -0.9514578580856323, -0.023447535932064056, 0.5220646858215332, 4.361081600189209, 1.3751859664916992, -0.5687687993049622, -1.5888389348983765, -3.107252836227417, -0.8455333709716797, 1.5602867603302002, -1.5740935802459717, 0.0718894898891449, 0.00901735108345747, 2.0789172649383545, -0.009362637996673584, -1.775005578994751, 1.9566255807876587, 0.9545607566833496, 2.8166065021650866e-05, -0.0026459284126758575, -1.2889622449874878, 5.026952266693115, 2.831789493560791, 1.0841296911239624, 1.539201259613037, 0.02156738191843033, -0.02480398118495941, -0.6669965386390686, -0.25093597173690796, -1.045955777168274, -0.1617950201034546, 2.575829267501831, -0.7002149820327759, -0.33069831132888794, -1.360673189163208, -0.005374434404075146, -0.022431395947933197, -1.2657274007797241, 1.79866361618042, 1.4297245740890503, 1.6290863752365112, 2.8323230743408203, -0.6596666574478149, 0.8393058776855469, 0.35407018661499023, -0.12163776159286499, -0.09447120130062103, 0.9592083096504211, -0.043120741844177246, -0.22065173089504242, 1.2948778867721558, 1.106136441230774, -0.10702524334192276, 9.073251931113191e-06, 6.3262900766858365e-06, 0.10979960858821869, 4.344197750091553, -1.0719478130340576, 4.588826656341553, 2.840749979019165, 2.8988490104675293, -0.7743733525276184, 0.9664646983146667, 1.3224276304244995, -0.009489566087722778, 1.038114070892334, -2.1622583866119385, -1.452103853225708, 2.0808041095733643, 0.36572718620300293, -2.666707992553711, 3.747218370437622, 1.4667870998382568, 2.5771740183699876e-05, 4.7377848625183105, -0.0063273608684539795, -1.0662847757339478, 0.0428418293595314, 1.8398873805999756, 2.737283229827881, -2.768416404724121, -1.110600471496582, 1.118065357208252, -0.30931219458580017, 0.019658781588077545, -0.5116863250732422, 1.811726450920105, -0.83988356590271, -0.09059843420982361, 3.550144072050898e-07, -0.25865763425827026, 3.5715856552124023, 5.246011257171631, 0.5359938144683838, 1.3304342031478882, 1.2854840755462646, -0.8391998410224915, -0.0023821252398192883, -2.5722975730895996, -2.648394823074341, 0.9376770853996277, -8.471214641758706e-06, 0.14997464418411255, 3.462414026260376, 0.8221443295478821, 2.0482068061828613, -0.11654794216156006, -1.4026881456375122, 5.794169902801514, 2.837376594543457, 0.7510371208190918, 1.111534833908081, 2.7640883922576904, 1.7422716617584229, -1.090409278869629, -0.23613983392715454, -3.6628241539001465, 0.5713911056518555, -8.556815147399902, 2.1205406188964844, -5.210957050323486, 1.6757235527038574, 0.12772512435913086, -1.4754999876022339, -2.537531852722168, 3.604694366455078, 1.3244295120239258, 1.2698249816894531, -0.02690872550010681, 0.45910295844078064, 1.0287282466888428, -0.39570721983909607, -4.122044086456299, 4.357821464538574, -0.5725057125091553, 0.3373294770717621, -1.6814175844192505, 4.434680461883545, -2.9913883209228516, 6.696120262145996, -0.0008482718258164823, 2.5146877765655518, -1.08640456199646, 2.904938220977783, 2.131864448529086e-06, -1.3754422664642334, -3.4705731868743896, -0.8757019639015198, 1.7792068547350937e-06, -4.8834463086677715e-06, -0.16103775799274445, -0.945648193359375, -2.4388113021850586, 0.115742027759552, 0.7993468046188354, 1.715175747871399, 1.3673737049102783, -0.044102441519498825, -5.224895176070277e-06, -3.7969703674316406, 0.8269554972648621, 5.012868768972112e-06, -0.8790356516838074, 0.5036773681640625, 6.71456241607666, 2.757298469543457, -0.09214381873607635, 1.141011357307434, -0.05174378305673599, -1.3579978942871094, 9.488880436947511e-07, 0.9133672118186951, -1.6217937469482422, -1.2949042320251465, 1.9453952312469482, 2.205235481262207, -0.48560136556625366, 1.163022756576538, -0.601970911026001, -0.46507251262664795, -2.1150577068328857, -0.027416907250881195, -3.7582105960609624e-07, 1.9482710361480713, 3.751957893371582, -2.0048768520355225, -2.6118550300598145, 1.6877473854037817e-06, -1.500425100326538, 0.41042858362197876, 0.020769257098436356, 0.6176994442939758, 3.441105365753174, 4.821596622467041, 2.7343928813934326, 0.20937317609786987, 1.7325645685195923, -1.2052081823349, 3.3145344257354736, 2.4538495540618896, -0.9240044355392456, 0.754715085029602, 1.5502299070358276, 3.222702980041504, 5.549048900604248, 0.9336249828338623, 5.990426063537598, 0.27368587255477905, 1.8312592506408691, -0.011228282004594803, 0.4309401214122772, -0.05828094482421875, -1.9441839456558228, -6.020211696624756, -1.1388123510869264e-07, 3.8435564041137695, 0.21380391716957092, -0.02442805841565132, -2.891411066055298, 3.555675983428955, 1.2688013315200806, -0.3040907084941864, 2.146414041519165, 0.7105762362480164, -12.435996055603027, -0.3345792889595032, 9.54983901977539, 4.187550067901611, 2.007647752761841, -3.3274285793304443, 1.2282947301864624, -17.707565307617188, -1.4267957210540771, -0.658729612827301, 0.9480912685394287, 0.7350795269012451, -2.5177536010742188, -5.627542018890381, -1.4345325231552124, 4.5824875831604, 0.9130852818489075, 5.7140398025512695, 2.9684813022613525, 16.316368103027344, 0.9569219350814819, 13.252399444580078, 4.20391845703125, 4.143929481506348, -1.9307202100753784, -19.370891571044922, 0.021840255707502365, 4.484306335449219, -7.534303585998714e-05, -4.524147033691406, -4.992663860321045, 0.000436555128544569, -9.863319974101614e-06, -11.119482040405273, 2.0259079933166504, 13.46956729888916, -10.590124130249023, -11.494583129882812, 9.404379844665527, 13.384320259094238, 13.698596954345703, 20.508577346801758, 5.906014442443848, -7.353235244750977, 1.9888830184936523, -0.0298581812530756, -7.243984222412109, -4.427630424499512, 2.4575178623199463, -6.366893768310547, 1.730820655822754, 4.076099139638245e-05, 0.0077196951024234295, 4.1922926902771, 13.154609680175781, 12.865631103515625, 3.5228686332702637, 8.431391716003418, -0.9010809659957886, -0.09809011220932007, -7.827122211456299, 7.019606590270996, -4.871817588806152, -2.019660472869873, -9.919795036315918, -0.9271540641784668, 3.8466310501098633, -0.4187300503253937, 0.02286449819803238, 0.03730814903974533, 8.734665870666504, 2.3682050704956055, -12.061370849609375, -8.149981498718262, -5.768826961517334, 6.872305870056152, 3.3854715824127197, 4.7167253494262695, 4.83356237411499, 0.9084886908531189, 0.2673822045326233, 0.040689438581466675, -5.2317938804626465, 1.0992248058319092, 6.317598342895508, -1.9858894348144531, 6.1944028857396916e-06, 1.4827170161879621e-05, 0.829653799533844, 5.778955936431885, -4.261626720428467, -2.212938070297241, 5.573184013366699, 6.498600006103516, 13.896036148071289, 6.0756378173828125, 3.2048542499542236, -0.027064114809036255, -3.2182328701019287, -3.512701988220215, -1.9394478797912598, 5.1300787925720215, -0.16892318427562714, -2.419114828109741, -3.9274795055389404, 7.644562721252441, 1.7730644685798325e-05, -4.190252304077148, 11.917009353637695, -0.3584528863430023, 0.6114169955253601, -11.675765991210938, 3.1010775566101074, 6.61067533493042, -4.213900566101074, -3.0394234657287598, 1.1001222133636475, -0.0018615256994962692, -2.4159157276153564, -11.011894226074219, 4.650883674621582, -0.3473975360393524, -1.6962886775218067e-06, 4.275606155395508, -8.553443908691406, 4.117089748382568, 2.7421793937683105, 7.7052178382873535, 13.663527488708496, 10.798510551452637, 0.00998496450483799, 0.16450367867946625, 4.723362445831299, 3.1836860179901123, 1.4740644473931752e-06, -1.219231367111206, 7.481479167938232, -5.99393892288208, -18.396596908569336, -0.3701973259449005, 8.357839584350586, -7.552218914031982, -0.06038672477006912, 0.12363240867853165, -5.6414313316345215, 0.15529093146324158, 0.04389214515686035, 0.11880123615264893, 4.762843608856201, 3.407998561859131, -6.692220687866211, 2.945920467376709, 5.515800952911377, 2.013062000274658, 0.657157301902771, 0.05908351019024849, 6.672460556030273, -0.20154902338981628, -21.47563362121582, 2.7021706104278564, 3.136772394180298, 0.16273565590381622, 3.4309134483337402, 13.259963035583496, 1.364230751991272, -2.5343563556671143, 5.405823230743408, 4.486780643463135, -0.6089951992034912, -2.1451308727264404, 0.9608941078186035, 0.014727562665939331, -10.422630310058594, 0.00046796444803476334, -3.992229461669922, -3.0854501724243164, -8.168109893798828, 3.205582515874994e-06, 9.158084869384766, 1.0233383178710938, 1.1114040613174438, 9.628427051211474e-07, -4.531280410446925e-06, -0.01516154408454895, -8.37763500213623, -0.7992236614227295, 7.776305198669434, 4.806007385253906, -11.554848670959473, 11.583786964416504, 0.06843049824237823, -3.4367319585726364e-06, 13.168277740478516, 2.150202989578247, -2.4095088519970886e-06, 10.387417793273926, 7.32993221282959, 5.132660388946533, 0.24195371568202972, 1.7950074672698975, -16.064775466918945, 0.14670389890670776, 8.17746639251709, -6.514965207315981e-06, -17.00200080871582, -5.4791340827941895, 3.671844720840454, 9.32900333404541, 6.851731777191162, 8.821921348571777, 2.4956741333007812, 2.897778034210205, 8.006351470947266, 5.894395351409912, -7.839593887329102, -6.498364655271871e-06, 7.172973155975342, 16.996063232421875, 3.6759092807769775, 7.984843730926514, -1.1288436326140072e-05, 10.560110092163086, 8.917601585388184, -0.009110935963690281, 2.532893657684326, -9.38348388671875, 5.067808628082275, 7.778578281402588, -10.795982360839844, 0.8547520041465759, -6.053600311279297, -0.18776415288448334, -13.886039733886719, -2.339954137802124, 12.080741882324219, -6.957302093505859, 1.7667773962020874, -13.39474105834961, -11.254825592041016, -13.215882301330566, -4.145040988922119, -9.70362663269043, 0.019189847633242607, 14.278918266296387, 0.27578598260879517, 26.110736846923828, 10.401069641113281, -4.70855958667471e-08, -3.4380691051483154, 1.4761621952056885, 0.08578886091709137, 7.534094333648682, -9.578306198120117, -5.239090442657471, -1.9181336164474487, 1.2397445440292358, 1.335750699043274, 0.3468642830848694, 0.26552248001098633, 0.16660672426223755, 1.0020846128463745, 0.45840170979499817, -0.03751097619533539, 0.43484705686569214, 3.539351463317871, 0.168804332613945, 0.7428373098373413, -0.21679413318634033, -0.465228796005249, 0.9386039972305298, 0.10884341597557068, 0.4057452976703644, 2.8114397525787354, 1.641626000404358, -0.3531433343887329, 2.2990779876708984, 2.0526866912841797, 1.1315956115722656, 1.84492027759552, -0.42476266622543335, 0.5694419145584106, 2.1375977993011475, 0.6675819754600525, 0.0020411270670592785, 0.8382700681686401, 5.9999554650858045e-05, 2.716923475265503, 0.2567921578884125, -0.002745239995419979, -2.8449985620682128e-05, 0.6275360584259033, 0.040700361132621765, 1.8278692960739136, 1.0142089128494263, 2.4544224739074707, 0.5419704914093018, 0.7345958948135376, 0.6661444902420044, 1.4572808742523193, 0.8496536016464233, 0.7092002630233765, 0.25203385949134827, 0.007957952097058296, 1.9040875434875488, 1.3185195922851562, 0.38403263688087463, 0.6606161594390869, 0.44366636872291565, 3.793996438616887e-05, 0.0020179664716124535, -0.1333944946527481, 4.2198662757873535, 1.917228102684021, 1.2652158737182617, 2.307507276535034, 0.12448456138372421, 0.0010335594415664673, 0.4505766034126282, 0.9875478148460388, -0.05518515408039093, 0.057925403118133545, 1.2846626043319702, 0.15374855697155, 0.4907260835170746, 0.36721092462539673, -0.0034779778216034174, -0.002011239994317293, 1.2931817770004272, 0.8649929165840149, 0.731834888458252, 1.2765904664993286, 0.5242812633514404, 0.9101014137268066, 0.6784220933914185, 0.5066487789154053, 0.2669457197189331, 0.3890968859195709, -0.11363140493631363, 0.003339910414069891, 0.2515435218811035, 0.41363435983657837, 0.9222778081893921, -0.003510892391204834, -2.133446059815469e-06, 6.143083737697452e-06, -0.05479646846652031, 1.7760200500488281, 0.8212385177612305, 4.241039276123047, 1.8439931869506836, 0.8373261094093323, 0.9037381410598755, 1.5540406703948975, 0.7861869931221008, -0.01564137637615204, 1.3851585388183594, 0.901706874370575, -0.11568707227706909, 0.9166874289512634, 0.1085437759757042, -0.10546717792749405, 1.9324649572372437, 1.466317057609558, 2.6878004064201377e-05, 3.6428821086883545, 1.4846415519714355, 0.5974578261375427, -0.021785035729408264, 1.3029805421829224, 1.7823420763015747, 0.29772984981536865, 0.1707775890827179, -0.5747010111808777, -0.17013771831989288, 0.0038389000110328197, -0.4024929106235504, 0.8639104962348938, 0.633259117603302, 0.5901486873626709, 2.7516520617609785e-07, 0.5106948614120483, 1.4460391998291016, 2.236337661743164, 0.44275403022766113, 1.3852224349975586, 1.6815547943115234, -0.31495845317840576, -0.0006819135742262006, 1.6669808626174927, 0.19417181611061096, 0.7401087284088135, 2.2450313963418012e-07, 0.6818363666534424, 1.6255632638931274, 0.8179373741149902, 1.502199411392212, 0.21060802042484283, 1.0981444120407104, 2.8304622173309326, 2.913729429244995, 1.0101996660232544, 1.0335493087768555, 1.6207741498947144, -0.3289087116718292, 0.10994583368301392, 0.03607255220413208, -0.4145696759223938, 1.9029934406280518, -1.7991126775741577, 1.0677591562271118, -0.5225199460983276, 0.4541222155094147, 0.07387719303369522, 0.23419831693172455, 1.9111768007278442, 1.8148374557495117, 0.883808970451355, 0.7363661527633667, 0.0037129931151866913, 0.43992021679878235, 2.407529354095459, 0.06495177000761032, -0.2336750626564026, 3.71144437789917, -0.5874855518341064, 0.23112179338932037, 0.006997164338827133, 1.9844207763671875, -0.14303094148635864, 3.8429811000823975, -0.0014819554053246975, 2.8748526573181152, 1.1030778884887695, 2.488328456878662, 2.71873477686313e-06, 1.3054732084274292, -0.5549964308738708, 0.30134400725364685, 2.1464197743625846e-06, -8.944615728978533e-06, -0.0473361611366272, 1.062768578529358, -0.460502028465271, 1.0516138076782227, 0.8330602049827576, -0.16719312965869904, 3.0964035987854004, -0.0008279476314783096, -7.483439276256831e-06, 1.6947307586669922, 0.5490491986274719, 5.2815871640632395e-06, 1.4977599382400513, -0.05854376405477524, 5.6005473136901855, 2.4680349826812744, -0.020889198407530785, 0.4439643919467926, 0.0015761801041662693, 1.068730354309082, -9.288656315220578e-07, 2.51196551322937, 0.37777721881866455, -0.3907795548439026, 1.635507345199585, 1.3925789594650269, 2.6215531826019287, -0.018597200512886047, 1.4290258884429932, 1.0651419162750244, 0.2264501452445984, 0.8791931867599487, -4.3140857997059356e-07, 2.100471258163452, 2.896907091140747, -0.7480288743972778, -1.1443908214569092, 2.203535814260249e-06, 1.4047340154647827, 1.1121033430099487, 0.002653547329828143, 0.056379854679107666, 1.5250829458236694, 5.362957954406738, 3.21059513092041, 1.4029841423034668, 1.3280595541000366, 0.24664904177188873, 2.2152652740478516, 1.3643014430999756, 0.6598238945007324, 0.14643897116184235, 1.709489345550537, 1.0721681118011475, 1.9200509786605835, 1.0979111194610596, 4.409481525421143, -0.22175848484039307, 2.9813051223754883, 0.0006992974085733294, 1.6002331972122192, -0.01587706059217453, -0.07782245427370071, 1.533922791481018, -9.298828018700078e-08, 1.3953860998153687, 0.1826745569705963, -0.008115427568554878, -0.10931128263473511, 2.0315914154052734, 1.7183430194854736, 0.9218416213989258, 0.9510185122489929, 1.1959325075149536, -4.616976737976074, 0.1763278841972351, -1.199520230293274, -1.6161093711853027, -0.5171836614608765, -1.6965233087539673, 0.5107144117355347, 1.1156038045883179, 0.41164496541023254, 2.783087968826294, -0.8140223622322083, -3.0857865810394287, 0.5816291570663452, -2.429633617401123, 1.2697367668151855, 6.471983909606934, 3.673250436782837, -2.111185073852539, 3.809324026107788, 4.435454368591309, 0.6097934246063232, 3.147158145904541, -2.458378553390503, -1.1824851036071777, 3.7753140926361084, -2.9313414096832275, 0.013701304793357849, 1.480101227760315, 1.81487064310204e-06, 3.2639000415802, -2.4330532550811768, -0.008601926267147064, -1.4429876500798855e-05, -2.474790096282959, -0.8964893221855164, 4.229684829711914, 0.5311228036880493, 0.8378982543945312, 2.781914234161377, -1.7644941806793213, -4.02047872543335, 2.6891753673553467, 1.5117404460906982, -3.1768670082092285, 0.5776579976081848, 0.0009228270500898361, 2.1766772270202637, 3.0074996948242188, 0.4786997437477112, 0.06341076642274857, 0.7824408411979675, 3.9248749089892954e-05, 0.003954275976866484, -1.7174932956695557, 6.587591648101807, 4.629768371582031, 1.4180086851119995, 4.776581287384033, -0.8247625827789307, -0.022938745096325874, -3.691312074661255, 1.4043337106704712, -2.231705665588379, -0.7689399719238281, 1.2369318008422852, -0.8541971445083618, 1.09169340133667, -0.391693651676178, -0.028788655996322632, -0.002894951030611992, 1.220004677772522, 0.9619410037994385, -0.10205048322677612, 0.07844425737857819, -2.70855712890625, -1.7251695394515991, -0.5532158613204956, 0.3600924015045166, -2.131279945373535, 0.9061645865440369, -1.7168275117874146, -0.006413080729544163, -1.3654875755310059, 1.0815445184707642, 3.153109073638916, -0.5631401538848877, 1.1577658369787969e-05, 1.2760825484292582e-05, 0.6007834076881409, 4.958329677581787, -2.852224826812744, 7.8828253746032715, 4.730321407318115, 0.5946227312088013, 2.438875198364258, 0.30885279178619385, 1.9559544324874878, -0.07141409069299698, 1.4427565336227417, -1.2807873487472534, -2.342942714691162, 0.033102214336395264, 0.2788541316986084, -3.601726770401001, 1.256921648979187, 3.5991010665893555, 1.7349948393530212e-05, 6.061882019042969, 1.011216640472412, 2.4241573810577393, 0.3083786368370056, -0.6895564794540405, 3.8309690952301025, 0.040172070264816284, -3.295484781265259, -2.554591655731201, -0.5622993111610413, 0.02975565195083618, -2.8806984424591064, 0.008611604571342468, 0.2699340581893921, -0.8006913065910339, -1.6023386706365272e-06, 1.492637038230896, 1.3659061193466187, 2.5329506397247314, 1.5025193691253662, 3.255868434906006, 4.774710655212402, -3.2543184757232666, -0.002185937948524952, 0.8918282985687256, -0.47000017762184143, 2.0032968521118164, -5.012328529119259e-06, 0.24812787771224976, 0.680347740650177, -0.7603843808174133, -2.2218828201293945, -0.7858100533485413, -0.6389665007591248, 4.654313087463379, 3.165361166000366, 2.0232067108154297, -1.3880836963653564, 1.8995062112808228, -2.5292460918426514, -1.0157052278518677, -0.49507635831832886, -3.2817742824554443, 0.8128342032432556, -9.721856117248535, -0.1840677261352539, -4.376189708709717, 1.293426752090454, 0.1242433413863182, -3.5189216136932373, -0.4925500154495239, -1.277511715888977, 3.024681806564331, 1.5893287658691406, 0.02633950114250183, 0.7655274868011475, 4.670578956604004, -0.05288885161280632, -3.9455883502960205, 8.470597267150879, -5.076927185058594, 0.5609138011932373, -1.6799993515014648, 3.3034844398498535, -2.0822629928588867, 4.451417922973633, -0.005196042358875275, 3.7194082736968994, -1.003409743309021, 0.7479444742202759, 9.86742975328525e-07, 2.7188100814819336, -4.011706352233887, 0.7701442837715149, 3.225734872103203e-06, -3.2486184409208363e-06, -0.2259439378976822, -2.9913485050201416, -5.380911827087402, 1.9588736295700073, 1.8714287281036377, -2.8858284950256348, 5.027031898498535, 0.07155613601207733, -4.444964815775165e-06, 1.3727374076843262, 0.31625568866729736, 2.571785671534599e-06, 2.7776641845703125, -2.3691866397857666, 10.620816230773926, 1.8958508968353271, -0.04813903570175171, -3.6448400020599365, 0.02758718654513359, 0.11314474046230316, -9.557026032780414e-07, -1.4148231744766235, -0.7392853498458862, -1.4012017250061035, 4.133134365081787, 1.737117052078247, 5.646238803863525, -2.8491549491882324, 1.2585428953170776, -1.8580576181411743, -0.6871229410171509, -2.539764404296875, -5.387389592215186e-07, 5.82951021194458, 9.182641983032227, -3.0691652297973633, -4.5727128982543945, 9.480094718128385e-07, 1.1461031436920166, 2.817159414291382, 0.01969142258167267, -0.3465936779975891, 4.506496429443359, 9.493021011352539, 4.398662567138672, -0.3249804973602295, 1.3317147493362427, -1.6694196462631226, 3.2249178886413574, -0.3501375913619995, -2.0908124446868896, -0.9528217911720276, -1.4297682046890259, 1.230489730834961, 0.5611106157302856, -0.5051077604293823, 7.945624828338623, -2.345984935760498, 1.4458566904067993, -0.002386820735409856, 1.5421258211135864, -0.1067284643650055, -2.7472307682037354, 0.6699049472808838, -2.6081281134793244e-07, 4.417999744415283, 0.4186038076877594, 0.000722660799510777, -0.985628068447113, 3.429788589477539, -0.790794312953949, -0.4334716200828552, 2.2598674297332764, 0.4978700280189514, 5.108081340789795, -0.5833542943000793, -3.79533314704895, 0.9296467900276184, 1.440167784690857, 1.0893484354019165, -0.24884334206581116, 10.582511901855469, 0.6537824869155884, -2.5122621059417725, -0.8418766260147095, -1.8294786214828491, 1.3701220750808716, -1.5518864393234253, -0.25449493527412415, 1.6519819498062134, 0.08630268275737762, -1.8954375982284546, 1.5610884428024292, -3.2585370540618896, 2.4606480598449707, -0.3979215621948242, -0.1721973717212677, -0.3089279532432556, 2.411126136779785, 7.039202690124512, -0.016801323741674423, -1.8443032503128052, 3.285212369519286e-05, 8.49695873260498, 1.0938602685928345, -0.0011584844905883074, 1.823216189222876e-05, 4.676576137542725, 0.35548338294029236, -3.5103201866149902, 5.484122276306152, 7.428618431091309, -3.523029327392578, -4.86623477935791, -3.399362564086914, -5.0670270919799805, 0.7768833041191101, 2.8046040534973145, -0.5423020720481873, 0.021113617345690727, 2.9741437435150146, -0.6882267594337463, -3.1021804809570312, 3.169382333755493, 0.8741738796234131, -8.737021562410519e-05, -0.010850435122847557, -1.5769317150115967, 2.0029149055480957, -1.8972725868225098, 0.8572882413864136, -1.1747570037841797, 0.04102037847042084, 0.04640905559062958, 0.38784995675086975, -0.8815609812736511, 1.8014156818389893, -0.1068292111158371, 4.160937786102295, 0.2666139602661133, -0.7097780704498291, -0.8752787709236145, -0.005267225671559572, -0.05245461314916611, -2.4926915168762207, 2.00848650932312, 4.1016058921813965, 4.563455581665039, 4.9322614669799805, 0.6783013343811035, 0.7662474513053894, 0.15688835084438324, 1.0088214874267578, -0.5018244981765747, 1.320741057395935, -0.06484010815620422, 2.5628459453582764, -0.12818434834480286, -1.9117662906646729, 0.934945285320282, -1.4722920241183601e-05, -2.8787828341592103e-05, -0.5187591314315796, 0.6005378365516663, 0.5908962488174438, 4.317855358123779, 1.0788317918777466, 0.6615914702415466, -3.7112529277801514, 1.58086359500885, 0.13878454267978668, -0.024970699101686478, 3.6290531158447266, 0.3030395805835724, 1.054885983467102, -0.7107601165771484, 0.28660324215888977, 1.106210470199585, 5.481847763061523, -1.4168411493301392, -4.0532471757614985e-05, 6.598976135253906, -0.7544084191322327, -3.1404335498809814, -0.18180571496486664, 6.0381693840026855, 2.3901922702789307, -3.588016986846924, 0.8692380785942078, 0.580600380897522, -0.46920979022979736, 0.0038841990754008293, -0.2103467434644699, 4.222530364990234, -0.907148003578186, 1.3771177530288696, 4.496634574024938e-06, -1.2103183269500732, 3.544536590576172, 3.7714016437530518, -1.3856174945831299, 0.18576252460479736, -2.547092914581299, -2.6753804683685303, 0.0030328358989208937, -0.46685367822647095, -3.1047110557556152, -0.24051392078399658, 6.417616532417014e-06, 1.746049404144287, 2.2585740089416504, 2.364772319793701, 9.51965045928955, -0.002718910574913025, -1.1269418001174927, 8.680595397949219, 4.941529273986816, -0.019953958690166473, 4.097901821136475, 4.344857692718506, 0.42842286825180054, -1.636506199836731, -1.952698826789856, -2.998765230178833, 2.9130773544311523, -4.48346471786499, 0.3366583585739136, -2.454289674758911, 0.03367183357477188, 0.03689030185341835, -1.8273578882217407, 0.5939788222312927, 9.4202880859375, -0.748953104019165, 0.886993408203125, -0.14823976159095764, 0.25846758484840393, -1.5925027132034302, -0.7484419345855713, -1.3766778707504272, 3.4134552478790283, 0.04075419157743454, -0.06087270379066467, 0.23696888983249664, 3.1525990962982178, -1.5768688917160034, 7.007802963256836, -0.00011631778033915907, 5.458460807800293, 1.878265619277954, 5.737780570983887, -7.31857880964526e-06, -2.682542085647583, -1.430912971496582, -1.3340158462524414, -1.290265117859235e-06, 9.391891580889933e-06, -0.21239282190799713, 0.8731223344802856, 1.0792086124420166, -3.60866117477417, -0.23203277587890625, 4.346593856811523, 0.7532745003700256, -0.1811128705739975, 6.8877998273819685e-06, -5.263925552368164, 0.5458109974861145, -6.160724751680391e-06, -1.473122239112854, -1.0222963094711304, 4.97153902053833, 5.392733573913574, -0.7503901124000549, 6.529743194580078, -0.10825154185295105, -3.3164772987365723, 4.531649665295845e-06, 7.3909711837768555, 0.09308388829231262, -1.7331628799438477, -0.5339738130569458, 0.7959039211273193, -3.4671213626861572, 1.0514013767242432, 0.33181262016296387, -0.3163943290710449, -1.598573923110962, 4.2325873374938965, 3.8780472095822915e-06, -1.0342578887939453, -2.76716947555542, -2.6228108406066895, -3.9088122844696045, 4.352946689323289e-06, -2.222062587738037, -1.2760319709777832, 0.007025293540209532, -0.5117687582969666, 2.221217393875122, 2.39544939994812, 2.350607395172119, 4.363487243652344, 2.4128737449645996, 1.3602572679519653, 3.8985116481781006, 5.377086162567139, 1.53285813331604, -2.4273784160614014, 3.8239853382110596, 1.063483476638794, 9.079298973083496, 5.321251392364502, 7.6336469650268555, 1.3107593059539795, 4.855810642242432, -0.013424184173345566, -2.595747232437134, -0.1591026782989502, -7.649839401245117, -6.539111614227295, -9.468290329550655e-08, 1.3020187616348267, -0.48301762342453003, -0.04847407713532448, -3.4631664752960205, 4.382323265075684, 3.4486377239227295, 0.7999339699745178, 1.4285485744476318, 0.8723605871200562, -2.905449151992798, 0.0028289109468460083, 1.3481996059417725, 5.0661420822143555, 1.5491727590560913, 1.2100452184677124, -0.5002996325492859, 0.023803189396858215, 0.38550788164138794, -1.4101202487945557, -0.33217453956604004, -1.1821497678756714, 3.2659800052642822, -4.44896125793457, -0.8188788890838623, 6.366854667663574, 2.1151301860809326, -0.789336085319519, 3.2595646381378174, 7.079975128173828, 2.9384493827819824, 4.123345375061035, -0.27704229950904846, -1.398708462715149, -0.28891968727111816, -4.562142372131348, 0.007814867421984673, -0.46860235929489136, 2.347736335650552e-05, 5.609557628631592, -2.0153417587280273, -0.002647929824888706, -1.3877174751542043e-05, 0.824315071105957, 0.056348178535699844, 3.2962286472320557, 1.1434543132781982, 0.9516161680221558, 0.3995474576950073, 0.7776929140090942, 0.2104136049747467, 6.147313117980957, 1.4658664464950562, 0.8888700604438782, 0.3472217917442322, 0.007918248884379864, 1.8518524169921875, -1.5807685852050781, -0.9882245063781738, -0.8472277522087097, 0.9324947595596313, -2.1817253582412377e-05, -0.00012403150321915746, 1.469658374786377, 8.875351905822754, 4.0646209716796875, 3.8110692501068115, 1.5388675928115845, 0.19624076783657074, -0.033356018364429474, -2.182398557662964, 1.027939796447754, 1.5185438394546509, -0.9342900514602661, -0.7867085337638855, -1.3520495891571045, 0.04939785599708557, -0.3549458980560303, -0.006153283175081015, -0.009995438158512115, 3.200155258178711, 1.97160005569458,