0: [15399.3349609375, -7.314847469329834, 5110.06689453125, 765.3397216796875, -2756.546142578125, 350.0137939453125, 204.92919921875, -327.9250793457031, 607.053466796875, 10.527676582336426, -310.0679626464844, 509.3523864746094, -5.78955078125, 503.4075622558594, 339.781982421875, -2730.244140625, 736.8111572265625, 549.9332275390625, 8108.7734375, -482.84210205078125, 94.7280502319336, -13.581266403198242, -10146.12109375, 857.755859375, 55852.1640625, 31308.537109375, 11126.421875, -1.8033745288848877, 53236.609375, -30155.650390625, -1216.29150390625, 2455.702880859375, 598.960693359375, 35285.3046875, 328.2059631347656, -523.2955322265625, 398.1673583984375, 0.07217738032341003, -3737.57958984375, 1063.26806640625, 367.6822204589844, 549.0482177734375, -6776.138671875, 922.36962890625, -501.26531982421875, 42.50383758544922, 3494.71337890625, 224.50062561035156, -7590.7509765625, -1891.3585205078125, -2672.763916015625, 13.523449897766113, -91.28768920898438, 18774.287109375, 750.364013671875, 16283.73046875, -3.9011311531066895, 2516.5341796875, 135.98922729492188, 847.2243041992188, 5915.37060546875, 777.34228515625, 462.80633544921875, 592.281494140625, 147.53707885742188, 112.61408996582031, 74.63446807861328, 182.5732421875, -1082.762939453125, 97.46286010742188, 25420.0234375, -1394.595703125, 268.41876220703125, 116.70787811279297, -898.71142578125, 2137.9345703125, 5818.71484375, 552.36328125, 6070.3349609375, -1736.4384765625, -27096.70703125, -138.4551239013672, 84.82907104492188, 534.66650390625, -544.4323120117188, 10498.435546875, 8522.4892578125, 1306.2398681640625, 28.451305389404297, 210.84190368652344, 12.180935859680176, -614.3538818359375, 1756.8326416015625, 591.7532348632812, 213.54855346679688, -1.6606067419052124, -1014.9199829101562, 506.2093200683594, -1106.19775390625, 14331.8544921875, 562.4169311523438, -275.52227783203125, 255.46875, -399.58062744140625, 1088.913818359375, 905.310791015625, -633.0943603515625, -207.89547729492188, -351.48443603515625, -20004.953125, -125.33143615722656, -349.7338562011719, 304.6755065917969, 429.50238037109375, -13.622530937194824, 200.95620727539062, -1244.160888671875, 41730.2265625, -1805.518310546875, -1.6872801780700684, 32919.2890625, -1202.568115234375, -263.76031494140625, -151.59652709960938, 1394.5960693359375, -2771.0166015625, 19.932205200195312, -590.1056518554688, 315.794921875, 325.3271484375, -198.61129760742188, 638.6942749023438, -9688.3193359375, 2997.9111328125, 75008.734375, -156.93426513671875, -2508.76611328125, 5369.41796875, 40554.67578125, 34.389366149902344, -14044.396484375, -6818.212890625, 1530.389892578125, 1553.8480224609375, 1326.7025146484375, 30.900779724121094, -3375.97509765625, 452.02239990234375, -95890.578125, -87.64750671386719, 1245.5987548828125, 175.23263549804688, 587.8763427734375, -2755.557861328125, 24183.5625, 29.150699615478516, -1385.4237060546875, -367.35882568359375, -27831.388671875, 4577.23974609375, 36148.8671875, 2267.10107421875, -982.4241943359375, 322.361083984375, 130.59141540527344, 13.66207504272461, 194.4660186767578, 157.13604736328125, -11926.302734375, -12.584693908691406, 695.4613037109375, 3085.300537109375, 36644.5390625, -2443.364990234375, 709.7066650390625, 907.0626220703125, 1343.80078125, 2549.82080078125, 5960.361328125, -5494.28369140625, -8610.2265625, -3634.8046875, 33655.84375, 1138.7698974609375, 261.7745361328125, -148.58168029785156, 3228.29736328125, 2343.420166015625, 594.0006103515625, -1256.64990234375, 105.08780670166016, 108.33354949951172, -110.783935546875, -294.87774658203125, 1509.169677734375, 697.8792114257812, -254.8462371826172, 443.0687255859375, -4729.513671875, 421.5714416503906, 429.3302001953125, 1431.3333740234375, -1755.275390625, -1673.57763671875, 1726.0091552734375, 366.4326477050781, -67.06887817382812, -28643.70703125, 714.9766845703125, -23.27449607849121, 1498.214599609375, 162.37278747558594, -54935.04296875, 7.984421253204346, -78.25717163085938, -55.886131286621094, 150.3166046142578, 34.44762420654297, 537.0604248046875, 174.1039581298828, 108.92256927490234, 54.355682373046875, 929.6898803710938, -106.41305541992188, 73984.203125, 3372.33740234375, 2384.02294921875, -6451.6494140625, -64256.8984375, 0.2941131591796875, -880.3157958984375, 305.80120849609375, -19488.59375, 74.08982849121094, -4992.8955078125, -87.54651641845703, 43.036888122558594, 136.415283203125, 1814.7987060546875, 10333.41796875, 16351.6337890625, 318.2842712402344, -359.1703796386719, -249.0603790283203, 31634.513671875, 239.42498779296875, -34756.9609375, -6778.97021484375, 595.148681640625, -80.64791870117188, -20210.7890625, 643.5391235351562, 2153.248046875, 115.46473693847656, -41173.90625, -286.49871826171875, 8765.5185546875, -2.468385696411133, -2658.4560546875, 486.33856201171875, -3114.4697265625, 691.4840087890625, -56412.1953125, -23.788837432861328, -32457.98046875, 276.3092041015625, 28293.15625, 2784.073486328125, 80142.359375, 303.8017578125, 1602.95556640625, -0.292630672454834, 6600.484375, 27630.26171875, 28775.25, 3.091522216796875, 720.5604248046875, 335.168701171875, 158725.53125, -658.99267578125, -873.15234375, -21.545644760131836, 18762.6171875, -3.5739388465881348, 38644.96875, -5869.5732421875, 200.10568237304688, 3288.880859375, -50.26564025878906, 17.594276428222656, 392.23101806640625, -1737.5135498046875, 1589.242919921875, -9.759355545043945, 791.5682983398438, -119.07594299316406, -9.083883285522461, 5.1617231369018555, -492.9140625, 253.37344360351562, 9036.107421875, -684.6942138671875, 87.52458190917969, -0.19611556828022003, 40545.234375, -749.2755737304688, 1949.3568115234375, -725.5269775390625, 30.56466293334961, 830.5783081054688, 408.18212890625, 533.5430297851562, -417.2767333984375, -5876.23828125, 257.5707092285156, 347.74444580078125, 3953.4697265625, 29.102943420410156, 1099.252197265625, -2091.846923828125, -44.658390045166016, -480.181640625, 146.86190795898438, 1398.12646484375, -3968.62548828125, 112.39866638183594, -23.60477066040039, -489.524658203125, 3657.525146484375, 4.689197063446045, -852.3786010742188, 4024.814453125, 598.5076904296875, -370.646728515625, -4236.119140625, 84.36872863769531, 494.5929260253906, -95.41468048095703, 9894.8359375, 71.60604858398438, -28754.8828125, -88.26911926269531, 481.6768798828125, -1110.8846435546875, -9477.7529296875, 884.102783203125, 10943.30859375, 26.72229766845703, 365.8785400390625, -61.776729583740234, -662.3973388671875, 1718.580810546875, -6423.314453125, -1484.7611083984375, 3738.015380859375, 594.3880004882812, -114.78607177734375, 1010.1516723632812, 870.9197998046875, -1.2279564142227173, 219.39010620117188, -281.08258056640625, -3535.537109375, 32.527191162109375, -4422.1396484375, 45.65220260620117, 280.68072509765625, 236.13552856445312, 11303.51171875, 36.0670280456543, -75714.3671875, -216.16778564453125, 1422.240478515625, 23.653003692626953, -36695.46484375, 78.80422973632812, 20955.91015625, -87.1290283203125, 2.6893606185913086, 2.390505790710449, 643.3540649414062, 78.95497131347656, 622.3389282226562, -496.6593322753906, -19401.8125, 57.31359100341797, 266.3605041503906, -334.55572509765625, 15522.5458984375, -2931.57373046875, 7899.33984375, 67288.6875, -288.96380615234375, -58.9665641784668, 3711.12890625, 160.5587921142578, 16130.9013671875, 388.73004150390625, 398.7898864746094, -6.548511981964111, -19.043758392333984, 2225.2978515625, 76.24691772460938, 595.4739990234375, 19453.048828125, -130.93386840820312, 498.87530517578125, 1403.1990966796875, 411.2882080078125, -4688.10302734375, 1149.07421875, -207.2593536376953, 13659.07421875, 83.88542175292969, -4959.36474609375, 56.850563049316406, 1085.022705078125, 1876.0841064453125, 41321.33984375, -4542.541015625, -9267.13671875, 308.9281005859375, -158.65499877929688, -2870.125, -811.319091796875, -15543.7958984375, -1537.630615234375, -0.4705910384654999, -235.64141845703125, -2.864091396331787, -271.951171875, 815.7401733398438, 548.9939575195312, -533.930908203125, -167.400146484375, -12.598335266113281, -2341.37109375, 1950.335205078125, 303.27740478515625, 218.23895263671875, -1485.5595703125, -374.28070068359375, 2397.724365234375, 1322.35595703125, -44063.359375, 127.13340759277344, -18462.830078125, 850.322265625, 1521.52197265625, 1654.367431640625, 651.7117919921875, 61.49065399169922, -651.6549072265625, -711.630615234375, 609.703857421875, 1297.4696044921875, -60.57618713378906, 826.1099243164062, -19.578346252441406, -9063.48828125, 154.63458251953125, 149.05906677246094, -2.1270925998687744, 349.4338684082031, -190.9110870361328, 45.25242233276367, 2621.2568359375, -10.721796035766602, -2796.75341796875, 381.32623291015625, 27943.552734375, 291.2509765625, -12733.2509765625, -125.38252258300781, 151.66001892089844, 865.5018920898438, 86.85890197753906, 639.9749755859375, -62.0142707824707, -1058.4764404296875, 21579.396484375, 26.972000122070312, -29673.2109375, -99.88307189941406, 502.53997802734375, -1712.7607421875, -1103.2496337890625, 2137.744140625, 13497.5078125, -5472.4404296875, -131.48367309570312, 3636.666259765625, 3302.9208984375, 1356.556640625, 44706.0390625, -148.13259887695312, 1427.5697021484375, -12830.171875, 702.816162109375, -100.67420959472656, 64078.0390625, -1826.933837890625, 6681.22900390625, -20190.716796875, 48898.43359375, -205.92726135253906, 2676.98779296875, 1434.454833984375, 635.06884765625, -52502.08984375, 1766.8035888671875, -3164.583984375, 914.317626953125, 120.7301025390625, 29731.390625, 293.2122802734375, 1148.52685546875, -9937.404296875, -4238.76171875, -0.5959465503692627, -862.16064453125, -420.96868896484375, -21.690292358398438, -506.5686950683594, -212.0601043701172, 287.69232177734375, -12.456289291381836, -44.914878845214844, -45458.04296875, -2991.576171875, 5007.5166015625, 87.25005340576172, 3001.37451171875, 4788.984375, 296.89117431640625, 3195.74267578125, 3686.970458984375, 248.49830627441406, 789.6093139648438, -14.807960510253906, -7912.3955078125, 541.8555297851562, -269.95941162109375, -108.6385726928711, 153368.140625, 25.336078643798828, -775.382080078125, 44199.05859375, 3818.25537109375, -914.3821411132812, -432.3611145019531, 3323.1201171875, 744.6685791015625, 811.049560546875, 24164.6484375, 2183.70361328125, 290.252685546875, -249.80702209472656, -7559.03271484375, -26673.23046875, -4103.30859375, -29693.482421875, -53.67393493652344, 5714.7900390625, 4967.9833984375, 10344.509765625, -1275.457275390625, -205.27459716796875, 104.64974975585938, -10.300228118896484, 799.300048828125, 27.792753219604492, 235.7535400390625, 1157.6207275390625, -15582.068359375, -381.3478698730469, 21990.46875, -9.991070747375488, 1581.25830078125, 121.51810455322266, -797.6435546875, -15506.9267578125, 54.3087158203125, 2252.648681640625, -8983.796875, 502.6060485839844, -5264.6416015625, 753.1232299804688, -16657.884765625, -6195.1728515625, 3743.497314453125, 312.3611755371094, 6426.66796875, 167.5296630859375, 11511.3037109375, 8769.59375, -127.33373260498047, 3680.3623046875, 432.90985107421875, -1352.550537109375, -2222.2900390625, -2229.836669921875, 19485.8359375, 61.650901794433594, 11513.486328125, 206.5787353515625, 1769.638916015625, 11860.876953125, -10861.03515625, 373.51812744140625, 434.655029296875, -47254.9609375, 5.441948413848877, -24716.58203125, -6890.66748046875, 152.23117065429688, 2609.511962890625, -319.56243896484375, 740.959716796875, 271.6061706542969, 1688.804443359375, -1016.8271484375, 3951.893310546875, 20162.626953125, -175.8849334716797, 1194.5811767578125, -4754.0283203125, -14654.8369140625, 5254.095703125, -11190.1025390625, 32524.859375, -17770.71875, -141.98745727539062, 370.30316162109375, -3428.650146484375, -1379.46630859375, -1814.738525390625, 1770.0289306640625, 190.0574493408203, -1.2957048416137695, -84.07371520996094, -8024.2646484375, 758.933349609375, -1685.166259765625, -92927.8203125, -2119.4287109375, 2613.2265625, 1394.506103515625, 867.41357421875, 101.69994354248047, -3108.16748046875, -234.31756591796875, 8761.6669921875, -721.7021484375, -75.1061782836914, 352.9043273925781, -77.9320297241211, 938.2284545898438, 1775.6793212890625, -58562.72265625, 7409.87939453125, 685.618408203125, 89.14820861816406, -104.42095947265625, 30812.01953125, 47774.5, -735.64111328125, -1462.589599609375, 117.43614196777344, -12.363168716430664, -144460.53125, 226.39923095703125, 8.717942237854004, 136.79757690429688, -3174.82666015625, -167.0437469482422, 584.4553833007812, 1967.46435546875, 485.7032470703125, 4933.314453125, 1051.2215576171875, 185.85702514648438, 15792.5341796875, -55.60984802246094, 5.51872444152832, -357.1510925292969, -146.18414306640625, -414.2872314453125, 22945.0390625, -65.48321533203125, 8139.21484375, 1141.2796630859375, 1352.190673828125, 3336.40380859375, 24117.978515625, -434.7879638671875, 5171.615234375, 2434.72509765625, 712.6050415039062, 2826.35595703125, 995.8794555664062, 303.2626953125, -27.677101135253906, -316.91412353515625, 5034.5, -119.60115051269531, 2674.238525390625, -685.4493408203125, 3906.6669921875, 73.77728271484375, 300.73223876953125, 186.06661987304688, 3741.545654296875, 383.1561279296875, -74.8629150390625, -354.4673767089844, 1671.0233154296875, 182.0906982421875, 23944.01953125, 111.52831268310547, 52497.4296875, 164.89840698242188, 710.5108642578125, -493.54095458984375, -15.233399391174316, -439.6809387207031, 4870.193359375, -694.4224853515625, -7504.8408203125, 2891.853515625, -954.01318359375, -851.692138671875, 639.2017822265625, -226.4876708984375, 239.28074645996094, 240.383544921875, 21108.82421875, 83.91767120361328, 1597.707275390625, 719.2588500976562, -6943.07080078125, -2514.630615234375, 5785.60986328125, -54.48039245605469, 21537.208984375, -100.25403594970703, 335.3799133300781, 207.23532104492188, 60789.58203125, 31437.2421875, -2374.50244140625, 567.2049560546875, -1095.99853515625, -252.71865844726562, 15255.677734375, -1862.3731689453125, -1.2205967903137207, 359.64642333984375, 14.253849029541016, 539.0509033203125, -2859.423828125, 17.719608306884766, 2633.95703125, -212.2864990234375, 63.07196807861328, 790.199462890625, 463.66033935546875, -2636.3720703125, 3748.32177734375, -793.7100219726562, 79009.8515625, 545.794677734375, -5965.068359375, -37.723175048828125, 18.036462783813477, 4764.8916015625, 86.59392547607422, -2.0324316024780273, -40899.0390625, 341.81744384765625, 140.87025451660156, -16.67133140563965, -7770.6435546875, 635.1184692382812, 66585.359375, 92.06950378417969, -12176.3486328125, -21.293840408325195, -43392.890625, -2721.70654296875, -6003.6923828125, -9.447376251220703, -8595.7900390625, 855.6175537109375, 9.641191482543945, -479.03558349609375, 793.79736328125, 233.9384765625, -70.00611877441406, 475.3218688964844, -3895.50927734375, 294.009765625, 1045.2349853515625, -264.9335632324219, 706.4039306640625, 6485.9208984375, -11404.55859375, 666.80126953125, -8957.248046875, 1213.18603515625, 2103.25048828125, -4100.10498046875, -627.277587890625, 6538.5107421875, 136.059326171875, 5140.2509765625, 42.458744049072266, 8086.09375, -39.343727111816406, -201.35488891601562, -2117.109619140625, 318.43572998046875, -564.173095703125, 46.628387451171875, -548.5010986328125, -121.02281188964844, -331.28369140625, -13372.76171875, -9661.8662109375, 43.29362869262695, 16162.5703125, 3.7590479850769043, 61061.4921875, 751.005615234375, 10.926538467407227, 588.9217529296875, 34350.0390625, 4276.314453125, 2449.96337890625, -58.886714935302734, -569.134033203125, 23.244876861572266, 2608.771728515625, -64987.92578125, 877.758056640625, 4131.708984375, 31799.47265625, 45.29948425292969, 1587.6573486328125, -35.215885162353516, -23465.21875, 1400.4024658203125, 895.8818359375, -500.2471923828125, 69260.140625, 248.71139526367188, -5400.9072265625, -2707.31005859375, -454.7515869140625, -140.74859619140625, -18.167936325073242, -33971.83984375, 162.6026611328125, -887.94482421875, 35222.85546875, 220.65289306640625, 49195.9140625, -4949.67724609375, -1206.85205078125, 387.265380859375, 12829.41015625, 273.1699523925781, -94.5322265625, 118.86631774902344, -309.049072265625, -137.44894409179688, 8701.3359375, 24.150236129760742, -5402.23876953125, -1532.177001953125, -57.162513732910156, 1188.0633544921875, 486.6505126953125, -134.25799560546875, -82835.265625, 31.232513427734375, 9949.2607421875, -72.31291198730469, -4043.734619140625, -925.3170166015625, -2349.485107421875, 264.04229736328125, 31560.173828125, 547.6892700195312, 5546.0859375, -2066.5615234375, 1761.255615234375, 0.9440059661865234, -757.9627685546875, -13180.1181640625, -7525.94140625, 161.88082885742188, -51368.1640625, -3860.98779296875, -249.2801513671875, 615.097412109375, 9216.958984375, 277.3706359863281, -261.1833801269531, -435.62579345703125, 4711.45654296875, -64.93730163574219, 490.0848083496094, -89.75141906738281, 490.84527587890625, 1398.880615234375, 48061.3671875, 369.78173828125, -5948.998046875, 256.6888427734375, 390.5286560058594, 159.71493530273438, 8266.2236328125, 13.205955505371094, 35838.0390625, 1.7417583465576172, 75.44005584716797, 6.772186756134033, -643.0568237304688, -1130.5263671875, 1650.4114990234375, 236.80792236328125, -5088.603515625, -85227.796875, -646.0761108398438, -1599.989501953125, -2687.6904296875, 44.74175262451172, 9547.458984375, 8450.4765625, -4179.853515625, 524.1173095703125, -111.1846694946289, -1647.746826171875, 648.9751586914062, 160.03994750976562, 16828.58203125, -88.93832397460938, -2167.736572265625, -116.34053802490234, -248.33245849609375, 222.04513549804688, 1.1435003280639648, -5552.130859375, -2366.4365234375, 4076.524658203125, 13089.3857421875, 356.2355041503906, 98.32345581054688, 427.30523681640625, 256.1123962402344, 431.0410461425781, -33.25978088378906, 999.912353515625, 7596.673828125, -370.106689453125, -77336.078125, 125.26077270507812, -16003.7099609375, -436.6349792480469, 15551.3671875, -3027.64013671875, 93.2596206665039, 283.64813232421875, -11573.4091796875, -52.7513313293457, 39.21747970581055, 2911.921875, 4383.9609375, -71.64173126220703, -1921.2811279296875, -119.90988159179688, 1695.4974365234375, -7256.9638671875, 129.45278930664062, 844.2068481445312, 1079.163818359375, 24.39361572265625, 596.7037353515625, 608.6573486328125, 761.7460327148438, 21551.33984375, -270.6062927246094, 793.11279296875, -14.520803451538086, -113891.578125, 332.025146484375, 389.8015441894531, -12075.2109375, 698.6102294921875]
1: [-7.314846992492676, 1.5238265991210938, -1.0925395488739014, -0.9562232494354248, 10.914090156555176, 1.6503124237060547, -0.1552087366580963, -0.6043671369552612, -0.6540489792823792, 0.0990014299750328, -0.018162913620471954, -6.823564529418945, -0.004315982572734356, -2.1556925773620605, -0.3619973063468933, -0.16740846633911133, -5.0686750411987305, -0.9920128583908081, 0.1861410140991211, 11.231660842895508, -0.18090468645095825, 7.708715438842773, 20.927459716796875, -0.6765686273574829, -59.57383728027344, -8.525310516357422, -11.941400527954102, -0.004364030435681343, 175.818359375, 46.51177978515625, -0.41238218545913696, -0.9651625156402588, -1.4814605712890625, -5.913751602172852, 37.111541748046875, 2.426975727081299, 0.07583307474851608, 0.4795900881290436, -0.4300549030303955, -4.523571968078613, -0.11222364008426666, -0.18031567335128784, 5.852374076843262, 1.7283223867416382, -2.5919530391693115, 0.8976411819458008, -13.70500373840332, -3.655458927154541, -119.19491577148438, -0.927058219909668, 2.5364975929260254, 6.797904968261719, -0.14575684070587158, -29.334157943725586, 8.543931007385254, -18.2686824798584, 0.6942957639694214, 3.4930624961853027, -0.1064835637807846, -1.8391274213790894, -6.0606842041015625, -1.454921841621399, 0.7842174172401428, 27.604408264160156, -7.197365760803223, -1.1103976964950562, -0.8640265464782715, -0.12267099320888519, 307.5523376464844, 10.291767120361328, -101.69384765625, 0.4410332441329956, -0.3330610394477844, -0.2855830192565918, -2.062741279602051, 63.21263885498047, 3.788485527038574, -0.9123489856719971, -8.046998977661133, 0.8164016008377075, -1039.2835693359375, 18.75434684753418, -0.2830687165260315, -1.7948439121246338, 2.3613386154174805, -2.387317419052124, -47.446922302246094, 1.472385287284851, 4.483429908752441, -0.024491067975759506, -0.04690491780638695, -0.21191251277923584, -2.016758680343628, -1.3397245407104492, -0.5272579193115234, 0.559714674949646, 1.0897334814071655, -0.3935202956199646, -1.3499501943588257, -15.87686824798584, -1.970839500427246, -0.48247602581977844, -0.42364072799682617, 0.14705181121826172, -2.523495674133301, -2.7227675914764404, 8.038089752197266, -0.3101414442062378, 61.38968276977539, 42.66181182861328, 0.7212703227996826, -0.4229181408882141, -0.20911003649234772, -0.9917698502540588, 0.699926495552063, -0.17043554782867432, 5.0190277099609375, 2.722893476486206, 95.52835083007812, 0.1649785190820694, 142.71505737304688, 31.88119125366211, 1.6721965074539185, 0.15866157412528992, -1.4239567518234253, 19.82550811767578, 1.3275113105773926, 4.173637390136719, -0.37312963604927063, -1.0431139469146729, -0.2766517996788025, -0.5118389129638672, 314.19451904296875, 4.208660125732422, -179.0567626953125, -0.13653384149074554, 0.9025108218193054, -16.767118453979492, -289.902587890625, 0.09201812744140625, 21.19377899169922, 5.9668498039245605, -0.6155661344528198, 42.576881408691406, -3.930577039718628, -0.754246711730957, 3.0253820419311523, -1.9083302021026611, 50.4039306640625, -0.04641014337539673, -0.28742408752441406, -0.7953698635101318, -1.6361699104309082, 6.691959381103516, 3.569380283355713, -0.09566064924001694, 65.75997924804688, -0.32628124952316284, -9.429105758666992, 9.790002822875977, -106.83854675292969, -10.594450950622559, 4.371714115142822, -0.4739285707473755, -0.2167588323354721, -0.027136482298374176, 0.33898648619651794, 0.7407559156417847, 26.397079467773438, 7.714378356933594, 1.2868998050689697, 1.2847037315368652, 21.172182083129883, 1.4398431777954102, -0.5013468861579895, -3.9371790885925293, 3.0362939834594727, -2.1854147911071777, -724.57275390625, -5.407112121582031, 115.24118041992188, -34.75349807739258, -65.85452270507812, 1.485358476638794, -0.1837204098701477, -0.004476189613342285, -6.874817848205566, -35.18431854248047, -10.665353775024414, 25.37737274169922, 0.32864218950271606, -2.205756902694702, 6.3411970138549805, -0.1034817099571228, -0.8518091440200806, 0.0778924822807312, -0.14762607216835022, 1.0248581171035767, -8.072572708129883, 2.2649383544921875, -0.6707619428634644, -0.6077223420143127, 30.501300811767578, -1.853510856628418, -8.569747924804688, -0.8770610094070435, 19.361257553100586, -191.47525024414062, -0.481884241104126, 5.328741550445557, 206.80458068847656, -0.001553267240524292, 51.99306869506836, -0.007664453238248825, 0.28471505641937256, -0.08185918629169464, 235.26272583007812, -0.042088910937309265, -1.2702215909957886, -1.2484594583511353, -0.1581452637910843, -0.23880797624588013, -1.044634461402893, 0.010581731796264648, -87.42356872558594, 3.29388165473938, 4.719024658203125, 19.79460906982422, -39.37600326538086, 5.084193706512451, 0.9774910807609558, -0.6321824789047241, 823.1532592773438, -0.05413668230175972, 303.8111572265625, -0.125529944896698, -1.1822375059127808, -0.05787854641675949, -7.7842559814453125, -13.306917190551758, -51.87562561035156, -2.698686361312866, -0.5134165287017822, 0.12430913746356964, -123.32453155517578, -0.01602691411972046, 2175.312744140625, 4.735868453979492, -0.9017212390899658, 14.791407585144043, -55.023189544677734, 0.4476298391819, 1.316535472869873, -0.1222844123840332, -10.237421035766602, 0.14097914099693298, 2.829498529434204, 0.09252060949802399, 4.134804725646973, -3.149392604827881, 294.46954345703125, -3.4443202018737793, 136.63914489746094, 0.02602195553481579, 56.96012878417969, -0.11348269879817963, -152.32688903808594, 4.627353668212891, -13.61982250213623, -0.7222230434417725, -3.1430835723876953, 0.09648124873638153, -0.8678826093673706, -31.54891586303711, -29.265283584594727, 0.13563188910484314, -0.8248810768127441, -0.08104217052459717, -552.0679321289062, -1.8254934549331665, 7.951052665710449, -0.02541796676814556, -104.38829040527344, 0.23921668529510498, -14.467742919921875, 6.248626708984375, -0.28153514862060547, 9.5855131149292, 0.1065349206328392, 0.010348170064389706, -0.4770948588848114, -1.4408422708511353, -1.4448962211608887, 0.35636815428733826, -2.3033008575439453, 2.407731056213379, 1.43431556224823, 0.05690192058682442, -0.19462543725967407, -0.8622622489929199, -6.718332767486572, 0.3367784023284912, -0.07640796154737473, 0.06754141300916672, 5.308835029602051, 0.7199632525444031, -58.755733489990234, 0.6969547867774963, -0.0597672164440155, -2.1580207347869873, -0.23991915583610535, -2.338507890701294, 0.5445888042449951, 16.374332427978516, 0.6539222002029419, -0.48885324597358704, 71.18585205078125, -0.03315660357475281, 6.995705604553223, 3.937671184539795, 5.033238410949707, -0.8523173928260803, 1.685253381729126, -6.794005393981934, 2.7399215698242188, -0.25610750913619995, 2.967061996459961, 0.25585854053497314, -42.088111877441406, 0.05372348427772522, -4.313154697418213, -20.232147216796875, -2.3654890060424805, 2.3355140686035156, 10.969806671142578, -1.2758640050888062, -0.24437439441680908, 0.07369821518659592, -4.496340751647949, -0.06608083844184875, -46.05447769165039, -0.05884430184960365, -0.772670567035675, 5.209354400634766, 14.74857234954834, -1.3506938219070435, 18.362966537475586, -0.0366145595908165, 1.8576070070266724, -0.01661115139722824, 3.765894889831543, -2.005702018737793, 38.887447357177734, 1.620498776435852, -2.9883015155792236, -1.264740228652954, -2.588562488555908, -1.204911231994629, -1.5545830726623535, 0.22373269498348236, 1.254671573638916, -0.07792041450738907, 7.607968330383301, 0.1584542989730835, 14.676329612731934, -0.017804667353630066, -0.352209210395813, -2.0658814907073975, -2.153318405151367, -0.04733729362487793, 111.43463134765625, -0.9875394105911255, -1.6887812614440918, 0.007533791474997997, 69.53319549560547, -0.07633700221776962, -119.56207275390625, 0.01427575945854187, -0.00218840129673481, 0.0969773456454277, 1.272582769393921, 0.001960598398000002, -1.890432357788086, 0.9105684757232666, 27.302818298339844, -0.0742301195859909, -0.7774115800857544, 0.2757428288459778, -38.04694366455078, 4.914070129394531, 13.004236221313477, 94.23147583007812, -0.8009763956069946, 0.44435441493988037, -13.574249267578125, -1.1890137195587158, -93.94091796875, -0.5913988351821899, -0.3964831531047821, 0.27915775775909424, 0.16292771697044373, -8.702360153198242, -0.03490334004163742, -4.297884464263916, 8.217988967895508, -0.07312460243701935, -1.0752111673355103, -7.667210102081299, -0.19858108460903168, 5.749246597290039, -1.1032726764678955, 0.3454221785068512, -17.28441619873047, -0.10006632655858994, 15.589006423950195, -0.370965838432312, -0.8829308152198792, -4.116183757781982, -192.33096313476562, 2.3553285598754883, 288.97601318359375, -1.5098598003387451, 0.40492022037506104, 3.8818910121917725, 0.2825756371021271, -20.51227569580078, -0.759345531463623, 0.03780173882842064, 3.147429943084717, 0.15366411209106445, 11.487104415893555, -3.87355899810791, -0.19373494386672974, 0.29666566848754883, 23.684343338012695, 0.41291171312332153, -2.1624534130096436, -10.205378532409668, -0.3914716839790344, -0.28852951526641846, 49.068519592285156, 1.044708013534546, -1.9331649541854858, -2.888561248779297, 174.97779846191406, -0.037973202764987946, -132.55621337890625, -1.9231575727462769, 4.351378440856934, -8.343725204467773, -1.9233344793319702, 5.642139911651611, -0.15868929028511047, 20.05874252319336, -0.546004056930542, -1.2825959920883179, 1.2772225141525269, 0.010729819536209106, 1.1117348670959473, -30.610963821411133, 2.056640148162842, 0.17221757769584656, 0.12288052588701248, -4.418510913848877, 24.16979217529297, -0.14039061963558197, -3.772702693939209, -0.0417046993970871, -18.66147804260254, -7.840401649475098, -97.24658966064453, 1.2588517665863037, 81.32377624511719, 4.721876621246338, -0.9496526122093201, -0.7772160768508911, 0.9791967868804932, -0.27769041061401367, 0.18085816502571106, -1.1338284015655518, -149.44102478027344, 0.4600229859352112, 39.947669982910156, -0.5918619632720947, -0.5110835433006287, 1.1818314790725708, 0.08634090423583984, 2.907640218734741, -24.72426986694336, 217.54306030273438, 0.16639529168605804, -0.7121785879135132, -4.51894474029541, 14.294946670532227, -2657.630859375, -0.5998860597610474, -14.838634490966797, 5.2301025390625, -1.0316162109375, 0.5205460786819458, -443.40582275390625, 18.893512725830078, -12.780780792236328, 95.22615814208984, -146.15621948242188, 0.09594672918319702, -8.36410903930664, -1.483797311782837, -0.19640809297561646, -94.52725982666016, -4.5338311195373535, 4.11342716217041, 23.393388748168945, -1.854585886001587, 3.034381866455078, -4.2100677490234375, -6.043012619018555, 40.335716247558594, 4.1280012130737305, 0.15476550161838531, 2.4372236728668213, -1.1436089277267456, 0.0881970077753067, 3.4214699268341064, 13.510194778442383, 3.4441871643066406, 1.6140666007995605, 49.84507751464844, 209.56192016601562, 20.807741165161133, 15.55538272857666, 0.6148232221603394, -9.144760131835938, -1.2143948078155518, -0.44590455293655396, -5.722439765930176, -15.430665016174316, -1.9921711683273315, -1.5069091320037842, 0.05145353078842163, -74.20913696289062, -0.3673091232776642, 41.63688659667969, 0.4684814214706421, -252.75192260742188, 0.08251212537288666, 0.7175619602203369, -176.74017333984375, -3.3813605308532715, -1.9875760078430176, 1.9446338415145874, -10.045494079589844, -1.3560428619384766, -0.8383408784866333, -107.50382995605469, 3.0835795402526855, 0.05301779508590698, -0.5554133653640747, 60.11358642578125, 141.39686584472656, 11.266545295715332, -39.68688201904297, -0.0007312428206205368, -4.320548057556152, -0.8178962469100952, -36.237548828125, 4.5540056228637695, -0.0836600810289383, 0.3518381714820862, 0.2590182423591614, 1.0878738164901733, 0.09049659967422485, -0.1526235193014145, -1.269228458404541, 2.9717257022857666, 1.482306957244873, -23.081056594848633, 1.096269130706787, 39.698699951171875, -10.182880401611328, 2.4756603240966797, -12.458775520324707, 27.31087875366211, 4.693162441253662, 8.752962112426758, -0.3120560050010681, 0.35347938537597656, -0.8403232097625732, 259.5511474609375, 10.164579391479492, -8.386201858520508, -14.223997116088867, -24.235347747802734, -0.1301375925540924, -4.346802711486816, 5.210493087768555, 10.840399742126465, -10.543869018554688, -2.0416908264160156, 1.7458715438842773, 5.758589744567871, 12.71882152557373, 57.23869323730469, 6.701493263244629, -13.284013748168945, 1.7812557220458984, -5.317911148071289, -34.38692092895508, -13.061821937561035, -0.053647905588150024, 30.06772232055664, 55.0379753112793, 1.5148019790649414, -72.96469116210938, -10.99148178100586, -0.09262046217918396, -3.260993242263794, 0.46667975187301636, -1.17153000831604, 1.4341297149658203, -6.588913440704346, 2.5370736122131348, -50.522098541259766, -64.48994445800781, -0.21812158823013306, -13.240720748901367, -67.46065521240234, 40.883209228515625, 2.5928125381469727, -31.123271942138672, -21.759571075439453, 27.856231689453125, -0.09749695658683777, 13.474409103393555, 4.868549823760986, -187.40750122070312, 1.4417142868041992, -3.2800846099853516, -0.18707537651062012, 0.8090701103210449, -0.04259772226214409, 29.385738372802734, 0.45731231570243835, -2.652221202850342, 109.611572265625, -4.0916428565979, 51.996944427490234, -0.09150147438049316, -1.0429550409317017, -0.185541033744812, 20.432029724121094, 0.3084052801132202, -20.220306396484375, 7.51822566986084, 0.28054678440093994, -0.11825479567050934, 4.575866222381592, 6.63615083694458, -3.000915050506592, -124.62716674804688, 0.8285050392150879, 2.261524200439453, 8.925524711608887, 0.8018418550491333, 0.968170166015625, -142.7628173828125, 60.83026885986328, 111.87710571289062, 21.366069793701172, 0.9595996737480164, -123.86561584472656, 0.19685256481170654, 0.16162444651126862, -0.05900716781616211, 61.00050735473633, -0.18638166785240173, -0.935192346572876, 0.17029356956481934, -0.2859336733818054, -16.64495849609375, -13.26606273651123, -1.0500898361206055, -24.263530731201172, 0.09232895076274872, -0.02046889439225197, 2.2641825675964355, 0.3919760584831238, 1.1405599117279053, 85.42098999023438, 5.471046447753906, -41.101905822753906, -0.3102305829524994, -1.7771484851837158, 8.286402702331543, -38.33384323120117, -0.15196911990642548, 12.737857818603516, 6.060507297515869, -2.054755687713623, -17.95789337158203, -1.232570767402649, -1.465378761291504, 2.638388156890869, -0.14422449469566345, 2.130207061767578, 1.0411906242370605, -8.18005084991455, 1.0589936971664429, -6.896015167236328, 8.57718563079834, -0.5919315218925476, -0.18499279022216797, 540.7227172851562, 0.03369365260004997, 2.5104928016662598, 0.0793004184961319, 1.7291312217712402, -0.03545134514570236, -38.61906051635742, -1.214728832244873, -169.94845581054688, -0.8647943735122681, 3.096630334854126, 0.5229389071464539, 0.08644954860210419, 2.550158977508545, -6.466160774230957, 0.6563326120376587, 10.314838409423828, 1.4895317554473877, -0.7014874219894409, 0.6333134174346924, -0.5758211612701416, 6.6809492111206055, -0.37062883377075195, -1.1009128093719482, -23.721454620361328, -0.7124659419059753, -1.736920952796936, -3.0529277324676514, 46.88823699951172, 2.2033567428588867, -14.228578567504883, 1.7391722202301025, 1.5693016052246094, 4.126466751098633, 3.8683390617370605, -0.1700122058391571, -25.183189392089844, 11.812763214111328, -0.13752323389053345, -1.6143033504486084, 0.8460204005241394, 0.43447911739349365, -17.674991607666016, 2.153468370437622, -0.006533095613121986, -4.88890266418457, 0.04792673885822296, -2.8170971870422363, -47.9078254699707, -0.0325508676469326, -11.043635368347168, 0.9898408651351929, 0.23460406064987183, -2.679887294769287, -0.4695715010166168, 3.917771577835083, -17.834012985229492, 8.052497863769531, -319.56634521484375, -2.9423890113830566, 16.65410804748535, 0.09518097341060638, -0.16757552325725555, -6.949638366699219, 13.138898849487305, 0.10393945872783661, 324.4019470214844, -0.8209080696105957, -0.059171438217163086, 0.5444324612617493, -18.94106674194336, -1.7373294830322266, -50.938758850097656, -0.39622926712036133, 2.5197947025299072, 0.9591076374053955, -142.7515411376953, 0.39189398288726807, 200.6428680419922, 0.1624218225479126, 36.474449157714844, 0.0037033557891845703, 0.030512453988194466, 0.3687478303909302, -1.2971031665802002, -0.058688193559646606, 0.2074277549982071, -1.0893657207489014, 10.371115684509277, -19.37747573852539, -4.670476913452148, 0.31443703174591064, -1.2465484142303467, -7.637686252593994, 20.453901290893555, 1.1603326797485352, -57.71733856201172, -4.053709030151367, -5.540415287017822, 5.989895343780518, 2.7086172103881836, 36.02639389038086, -0.09578296542167664, -13.716331481933594, -0.05259750410914421, -1.021951675415039, 35.522064208984375, 0.5181119441986084, -0.3148666024208069, -0.4693283438682556, -3.176109552383423, 0.27521243691444397, 1.1322869062423706, 5.412067413330078, -4.494415283203125, 14.396978378295898, -61.618370056152344, -0.1730588972568512, -3.025783061981201, 0.038799069821834564, -36.909393310546875, -2.3916170597076416, 0.008948473259806633, -1.8239185810089111, -141.1802978515625, -10.538290023803711, -2.2275733947753906, 0.07965821772813797, 0.7851675152778625, -0.03861743584275246, -4.143983840942383, 62.70956039428711, -88.76618957519531, -13.273128509521484, 26.456554412841797, 0.10539630800485611, -6.070660591125488, 3.3518729209899902, 108.01898956298828, 0.7895952463150024, -1.9141216278076172, 0.4772382378578186, 264.54534912109375, 0.33733949065208435, -10.449348449707031, 0.026749491691589355, -4.761666297912598, 10.15754508972168, 0.8774192333221436, 43.074951171875, 0.3225400447845459, 13.379767417907715, -26.693418502807617, -0.01496538519859314, 149.4574737548828, 7.049892425537109, 3.453425884246826, 30.392114639282227, -12.57297134399414, -0.5394061207771301, 21.472293853759766, -0.08272408694028854, -0.061939407140016556, -0.15628433227539062, -23.529224395751953, 0.02010376937687397, -22.689414978027344, 1.3512606620788574, 0.13186371326446533, -4.6837334632873535, 0.20234131813049316, -0.1601223200559616, 66.6180191040039, -0.3181875944137573, -62.776641845703125, 0.7567023038864136, 2.254016399383545, 232.45333862304688, 0.6827152967453003, -0.4114203453063965, -36.58384704589844, -18.58504867553711, -5.746507167816162, -0.9075560569763184, 55.029869079589844, 0.1085653007030487, 0.8178010582923889, 22.11570930480957, 16.55938720703125, -0.6370053291320801, -2506.324462890625, 386.4473876953125, 0.127225860953331, -0.7713323831558228, -13.140958786010742, -0.6731030344963074, 0.0026514679193496704, 0.36435332894325256, -295.4654541015625, 0.078314408659935, -3.227677345275879, -3.1438658237457275, -0.4889003038406372, -4.057753086090088, -347.88946533203125, -0.5095248818397522, 10.980274200439453, -0.5735286474227905, -1.0986939668655396, -5.923329830169678, -12.150053024291992, -0.00023052282631397247, -19.962635040283203, 0.0343027338385582, -0.19178691506385803, 4.8700103759765625, 0.5407960414886475, 2.9173314571380615, 0.08837175369262695, -1.7835938930511475, 17.859130859375, 58.42179870605469, 3.769011974334717, 3.170337438583374, 7.021208763122559, -0.03534252196550369, 4.273792266845703, -20.64017105102539, 10.130731582641602, -0.793926477432251, -0.13587865233421326, 457.525634765625, -3.4721226692199707, -0.058765821158885956, 107.47539520263672, -0.7148216962814331, 3.2803008556365967, 13.883626937866211, 0.31178519129753113, -0.291652649641037, 21.56978988647461, -5.654824733734131, 1.2800673246383667, -9.819931030273438, -42.78736877441406, 64.5697250366211, 26.025745391845703, -0.9114460945129395, -1.135770320892334, -0.8526798486709595, 0.04625720530748367, 0.4481149911880493, -5.951163291931152, 24.539562225341797, -2.472139835357666, -0.06510626524686813, 15.482349395751953, -2.4556446075439453, -49.94916534423828, 3.7357568740844727, -0.0987197756767273, -0.5933016538619995, 26.59588623046875, 0.021173689514398575, 0.061440359801054, -8.829663276672363, -11.701667785644531, 23.2318115234375, 7.385278701782227, 0.01764024794101715, -4.838685989379883, -4.419966697692871, 37.275352478027344, -6.018442630767822, -5.614693641662598, -0.019075404852628708, 1.8256115913391113, -0.14389997720718384, -1.1138309240341187, -14.716569900512695, 0.41993144154548645, -1.3970296382904053, 0.009529270231723785, -20.878551483154297, 4.3164825439453125, 31.69168472290039, -99.8792724609375, -1.4691708087921143]
2: [5110.06689453125, -1.0925400257110596, 25811.70703125, -253.31024169921875, -8493.30078125, -265.4512939453125, -34.42179489135742, -160.31105041503906, -172.1488037109375, 163.01992797851562, -117.22390747070312, 187.5346221923828, -3.053088903427124, -1410.07470703125, -80.08949279785156, -4963.58447265625, -102.74908447265625, -57.683265686035156, -16156.072265625, 4983.3974609375, 1247.990966796875, 0.4954853057861328, -14779.041015625, -329.00439453125, -2224.828857421875, 3949.343505859375, 16901.78515625, -1.0088609457015991, 13109.1259765625, -603.1497802734375, -383.06072998046875, 781.3133544921875, -1039.973388671875, 25029.88671875, -168.4247283935547, 718.6942749023438, -482.5269775390625, 3.3340611457824707, -373.46563720703125, -2407.626953125, -122.45510864257812, 21.777729034423828, -4719.4921875, 1133.105712890625, -622.785400390625, -472.54046630859375, 2369.880859375, -212.6507568359375, 78063.0078125, -820.11083984375, -1104.455810546875, 5.4700822830200195, -247.6567840576172, 32485.251953125, 11739.8994140625, -1111.146484375, -3.2645468711853027, 1373.2071533203125, 721.075439453125, -204.35638427734375, 22345.765625, 2896.7861328125, -1615.03173828125, 280.8001708984375, 17022.27734375, 62.79440689086914, -221.16885375976562, -59.24331283569336, 1597.8287353515625, 2.491530179977417, 409.3404541015625, -1769.5548095703125, -82.59335327148438, -105.91477966308594, -1272.1724853515625, 1235.202392578125, -30.506759643554688, -150.28054809570312, -2483.54638671875, -1248.9752197265625, 40139.6953125, -38.921058654785156, 16.08854866027832, -690.222412109375, 30.91396713256836, 3476.7451171875, -14791.47265625, 984.7145385742188, 14.113136291503906, 307.7408752441406, -25.648706436157227, -1167.385986328125, 6589.52685546875, -850.4410400390625, -12.708780288696289, -1.101697564125061, -1406.0328369140625, 108.7513198852539, -1023.7049560546875, -5925.8603515625, -1662.1458740234375, -670.8624267578125, -60.27936935424805, -929.087158203125, -176.11944580078125, -81.88961029052734, -1470.119384765625, -45.676475524902344, 418.8407897949219, -14632.5634765625, -858.958984375, -472.9749755859375, -106.49623107910156, -83.44248962402344, -3.134428024291992, 331.822998046875, -5571.1259765625, 8897.2666015625, -485.8334045410156, 0.020302996039390564, 14725.9423828125, -99.66221618652344, 249.24325561523438, -368.532958984375, -346.7296142578125, -123.13322448730469, -448.77520751953125, 3147.262451171875, -74.24596405029297, -414.58258056640625, -142.74398803710938, 1027.8310546875, 22881.92578125, 1843.422119140625, -5714.30322265625, -44.487525939941406, -971.2636108398438, 1140.0159912109375, 13287.615234375, 191.68211364746094, 274.1826171875, -2007.1407470703125, 2106.3955078125, -3670.44482421875, 420.9013671875, -35.29657745361328, 711.2872314453125, -1190.203369140625, -74990.90625, -55.798458099365234, 21467.328125, -502.4052429199219, -88.60540008544922, -3973.0, 49098.1484375, -64.9705810546875, -239.14036560058594, -122.81216430664062, -28023.60546875, -85.42279815673828, -31191.458984375, 110.33584594726562, -1549.4827880859375, 504.1505126953125, 981.9515380859375, -24.11270523071289, 611.966552734375, 92.80811309814453, 3511.769775390625, -16.7756404876709, -302.7272033691406, 398.3974609375, 110149.90625, 2460.3505859375, -255.0978240966797, 298.6688232421875, 266.54296875, -1057.8826904296875, -8974.9033203125, -3331.16845703125, -1871.382568359375, -15471.513671875, 12466.9130859375, 1218.7442626953125, -50.803466796875, -408.23272705078125, -2036.5654296875, 93.90621948242188, -252.2825927734375, -1534.059326171875, 126.93807983398438, -49.3193244934082, 121.05327606201172, -813.4353637695312, 4773.10400390625, 1537.3221435546875, -405.1623229980469, 337.43408203125, -534.9071655273438, -74.81795501708984, -50.40540313720703, -627.898681640625, -517.4409790039062, -1426.1649169921875, -5787.9736328125, -89.1249008178711, 22.77668571472168, -27147.7421875, -215.42181396484375, 30.105430603027344, -138.9007568359375, -58.022518157958984, -2640.31689453125, 1.6454899311065674, -36.562076568603516, -10.74629020690918, -1160.7435302734375, 249.48251342773438, -592.6876220703125, 30.86834716796875, 4.21705436706543, -172.41134643554688, 8608.361328125, -348.48114013671875, -22430.546875, 1558.970458984375, 668.1876220703125, 5791.453125, -67232.8515625, 44.962013244628906, -1419.187744140625, -56.86945724487305, 13442.5263671875, -2.5576114654541016, -1431.76953125, -21.375896453857422, -30.169153213500977, 434.0143127441406, -5637.8740234375, 4948.9033203125, 4795.212890625, -621.903076171875, -66.90279388427734, -773.6856689453125, 1323.2529296875, 97.46604919433594, 5170.26171875, 1567.717529296875, -56.75776672363281, 75.00739288330078, -18081.48046875, -266.2683410644531, 7.383796691894531, 35.97001647949219, -25392.650390625, -81.87391662597656, -5648.8076171875, 100.04108428955078, -2362.32763671875, 61.345924377441406, -728.131103515625, -2273.621337890625, -18833.462890625, -90.09529113769531, -73864.40625, 120.96344757080078, 1543.875, 3462.05419921875, -8535.4296875, -52.36766815185547, -308.08197021484375, 124.92633056640625, 12095.62890625, 15052.4970703125, -6285.46240234375, 342.48016357421875, -272.1973876953125, 105.0224838256836, 53998.171875, -227.85504150390625, -4893.052734375, -5.866580009460449, 51645.60546875, 2.549844264984131, 21902.54296875, 6110.048828125, -344.27294921875, 2637.18115234375, -56.677635192871094, 67.64232635498047, -86.5512924194336, -336.50799560546875, 6836.0146484375, 0.7348597645759583, 5802.548828125, 210.1493377685547, 20.05196762084961, 97.96737670898438, -273.3237609863281, -529.2503662109375, 3185.49169921875, -1708.224365234375, -103.23748016357422, 0.20044054090976715, 35580.1796875, -1393.1988525390625, 496.3015441894531, -1310.7906494140625, -6.041147232055664, -135.308349609375, -124.27700805664062, -1520.7470703125, 731.6142578125, 4181.32421875, 5201.0361328125, -116.30485534667969, 4316.73876953125, -35.15896987915039, -130.83221435546875, -2455.19384765625, 1.8728084564208984, -154.34246826171875, -855.7669677734375, -4164.7275390625, -6177.0029296875, -14.073161125183105, -17.253450393676758, -56.43901062011719, -4526.9873046875, 85.77574157714844, -352.837890625, -15778.193359375, 18.548377990722656, 62.75367736816406, -12908.5966796875, -314.5622863769531, 1080.4134521484375, -285.9355163574219, 16279.095703125, 14.864753723144531, -27135.71875, -23.916748046875, 1061.049560546875, 218.39657592773438, -22459.630859375, -283.44012451171875, 54268.5703125, 2.530815601348877, 542.7575073242188, -155.9174041748047, -1144.98193359375, -554.5133056640625, 123.95614624023438, -2405.69189453125, 2858.868408203125, -130.19912719726562, -1077.6600341796875, -376.3157653808594, -133.70179748535156, -0.1607135832309723, -10.405067443847656, -102.65376281738281, -3773.620849609375, 354.0123291015625, -6090.37109375, 2.2794761657714844, -76.40802764892578, -429.4567565917969, 3829.35498046875, 65.54191589355469, 22965.15625, -451.5040283203125, 2159.5859375, 86.76571655273438, -53151.53125, 12.659661293029785, 3331.0927734375, -293.45123291015625, 0.4725360870361328, 123.25819396972656, 4687.78515625, 16.001941680908203, -42.35129165649414, -1383.396484375, -19963.83203125, 3.579810619354248, 48.70956039428711, -725.289306640625, -10124.494140625, -1420.3487548828125, 1000.7833251953125, 22282.08203125, -95.5573959350586, 23.48841094970703, -116.64935302734375, -358.26824951171875, 8104.71826171875, -105.88521575927734, -69.18084716796875, 1.7636363506317139, 5.390567779541016, -6404.81787109375, 289.4664306640625, 193.12481689453125, 11092.521484375, -42.500919342041016, -51.90776062011719, 481.69415283203125, -114.26148986816406, -5727.44921875, 103.24580383300781, -375.27838134765625, 11807.80078125, 171.68972778320312, 77928.234375, 30.970104217529297, -583.115234375, 1214.9683837890625, -23420.1640625, -3419.45263671875, -45278.9921875, -1052.0968017578125, -23.802610397338867, -1872.8294677734375, 354.86737060546875, -6306.63134765625, -3389.5673828125, 0.3137415051460266, -670.7009887695312, -0.036205947399139404, -4069.42529296875, -3086.4609375, 159.6273651123047, -189.1839141845703, -21170.859375, -1.7791787385940552, -2887.09912109375, 664.2208862304688, 834.9996337890625, 23.367868423461914, 74.5732192993164, 1092.38916015625, 2974.059814453125, -322.32720947265625, 7242.986328125, 37.946529388427734, -15952.8828125, -173.3499755859375, -1900.6307373046875, -6915.017578125, -46.45575714111328, 9.844959259033203, -318.664306640625, -76.94701385498047, -202.35565185546875, -442.339599609375, 21.180156707763672, -218.49765014648438, -4.36760950088501, -18539.64453125, -853.5773315429688, 399.9612121582031, -0.26824572682380676, 342.60498046875, 223.8209686279297, -69.18544006347656, -842.8074951171875, -5.6061577796936035, -627.7960205078125, 242.31561279296875, -2218.026611328125, 416.12896728515625, 4092.862548828125, -13.117490768432617, -35.69978713989258, -312.89404296875, -1711.631591796875, 134.91278076171875, -39.963714599609375, -1291.243408203125, -2863.91748046875, 598.2933349609375, -48034.2421875, -14.054121017456055, -146.76849365234375, 1689.4967041015625, -722.1798095703125, -520.87890625, -12715.61328125, -713.0130615234375, -52.71062088012695, -1114.060302734375, -1470.13134765625, -1886.7376708984375, -72537.53125, -63.37800216674805, 650.1290283203125, -902.423828125, -448.68975830078125, 27.44305419921875, -45375.33203125, 976.3163452148438, 5887.7265625, 2288.9228515625, 13944.62109375, -593.3424072265625, -6272.38330078125, -503.40740966796875, -275.933349609375, -69879.625, -330.06146240234375, 855.3994140625, 2301.113525390625, 5.867025375366211, 16296.48828125, -137.21205139160156, -94.04387664794922, 5811.4814453125, -389.9367980957031, 0.665465235710144, -1099.43359375, -1258.492919921875, -16.445938110351562, 113.47115325927734, -4.20591926574707, -1490.208740234375, 9.492569923400879, -389.5904235839844, 6619.056640625, -6041.3984375, 1700.9786376953125, 1026.65087890625, -840.46337890625, -2300.310791015625, -542.3361206054688, -989.880859375, -10614.654296875, 87.87370300292969, -165.04058837890625, 119.49665069580078, -15639.3271484375, 684.4755859375, 105.64861297607422, -113.1158447265625, 51904.58203125, 78.70872497558594, -141.778564453125, -176292.125, 1274.23388671875, -488.3828430175781, -1959.6358642578125, 735.1002807617188, -128.27415466308594, -227.89761352539062, 908.205810546875, -1448.04345703125, -101.13118743896484, -166.93267822265625, -834.241455078125, -343.8453369140625, 984.160888671875, -15583.9951171875, -5.80577278137207, -1416.0703125, 8864.966796875, -19538.69140625, -2316.57958984375, -169.2552947998047, -3.921412467956543, 244.77236938476562, 173.59071350097656, 18.322864532470703, -55.33601760864258, -510.36749267578125, -3820.53564453125, 119.33610534667969, 27071.037109375, 0.38342809677124023, -17986.1953125, -39.003719329833984, -3255.5185546875, -29847.72265625, -223.00289916992188, 445.0733642578125, -406.02215576171875, 681.24755859375, -2715.7236328125, -283.2160949707031, -8458.4091796875, -7378.7314453125, 9351.69921875, -232.51654052734375, -16778.7109375, -69.94056701660156, 4858.59619140625, 3396.42626953125, 9.493358612060547, -1979.9522705078125, -348.30767822265625, -1767.29296875, -2275.38525390625, 398.3765869140625, 16797.970703125, 87.99913024902344, -3871.24365234375, 4013.109375, 8906.330078125, -24840.72265625, -15611.6142578125, -173.48538208007812, -8213.24609375, 22191.30078125, 0.22887396812438965, -46725.76171875, -45874.0234375, -180.6214599609375, 11120.0, -553.8031005859375, -172.11595153808594, -522.3460083007812, 751.6795654296875, -2874.1201171875, 784.29638671875, -42932.2578125, -30.335702896118164, 1132.458740234375, -44463.234375, 19527.537109375, 142.5247802734375, -26497.291015625, -19944.80859375, 5313.35205078125, -330.684326171875, 284.5115966796875, -1265.8035888671875, 24114.794921875, -2432.97314453125, -549.1787109375, -39.05356979370117, 1.681483268737793, -124.65653991699219, -286.6624755859375, 199.7069091796875, -2476.56103515625, 32952.76171875, -3500.01220703125, -608.6021118164062, 7184.01708984375, -273.3978576660156, -86.2608642578125, -0.9820404052734375, -478.5995788574219, 2474.3720703125, -850.1156005859375, -45.82856369018555, 585.0550537109375, 104.04718780517578, -437.5794982910156, -1372.505126953125, -41964.3984375, -11191.0673828125, 34771.734375, -12.482172966003418, 905.7005004882812, 2406.83203125, -115376.296875, 537.3897705078125, -142.42095947265625, -60.66687774658203, -0.10514748096466064, -24405.4296875, -141.2862091064453, -79.95408630371094, -42.97718048095703, 2900.295166015625, -89.51544189453125, -97.18914794921875, 4946.84423828125, -153.67123413085938, 2062.82080078125, 9949.73828125, -540.8782348632812, 71164.1875, -169.62460327148438, 0.9034616351127625, 86.35749053955078, 8.612165451049805, -1414.7847900390625, 3182.817626953125, 3.641727924346924, -7358.30322265625, -492.56549072265625, 5604.09228515625, -3912.9013671875, 5516.7783203125, -230.80108642578125, -221.40875244140625, 8777.369140625, -96.02066040039062, 1022.2098388671875, 24093.09375, -1085.908935546875, 34.26142883300781, -1022.125, -3172.4951171875, 103.04057312011719, 12641.044921875, -1070.769287109375, 535.1221313476562, 15.246732711791992, -52.493446350097656, -78.61430358886719, -2199.488037109375, 87.96368408203125, -175.4282684326172, -225.10903930664062, -118.13058471679688, 757.6200561523438, 36324.7734375, -6.968120098114014, 3394.9375, -294.26177978515625, -11.921142578125, -1322.539794921875, 0.8840538263320923, -1.6164932250976562, 1583.563720703125, -771.8786010742188, -3367.928955078125, 16355.0771484375, 26.188255310058594, -548.6070556640625, 28.702905654907227, -26.76215362548828, 78.09635162353516, -695.5643920898438, 5231.60888671875, -133.8282470703125, -318.65496826171875, -1949.53173828125, 2155.88330078125, -6546.5556640625, 25793.9375, -7.036660671234131, -3191.32861328125, -9.408437728881836, 5632.9716796875, -75.78422546386719, 32845.7890625, 42470.1953125, -2877.60595703125, 217.48208618164062, -490.34906005859375, -585.7710571289062, 20719.80859375, -3216.90625, 4.300550937652588, 177.62228393554688, 1.2079005241394043, -1326.0943603515625, -15754.23046875, -0.8548877239227295, -6582.95703125, -697.4158935546875, -139.6254425048828, -97.38467407226562, 268.144775390625, -998.8504028320312, 536.1312255859375, 990.3916015625, -26401.87109375, 67.93856048583984, -3962.067626953125, -68.92916870117188, -3.038531541824341, 2190.18408203125, -28.54802703857422, -2.8603439331054688, -92213.515625, -82.4234848022461, -31.94338607788086, -2.0604286193847656, 3801.0478515625, -138.72744750976562, 26198.251953125, -260.4989929199219, -10995.572265625, -2.345313549041748, 25574.205078125, -1325.533935546875, -325.790283203125, 9.460824966430664, 794.7489013671875, 2239.31396484375, -16.59109115600586, -278.96246337890625, 234.96046447753906, 248.9761962890625, -65.81221008300781, -4.251802444458008, -7412.54443359375, -160089.8125, -3614.11474609375, -340.559326171875, 2542.91796875, 2271.615478515625, -16858.73046875, -1228.247314453125, -26191.61328125, -168.85145568847656, -1962.7913818359375, -2071.086669921875, -2769.96826171875, -3054.333984375, 11.920534133911133, 1598.5609130859375, -140.4952392578125, 2541.0556640625, -122.2652816772461, -360.28857421875, -2485.31689453125, -111.51280212402344, 3854.35107421875, -11.898504257202148, -265.642333984375, 17.31856346130371, 491.7138977050781, -17678.57421875, 126883.640625, -66.15530395507812, 1490.329833984375, 6.560272216796875, 19758.96484375, -102.29472351074219, 60.162628173828125, -87.35799407958984, 13910.6875, 1488.906494140625, -931.0101318359375, -63.056549072265625, -167.508056640625, -42.65949249267578, 11413.947265625, -43823.40234375, -860.8694458007812, 1685.51025390625, -70139.5234375, 199.68614196777344, 18205.1015625, 8.541762351989746, 124573.453125, 2144.349365234375, -685.151123046875, -1065.74560546875, -41949.1875, 541.85205078125, -6613.044921875, -1503.6116943359375, -1020.0286865234375, -18.70035743713379, 0.8241848349571228, -16450.6015625, 44.060585021972656, -64008.203125, 24514.654296875, 37.73725509643555, 21966.134765625, -2545.849609375, 606.1441040039062, 347.23822021484375, -133.26882934570312, -69.13932800292969, 183.80276489257812, 42.68617630004883, -54.79124450683594, -192.64401245117188, 199.37704467773438, 157.19773864746094, -8903.173828125, -1760.31884765625, -111.4347152709961, -3141.754638671875, 4096.93505859375, -409.7511291503906, 21497.53125, 22.831043243408203, 885.7813720703125, -47.355621337890625, -7228.181640625, -756.2091064453125, -1055.9840087890625, -79.4756851196289, -9764.111328125, -569.0540161132812, 5359.34716796875, -1374.343505859375, 29184.291015625, 200.2066650390625, -1035.5413818359375, -24947.83984375, -10292.3955078125, -303.03167724609375, 55106.265625, -4921.0947265625, -566.180419921875, -259.70416259765625, 17467.36328125, 39.47649383544922, -362.22998046875, -176.98464965820312, -19308.484375, -176.60238647460938, -65.58834838867188, 45.5769157409668, 2644.08935546875, 1369.2958984375, 22131.4609375, -583.055908203125, 1321.732666015625, -68.5367202758789, -81.5047836303711, -162.26316833496094, -3713.14306640625, -14.013063430786133, 23959.037109375, 12.094877243041992, 1079.4234619140625, 37.17565155029297, -1567.623291015625, 621.8916625976562, 6034.70703125, -1589.1669921875, -24634.373046875, -129414.3046875, 692.9120483398438, 1024.893310546875, 309.1852111816406, 131.6196746826172, 408.41461181640625, -4330.4189453125, -16177.4853515625, -168.88247680664062, -277.8710021972656, 1163.0819091796875, -2454.98095703125, 246.78231811523438, -10331.6943359375, -269.1838684082031, 428.5625305175781, -9.219011306762695, -149.7339324951172, -72.35221862792969, -109.98918151855469, -7006.2236328125, -3936.19677734375, -3083.10595703125, 2994.82373046875, 395.8697814941406, -10375.923828125, -135.91744995117188, -23.707181930541992, -109.568603515625, -51.39194869995117, 564.074462890625, 2304.3759765625, -49.13090515136719, -29627.22265625, 763.4976806640625, -10343.3203125, -697.7203369140625, 6844.06005859375, -3360.852783203125, 14.732038497924805, -290.30816650390625, 1451.812255859375, -25.188777923583984, -23.25753402709961, -6046.33349609375, -730.7545166015625, 74.75657653808594, -928.728759765625, -411.0499267578125, -105.33226776123047, -7455.95703125, 92.83670043945312, 468.93389892578125, -4974.3193359375, 80.08784484863281, 5575.69775390625, -1384.229248046875, 3286.425537109375, 69789.84375, -102.96834564208984, -221.95108032226562, -28.62692642211914, -229419.9375, -1382.44970703125, -113.45599365234375, -4012.2255859375, -643.2592163085938]
3: [765.3397216796875, -0.9562234282493591, -253.3103790283203, 1055.44140625, -548.947509765625, 167.47604370117188, 164.55902099609375, -76.15804290771484, 581.8758544921875, -44.575401306152344, -67.96198272705078, -1089.52685546875, -1.0356636047363281, 633.9603881835938, 581.9282836914062, -675.8622436523438, 476.02349853515625, 160.52816772460938, 14948.97265625, -2270.625732421875, -44.84760665893555, 2.6846632957458496, -2673.068359375, 1063.914306640625, 40861.8671875, 5388.30224609375, 1975.0465087890625, -0.4054449200630188, 26940.693359375, -14566.0625, -706.8056640625, 755.064208984375, 771.923583984375, 10116.142578125, -370.4754638671875, -1283.66552734375, 602.9588623046875, -5.4615068435668945, -2074.221435546875, 1123.12744140625, 411.2084045410156, 401.5845642089844, -1865.063232421875, 30.250274658203125, -157.86724853515625, 3.392251968383789, 1621.8314208984375, -54.93543243408203, -19980.552734375, -194.74288940429688, -288.3658142089844, -0.42769670486450195, -23.487388610839844, -1439.733154296875, 269.69293212890625, 6691.6572265625, -1.024514079093933, 733.591552734375, -2.933842658996582, 1072.2197265625, -81.14431762695312, -455.77435302734375, 1029.6551513671875, -6.274533748626709, -2554.841796875, -260.5191650390625, 222.36598205566406, 275.3377685546875, -1943.3758544921875, -45.39949417114258, 24000.060546875, -388.7679443359375, 275.0787048339844, 110.392333984375, -23.129058837890625, 12.100146293640137, 1048.58056640625, 820.527587890625, 5674.2275390625, -483.8562316894531, -21720.4765625, -43.123390197753906, 20.67660140991211, 503.345703125, -198.11061096191406, 3558.406982421875, 6994.349609375, 307.34588623046875, -23.970657348632812, 27.809978485107422, 13.420173645019531, -180.23001098632812, 49.92833709716797, 560.1146850585938, 147.60574340820312, -1.7028707265853882, -236.1411895751953, 240.82760620117188, -135.27407836914062, 11099.173828125, -1049.5845947265625, -106.50379180908203, 357.7698669433594, -99.90939331054688, 1108.539306640625, 1304.4022216796875, 1278.019287109375, -47.38300704956055, -421.2593078613281, -7138.6357421875, -50.53302764892578, -64.22807312011719, 286.24041748046875, 603.3177490234375, 0.002044960856437683, 18.23342514038086, -242.40159606933594, 8604.1796875, -343.95654296875, 0.04063505679368973, 16046.9013671875, -0.8683843612670898, -1120.219970703125, -32.64719009399414, 1292.411376953125, 2015.34375, 386.42608642578125, -1215.6356201171875, 428.476318359375, 222.0321044921875, -31.6796875, 114.00670623779297, -23425.08984375, 941.8417358398438, 53595.140625, -41.644615173339844, -825.9711303710938, -1705.136474609375, -5243.19921875, -31.360401153564453, -4068.49169921875, -2749.6328125, 241.25753784179688, 1051.162841796875, 891.1529541015625, -48.809120178222656, 82.26472473144531, 563.4743041992188, -29610.96484375, -25.024295806884766, -3850.520263671875, 211.71487426757812, 725.5873413085938, -612.4866943359375, 7404.2744140625, 31.55830955505371, -20.218334197998047, -75.47462463378906, -8206.455078125, 1132.150390625, 20293.58203125, 623.5567626953125, -334.864990234375, 37.36956787109375, 4.724575042724609, 15.725879669189453, -59.65009307861328, 16.85161018371582, -4957.6875, -28.31395721435547, 173.51507568359375, 738.2940673828125, 15206.58203125, -5829.13232421875, 711.933349609375, -129.23797607421875, 188.14964294433594, 2491.414794921875, 7933.35009765625, -1135.173095703125, -18876.01953125, 1732.9937744140625, 1043.129150390625, 290.446533203125, 251.78684997558594, -42.51005554199219, 3074.093017578125, 640.198486328125, 735.366455078125, 3081.502685546875, -358.2150573730469, -44.713401794433594, -128.4603271484375, -99.56201934814453, 175.63401794433594, 31.665355682373047, -72.42745208740234, -292.3836975097656, -1683.6004638671875, 206.26370239257812, 422.9414978027344, 1904.113037109375, 8612.3173828125, -353.2967224121094, 2645.890625, 483.7960205078125, -29.256366729736328, -9085.6943359375, 749.1859741210938, -21.719112396240234, -554.4036865234375, 310.1517333984375, -27771.41015625, 1.7989158630371094, -22.27130126953125, -12.63726806640625, -577.3421630859375, -19.865154266357422, 393.197265625, -19.844146728515625, 9.202286720275879, 65.0704345703125, 1.406463623046875, -33.87407684326172, 67802.234375, 1619.10986328125, 730.8169555664062, -3060.744140625, -6802.408203125, -30.030616760253906, -198.1435546875, 573.5573120117188, -19996.73046875, 18.19891357421875, -535.40283203125, -21.18377685546875, -76.0092544555664, 3.6002345085144043, 2551.906982421875, 636.407958984375, -8653.4951171875, 317.2735595703125, -78.4676513671875, -65.87677764892578, -9565.0625, 97.05291748046875, -3463.5703125, -2306.798583984375, 445.106201171875, -72.46966552734375, -8174.6796875, 992.79833984375, 421.3591613769531, 24.583072662353516, -2664.337646484375, -58.89028549194336, 5566.16259765625, -27.1075439453125, -797.7203369140625, 36.14086151123047, 50.64619445800781, 808.5009765625, 12847.427734375, -7.000771522521973, -6604.55712890625, 113.12867736816406, -4186.6572265625, 647.0594482421875, 49420.53515625, 411.5821838378906, 1841.067626953125, -33.130455017089844, 1099.72314453125, 1888.5595703125, 21970.66015625, -63.834014892578125, 704.8763427734375, 81.7763671875, -6609.34619140625, -190.69171142578125, 120.11068725585938, -5.098080635070801, -3799.958984375, -2.5288195610046387, 1041.010986328125, -2924.8154296875, 260.62921142578125, 518.9623413085938, -15.88329792022705, -6.011680603027344, 690.3885498046875, -466.512451171875, -254.89942932128906, -1.9087703227996826, 123.56517028808594, -44.0443115234375, -17.624439239501953, -19.91741180419922, -87.71586608886719, 284.8132019042969, 413.083740234375, -172.71754455566406, 122.25074005126953, -0.28794777393341064, 12188.201171875, -172.85006713867188, 108.84764099121094, -161.43276977539062, 1.446770429611206, 1052.80615234375, 381.0608215332031, 689.612548828125, -321.1052551269531, -2991.125, -643.2781982421875, 389.6744384765625, -540.5687255859375, -8.694986343383789, 294.16790771484375, -539.5335693359375, -18.601947784423828, -105.27246856689453, -71.43095397949219, 1618.818115234375, -1010.7532958984375, 3.8250606060028076, -4.306453227996826, -174.82107543945312, -2241.42724609375, -17.544212341308594, -131.72952270507812, 5362.0439453125, -129.20904541015625, 255.5104522705078, -892.5772705078125, -37.838584899902344, -2.0192160606384277, -22.448589324951172, 1980.3150634765625, 16.09699249267578, -9114.212890625, -20.03030776977539, 67.45877075195312, -807.6534423828125, -2772.253662109375, 1035.52685546875, -9782.060546875, 3.520631790161133, 312.2033386230469, -19.861608505249023, -302.4638977050781, 2550.3271484375, 2303.494873046875, -340.86566162109375, 393.6833190917969, 901.2203369140625, 191.573486328125, 1274.3681640625, 1340.574951171875, -0.30661916732788086, -331.181640625, -80.0750961303711, -532.6100463867188, -86.7567138671875, -1290.1954345703125, 8.038955688476562, 273.6116027832031, 252.86424255371094, 1490.221435546875, 0.6637841463088989, -50545.140625, -61.56193542480469, 272.45965576171875, -8.252243041992188, -7046.2802734375, 14.814691543579102, -4887.0302734375, -21.747879028320312, 0.23030690848827362, -38.44752883911133, -505.6640625, 20.193500518798828, 1160.8663330078125, -111.77152252197266, -4533.8349609375, 9.247187614440918, 252.5175018310547, -68.76982879638672, 13647.3603515625, -921.1866455078125, 663.6151733398438, 19725.4375, -106.31835174560547, 98.25212097167969, 4108.4970703125, 225.34619140625, 318.86236572265625, 511.13922119140625, 346.4276123046875, -2.917555093765259, -55.94750213623047, 2601.65283203125, -8.245473861694336, 15.83822250366211, 8254.478515625, -25.917743682861328, 407.26165771484375, -8.778335571289062, 530.5885009765625, -783.9429931640625, 226.10104370117188, -49.19666290283203, 1933.8248291015625, -9.93355941772461, -13503.166015625, 87.5093994140625, 1339.363525390625, -437.38726806640625, 14627.158203125, -1074.887939453125, 15536.462890625, 385.31695556640625, -61.33216857910156, -743.8888549804688, -1235.623779296875, -2613.410400390625, -618.0980224609375, -0.4047633409500122, -179.86941528320312, -0.37160786986351013, 3907.841796875, 1074.1519775390625, 138.13706970214844, -112.98921203613281, 76.91168212890625, -0.3616301715373993, -708.5609130859375, 39.872314453125, 55.03880310058594, 57.65592956542969, -236.04812622070312, -345.23284912109375, 374.16473388671875, 1490.291015625, -38789.1796875, 53.713680267333984, -3949.93212890625, 1137.941162109375, 918.5675048828125, 2322.2900390625, 850.3169555664062, -2.7716426849365234, -35.03630828857422, -13.962945938110352, 543.0631103515625, 1203.22314453125, 135.90478515625, 112.13775634765625, -1.5183426141738892, 1900.777587890625, -218.4570770263672, -21.721242904663086, -0.2504498064517975, -401.2295227050781, -169.55874633789062, 49.0947265625, 2243.35400390625, -3.2365541458129883, -799.8034057617188, 882.0330200195312, 43278.91015625, 49.67991638183594, -20605.576171875, -4.46961784362793, -17.75894546508789, 851.5628051757812, 380.5888366699219, 185.7388153076172, -18.617267608642578, 176.0345916748047, -11232.642578125, -139.44113159179688, -4911.373046875, -37.94209671020508, 438.24237060546875, -125.41867065429688, -170.0426025390625, 367.70086669921875, 12814.724609375, -71.38294982910156, -13.540624618530273, 3482.292236328125, 5975.5810546875, 583.640625, 61026.65625, 10.605501174926758, -439.10498046875, -3985.701171875, 672.1004638671875, -4.084996223449707, 12614.607421875, -4195.8095703125, -7694.3154296875, -13729.2294921875, 545.21630859375, -53.60551452636719, 2893.84033203125, 1519.5440673828125, 895.886474609375, -10441.14453125, 2194.41943359375, -2017.6651611328125, -1507.767822265625, -48.60234832763672, 1896.1201171875, 75.80101013183594, -263.4754333496094, -1735.093994140625, -2199.83349609375, -0.23395563662052155, -426.2324523925781, -157.93821716308594, -6.304195404052734, -387.31658935546875, -44.34319305419922, 170.44126892089844, -8.370475769042969, -192.5938262939453, 10553.794921875, -1507.243408203125, 2063.8896484375, -217.19956970214844, 1577.441650390625, 6060.837890625, 372.9503173828125, 3733.16845703125, 4919.15869140625, -104.7115478515625, 1029.9493408203125, 185.58035278320312, -1134.832763671875, 78.12399291992188, -449.02056884765625, -378.38470458984375, 5355.7099609375, 26.876449584960938, -161.68917846679688, 67264.3125, 965.5325317382812, -166.14572143554688, -125.65123748779297, 645.255126953125, 668.878662109375, 737.3345947265625, -6089.013671875, 438.1793212890625, 528.1860961914062, -17.91421127319336, -299.094482421875, 6428.00927734375, -1513.142333984375, -2260.921875, -18.233131408691406, -11.317878723144531, 677.0784912109375, 11134.5361328125, -531.1563720703125, -71.28190612792969, 43.73214340209961, -76.69268798828125, 346.19866943359375, 34.240325927734375, 218.03097534179688, 1000.3333740234375, -5659.482421875, -137.95042419433594, 4750.166015625, 0.9548107385635376, 14620.51171875, -95.98104095458984, -228.5723419189453, 26.147369384765625, -110.1715316772461, -216.37542724609375, -8513.576171875, 71.95370483398438, -1807.6934814453125, 839.269287109375, -2796.31787109375, -1398.336669921875, 709.2587890625, 230.983642578125, 8505.4619140625, 194.4322052001953, 4392.4189453125, 2479.741455078125, -41.357200622558594, 2859.89599609375, 448.596923828125, -260.7093505859375, -1052.92724609375, -1754.819091796875, 15834.447265625, -9.056804656982422, 9251.62890625, -892.59619140625, 350.2241516113281, 12827.45703125, -2787.149169921875, 575.4594116210938, 2421.59375, -22114.974609375, -4.619266033172607, 6395.080078125, 2917.29931640625, 236.69830322265625, 532.072998046875, -72.56307983398438, 971.2623291015625, 29.848663330078125, 8.272738456726074, -207.71170043945312, -463.40399169921875, 21726.2109375, -93.59518432617188, -1680.601318359375, -1278.322998046875, -4882.943359375, 6140.64111328125, 2514.833740234375, 21061.220703125, -9583.05859375, -51.04024124145508, 7.425492763519287, -979.775634765625, -24781.017578125, -442.9927062988281, 2253.1201171875, 162.804443359375, -0.17866170406341553, -25.88656997680664, -10165.40625, 208.18362426757812, 317.00164794921875, -63393.21875, 398.1884460449219, -4907.0654296875, -1139.8758544921875, 808.2484130859375, 111.6652603149414, -3989.691650390625, -45.483245849609375, -2401.94873046875, -294.13616943359375, -20.983572006225586, 38.021080017089844, -99.21298217773438, 267.22265625, 1969.013671875, -16367.1513671875, 9761.376953125, -8150.52587890625, -14.009954452514648, -255.54437255859375, 15945.51953125, 49179.9921875, -795.8998413085938, -138.44334411621094, -140.9754638671875, -1.0665066242218018, -33068.625, 445.63702392578125, 58.2740478515625, 45.20448684692383, -12826.7236328125, -12.347295761108398, 681.647216796875, -277.85443115234375, 437.021240234375, -2.5882568359375, -947.0384521484375, 217.2460479736328, 497.0288391113281, -12.549558639526367, 1.0414259433746338, -164.4451446533203, -55.30638885498047, -104.54939270019531, 11655.2763671875, -6.074464797973633, -6638.31396484375, 1240.7353515625, 215.9381103515625, 1919.0758056640625, 5364.25, -78.26725769042969, -328.84307861328125, -1749.391845703125, 998.3173828125, 92.37433624267578, -4389.8720703125, 355.28460693359375, -41.995243072509766, -87.70034790039062, 372.7584228515625, -124.9521255493164, 593.451904296875, -149.53904724121094, 1032.029541015625, 15.34778118133545, 341.2167053222656, 305.97125244140625, -6864.447265625, 98.45211791992188, -1036.25146484375, -34.275794982910156, -1468.879150390625, -29.56414031982422, 3243.705810546875, -6.476932525634766, -12308.32421875, 180.46408081054688, 172.34368896484375, -108.08723449707031, -4.485467433929443, 225.14175415039062, 2480.102783203125, -239.53646850585938, -2116.29150390625, -2286.587158203125, -532.2808837890625, -90.78596496582031, 132.8119659423828, -6.310990333557129, 101.65448760986328, 265.7505187988281, 10061.189453125, 81.59339904785156, 1287.614501953125, 794.4117431640625, 16306.736328125, -547.5881958007812, 1097.91064453125, -2.023052453994751, 3005.046875, -5.96583366394043, -1835.85009765625, 271.69940185546875, 2265.334716796875, 3143.69091796875, -633.689453125, 11.566427230834961, -235.4934844970703, -61.720680236816406, 1904.80712890625, -363.7262878417969, 15.457328796386719, -138.669677734375, 59.835609436035156, 539.7305908203125, 1282.79443359375, 17.831144332885742, 3393.158447265625, -79.24478912353516, 8.070552825927734, 1004.5897216796875, 190.13919067382812, -253.52581787109375, -730.1468505859375, 1545.1865234375, 58485.4296875, -112.44477844238281, -2168.2177734375, -9.481372833251953, -15.761117935180664, -1401.617431640625, -69.13589477539062, 29.089324951171875, 12995.671875, 424.2099609375, 233.8866424560547, -0.8591561913490295, -4833.328125, 793.6920776367188, 23188.544921875, 105.74386596679688, -2994.96044921875, -1.2562812566757202, -26494.09375, -237.08905029296875, -126.43688201904297, 31.379526138305664, 1249.0997314453125, 85.31578063964844, 21.2224178314209, -151.33230590820312, 378.156982421875, 27.61252212524414, -20.519210815429688, -6.560598373413086, -1006.1173706054688, 19093.4453125, 1378.522705078125, -68.92498779296875, 72.10816955566406, 33.117279052734375, -2541.46630859375, 401.36102294921875, 1862.44775390625, 1503.9490966796875, 2077.7265625, -386.6424865722656, -122.18507385253906, 5038.353515625, 30.993032455444336, 148.72967529296875, 91.59571838378906, 2075.2568359375, -29.19862937927246, -62.59239959716797, -589.3028564453125, 436.6954345703125, -1543.054443359375, 124.73115539550781, -220.93801879882812, -52.92755126953125, -449.3260803222656, -2777.36083984375, -27766.845703125, 43.42018127441406, 3554.755859375, 14.22697925567627, 1914.8345947265625, 945.1891479492188, -6.684391975402832, 721.0116577148438, -2791.517333984375, 119.67650604248047, 2051.2646484375, -18.320091247558594, -104.72653198242188, 39.260650634765625, 455.5216979980469, -11252.6171875, 1414.8505859375, -198.78964233398438, 50195.5625, -19.830888748168945, -806.9091796875, -4.507742881774902, -38900.3828125, 124.38259887695312, 872.53173828125, -107.95402526855469, 48903.16796875, -88.28998565673828, 404.6016845703125, -160.24366760253906, 246.38986206054688, -6.713323593139648, -4.593499183654785, -2385.297119140625, 71.06485748291016, 8169.03369140625, 6040.328125, 152.94091796875, 18141.966796875, -282.709716796875, -584.4439697265625, -82.26236724853516, 8585.529296875, 356.44580078125, -162.4366455078125, 30.860427856445312, -55.3339958190918, -16.996015548706055, 30.460601806640625, -7.409371376037598, -438.8658752441406, -1281.115478515625, -14.057696342468262, 1423.35791015625, -184.3695831298828, -42.09944152832031, -45526.12109375, 52.168983459472656, -1669.721923828125, -60.043453216552734, -1077.09033203125, -33.01191711425781, -351.62371826171875, 325.5302734375, 9203.4912109375, 412.562744140625, 813.822021484375, -81.4976806640625, -8178.20556640625, -38.568172454833984, -180.8267059326172, -2053.91943359375, -2582.402099609375, 175.08065795898438, -13679.828125, -1122.830322265625, -62.803768157958984, 586.7709350585938, 1738.28173828125, 43.62999725341797, -84.42436218261719, -24.34377670288086, 24322.21875, -13.525639533996582, -250.3776092529297, 140.26824951171875, 57.452606201171875, -966.6151123046875, -36098.5859375, 168.24891662597656, -1877.011962890625, 323.01019287109375, 1008.067626953125, -120.14312744140625, 6559.92529296875, 22.504045486450195, 426.18963623046875, 32.47233581542969, -12.238274574279785, -6.723570346832275, -157.28726196289062, -773.8346557617188, 261.9879455566406, 562.386962890625, -1294.932373046875, -20756.865234375, -254.0841064453125, -1046.4169921875, -1242.20361328125, -17.828222274780273, 363.99365234375, 7356.59130859375, -937.095458984375, 517.1920776367188, -36.32604217529297, -4738.630859375, 795.81787109375, 5.966488838195801, 751.0440673828125, -80.73988342285156, -763.3045654296875, -30.133481979370117, -92.93986511230469, 297.9447937011719, -35.55031967163086, -751.7645263671875, -725.8143920898438, 3853.35986328125, -31.24724578857422, -204.41908264160156, 7541.90771484375, 583.0062255859375, -57.50110626220703, 490.61798095703125, -9.972692489624023, 25.700653076171875, 136.93997192382812, -44.75398254394531, -32234.150390625, -73.58383178710938, -4457.8603515625, -141.5283203125, -272.7616882324219, -678.6747436523438, 47.48298645019531, 305.2374572753906, -11983.87890625, -5.200334548950195, 56.86375427246094, 3573.088623046875, 5173.71630859375, -149.111083984375, -815.6240234375, -26.46932029724121, 1975.93603515625, -1433.527099609375, -208.7054901123047, -376.1438293457031, 1592.35009765625, -8.593172073364258, -679.2686767578125, 348.01824951171875, 166.43959045410156, 2033.806884765625, -24.10500717163086, 826.5262451171875, -3.8621063232421875, -29856.03125, 1583.617919921875, 4.405608177185059, -1825.55712890625, 709.5628662109375]
4: [-2756.54541015625, 10.914091110229492, -8493.30078125, -548.9473876953125, 11387.345703125, -134.99745178222656, -134.91146850585938, 125.20712280273438, -488.8948974609375, 77.76705932617188, 41.88330841064453, 1786.7906494140625, 2.2689547538757324, -636.496337890625, -345.2861328125, 1988.4476318359375, -647.6469116210938, -288.525390625, -13908.58984375, 6713.3818359375, -718.079345703125, 47.439247131347656, 17385.5078125, -633.6568603515625, -38443.72265625, -11237.529296875, -10088.3291015625, 0.7454797029495239, -64079.59375, 17328.3046875, 729.530029296875, -1129.35009765625, -836.7744140625, -7613.04296875, 275.8177185058594, 1386.5152587890625, -727.4375, 4.882546424865723, 3451.00341796875, -1101.283447265625, -324.49127197265625, -503.24267578125, 4311.85595703125, 794.255615234375, 167.47393798828125, 1084.9561767578125, -2450.03076171875, -8.077728271484375, -10992.6904296875, 588.832763671875, 936.7079467773438, 32.649513244628906, 159.85018920898438, -8755.5712890625, -7180.447265625, -6688.2685546875, 6.166267395019531, 2135.484375, -431.802734375, -582.9088745117188, -7076.37646484375, -58.4605712890625, -1093.202880859375, -386.57733154296875, 3139.267578125, 363.9737548828125, -184.2764434814453, -158.23318481445312, 3411.55419921875, 56.73043441772461, -15960.9794921875, 943.847412109375, -213.52322387695312, -134.1014404296875, 149.2943878173828, -224.27951049804688, -1903.821044921875, -478.8399658203125, -4689.95751953125, 452.0093994140625, 65710.078125, 146.9757080078125, -33.426185607910156, -491.53082275390625, 662.860107421875, -5446.765625, -9086.2548828125, 1063.249267578125, 32.44713592529297, 38.86808776855469, -12.448150634765625, 327.7486267089844, -3332.418212890625, -599.3859252929688, -153.85186767578125, 4.631789207458496, 1262.461181640625, -279.9363708496094, 278.0177307128906, -10167.126953125, 2133.937744140625, 263.06585693359375, -230.41290283203125, 711.0545654296875, -885.620849609375, -706.214111328125, -977.9819946289062, 69.36104583740234, 689.2932739257812, 8429.9619140625, 1165.0423583984375, 146.6853485107422, -254.10952758789062, -339.70623779296875, 7.473508358001709, -26.44512939453125, 6322.3642578125, -16844.494140625, 1235.797119140625, 1.1426942348480225, -38769.66796875, 356.1942443847656, 609.0328369140625, 297.012451171875, -1090.3690185546875, -803.4222412109375, -402.51141357421875, 2070.26025390625, -286.36370849609375, -326.41278076171875, 15.16038703918457, -287.8037109375, 17847.931640625, 1507.6646728515625, -67651.421875, 72.98167419433594, 1274.1270751953125, -1325.13916015625, -7809.2880859375, 30.75928497314453, 3591.9638671875, 3190.12548828125, -280.1991271972656, -433.4306640625, -1442.8665771484375, 71.10700988769531, 978.580810546875, -687.6740112304688, 71848.03125, 45.579750061035156, -6047.23486328125, -231.3518829345703, -453.36968994140625, 5139.91796875, -21030.39453125, -28.71092987060547, 576.5991821289062, 142.4242706298828, 3412.237548828125, -1514.973876953125, -22691.638671875, -1233.2684326171875, 3074.88623046875, -266.35369873046875, -672.9326782226562, -17.372840881347656, 7.86590576171875, 812.4481201171875, 11415.46484375, 65.86066436767578, 1456.152587890625, -1029.0047607421875, -68175.046875, 6006.06298828125, -570.984619140625, 57.566688537597656, 2807.47119140625, -2095.898681640625, -8879.189453125, 2449.942626953125, 8347.6669921875, -968.7364501953125, -8942.70703125, 365.13275146484375, -193.06906127929688, 194.62750244140625, -3679.091796875, -1085.5357666015625, -863.918212890625, -2947.61865234375, 381.70172119140625, 62.62236022949219, 137.1824493408203, 432.4532470703125, -2825.12060546875, -71.01058959960938, 22.954696655273438, -64.33780670166016, 1896.4676513671875, -204.1458740234375, -330.0046691894531, -1118.015869140625, -6354.28515625, 731.3787231445312, -3397.758056640625, -280.78826904296875, 132.02365112304688, 10443.875, -575.9058837890625, 46.97238540649414, 1058.621826171875, -181.5494384765625, 38970.75, -3.1559438705444336, 73.92041015625, 21.488162994384766, 1678.1685791015625, -50.90732192993164, -454.9537353515625, 1.8502910137176514, -37.36878204345703, -49.97615432739258, -6267.39892578125, 279.7823181152344, -60911.50390625, -2252.65673828125, 2593.9296875, 2923.6123046875, 26171.1796875, 40.599937438964844, 1313.139892578125, -307.02099609375, 23082.37109375, -29.817630767822266, 2706.8740234375, 37.50431442260742, 144.28433227539062, -215.40997314453125, -2351.009033203125, -2319.322265625, -4975.50048828125, -260.15545654296875, 112.64863586425781, 614.1693115234375, -16883.041015625, -133.26681518554688, 5862.7060546875, -457.794921875, -382.02166748046875, 142.64227294921875, 11360.341796875, -652.8421020507812, -654.7783203125, -54.304176330566406, 14979.728515625, 126.05610656738281, -11984.8671875, 30.134174346923828, 3124.36376953125, 51.55499267578125, 544.5506591796875, -721.9476318359375, -2986.46630859375, 86.98339080810547, 62046.1171875, -150.2157440185547, 444.0302734375, 631.298095703125, -95172.9921875, -242.26893615722656, -1250.2186279296875, 24.467647552490234, -1624.739501953125, -6896.35546875, -26158.1875, 40.24260711669922, -560.8860473632812, -142.6927947998047, -33748.6640625, 338.9927062988281, 6845.556640625, 8.778969764709473, 8280.0107421875, 3.85117506980896, -9741.021484375, -422.765625, -338.42889404296875, -638.0861206054688, 90.54969787597656, -7.038482666015625, -353.1335754394531, 734.7999267578125, -2863.052490234375, 5.482234954833984, -5110.9931640625, -16.690168380737305, 16.641071319580078, 21.67840003967285, 200.74395751953125, -270.1905212402344, -3324.032958984375, 1259.58447265625, -140.43768310546875, 0.5917742252349854, -9371.013671875, 1190.7176513671875, -556.3916015625, 1059.312744140625, -4.401895523071289, -620.8147583007812, -321.02142333984375, -827.6734008789062, 451.9036865234375, 4219.828125, -78.63897705078125, -252.96044921875, 1616.564453125, -4.298184394836426, -490.3233337402344, 2830.796875, 53.640071868896484, 203.66844177246094, 2187.031005859375, -1509.22900390625, 3928.896240234375, -24.359981536865234, 24.15355682373047, 226.01812744140625, 2439.291748046875, 5.631504058837891, 250.33628845214844, -4798.5693359375, 63.25935745239258, -207.03965759277344, 13459.7021484375, 37.013980865478516, -307.14111328125, 232.22962951660156, -6469.09521484375, -30.68756866455078, -21073.62890625, 37.763572692871094, -751.704345703125, 616.0072021484375, 22836.552734375, -638.1221923828125, 12537.4853515625, -10.6614990234375, -299.5105285644531, 169.2762451171875, 2695.95361328125, -1403.05224609375, -467.7715148925781, 2040.3681640625, 188.895751953125, -498.49072265625, -351.5592041015625, -852.241455078125, -846.5100708007812, 2.041963815689087, 135.95071411132812, 140.0378875732422, 3479.77392578125, 13.262641906738281, 10836.0693359375, -16.6446533203125, -218.6672821044922, -252.3983154296875, -4471.4677734375, -6.068643569946289, 59787.09375, 276.6231689453125, -1305.6708984375, -17.52326011657715, 46635.328125, -29.053726196289062, 496.0421142578125, 218.73370361328125, -0.749024510383606, 41.342552185058594, -83.51998901367188, -31.455078125, -672.4157104492188, 1428.4815673828125, 12393.126953125, -15.48620319366455, -538.541748046875, 545.200439453125, -18988.54296875, 2649.728515625, -3769.911865234375, -24502.14453125, 137.09117126464844, -83.64886474609375, -2855.7685546875, -235.86007690429688, -5377.4921875, -295.6968994140625, -286.3955078125, 4.787139892578125, 65.85218811035156, -2693.062255859375, -48.64691162109375, -56.811485290527344, -13551.83984375, 53.241233825683594, -334.0592041015625, -182.50650024414062, -361.58587646484375, 3461.86474609375, -412.3889465332031, 411.8663024902344, -5794.5419921875, 21.320240020751953, -12550.3515625, -98.9384536743164, -966.93115234375, 494.72100830078125, -27484.3203125, 1685.14892578125, -5530.28759765625, -371.55078125, 188.64788818359375, 2066.099853515625, 4058.154541015625, 5700.54150390625, 1451.0457763671875, 0.5581837296485901, 2140.5546875, 1.8277392387390137, -3404.939453125, -844.333984375, -248.6702423095703, 234.05029296875, 29801.703125, 5.813968181610107, 547.436279296875, -24.77191162109375, -564.8515014648438, -99.48002624511719, 747.2359619140625, 437.6044921875, -1146.1588134765625, -978.7950439453125, 15197.6806640625, -67.83384704589844, -8847.90234375, -667.068359375, -92.53717803955078, -1689.5941162109375, -508.150146484375, -69.75201416015625, 188.146728515625, 212.13938903808594, -492.9790954589844, -938.1701049804688, -90.23079681396484, -219.04302978515625, 13.085960388183594, -12996.9375, 3204.699951171875, 25.020095825195312, 1.4900351762771606, 558.9717407226562, 220.94203186035156, -47.92707443237305, -1848.857177734375, 14.262837409973145, 385.5400390625, -852.40283203125, -33400.28125, 505.500732421875, 8603.53125, 48.61088562011719, 28.244613647460938, -605.728271484375, -229.55206298828125, -234.00323486328125, 84.10022735595703, -1462.38818359375, 7159.4697265625, 209.03822326660156, 32047.435546875, 101.58677673339844, -383.6530456542969, 770.7911376953125, 452.841552734375, 4351.0634765625, -14970.9345703125, 1372.9375, 46.09406280517578, -2349.197021484375, -3255.3037109375, -45.90409851074219, -66181.984375, -193.2645721435547, 140.43551635742188, 4326.82861328125, -800.22314453125, 30.31727409362793, -47100.94921875, 17786.025390625, 7887.8447265625, 12100.373046875, -12516.6083984375, 412.59869384765625, -2669.8193359375, -1039.2166748046875, -505.4901428222656, 20401.8671875, -1307.828125, 2696.67138671875, 2823.511474609375, 80.4986801147461, -7510.521484375, -84.24019622802734, 281.97369384765625, 4748.16015625, 4462.66015625, 0.7446167469024658, 2385.781494140625, 507.9492492675781, 38.519657135009766, 573.6345825195312, 160.1686553955078, 3085.31787109375, 16.611770629882812, 257.0318298339844, -1848.927490234375, 15869.5439453125, -3417.93798828125, 197.58041381835938, -2011.6265869140625, -3397.065673828125, -377.45782470703125, -1898.539306640625, -5183.203125, 174.37347412109375, -616.756591796875, -266.6427001953125, 2883.640869140625, -112.36309814453125, 568.2035522460938, 579.729736328125, -37573.8125, -23.247684478759766, 270.5736083984375, -46998.1171875, -1729.86767578125, 372.2046203613281, 2436.98779296875, -1590.671875, -536.8456420898438, -530.6416625976562, -6875.740234375, -294.26763916015625, -330.6240234375, 64.26596069335938, -4716.740234375, -942.184326171875, 3214.8916015625, 8293.2861328125, 57.55992889404297, -1051.688232421875, -3045.0712890625, -11331.765625, 4419.654296875, 277.12774658203125, -51.47117614746094, 115.0136947631836, -744.9437255859375, -31.778568267822266, -163.91482543945312, -834.8272705078125, 7783.7978515625, 133.78662109375, -11493.30078125, 4.029501914978027, -15036.392578125, 237.99465942382812, 4091.84619140625, 5857.47705078125, 127.03291320800781, 5176.2236328125, 10417.359375, -71.06680297851562, 5199.52490234375, -506.09613037109375, 5062.2177734375, 6752.5830078125, -8673.248046875, -331.73626708984375, -9307.576171875, -118.56683349609375, -7063.4189453125, 4331.6201171875, 123.90446472167969, -3642.68505859375, -481.4317932128906, 1451.4273681640625, 5498.63623046875, 8383.0166015625, -15968.6611328125, 6.76759672164917, -8658.24609375, 1231.547119140625, -7467.994140625, -11526.806640625, -98.39697265625, -310.728759765625, -840.7197265625, 15429.103515625, 1.0824732780456543, -50769.4921875, -9688.421875, -53.09846496582031, -8925.4462890625, 588.4737548828125, -679.6461181640625, 43.365753173828125, -554.8795166015625, 3063.0283203125, -440.12335205078125, -22765.6875, 236.69505310058594, 1766.57373046875, 67538.671875, 10460.5234375, -9819.3720703125, -9196.1494140625, -31387.54296875, 18202.6875, 115.55616760253906, -56.207618713378906, 2426.99365234375, 27736.453125, 2224.093994140625, -1199.9248046875, -135.43429565429688, 4.5967583656311035, -2.3217620849609375, 28414.255859375, -303.73236083984375, -2610.3857421875, 67973.3046875, -3167.111328125, 2701.12255859375, 761.0184326171875, -657.2769775390625, -127.2070541381836, 1229.492919921875, 441.17913818359375, 752.1477661132812, 783.3253173828125, 107.5127182006836, -83.6087646484375, 99.84333801269531, -197.99652099609375, -2159.14794921875, 23455.25390625, -10423.0107421875, 2379.2373046875, 15.624088287353516, 235.9839630126953, -38765.91796875, -38336.0703125, 941.9845581054688, 163.18792724609375, 188.32199096679688, 9.293495178222656, 55230.3046875, -240.72381591796875, -60.87977600097656, -58.48548126220703, 5317.232421875, 48.33920669555664, -439.4161376953125, 1146.9002685546875, -400.0792236328125, -1084.79052734375, 1478.6380615234375, -219.3392333984375, -40652.734375, 167.3447265625, -1.7758848667144775, 117.25125122070312, 160.79901123046875, 1639.5203857421875, -16705.78125, 44.738468170166016, 4172.45458984375, -893.933349609375, -4270.3544921875, -1007.6861572265625, -13930.26171875, 179.02410888671875, -727.6935424804688, 5549.6083984375, -528.028076171875, -653.8306274414062, 6803.68017578125, -230.78016662597656, 47.05036163330078, 640.0631713867188, 17950.361328125, 35.677494049072266, -12223.837890625, 1145.953857421875, -2406.4453125, 5.867697715759277, -239.50558471679688, -153.16796875, 4866.6171875, -133.09048461914062, 843.245849609375, 124.92271423339844, 1518.86474609375, 50.75677490234375, -13882.939453125, -10.8938570022583, -14697.7724609375, -184.5441436767578, -85.89791107177734, 1068.45849609375, 18.580381393432617, -126.09587097167969, -4060.736328125, 1118.653076171875, 5758.6611328125, 3790.658447265625, 1094.114990234375, 308.5289306640625, -224.02127075195312, 74.21136474609375, -124.13499450683594, -228.64691162109375, -14711.513671875, -72.74659729003906, -1155.41357421875, -595.8605346679688, -8313.6728515625, 5684.2919921875, -10962.814453125, 20.361175537109375, 18448.630859375, 32.50870132446289, 2005.4674072265625, -150.76568603515625, -18153.02734375, 3514.681640625, 915.23779296875, -102.468017578125, 534.4711303710938, 592.058349609375, -9942.6357421875, 2677.650634765625, -16.815359115600586, 104.07774353027344, -69.0395736694336, -408.5523986816406, -1711.6204833984375, -10.363750457763672, -4101.86376953125, 1088.8494873046875, 370.5440673828125, -612.513916015625, -296.48101806640625, 887.7315673828125, 14.481597900390625, -1893.200439453125, -77485.5078125, 42.21794891357422, 7640.435546875, 84.72299194335938, 9.53570556640625, 1465.396240234375, -26.875350952148438, -14.05351448059082, 9405.77734375, -242.42637634277344, -141.23036193847656, 6.748720169067383, 11183.8203125, -467.89752197265625, -33512.21875, -105.68043518066406, 2897.48779296875, 11.8899564743042, 33257.515625, 798.4259033203125, 1723.6871337890625, -30.380626678466797, 831.88916015625, 637.3768310546875, -21.975475311279297, 532.8560791015625, -526.150146484375, 38.26123046875, 111.14810943603516, 49.266014099121094, 8850.92578125, 23722.34765625, -1429.7528076171875, 420.2254638671875, -1475.0830078125, -985.9193725585938, 15413.9228515625, 95.17910766601562, 1012.3067016601562, -913.2402954101562, -2735.80712890625, 1395.628662109375, 3353.8974609375, -8896.3212890625, -50.49260711669922, -1191.53466796875, -100.27816772460938, -3249.999267578125, 222.3756103515625, 474.89056396484375, 113.11181640625, -210.74319458007812, 1654.724853515625, -82.79426574707031, 691.5111083984375, 83.8149642944336, 2106.865966796875, 13736.0078125, 46758.484375, -43.30012512207031, -5753.22265625, -12.56855583190918, -10613.6181640625, -540.5310668945312, -12.127525329589844, -440.0107421875, -18519.779296875, -995.528076171875, -1908.2947998046875, 101.03276824951172, 235.039306640625, -42.065086364746094, -8931.0283203125, 21351.52734375, -1889.3555908203125, -681.978759765625, -60367.6796875, 16.908702850341797, -8877.0322265625, 25.69428253173828, 24218.515625, 436.5142822265625, -1080.3388671875, 864.954833984375, -72078.640625, 463.4834289550781, -4251.544921875, 637.99072265625, -1829.81494140625, 57.00761413574219, 12.082242012023926, 10853.025390625, -105.43252563476562, 13748.0810546875, -14961.5322265625, -161.37533569335938, -28218.798828125, 1401.613525390625, 1401.9716796875, 74.04593658447266, -8592.76171875, -197.98248291015625, 210.64663696289062, -49.2098274230957, 116.82455444335938, 2.3532772064208984, -4647.4287109375, -42.700218200683594, 979.5528564453125, 1996.1900634765625, 135.0228271484375, -1358.87939453125, -1516.26171875, 171.24392700195312, 58571.44140625, -42.46804428100586, 2661.77734375, 498.470947265625, 5882.447265625, -321.80908203125, 765.6145629882812, -191.49545288085938, -33331.171875, -593.06103515625, -1645.7861328125, 658.0458374023438, 15785.53125, 47.128353118896484, 812.8887939453125, 4410.869140625, 15962.982421875, -180.95822143554688, 41940.171875, 371.388916015625, 344.9554138183594, -426.7210388183594, -10890.138671875, -91.03634643554688, 101.86573028564453, 135.70230102539062, -21470.27734375, 155.26547241210938, 243.12062072753906, -79.70623779296875, -1853.70556640625, 1100.4678955078125, 30636.767578125, -113.77117156982422, 1977.75732421875, -178.5667724609375, -536.3203125, 194.784912109375, -9344.853515625, -7.392374515533447, -9960.3154296875, -36.27067565917969, -780.1204223632812, 22.094207763671875, 1418.54345703125, 2187.276123046875, -1117.780029296875, -572.6780395507812, 27930.63671875, 55242.1640625, 775.0554809570312, 261.4691162109375, 2303.034912109375, 31.676380157470703, -2724.20751953125, -9116.568359375, 16997.90234375, -355.5343322753906, 65.0191650390625, 4973.53515625, -438.0274658203125, 19.592819213867188, -5270.0986328125, 70.22297668457031, 1163.8876953125, 77.8134765625, 312.1602478027344, -155.8970184326172, 117.68925476074219, 942.3729248046875, 3697.7646484375, -4829.55908203125, -2921.276123046875, 235.55499267578125, -7850.63623046875, -310.48529052734375, 52.637367248535156, -298.929443359375, 65.5623550415039, -432.0097351074219, -1086.07958984375, 169.008056640625, 50517.8203125, 90.91921997070312, 8586.0322265625, 728.0956420898438, -4255.7568359375, 2642.98974609375, -36.12312316894531, -360.5168762207031, 40078.92578125, 17.036754608154297, -39.55223846435547, -4321.7607421875, -4052.51025390625, 176.44854736328125, 3745.83837890625, 301.7642822265625, -1382.5440673828125, 2323.330810546875, 293.8509216308594, 581.13720703125, -993.9716186523438, 17.02760124206543, -612.1297607421875, -467.6007995605469, -2614.475341796875, -34558.796875, 83.3505859375, -541.965087890625, 28.029003143310547, 81505.9375, -1851.53662109375, -71.60234069824219, 3363.3583984375, -826.625732421875]
