0: [188.076416015625, 0.0006781071424484253, -0.05255317687988281, 0.07620489597320557, 0.050286054611206055, -0.03362011909484863, -0.06012248992919922, -0.10103797912597656, -0.037426114082336426, -0.0009585395455360413, 0.10590243339538574, 2.3268661499023438, 0.0035984404385089874, 0.05606544017791748, 0.0157015323638916, -0.10775232315063477, -0.0077631473541259766, -0.02566814422607422, -3.6762619018554688, -0.03702735900878906, 0.09043103456497192, 0.004115700721740723, -0.38689422607421875, 0.05668056011199951, 7.517364501953125, -16.916748046875, 0.5810825824737549, 4.9229711294174194e-06, 3.0196590423583984, 1.271936058998108, -1.7196455001831055, 0.05095481872558594, -0.03813934326171875, -2.3731164932250977, -0.018761277198791504, -1.8964767456054688, -0.04568052291870117, -0.0036594755947589874, 0.18981385231018066, -0.008501768112182617, -0.04862093925476074, 0.006958961486816406, -0.7018135190010071, 0.2559642791748047, 0.14780902862548828, 0.016151607036590576, -2.931995391845703, 0.14566612243652344, 5.7568359375, -2.861098289489746, 2.073040008544922, 0.020134449005126953, 0.002129610627889633, -3.5698258876800537, -0.5712618827819824, -4.061443328857422, -0.005726378411054611, 0.1302490234375, 0.019673213362693787, 0.07220160961151123, -0.6808149814605713, -0.16678011417388916, 0.1540966033935547, -0.258342444896698, -0.4520082473754883, 0.026240825653076172, -0.03284335136413574, -0.003524184226989746, -0.31667137145996094, -0.020574510097503662, 13.199783325195312, 0.0064239501953125, 0.02131187915802002, 0.004258990287780762, -0.5351619720458984, -1.0009026527404785, 0.19067764282226562, 0.05767333507537842, -0.26903772354125977, 0.05097264051437378, 0.1711578369140625, -0.04977583885192871, 0.007736116647720337, -0.08003759384155273, 0.00833272933959961, -4.4449920654296875, -10.389236450195312, -0.029753565788269043, -0.004422053694725037, 0.0074568092823028564, 0.0013984926044940948, 0.016130253672599792, 0.06099134683609009, -0.08548974990844727, -0.11111164093017578, 0.0018855966627597809, -0.06006234884262085, 0.05979490280151367, 0.964665412902832, 0.11353683471679688, -3.9147796630859375, 0.04942188411951065, 0.0035938024520874023, -0.023300714790821075, -0.010818958282470703, -0.05392634868621826, 0.448974609375, 0.1320418119430542, -0.7772641181945801, -3.2977333068847656, 0.03620147705078125, -0.4356093406677246, 0.0044498443603515625, -0.019383609294891357, -0.007180660963058472, 0.02405833825469017, 0.1984713077545166, 3.0714263916015625, 0.5754060745239258, 0.0010696016252040863, 11.760379791259766, -0.04776573181152344, -0.0947713851928711, 0.005241651087999344, -0.18398213386535645, -1.9684257507324219, 0.07472753524780273, 0.029592514038085938, -0.07506442070007324, -0.019240140914916992, -0.5324554443359375, 0.02654474973678589, 23.15093994140625, -0.2210855484008789, 7.314605712890625, 0.07862162590026855, 1.0832099914550781, 2.9910449981689453, 11.166938781738281, -0.003577977418899536, 1.4505958557128906, -0.002933502197265625, 0.03620344400405884, 1.7381510734558105, -0.45829010009765625, 0.018197178840637207, 0.051900386810302734, 0.06228435039520264, -5.84104585647583, 0.057793617248535156, 0.5666465759277344, -0.02756202220916748, -0.014200568199157715, -0.25432538986206055, -2.1887168884277344, 0.0038790106773376465, -0.44705963134765625, -0.029809236526489258, 1.4749670028686523, 0.045314788818359375, 0.5624542236328125, -0.6252384185791016, -0.02382516860961914, -0.022511661052703857, -0.031198501586914062, 0.0007594749331474304, -0.051355451345443726, -0.008799076080322266, 4.518402099609375, 0.014409661293029785, -0.08804190158843994, 4.030967712402344, -0.22873687744140625, -7.603240966796875, -0.026409149169921875, 0.1490025520324707, 0.15795278549194336, 0.020534634590148926, -0.8368415832519531, 0.800262451171875, -8.232223510742188, -11.217941284179688, 46.55317687988281, 0.04379606246948242, -0.05643284320831299, -0.0023298263549804688, -1.2483224868774414, -0.33915233612060547, 0.009348392486572266, -1.2278976440429688, 0.1224515438079834, 0.13645219802856445, -0.021863162517547607, 0.0047226399183273315, 0.021750688552856445, 0.03127288818359375, 0.0025882571935653687, -0.22802734375, -3.69036865234375, 0.0071010589599609375, 0.04440569877624512, 0.08345746994018555, 2.3714141845703125, 1.0574722290039062, 0.07874250411987305, 0.014563381671905518, -0.007137179374694824, -8.230804443359375, -0.1503303050994873, 0.020698726177215576, -0.06292152404785156, 0.010958433151245117, -5.34536600112915, -0.0012693926692008972, -0.06314250826835632, 0.007195323705673218, 1.4886360168457031, -0.013906441628932953, -0.07242584228515625, 0.08627068996429443, -0.005419693887233734, -0.000798538327217102, 0.3272707462310791, 0.003335285931825638, -0.0942230224609375, -3.9293479919433594, -0.17490196228027344, -0.7938051223754883, 59.982177734375, -0.038345977663993835, 0.008126795291900635, -0.00638735294342041, 1.828125, 0.006462723016738892, -1.9646377563476562, 0.006757616996765137, 0.35936450958251953, -0.014343798160552979, 0.016855239868164062, 11.602622985839844, -8.619293212890625, 0.05691635608673096, 0.1447434425354004, -0.024246037006378174, 9.023193359375, -0.20495891571044922, -17.142730712890625, 0.04765510559082031, -0.14594244956970215, -0.016752779483795166, 48.26365661621094, -0.04644441604614258, -1.1617622375488281, 0.013012826442718506, 5.7989044189453125, 0.07935905456542969, -1.8007087707519531, 0.000540122389793396, 0.7679257392883301, 0.6986160278320312, 5.157320022583008, -0.027970075607299805, -4.444976806640625, -0.0010266005992889404, -9.525192260742188, 0.1598343849182129, -4.08172607421875, -0.10750961303710938, 9.067909240722656, 0.0045279860496521, 0.06534051895141602, -0.0003693327307701111, -1.2564680576324463, 20.07550048828125, -2.431304931640625, -0.006941571831703186, 0.0067903995513916016, -0.23692703247070312, -82.84518432617188, -0.6016545295715332, -0.1400303840637207, -0.007551059126853943, -15.026718139648438, -0.000422612763941288, 13.269805908203125, -1.3535242080688477, -0.019382476806640625, -6.383079528808594, 0.016435280442237854, 1.8943101167678833e-05, 0.014101803302764893, -0.6254072189331055, 0.30867934226989746, -0.0010003261268138885, -0.07682085037231445, 0.0487213134765625, -0.001290924847126007, 5.124136805534363e-05, 0.06085014343261719, 0.03580760955810547, -1.7583999633789062, -0.04436671733856201, 0.03338980674743652, -0.0003045210614800453, -3.7906036376953125, 0.03848347067832947, -0.6771507263183594, -0.034649863839149475, -0.0007238313555717468, -0.006555795669555664, 0.009324193000793457, -0.08956718444824219, 0.12355905771255493, -1.026139736175537, 0.022049427032470703, -0.007129311561584473, 4.0718536376953125, -0.005794167518615723, -0.057427406311035156, -0.17033910751342773, 0.006200283765792847, 0.012393474578857422, 0.0030198097229003906, -0.05600261688232422, -0.19701111316680908, 0.021208353340625763, 0.01154761016368866, -0.19363880157470703, 7.982246398925781, 0.0013526752591133118, -1.0070013999938965, 0.8277158737182617, 0.925727128982544, -0.12836885452270508, -0.19696331024169922, -0.4388735294342041, -0.06909466534852982, 0.003714524209499359, 0.5491809844970703, -0.013894438743591309, 0.18130970001220703, -0.024104416370391846, 0.07382440567016602, 0.0020369291305541992, 0.05289649963378906, -0.037874460220336914, -19.018768310546875, -0.020530208945274353, -0.3418540954589844, 0.0011586546897888184, -0.07828181982040405, -0.05339980125427246, 4.377967834472656, 0.1072077751159668, 0.00834643840789795, 0.014671027660369873, 0.437652587890625, -0.04867267608642578, 0.027181386947631836, -0.0005208384245634079, 0.05780625343322754, 0.11274290084838867, -0.05199289321899414, 0.00628507137298584, -0.103607177734375, -0.004452258348464966, 0.013825774192810059, -0.024795591831207275, 7.1930694580078125, -0.0012309476733207703, -0.08290863037109375, -0.011973410844802856, 0.19064390659332275, 0.0007172897458076477, -3.9263877868652344, -0.02046424150466919, 11.902305603027344, -0.0031433328986167908, -0.00014408305287361145, 0.001124851405620575, 0.08998286724090576, -0.011408597230911255, -0.1322704553604126, -0.002193748950958252, -0.4838889241218567, -0.009115219116210938, -0.11051273345947266, -0.0006555169820785522, -1.8731155395507812, -0.05550575256347656, 4.981224060058594, 17.49212646484375, 0.007006645202636719, -0.06411433219909668, 0.4353771209716797, -0.018696188926696777, 1.8924484252929688, 0.008101165294647217, -0.01321554183959961, 0.00014671403914690018, 0.0054430365562438965, 0.24936676025390625, -0.0055594295263290405, 0.6468815803527832, -6.417999267578125, -0.15091991424560547, 0.014010906219482422, 1.252112865447998, -0.017414450645446777, -0.32621002197265625, -0.025099754333496094, 0.014032937586307526, 1.910654067993164, -0.004206396639347076, 3.3631229400634766, -0.0823068618774414, 0.0006629228591918945, 4.684076309204102, 20.882705688476562, -0.09310626983642578, 29.840179443359375, -0.008946418762207031, -0.0408758819103241, 0.020709514617919922, 0.14403724670410156, -9.537872314453125, -0.24378961324691772, 7.061031647026539e-05, -0.08123040199279785, -0.0003747418522834778, 0.2909698486328125, -0.022130966186523438, 0.11794519424438477, 0.2721588611602783, -0.7055702209472656, 0.00365389883518219, 0.15996193885803223, 1.274836540222168, -0.007516384124755859, 0.016372323036193848, -0.1257944107055664, 0.08185172080993652, 0.16036248207092285, 0.0299072265625, 2.1785430908203125, 0.04489028453826904, -2.965871810913086, 0.0011441707611083984, 0.24912261962890625, 0.010283470153808594, 0.0076340436935424805, -0.011783510446548462, 0.37764620780944824, 0.03650307655334473, 0.03251183032989502, 0.13712072372436523, 0.002043485641479492, -0.09641897678375244, 0.003867596387863159, 8.728912353515625, 0.054007887840270996, 0.05870234966278076, -0.000855092890560627, 1.8278875350952148, 0.038601815700531006, -0.0010374486446380615, 0.08357858657836914, 0.0037752650678157806, 1.1080231666564941, -1.5893640518188477, 1.8297119140625, -0.05939686298370361, -2.0161819458007812, -0.03986924886703491, 0.19989359378814697, 0.07455563545227051, 0.1046099066734314, -0.3897709846496582, 0.006698720157146454, -0.46164512634277344, 26.0169677734375, 0.045215100049972534, -1.4927520751953125, 0.0013655126094818115, -0.05412554740905762, -0.05876874923706055, -0.012967586517333984, -0.03213381767272949, 5.753772735595703, -0.3680267333984375, 0.04321354627609253, -0.016660690307617188, 0.17610645294189453, -0.5796681642532349, 7.7455596923828125, -0.09998571872711182, 0.4177970886230469, 1.8178672790527344, 0.055993080139160156, 0.018455564975738525, -69.66635131835938, 0.9686012268066406, -55.20210266113281, 4.538258075714111, -3.438262939453125, 0.0043672844767570496, -0.41944026947021484, -0.09537982940673828, -0.07712602615356445, -5.4617919921875, -0.004961967468261719, 0.0642467737197876, -0.09317779541015625, -0.03549814224243164, -14.982383728027344, -0.04649123549461365, 0.9373979568481445, -0.9834518432617188, -0.20322489738464355, 0.00015559233725070953, -0.09110736846923828, 0.06678830832242966, 0.010718807578086853, -0.22179317474365234, -0.09901297092437744, -0.021811962127685547, 0.0032683759927749634, -0.16997718811035156, 6.353668212890625, 0.25315189361572266, 2.9432411193847656, 0.055217742919921875, -0.49544525146484375, 0.45874786376953125, -0.027599811553955078, 0.17893075942993164, -0.04530048370361328, -0.48053669929504395, 0.0031615495681762695, 0.026466846466064453, 15.30023193359375, 0.08490431308746338, 0.19126439094543457, 1.422553539276123, 380.2455749511719, 0.056705474853515625, -0.1319265365600586, 3.50634765625, 0.47224998474121094, -0.5771183967590332, -0.10447204113006592, 0.02468109130859375, 0.13367033004760742, 0.14547276496887207, 5.4119873046875, -0.40337276458740234, -0.0125046968460083, -0.6365211009979248, 0.6206817626953125, -4.115814208984375, 2.3948936462402344, -10.074302673339844, 0.029042601585388184, -3.216731071472168, -0.6645703315734863, -3.4374961853027344, -0.031455039978027344, -0.00020195543766021729, -0.06314513087272644, 0.0010485798120498657, 0.02966269850730896, 0.0036103129386901855, -0.011596322059631348, 0.042479097843170166, -1.4610748291015625, 0.19752788543701172, 1.2394466400146484, -0.0018161162734031677, -4.804473876953125, -0.005809783935546875, 0.17635774612426758, 2.8360748291015625, -0.14276862144470215, -0.017548084259033203, -1.3309402465820312, 0.05231592059135437, -0.0915994644165039, 0.09898042678833008, -1.1351490020751953, 0.717808723449707, -0.27336573600769043, 0.17484861612319946, 1.4821758270263672, 0.014626830816268921, -12.023818969726562, -0.25734996795654297, -0.07265162467956543, -0.27479076385498047, 0.04425382614135742, -0.010418593883514404, -0.33080625534057617, -0.28745603561401367, -14.252532958984375, -0.06555885076522827, -0.4533357620239258, -0.21625208854675293, 0.3005473017692566, -1.7230300903320312, 1.374701976776123, 0.061823129653930664, -0.8181228637695312, -3.8073501586914062, -0.009889446198940277, 22.65753173828125, 13.31256103515625, 0.057504892349243164, 0.024448394775390625, 0.03188803791999817, -0.004728794097900391, 0.25845038890838623, 0.3089132308959961, 0.2734922170639038, -1.5615272521972656, -2.011486053466797, -0.001815885305404663, -0.6313705444335938, -4.946203231811523, -4.212493896484375, 1.507293701171875, -38.5712890625, -5.5694427490234375, -4.248628616333008, -0.039985720068216324, 0.29639732837677, -0.11589622497558594, -11.86590576171875, -0.03176495432853699, 0.23232769966125488, 0.020060598850250244, -0.00023216381669044495, 0.014286372810602188, -0.4871377944946289, 0.5032377243041992, -0.9576759338378906, 0.3645439147949219, -0.8973197937011719, 0.1818084716796875, -0.19229364395141602, -0.07100141048431396, 0.026492059230804443, 0.7075567245483398, 0.017520681023597717, 2.919139862060547, 0.9416990280151367, 0.038257986307144165, -0.026205480098724365, -0.001084357500076294, -0.06781625747680664, 0.3247866630554199, -78.3695068359375, -0.7357940673828125, -0.3915538787841797, -0.06839567422866821, -0.013719260692596436, 2.8248939514160156, -6.286773681640625, 0.06151854991912842, 2.4446887969970703, -0.1413058638572693, 0.00027201324701309204, 18.90057373046875, 0.043153315782547, -0.002331256866455078, 0.06782984733581543, -2.1249608993530273, -0.1314520239830017, 0.0423506498336792, 0.000606536865234375, -0.056758761405944824, 2.32763671875, -0.8393692970275879, -0.008861958980560303, -1.2188777923583984, 0.0019544921815395355, -0.0012023244053125381, -0.16730070114135742, 0.0436549186706543, 0.004950046539306641, 0.6433868408203125, -0.023258209228515625, 31.324127197265625, 0.08953356742858887, -0.22231316566467285, -2.1202239990234375, 2.237335205078125, 0.2805917263031006, 0.53582763671875, 0.41080474853515625, -0.014640867710113525, 4.587394714355469, -1.8111591339111328, -0.026838839054107666, 0.011793330311775208, -0.008095711469650269, 0.3476743698120117, 0.012890100479125977, 1.7127619981765747, -0.003937065601348877, -4.607908248901367, -0.009868741035461426, 0.000693202018737793, 0.007489442825317383, 2.4753379821777344, 0.12136411666870117, -0.08564764261245728, -0.1579113006591797, -0.3091827630996704, -0.050454601645469666, 3.3656835556030273, 0.005910098552703857, -6.421623229980469, -0.016262054443359375, -0.3002474308013916, 0.05959928035736084, 0.005594536662101746, -0.18303585052490234, 3.5596885681152344, 0.12016534805297852, 0.4261131286621094, 1.451864242553711, 0.2696244716644287, 0.691810131072998, -0.415205717086792, 0.03214728832244873, 0.21883034706115723, 0.038179755210876465, -2.718475341796875, 0.0016732215881347656, -0.3045973777770996, -0.05936241149902344, -26.176422119140625, 0.2712078094482422, -0.8389875888824463, -0.013492420315742493, 3.506863594055176, -0.005589812994003296, 0.13110971450805664, 0.014151334762573242, 113.2078857421875, 4.491743087768555, -0.08927685022354126, 0.4125826358795166, 0.5363559722900391, 0.02623733878135681, -0.7179884910583496, 0.2351672649383545, 0.032494693994522095, -0.02081918716430664, 0.04602313041687012, 0.017961502075195312, 8.247932434082031, 0.003583058714866638, 0.16254615783691406, 0.009409159421920776, 0.0010956823825836182, -0.07837498188018799, 0.07316970825195312, 0.6507511138916016, 3.918926239013672, -0.9530525207519531, 0.0445709228515625, 0.18869709968566895, -0.20969200134277344, -0.005061618983745575, 0.009941786527633667, 0.7018299102783203, 0.05555272102355957, -0.02454543113708496, -84.23660278320312, -0.004832565784454346, 0.00265347957611084, -0.004799284040927887, -0.6366634368896484, 0.04212331771850586, 8.42169189453125, 0.0007425844669342041, 1.0603032112121582, -0.0010687485337257385, -11.631973266601562, -1.7410669326782227, -3.224550247192383, -0.00132673978805542, 2.4666671752929688, 0.023528575897216797, 0.005639418959617615, 0.059340476989746094, 0.27614259719848633, -0.008582711219787598, 0.013453096151351929, 1.1642252206802368, 0.7524538040161133, 4.14005184173584, -0.17142152786254883, -0.0009675174951553345, -0.08194339275360107, 0.8996696472167969, 0.9983186721801758, 0.13439321517944336, -26.803070068359375, -0.01982748508453369, -0.4088621139526367, 2.163534164428711, -0.14839911460876465, -1.6152935028076172, -0.00807499885559082, 5.5938262939453125, -0.01130068302154541, -4.900371551513672, 0.006914615631103516, -0.032209813594818115, 0.01652979850769043, 0.001411736011505127, 0.057064056396484375, 0.05729496479034424, 0.14738070964813232, -0.011632829904556274, 0.036676645278930664, -1.1507692337036133, -27.434810638427734, 0.001413971185684204, 5.529701232910156, 0.0044685304164886475, 198.82183837890625, -0.07432210445404053, 0.0010584443807601929, -0.04589909315109253, 42.69865417480469, 3.246225357055664, -0.20461297035217285, 0.005424812436103821, 0.30521559715270996, -0.006836920976638794, 0.3090348243713379, -18.9290771484375, -3.187969207763672, 1.2516393661499023, 0.29510498046875, -0.011525854468345642, 1.4823706150054932, -0.0027616918087005615, 3.3206863403320312, -0.040487706661224365, 0.13885998725891113, 0.006527960300445557, -3.3281402587890625, 0.03155478835105896, 10.361244201660156, -1.884394645690918, 1.1480751037597656, -0.07622742652893066, 0.0012276247143745422, 44.48057556152344, 0.021822750568389893, 0.7542743682861328, -1.5796985626220703, 0.0010457038879394531, 45.177032470703125, -2.2143592834472656, 0.27820301055908203, -0.29514431953430176, -3.1492080688476562, 0.013986468315124512, -0.05555093288421631, -0.03632444143295288, -0.13765931129455566, -0.02589237689971924, 3.961761474609375, -0.001432044431567192, 12.835624694824219, -2.618000030517578, 0.003991197794675827, -0.014112472534179688, 0.279384970664978, 0.0030438341200351715, -0.4656867980957031, -0.0022128820419311523, -8.451148986816406, 0.004948794841766357, -0.3229541778564453, 1.1696853637695312, -3.8648595809936523, 0.021944165229797363, -21.186737060546875, -0.9509203433990479, -0.9178684949874878, -1.228208065032959, -0.70556640625, 0.013979747891426086, 0.03443458676338196, -2.000457763671875, 0.1428241729736328, 0.0007144808769226074, -13.077545166015625, 3.4606895446777344, 0.016593292355537415, 0.014517426490783691, 1.0320029258728027, 0.020130157470703125, 0.030005522072315216, 0.04754495620727539, 0.1954498291015625, 0.010492503643035889, 0.48273181915283203, 0.18007969856262207, -0.02311527729034424, -0.7549991607666016, 30.51593017578125, -0.02395486831665039, -1.7537240982055664, 0.01457357406616211, -0.0800132155418396, 0.19783735275268555, 0.060420989990234375, 0.010631851851940155, -23.425155639648438, 0.022491812705993652, 0.022086799144744873, -0.010871529579162598, 0.03715616464614868, 0.08122414350509644, -0.5075421333312988, 0.4822964668273926, -0.16447925567626953, -15.501537322998047, 1.3670883178710938, 0.5201320648193359, 0.8350796699523926, -0.002788931131362915, 1.5243110656738281, -1.1966476440429688, -0.2108936309814453, 0.005567073822021484, 0.015360204502940178, -1.009495735168457, 0.05240213871002197, 0.009963937103748322, 3.497037887573242, 0.30520200729370117, -0.47004222869873047, 0.029228568077087402, 0.0034851282835006714, 0.01457589864730835, -0.02075493335723877, 2.2428817749023438, 0.1713327169418335, 1.5403480529785156, 5.950328826904297, 0.10121822357177734, 2.3697357177734375, 0.004074692726135254, 0.27614307403564453, -0.013706803321838379, 0.00034197792410850525, 0.2966461181640625, 18.37566375732422, -0.3404042720794678, -77.06903076171875, 0.09380292892456055, -0.7304325103759766, 0.14640462398529053, -11.372879028320312, 0.030933916568756104, -0.014204323291778564, 0.05678260326385498, -0.20566558837890625, -0.0012795031070709229, 0.023328542709350586, 0.10163021087646484, -0.37572479248046875, 0.2225322723388672, -0.24742794036865234, -0.0007609724998474121, 0.2826204299926758, 1.935791015625, -0.13813352584838867, -0.362518310546875, 0.013021707534790039, 0.002514466643333435, -0.3649141788482666, -0.16674304008483887, 0.14874374866485596, -1.9124746322631836, -0.15589237213134766, -0.007218122482299805, 0.0018301792442798615, -11.042007446289062, 0.650177001953125, -0.28444766998291016, -2.7533493041992188, 0.12099909782409668]
1: [0.0006780028343200684, 0.006132379174232483, 0.00181598961353302, -0.00022132135927677155, -0.0007374770939350128, 0.0019008395029231906, -4.587136209011078e-05, -0.00027788151055574417, -5.020899698138237e-05, 9.811948984861374e-06, 8.769799023866653e-05, -0.005076121538877487, -8.072529453784227e-07, 6.840191781520844e-05, 0.00014316802844405174, -0.000209905207157135, -0.0021690018475055695, -0.000267659779638052, 0.0019405335187911987, 0.0011358857154846191, -0.00011831894516944885, 0.009172839112579823, 0.0010190308094024658, -0.00015083933249115944, 0.01539909839630127, -0.07536816596984863, 0.00015511363744735718, -5.342008080333471e-08, 0.014613986015319824, -0.0018316805362701416, -0.0012322589755058289, -0.0001688823103904724, 0.0001186169683933258, 0.00727391242980957, -0.009334921836853027, -0.004768881946802139, 0.00018427986651659012, 0.0003705923445522785, 0.002890072762966156, -0.0006637366022914648, -2.0066741853952408e-05, -0.0002704598009586334, -0.0006609410047531128, 0.00024049356579780579, -8.09207558631897e-05, -6.018206477165222e-06, -0.003130979835987091, -0.00046077556908130646, -0.0011814534664154053, -4.054605960845947e-05, 0.0001325160264968872, 0.0031067589297890663, 1.3428274542093277e-05, -0.002580404281616211, 0.0008429065346717834, -0.0024680495262145996, 0.0002952486393041909, -0.00028902292251586914, -2.3939646780490875e-06, 0.0004861513152718544, -0.005136966705322266, -0.0005630739033222198, -0.0012624356895685196, -0.01397676020860672, 0.007837429642677307, 2.5875866413116455e-05, 0.0007072682492434978, -4.23104502260685e-05, 0.08319085836410522, -0.0013183243572711945, -0.0041880011558532715, -8.412450551986694e-05, -5.9005687944591045e-05, -5.579041317105293e-05, 0.0004850514233112335, 0.02347245067358017, -0.022866129875183105, 7.224734872579575e-06, 0.0005613192915916443, 0.0006079338490962982, 0.9864299297332764, 0.00980832427740097, 2.673896960914135e-05, -0.0005195920821279287, -0.0001250102650374174, 0.0038399994373321533, 0.006074637174606323, 0.00024754181504249573, 0.004217877984046936, -4.5501627027988434e-05, 1.337568392045796e-05, -0.00033377669751644135, -0.00016663968563079834, 3.1888484954833984e-05, 2.4706358090043068e-05, 0.0002580771688371897, -4.334934055805206e-05, -0.00034038908779621124, -0.00037883222103118896, 0.006915085017681122, -0.0035791173577308655, -0.00015466520562767982, 8.84663313627243e-06, -0.0001345071941614151, -0.0007654507644474506, 0.0010756691917777061, 0.0024376995861530304, -0.00034007499925792217, -0.02010124921798706, -0.014712810516357422, -8.202437311410904e-05, 7.053464651107788e-05, -9.78708267211914e-05, -8.384464308619499e-05, 7.881911005824804e-05, -3.7161167711019516e-05, 2.859346568584442e-05, 0.0062462687492370605, 0.16602882742881775, 0.00024359810049645603, -0.02512681484222412, -0.010175991803407669, 0.0007378179579973221, -8.759275078773499e-05, -0.00046931952238082886, -0.0007734745740890503, -0.0002587614580988884, 0.0028811395168304443, 4.4772401452064514e-05, -0.0006044800393283367, -7.451698184013367e-05, -0.0003156932070851326, 0.061144113540649414, -0.0006442070007324219, 0.053093552589416504, -3.067334182560444e-05, -0.00039208680391311646, -0.0013954639434814453, -0.0029706954956054688, 2.489122562110424e-05, -0.004343792796134949, 0.0009048730134963989, -6.498768925666809e-05, 0.01215866208076477, 0.001536291092634201, -0.0005362322553992271, -0.0022340938448905945, 0.000389905646443367, -0.017805099487304688, 5.136802792549133e-05, -0.0009344220161437988, -3.685383126139641e-05, -0.00019133416935801506, -0.001011345535516739, 0.003202378749847412, 4.115805495530367e-06, 0.010509848594665527, -0.00023915106430649757, 0.007278561592102051, 0.0074030086398124695, -0.025932639837265015, 7.931143045425415e-05, -0.00033279135823249817, 2.3720785975456238e-06, -3.9723701775074005e-05, 7.842201739549637e-06, -7.979106158018112e-05, 6.228964775800705e-05, 0.005375958979129791, 0.0017840862274169922, -0.00016539357602596283, -0.0041853561997413635, 0.015436291694641113, 0.00251007080078125, 0.0002178717404603958, -7.80150294303894e-05, 6.767362356185913e-05, 1.5664845705032349e-06, -0.22771549224853516, -0.0015611052513122559, 0.07258191704750061, 0.007449060678482056, -0.008521318435668945, 0.00013919547200202942, -2.7935951948165894e-05, -6.605219095945358e-05, -0.001496192067861557, 0.00854770839214325, -0.005607534199953079, 0.0023330003023147583, 0.0007408037781715393, 0.00032060407102108, 0.0002233702689409256, -5.801394581794739e-05, -0.0001144111156463623, 0.00012674182653427124, -4.238449037075043e-05, -3.637745976448059e-06, 0.009165503084659576, 0.0008810954168438911, -0.00014731264673173428, -0.0003762245178222656, 0.008086688816547394, -0.0010028481483459473, 0.0006627738475799561, 5.241250619292259e-05, 0.008415158838033676, 0.0556035041809082, 0.00023066531866788864, -0.0007181307300925255, 0.09883373975753784, -0.00011642603203654289, 0.008217573165893555, 1.5772413462400436e-05, 9.938376024365425e-06, -0.0001348360674455762, -0.005690038204193115, -2.664816565811634e-05, -0.00021708104759454727, 0.0002354639582335949, 3.286026185378432e-05, 7.048947736620903e-07, 0.0002545788884162903, -2.6030465960502625e-07, -0.018001079559326172, 0.0022110939025878906, -0.0002849996089935303, -0.0010623335838317871, 0.05463361740112305, 0.0018313350155949593, -0.00021751970052719116, -0.00012865383177995682, -0.34249210357666016, -7.0082314778119326e-06, 0.07272273302078247, -0.00013188389129936695, 8.53557139635086e-05, 9.855721145868301e-06, 0.0013860352337360382, -0.0021017789840698242, -0.0007041692733764648, 0.0003578159958124161, -0.0003659655340015888, -3.3639371395111084e-05, -0.09388542175292969, -1.4943070709705353e-05, -0.5396299362182617, 0.0005467534065246582, 0.00023499131202697754, 0.00035880692303180695, 0.06468045711517334, 0.00032647280022501945, 0.007635582238435745, -9.426078759133816e-05, 0.03464651107788086, 7.995590567588806e-05, 0.01478835940361023, -1.2058648280799389e-05, 0.00134175643324852, -0.0017429888248443604, 0.059029221534729004, 2.7274712920188904e-05, -0.0457301139831543, -8.586386684328318e-06, -0.002314448356628418, 6.685126572847366e-05, 0.009065866470336914, -4.6275556087493896e-05, -0.14062827825546265, -0.0001332378014922142, 0.0005632564425468445, -3.656814806163311e-05, -0.000311926007270813, -0.0007857680320739746, 0.010380536317825317, -0.00021663913503289223, 0.0002278769388794899, -0.0012208109255880117, -0.014592885971069336, 0.0011684205383062363, 0.0002811253070831299, -1.8570164684206247e-05, 0.02143147587776184, -0.00021812116028741002, -0.03461194038391113, -0.0007500052452087402, -0.0002952003851532936, -0.003092646598815918, -4.488293780013919e-05, -1.1817086488008499e-05, -2.0372681319713593e-06, -0.0008260272443294525, 0.00019933655858039856, 3.3441814593970776e-05, -0.0002283826470375061, 0.00010444223880767822, 0.0009697768837213516, 1.2192409485578537e-05, 0.00013390928506851196, -7.137376815080643e-05, 0.0017483681440353394, -0.00016836263239383698, 8.69622454047203e-06, 4.7182096750475466e-05, -0.012071847915649414, -4.952773451805115e-05, 0.007306307554244995, 2.1692365407943726e-05, -3.170178388245404e-05, -0.0003297715447843075, -5.2195973694324493e-05, 0.00028676819056272507, 0.00011921115219593048, -0.001213669776916504, 0.0013680383563041687, 5.9176236391067505e-05, 0.001460433006286621, -5.021007382310927e-05, -0.0007895193994045258, 6.491877138614655e-05, -0.00018045119941234589, -0.00018736626952886581, 0.0002639126032590866, 0.00023694103583693504, -0.001984506845474243, -2.7952133677899837e-05, 0.003245864063501358, 6.239674985408783e-05, -0.018007218837738037, -7.613678462803364e-06, -0.0031981244683265686, 0.0007677376270294189, -0.00012079253792762756, -0.00016011018306016922, 0.0008550509810447693, 0.00031868554651737213, -0.00040526222437620163, 1.416308805346489e-06, -0.0006827861070632935, -7.031409768387675e-05, 0.02062201499938965, -5.075009539723396e-06, -0.0001864694058895111, -0.0010555461049079895, 0.002695918083190918, 0.00025743478909134865, -0.013340950012207031, -6.668997230008245e-05, 0.00029780343174934387, -3.280583769083023e-06, -0.0002215709537267685, 0.0013340450823307037, -0.011704448610544205, -0.00024200230836868286, 0.0006326474249362946, -0.0002740039490163326, 0.00023373588919639587, 0.0004587145522236824, -0.0005153343081474304, 0.00015342212282121181, -9.310152381658554e-05, 5.2566640079021454e-05, -0.0005811452865600586, -4.022568464279175e-05, -0.0004623681306838989, -2.85106070805341e-05, -0.000148263992741704, 0.0007086116820573807, 0.004396259784698486, -4.473375156521797e-06, 0.011514067649841309, -0.0002708849497139454, -8.709542453289032e-05, -7.963273674249649e-06, 0.002730131149291992, 4.7289649955928326e-06, -0.004976034164428711, -2.9227230697870255e-06, -9.665382094681263e-08, 2.424407284706831e-05, 0.00048574618995189667, 5.328573752194643e-05, -0.00016110576689243317, -6.672181189060211e-05, -0.0014776736497879028, -8.908403106033802e-05, 0.00020811287686228752, -0.000108351930975914, 0.008022740483283997, 0.0008877627551555634, 0.004385866224765778, -0.04114365577697754, 0.0007372526451945305, 4.599068779498339e-05, 1.9144266843795776e-05, 0.0007748901844024658, -0.007413923740386963, -5.23589551448822e-05, 9.106402285397053e-05, 2.7739850338548422e-05, -0.0003548787208274007, -0.0005133412778377533, -2.2473977878689766e-05, 0.0011224579066038132, -0.015823304653167725, 0.00010402174666523933, -0.00039937300607562065, 0.0011214055120944977, 0.00014331378042697906, 0.0016277655959129333, 0.0005384199321269989, -4.5120250433683395e-05, 5.431473255157471e-05, -6.518792361021042e-06, 0.029153794050216675, 3.684649709612131e-05, 0.0002921847626566887, 0.0039701759815216064, -0.02094215154647827, 0.0015915557742118835, -0.0732073187828064, 0.00035346392542123795, -0.00010770931839942932, -0.0005753524601459503, -0.0021927766501903534, 0.017786800861358643, -0.0004968512803316116, 6.630340067204088e-06, 1.2783333659172058e-05, -2.1999585442245007e-07, 0.0003650262951850891, 0.0009323898702859879, 0.00030714040622115135, 0.00010940339416265488, 0.0023959726095199585, 0.00011249003000557423, 0.000466667115688324, -0.011361449956893921, -5.585514008998871e-05, -0.00023833708837628365, -0.004866182804107666, 0.00027469731867313385, -8.976645767688751e-05, -0.0013620438985526562, -0.09689278900623322, 4.095723852515221e-06, -0.03793583810329437, -0.00011092610657215118, -0.0034440550953149796, 0.0015249364078044891, 0.000610964372754097, 0.0007789116352796555, 0.0009484179317951202, 0.012146037071943283, -4.2405445128679276e-05, -7.495097815990448e-05, 9.437417611479759e-05, 0.0006685853004455566, 9.573297575116158e-05, 0.009701848030090332, -0.0009138695895671844, 9.669456630945206e-06, 1.4881778042763472e-05, -0.0014217384159564972, 0.002507362514734268, -5.964573938399553e-05, 0.0009422283619642258, -6.4313062466681e-06, -0.026370689272880554, -0.0009370520710945129, 0.13986915349960327, 0.00021094456315040588, 0.09534414112567902, 0.004366512410342693, -0.0007740408182144165, 1.3710465282201767e-05, -0.0014208927750587463, -0.00032441504299640656, 3.739906242117286e-05, 8.243322372436523e-05, -0.030278682708740234, 0.00016355514526367188, 0.003641188144683838, -0.0007685387972742319, -0.00014338036999106407, 0.006161414086818695, -0.0007390230894088745, 9.740889072418213e-05, 0.006538510322570801, -0.0942528247833252, 2.4781562387943268e-05, 0.0011447630822658539, 0.004378661513328552, -0.0058565884828567505, 0.6215071678161621, 0.0003229323774576187, -0.001308143138885498, -0.015690207481384277, 5.2840448915958405e-05, -6.417511031031609e-05, -0.08221054077148438, -0.0008727759122848511, -0.007032930850982666, 0.002794921398162842, -0.0035024285316467285, 3.0044466257095337e-06, -0.0008763857185840607, -3.481609746813774e-05, -0.00047862809151411057, -0.019197940826416016, -0.0006806701421737671, -0.0027310773730278015, -0.014835238456726074, -0.000490579754114151, -0.0027800798416137695, 0.0018758103251457214, 0.0012046806514263153, -0.003255590796470642, 0.0023053474724292755, 0.00015651577268727124, 0.00012681260704994202, 0.000417124480009079, 8.709728717803955e-06, -0.00037574395537376404, -0.0017882287502288818, 0.0010908320546150208, -0.0002726458478718996, -7.241964340209961e-05, -0.013609647750854492, -0.0001287907361984253, 0.006169021129608154, -0.00028317514806985855, 0.0011354759335517883, 0.0024271011352539062, -0.0007378607988357544, -4.204362630844116e-05, -0.0009128972887992859, 0.0013278648257255554, 0.00024275854229927063, 1.1088792234659195e-05, 0.003316044807434082, -0.00010331161320209503, -0.009034201502799988, 0.0012604780495166779, -0.005679607391357422, 0.00021711736917495728, 5.292985588312149e-05, 0.017507433891296387, -0.00023382902145385742, -0.0020809881389141083, 0.00019178353250026703, 0.00044415146112442017, -0.00035096611827611923, -0.0005463012494146824, 0.006924688816070557, 0.006137676537036896, -9.704381227493286e-06, 3.838632255792618e-05, 0.0407557487487793, 0.006742730736732483, 0.0020214859396219254, 0.03613746166229248, -4.7031091526150703e-05, -0.030696839094161987, -0.0018692389130592346, 0.0017309188842773438, -3.964453935623169e-05, -0.00032892124727368355, -8.55553662404418e-06, 6.711995229125023e-05, -0.0004146341234445572, 1.838087337091565e-05, 5.240039899945259e-05, -6.504636257886887e-05, -0.00012037158012390137, -0.00011537782847881317, 0.0017194151878356934, 0.000747760059311986, -0.0015105009078979492, -0.003728128969669342, 0.0002908129245042801, 0.00022995471954345703, -0.013202674686908722, -0.00010566413402557373, -0.006299883127212524, -2.1622516214847565e-05, -0.0037728995084762573, 4.848930984735489e-05, -0.10091939568519592, 0.0013738125562667847, 0.00045669078826904297, -0.0016887262463569641, 0.004925720393657684, -2.841278910636902e-05, -0.009798824787139893, 0.0006902962923049927, 0.0062828995287418365, 0.00040467455983161926, 0.002543332055211067, -0.00027895718812942505, -0.000617295503616333, -0.0011419281363487244, 0.001675724983215332, 0.0022445302456617355, 0.0057080090045928955, 0.0003512352705001831, 5.9038400650024414e-05, 0.007309645414352417, -0.007059991359710693, -0.00021650036796927452, -0.00746704638004303, 0.0093880295753479, 0.0007430193945765495, -0.0142441987991333, 0.00833064317703247, -0.00021153269335627556, -0.00020160526037216187, -9.854976087808609e-05, 0.0001407461240887642, -0.0005034040659666061, 0.0004439353942871094, -1.9915401935577393e-05, -0.017929598689079285, -0.003570079803466797, 0.00020027055870741606, -0.003085389733314514, 0.0031853914260864258, -0.02720540761947632, -0.002610202878713608, 0.0036246776580810547, -0.008711814880371094, 0.004256069660186768, -4.414655268192291e-05, -0.0025484487414360046, 0.0014747008681297302, 0.04507017135620117, -0.0001903623342514038, -0.001951761543750763, -4.2705563828349113e-05, 0.001479215919971466, 6.0826074331998825e-05, 6.35981559753418e-05, -0.001143094152212143, -0.00038708001375198364, -0.0028676986694335938, -0.0007249265909194946, -0.006722003221511841, -0.0026697739958763123, 1.668184995651245e-05, 2.485699951648712e-05, -0.006847836077213287, -0.00011727772653102875, -0.007147848606109619, -0.003835480660200119, -4.579161759465933e-05, -2.1997839212417603e-06, 0.0033512618392705917, -0.000912688672542572, 0.0009784363210201263, 0.04082536697387695, 0.010577037930488586, 0.00021576881408691406, 0.002149369567632675, -0.0003780508413910866, 0.0012646019458770752, 0.05785071849822998, 0.014470383524894714, 0.018467068672180176, -0.001977350562810898, 0.0008281879127025604, -0.1093285083770752, -0.0002178954891860485, -4.2651896364986897e-05, -2.9801682103425264e-05, 0.040090516209602356, -4.5466702431440353e-05, 0.0004513734020292759, 0.0006008222699165344, 5.2597373723983765e-05, -0.0023154616355895996, 0.0038569271564483643, -0.00025920721236616373, -0.0008507668972015381, -9.982381016016006e-06, -2.3544125724583864e-06, -0.0005722851492464542, -0.0001252021174877882, 0.00013144966214895248, 0.10946738719940186, -0.0032939612865448, -0.013796687126159668, 1.9878149032592773e-05, 0.00012721680104732513, 0.0009078178554773331, 0.001969277858734131, -0.0001582857221364975, -0.006500758230686188, 0.0002529621124267578, 0.0005582859739661217, -0.013347528874874115, 0.0036964118480682373, 8.117733523249626e-05, -0.000962928868830204, -5.6677497923374176e-05, 0.0006514787673950195, -0.0003883782774209976, -0.0018334761261940002, 2.2252090275287628e-05, 0.0011545345187187195, 0.005785020999610424, -0.0001639334950596094, -0.0003105802461504936, -0.1348590850830078, -0.0004801526665687561, 0.0013179397210478783, 0.0001813299022614956, -0.0014491602778434753, -0.00036871060729026794, -0.0016859173774719238, 9.144656360149384e-06, -0.01129072904586792, -0.0004824697971343994, -0.0020579099655151367, -0.00017645210027694702, -8.02741851657629e-07, 3.882870078086853e-05, -0.0012623071670532227, 0.0002765338867902756, 0.005150973796844482, 0.001772567629814148, 0.0013457555323839188, 0.0002045370638370514, 0.00026342086493968964, 0.0010697804391384125, 3.564031794667244e-05, 4.321569576859474e-06, 0.010481327772140503, -0.0003213123418390751, -0.0007766303606331348, -6.732996553182602e-05, 0.007933557033538818, 0.0024464651942253113, -0.007301107048988342, 0.0004436965100467205, -0.003530561923980713, -0.0011439509689807892, -0.0005964189767837524, -0.00011321972124278545, 0.013055562973022461, -0.019079864025115967, 0.0008537955582141876, 0.0002845786511898041, 0.00028500333428382874, -9.821075946092606e-05, -0.0007370710372924805, -0.0006349775940179825, 6.087252404540777e-05, 0.0027809198945760727, 7.733050733804703e-05, -0.0007999173831194639, 0.00200575590133667, 1.5840792912058532e-05, 0.0027329325675964355, 5.212612450122833e-05, 2.1094456315040588e-07, -8.832663297653198e-05, 0.00012067519128322601, 2.5227665901184082e-05, -0.0011934712529182434, 0.001528427004814148, -0.013242483139038086, 0.00025206711143255234, -3.845244646072388e-05, -5.120295099914074e-06, 6.411573849618435e-05, 0.008403748273849487, -0.002498134970664978, -1.8908409401774406e-05, -0.06187745928764343, 9.10772942006588e-05, -6.776046939194202e-05, 0.00016366539057344198, -0.046538859605789185, -8.678855374455452e-05, -0.00885629653930664, 1.9534491002559662e-07, 0.0007587075233459473, 0.0008038047235459089, 0.1514115333557129, -0.0010911449790000916, -0.012448132038116455, 3.137392923235893e-05, 0.008528217673301697, 0.00044770538806915283, 3.176878090016544e-05, -0.00018438231199979782, -0.0001743026077747345, -3.606872633099556e-05, 1.1322030331939459e-05, -0.0005627311766147614, 0.000547364354133606, -0.012036323547363281, -0.000316813588142395, -0.0001144707202911377, 0.00022121891379356384, -0.0028923749923706055, 0.0016769766807556152, -0.002428217325359583, -0.005438804626464844, 6.427057087421417e-05, 0.0003949888050556183, 0.0016424879431724548, 0.00043930113315582275, 0.01854914240539074, -4.9502355977892876e-05, 0.00044995546340942383, -1.3709883205592632e-05, -1.8298625946044922e-05, 0.03371119499206543, -8.674012497067451e-05, -0.0009497329592704773, -0.00016471277922391891, 0.0019248034805059433, 1.5429221093654633e-05, -0.00028712768107652664, 0.0038556568324565887, 0.005380481481552124, -0.00012761354446411133, -0.0003331899642944336, 7.401191396638751e-06, -0.015973955392837524, 3.8599027902819216e-05, 0.02090597152709961, 0.00012355204671621323, -2.484186552464962e-06, -0.00019465014338493347, -0.026452302932739258, -0.0017784982919692993, 2.604164183139801e-05, -2.132868394255638e-05, -0.00018139462918043137, -1.1219439329579473e-05, -0.0025065243244171143, 0.0053119659423828125, -0.05794262886047363, -0.0021926388144493103, -0.06020975112915039, -1.5900353901088238e-05, -0.00017570704221725464, 0.0001748688519001007, -0.06435954570770264, -6.565451622009277e-05, 0.0005114879459142685, -0.00018119625747203827, 0.196169912815094, 1.3319775462150574e-05, -0.0003267228603363037, -0.0015493817627429962, 0.0022156983613967896, -0.0008810125291347504, 0.0015136334113776684, 0.010216176509857178, 4.418985918164253e-05, 0.008982032537460327, -0.007162630558013916, 4.609767347574234e-05, 0.0014804601669311523, -0.00013341009616851807, 0.0006833644583821297, 0.008190847933292389, 0.006479173898696899, -4.526250995695591e-05, 0.004583034664392471, -0.00013142847456037998, 0.00016891537234187126, -9.95909795165062e-05, 0.005418002605438232, 4.929373972117901e-06, 0.00380706787109375, 0.006075456738471985, -3.582879435271025e-05, 0.0007406137883663177, 0.0009852312505245209, 3.276113420724869e-05, 0.013950824737548828, -2.7982983738183975e-05, 0.007726237177848816, 3.1218864023685455e-05, 0.00019809603691101074, 0.030139565467834473, -0.00048160552978515625, 1.9178958609700203e-05, -0.05995476245880127, 0.011385433375835419, -0.0002910420298576355, 0.0007791072130203247, -0.017993271350860596, 1.0141287930309772e-05, -0.00014766491949558258, -0.009977549314498901, -0.0016845837235450745, 6.751855835318565e-05, -0.8850522041320801, 0.20020508766174316, -0.00012618675827980042, 7.254024967551231e-05, -0.002151571214199066, -4.923064261674881e-05, 6.150174885988235e-05, -2.710241824388504e-05, 0.19575512409210205, 8.388422429561615e-06, -0.000865166075527668, -0.0031940918415784836, 0.00023578666150569916, 0.007064126431941986, -0.08782303333282471, 2.8526876121759415e-05, 0.000818595290184021, -0.00014742882922291756, -0.000693831592798233, 0.006459888070821762, 0.0028310418128967285, 1.1304684448987246e-05, -0.028174996376037598, 7.158168591558933e-05, -1.300964504480362e-05, 0.002095775678753853, -0.0004455726593732834, 0.0024413131177425385, 0.00112934410572052, -0.00010873749852180481, -0.0011833496391773224, -0.025072038173675537, 0.0006229691207408905, -0.007950589060783386, -0.00017209164798259735, 1.7709448002278805e-05, 0.01094016432762146, 0.0011007711291313171, -0.0006638839840888977, 3.3502932637929916e-05, -4.43505123257637e-05, 0.11511659622192383, 0.0006131920963525772, -7.689697667956352e-06, -0.04701715707778931, 0.0005548233166337013, 0.0016550887376070023, 0.008420046418905258, 9.24849882721901e-06, -0.00011181202717125416, -0.0011780858039855957, -0.0007995963096618652, -0.0005579106509685516, 0.0006284303963184357, -0.0007439404726028442, -0.0072966814041137695, -4.710257053375244e-05, -4.653912037611008e-05, -0.0001255276147276163, -9.265192784368992e-05, -2.5598506908863783e-05, -0.0008436925709247589, -0.0025276988744735718, 0.01055493950843811, 0.08486533164978027, -2.8574839234352112e-05, -0.00047869980335235596, -0.0014233198016881943, 0.005830258131027222, 0.00035400688648223877, 3.3984892070293427e-05, 1.7932616174221039e-06, 0.0028624534606933594, -1.0025454685091972e-05, 1.0440475307404995e-05, 0.0016245916485786438, 0.005085468292236328, 0.0001351386308670044, -0.000338507816195488, -8.280808106064796e-05, -0.001770736649632454, 0.005488961935043335, 0.007101856172084808, 0.0033016353845596313, 0.003083636984229088, -1.246458850800991e-05, 0.00026942044496536255, 3.0159950256347656e-05, -0.00043704360723495483, 0.011901617050170898, 8.86768102645874e-05, -4.44706529378891e-07, -6.475020200014114e-07, -0.021718382835388184, 0.0015552453696727753, 0.011947989463806152, -0.06659279018640518, -3.417301923036575e-05]
2: [-0.05257606506347656, 0.001816093921661377, 482.22918701171875, 0.11003303527832031, 1.2410049438476562, 0.09188258647918701, -0.06666767597198486, -0.15281057357788086, -0.019541263580322266, 0.03194475173950195, 0.058418989181518555, -0.08924150466918945, 0.0004936084151268005, -0.36405086517333984, -0.05900895595550537, -0.41042864322662354, -0.05041694641113281, 0.012555480003356934, 1.0519676208496094, 2.9784278869628906, 0.2252025604248047, -0.019808292388916016, 9.38104248046875, 0.12729549407958984, -16.223129272460938, 0.4281883239746094, 5.67315673828125, -0.0003913058899343014, 3.9985084533691406, 5.381412982940674, -1.3416328430175781, -0.22463321685791016, -0.01679515838623047, -2.9215869903564453, 0.05262124538421631, 0.26247310638427734, -0.3128175735473633, -0.0005858754739165306, 1.1042852401733398, 0.18647098541259766, -0.021334528923034668, -0.007495403289794922, -0.3696253299713135, -0.7549831867218018, -0.027924776077270508, 0.18564224243164062, -0.7927665710449219, -0.03217887878417969, -12.961652755737305, 0.5109788179397583, 0.38036584854125977, -0.017302818596363068, 0.11468062549829483, 1.85797119140625, -3.418386459350586, -1.773895263671875, -0.00243428535759449, 0.7273273468017578, 0.287883996963501, 0.15795612335205078, 21.66223907470703, -1.72235107421875, -0.08089017868041992, 0.032685160636901855, 8.962188720703125, 0.018197208642959595, 0.02161586284637451, 0.012014031410217285, 1.5400257110595703, -0.012441739439964294, -9.617233276367188, 0.9850745797157288, 0.0050057172775268555, 0.0073661208152771, -0.16129732131958008, 0.40475893020629883, 0.24248218536376953, 0.012098550796508789, -0.12945938110351562, -0.7401942014694214, -21.63043212890625, -0.07944753766059875, 0.006942149251699448, -0.07915449142456055, -0.18813681602478027, 0.6148567199707031, -9.241188049316406, -0.2716226577758789, -0.00656457245349884, 0.23275113105773926, -0.0016816109418869019, 0.6344603300094604, 2.533111572265625, -0.02872943878173828, -0.004212081432342529, 0.00016449019312858582, 0.1249152421951294, 0.05673956871032715, -0.02600860595703125, -0.6919021606445312, -0.17236804962158203, -0.21282488107681274, -0.01594364643096924, -0.0014328062534332275, -0.10123682022094727, -0.053510189056396484, -0.12455189228057861, 0.03982612490653992, -0.5169510841369629, -14.039161682128906, 0.0297696590423584, 0.08833426237106323, -0.03284168243408203, -0.00043523311614990234, 0.0013400893658399582, 0.16830801963806152, 1.3919506072998047, -15.449455261230469, 0.8206668496131897, -0.0003688099095597863, -7.13768196105957, 0.20271894335746765, -0.03316974639892578, 0.08472760021686554, 0.03561735153198242, 0.33901381492614746, -0.21219158172607422, 0.4169902801513672, -0.09654033184051514, -0.11481070518493652, 0.03661000728607178, 0.28275632858276367, 4.7505645751953125, 0.24183273315429688, 5.422821044921875, 0.0004501938819885254, -0.9391374588012695, -0.15625476837158203, -1.0312004089355469, -0.0422595739364624, -1.730316162109375, 2.9593231678009033, -0.40255165100097656, -0.49893951416015625, 0.0878448486328125, 0.009378790855407715, 0.08736419677734375, -0.005919933319091797, 50.73870849609375, -0.051559045910835266, 16.211837768554688, -0.17875170707702637, -0.07196712493896484, 0.4139671325683594, 2.5029067993164062, -0.0049523115158081055, 0.08943386375904083, -0.11440902948379517, -13.730522155761719, -0.18523478507995605, 0.1285400390625, 0.23911762237548828, 0.058142662048339844, -0.2621879577636719, 0.6133899688720703, -0.0010439902544021606, -0.2110748291015625, 0.2798280715942383, -1.229583740234375, -0.005124136805534363, 0.24270081520080566, 0.3529883623123169, -25.686248779296875, -0.031978607177734375, 0.028257131576538086, -0.1674647331237793, -0.8943080902099609, -0.09595060348510742, -5.997962951660156, -3.2042808532714844, 1.0227203369140625, -9.875965118408203, -5.799037933349609, 0.25742101669311523, -0.04965782165527344, -0.1172836646437645, 2.9599475860595703, -0.27538299560546875, 0.12190914154052734, 1.8760509490966797, -0.22021865844726562, 0.0033249258995056152, 0.008460700511932373, -0.08199527859687805, 0.9884548187255859, -0.3064155578613281, 0.06046801805496216, 0.15817499160766602, -0.4317035675048828, -0.0017504692077636719, -0.059533119201660156, 0.2633352279663086, 1.636322021484375, -0.4122188091278076, -1.7453079223632812, 0.021219968795776367, -0.007845550775527954, -6.1287994384765625, -0.1100468635559082, -0.001835256814956665, 0.34485816955566406, -0.015134572982788086, 8.968330383300781, 0.00015198439359664917, 0.02519117295742035, 0.0006412602961063385, -0.07738304138183594, -0.04060852527618408, -0.13836157321929932, -0.021849334239959717, -0.013777405023574829, 0.01375269889831543, -1.9040775299072266, 0.05028105527162552, -9.562255859375, 0.6966705322265625, -0.16178417205810547, 0.30411529541015625, -67.80279541015625, 0.0012889504432678223, -0.06324636936187744, 0.016293883323669434, 6.98851203918457, -0.0010079443454742432, 1.5383939743041992, -0.010439671576023102, -0.020426005125045776, -0.05012106895446777, -0.6903305053710938, -3.155702590942383, 9.967529296875, 0.007424473762512207, 0.09608478844165802, -0.057314008474349976, 6.344682693481445, 0.025508880615234375, -13.411582946777344, -2.1914825439453125, 0.032619476318359375, 0.26027369499206543, -43.31493377685547, -0.11520171165466309, -0.30280280113220215, 0.01597464084625244, 16.24443817138672, 0.06808727979660034, -2.2570648193359375, 0.04006826877593994, 0.7967681884765625, 0.00025343894958496094, -1.9639759063720703, 0.024306297302246094, 7.7564239501953125, 0.011353196576237679, 43.098876953125, -0.18571937084197998, -1.755570411682129, 0.6325211524963379, 3.488922119140625, -0.01679205894470215, 0.22939205169677734, -0.04901731014251709, -5.1068267822265625, -1.2363357543945312, -3.558990478515625, 0.20651793479919434, -0.008900880813598633, 0.03152269124984741, -0.4130859375, -0.0069468021392822266, -0.16549301147460938, -0.0010086148977279663, 14.50372314453125, -0.001071442849934101, -4.546241760253906, -1.0037498474121094, -0.09727311134338379, 2.6843643188476562, -0.004799783229827881, -0.008821606636047363, -0.03474891185760498, -0.039499759674072266, 0.8402290344238281, -0.0016183883417397738, 1.1240043640136719, 0.20978498458862305, 0.0031153932213783264, 0.06173476576805115, -0.3487154245376587, 0.04233121871948242, -0.8259429931640625, 0.35019880533218384, 0.0029749274253845215, -0.0001083350507542491, 22.101499557495117, -0.29549551010131836, -0.651451587677002, -0.018987715244293213, 0.0011644959449768066, 0.05183887481689453, -0.00835883617401123, -0.031208038330078125, 0.21241894364356995, 0.7097148895263672, 4.523466110229492, 0.01887643337249756, -0.173126220703125, 0.021606886759400368, 0.16270160675048828, -0.1356792449951172, -0.015257015824317932, 0.012498140335083008, 0.45993733406066895, 0.32334136962890625, 1.7343482971191406, -0.008750081062316895, 0.024470753967761993, -0.007845282554626465, 0.8582725524902344, 0.02493441104888916, 0.26187843084335327, -3.5548171997070312, -0.024902403354644775, 0.019547700881958008, 1.5594940185546875, 0.17795634269714355, 0.20799827575683594, -0.001901276409626007, -2.985107421875, -0.003126800060272217, -3.042949676513672, 0.015575900673866272, 0.02416515350341797, 0.1663607358932495, 8.09405517578125, 0.05263805389404297, 7.414802551269531, 0.0023021623492240906, -0.16915035247802734, -0.03453060984611511, 0.18585586547851562, 0.27799320220947266, 0.2875785827636719, 0.43782591819763184, 1.1716575622558594, 0.004638671875, -0.7036342620849609, 0.025602340698242188, -0.16712474822998047, -0.00013417424634099007, 0.009937286376953125, -0.13810163736343384, 2.5588760375976562, -0.13717913627624512, 3.5127182006835938, 0.0003833174705505371, -0.022945761680603027, 0.09800958633422852, 5.684654235839844, 0.03823891282081604, -4.630516052246094, 0.0677640438079834, -0.8014068603515625, 0.04972505569458008, -49.84808349609375, -0.0015121549367904663, -1.1522979736328125, 0.025116123259067535, 0.0002960215788334608, -0.0035324692726135254, 1.3826370239257812, -0.005746603012084961, -0.2881903648376465, -0.1415700912475586, -11.620903015136719, -0.003755435347557068, 0.20120000839233398, 0.033120304346084595, -1.415130615234375, 1.0987586975097656, -1.3427009582519531, 9.029754638671875, -0.1481727957725525, -0.029152601957321167, -0.3117046356201172, 0.010562300682067871, -2.163249969482422, 0.026576757431030273, -0.024613380432128906, -0.0032620257697999477, 0.007351040840148926, -0.2912731170654297, 0.25014328956604004, -0.010168790817260742, 0.20323562622070312, -0.0024396032094955444, 0.02547311782836914, -0.16525912284851074, -0.012124061584472656, -3.0062332153320312, -0.2303931713104248, 0.0010273754596710205, 3.4003143310546875, 0.1133188009262085, -8.339111328125, 0.01850360631942749, -0.051584720611572266, -0.3172321319580078, -6.42486572265625, 0.06769561767578125, 26.179500579833984, 0.18662738800048828, -0.007833391427993774, 1.0621376037597656, 0.13940191268920898, 7.358168601989746, -1.1872494220733643, 0.00012888971832580864, -0.07067632675170898, -2.018711529672146e-05, -1.7616291046142578, -0.4098176956176758, 7.134675979614258e-05, 0.06969678401947021, 7.786895751953125, 0.0004808744415640831, 0.8378405570983887, 0.2543354034423828, 0.25795936584472656, 0.061144351959228516, 0.2748293876647949, -0.020301342010498047, -3.884519577026367, -0.00441741943359375, -6.14154052734375, 0.017958879470825195, 6.326581954956055, 0.022385597229003906, -1.5951213836669922, 0.4741954803466797, 0.008748769760131836, -0.01370742917060852, -0.00147247314453125, 0.08043734729290009, -0.020680665969848633, 0.025261878967285156, 0.12014269828796387, -0.4139127731323242, -0.0014767497777938843, 6.441429138183594, -0.3046717643737793, -0.17942428588867188, -0.0003506331704556942, 0.1545875072479248, 0.11822342872619629, -0.0014460384845733643, -0.035820960998535156, 0.0013245036825537682, -1.5243809223175049, 0.1687915027141571, 2.5731201171875, 0.20022869110107422, -4.5955657958984375, -0.01976235955953598, -0.0003692060708999634, 0.08102703094482422, -0.0891580581665039, 0.20468196272850037, -0.01444457471370697, -0.19139063358306885, -3.6764369010925293, 0.02891397476196289, 8.073455810546875, -0.004679173231124878, -0.020097732543945312, 1.0059280395507812, -0.37520575523376465, 1.4412999153137207, 7.8046722412109375, -0.5820102691650391, 0.006118252873420715, 0.5970344543457031, 0.07076454162597656, -0.8676929473876953, 25.027820587158203, -0.0764968991279602, 0.04575216770172119, -5.481090545654297, -0.16913127899169922, -0.013897180557250977, 16.93902587890625, -5.386667728424072, 2.976470947265625, -1.3128013610839844, 2.6413841247558594, 0.012253344058990479, 0.4431724548339844, 0.14700603485107422, 0.03871655464172363, -12.129119873046875, -0.053249359130859375, 0.9542157649993896, -0.9406299591064453, 0.023978769779205322, 9.059173583984375, 0.015169978141784668, 0.0452612042427063, -7.379596710205078, -0.0715799331665039, 0.00018923170864582062, 0.3866262435913086, 0.3549875020980835, 0.0013998840004205704, 0.01826763153076172, 0.02444961667060852, 0.5008296966552734, 0.00559244304895401, 0.2258453369140625, -0.8181304931640625, 2.6332168579101562, -0.8097724914550781, 0.3074626922607422, 0.3419809341430664, 0.21091079711914062, -0.007848739624023438, -0.20343589782714844, -0.7416915893554688, -0.06802082061767578, 0.026852130889892578, 0.0020821094512939453, 10.801841735839844, 0.19033098220825195, -0.17497795820236206, -0.014285266399383545, -29.859207153320312, 0.022107422351837158, 0.09273195266723633, 27.4930419921875, 0.456592321395874, -0.1168665885925293, 0.22089004516601562, -0.42833876609802246, -0.2173924446105957, -0.018660306930541992, -1.5130109786987305, -1.0874452590942383, -0.04400300979614258, 0.017846643924713135, 0.46042633056640625, -0.3636817932128906, 0.08101749420166016, 10.996177673339844, 0.004371434450149536, 0.14493179321289062, -6.420982360839844, 6.0723419189453125, 0.06716156005859375, -0.09414924681186676, -0.01000969111919403, 0.028736472129821777, 0.7193156480789185, -0.004604965448379517, -0.021896958351135254, -0.007852315902709961, 0.08462905883789062, -0.054160237312316895, 0.09429931640625, -0.006334245204925537, -2.2815093994140625, 0.11338445544242859, 0.8375816345214844, 0.3133087158203125, -0.07451587915420532, -2.8304519653320312, -6.080909729003906, 0.42066192626953125, -3.1518714427948, 0.03604483604431152, -0.324249267578125, 3.9742813110351562, 3.8516693115234375, -0.12018346786499023, -2.0599365234375, 0.0040302276611328125, -3.629638671875, 4.381187438964844, 0.003046095371246338, 1.532857894897461, -0.09494757652282715, -0.5486187934875488, 1.2982521057128906, 0.34390926361083984, -1.19903564453125, -0.028856992721557617, 0.7132110595703125, -1.6495094299316406, -2.016510009765625, -0.3162078857421875, -7.304447174072266, 0.06643164157867432, -1.3477935791015625, -1.8844642639160156, -0.003950886428356171, -8.552452087402344, -11.00750732421875, 0.14880269765853882, 3.4058761596679688, -0.05604255199432373, -0.10158658027648926, -0.2880892753601074, 0.08289757370948792, 0.6566658020019531, -0.943199872970581, 6.53802490234375, 0.0068077147006988525, -0.19241496920585632, 6.5335693359375, -1.5765299797058105, 1.5024166107177734, 0.5251846313476562, -2.5967178344726562, 4.6717529296875, -0.3166942894458771, 0.10274791717529297, 0.24726629257202148, -15.472808837890625, 1.173430323600769, -0.12134265899658203, -0.03664267063140869, 0.0005136691033840179, 0.021911732852458954, -2.8634023666381836, 0.09177130460739136, 0.2871122360229492, 1.100250244140625, -1.0970573425292969, -0.4162445068359375, 3.074085235595703, 0.01896953582763672, 0.02990579605102539, -0.5119476318359375, -0.12657833099365234, 0.3654308319091797, 0.021015167236328125, 0.005942493677139282, 0.4961509704589844, -0.04912734404206276, -0.27106332778930664, 1.020059585571289, -22.673919677734375, -2.6235618591308594, 1.401763916015625, -0.03543494641780853, -0.18671274185180664, -7.511497497558594, 19.83721923828125, 0.23847365379333496, 1.1059436798095703, -0.08770990371704102, -0.0009938273578882217, -19.169570922851562, 0.019878268241882324, 0.03675234317779541, -0.01803797483444214, 0.37042236328125, 0.0013510435819625854, -0.11248445510864258, 0.6019210815429688, 0.027055025100708008, -0.19274520874023438, -1.6488571166992188, 0.08788156509399414, 51.905517578125, -0.024908453226089478, -0.0003652060404419899, -0.011187195777893066, 0.02533438801765442, -0.5045623779296875, 4.7688446044921875, 0.0004158318042755127, -0.9380302429199219, 0.13365697860717773, 1.6110515594482422, -0.3894500732421875, -1.0765533447265625, -0.05008852481842041, -0.15611648559570312, -2.241851806640625, -0.01151275634765625, 0.5046305656433105, 5.030303955078125, 0.1444089412689209, -0.01849554479122162, -0.002426832914352417, 14.380433082580566, -0.05721330642700195, 3.5191421508789062, 0.6623506546020508, -2.517587661743164, -0.0115746408700943, -0.02445065975189209, -0.022173523902893066, -1.8654251098632812, -0.06607139110565186, -0.035289764404296875, -0.006815105676651001, -2.5486631393432617, 0.29835963249206543, -3.782257080078125, -0.008114203810691833, -10.545494079589844, 0.028088808059692383, 0.1187293529510498, -0.09317156672477722, 0.005454946309328079, 0.0065915584564208984, 0.5448379516601562, -0.6044168472290039, 0.7013645172119141, -17.807632446289062, 0.0720055103302002, 0.04781782627105713, 0.05127042531967163, 0.02570582926273346, -0.10026627779006958, 0.4036366939544678, 3.2904052734375, 0.003745853900909424, 0.06901073455810547, 0.011201858520507812, -0.5755729675292969, -1.8844337463378906, 23.965476989746094, 0.0067914146929979324, 16.1593017578125, 0.0049315690994262695, 2.7220001220703125, 0.0281064510345459, -13.687881469726562, -31.353851318359375, -0.17046451568603516, 0.07808578014373779, -0.44443440437316895, 0.013449475169181824, 6.969329833984375, 0.31993865966796875, 0.0006088251248002052, 0.028350017964839935, -0.003912597894668579, 0.29693603515625, 6.331001281738281, -0.0006629005074501038, -0.8077163696289062, -0.3398876190185547, -0.5792981386184692, -0.07192659378051758, 0.05511927604675293, -0.013774871826171875, -0.029312610626220703, 0.43217939138412476, 22.842071533203125, 0.004590392112731934, 1.6513023376464844, 0.006017871201038361, 0.0030243396759033203, -0.7123088836669922, 0.027584195137023926, 0.0007975026965141296, -67.5054931640625, -0.00774538516998291, -0.03733247518539429, 0.006034514866769314, 7.2129058837890625, 0.007205009460449219, 12.14483642578125, 0.007941842079162598, -5.422224998474121, -0.0019277879036962986, 10.389678955078125, -0.4226665496826172, 0.2705860137939453, -0.007117405533790588, -1.0664043426513672, 1.302450180053711, 0.0032445937395095825, 0.02978244423866272, -0.02937459945678711, -0.05683183670043945, -0.01348927617073059, -0.023495018482208252, 1.4540176391601562, 15.1678466796875, -1.0117530822753906, -0.12761624157428741, 3.0896081924438477, 1.3751907348632812, 0.778076171875, -0.48494815826416016, 0.65252685546875, 0.034329891204833984, -0.7321281433105469, 1.697251319885254, 0.34427738189697266, -0.5177936553955078, 0.05473848432302475, 1.2029194831848145, -0.01835000514984131, -0.9008636474609375, 0.10665857791900635, -0.012988477945327759, -0.2426588535308838, -0.023205041885375977, -1.7816448211669922, 0.0001417100429534912, 0.07642495632171631, 0.007328025996685028, -0.38748908042907715, -0.901611328125, -27.7740478515625, 0.011052936315536499, -0.7233695983886719, -0.0010234452784061432, 0.118560791015625, -0.04715561866760254, -0.041918814182281494, -0.0321650505065918, -3.8608322143554688, -0.49297571182250977, -0.11728811264038086, -0.021910302340984344, 0.03509044647216797, 0.03166612982749939, 6.263431549072266, 35.90461730957031, 0.02862834930419922, -0.22749710083007812, -13.069648742675781, -0.04529541730880737, 10.848384857177734, -0.0014986544847488403, 7.7548828125, -0.8953619003295898, 0.1837024688720703, -0.24880042672157288, -3.3744735717773438, -0.3345928192138672, 1.7353096008300781, -1.4015779495239258, 0.7878150939941406, -0.008067548274993896, 0.00042675877921283245, -19.951080322265625, -0.05793440341949463, -35.04559326171875, 3.5642318725585938, -0.016065895557403564, 2.261880874633789, -1.9497442245483398, -0.19328737258911133, 0.11581945419311523, 2.5330657958984375, 0.026160597801208496, 0.02949690818786621, -0.0080508291721344, 0.006131425499916077, -0.14041274785995483, 0.9947395324707031, 0.13852918148040771, -2.0391006469726562, 0.7568817138671875, 0.008974641561508179, 0.3639812469482422, -1.5663871765136719, -0.03372812271118164, 4.591346740722656, -0.003490149974822998, 1.0492477416992188, 0.2236272692680359, 0.7376430034637451, -1.2776260375976562, 0.9242126941680908, 0.01861572265625, 13.6455078125, 0.043105125427246094, -1.7677764892578125, -0.23085474967956543, 1.740966796875, -0.028045177459716797, 0.3094448447227478, -2.053314208984375, -4.3161773681640625, 0.015492081642150879, 30.4085693359375, 1.9713134765625, -0.20175500214099884, 0.03516197204589844, 3.066558837890625, 0.0012817233800888062, -0.4016975164413452, -0.041502952575683594, -2.751842498779297, 0.04264871031045914, -0.037578314542770386, 0.024513721466064453, 1.3343772888183594, -0.011513710021972656, 1.4468040466308594, -0.48952150344848633, -2.7838597297668457, 0.0048711299896240234, -0.05571937561035156, 0.005931854248046875, -3.5185775756835938, -0.008782155811786652, -3.642131805419922, -0.0033177807927131653, 0.754603385925293, 0.017015039920806885, -0.30831634998321533, 0.060101866722106934, -0.011307716369628906, 0.6154035925865173, -11.561592102050781, -71.45465087890625, 0.36789822578430176, 0.40825939178466797, -0.1094052791595459, -0.002154707908630371, -0.19574737548828125, -0.054229736328125, -0.355621337890625, 0.06727218627929688, 0.13160771131515503, 2.1206817626953125, 1.947035789489746, 0.07307958602905273, 8.894096374511719, -0.12863922119140625, -0.8624813556671143, -0.018605589866638184, 0.0524209588766098, 0.014979243278503418, -0.0724915862083435, 1.8096952438354492, -0.8708082437515259, -1.1989250183105469, 0.8772182464599609, -0.07739639282226562, -2.7390308380126953, 0.05782318115234375, 0.00046336278319358826, 0.05927300453186035, 0.019229821860790253, -0.18817710876464844, 1.8155574798583984, -0.06293618679046631, -56.31353759765625, -0.0014128684997558594, -1.7932348251342773, 0.03205189108848572, 1.8333969116210938, 1.8379626274108887, 0.0057986825704574585, 0.021269798278808594, -8.652236938476562, 0.018626093864440918, 0.0060242414474487305, 0.6485824584960938, -0.7544898986816406, -0.0802384614944458, 0.007984161376953125, 0.06443595886230469, -0.37728166580200195, 2.260465621948242, 0.0074825286865234375, 0.2799186706542969, -1.47161865234375, 0.05493071675300598, -1.1061286926269531, 0.5210428237915039, 0.23692798614501953, -11.759185791015625, 0.005501508712768555, 0.12061119079589844, 0.00366904865950346, 118.78704833984375, -0.4498772621154785, -0.048297882080078125, -0.5649776458740234, 0.11413192749023438]
3: [0.07620477676391602, -0.00022134371101856232, 0.11003389954566956, 3.0554251670837402, -0.028052449226379395, -0.008682936429977417, -0.024867892265319824, 0.001427527517080307, 0.07606393098831177, 0.0009077319409698248, -0.0017511546611785889, 0.08797448873519897, -0.00012252666056156158, 0.0058380067348480225, 0.1463789939880371, -0.019208483397960663, 0.03974836692214012, 0.04316332936286926, 0.22789227962493896, 0.11973381042480469, 0.0030814632773399353, -0.0006232447922229767, -0.05777585506439209, 1.969746470451355, -4.744407653808594, 0.05882883071899414, -0.07581210136413574, -3.304972779005766e-06, -1.1826190948486328, -0.4086275100708008, 0.1309393346309662, -0.007841229438781738, 0.004282206296920776, 0.18701410293579102, 0.024316370487213135, -0.24822187423706055, 0.018323659896850586, -0.00048222276382148266, 0.08126664161682129, -0.001837611198425293, -0.048152804374694824, 0.01619008183479309, -0.007492348551750183, 0.02008742094039917, -0.0711926743388176, 0.0004987046122550964, -0.24535727500915527, 0.008079513907432556, -1.8121986389160156, -0.01922553777694702, -0.025978386402130127, -0.004634713754057884, -0.0026145586743950844, -1.0983672142028809, -0.07359743118286133, 0.22614717483520508, -0.00020199455320835114, 0.018456995487213135, -0.00172346830368042, 1.459649920463562, -0.026645660400390625, -0.06339949369430542, -0.06318196654319763, -0.029201939702033997, -0.03440520167350769, -0.002245604991912842, 0.002605818212032318, 0.0994819700717926, 0.25651049613952637, -0.008210752159357071, 1.6409225463867188, -0.036135490983724594, 0.025167077779769897, 0.0036330167204141617, -0.019254326820373535, -0.016858786344528198, -0.11510515213012695, 0.8550859689712524, -0.052046775817871094, -0.04223345220088959, -0.8014430999755859, -0.0038966909050941467, -9.68659296631813e-05, 0.014536608010530472, 0.0004151538014411926, 0.012351274490356445, 0.2685832977294922, -0.0022367388010025024, -0.0017737727612257004, -0.0001840628683567047, -0.0003936951979994774, -0.007701996713876724, -0.0052793920040130615, 0.007771007716655731, -0.004086792469024658, -0.00024960003793239594, -0.007180009037256241, 0.002473965287208557, -0.004636943340301514, 3.428068161010742, 0.061663031578063965, 0.004559911321848631, 0.08517032861709595, -0.008414460346102715, 0.25029778480529785, -0.19936704635620117, -0.05048005282878876, 0.0017010606825351715, -0.037844687700271606, -0.24799060821533203, -0.0013997964560985565, -0.005028553307056427, -0.019360899925231934, -0.23645305633544922, 0.0003651715815067291, 0.0018509887158870697, -0.002158135175704956, -0.2709650993347168, 0.00788050889968872, 8.599658031016588e-06, 0.06379890441894531, 0.010509692132472992, -0.06899547576904297, -0.00012617185711860657, 0.24731647968292236, -0.2041257619857788, 0.006407923996448517, 0.003800041973590851, -0.10971194505691528, -0.005088455975055695, 0.005553726106882095, -0.0013738349080085754, 6.628124237060547, 0.08789166808128357, -13.578437805175781, 0.00150374136865139, 0.0004515647888183594, -2.5191571712493896, 0.4915313720703125, -0.0009369486942887306, 0.6747642159461975, -0.06520754098892212, -0.00725555419921875, 0.09589385986328125, 0.03637039661407471, 0.0009915903210639954, 0.010112762451171875, 0.004390217363834381, -0.5649416446685791, -0.001694176346063614, 0.14168179035186768, -0.0009529069066047668, 0.00701749324798584, -0.007021665573120117, 0.004055023193359375, -8.843885734677315e-05, 0.06652501225471497, -0.002794697880744934, -0.1189490258693695, -0.03526878356933594, 0.34232139587402344, -0.01080179214477539, -0.007030576467514038, -0.007622851058840752, -0.0001601874828338623, 9.778281673789024e-05, 0.0009345188736915588, -0.0009658485651016235, -0.35504764318466187, -0.0009733289480209351, -0.0025982558727264404, -0.01772630214691162, -0.13338136672973633, -0.02304363250732422, 0.019626915454864502, 0.004339531064033508, 0.008820891380310059, 0.7129502296447754, 0.20314860343933105, 0.033056437969207764, -11.874549865722656, 0.31864356994628906, -0.01972055435180664, -0.0046735405921936035, -0.05032193660736084, 0.0034083500504493713, 0.10567012429237366, -0.02213728427886963, -0.0478363037109375, -0.09203290939331055, -0.1116454005241394, 0.002842102199792862, 0.0026931315660476685, 0.0025775860995054245, -0.01576027274131775, 0.004847407341003418, -0.0017708037048578262, -0.4832659959793091, -0.01146388053894043, 0.005397289991378784, 0.0035419464111328125, 3.1082615852355957, -0.15877962112426758, 0.027651697397232056, -0.004982292652130127, -0.00551295280456543, 0.006237484514713287, -0.8317184448242188, -0.13279879093170166, 0.000983884558081627, -0.0885244607925415, -0.010704457759857178, -1.1768016815185547, -2.3243861505761743e-05, 0.00036498112604022026, -0.00019635166972875595, -0.18616819381713867, -0.0002486482262611389, 0.018826916813850403, 0.00010835006833076477, 0.003319626674056053, -0.000744563527405262, 0.026773452758789062, 0.0010254709050059319, -26.5889892578125, 0.009135961532592773, -0.05077216029167175, 0.07021713256835938, 0.12476921081542969, 0.001242457889020443, -0.009110303595662117, 0.07513773441314697, 0.1406097412109375, 0.0002970481291413307, -0.07011055946350098, -2.1243467926979065e-05, 0.009999819099903107, 0.0009752083569765091, -0.005872577428817749, -0.006978750228881836, 12.54616928100586, -0.0027146637439727783, 0.0011878535151481628, 0.0024296753108501434, -0.05861854553222656, 0.0018949955701828003, -1.5121917724609375, -0.021091461181640625, -0.07893478870391846, 0.006755858659744263, -0.681570291519165, -0.1255650520324707, 0.002074599266052246, -0.0004439540207386017, -0.04993724822998047, -0.002313923090696335, -1.2671928405761719, 0.00011027837172150612, -0.03593449294567108, 0.006986305117607117, 0.06021082401275635, -0.008387893438339233, 0.8268375396728516, 0.0005253634881228209, -0.17771053314208984, 0.005145952105522156, 0.3784966468811035, -0.04149320721626282, -0.8834419250488281, 0.0631977915763855, 0.33102917671203613, -3.541819751262665e-06, 0.047891974449157715, -0.041487693786621094, -1.482194423675537, 0.0011492948979139328, -0.04501485824584961, -0.00030093640089035034, 0.13551712036132812, -0.0018062293529510498, 0.034139275550842285, -0.00014782976359128952, 0.01526188850402832, -6.137322634458542e-05, 0.19678401947021484, -0.2592095136642456, -0.004102848470211029, -0.00432276725769043, -0.0005051144398748875, 3.9292615838348866e-05, -0.0204545259475708, -0.006120145320892334, 0.008584737777709961, 1.0682852007448673e-05, 0.01898479461669922, -0.0009255111217498779, 0.0005990983918309212, 0.0001697592670097947, -0.0034483298659324646, 0.0005074813961982727, -2.177699089050293, 0.012564081698656082, 0.004152754321694374, 1.9275903468951583e-05, 0.4909536838531494, 0.00930023193359375, -0.008825719356536865, -0.0013739466667175293, -0.0004217359237372875, 0.4168574810028076, 0.010493576526641846, -0.003827519714832306, -0.0038183927536010742, 0.0031644105911254883, -0.022387966513633728, 0.14593243598937988, -0.014619827270507812, -0.00028908951207995415, -0.12603724002838135, 0.009240150451660156, 0.00315060093998909, 0.0004833787679672241, 0.005749359726905823, -0.018449515104293823, -0.061099737882614136, -0.0005699917674064636, 0.0027228649705648422, -0.03281177580356598, 0.06283485889434814, 9.200163185596466e-05, 0.0015328973531723022, -0.023716986179351807, -0.0029463469982147217, -0.008198469877243042, 0.00616687536239624, -0.00014305859804153442, -0.012659646570682526, 0.001977685373276472, 0.11366105079650879, -1.5095807611942291e-05, -0.578249454498291, -0.0004539191722869873, 0.00045747309923171997, 0.6656981706619263, 0.18067026138305664, 0.5829988718032837, 0.6642494201660156, -0.00014354451559484005, -0.006276756525039673, 0.0019166343845427036, -0.011803314089775085, 2.3285675048828125, -0.09637165069580078, -0.006348485127091408, 0.030109405517578125, 0.27108633518218994, 0.004966139793395996, 0.030643701553344727, 0.36925292015075684, 3.7590041756629944e-05, -0.04911339282989502, 0.005248755216598511, 0.011527299880981445, 0.0003179991617798805, 0.021233320236206055, 0.000164729543030262, 0.010941475629806519, -0.006189014762639999, 1.7946081161499023, -0.00011586630716919899, 1.5907096862792969, 0.008425790816545486, -0.031081601977348328, 8.57317354530096e-05, -0.03226661682128906, 6.790691986680031e-05, 0.03200531005859375, 0.00020959973335266113, -8.058617822825909e-06, 8.802884258329868e-05, -0.022870078682899475, 7.63116404414177e-05, 0.048966288566589355, -0.003296881914138794, 0.4112817049026489, 0.0006284741684794426, 0.03138788044452667, 0.004663359373807907, -0.0012431144714355469, -0.026068031787872314, -0.6439623832702637, 0.06380462646484375, -0.00208234041929245, -0.0060517191886901855, 0.934718132019043, -0.002409316599369049, 0.0547642707824707, 0.2906511425971985, 0.03161454200744629, -8.061854168772697e-05, 0.0005950368940830231, 0.028524935245513916, 0.0006315978243947029, 0.0005491748452186584, 0.4646449089050293, -0.0008183196187019348, 0.06373012065887451, 0.001791626214981079, -0.039218902587890625, 0.006775021553039551, -0.02332693338394165, 0.006037172861397266, -0.07032382488250732, 0.00042741140350699425, -0.1424398422241211, -0.00816906988620758, -0.639786958694458, -0.042934298515319824, -3.009899139404297, 0.0008138418197631836, -1.3597140312194824, -0.004445910453796387, 0.0006661396473646164, 0.003636300563812256, 0.11497706174850464, 0.04944753646850586, 0.05750624090433121, 2.6643247110769153e-06, -0.010513663291931152, 1.4350633136928082e-05, -0.05025249719619751, -0.0031342804431915283, 0.0040245503187179565, -0.0034944117069244385, -0.01589226722717285, -1.848628744482994e-05, -0.0023639239370822906, 0.002990126609802246, -0.0036615021526813507, 0.021905481815338135, -0.002843886613845825, -0.004740238189697266, 0.019264325499534607, 0.6476826667785645, 1.3299331665039062, -0.0069647785276174545, 0.10074454545974731, 0.5308717489242554, -0.0966164767742157, 0.0015816688537597656, -0.10215127468109131, -0.002650892361998558, -0.0026740282773971558, 0.01351182907819748, 0.029035747051239014, 0.360137939453125, 0.032042451202869415, -0.010208159685134888, 0.00018466217443346977, 0.2894768714904785, 0.005208060145378113, -0.0006475150585174561, 2.0732986740767956e-06, 0.015090405941009521, -0.00042516738176345825, 0.0005553672090172768, 0.5263383388519287, -0.00010708626359701157, -0.031656816601753235, 0.04561060667037964, -6.041412353515625, -0.006376959383487701, -2.1649093627929688, 0.0033075660467147827, 0.0008173398673534393, 0.4675636291503906, -0.026028335094451904, 0.0008228868246078491, 0.0003644644748419523, 0.014398813247680664, -0.9646339416503906, -0.0016846861690282822, 0.2678837776184082, -0.002846221439540386, 0.052827298641204834, 0.1503443717956543, -0.004112407565116882, 0.023313581943511963, -0.7414965629577637, 0.2282211184501648, -0.0002243928611278534, 1.113070011138916, 4.221095085144043, -0.05767124891281128, 2.8544349670410156, -0.0004487857222557068, 0.008184581995010376, -0.2732720375061035, 0.004400603473186493, 0.007469474337995052, 3.2574634552001953, 0.4882380962371826, -0.28280067443847656, 14.412790298461914, 0.05413961410522461, 0.00014879927039146423, 0.018428891897201538, 0.7723424434661865, 0.8347909450531006, 1.0952539443969727, -0.27980852127075195, 0.17331171035766602, -0.27233004570007324, 0.0015204772353172302, 0.048073768615722656, 0.005643177777528763, 0.016706079244613647, 0.2630925178527832, 0.0938626378774643, 2.0278588635846972e-05, 0.0045126378536224365, 0.010257607325911522, -0.0005446725990623236, -0.021247684955596924, 0.005289927124977112, -0.014490097761154175, 0.0005019716918468475, -0.008302688598632812, 1.3477745056152344, -0.01779484748840332, -0.036210715770721436, -0.0010754279792308807, 0.12116467952728271, 2.199160575866699, 0.0027366280555725098, 1.717435359954834, -0.11337864398956299, 0.0018708258867263794, -0.2181246280670166, -0.011873915791511536, 0.3288288116455078, -0.003036361187696457, 0.03877556324005127, -0.023400723934173584, -0.2633171081542969, 0.010624833405017853, -0.026324540376663208, 0.23679733276367188, 0.039355725049972534, 0.005948543548583984, -0.0011017173528671265, 0.004919081926345825, -0.11156517267227173, 0.4124746322631836, -0.3015174865722656, -0.03712654113769531, -0.1417320966720581, -0.0013597384095191956, 0.844944953918457, 0.14800167083740234, 0.1317596435546875, 0.05776786804199219, 0.002140497323125601, -0.0756218433380127, -0.04409307241439819, -0.4690819978713989, -0.0030797719955444336, -0.003969620913267136, -0.0017211493104696274, 0.0010047489777207375, -0.011035420000553131, -0.004293283447623253, 0.03163003921508789, 0.6996697783470154, -0.4418656826019287, 0.02289968729019165, -0.3384486436843872, 0.0007369276136159897, -0.26827049255371094, 0.02154049277305603, -0.011931300163269043, -0.02105998992919922, 0.006918728351593018, 0.07282030582427979, 0.5524532794952393, 0.005637120455503464, 0.08676126599311829, 0.4812924861907959, -3.9079742431640625, -0.041484832763671875, 0.03255161643028259, 0.004365593194961548, -0.021770238876342773, 0.16743583977222443, 0.11587285995483398, -0.09784924983978271, -0.004806838929653168, -0.2469915747642517, 0.0022558271884918213, -0.02307721972465515, -0.0030688047409057617, 0.03889590501785278, 0.9593868255615234, -0.0011677760630846024, -0.2657451629638672, 0.035083286464214325, -0.006144784390926361, 0.10872435569763184, -0.0035816431045532227, 1.1615924835205078, 0.20996630191802979, -0.728510856628418, -0.0003049122169613838, -0.05848121643066406, -0.10451459884643555, -0.005106806755065918, -0.020003676414489746, -0.0007830988615751266, 0.258062481880188, 0.023249566555023193, 0.004424691200256348, -0.00508195161819458, -0.022292613983154297, -0.7478885650634766, -0.007341967895627022, -0.005328059196472168, -0.24393320083618164, -0.6444835662841797, -0.3313474655151367, -0.33377790451049805, -4.821617126464844, -0.0846090316772461, 0.0008136425167322159, 0.006676387041807175, -0.0805560052394867, 0.37903881072998047, -0.03466132655739784, 3.758103847503662, 0.006237193942070007, 0.00011247443035244942, 0.0016663949936628342, 1.7833003997802734, -0.006746843457221985, -0.007475435733795166, -2.9361495971679688, -0.013754129409790039, -1.7170257568359375, 0.014394223690032959, 0.23059505224227905, 0.0008046897128224373, -0.36856746673583984, 0.0004462776705622673, 0.15094900131225586, 0.13281452655792236, -0.0009276862256228924, 0.00011068210005760193, 0.0031573586165905, -0.0405118465423584, -0.03039368987083435, -0.0643320083618164, 0.24769484996795654, 0.022405147552490234, -0.006254252046346664, -0.0005000382661819458, -0.017815113067626953, -0.766319990158081, 0.05316475033760071, 0.10969036817550659, 0.0008261948823928833, 0.00028823642060160637, 2.4964656829833984, 0.5366247892379761, -0.003258949611335993, -0.0021001137793064117, 1.2327613830566406, -0.0009047500789165497, -0.18980121612548828, 0.03481283783912659, -0.05631732940673828, 0.004457294940948486, 0.03420376777648926, -0.0012275241315364838, 0.1240997314453125, -0.0005417626816779375, -3.8594676880165935e-05, -0.25110000371932983, -0.005378253757953644, -0.002929389476776123, -0.4257493019104004, 0.0011130403727293015, 0.22034454345703125, 0.674422025680542, 0.002394735813140869, 0.0031785964965820312, 0.566981315612793, -0.0023865997791290283, 0.0171966552734375, -0.08676868677139282, 0.6479170322418213, 0.013032793998718262, -0.11660778522491455, -0.00035262852907180786, -0.0008724238723516464, 0.013503992930054665, -0.010802268981933594, 0.007091164588928223, -0.034954339265823364, -0.0026337355375289917, -0.1175769567489624, 0.0034446604549884796, -0.01333463191986084, 0.4002516567707062, -1.319967269897461, -0.0045921169221401215, -0.5047281980514526, -0.0016923174262046814, 0.09002536535263062, -0.004755474627017975, 0.04154205322265625, 0.0005629323422908783, -6.2641754150390625, -0.0052114687860012054, 0.004191011190414429, -0.005737770348787308, 3.5898759961128235e-05, -0.011217623949050903, 0.21759521961212158, 0.005818098783493042, 0.11441850662231445, 0.10093891620635986, 0.023772984743118286, -0.0068689435720443726, -0.0028148815035820007, 0.0003231614828109741, -0.003436341881752014, -0.0005321800708770752, -0.6782369613647461, 0.0005661286413669586, 0.1434779167175293, -0.0013704746961593628, 0.014033317565917969, -0.002343297004699707, -0.006835430860519409, 0.001079833135008812, 0.47446346282958984, 0.001263895072042942, 0.04521363973617554, 0.2898435592651367, 0.4384613037109375, 0.2353973388671875, -0.013164088129997253, 0.0013174265623092651, -0.010964184999465942, 0.0026667341589927673, 0.018601059913635254, -0.008585453033447266, 0.0034536439925432205, 0.006254188716411591, -0.003819510340690613, -0.0011512376368045807, -0.1217961311340332, -0.0006878534331917763, -0.016498863697052002, -0.00496751070022583, -0.0009025223553180695, 0.11957287788391113, -0.019821897149086, -0.01830458641052246, -0.03983163833618164, 0.012642502784729004, 2.1222972869873047, 0.0026922672986984253, 0.027529597282409668, -3.1648436561226845e-05, -3.683543764054775e-05, 0.013548970222473145, -0.0018564462661743164, -0.00401432067155838, -1.1522150039672852, 0.02540910243988037, 0.04279187321662903, 0.00033057795371860266, 0.23021245002746582, -0.14469027519226074, -0.28723716735839844, -0.0019459035247564316, -0.08744928240776062, 0.00034800032153725624, 0.4184994697570801, -0.006434381008148193, 0.1559678316116333, -0.00887937843799591, -0.05274152755737305, -0.024852022528648376, -0.00030051684007048607, -0.0035854727029800415, 0.05729083716869354, -0.00035724230110645294, -0.0006273365579545498, 0.0008036494255065918, 0.00997626781463623, 0.9226188659667969, -0.007921010255813599, -0.009716726839542389, 0.008382618427276611, -0.027268648147583008, 0.202193021774292, -0.008590716868638992, -0.08063220977783203, 0.5587334632873535, -0.029062390327453613, -0.019090116024017334, -0.007310792803764343, -0.030267179012298584, -0.0011663883924484253, -0.00571209192276001, -0.00022252369672060013, -0.9320788383483887, -0.010554105043411255, -0.002042500302195549, -0.03485479950904846, 0.29922911524772644, 0.016201317310333252, -0.004044368863105774, -0.005129624158143997, -0.0010029654949903488, -0.034913450479507446, -0.05454421043395996, 0.15585803985595703, -0.0010010828264057636, -0.17083096504211426, -0.000533033162355423, 0.46881675720214844, 0.30448269844055176, -0.00018300814554095268, -0.12216567993164062, -0.42939281463623047, 0.0009119510650634766, -0.26219236850738525, -0.0010635126382112503, -0.0009463280439376831, -0.002113679423928261, 0.031184136867523193, 0.498687744140625, -0.007813990116119385, 0.014007210731506348, -2.4515886306762695, -0.0009224968962371349, -0.06754595041275024, 0.0009521069005131721, -0.23407936096191406, 0.0036119818687438965, 0.014937564730644226, 0.004040386527776718, 1.3050107955932617, 0.006736226379871368, -0.06336092948913574, 0.00911092758178711, -0.2342190146446228, 0.005082763731479645, -8.365930989384651e-05, -0.08781242370605469, 0.00038856640458106995, -0.4408283233642578, 2.035179615020752, -0.0009647011756896973, 0.6781892776489258, -0.02441304922103882, 0.10221332311630249, 0.005220286548137665, -2.128582000732422, 0.3058475852012634, -0.0027728304266929626, 0.0019257627427577972, 0.000704541802406311, 0.0009892135858535767, -0.011474132537841797, 0.0003357003442943096, 0.07641220092773438, -0.011655330657958984, 0.0006058784201741219, 0.011066928505897522, 0.010935217142105103, -0.0016489159315824509, -0.7355475425720215, -0.00019996985793113708, 0.05737709999084473, 0.0015025734901428223, -0.05528759956359863, -0.048537373542785645, -0.01848602294921875, 0.12817692756652832, -3.592082977294922, 0.021164298057556152, 0.035055845975875854, -0.006594061851501465, -0.3764076232910156, 0.0004306142218410969, -0.00019680708646774292, 0.11218273639678955, -0.05105113983154297, -0.0003951229155063629, 0.5147819519042969, -0.07683110237121582, 0.0020332448184490204, 0.2944352626800537, 0.06618660688400269, 0.0017017349600791931, -0.003569461405277252, 0.0010612383484840393, 0.8651256561279297, -0.002216049935668707, 0.04074785113334656, 0.02337290346622467, 0.0021698325872421265, -0.040979623794555664, -0.1565265655517578, 0.002527676522731781, 0.1609610915184021, 0.2540377974510193, -0.4551999568939209, 0.0019800886511802673, 0.15227746963500977, -0.0008769910782575607, 0.19103717803955078, -0.0011507607996463776, 0.0047622621059417725, 0.003128817304968834, -0.004792999476194382, 0.02483057975769043, -0.12003546953201294, 0.02238142490386963, -0.08588123321533203, -1.407042384147644, 0.04227851331233978, 1.1296534538269043, 0.013884365558624268, 0.00017949449829757214, -0.9526758193969727, -0.0376741886138916, -0.03217768669128418, 0.20177507400512695, 0.002456381916999817, 0.07431912422180176, -0.008537426590919495, -0.00012048892676830292, -0.5954532623291016, 0.010831095278263092, 0.03115038573741913, 0.01091669499874115, -0.0016085300594568253, 0.34390392899513245, -0.008991852402687073, -0.037062644958496094, 0.12908276915550232, 0.049158185720443726, 0.07136249542236328, 0.02101314067840576, -0.2484750747680664, 0.10858750343322754, 0.00017146766185760498, 0.1893301010131836, 0.00039144314359873533, -0.21635770797729492, 0.03894972801208496, 0.0010941475629806519, -1.898458480834961, 0.003618912771344185, -0.01106405258178711, 0.019498061388731003, 0.05899310111999512, -0.002524450421333313, 0.0007344335317611694, -0.013366535305976868, 0.3373699188232422, 0.00047026854008436203, 0.0017136968672275543, -0.009357184171676636, 0.013634204864501953, -0.0022597461938858032, 0.026146411895751953, 0.0035310182720422745, 0.5741760730743408, 0.0488581657409668, 0.022431716322898865, -0.0012303292751312256, -0.013675451278686523, 0.0007948249112814665, 0.005312591791152954, 0.017105601727962494, 0.01043190062046051, -0.0069427490234375, -0.00012249499559402466, 0.4098585844039917, 0.00011709117097780108, -0.48392581939697266, 0.061354681849479675, -0.009501904249191284, 0.0128326416015625, -0.026301249861717224]
