0: [0.04281274974346161, -7.375891436822712e-05, 0.012184638530015945, 0.00011316576274111867, -0.0002326286630704999, 3.7520112528000027e-07, 5.605729529634118e-05, -0.0014876449713483453, 2.805186522891745e-05, 3.38597601512447e-07, -0.001222815248183906, 0.0030825273133814335, -4.130661909584887e-05, 7.211274350993335e-06, 1.6155965568032116e-05, 6.142829079180956e-06, 0.00020965305157005787, -0.0002421512035652995, -0.008965193293988705, 0.0020859958603978157, 9.156300802715123e-05, -0.00033933730446733534, -0.0013892685528844595, 6.79610384395346e-05, 0.00610051304101944, 0.06402257084846497, 0.0021693205926567316, -1.2645527931454126e-05, -0.04539037495851517, -2.9880553483963013e-05, -0.0008098020334728062, 0.0026474795304238796, -0.0001511031878180802, 0.006965922191739082, 0.00012373026402201504, 0.0031047635711729527, 0.00011308587272651494, -3.9462220229324885e-06, -1.3398297596722841e-05, 4.573706246446818e-05, 5.135311221238226e-05, -0.00018909429491031915, -2.074951771646738e-05, 0.00034487590892240405, -0.003044582437723875, 1.9182807591278106e-06, 0.0010362884495407343, 0.002307466696947813, -0.0037385206669569016, -0.014510074630379677, -0.011017397046089172, -0.00041998986853286624, -1.6972939192783087e-05, 0.004611019976437092, 0.0005636371206492186, 0.002686570631340146, -8.913184501579963e-06, 0.00027073780074715614, 9.203051740769297e-05, 7.193787314463407e-05, 0.00020101747941225767, 0.00017282721819356084, -0.0002417595824226737, 0.0003699903027154505, 0.0003173213335685432, 0.00039442337583750486, -5.594785761786625e-05, 1.9850340322591364e-06, -0.0033564534969627857, -0.00017022877000272274, 0.010636012069880962, -2.226847573183477e-05, 4.772391548613086e-06, 5.413557664724067e-05, -0.006606739945709705, 0.005126151256263256, 0.008634746074676514, 6.880714499857277e-05, 0.0007955353939905763, 5.375419277697802e-06, 0.04727737605571747, -0.0014958189567551017, 0.00020550633780658245, 0.00011769504635594785, 0.0024936823174357414, 0.010100895538926125, -0.012381401844322681, 4.2456631490495056e-05, -1.4389786883839406e-05, 6.545151336467825e-06, 1.5821788110770285e-06, 1.577995135448873e-05, 0.0005864404374733567, 9.48731685639359e-05, -0.00026213692035526037, -3.3399959647795185e-05, -3.475337871350348e-05, 1.1296302545815706e-05, -0.007191191427409649, 0.0006321900291368365, 0.0047006006352603436, -5.65781447221525e-05, 5.336514732334763e-06, -2.5277637178078294e-05, -9.485171176493168e-05, 3.6704463127534837e-05, -0.0008493423229083419, -0.0007695004460401833, -0.00010767695493996143, -0.007305325474590063, -1.3364966434892267e-05, -0.001797027187421918, 1.380738103762269e-05, 2.159858740924392e-05, -1.991323642869247e-06, 1.996663377212826e-05, -0.00022929336410015821, 0.06961927562952042, -0.0009316147770732641, -1.120666456699837e-05, 0.023353133350610733, -0.00011110823834314942, -0.0010771093657240272, 6.00361090619117e-06, 0.00010436226148158312, -0.004015170969069004, -9.40565369091928e-05, 5.380724905990064e-05, 0.00012304569827392697, 9.784301801119e-05, -0.0011313112918287516, 4.8537149268668145e-05, 0.2079463005065918, 0.0006815499509684741, 0.006073426455259323, -0.0006719705415889621, -0.004860237240791321, -2.3122411221265793e-06, 0.02234979346394539, 1.1315339179418515e-05, 0.013063575141131878, -0.00020885281264781952, 0.00021208019461482763, 4.540313966572285e-06, -0.0008426426211372018, 0.00016677053645253181, 0.00016734539531171322, 1.5638608601875603e-05, -0.010341794230043888, -0.00045104342279955745, 0.000833593076094985, -1.862490171333775e-05, 0.00027159418095834553, -0.00027946929913014174, 0.00360015407204628, 2.9227612685645e-06, -0.0004409601096995175, -0.001491426839493215, -0.0019337229896336794, 0.002441121730953455, -0.01176514383405447, 0.001374672632664442, 6.540647882502526e-05, 3.368429315742105e-05, 5.959434201940894e-05, 3.2628468034090474e-06, 7.509905117331073e-05, 2.7706882974598557e-05, 0.011033117771148682, -0.0003767043526750058, 5.870488894288428e-05, 0.0034441272728145123, 0.002987566404044628, 0.003113238140940666, 9.400125418324023e-05, 0.003215573262423277, 0.0003748678136616945, 0.00021129442029632628, -0.03237028419971466, -0.019137920811772346, -0.017860813066363335, -0.042209893465042114, 0.031822383403778076, 0.00012931431410834193, 3.580193151719868e-05, 6.544289135490544e-06, 0.0008230045204982162, 0.0023493508342653513, -0.0016572875902056694, -0.001535335322842002, -0.0005962901632301509, 0.0007122488459572196, -0.0002396147174295038, -3.9802398532629013e-07, 0.0006091080722399056, 0.00022344247554428875, 3.786335582844913e-07, 4.515284672379494e-06, -0.01440647803246975, -5.339366907719523e-06, 9.316052455687895e-05, 0.00021853290672879666, -0.03076053597033024, -0.005373523570597172, -0.0002131018554791808, -1.5784371498739347e-06, -0.0008774524903856218, -0.13794541358947754, 0.0002856121282093227, -9.042506280820817e-05, -0.009510894306004047, 3.0623810744145885e-05, -0.0006955864373594522, 1.4430149349209387e-05, 7.071196159813553e-05, -0.0002212797844549641, -0.012589327059686184, 7.346666825469583e-05, 0.00013919892080593854, 0.00026909407461062074, 3.519860911183059e-05, -1.8668160919332877e-06, 0.0003443978202994913, -2.603226857900154e-05, -0.004365540575236082, 0.0044556111097335815, 0.0004008992400486022, 0.002289646305143833, -0.09090340882539749, 2.563660018495284e-05, -0.00021303718676790595, 6.960926839383319e-06, -0.045805104076862335, 9.201973443850875e-05, -0.025821812450885773, -0.00037364353192970157, 0.0010186757426708937, 5.482559572556056e-05, -7.128732977434993e-05, 0.040582217276096344, 0.00018810434266924858, 4.168275336269289e-05, -0.0011860006488859653, -1.210703885590192e-05, 0.05322464928030968, 0.000275636586593464, -0.09037025272846222, -0.0005145588656887412, 0.00020927711739204824, -0.00023148868058342487, -0.015674514696002007, 0.000508054334204644, 0.0031396793201565742, 0.0003107594093307853, -0.16201552748680115, -0.0014526103623211384, 0.0057993303053081036, 7.065055797284003e-06, 0.0007566649583168328, 0.001582297496497631, -0.002982593607157469, -6.473538815043867e-05, -0.23442783951759338, -5.997612788632978e-07, -0.005405333824455738, 0.00024157241568900645, 0.04725261777639389, 0.0010049763368442655, 0.003166050650179386, 3.3802934922277927e-06, 1.0095624020323157e-05, 1.4179335266817361e-05, 0.0012859454145655036, 0.12955500185489655, 0.017239198088645935, 7.105449913069606e-05, 5.554131348617375e-06, 0.0012748835142701864, 0.392843633890152, -0.0023034089244902134, -0.00019015342695638537, -0.00011254241690039635, -0.00500809121876955, -5.5709874686726835e-06, 0.12185947597026825, 0.00013861252227798104, -3.86501633329317e-05, 0.017323385924100876, 3.088982339249924e-05, 1.3403863704297692e-05, 2.7623336791293696e-06, -0.006492438726127148, 0.0007575720082968473, -2.118304109899327e-05, 3.67345055565238e-05, 7.956054469104856e-05, -4.050602365168743e-05, 8.187860657926649e-06, -0.0018598625902086496, 4.123666440136731e-05, 0.00042975833639502525, -2.649935777299106e-05, 3.523817576933652e-05, -1.8818033140632906e-06, 0.00515145855024457, -4.746794729726389e-06, 0.00135820172727108, -0.00015537985018454492, -2.529699486331083e-06, 0.00010151758033316582, 7.610781176481396e-05, -4.449205880519003e-05, -0.00025711365742608905, 0.0005998235428705812, -2.903063432313502e-05, 6.269200821407139e-05, 0.03884277492761612, -0.0001196355078718625, -3.6883080611005425e-05, -0.0002506833989173174, -0.00030734637402929366, -0.0020896908827126026, 0.0001104528782889247, -2.97970836982131e-06, -0.00011064304271712899, -2.143454912584275e-05, -0.00011578267731238157, -0.0022794543765485287, 0.01009565033018589, 2.3436448373104213e-06, -0.004152892157435417, -0.0005019827513024211, 0.0006533584091812372, -0.0005110413185320795, -0.0007989010773599148, 0.0002972596266772598, 0.00012107841030228883, -3.5306256904732436e-05, 0.002037638798356056, 0.00013975681213196367, -0.007146343123167753, -0.00040393901872448623, 8.37796542327851e-05, -9.897263953462243e-05, -0.0019573462195694447, 9.923498873831704e-05, 0.07638391852378845, 4.54446162621025e-05, -0.00023548328317701817, -3.5603297874331474e-06, 4.067479312652722e-05, 0.0004971957532688975, -0.008055266924202442, -0.0005005092825740576, 0.0006254194304347038, 2.773724918370135e-05, -0.006765278056263924, 0.0001728598726913333, 2.291273995069787e-05, -1.3519189451471902e-05, 0.0002902756677940488, -0.0011435349006205797, -0.00044603165588341653, 2.046646477538161e-05, -0.0001622560084797442, 5.733620128012262e-05, 9.985058568418026e-06, 1.7808823031373322e-05, 0.003998199477791786, 1.3092521840007976e-06, 0.008563347160816193, -6.59893048577942e-05, 0.00021513459796551615, 4.5417964429361746e-06, -0.0062000504694879055, 0.00013949368440080434, 0.09432775527238846, -2.6734931452665478e-05, 4.358716523711337e-06, 7.518928669014713e-06, 0.00011563260341063142, 0.00013612175825983286, 9.350087202619761e-05, -6.344281428027898e-05, 0.00014767865650355816, 7.511641888413578e-05, -0.0001914561726152897, -0.00012441359285730869, 0.001675900537520647, -0.00012856797548010945, 0.0038442551158368587, 0.20812176167964935, -0.0010655844816938043, -0.00019837627769447863, -0.00028188934084028006, -9.822149877436459e-06, 0.061161838471889496, 4.200577677693218e-05, 7.74591026129201e-05, -1.4798906704527326e-05, -0.00039332587039098144, -0.00021724996622651815, 1.1045021892641671e-05, 0.0014058054657652974, 0.009646455757319927, -0.0006337998202070594, 0.00010232379281660542, 0.0033809300512075424, 2.849195880116895e-05, -0.0006989538669586182, 0.0019313576631247997, 4.759776857099496e-06, 0.001440520049072802, -1.8179171092924662e-06, 0.02615429274737835, -0.0002888699236791581, 1.5320161764975637e-05, 0.008129130117595196, -0.010951410979032516, -0.0005836160853505135, 0.06326756626367569, -3.1402960303239524e-05, 1.9752384105231613e-05, -0.0002576826955191791, 0.00018047698540613055, -0.04914001747965813, -6.282165122684091e-05, -1.1367985734977992e-06, 0.00024216891324613243, -5.95636447542347e-06, -0.002372343558818102, -0.00011356291361153126, 0.0014670067466795444, -0.0029702442698180676, -0.00044899561908096075, -1.7393098460161127e-05, -0.0003470870142336935, 0.009351762942969799, 7.554920739494264e-05, -3.617840411607176e-05, -0.00021936086704954505, 7.470903801731765e-05, 0.00020574376685544848, 0.0004228315083310008, -0.004089822992682457, 9.883056918624789e-06, -0.0005112863145768642, 8.878026710590348e-05, 0.0005162180168554187, -0.00014398753410205245, 0.00021790142636746168, -0.00014428218128159642, -0.002937719691544771, -0.0008965667802840471, 2.3012595192994922e-05, 0.00038962048711255193, -0.00037325022276490927, 0.00020962918642908335, -6.364486762322485e-05, -0.0689227283000946, 5.231520481174812e-05, 2.3111157133826055e-05, -3.3259070733038243e-06, 0.0037200087681412697, 0.00036187286605127156, 1.1280004400759935e-05, 0.0001271279325010255, 1.3535707694245502e-05, -8.352636359632015e-05, -0.0006006979383528233, -0.0261294674128294, 0.00020825577666983008, -0.008382974192500114, -0.0003681147354654968, 0.0002277064195368439, 0.00015767075819894671, -8.53554010973312e-05, 0.0012469836510717869, 1.7532329366076738e-08, -0.010100116953253746, 0.15168440341949463, -7.697053661104292e-07, -0.009492144919931889, 9.385387238580734e-05, 3.751116310013458e-05, -0.0007485912647098303, -0.003384701441973448, 0.00027749480796046555, 0.0014646071940660477, -0.0008977716788649559, -0.0007307949708774686, 0.0012503927573561668, 0.0012911674566566944, 0.00013017002493143082, 0.045514557510614395, -0.0009620760683901608, 0.0019201865652576089, 0.0004684888990595937, 0.00024064656463451684, -3.674218532978557e-05, -0.20296967029571533, 0.003090257989242673, 0.12736785411834717, -0.00405436847358942, 0.14011240005493164, -7.092767191352323e-07, 9.473989484831691e-05, 0.0002710418775677681, 1.5658544725738466e-05, -0.11044196784496307, 0.0001397978630848229, -3.972617560066283e-05, 0.025051631033420563, 0.0006660708459094167, 0.11094491183757782, -4.869955591857433e-05, 0.0009136826265603304, -0.007375106681138277, 1.4411547454074025e-05, -6.494981789728627e-06, 4.8737754696048796e-05, -4.958419594913721e-07, 4.501295188674703e-05, 0.0008851856109686196, -0.0007628380553796887, 1.5650148270651698e-06, -9.076276910491288e-06, -0.003847661428153515, -0.03283205255866051, 0.0005220184102654457, 0.015160718932747841, -1.0926647519227117e-05, -0.0012403057189658284, 0.00021690560970455408, -6.170480628497899e-05, 0.00010188431042479351, -9.329547174274921e-05, 0.0023395386524498463, 3.673032915685326e-05, -0.0007396461442112923, -0.1517646461725235, 2.2790060029365122e-05, -0.002119746757671237, 0.0009446542244404554, 0.47181856632232666, -2.6337263989262283e-05, -0.0028804633766412735, -0.003941301256418228, 0.00971875712275505, -0.004308462142944336, -6.367773312376812e-05, 0.004383843392133713, 5.0913047743961215e-05, 0.0002942555584013462, 0.03288355842232704, 0.0003353541251271963, 9.762069385033101e-05, -0.0022576318588107824, -0.013413893058896065, -0.013476235792040825, 0.0067871930077672005, -0.1661321222782135, 4.2683434003265575e-05, -0.0007967744022607803, 0.001113353529945016, 0.0011220932938158512, 1.7156635294668376e-05, 5.351963409339078e-06, 0.00017824418318923563, -5.691072146873921e-08, -2.673380367923528e-05, -1.8838945834431797e-05, 0.00019111306755803525, 6.629931885981932e-05, -0.037008605897426605, -0.00011045530845876783, 0.003356927540153265, -7.683657167945057e-05, -0.00486950296908617, 0.0010032934369519353, -0.00010806432692334056, -0.10475879907608032, -0.0005665682256221771, 0.0007395574357360601, -0.03348010033369064, 2.2943200747249648e-05, 0.001296217436902225, 2.6629670173861086e-05, -0.0008980073034763336, -0.0015401049749925733, 0.0005224593915045261, -0.00014631444355472922, -0.0002084914594888687, -1.1346619430696592e-06, 0.004252330400049686, 0.0007700730348005891, -0.00019585269910749048, 0.0017052622279152274, 0.00014575483510270715, 1.6123929526656866e-05, -0.00011322385398671031, 0.0010400586761534214, 0.019341934472322464, -3.667370765469968e-05, 0.0001379890600219369, 4.0018989238888025e-05, 0.0002777957997750491, 0.00022306665778160095, -0.003937477245926857, 1.685770257608965e-05, 0.0020697377622127533, 0.015212025493383408, -4.150390668655746e-05, -0.15944238007068634, 0.006836079992353916, -0.00015309822629205883, 0.0006253595347516239, -6.685256084892899e-05, 1.3501557987183332e-06, -0.00013170656166039407, 0.0015482803573831916, -0.00018327761790715158, 0.0038942580576986074, 0.003295072354376316, 0.0001468355767428875, 0.002970204222947359, -0.00048027653247117996, -0.009582982398569584, -0.007242979947477579, -0.04555780813097954, 0.01163084153085947, 0.0007123596733435988, -1.1941428965656087e-06, 0.0008731675334274769, 0.0003390675992704928, 0.06363295763731003, -0.0003072177933063358, 1.972945756278932e-05, 2.4983863113448024e-05, -4.4336185965221375e-05, 7.066519174259156e-07, 0.00159980240277946, 0.002090559806674719, -0.012018975801765919, 0.006968529894948006, -0.007928209379315376, 0.00506824254989624, 2.299726475030184e-06, 7.708970224484801e-05, 5.015529313823208e-05, 2.747023245319724e-05, -8.655187411932275e-05, 0.025476600974798203, 0.0041757188737392426, 2.1930854927632026e-05, 1.3552313248510472e-05, -0.00013957383634988219, 0.0006094952113926411, 0.000697900599334389, -0.11939035356044769, -0.0024341766256839037, 0.004575053229928017, -0.00023592579236719757, 1.3200588000472635e-05, 0.0002932753413915634, 0.0005591697990894318, -0.0015442939475178719, -0.012703176587820053, -0.0003576304588932544, -6.252389721339568e-05, -0.12735193967819214, 9.890127330436371e-07, -2.1112446120241657e-05, 8.493813220411539e-05, -0.0035181352868676186, -0.0012515466660261154, 0.00027422228595241904, 0.00035730161471292377, 9.967492223950103e-05, 0.006747242994606495, 0.00025913468562066555, -8.278544555651024e-06, 0.018506735563278198, -9.06044169823872e-06, 7.634672329004388e-06, -0.0002257219748571515, 3.1536845199298114e-05, -6.509019294753671e-05, 0.05858238413929939, -0.0004946284461766481, 0.028795700520277023, 0.00023546305601485074, 0.00046121340710669756, 0.0003459012368693948, 0.011663910001516342, -0.0028337803669273853, 0.00455388193950057, 0.000878828635904938, 8.805494871921837e-06, 0.00294483988545835, -0.001154051162302494, -1.8964012269861996e-05, -9.05443012015894e-05, 4.370875103631988e-06, 0.000419626128859818, -6.552998092956841e-05, 0.0007657249225303531, -8.539122063666582e-05, 0.0004566754214465618, -0.00039003585698083043, 2.4564313207520172e-05, 1.5834320947760716e-06, 0.0035289949737489223, 0.0007359469309449196, -0.0007618101080879569, -0.002440767828375101, -0.006412657443434, 1.653149774938356e-05, 0.0030760974623262882, 0.00011893099144799635, -0.0041275182738900185, 1.0236057278234512e-05, 0.0027450472116470337, 2.032608972513117e-05, 2.817808126565069e-05, -0.0002340645296499133, -0.0006946839857846498, -9.735166531754658e-05, 0.0013273234944790602, -0.000148982391692698, 0.0005028872983530164, -0.005299502518028021, 0.0012782672420144081, -0.0002421092358417809, 7.899577758507803e-05, -7.000751793384552e-06, -0.0017133429646492004, 1.6149151633726433e-05, 0.00011791900033131242, 3.325601574033499e-05, -0.09412150830030441, -0.0013174792984500527, 0.0003984716022387147, -0.00011928028106922284, 0.0012380876578390598, -0.00047920335782691836, 0.0011342877987772226, -3.700333763845265e-06, 0.2643422484397888, 0.005147360265254974, -0.00015117929433472455, 0.0008633675170131028, -0.005354549735784531, 6.811027560615912e-06, 0.002276630373671651, -0.00021077404380775988, -2.2291193090495653e-05, 0.0004320488078519702, -6.590621342184022e-05, 1.857486495282501e-05, -0.013304398395121098, -1.1765210729208775e-05, 2.426793798804283e-06, -1.0056495739263482e-05, 4.856309715250973e-06, 0.00015118581359274685, 0.0005899241077713668, -0.014373643323779106, 0.004580507054924965, -0.002150788204744458, 0.008300775662064552, 0.0008188321953639388, 3.808370092883706e-05, 5.872995643585455e-06, -0.00011904206621693447, 0.01932700350880623, -0.0002852807519957423, -4.420870391186327e-05, 0.02939648926258087, 1.3369848602451384e-05, 2.1687204935005866e-05, -3.582517456379719e-05, -0.0001460947678424418, 2.319535269634798e-06, 0.10253357142210007, -1.9434737623669207e-06, -0.0005585039034485817, -6.098824451328255e-05, 0.003939157351851463, -0.015669800341129303, -0.019174814224243164, -5.736552702728659e-05, -0.008061157539486885, 0.00010288916382705793, 7.051994543871842e-06, 6.231183942873031e-05, 3.105870564468205e-05, 3.2413961889687926e-05, 5.707530726795085e-05, 0.0005729348631575704, -0.00048806442646309733, -0.012232543900609016, -0.00012758243246935308, -1.7485266653238796e-05, 0.0004627675225492567, 0.011345519684255123, -0.0015228097327053547, 3.110969555564225e-05, -0.051333777606487274, 0.00012694697943516076, 0.0007968357531353831, -0.024401966482400894, -8.890835306374356e-05, -1.4766119420528412e-06, 0.0003505782806314528, 0.004261176101863384, -3.796120290644467e-05, 0.009868241846561432, -0.002339089522138238, 0.00018883861775975674, -8.324827649630606e-05, 2.672785740287509e-06, -0.00010574323823675513, -0.00013403802586253732, 6.0282181948423386e-06, -0.00028229059535078704, -7.347826613113284e-05, -0.002833205508068204, -0.0013931263238191605, 1.4148600712360349e-05, 0.03661739453673363, -2.701284938666504e-05, 0.10675425082445145, -5.214038537815213e-06, 2.481858700775774e-06, 4.603353590937331e-05, 0.062172435224056244, 0.0035232719965279102, 0.00037699396489188075, 7.606060080433963e-06, -0.002898255828768015, 4.151661414653063e-06, 0.0005024926504120231, -0.22394725680351257, -0.005463361740112305, 0.006014382466673851, -0.005919806659221649, 2.3241882445290685e-06, 0.004476414993405342, -0.00025836503482423723, 0.0050107925198972225, 0.0001036054381984286, 0.0005062836571596563, -9.800355473998934e-05, -0.020806148648262024, 2.3732660338282585e-05, -0.034943096339702606, -0.016933849081397057, -0.0013792417012155056, -0.000978052499704063, -5.734761725761928e-05, -0.19583868980407715, 0.0002998921263497323, -0.004527894780039787, 0.002879905514419079, -0.00011816082405857742, 0.29111918807029724, -0.026664864271879196, 0.005672267638146877, 8.592614904046059e-05, 0.005026341415941715, 3.365177690284327e-05, 0.00011013809125870466, 0.0004352761898189783, -0.001015359885059297, -0.0007687303004786372, 0.0011703278869390488, 1.0933785233646631e-05, -0.06692923605442047, 0.004198887385427952, -1.9909596176148625e-06, 8.597399573773146e-05, 0.00015507338684983552, 1.4065481082070619e-06, 0.011369671672582626, -8.833383617457002e-05, 0.041722722351551056, 1.5294157492462546e-05, -0.0006752674817107618, -0.017922811210155487, -0.004758509341627359, 5.9205693105468526e-05, 0.010611738078296185, -0.00012330571189522743, 0.0007005890947766602, -0.012520268559455872, 0.003631412284448743, -2.4141918402165174e-06, -6.466842023655772e-06, 0.011193787679076195, -0.0006667932029813528, 3.1832794775255024e-05, 0.03964985907077789, -0.036280445754528046, -7.705530151724815e-07, 5.8450699725653976e-05, 0.0008053723722696304, 0.00024285003019031137, -4.041052307002246e-06, -0.0025389897637069225, -0.005886788479983807, 1.2442351362551562e-06, 0.0011000435333698988, -2.9991904739290476e-05, 0.00021226215176284313, 0.006978008430451155, 0.07365357875823975, -0.00022104874369688332, 0.0010117354104295373, 1.4312130588223226e-05, 4.809445817954838e-05, 0.0012379781110212207, 0.0022572684101760387, -1.8318485672352836e-05, 0.12929442524909973, -0.00010505064710741863, 4.8562767915427685e-05, -0.00018641693168319762, -0.0002894679782912135, 9.839066478889436e-05, 0.00016007009253371507, -0.002200310118496418, -0.0008782184449955821, -0.013156039640307426, 0.006544344127178192, -0.00022585783153772354, 0.0006284638075158, -1.942627932294272e-06, 0.01253767590969801, 0.001666028518229723, -0.0004968468565493822, 3.943117189919576e-05, -1.1506763257784769e-06, -0.011509265750646591, -8.98813595995307e-05, 2.329003473278135e-05, -0.000537162646651268, 0.0002414979535387829, 0.0007669857004657388, -0.0009920685552060604, -3.5306220524944365e-07, -8.43559973873198e-07, -0.0015002129366621375, -0.017292730510234833, -3.353923966642469e-05, 0.001117750653065741, 0.021291278302669525, -0.0024634446017444134, -0.007013184018433094, 8.85025947354734e-05, 0.0002185150806326419, 3.49502224707976e-05, 9.488267096458003e-07, 7.226286106742918e-05, 0.032085806131362915, -0.002527346136048436, -0.058695949614048004, -1.1644769983831793e-05, -0.0015195085434243083, -3.653914973256178e-06, 0.015108704566955566, 2.203509211540222e-06, 4.909190465696156e-05, 8.221744792535901e-05, 0.005729779601097107, -0.00038618315011262894, -5.255223732092418e-05, -0.0008845420088618994, -0.0010123434476554394, -0.0006898505380377173, 0.0003549465909600258, 5.850853995070793e-06, 0.00048006532597355545, -0.014523915946483612, -0.0005991196958348155, 0.005243067629635334, -0.00014446672867052257, -2.9417769837891683e-06, 0.0003455184632912278, -0.0011333449510857463, 0.00012455368414521217, 0.0038587043527513742, -0.0008740066550672054, 9.421008871868253e-05, 1.0871033282455755e-06, -0.0034270184114575386, -0.0007574362680315971, -0.0014464901760220528, -0.027338631451129913, 0.00015335834177676588]
1: [-7.375891436822712e-05, 1.0404789918538881e-06, -2.086547965518548e-06, 2.123559170286171e-06, -3.82497375994717e-08, -9.405937362316763e-09, 2.802522658384987e-08, 2.1025489331805147e-06, 1.967283083104121e-07, 7.804477064610182e-10, 1.096191681426717e-06, -7.373893822659738e-06, 7.678334412730692e-08, 7.329762752306124e-07, 1.9787012206506915e-07, -9.595404435458477e-07, -1.7518830645713024e-05, 5.975095973553834e-08, 5.3304258472053334e-05, -1.0486547807886382e-07, 8.663807449238448e-10, 4.355508281150833e-06, 1.625198365218239e-06, 9.130008606916817e-07, 2.927764580817893e-05, -0.0002026424917858094, -8.725272095944092e-07, 2.1038079722757175e-08, -0.0008541246643289924, -3.67892425856553e-07, -1.247876753041055e-07, -5.128068551130127e-06, 1.495227706982405e-06, -9.648740160628222e-06, 2.844560549419839e-05, -7.650798579561524e-06, 1.1239488912906381e-06, 4.5424735617416445e-07, -2.3783909455232788e-06, 7.953275371619384e-07, 2.975880590838642e-07, -4.7768779154466756e-08, -1.0688486327126157e-06, 7.82287656875269e-09, 1.6427054561063414e-06, -3.1692977131569933e-09, 5.139402674103621e-06, -8.533250365871936e-06, 7.1929207479115576e-06, 2.8025981009704992e-05, 1.9321892978041433e-05, 5.019079253543168e-06, 2.938151055786875e-08, -1.0305047908332199e-06, 5.950025752099464e-07, -1.072624945663847e-05, 1.06141236244639e-07, -8.217125468945596e-08, 2.0977708459213318e-09, 1.5702362361480482e-06, -1.597667278474546e-07, 1.2547440064736293e-07, 2.3273225906450534e-06, 1.1461894246167503e-05, 1.1777615327446256e-07, -1.876566102509969e-07, 2.9077273211441934e-07, 1.807197236303182e-08, 0.00030159749439917505, 7.67478377383668e-06, 0.00013099343050271273, -3.424975147936493e-07, 4.331565151005634e-08, 2.7161456728208577e-07, 7.51459765524487e-06, 5.2215236792108044e-05, -5.2357288950588554e-05, 1.332733972958522e-06, 1.361890826956369e-05, -4.743245085592207e-07, -0.0002742402139119804, 1.6247398889390752e-05, -1.2570540093292948e-06, 9.197174790642748e-07, 2.3468676317861537e-06, -8.724431609152816e-06, -3.800762442551786e-07, 2.1562706820077437e-07, 2.9380173600657145e-06, 3.427910755249286e-08, 1.578193931095484e-08, -2.2124055476524518e-07, -7.599447826578398e-08, 8.914142881621956e-07, 2.105063430235532e-07, 5.499526878338656e-07, -1.971959022739611e-07, 1.9791451677519944e-07, 9.949823834176641e-06, 1.702808731351979e-05, -4.691530193667859e-06, 7.881303787371507e-08, 1.8747113017525407e-07, -6.862936174911738e-08, 5.08556126987969e-07, 1.0112014479091158e-06, 3.2508316962776007e-06, 1.767211301739735e-06, 6.0286234656814486e-05, -1.8526312487665564e-05, -7.822933412171551e-10, 1.2974749097338645e-06, 6.996137358328269e-08, 3.881661996274488e-07, 3.233335377217372e-08, -3.133102666197374e-10, 3.603000209295715e-08, -0.00020967218733858317, 8.679549864609726e-06, 1.2875456434358057e-07, -0.00032908105640672147, 1.5931398138491204e-06, -2.947487882920541e-05, -7.198370610694838e-08, 1.1885367712238804e-06, -9.267082532460336e-07, 3.529826244630385e-07, -5.212565667989111e-08, 5.220222192292567e-07, 4.165761993135675e-07, 7.839958016120363e-07, 9.71538156591123e-08, -0.0005277944728732109, 5.562876026488084e-08, -6.2950166466180235e-06, 1.207926061397302e-06, 4.545403044176055e-06, -7.895545422798023e-06, -5.1148730562999845e-05, 4.2736156835587735e-09, 4.799729504156858e-05, -5.959919917586376e-07, 3.56291138814413e-08, 5.874261660210323e-06, 1.170180212284322e-06, -3.0098132697276014e-07, 1.10185155790532e-05, 6.52856499527843e-07, 5.907705781282857e-05, 5.900196811126079e-07, -2.297831088071689e-06, 2.8600319978977495e-07, 5.294814400258474e-06, -1.4190038655215176e-07, -1.5899277059361339e-06, 5.4207511368531414e-08, 3.850424036500044e-06, 2.8763583941326942e-06, -3.1272938940674067e-06, -1.0604026101646014e-05, -9.112029601965332e-07, -2.5594368707970716e-05, 6.498579807612259e-08, 2.461767678596516e-08, -6.1850391475104516e-09, 3.2157476681504704e-08, 4.0615457663761845e-09, 4.464283165361849e-09, 2.1468142222147435e-05, 6.109893547545653e-06, 4.5849986918256036e-08, -1.0638081221259199e-05, 9.462180969421752e-06, -4.3658874346874654e-06, 1.0981648301822133e-06, -6.483382094302215e-06, 1.3678175037057372e-08, 2.5260817437811056e-06, -0.0013355100527405739, 2.7618982130661607e-05, -0.0007867530221119523, -1.6611397768429015e-07, -5.09496676386334e-05, 1.322033540418488e-07, 3.26730855704227e-08, -6.682147812853145e-08, 8.769275154918432e-07, -8.341100328834727e-05, 7.41551366445492e-06, 1.513217284809798e-07, -1.2176049494883046e-05, -2.695691819099011e-06, 3.468166369202663e-06, -1.6019555459934054e-07, -1.144995778190605e-07, 2.4189347413994255e-08, -6.659603002390213e-08, 3.4837864859582623e-07, 3.497565194265917e-05, 4.256157524196169e-07, 1.0519102033867966e-07, 2.9482996524166083e-06, 3.4298092941753566e-05, 4.608530616678763e-06, 1.546042540212511e-06, 3.384434421604965e-08, 1.3206706171331462e-05, 0.00015393632929772139, 2.178011982323369e-06, 5.617186616291292e-06, 0.00015215245366562158, 3.234554810660484e-07, -9.84075086307712e-07, -5.770992217435378e-08, 9.440856985065693e-08, 5.181439632906404e-07, 0.00011998997069895267, -8.763792891386402e-08, 5.764030674981768e-07, -5.025215159548679e-07, -9.771101758815348e-07, 6.755096393362692e-08, 7.363567533502646e-08, 2.415764654983832e-08, -6.792659405618906e-06, -1.7923866835189983e-07, 1.854174911386508e-07, 1.3867095276509644e-06, 4.8621521273162216e-05, 4.914190412819153e-06, 8.871402883414703e-07, 1.4855072549835313e-07, 0.0005362760275602341, -7.124962735360896e-07, 0.0002317475009476766, 7.908072916507081e-07, -2.4260523332486628e-06, -8.551687358249183e-08, 1.946648353623459e-06, -7.87740500527434e-05, -7.38771450414788e-06, -2.2732990601070924e-08, 3.1800634587852983e-06, -9.107095166882573e-08, -1.2727385183097795e-05, -2.0207824036333477e-07, 0.0008627374772913754, -1.2586415323312394e-06, 1.709413481876254e-07, 1.2964006600668654e-05, 6.776186637580395e-06, 3.6057576835446525e-06, -1.5338167941081338e-05, -1.197758592752507e-06, 0.00025091387215070426, 2.3703487386228517e-06, 1.710056676529348e-05, -1.8717255301226032e-08, 5.785855137219187e-06, -3.522317001625197e-06, 2.342430525459349e-05, 7.381839282061264e-07, -1.0112751624546945e-05, -1.3619422034594209e-08, 3.916215973731596e-07, -1.4710870743783744e-07, -0.0001002932622213848, -4.2800076016646926e-07, 8.369354327442124e-05, 2.8477185765041213e-07, 3.5075304367637727e-06, -3.72928283809415e-08, 5.967470428913657e-07, -0.0002527705510146916, 0.00010359417501604185, -4.0370867537831145e-08, 1.7250209793928661e-07, -3.616602953115944e-06, -0.0010534864850342274, 4.790407729160506e-06, 1.879811861726921e-09, 2.0894636065804661e-07, 9.820032573770732e-07, 1.114745558083996e-07, -0.0002195784036302939, -1.241912741534179e-06, 3.803606034580298e-07, -3.7515772419283167e-05, 1.0449944909396436e-07, -3.005705195846531e-08, 2.5009222781591234e-07, 1.2090979907952715e-05, -4.932007868774235e-07, 2.2671690658171428e-07, -7.904585430651423e-08, -1.6650373027005116e-06, 1.2171500429758453e-06, -2.9812269985995954e-08, 2.7496485017763916e-06, 2.235208427237012e-07, -2.3588212570757605e-05, -2.316066911589587e-07, 3.4934765835714643e-07, 6.720121348280372e-08, -1.181757397716865e-06, -2.3752787114972307e-07, -4.255382918927353e-06, 4.0615481111672125e-07, -1.3616768512747512e-07, 2.6193511075689457e-06, 4.5871132670072257e-07, 9.102631679525075e-07, -1.657301140767231e-08, -5.859876637259731e-07, 4.917454816677491e-07, 9.625689472159138e-07, -4.164344136370346e-05, -1.2674922800215427e-06, 1.1736884744095732e-06, 3.4558624406599847e-07, 5.276742740534246e-06, 4.414420800458174e-06, -2.0393429167597787e-09, 1.2034818155370886e-06, -4.872389354204643e-07, -9.009312407215475e-07, 1.2812013210350415e-06, 6.111238803896413e-07, -1.7457748981541954e-05, -2.1242410053190497e-09, 4.97275186717161e-06, 4.694040399044752e-06, -2.439871877868427e-07, -2.4808969101286493e-08, 3.8046533745728084e-07, -2.947500092886912e-07, 4.2507863895480114e-10, 8.853963606725301e-08, -2.831565552696702e-06, -5.253300514596049e-07, 2.194605076510925e-05, 7.450352086380008e-07, -3.105174783968323e-08, 3.2918615033850074e-07, 2.9815055313520133e-07, 2.2731474018655717e-06, 2.4669949198141694e-05, -4.6800892050669063e-07, -3.900709089066368e-09, 1.2442640695553564e-07, -3.828986905318743e-08, 9.222030712408014e-06, 7.854505383875221e-06, 3.6105011531617492e-06, 3.634473273450567e-07, 6.245716690500558e-07, 8.83258337580628e-07, 2.6005452582467115e-06, 1.9917115423595533e-07, 2.0568104730500636e-07, -1.7046731954906136e-05, 1.4469869711319916e-06, 1.4242851875678753e-07, -2.550077127239092e-08, 6.528875928779598e-08, -4.375860669370013e-07, 4.843823830924521e-08, 2.7486549925015424e-08, -7.678388101339806e-06, -9.624496755122891e-10, -2.5270070182159543e-05, 1.4285032534644415e-07, 2.0849373782994007e-08, -2.526942655123321e-09, -3.840966655843658e-06, -6.937333409950952e-07, -0.00021017953986302018, 5.711662964813513e-08, -5.452591977928023e-08, -6.932437734974428e-09, 1.6934222912823316e-08, -4.926175165564928e-07, 5.758038241765462e-07, -2.1086144386117667e-08, -3.9219057725858875e-06, -4.259950969753845e-07, 1.4080274013394956e-07, 3.7222827131699887e-07, 1.8144688510801643e-05, 1.4764275420020567e-06, -3.195817407686263e-05, -0.0006104875938035548, 2.449414978400455e-06, 1.3205941229443852e-08, 4.062457264808472e-06, 1.8573010152067582e-07, -0.00016140847583301365, 8.228272463384201e-07, 4.2777975295393844e-07, 1.7635844073993212e-07, -4.047818492836086e-06, 2.9043312679277733e-06, 3.4705713858329545e-09, -3.6839567201241152e-06, 4.89926605951041e-07, 1.1699036122081452e-06, 3.6203263675815833e-07, -9.024893188325223e-06, 2.500725599929865e-07, 1.5733030522824265e-07, -7.688420737395063e-06, -9.372536169394152e-08, 9.531178761790216e-07, 7.372626953383588e-10, 6.792001840949524e-06, 4.1110422444035066e-07, -3.782213298109127e-08, -1.763582622515969e-05, 9.083272743737325e-06, -6.257208724491647e-07, -9.691102604847401e-05, 3.720216170677304e-07, -4.516301999046846e-09, -1.9874927659202513e-07, -2.0834946212744399e-07, 8.837180212140083e-05, -6.836550596744928e-07, 2.1900055102719307e-08, -9.803173384170805e-09, 1.0395442728849957e-07, 1.410010372637771e-05, 1.0213068435405148e-06, -5.062573109171353e-06, 4.51174810223165e-06, -5.484571374836378e-08, 1.7958062414891174e-07, 8.489964784530457e-07, -2.6707424694905058e-05, -1.328887933027545e-08, -4.766292249769322e-09, 3.492364612611709e-06, -1.7324845202892902e-07, 8.08174149824481e-08, 8.106677341856994e-06, -1.9633742340374738e-05, 4.098296813026536e-09, -3.1233412300935015e-07, 2.1858368199900724e-06, -6.471780125139048e-06, 1.745684699017147e-06, 4.786915269505698e-06, 3.861636287183501e-06, 5.347061232896522e-06, 7.845684194762725e-06, 2.0655636490118923e-07, 3.57836529474298e-06, 8.920687832869589e-08, -6.705027772113681e-06, 7.4636602676037e-07, 1.5605721273459494e-05, 5.254321422398789e-09, 1.8445968308355987e-08, 4.08260021345086e-08, -9.593477443559095e-06, 3.419739005039446e-05, 1.239950506715104e-07, 5.140426310390467e-06, 9.95190241326327e-09, -2.2834603896626504e-07, -6.792085969209438e-07, 6.915661651873961e-05, -1.1861388315992372e-07, -0.0003165898087900132, 3.635819666669704e-06, -3.160913308875024e-07, 1.7540937733429018e-06, -2.526571165617497e-07, -6.480179763457272e-06, -2.8855568601215964e-08, 4.66165420220932e-06, -0.00033719639759510756, 8.603969803289147e-08, 1.0924184607574716e-05, 3.311426439722709e-07, 3.761304299132462e-07, -2.690003384486772e-07, 5.182412678550463e-06, -2.007228090405988e-07, 4.768432518176269e-06, 8.411085218540393e-06, 1.3883663996239193e-06, 5.6354647313128226e-06, 1.8730543160927482e-05, -1.6655203580739908e-05, -0.0005722063360735774, -1.9359126213203126e-07, -2.5594465569156455e-06, 6.289088923949748e-05, 1.2665550457313657e-06, -7.489475706279336e-10, -7.57479720050469e-05, -2.4752357603574637e-06, -0.0002636542194522917, -1.2741978935082443e-05, -0.0002748568367678672, -7.197772333711328e-08, 1.1146935321448836e-06, 3.6846054172201548e-06, -2.0127538391534472e-07, 6.632496661040932e-05, 8.162485755747184e-06, 2.0763218344654888e-07, -3.921808092854917e-05, -1.8731300315266708e-06, -0.00022378202993422747, -5.46871615370037e-06, -7.783967248542467e-08, 1.5633213479304686e-07, -2.1303847006493015e-06, 1.3372378759868297e-07, 3.817675064965442e-09, -2.7242668920735014e-07, 5.900603738950849e-08, -2.472847882017959e-08, 1.198169047711417e-05, 3.916420610039495e-08, 1.0822161584655987e-06, 6.398973346222192e-05, 1.3386372302193195e-05, 1.192327090393519e-07, -5.710552431992255e-05, 1.0849645804000829e-07, 7.54147322368226e-08, -3.610949988797074e-06, 5.396588562689431e-07, -9.546824912831653e-07, 3.419107542868005e-06, -5.752509878220735e-06, 1.9855372102028923e-06, 8.47760588840174e-07, 0.00026677685673348606, 7.520132783156441e-08, 4.581056418828666e-05, -3.476501433397061e-07, -0.0009226701804436743, 2.015336519889388e-08, 5.506481102202088e-06, 2.6940382667817175e-05, -3.9954906242201105e-05, 7.218287919386057e-06, 2.6417978915560525e-11, -3.9702423237031326e-05, 1.8963228285429068e-06, 2.3948214220581576e-06, -2.5977817131206393e-05, -2.4501023290213197e-05, 2.7976528826911817e-07, 3.7562519992206944e-06, -1.28505052998662e-06, 4.036082827951759e-06, 1.0496791219338775e-05, 0.00026910912129096687, 1.925676329506132e-08, -2.3686843633186072e-05, -3.130574555143539e-08, 1.263180729438318e-05, 1.6362349697374157e-07, 7.998165756362141e-07, -1.8392704532743664e-06, 4.335021941415107e-08, -2.7860626232723007e-06, -1.3855096625547958e-08, 9.189812999466085e-07, 9.713080544315744e-07, 2.453999150020536e-05, -3.1007516554382164e-08, 5.601013981504366e-07, 7.771976697767968e-07, 2.3882606910774484e-05, -4.267778876965167e-06, -3.148286964460567e-08, 7.964516407810152e-05, 8.653934855828993e-06, -5.05440596043627e-07, -0.00032742376788519323, 4.487251104023926e-08, 2.7025496819987893e-05, -1.2998157217225526e-08, -0.0002992310910485685, 2.1492601263162214e-06, -3.1441078363059205e-07, -7.711762009421363e-06, 5.285585757519584e-06, -5.549829040774057e-08, -1.9099979908787645e-06, -4.544517651083879e-08, 3.517013738019159e-06, 8.14196937426459e-06, 7.620346877956763e-07, -2.8407873742253287e-07, -1.2829184470319888e-07, 6.490796522484743e-07, -3.891660526278429e-06, 7.314972208405379e-06, 7.587213076476473e-06, -4.518818741416908e-08, -2.4264289777420345e-07, 3.791786730289459e-05, 1.1162216651428025e-05, -5.2248879001126625e-08, 8.892134246707428e-06, 4.735993206850253e-05, 1.0153704579352052e-06, 3.293147892691195e-05, 1.3330252841114998e-05, -1.6981793748982454e-07, -7.618402264597535e-08, 3.5755215321842115e-07, 4.302097522668191e-07, -2.891551957873162e-06, -9.240724239134579e-07, 5.5602200177418126e-08, -2.345166649320163e-06, 2.60638498730259e-05, 1.086517954718147e-06, -2.2306824121187674e-06, 2.696067895158194e-06, -5.397587301558815e-07, 6.795842637075111e-06, 7.564201496279566e-06, 3.05672874674201e-05, 1.2613949365913868e-05, -4.661557539975547e-08, 1.681534922681749e-05, 5.5879017963889055e-06, -0.00011074351641582325, 9.266975666832877e-07, -1.958376287802821e-07, 7.284853609235142e-08, 7.163578175095608e-07, -1.678140648664339e-08, -5.333647550287424e-07, -6.5021677073673345e-06, 3.7381128095148597e-06, -2.9110398827469908e-05, 1.7475912272857386e-06, -0.00024160731118172407, -1.8321907191420905e-07, 1.2055140814482002e-06, 2.9922233579782187e-07, 9.765406502992846e-06, 3.2731915666772693e-07, -2.9243481549201533e-05, -8.464603524771519e-06, 1.6902925281669923e-08, 4.9817366232218774e-08, 1.9928504570998484e-06, -1.0282650691806339e-05, 3.370977765371208e-06, 0.00013817637227475643, 1.9726128812180832e-05, 7.001273161222343e-08, 4.643378815671895e-06, -2.587434622114415e-08, 2.1856558305444196e-05, 4.419219840201549e-05, 7.285918400157243e-05, 0.00011923431884497404, 1.899641392810736e-05, 8.258788284365437e-07, 0.0003336760273668915, -2.1338382794056088e-07, 1.361115664622048e-07, -7.928421155156684e-07, -0.00027699212660081685, 1.978346062969649e-06, 4.049925337312743e-06, -5.071377700005542e-07, 4.487583566969988e-07, -1.2040648471156601e-05, -6.28755060461117e-07, 2.0856629134868854e-07, -6.689031579298899e-06, 1.688741768646196e-08, -1.791342185697431e-07, -7.506457677664002e-09, 5.49280443351563e-09, 6.548212638790574e-09, -0.00020131884957663715, 5.98884707869729e-06, -1.9917848476325162e-05, 1.5160806015046546e-06, -4.768348915717979e-08, -8.491148037137464e-06, -3.257500793552026e-05, 4.331992840889143e-06, -8.437977521680295e-05, -1.8076455035043182e-06, 5.245994998404058e-07, -4.3072254811704624e-06, 5.328702172846533e-07, 3.7758272242172097e-07, 1.8214127521787304e-06, -1.628564234579244e-07, -4.003773028671276e-07, 1.2081881095582503e-07, -2.442781976697006e-07, -6.86657415371883e-08, -2.2783174244978e-06, 5.630793566524517e-06, 3.4420946803948027e-07, -1.5309825585063663e-07, 0.00044569268357008696, -2.5728254513524007e-06, -2.8160118745290674e-05, 4.040341536892811e-06, -8.053716737776995e-05, 9.899819986003422e-08, 1.3261114872875623e-08, -9.325255234671204e-08, -8.910196629585698e-05, 2.0769041952917178e-07, -5.155662620381918e-06, -2.445824520691531e-07, 1.850113839907408e-08, -3.082388957409421e-07, 1.248329226655187e-06, -5.488507781592489e-08, 1.5698753486503847e-05, -4.603662091540173e-06, 2.844207074303995e-06, 8.641071872261818e-06, -4.039968189317733e-06, 2.053875959973084e-06, -7.80546116629921e-09, 2.842811568370962e-07, 2.0428633433766663e-06, -4.4243435581847734e-09, 2.68558551397291e-07, 7.572178901682491e-07, 0.00016980244254227728, 1.7980241864279378e-06, -1.4349227512866491e-06, 1.1016602456948021e-06, 1.5680525393690914e-06, 4.5343267629505135e-06, -1.4202987586031668e-07, -9.623099117561651e-08, -0.00046821971773169935, 5.330130534275668e-06, -2.2245558284339495e-07, -9.725331437948626e-07, 8.44850092107663e-06, -1.269291090011393e-07, -5.917144108025241e-08, -2.42848301468257e-07, -5.113761503139358e-08, -1.2131589528507902e-06, -2.0549893520183105e-07, 5.548415629164083e-07, -1.0129233487532474e-06, 6.285514331239028e-10, 1.2786667866748758e-06, -2.2058458171159145e-08, 1.0521628013293594e-09, 3.257333901274251e-06, 6.471509550465271e-09, 2.6311196052120067e-05, -7.253566309373127e-06, -4.097032615391072e-06, 3.1091934943106025e-05, -6.261130920393043e-07, -1.185588416774408e-06, 5.682642978399599e-08, -1.693092144705588e-06, -4.096053453395143e-05, 1.0372140422987286e-05, -1.4876142984121543e-08, -5.687766315531917e-05, 3.045716709948465e-07, 6.928814855200471e-09, 3.3807236832217313e-07, 4.6221794036682695e-07, 1.905187900774763e-07, -7.739696593489498e-05, 1.193566703250326e-07, -7.486173672077712e-07, 6.993781198616489e-07, 4.887752584181726e-05, 2.8058650059392676e-05, 0.00017646131163928658, -6.518171602465372e-08, 2.6982894269167446e-05, 1.540718130854657e-08, 7.104749499831087e-08, 9.835584933171049e-07, 2.91669266516692e-08, 3.9433157184021184e-08, 1.2672592220042134e-07, -2.7940657787439704e-07, 6.139438255559071e-07, -3.6304376408224925e-05, 7.647547022315848e-07, 9.44213951470374e-08, -3.4587702657518093e-07, -1.0484536687727086e-05, -6.105093461883371e-07, -1.4199998759067967e-06, 2.282212153659202e-05, 3.434827021919773e-06, 2.1217524590610992e-06, 4.2732230213005096e-05, -6.922462603142776e-09, -3.6278424886404537e-07, -9.84173880169692e-07, -5.572078862314811e-06, 2.0177975557089667e-07, -2.035607940342743e-05, 2.4678629415575415e-05, 6.561537020388641e-07, -1.3069694659861852e-07, -2.782398951239884e-07, -1.00813201697747e-06, -1.904957969145471e-09, -9.19482801009508e-08, 4.158830051892437e-06, -5.601165753432724e-08, 4.657833301280334e-07, 2.061201485048514e-06, 7.918142586049726e-08, -0.00010305394243914634, 3.424625560910499e-08, -0.00015052928938530385, -1.7053298506652936e-07, -1.3547482025089153e-09, 1.1520793350427994e-06, -0.00014365592505782843, -4.190023901173845e-06, 3.6770634324057028e-06, 8.20186301098147e-08, 4.934368007525336e-06, 8.169452314632508e-08, 8.139977580867708e-11, 0.00019103201339021325, -0.0001472052972530946, -9.731001227919478e-06, 2.4680441129021347e-05, 3.22011501907582e-08, 3.6234639537724433e-06, 3.679722794913687e-06, -2.9723574698437005e-05, 3.4775712265400216e-07, 2.0028137441840954e-06, 1.9982189769507386e-07, -0.0001527552813058719, -1.5103928774351516e-07, 1.1934871508856304e-05, 3.111473051831126e-05, -1.3623321137856692e-08, 9.040089935297146e-06, 6.8989993451396e-07, 0.00034891569521278143, -1.066454956344387e-06, -1.2642531146411784e-05, 1.6431772564828862e-06, 1.823595709993242e-07, -0.0011061369441449642, 4.6714412746950984e-05, 5.478302227857057e-06, 2.9445200198097154e-05, 2.1876421669730917e-06, 8.770018098402943e-07, 1.1009000445483252e-05, -1.5773737231938867e-06, 2.528245659050299e-06, 6.124861329226405e-07, -1.0146442946279421e-05, -5.450573326015729e-10, 9.528587543172762e-05, -7.276061296579428e-06, 1.271052063600564e-08, 1.8385859448244446e-06, -6.538556363011594e-10, -4.8171500566240866e-08, 0.0001280225405935198, 1.234820388162916e-07, -7.21641190466471e-05, -1.7163408472242736e-09, 6.235479190763726e-07, 0.00016765491454862058, 6.4529021983616985e-06, 1.0921096418314846e-06, 3.5728371585719287e-06, -1.6127767594298348e-05, 6.272002792684361e-07, 2.2880274627823383e-05, -4.862437208430492e-07, -8.288800756872661e-10, -2.3439534402314166e-07, -1.3332712114788592e-05, 2.1296500563039444e-07, 3.122003136013518e-07, -0.00128194410353899, 0.00038059119833633304, -5.6640509171757e-08, 1.0638357252901187e-06, -5.559508053920581e-08, -3.6248834476282354e-06, -5.197995278649614e-08, 4.818405614059884e-06, 2.7317495550960302e-05, -2.779319885348741e-08, -7.224183491416625e-07, 1.462072418689786e-08, -8.870356538182023e-08, -1.1146674296469428e-05, -3.288263542344794e-05, -4.980136054655304e-06, 2.7094911274616607e-06, 4.792694312527601e-07, 1.319041302849655e-07, -3.3961200642806944e-06, 1.201759459945606e-05, 5.663816082801532e-09, -0.00023753948335070163, 1.2235655333370232e-07, -5.352535126235125e-08, 5.000058990844991e-06, 1.4197574955687742e-06, -4.5512990709539736e-08, 9.169957593258005e-08, -4.767351128975861e-06, -1.167715595329355e-07, 2.048005990218371e-05, 3.945221578760538e-06, 1.7368108728987863e-07, 3.9254103967323317e-07, -1.777951652570664e-08, -0.00011816307960543782, 1.3462262359098531e-05, 8.742537715988874e-08, 1.227300458594982e-06, -3.948574089918111e-08, 0.0006293061887845397, 8.221655889428803e-07, 2.826561207314171e-09, -0.0001615261862752959, -5.026951725994877e-07, 3.180971361871343e-06, 1.3347570529731456e-05, -1.3880693927603716e-07, -4.9145143066198216e-08, 1.690227145445533e-05, 1.0498239134903997e-05, -6.838080253146472e-07, 6.194926299940562e-06, -3.6622117477236316e-05, 7.51507468521595e-05, 1.743755092320498e-05, 1.469316316615732e-06, 5.8776663536264095e-08, 1.1444911933722324e-06, 7.20569115486569e-09, -3.5077796383120585e-06, -6.728752487106249e-05, 2.5149975044769235e-05, 1.6391140889027156e-07, -3.231298251193948e-08, 1.1299378456897102e-05, 2.3156277961788874e-07, -1.3963542187411804e-05, -1.5728414837212767e-07, -1.011883696833138e-07, 8.318855293509841e-07, 1.5779077102706651e-06, 6.91271281993977e-07, -2.185165115520249e-08, 1.214698022522498e-05, 3.119517714367248e-06, 2.647102519404143e-05, 5.2736098155037325e-08, -7.189335349266912e-08, 7.414962965412997e-06, 8.781137694313657e-06, 2.721281271078624e-05, -9.774002137419302e-06, 8.539509508409537e-07, -1.2227895140881628e-08, -2.5002009351737797e-07, -5.848746241099434e-06, 1.1600187832527808e-07, -6.087545898481039e-07, 1.54674216901185e-06, 2.855338607332669e-06, 5.892554444386633e-09, -4.348996662884019e-05, 3.6541484860208584e-06, 3.7826473999302834e-05, -2.6158097170991823e-05, 2.159482846764149e-06]
2: [0.012184638530015945, -2.0865454644081183e-06, 0.019960753619670868, -4.858169995713979e-05, -0.0020028844010084867, 1.887269718281459e-05, 3.200771607225761e-05, -0.0008841261733323336, 2.310377749381587e-05, 4.488406557356939e-05, -0.0005602946039289236, 0.0003264263505116105, -1.6523137674084865e-05, -0.0002757232869043946, -2.059494363493286e-05, 6.318397936411202e-05, 0.0004269556375220418, 4.534865729510784e-05, -6.360228871926665e-05, -0.001697912928648293, 0.0003084103809669614, -7.383592674159445e-06, -0.013224554248154163, -1.5783563867444173e-05, 0.004687545821070671, 0.04425065219402313, 0.007727331481873989, -7.038489911792567e-06, 0.0027880724519491196, 0.00025015731807798147, -0.00046915706479921937, 0.0020797427278012037, -0.00014298950554803014, -0.010789832100272179, 0.00013771334488410503, 0.0005046167643740773, 8.114501542877406e-05, 1.003465854410024e-06, -5.571951987803914e-06, -0.00017860395018942654, 2.4494267563568428e-05, 6.98911608196795e-05, 0.00020750449039041996, -0.00033719767816364765, -0.0015921699814498425, -0.0001655200612731278, 0.0018627193057909608, -0.0002929283946286887, -0.011373687535524368, -0.005035704933106899, -0.004015331622213125, -1.6850475731189363e-05, 3.232283779652789e-05, 0.011080111376941204, -0.0014131036587059498, 0.006877085193991661, -1.038144318954437e-06, -0.0013706607278436422, 0.00027191953267902136, -3.7913723645033315e-05, 0.0020534666255116463, 0.0010253476211801171, 7.755139085929841e-05, 0.0005259930621832609, 0.0020129275508224964, 3.2307012588717043e-05, 9.677467460278422e-06, -7.164999260567129e-09, -0.0004972469178028405, 6.717058568028733e-05, 0.0007393163978122175, 5.184097244637087e-05, 1.1972624633926898e-06, 1.6871961634024046e-05, -0.002067921683192253, 0.003769116709008813, 0.0065180337987840176, -1.230455563927535e-05, -0.00017050708993338048, 5.723151843994856e-05, -0.04260580986738205, -0.00010908734839176759, 0.00015071708185132593, -3.0687282560393214e-05, 0.0018164180219173431, 0.00723667535930872, -0.007046918384730816, -0.0002675994182936847, 5.683717517968034e-06, 4.5407370635075495e-05, -2.2518561308970675e-06, 1.9481474737403914e-05, 0.0023518111556768417, -2.984739694511518e-05, 6.455516995629296e-06, -1.08243864360702e-06, 6.12485091551207e-05, 0.00025989467394538224, -0.0025478187017142773, -0.0005213915137574077, 0.0006576465675607324, 5.5049164075171575e-05, -6.531998224090785e-06, 2.569327989476733e-05, -3.179068153258413e-05, -4.520247603068128e-05, -7.256447133840993e-06, -0.0005003592232242227, -4.06212784582749e-05, -0.00419845012947917, -0.00014399779320228845, -0.0008717547752894461, 1.4391669537872076e-05, -1.3471048077917658e-05, -3.1166581493380363e-07, 0.00015704127144999802, -0.0019681835547089577, 0.04903645068407059, -0.00012808966857846826, -6.486114898507367e-07, 0.025232376530766487, -1.068663641490275e-05, 0.000605361070483923, -8.810504368739203e-06, 6.945212953723967e-05, -0.00017180133727379143, -9.496179700363427e-07, 0.0004697441472671926, 1.901455834740773e-05, 3.51580856658984e-05, -0.0004814898711629212, 0.00026174524100497365, 0.05403362214565277, -0.001190962502732873, -0.0019326056353747845, -0.0004134498012717813, -0.002909816103056073, 0.0011273142881691456, 0.0045399293303489685, 4.465960228117183e-05, 0.022795259952545166, 0.00038160185795277357, 0.0005990142235532403, -0.00013976737682241946, 0.00020733664860017598, -8.89725470187841e-07, 8.091414929367602e-05, -0.00031260919058695436, -0.006534606218338013, -0.0002716963062994182, 0.005803405772894621, -0.00012259249342605472, -5.576683543040417e-05, -0.0017070680623874068, -0.007947438396513462, -1.2306560165598057e-05, -3.751121403183788e-05, -0.0008645536145195365, 0.00014129816554486752, 0.0016127340495586395, -0.005232174415141344, 0.002396447816863656, -0.0011867107823491096, 0.00016937180771492422, 0.00024430372286587954, -9.494109463048517e-07, 0.00021763317636214197, -0.00027564758784137666, 0.005412389989942312, 3.1602758099325e-07, -0.00019036726735066622, 0.002328139264136553, -0.010149412788450718, 0.000421431235736236, 2.106637111864984e-05, 0.0007045516977086663, -0.0008448907174170017, -2.5532559448038228e-05, -0.0037276726216077805, -0.009349418804049492, 0.02373199537396431, -0.020817512646317482, 0.008769231848418713, -0.00033591283136047423, 1.7920163372764364e-05, -1.803418854251504e-07, 0.00021702720550820231, 0.0025441336911171675, -0.00022681272821500897, -5.437643267214298e-06, 0.00010240069241262972, -3.077606379520148e-06, -6.809434125898406e-05, 5.906513251829892e-06, 0.0022193139884620905, -0.0002897545346058905, 1.6141995729412884e-05, 0.00010123477841261774, -0.009924393147230148, -1.7382713849656284e-05, 2.774110180325806e-05, -5.985904499539174e-05, -0.0020699207670986652, -0.002550943987444043, -0.0015260325744748116, -6.426598702091724e-07, -4.462651486392133e-05, -0.08348821103572845, 8.516116940882057e-05, 2.7088317438028753e-06, -0.000315345183480531, -1.995333150262013e-06, 0.0017799707129597664, 1.0808959814312402e-05, 8.347410766873509e-05, -0.00013649910397361964, -0.0010944822570309043, 0.00023259519366547465, 4.5627592044183984e-05, 3.7976507883286104e-05, 3.592262146412395e-05, -3.0696261092089117e-05, 0.0013466790551319718, 2.522879913158249e-05, -0.0012871443759649992, 0.004768574610352516, -0.0010267754551023245, -0.0035090406890958548, -0.038861751556396484, 1.7945784520634334e-06, 0.0004037623293697834, -1.1564088708837517e-05, -0.01039267797023058, 5.991313810227439e-05, -0.00282847136259079, -0.00023154796508606523, 0.00012176382733741775, 0.00025529725826345384, -0.0010514690075069666, 0.012590248137712479, 0.0033414317294955254, -5.881450852029957e-05, -0.0008147659245878458, 1.049498314387165e-05, 0.008662146516144276, 0.000215136882616207, -0.008929627016186714, -0.00316287181340158, 8.799270290182903e-05, -2.791973020066507e-05, -0.011898449622094631, 0.00012443757441360503, 0.0024750521406531334, 0.0002304943627677858, -0.06106722354888916, -0.0006918413564562798, 0.003700647735968232, 3.303700214019045e-05, 0.0026636850088834763, 0.0002910441253334284, -0.0003441597509663552, -0.0004560340312309563, -0.024785902351140976, 4.409344001032878e-08, -0.028027979657053947, 0.00021767549333162606, 0.0048984382301568985, -0.0012279395014047623, -7.4680065154097974e-06, -4.411920599523e-06, -3.494987322483212e-05, 5.501994019141421e-05, 0.004280312918126583, 0.04075062647461891, 0.009286962449550629, 0.00020041203242726624, -5.538706318475306e-06, 0.0009128712117671967, 0.11669070273637772, -0.0014577050460502505, -0.003370839636772871, -6.628326809732243e-05, -0.007803179789334536, -1.2227908428030787e-06, 0.037042032927274704, -0.0019194085616618395, -2.8314600058365613e-05, 0.005050900392234325, 4.6747922169743106e-05, 5.8626479585655034e-05, -1.3505221431842074e-05, -0.003667243290692568, 0.003040933283045888, -3.05250159726711e-06, 0.000840231659822166, 0.00035960579407401383, -4.837007054447895e-06, 4.490239007282071e-05, -0.0007023221114650369, -3.0669354600831866e-05, 0.006243276409804821, 3.129038304905407e-05, 2.333262273168657e-06, 1.7317674405603611e-07, -0.007829784415662289, -2.8052709240000695e-06, 0.00018525568884797394, 0.0002606903144624084, 4.5939566462038783e-07, -4.5042070269118994e-05, 4.246149183018133e-05, -0.00031774427043274045, -6.515546556329355e-05, -0.001028875238262117, 0.0013283943990245461, -4.815982720174361e-06, 0.0072946446016430855, -6.575226871063933e-05, -0.00011021725367754698, -0.0025506350211799145, -2.1514013496926054e-05, -0.0011738055618479848, -0.00035049847792834044, -0.0005622617318294942, 0.00034230129676871, -6.92339199304115e-08, -8.927247108658776e-06, -0.0010537762427702546, -0.002910667099058628, 1.7328364265267737e-05, -0.0022375478874891996, -0.0033998440485447645, 6.761605618521571e-05, -2.0168794435448945e-05, -0.0044097271747887135, -7.507012924179435e-05, 0.0004742033197544515, 5.1904498832300305e-05, 0.005479492712765932, 0.00010264652519254014, 0.010361569933593273, -0.00024500733707100153, 0.000454483728390187, 7.004833605606109e-05, -0.009771918877959251, -5.842321115778759e-05, 0.005884874612092972, 4.0906241338234395e-05, 0.00014858266513329, 5.893981870030984e-05, -0.0004180576070211828, -0.00020624083117581904, -0.00048449146561324596, 0.0017322474159300327, 0.0021569919772446156, -1.796987999114208e-05, -0.0032052716705948114, -2.95783956971718e-05, -6.238728383323178e-05, -3.589875632314943e-07, 0.0008794545428827405, -0.0007173472549766302, -0.004220699891448021, 8.499334217049181e-05, -0.0038988227024674416, 4.362928666523658e-05, 5.169629730517045e-06, -4.523900497588329e-05, 0.0033495030365884304, 2.3848335331422277e-05, 0.009159622713923454, 0.00014935576473362744, 0.0007909783744253218, 2.3104235879145563e-05, -0.03018353506922722, 0.00010630440374370664, 0.013062736950814724, 4.03645281039644e-05, 4.901453849015525e-06, 3.6396268114913255e-05, 0.00044142876868136227, 0.00010071715951198712, -7.276322139659896e-05, -0.0004041028441861272, -0.001040864153765142, 5.8745950809679925e-05, -1.4612196537200361e-05, 0.00020227710774634033, -0.001718028332106769, -0.004900556989014149, 0.004171804524958134, 0.14995406568050385, -0.0007376449066214263, -6.475662758020917e-06, -0.0004126914427615702, -5.0025169912260026e-05, 0.01588032953441143, -9.803558896237519e-06, 4.578260632115416e-05, -2.7843034331453964e-06, -6.336063961498439e-05, -0.0014346123207360506, 0.00011505347356433049, 0.00033745344262570143, 0.009993760846555233, -0.00032587951864115894, 3.5179815313313156e-05, 0.0008577309781685472, 7.786078640492633e-06, -0.004506868310272694, 0.001452347612939775, -1.1775202438002452e-05, 0.004188441671431065, 5.9976347984047607e-05, 0.05721063166856766, -1.2106048416171689e-05, -2.796649278025143e-05, 0.0019359085708856583, -0.003455284982919693, -0.0026721488684415817, 0.02392490953207016, -0.000237064843531698, 1.5841656932025217e-05, -0.0016087191179394722, -0.0007965347031131387, -0.02270401641726494, 0.00013216448132880032, -2.42228168190195e-07, -0.00035060005029663444, -6.990022711761412e-07, 5.7657030993141234e-05, -0.0006635196041315794, 0.0010693686781451106, -0.0013704318553209305, -0.00973945576697588, -2.079606701954617e-06, 0.00037762837018817663, 0.0014865975826978683, 0.00037158222403377295, 2.7541413146536797e-05, -2.5318375264760107e-05, -0.0004071210278198123, 0.0007136274361982942, -9.550429240334779e-05, 0.003069001715630293, 1.2516003152995836e-05, 0.0016570610459893942, -4.0469538362231106e-05, -9.82099591055885e-05, -0.0011850656010210514, -8.566500764572993e-05, 6.975088035687804e-05, -0.00104041607119143, -0.0001070511425496079, 2.439272793708369e-05, 8.679518941789865e-05, -8.10678830021061e-06, 0.00014339614426717162, -7.30081410438288e-06, -0.01638033613562584, -0.00034780692658387125, 9.835369564825669e-05, -3.615145374169515e-07, 0.0005901183467358351, 1.742174572427757e-05, -7.2420139076712076e-06, -0.00013567118730861694, 1.0573553481663112e-05, 5.7142395235132426e-05, -2.3309012249228545e-05, -0.006320290267467499, -0.0004895420861430466, 0.00886446237564087, -4.1011706343851984e-05, 3.337968519190326e-05, 2.9696006095036864e-05, -0.00011366633407305926, 0.0009308683220297098, 1.1556819572433596e-06, -0.002674564952030778, 0.01532064937055111, 2.3170114218373783e-05, -0.052051518112421036, 3.775550067075528e-05, 2.3198674170998856e-05, -8.122657163767144e-05, -0.001337407622486353, -0.0007654524524696171, -0.00040495721623301506, -0.0001173637283500284, -0.0002612049283925444, 0.0003453964600339532, -0.0003734928905032575, 0.0008520823903381824, 0.014333252795040607, -0.0002938485995400697, 0.00024309984291903675, 0.011293918825685978, 5.809653157484718e-05, 4.4012176658725366e-07, -0.11985831707715988, -0.0031754907686263323, 0.02016376703977585, 0.0013676004018634558, 0.043051525950431824, 3.839953933493234e-06, -0.00022088752302806824, -2.606273483252153e-06, 9.508657967671752e-07, -0.04699859395623207, -0.00014221762830857188, -6.375845259753987e-05, 0.004670650698244572, 6.45111285848543e-05, 0.031228911131620407, 1.425407754140906e-05, 4.988386353943497e-05, -0.000990516971796751, -1.4343582733999938e-05, -5.107198717269057e-07, -0.0007861634949222207, 1.7986822058446705e-05, 3.935307904612273e-05, 7.517467020079494e-05, -7.246607856359333e-05, -0.0009704399853944778, -1.6770122783782426e-06, -0.0009643363300710917, -0.002311812713742256, -0.004430399741977453, 0.010935320518910885, 5.590158252744004e-05, 0.000263781170360744, -4.687224281951785e-05, -3.262035534135066e-05, -3.40650585712865e-05, -0.0017132641514763236, 0.0003814774099737406, -3.44025538652204e-05, -5.025606515118852e-05, -0.04975498467683792, 0.0001812350092222914, -0.0001979358639800921, 7.243898289743811e-05, 0.14721687138080597, 2.240421781607438e-05, -0.0015297974459826946, -0.027790822088718414, 0.006922612432390451, -0.0021068023052066565, -0.000645973370410502, 0.003766133915632963, 5.5573742429260164e-05, 8.956373494584113e-05, 0.004742504097521305, 3.283571277279407e-05, 1.0594234481686726e-05, -0.0008946415618993342, -0.0009554120479151607, -0.0009819762781262398, 0.005290844012051821, -0.06027065962553024, 3.586529055610299e-05, -0.0001224527513841167, 0.004395203199237585, -0.0010553584434092045, -0.001423531211912632, 0.00012103661720175296, 0.0001479790371377021, 9.00013492355356e-06, 8.298466127598658e-05, 3.9151123019109946e-06, 8.105455344775692e-05, -1.2442626029951498e-05, -0.018859926611185074, 2.3719978344161063e-05, 0.008218321949243546, -8.03097827883903e-06, 0.0002046170411631465, 6.660729559371248e-05, -0.000788154429756105, -0.0676833838224411, -5.408705874287989e-06, -0.0012659963686019182, -0.009147411212325096, 0.00021766824647784233, 0.005112181417644024, 6.147020030766726e-07, 0.00848814845085144, -0.013430606573820114, 0.0032790934201329947, 3.148055839119479e-06, -0.003127657575532794, -4.6107197704259306e-07, 0.00340071227401495, -0.002934068674221635, -2.2653021005680785e-05, 0.000749453145544976, 2.551059878896922e-05, 1.0395546269137412e-05, -0.0014835288748145103, -0.0027472805231809616, 0.020460648462176323, 0.0001743064058246091, -0.0001719632709864527, 0.0006809139740653336, 0.002079491503536701, -0.00758696161210537, 0.006198371760547161, -2.524600859032944e-06, 0.0004825518699362874, 0.016343068331480026, 4.376638571557123e-06, -0.034696828573942184, -0.006238274276256561, 1.3941180441179313e-06, 0.0031274762004613876, 0.0001545872655697167, -1.6452053387183696e-05, -8.707457163836807e-05, 0.00036775635089725256, -0.0013663405552506447, 0.0004987361608073115, -0.0023075519129633904, 6.341788684949279e-05, 9.38626762945205e-05, -0.014910466969013214, -0.0014866715064272285, 0.0016335754189640284, -0.010228029452264309, 0.007216126658022404, -0.020322319120168686, 1.5470892321900465e-05, 0.0008128636982291937, 0.0023496970534324646, 0.008127591572701931, 0.0005017039366066456, -2.965559542644769e-05, 1.667532887950074e-05, 2.642849267431302e-06, 6.713946277159266e-06, -0.001603784621693194, 0.0014796355972066522, -0.0037304528523236513, 0.008155514486134052, -0.0018919524736702442, 0.011998982168734074, 0.0009516231948509812, 1.7751424820744433e-05, 1.0475230737938546e-05, -7.84976000431925e-05, 0.00015327133587561548, 0.004732919856905937, 5.974245141260326e-05, 2.418660733383149e-05, 0.00014506421575788409, -4.235910819261335e-05, 0.0005648501683026552, 0.00020303635392338037, -0.06199035048484802, 0.0006471286178566515, 0.013306275010108948, 2.2693126084050164e-05, 0.000122562370961532, -1.2599681213032454e-05, -0.009034710004925728, -0.00040907945367507637, -0.0014514042995870113, -2.9835864552296698e-05, -3.896925591106992e-07, -0.08451475948095322, -5.804922693641856e-07, 1.9321200852573384e-06, 3.1239193049259484e-05, 0.010168757289648056, -0.00044965374399907887, 7.577698852401227e-06, 0.0017579105915501714, 6.456096889451146e-05, 0.0019191695610061288, 0.008812104351818562, -0.00010599624511087313, 0.04791983962059021, 1.4750790796824731e-05, 8.741963029024191e-06, 1.2876675100415014e-05, 3.090809332206845e-05, -0.0005751471035182476, 0.04319951310753822, -6.799713446525857e-06, 0.0024582401383668184, 5.682151095243171e-05, 0.0020885257981717587, 0.00036914978409186006, 0.014763662591576576, -0.0012686358531937003, 0.005221078637987375, 0.0018216257449239492, -1.67362013598904e-05, 0.000744489545468241, 0.004814340267330408, -0.00020259444136172533, -2.6024248654721305e-05, 1.7546226445119828e-06, -0.0007549803704023361, 6.13621341472026e-06, 0.0034703875426203012, -0.00042905888403765857, 0.0013746314216405153, 7.248580004670657e-06, 2.1744453988503665e-06, -1.2089112715329975e-06, -1.0424133506603539e-05, 0.0005502030253410339, 0.0006473059765994549, -0.0011013246839866042, -0.0006700773956254125, 9.324512211605906e-05, 0.01662306673824787, 9.256164048565552e-06, 0.008327890187501907, -4.3575724703259766e-05, 0.0008487747982144356, -2.5401335733477026e-05, 2.0431629309314303e-05, -7.432294296449982e-06, 0.0010305570904165506, -0.0006451788358390331, 0.00677134096622467, 0.0026515068020671606, 0.00022176826314534992, -0.0024711252190172672, 0.0009110814426094294, -3.053646651096642e-05, 8.300699118990451e-05, -0.00013711763313040137, 0.002910977927967906, -1.384441384288948e-05, 9.396321547683328e-05, -0.00020730429969262332, -0.0030856048688292503, -0.00793274212628603, 0.004897948820143938, -1.4351844583870843e-05, -0.004176762420684099, -5.199231600272469e-05, 0.003036638256162405, -1.0294934327248484e-07, 0.07810995727777481, 0.01691737212240696, 0.00022390350932255387, 0.00022686118609271944, -0.0026510313618928194, -9.761538422026206e-06, 0.008989168331027031, -0.0010986237321048975, -5.399368774305913e-07, 3.828817352768965e-05, -3.273811671533622e-06, -0.0002596209233161062, -0.003409405704587698, 1.7977833977056434e-06, -0.0009164762450382113, -0.00030280501232482493, -3.827682667179033e-05, -6.625669630011544e-05, 0.00042160594603046775, -0.0051165358163416386, 0.0005130092613399029, -4.5758759370073676e-05, 0.00038474611937999725, 9.034543472807854e-05, -0.000771020189858973, 3.298301817267202e-05, -1.737354978104122e-05, 0.0036260036285966635, 0.00018524230108596385, 3.3982428249146324e-07, -0.0112481489777565, -5.201531166676432e-06, -9.722371032694355e-07, -4.335594439908164e-06, -0.004918541759252548, -3.093860868830234e-06, 0.06965287029743195, -5.510909977601841e-05, 0.0011005329433828592, -4.9392283472116105e-06, -0.1307220757007599, -0.005293704569339752, -0.00203910656273365, -1.8848834315576823e-06, -0.0004896207829006016, -0.0009595819283276796, 2.9483098842320032e-06, 0.00023529028112534434, 0.00039879075484350324, 0.000104752485640347, 7.577357609989122e-05, 0.00011974947119597346, -0.004114769399166107, -0.03075353614985943, -0.000762541894800961, 4.7441899369005114e-05, 0.0014730398543179035, 0.0027836705558001995, -0.008676991797983646, -8.648246875964105e-05, -0.015977948904037476, -6.813951040385291e-05, -0.00012011687795165926, -0.009670971892774105, -0.0007796422578394413, 0.0006083599291741848, 0.00024193106219172478, 0.0012813775101676583, -1.9577440980356187e-05, 0.007574941497296095, -0.00019889898248948157, 0.00034961351775564253, 0.00024628499522805214, -1.4347788237500936e-06, -0.001008488703519106, 8.25840288598556e-06, 2.3619144485564902e-05, -4.8863032134249806e-05, 7.166886643972248e-05, -0.013288041576743126, 0.0006450111977756023, -2.63721040028031e-06, 0.025139298290014267, 1.330790837528184e-06, 0.029696255922317505, -8.57206032378599e-07, 1.5638492186553776e-05, -2.1081667000544257e-05, 0.015133283101022243, 0.0010876843007281423, 0.00012594855797942728, 2.456757465552073e-05, -0.0012904992327094078, -8.223846634791698e-07, 0.0028618513606488705, -0.13935579359531403, 0.0003096461296081543, 0.0015188992256298661, 0.0015225578099489212, 1.2547332516987808e-05, 0.009982542134821415, 8.726274245418608e-06, 0.024585582315921783, 0.0004906012327410281, 0.00012039634020766243, 0.00015288262511603534, 0.011495614424347878, 8.447572326986119e-05, -0.00936912652105093, -0.006152870133519173, -0.0005964832380414009, -9.623908408684656e-05, -6.8064919105381705e-06, -0.06933680176734924, 0.00021670186833944172, -0.011628543958067894, -0.003226158209145069, 0.00010675404337234795, 0.20540256798267365, -0.010601525194942951, 0.0035548435989767313, 0.0008326680399477482, 0.0024593654088675976, -1.5306459317798726e-05, 2.656115611898713e-06, 0.0003164256049785763, -0.0006165480590425432, -0.0003715228522196412, 0.0023927728179842234, 5.928469909122214e-05, -0.02159339003264904, -0.00010508514969842508, 1.1857703611894976e-05, -0.0006370254559442401, 0.0007313427049666643, 1.0026629752246663e-05, 0.005725319962948561, 2.1014704543631524e-05, 0.005690623540431261, -6.240406219149008e-05, 0.0009285495034419, -0.00239509716629982, -0.0017496171640232205, -9.625188795325812e-06, 0.00872052926570177, 0.00013431171828415245, 0.0022630824241787195, -0.004168223589658737, 0.0034094499424099922, 3.050983650609851e-05, 2.4082641175482422e-05, -0.004355310928076506, -0.004999823868274689, -4.283271846361458e-05, -0.08044065535068512, -0.009556448087096214, 1.8945815099868923e-05, -2.1484864191734232e-05, 0.0031018583104014397, 0.00023724569473415613, 2.6778652681969106e-05, -0.0008948284084908664, 0.004304272588342428, -1.8720838852459565e-06, 8.846667333273217e-05, 1.5494879335165024e-07, 0.0009321143734268844, 0.0012953770346939564, 0.005010073538869619, -0.0005783111555501819, 0.0014908883022144437, -7.682320756430272e-06, -4.429525142768398e-05, -8.922881534090266e-06, 0.0013095474569126964, 4.418077878654003e-06, 0.03880155831575394, -4.574376816890435e-06, 0.00026091793552041054, 7.557951175840572e-05, 0.0006065608467906713, -0.00018481186998542398, -0.0011746663367375731, -0.000796763226389885, -0.004793339408934116, -0.028682908043265343, 0.0037599895149469376, 1.0880103218369186e-05, 0.0006968263769522309, 1.5735022316221148e-05, 0.011914406903088093, 0.00028022899641655385, -0.0030778348445892334, -9.849459274846595e-06, 1.1322847058181651e-05, -0.002194929402321577, -0.0004967306740581989, 0.00011337792238919064, 0.0018276269547641277, -5.4959273256827146e-05, 0.0008751752320677042, -8.169312786776572e-05, -1.124164555221796e-06, -6.103455234551802e-07, -8.88787762960419e-05, -0.007083980832248926, 9.829310147324577e-05, 7.451133569702506e-06, 0.005819832906126976, 0.000964207632932812, -0.0001495844917371869, -3.349161124788225e-05, 1.4701495274493936e-05, -7.84700023359619e-06, 7.458301752194529e-06, 0.0008665530476719141, 0.008974013850092888, -0.00024120323359966278, -0.03103691153228283, 0.00013181529357098043, 0.005713758524507284, 0.00014870849554426968, 0.003976000472903252, 3.49014881066978e-05, 0.00010353411198593676, -2.9946600989205763e-05, -0.0033223219215869904, -0.00014111094060353935, 4.16642387790489e-06, -0.0027909826021641493, -0.0003758742823265493, 6.457303243223578e-05, -0.0010245072189718485, -9.552562005410437e-06, -4.6570683480240405e-05, -0.006425989791750908, -4.886996612185612e-05, 0.0008341165375895798, -0.0008013750775717199, 1.5406778402393684e-05, 0.0011716485023498535, -0.0014481970574706793, 0.0006758160307072103, 0.02948254719376564, -0.000294840254355222, -1.9337985577294603e-05, 6.618536190217128e-06, -0.0065781120210886, 3.871841181535274e-05, 1.7906131688505411e-06, -0.016712769865989685, -0.00010122546518687159]
3: [0.00011316582094877958, 2.123558488165145e-06, -4.8581656301394105e-05, 0.00018942348833661526, 0.00012356939259916544, -1.5176374290604144e-05, 1.500708549428964e-05, 1.702491681498941e-05, 5.02078328281641e-05, -6.198387723088672e-07, 1.0245224075333681e-05, 0.0001481733052060008, 1.1411339073674753e-07, 2.992551526403986e-05, 0.00010884062794502825, -1.2100572348572314e-06, -8.687435911269858e-05, -0.00012208141561131924, 0.0003566231462173164, 0.00031464971834793687, -2.9255661502247676e-06, 8.351131327799521e-06, 0.0006677089259028435, 0.0001557306241011247, 0.0028526526875793934, -0.0010720882564783096, -0.00021090540394652635, 8.438858856152365e-08, -0.002900538267567754, 2.9807473765686154e-05, -2.2637996153207496e-05, -0.00028116145404055715, 2.5993263989221305e-05, 0.000469791964860633, 0.00011607052147155628, 1.494988737249514e-06, 6.324544665403664e-05, 1.3958494946564315e-06, 8.518769755028188e-05, 2.4847930035321042e-05, 4.257965338183567e-05, -7.011380512267351e-05, -5.8429810451343656e-05, 6.550185935338959e-05, 3.0031769711058587e-06, 9.959002454706933e-06, -0.00034078198950737715, 1.914791573653929e-05, 0.002267827047035098, -8.407678251387551e-07, -5.49383730685804e-06, 7.075408575474285e-06, 2.7987061912426725e-07, -0.0004910711431875825, -5.0339658628217876e-05, -0.0006224411190487444, 5.792382467006973e-07, 7.559538789791986e-05, -1.4212239420885453e-06, 0.00022758023987989873, -5.5126169172581285e-05, -1.0989263500960078e-05, 7.17649090802297e-05, 4.8485126171726733e-05, -2.2989988792687654e-05, 3.294193811598234e-05, 1.865554850155604e-06, 4.627701855497435e-05, 0.0010966674890369177, 2.347050940443296e-05, 0.003829213324934244, -8.390452421735972e-06, 2.7409158064983785e-05, 1.5231339602905791e-05, -1.2706021152553149e-05, 0.00011839092621812597, -0.00010154076153412461, 0.00016051859711296856, 0.0004626125446520746, -1.108888682210818e-05, 0.0033595170825719833, 2.3184038582257926e-05, -5.336025424185209e-06, 4.136483039474115e-05, 7.67026449466357e-06, -0.0006224783719517291, -0.0002156369882868603, 7.586699211969972e-06, 1.6343117749784142e-05, 9.641109954827698e-07, 6.513433845611871e-07, 8.926017471821979e-07, -5.863511250936426e-05, 5.062054697191343e-05, -2.2854328562971205e-05, 1.1275476481387159e-06, -7.732944141025655e-06, -3.582072531571612e-05, 8.76729427545797e-06, 0.00037606339901685715, 0.00021419816766865551, 6.595209924853407e-07, 6.0954840591875836e-05, -1.7399524949723855e-06, 0.00012789529864676297, 0.0003183490189258009, 2.6724512281361967e-05, 1.038934806274483e-05, 0.00021930289221927524, -0.0017484170384705067, 1.1886179891007487e-05, 9.781377229955979e-06, 1.9508534023771062e-05, 0.0001583142438903451, 3.747598498193838e-07, -1.5355772120528854e-06, 4.565341805573553e-05, -0.0017334547592326999, 0.00013368477812036872, 1.518741044037597e-07, -0.001864676596596837, 1.4496124094875995e-05, -0.00033352215541526675, -3.3281048672506586e-07, 0.0001096404594136402, -0.00045022685662843287, 1.836953015299514e-05, -2.2839190933154896e-05, 8.58788043842651e-05, 2.73682799161179e-05, 1.5693956356699346e-06, -3.202752395736752e-06, -0.0002900715044233948, 7.045551319606602e-05, 0.002866361988708377, 8.402910680160858e-06, 0.00016838216106407344, -0.0012606559321284294, 0.0009159265318885446, -6.881913350298419e-07, 7.51552579458803e-05, -4.4049178541172296e-05, -6.537918125104625e-06, 0.00010942784138023853, -0.00020371901337057352, 5.6384205890935846e-06, -0.0001166086585726589, 2.4772743927314878e-05, 0.0014810401480644941, 6.389763711922569e-06, -0.00028193258913233876, 7.781096428516321e-06, 0.00013893598224967718, 0.000181549257831648, 2.335652243345976e-05, 1.826482957767439e-06, 4.676247772295028e-05, 1.3273283911985345e-05, -2.9546325094997883e-05, -6.365778972394764e-05, -0.0017983148572966456, -0.0001763783657224849, 5.197748396312818e-05, -5.766079084423836e-06, -3.834936705970904e-06, 1.3105590142004075e-06, -1.8864794810724561e-06, 6.204654710018076e-06, 0.0005125858588144183, 1.4608300261897966e-05, 1.2115718163840938e-05, -0.0001077158740372397, -0.0002751806750893593, 0.00014616065891459584, 6.28047127975151e-05, 2.7410635084379464e-05, 7.56641456973739e-05, 0.00015830746269784868, -0.004475120920687914, 0.00018977894796989858, -0.007170632015913725, -2.6416528271511197e-05, 0.00037231206079013646, 1.5706264093751088e-05, 2.850302917067893e-05, 5.100287125969771e-07, 0.00039765099063515663, -0.0003000959404744208, -0.00018870027270168066, -0.0007445416995324194, -0.00015522864123340696, 5.647158104693517e-06, 8.464761776849627e-06, 1.7884576664073393e-06, -2.2590262233279645e-05, 2.3151267669163644e-05, -9.959885574062355e-07, -0.00022811765666119754, 0.00028494291473180056, -1.1916354196728207e-05, 6.030226359143853e-05, 0.0002756230242084712, -0.0020277085714042187, 4.1717888962011784e-05, 5.8812023780774325e-05, 0.00011455148342065513, 3.4516800951678306e-05, 0.0008970382041297853, 7.906596874818206e-05, 1.5601786799379624e-05, 0.00048386515118181705, 6.226357800187543e-05, -0.00055301608517766, -4.52457186383981e-07, 2.635251803440042e-07, 2.827097432600567e-06, 0.0003032438980881125, -1.3267522263049614e-06, 6.933244731044397e-05, 2.151622766177752e-06, 2.5874214770738035e-06, 2.7125388442073017e-06, -1.7878319340525195e-05, 2.287144980073208e-07, 0.0030264705419540405, -0.00035221053985878825, 4.442200588528067e-05, 0.00032302539329975843, 8.746451931074262e-05, 1.6688760297256522e-05, -5.758685801993124e-06, 0.00014085110160522163, 0.0012905588373541832, -5.0141920837631915e-06, 0.0004239089321345091, 4.604865807777969e-06, 1.3517043043975718e-05, -4.171093678451143e-06, 0.00011209324293304235, 8.192738459911197e-05, -0.004867104347795248, 7.58735495764995e-06, 1.8704473404795863e-05, 8.129031812131871e-07, 0.0026725216303020716, -1.726349364616908e-05, 0.0025544462259858847, 0.00022547853586729616, 5.560602221521549e-05, 4.299060674384236e-05, 0.0005250989925116301, 0.00014549648039974272, -0.00021852817735634744, -5.783428605354857e-06, -0.0003318942617624998, 1.0272751751472242e-05, 0.00044665305176749825, -2.725450940488372e-07, 2.2412496036849916e-07, 6.387374014593661e-06, 0.00028474375721998513, 2.5223400371032767e-05, -0.008101718500256538, 1.0952095408356399e-07, 0.001127945026382804, -1.6816291463328525e-05, 0.0013188126031309366, 6.012403900967911e-05, -0.0021614977158606052, 7.983247633092105e-05, 0.00026859110221266747, -6.853611012047622e-07, 5.897073424421251e-05, 0.0002547087788116187, 0.0029438603669404984, -2.3974706664375844e-07, 5.912998312851414e-05, -1.888548104034271e-05, 0.0011879222001880407, 3.689536970341578e-05, 0.0001488800044171512, 9.202920523421199e-07, 0.001200212398543954, 3.5626743510874803e-07, 0.0004655123921111226, 0.00021778630616609007, 2.024798232014291e-05, 5.583717575063929e-05, 2.615411744955054e-07, -6.398525442818936e-07, 0.00014633944374509156, 6.169399421196431e-05, -5.7890872994903475e-05, 3.2139934091901523e-07, -2.9917622669017874e-05, -0.00012354354839771986, 3.2245202419289853e-06, -3.3593980219848163e-07, 1.0369974916102365e-05, 2.1231800928944722e-05, -0.001455723773688078, 4.085741238668561e-07, 1.0153886250918731e-05, 1.56484816216107e-07, 0.0003775332879740745, -3.5680914152180776e-06, -3.538235250744037e-05, -5.219463673711289e-06, 7.298283435375197e-07, 0.00020634513930417597, 2.8321306672296487e-05, 3.003442361659836e-05, -2.6735468054539524e-05, 0.00039558394928462803, -1.4035504136700183e-05, 5.796666300739162e-05, 0.0004252718936186284, -7.928907507448457e-06, -0.00013614473573397845, 7.077160262269899e-05, 1.2102842447347939e-05, 2.0552286514430307e-05, 3.412202568142675e-05, 5.4410993470810354e-05, -7.946815458126366e-06, 2.912259787990479e-06, 3.703603624671814e-06, -6.452839897974627e-06, 4.536937194643542e-05, -2.3535338300462172e-07, 1.8025464669335634e-05, 0.0001554653572384268, 3.633963206084445e-05, -5.309881817083806e-05, 0.0001606434816494584, 3.172590595568181e-06, -7.105006716301432e-06, 8.637857717985753e-08, -8.889576565707102e-05, -3.6117273793934146e-06, -0.00023191567743197083, 4.592716777551686e-06, -1.3895951269660145e-05, -0.000249386765062809, 0.00031127879628911614, 0.00016160128870978951, 0.0013040323974564672, -2.468227876306628e-06, -0.00019970309222117066, -1.2084001355106011e-08, 5.3663305152440444e-05, 0.0004928905982524157, -0.0005085576558485627, -1.1423945579736028e-05, -5.305644663167186e-05, 0.00021043032757006586, -1.3450880032905843e-05, 0.00018014118541032076, 0.00022066231758799404, 3.762579581234604e-07, -0.0001552439498482272, 1.757356403686572e-05, 0.00011151829676236957, -2.5858798835542984e-06, 0.0004906431422568858, 3.924469638150185e-09, 2.526368189137429e-05, 5.20346429766505e-06, -0.0016656938241794705, -2.390252689110639e-07, -0.0003179036430083215, -2.158021743525751e-07, -1.5243293091771193e-05, -7.329937261602026e-07, 0.0006911272648721933, -3.7998208881617757e-06, 0.0013002166524529457, 2.439614945615176e-07, -3.434840039062692e-07, -8.096715760075313e-07, -9.782255801837891e-06, -3.6007668313686736e-06, 0.00029196628020145, 1.3285910426930059e-05, 0.00010924906382570043, -2.1716646187996957e-06, -4.23528254032135e-05, -1.6162321117008105e-06, 0.0009217974147759378, 0.00014360237400978804, -0.0007913174340501428, -0.0047467779368162155, 1.718833482300397e-05, -1.6882011550478637e-05, 0.0008047539158724248, 5.397585482569411e-06, 0.00019432637782301754, 0.00010420017497381195, 3.523078703437932e-05, 2.1187453569382342e-07, -2.3955395590746775e-05, 0.00010858839959837496, -1.1954117553614196e-06, 1.8658209910427104e-06, -0.0021917223930358887, 5.053413133282447e-06, 5.8299956435803324e-05, 2.8461756755859824e-06, 8.361166692338884e-05, 0.00013164141273591667, -6.900152220623568e-05, -7.055841706460342e-07, -0.0002620896266307682, -7.528751666541211e-07, 0.0002252010744996369, -1.5000554412836209e-05, 0.00011069689207943156, 8.27986586955376e-05, -0.005369497463107109, 9.048210631590337e-05, -0.00045379006769508123, 1.2991116818739101e-05, 1.6900233958949684e-06, 9.794385550776497e-05, 0.0001269188360311091, 0.00032867048867046833, 1.0428520909044892e-05, 5.5820169819753573e-08, 3.2019626814872026e-05, 2.6379512974017416e-07, 0.00010902844951488078, 3.354045475134626e-05, -3.4313092328375205e-05, 1.8262666344526224e-05, 0.0004253733204677701, 3.650680184819066e-07, -1.3483058864949271e-05, 4.510242069954984e-05, -4.5009905988990795e-06, -4.5386754209175706e-05, 4.18639465351589e-05, 5.65952796023339e-05, -2.9115886718500406e-05, 0.000271401135250926, -0.007118891924619675, -9.192077413899824e-06, -0.0001564652775414288, 0.00026034394977614284, -0.00013392031542025506, 6.858860433567315e-05, 0.00019486190285533667, 7.3332876127096824e-06, -5.559065357374493e-06, 1.3359271179069765e-05, 3.351224950165488e-05, 0.00010335638944525272, -8.515535591868684e-05, 1.2604370567714795e-05, 1.5092884950718144e-06, -0.0003924270858988166, 5.26009316672571e-05, 3.70504039892694e-07, 1.2560339257561282e-07, 5.130617500981316e-05, 0.00011245124187553301, 4.7764765440660994e-06, 0.00016023285570554435, 1.0784842174871301e-07, -3.131985431537032e-05, -0.00011854879267048091, 0.00546732172369957, 2.2013009584043175e-05, -0.005381016526371241, 4.094476025784388e-06, 4.766920483234571e-06, 0.00010201940312981606, -7.95865707914345e-05, -2.699571632547304e-05, 4.8469757985003525e-08, -3.6557983548846096e-05, 0.0020157911349087954, -7.033328870420519e-07, 0.0007988263387233019, 3.7016297937952913e-06, 3.191099312971346e-05, -0.00018063538300339133, 1.178301954496419e-05, 0.00011775677558034658, 0.001713054021820426, 0.0001373135601170361, 1.639613742554502e-07, 0.00042483274592086673, 0.001242122845724225, 3.684268449433148e-05, -0.002440991112962365, -5.229966063780012e-06, 2.8643988116527908e-05, 0.00031510513508692384, 7.933030428830534e-05, -1.5023724699858576e-05, -0.0013568790163844824, 0.0006685494445264339, 0.0022724990267306566, -0.0043626027181744576, 0.00034469019738025963, 2.4845940060913563e-07, 7.975896005518734e-05, 0.00020511538605205715, 0.0001610512990737334, 0.0008572479709982872, 0.00041597598465159535, 8.228562364820391e-06, 0.00022440745669882745, 7.010494300629944e-06, 0.0005270098336040974, -1.944151517818682e-05, 4.681140126194805e-05, -0.0009592781425453722, 7.062041549943388e-05, 2.4470853077218635e-07, 3.3775766496546566e-05, 2.595583282527514e-06, 8.27662915980909e-08, 3.698801083373837e-05, 3.274478513048962e-05, 5.0782578910002485e-05, 4.417172931425739e-06, 0.00013534775644075125, -0.004128770902752876, 0.0005156066617928445, -0.0003874395042657852, -2.75223578682926e-06, -0.00022345790057443082, 0.0010600810637697577, 1.5357618394773453e-05, 0.000771644408814609, 0.00018981685570906848, 1.8182390704168938e-05, 0.0001823294733185321, -2.035708530456759e-05, -0.0002899488608818501, -1.0397461664979346e-06, 0.00010379013838246465, 3.258855576859787e-05, 0.0011659894371405244, -1.606662044650875e-05, 1.946343036252074e-05, 0.0018949423683807254, -0.00017129008483607322, 2.3474076442653313e-05, 2.4273384042317048e-05, -0.00012918694119434804, 6.18941558059305e-05, 8.268527744803578e-05, 0.0015621319180354476, 2.2586726117879152e-05, 9.801236592466012e-05, 1.7241245586774312e-07, -0.0014994952362030745, -0.001500211306847632, 9.064995538210496e-05, -0.00017167131591122597, 1.7962338461074978e-07, 0.0002310464042238891, -6.156934250611812e-05, 0.0008070968906395137, 0.00010256517271045595, 3.636046358224121e-06, -5.796596269647125e-06, -5.765032256022096e-07, -3.18838247039821e-05, -5.740289452660363e-06, 2.4561322788940743e-05, 5.970130587229505e-05, 0.00035028031561523676, -9.641109500080347e-05, -0.00014052062761038542, 7.511564490414457e-07, 0.0006017354317009449, -3.634944505392923e-06, 4.858546526520513e-05, 1.8312683096155524e-05, 3.9914550143294036e-05, 0.0001889009290607646, -0.002162089105695486, -2.261426288896473e-06, 0.00010792873217724264, 0.00014464874402619898, -0.0006715748459100723, 0.00028410047525539994, -9.539659367874265e-05, -4.3608939449768513e-05, 0.0003703154798131436, 2.8153075618320145e-05, -0.000994390808045864, 0.00023606017930433154, 1.855139635154046e-05, 0.0004353184485808015, 3.590979758882895e-05, -1.1442505638115108e-05, 0.00013304226740729064, 0.0003623919910751283, -0.0038962834514677525, 1.0648507668520324e-05, 0.0003389827616047114, 7.323463250941131e-06, -6.045727786840871e-05, 0.0006385691231116652, -8.301166235469282e-05, 9.344675345346332e-05, -4.9967566155828536e-05, 0.0012264980468899012, 3.4688268897298258e-06, -0.001186769688501954, 0.00019904872169718146, -2.8346068575046957e-05, -8.966671157395467e-05, -1.8225168787466828e-06, 0.00014482025289908051, 2.4184846552088857e-05, 1.9153982066200115e-05, 4.4326290662866086e-05, 0.00014687293150927871, 0.001585699850693345, 5.2453910939220805e-06, 4.7209407057380304e-05, -0.00028749636840075254, -0.0017898606602102518, -0.0012015876127406955, -0.000355743570253253, 0.0021686763502657413, 0.001772413612343371, 6.002119334880263e-07, 2.6531837647780776e-05, 2.4356486392207444e-06, 0.006113406270742416, -1.4673501937068067e-05, 0.00045056157978251576, 1.4604160242015496e-05, 1.0121932518813992e-06, -1.7967590792977717e-07, 0.0002632784307934344, -4.264367453288287e-05, -6.529121310450137e-05, -0.0005191384116187692, -6.290871533565223e-05, -0.0016114391619339585, -1.668100776441861e-05, 6.589903205167502e-05, 1.2618304026545957e-05, -0.0007634013309143484, -1.9054523363593034e-06, 0.0004954534815624356, 3.506526991259307e-05, 2.2830226953374222e-07, -2.470220351824537e-06, 4.582000656228047e-06, 3.465544432401657e-05, 0.0002435225760564208, 0.001743078464642167, 0.0006567707168869674, 4.374582931632176e-05, 1.5625229934812523e-05, -2.782872570605832e-06, -0.0013645438011735678, 0.002218998968601227, 0.00021203880896791816, 0.00014928006567060947, 6.833873339928687e-05, 1.1083304798376048e-06, 0.005163100548088551, 7.335841655731201e-05, 2.8425770324247424e-06, -9.01248222362483e-06, -0.004152377136051655, -1.094635308618308e-06, 0.00012923998292535543, 1.7931417460204102e-05, 2.4590763132437132e-05, 2.1423285943455994e-05, -6.752236367901787e-05, 7.775317499181256e-06, -0.0005382377421483397, -1.1729207471944392e-07, -7.367532361968188e-07, -0.00012306022108532488, 1.8799689769366523e-06, 1.2919802429678384e-05, -0.002233704086393118, 6.14930013398407e-06, 0.0015005443710833788, 0.00011588151392061263, -4.458389594219625e-05, -0.0002891313342843205, -0.002136950846761465, 1.2619040717254393e-05, -0.00029985816217958927, -5.806967965327203e-05, 0.00022669584723189473, 1.107954540202627e-05, -0.0001148481824202463, 1.434286605217494e-05, 3.6473750242294045e-06, 2.227718141512014e-06, 0.00020971623598597944, -9.498264989815652e-05, -0.0001242316357092932, 2.340133869438432e-05, -0.0006034229299984872, 7.903385267127305e-06, 6.335389480227605e-05, 6.353027856675908e-05, 0.0023631814401596785, -1.702003282844089e-05, -0.0003407882177270949, 1.8612532812767313e-06, -0.0005481113330461085, 1.3182946076994995e-06, -0.0002550683275330812, 2.7889618650078773e-06, -0.008849984034895897, 9.534538548905402e-06, 4.011699274997227e-07, -2.709857653826475e-07, 5.6341150411753915e-08, -6.686673441436142e-05, -0.0005514434888027608, 2.047314410447143e-05, 1.5063051250763237e-06, -1.168456583400257e-05, 1.3297794794198126e-05, 6.265750471357023e-06, -3.269661101512611e-05, 3.075089125559316e-06, -1.0527381164138205e-05, 1.1346193787176162e-05, -0.002189759397879243, 2.4933456188591663e-06, 7.950381404953077e-05, 3.361823837622069e-05, -0.003999744541943073, 6.813613435951993e-05, -0.00011506392911542207, 1.1872273262270028e-06, 0.0005156614352017641, 3.4341003356530564e-06, -5.020694516133517e-06, 4.6366898459382355e-05, 0.0009487270144745708, 9.703467367216945e-05, -1.2750868336297572e-05, 5.6844100981834345e-06, 6.088890950195491e-05, -3.634982022049371e-07, -0.0004057078913319856, 1.3998727808939293e-05, -5.445371016321587e-07, -4.562897629512008e-06, -5.5776363296899945e-06, 2.4190509066102095e-05, -0.00015515965060330927, -3.0241299100453034e-06, 0.00012670367141254246, -9.284322004532441e-07, 2.843655693141045e-06, 0.00025897749583236873, -3.8380698242690414e-05, 9.468601092521567e-06, 0.00019399765005800873, -0.00013646346633322537, 0.0008668451337143779, 1.3021270206081681e-05, -5.652885010931641e-05, -4.916165607937728e-08, -8.716382581042126e-06, 6.047405622666702e-05, 2.2005078790243715e-05, -4.537970198725816e-06, 0.0004866995441261679, 0.00010274392843712121, 4.172499029664323e-05, 3.4933458437080844e-07, 0.0007822462357580662, 0.00020187129848636687, -0.004094083793461323, 3.4395297916489653e-06, -0.00010149431182071567, 1.0376613772677956e-06, 0.004131395369768143, -1.8957152860821225e-05, 0.00020207383204251528, -5.756535756518133e-06, -0.0005838984507136047, 4.118577635381371e-06, 2.019853582169162e-06, 6.6920333665621e-06, -9.986713848775253e-05, 1.8565617665444734e-06, 1.7983160205403692e-07, 8.270217222161591e-06, 0.00015154479478951544, -0.0025194038171321154, 3.6449193430598825e-05, 2.4280097932205535e-07, -1.218661964230705e-05, 0.00011435794294811785, 8.819425420369953e-05, -7.010872650425881e-05, -0.0004105812404304743, 0.00035505491541698575, 0.00022677100787404925, 2.850449163815938e-06, 2.9580076443380676e-05, -0.0006757560186088085, -6.845874850114342e-06, 3.2623189326841384e-05, 2.683775164769031e-06, -0.0008755018934607506, 4.4105530832894146e-05, 2.7303644856147e-07, -1.5834950318094343e-05, 0.00010118151840288192, 0.00020780923659913242, -1.7464382835896686e-05, 7.568469300167635e-07, 7.48130469219177e-06, 5.1260034524602816e-05, 0.0003535849682521075, -0.00039906034362502396, 3.4185143249487737e-06, -0.0007566799176856875, -1.8497577229936724e-06, 0.0006703924736939371, 0.00023331984994001687, -4.865283358412853e-07, 0.0001821217010729015, 0.001741374027915299, 2.3777833121130243e-05, 9.129261889029294e-05, 4.358108753876877e-07, 1.7440446754335426e-05, 2.720029215197428e-06, -0.000138895571581088, -2.7909132768400013e-05, -0.0006078029982745647, 1.952937054738868e-05, 0.003301724325865507, 5.023425160288753e-07, 1.9536204490577802e-05, 4.290877768653445e-06, -0.0013189614983275533, 2.6429604986333288e-05, 0.00010617513180477545, -3.3648448152234778e-06, -0.003638258669525385, -1.664258775235794e-06, -0.00017493462655693293, -2.8431672035367228e-05, -0.000456901645520702, 7.749973519821651e-06, 1.0681826552172424e-06, -9.810744086280465e-05, -1.1408758837205824e-05, -0.0012323257979005575, 0.0005520004779100418, -2.543321534176357e-05, -0.0036313869059085846, -2.3730270186206326e-05, 2.8228727387613617e-05, 4.881982385995798e-05, 0.0005632470711134374, 7.054914749460295e-05, 6.778896204195917e-05, -7.244356311275624e-06, 1.3107954146107659e-05, 2.4051155378401745e-06, -0.0012917830608785152, -5.6920782753877575e-08, -0.00011760306369978935, 0.00021194083092268556, -1.0127746463695075e-07, 7.428236131090671e-05, -8.315668310387991e-06, 8.372153388336301e-07, 0.002678628545254469, -1.1666142199828755e-05, 0.00045486309682019055, 1.7498168745078146e-06, -2.198877336923033e-05, 0.00025098572950810194, 3.2344585633836687e-05, 6.227260018931702e-05, 0.00026883953250944614, -5.134426464792341e-05, -9.618532203603536e-06, -1.5865034583839588e-05, -0.000302647880744189, -2.9839549142707256e-07, -2.0220195438014343e-06, 0.000876941136084497, 0.0004661399289034307, 1.2711385352304205e-05, -0.0016806172206997871, 0.0007710715872235596, -4.5931255954201333e-07, 6.085474888095632e-05, -0.00013126916019245982, -1.742882886901498e-05, -8.204033292713575e-07, -4.743861836686847e-07, -1.5523903130088e-05, -3.597112936404301e-07, 4.446701495908201e-05, -2.7327316274750046e-05, -1.4406506124942098e-05, 0.00016803132893983275, 0.0020844335667788982, -3.425129398237914e-05, 7.298225682461634e-05, 6.956006109248847e-05, 0.00024889438645914197, 9.54343249759404e-06, 0.0006053962279111147, -3.107984639427741e-06, 0.0003661305527202785, -3.836152245639823e-06, -8.906627954274882e-06, 6.649478109466145e-06, -2.9854263630113564e-06, 3.716308856382966e-05, -2.1642845240421593e-05, -0.00011880519741680473, 0.00026421580696478486, 0.0005852871690876782, 1.9164175682817586e-05, -0.0008443410042673349, 8.235971108661033e-06, 2.291841383339488e-09, -0.0006668365094810724, 0.0008586489129811525, 0.000208827608730644, 6.442628364311531e-05, 8.694078132975847e-07, 0.002439484465867281, 2.919669532275293e-05, -1.6012544392651762e-06, 0.0014281629119068384, 9.867912922345567e-06, 5.401205999078229e-05, 2.0036000933032483e-05, 2.75278716799221e-06, 6.180800119182095e-05, 3.16308178298641e-05, 9.994169522542506e-05, 3.034292603842914e-06, 0.0004320573643781245, 0.00013500830391421914, 0.00011809800344053656, 0.00016590685117989779, 0.0001443351648049429, 1.1977049325651024e-05, 9.13373805815354e-05, 1.636124125070637e-08, -0.0002677763404790312, 0.00014069468306843191, 2.4843848223099485e-05, -0.0009117491426877677, -9.298793202106026e-07, -3.944644413422793e-05, -3.8369398680515587e-07, 0.00018702597299125046, -5.837118806084618e-06, -4.936778168485034e-06, 2.8024196581100114e-05, 0.00274607352912426, 1.3265136544760026e-07, -6.9444231485249475e-06, 0.00013406475773081183, 0.0006067213835194707, 5.294880975270644e-05, 0.0001230932684848085, 5.486012923938688e-07, 0.0003731351171154529, 0.00018410885240882635, 0.00010416821169201285, 8.513395732734352e-05, 3.4989316191058606e-05, -3.2204951594394515e-08, -4.5168071665102616e-05, -5.474568752106279e-05, -9.795277946977876e-06, -0.00016653258353471756, -1.5865725799812935e-06, 0.00012440510909073055, -2.934825715783518e-10, -0.0007660688715986907, 7.565750274807215e-05, 6.300433597061783e-05, 8.764425001572818e-05, 6.42165687168017e-05]
