0: [-0.9820783138275146, 4.865839958190918, 15.650687217712402, -0.2274012565612793, -11.09199047088623, -14.284223556518555, -1.7697596549987793, 10.138541221618652, 37.32389831542969, 16.028453826904297, 1.3192057609558105, 6.106661319732666, -10.511758804321289, -1.9864263534545898, 21.766536712646484, -17.210599899291992, 1.2997081279754639, 9.218816757202148, 5.829835891723633, 16.932151794433594, 21.522348403930664, 0.2824583053588867, -2.686373233795166, -0.09461212158203125, 3.0707130432128906, -5.3341779708862305, -49.3322868347168, -8.799110412597656, -0.08242010325193405, -7.567167282104492, 2.3124923706054688, -13.817383766174316, 0.029886692762374878, 3.5815024375915527, 3.8182878494262695, 10.923497200012207, 7.753593444824219, -11.706899642944336, -14.785918235778809, -8.213811874389648, -8.602267265319824, 18.580120086669922, 1.2504558563232422, 13.10242748260498, 6.719414710998535, -24.588937759399414, -16.770648956298828, 13.267451286315918, 3.7798080444335938, -19.725330352783203, 4.890823841094971, 0.1069842055439949, 4.165237903594971, 6.182276248931885, 12.126468658447266, 1.5325336456298828, -2.693693161010742, 2.085594654083252, -11.121179580688477, -14.187179565429688, 9.704408645629883, 14.90884780883789, -0.19393539428710938, -13.889802932739258, -8.106922149658203, -1.1468534469604492, 3.531190872192383, -22.52477264404297, 35.243408203125, -9.995022773742676, 19.56964111328125, 1.3888578414916992, 5.210169792175293, 0.25443315505981445, -14.837373733520508, -0.3112313747406006, -29.38123893737793, 11.636428833007812, -9.120206832885742, 28.728900909423828, 11.876174926757812, 92.48528289794922, -20.86077117919922, -4.3451056480407715, -10.97115421295166, -0.6583124399185181, 0.055800143629312515, 0.025651073083281517, 15.955832481384277, 8.059048652648926, -0.01815652847290039, 0.2688608169555664, -3.496767044067383, -9.637955665588379, -2.403398036956787, 18.481359481811523, -14.760116577148438, 10.8807373046875, -3.988631010055542, -7.279972076416016, -3.8338592052459717, 10.822486877441406, -13.481040954589844, 23.311450958251953, -37.73207092285156, -7.9919352531433105, 0.07013797014951706, -3.5488924980163574, -3.9733190536499023, 3.712683916091919, -18.44563102722168, -1.040475845336914, 16.618900299072266, 1.409968376159668, -15.777915954589844, 0.017319083213806152, 14.470993995666504, 6.460179805755615, -1.2485880851745605, 13.040433883666992, -20.827388763427734, 14.14278507232666, -0.008679473772644997, -2.446037769317627, -12.650102615356445, -0.5317103266716003, -13.74425983428955, 6.233874320983887, -5.319458484649658, -19.13591957092285, -1.8859440088272095, 7.386829376220703, -1.082588791847229, -6.908622741699219, -0.037817295640707016, -22.553733825683594, 7.054444313049316, 4.022909641265869, 14.956907272338867, 15.864179611206055, 27.419326782226562, 10.458966255187988, 0.44817519187927246, -17.6810245513916, 12.453836441040039, -36.674034118652344, -19.80893325805664, -25.356355667114258, 2.7344532012939453, -15.380205154418945, 22.445831298828125, -1.8636188507080078, -29.361736297607422, 0.5500164031982422, 10.161938667297363, -27.582834243774414, 8.05308723449707, -11.538497924804688, 5.820917129516602, 9.883376121520996, -2.0300188064575195, 0.28792041540145874, 18.977624893188477, -5.055967330932617, -18.933040618896484, 12.774791717529297, 3.9193766117095947, 3.1187400817871094, 6.000574111938477, -22.430004119873047, 2.4655652046203613, 0.4935312271118164, 4.459835529327393, -4.765902042388916, 15.269554138183594, -15.961935997009277, 18.217851638793945, 0.014183941297233105, -7.381150722503662, 6.798154354095459, -12.377145767211914, 0.006359372287988663, -0.010133400559425354, 12.168042182922363, -11.018664360046387, -3.0140912532806396, 20.721019744873047, 6.067344665527344, 10.157575607299805, -31.695667266845703, -163.48841857910156, -0.00791892409324646, -17.413997650146484, -3.5876331329345703, 0.019113214686512947, -12.19430923461914, -7.0123820304870605, 5.076415061950684, 22.50086212158203, 7.10752010345459, 10.647407531738281, 8.041803359985352, 8.50267219543457, -0.00540155079215765, -12.18598747253418, -0.7613420486450195, -11.95134162902832, -4.220125198364258, 11.736054420471191, -10.302654266357422, 3.6302552223205566, -4.943453788757324, -18.258262634277344, 18.89907455444336, 4.857655048370361, -0.002156289992853999, 0.9943045377731323, 2.043294906616211, 0.2823066711425781, -1.6841809749603271, -0.0010872031562030315, -6.149383544921875, 2.862269878387451, -3.9036471843719482, 0.3942108154296875, -4.7097272872924805, -16.187936782836914, 8.946694374084473, -9.467507362365723, 28.15319061279297, -16.045246124267578, -4.484372138977051, -20.929243087768555, 14.80336856842041, -6.746334552764893, 9.199092864990234, 23.083358764648438, 5.343734264373779, 8.061735153198242, -10.017913818359375, 15.322343826293945, 19.839824676513672, -5.404650688171387, 5.9372782707214355, 73.8842544555664, 14.15080451965332, 13.236308097839355, -7.179693056968972e-05, 7.5377516746521, 26.678579330444336, 24.667373657226562, 1.1138429641723633, -1.4052951335906982, -7.080325126647949, 20.480993270874023, 9.042705535888672, -93.87820434570312, -0.6247518062591553, -1.109843373298645, -1.7054742574691772, 2.328275203704834, 3.8595094680786133, 1.6235525608062744, -1.733254313468933, -1.7857955694198608, -4.475418567657471, -1.001440167427063, -0.23658598959445953, -0.8233868479728699, 2.4936330318450928, 0.8162273168563843, -2.508814811706543, 2.8659846782684326, -0.5088614225387573, -1.0270453691482544, -0.8862708210945129, -2.5803701877593994, -2.733165740966797, -0.11274003982543945, -0.7714983224868774, 0.8218899369239807, -1.0938565731048584, 0.6896388530731201, 5.769322395324707, 0.7087690830230713, -0.004598468076437712, 1.803647518157959, 0.03221160173416138, 6.822321891784668, -0.009450995363295078, -2.8218255043029785, -1.0465902090072632, -1.621309757232666, 0.442627489566803, 3.843918800354004, 3.7510769367218018, 2.798578977584839, 0.0958336889743805, -4.290304183959961, -1.1727174520492554, -2.208894729614258, -2.201145887374878, -0.5832604169845581, 2.242765188217163, -2.845316171646118, -1.5994319915771484, 2.1857187747955322, -1.6489064693450928, -0.0017695316346362233, 2.154299020767212, -0.5124720931053162, -2.1496715545654297, 0.05257445573806763, -0.33269810676574707, -0.06675553321838379, 1.5405266284942627, 12.91910171508789, -2.075946092605591, -0.8550549745559692, 0.5452139377593994, 3.289661407470703, 1.6982207298278809, -0.3311401605606079, -0.5772287845611572, 4.308499813079834, -3.5122013092041016, -6.476897239685059, -2.043541431427002, 0.8069455623626709, -2.011847972869873, -2.2378554344177246, 3.0162594318389893, 1.157235860824585, 4.2375688552856445, -1.3563114404678345, 0.5921685099601746, -2.7866108417510986, -1.4335219860076904, -15.10632038116455, 2.9161791801452637, 0.8471145033836365, 1.6014008522033691, -0.1740075796842575, -0.005872218869626522, 0.005305843893438578, -1.5749750137329102, -2.1527316570281982, 1.4437583684921265, -1.3152456283569336, 1.6891250610351562, 0.6789385080337524, 0.032675981521606445, -1.7261502742767334, -0.30640870332717896, 0.10478666424751282, -1.9836831092834473, 0.8687071204185486, 0.6286155581474304, -0.3804835081100464, 1.5016347169876099, -2.2593159675598145, 7.355996608734131, 2.5277352333068848, -0.008830451406538486, 1.098026156425476, -0.01891830563545227, 0.162241593003273, 2.4052517414093018, 1.3729544878005981, -3.6663622856140137, 1.145573377609253, -0.41495275497436523, -0.7306808233261108, -1.3806476593017578, -3.181112766265869, -0.8182873725891113, -1.1780312061309814, 2.9897923469543457, -1.3550379276275635, -0.002116225194185972, 0.4227256774902344, -0.5996143817901611, 1.447487711906433, 2.5209953784942627, -0.7152013778686523, 0.07664930820465088, 2.062708854675293, 1.7599817514419556, -0.08322834968566895, -0.4137508273124695, -0.1209990382194519, 0.004331681877374649, 3.703580856323242, -0.21240347623825073, 1.2839665412902832, -1.0548548698425293, -2.6555495262145996, -3.2833948135375977, -0.633407711982727, -0.658435046672821, 3.1157188415527344, -1.100839376449585, 3.5042011737823486, 2.2993688583374023, 2.7732958793640137, 1.5972316265106201, 1.2631165981292725, -2.3349037170410156, 0.5069421529769897, 4.693838119506836, 2.0322606563568115, -0.44972383975982666, 2.011678695678711, -2.115692615509033, 2.327666759490967, -2.2352495193481445, -0.6231070756912231, -0.6810563206672668, 6.003464221954346, -3.5631816387176514, 1.7254955768585205, 2.268728494644165, 1.8022923469543457, -0.1300247460603714, -1.5845680236816406, -1.304516077041626, 2.1383848190307617, -1.171570062637329, -1.6891820430755615, 0.2752039432525635, 2.006234645843506, -1.3540427684783936, 2.545166015625, -0.22777032852172852, -0.0031485971994698048, 0.42089396715164185, -2.7872707843780518, 1.8822780847549438, -0.0016197242075577378, 0.0026418811175972223, -3.072098970413208, 2.798842191696167, 3.504185676574707, -2.487433910369873, 0.5598646402359009, -0.27916088700294495, 5.434322357177734, 21.838245391845703, 0.0022975343745201826, 3.0599963665008545, 0.11807763576507568, -0.004870138596743345, 1.6982265710830688, 0.5156018733978271, -1.2442673444747925, -3.0624990463256836, 0.846878170967102, -1.2130051851272583, 0.13952524960041046, -2.0737662315368652, 0.0012672116281464696, 2.8321573734283447, -1.1840238571166992, 1.9026916027069092, 1.2103365659713745, -0.3597988486289978, 1.8859646320343018, -1.0579187870025635, 0.998357355594635, 2.4343461990356445, -2.7819266319274902, -1.5584585666656494, 0.0003421342989895493, 1.3482744693756104, 0.26072394847869873, 1.9490973949432373, -0.39065274596214294, -4.9348720494890586e-05, 2.030463695526123, -0.1525161862373352, 0.7965067028999329, 0.686059296131134, 1.4828450679779053, 2.457401990890503, -2.094827175140381, 1.167855978012085, -3.6745996475219727, 2.3592662811279297, 2.162841796875, 3.190229654312134, -0.5766599178314209, 2.2954812049865723, 1.0554485321044922, -1.9912570714950562, -1.7486454248428345, -1.7411537170410156, 2.2721269130706787, -2.492201566696167, -3.0384445190429688, -0.7799239754676819, 0.006843462586402893, -8.075281143188477, -0.9261602163314819, -3.118983268737793, -2.168675109714968e-06, -0.9106181859970093, -3.8579468727111816, -5.547458171844482, -1.9965282678604126, -1.4647973775863647, 1.0527191162109375, -1.8536041975021362, -0.1909666806459427, -15.333911895751953, 0.34152522683143616, -2.299241542816162, -1.9693957567214966, 4.048266887664795, 4.12818717956543, 3.7120537757873535, 3.302248001098633, -7.7781243324279785, -16.314517974853516, -7.074418544769287, -2.9383952617645264, 0.8118180632591248, 6.943759441375732, 0.06075596809387207, -2.0687553882598877, 6.414863109588623, -4.116277694702148, -1.834965467453003, -3.823935031890869, -8.531051635742188, -6.519992828369141, -2.274487018585205, 1.4182360172271729, 2.1712121963500977, 3.8409171104431152, 2.435960292816162, 60.75893783569336, 9.248326301574707, -0.21748274564743042, 0.7588356137275696, 1.2845563888549805, 32.24653625488281, 0.06262241303920746, 0.6924352049827576, -5.934784889221191, -5.710254669189453, -5.1910505294799805, 2.9921834468841553, 0.31643080711364746, -1.9350794553756714, 3.7471518516540527, -6.255692958831787, 3.5700440406799316, -0.6645183563232422, 0.4406987428665161, 60.060150146484375, 2.1866226196289062, -8.187664031982422, -2.2802608013153076, 9.067977905273438, -0.4009951949119568, -0.1813700646162033, 18.548128128051758, 0.9120354652404785, -2.4470808506011963, -1.3570042848587036, 2.415911912918091, 0.4413907527923584, -0.7160000801086426, 4.974344730377197, 1.3936798572540283, -7.605625152587891, 0.28769803047180176, 8.396463394165039, -0.8040755987167358, -0.07407331466674805, -4.999317169189453, 8.436464309692383, -18.719858169555664, -47.3975944519043, -8.077917098999023, 0.9192333221435547, -0.37239861488342285, 1.0432627201080322, 3.376054048538208, -1.253887414932251, 12.073678970336914, -3.5885415077209473, 2.628124237060547, -7.778414726257324, -6.366182327270508, 16.20397186279297, 4.731751918792725, -1.9929882287979126, 8.309074401855469, -4.768404006958008, -0.016190649941563606, -0.006101371720433235, -5.0737786293029785, -4.202733039855957, 1.6289703845977783, -0.2464146614074707, -1.8491227626800537, -1.7259511947631836, 4.622391223907471, -8.90627670288086, 11.17953872680664, -0.15434564650058746, 3.2532079219818115, 2.259014129638672, 3.876871109008789, -4.385960578918457, 7.8706793785095215, -7.3162689208984375, 12.631895065307617, 2.9562671184539795, -0.2160537987947464, -2.9976534843444824, 0.6351912021636963, -0.4326211214065552, 10.769817352294922, -3.1053009033203125, 2.4028728008270264, -3.069957971572876, 8.227201461791992, -0.8052729964256287, -0.6416881680488586, -24.173418045043945, 1.0793266296386719, -2.301499128341675, 7.984529495239258, -7.883427619934082, -0.003363345516845584, 2.310596466064453, 11.535064697265625, -2.404602289199829, 10.64707088470459, 0.050600409507751465, 3.0281684398651123, 6.354260444641113, 1.9344128370285034, -3.7206153869628906, 0.5930041074752808, -0.4328242540359497, 0.048462044447660446, 4.430278301239014, -0.1704498529434204, -1.8453879356384277, -3.3242452144622803, -3.8951430320739746, -11.453144073486328, 1.2621774673461914, 2.4111175537109375, 3.761323928833008, -5.2649312019348145, 11.42267894744873, 5.8354878425598145, 8.792583465576172, 1.2371370792388916, 8.624518394470215, -0.06618189811706543, 0.09492146968841553, 8.348649978637695, -2.440676689147949, -4.374759674072266, 22.312986373901367, -1.8316458463668823, 1.4866693019866943, -2.416347026824951, -0.7715049982070923, 4.556638240814209, -0.7721735835075378, -8.59598445892334, -0.6903124451637268, 5.842277526855469, -6.425923824310303, -2.6396868228912354, -0.8362044095993042, -3.6396450996398926, 3.8666529655456543, -1.0769227743148804, 1.4974641799926758, -5.50875997543335, 1.6917059421539307, -5.655378818511963, 3.696488380432129, -4.154097557067871, -0.028734605759382248, -0.1889185905456543, 0.5655145645141602, 6.246560096740723, -0.018288640305399895, 0.05783417075872421, -6.568215370178223, 2.671898365020752, -2.3256754875183105, -6.937504768371582, -9.833942413330078, -3.562513828277588, 7.003937721252441, 91.81248474121094, 0.04220318794250488, 8.208541870117188, 1.7155084609985352, -0.04109238460659981, 3.453265905380249, 6.202186584472656, -1.8884714841842651, -8.912867546081543, -0.7301711440086365, -4.455040454864502, 9.80034065246582, -4.96878719329834, 0.009412546642124653, -0.13628119230270386, -0.23117375373840332, 8.660432815551758, 4.648921489715576, -7.636490821838379, 5.054491996765137, -1.6685850620269775, 2.4009907245635986, 8.30925178527832, -5.937351703643799, -2.8586723804473877, -0.0018589124083518982, -4.452600002288818, 0.6811837553977966, -4.208555698394775, -2.1675710678100586, -0.007585393730551004, -0.011627197265625, -2.3785290718078613, 4.2692155838012695, 0.1256304383277893, -2.781480312347412, 6.851499557495117, -2.7382712364196777, 0.0957021713256836, -4.28079891204834, 7.0006890296936035, 5.426485538482666, 12.41732120513916, -8.379871368408203, 2.750915288925171, -6.74420690536499, -2.4325547218322754, -3.6320626735687256, -2.6265406608581543, 2.7998080253601074, -5.294151306152344, -7.722921848297119, -12.546608924865723, -4.843791484832764, -47.43864059448242, -9.178228378295898, -0.8214527368545532, -0.0005042852717451751, -0.544032633304596, -17.493871688842773, -6.481071472167969, -6.207396507263184, -2.835897922515869, -0.4250371754169464, -6.409432888031006, -3.239806652069092, 81.75057983398438, -28.610824584960938, -22.058021545410156, -17.09142303466797, 26.155467987060547, 49.681861877441406, 40.34579849243164, 21.603456497192383, -50.06743240356445, -106.34553527832031, -39.19509506225586, -1.3015108108520508, -12.29075813293457, 29.40886688232422, 6.670621871948242, -46.594085693359375, 52.982521057128906, -20.544349670410156, -11.108861923217773, -39.12073516845703, -61.160213470458984, -86.49688720703125, -12.274850845336914, -1.0967082977294922, -8.899898529052734, 4.199090957641602, 30.968982696533203, 541.753662109375, 42.227195739746094, -6.581017017364502, 9.949872016906738, 10.384632110595703, 685.4208374023438, 2.500951051712036, -30.328964233398438, -18.42743682861328, -12.743990898132324, -29.946086883544922, 54.360965728759766, 28.759750366210938, 21.830547332763672, 19.659255981445312, -76.22190856933594, -4.142055511474609, -44.8060188293457, -43.859718322753906, -21.279855728149414, 29.89668083190918, -54.789024353027344, -18.151865005493164, 75.65657043457031, -21.832399368286133, -3.3775992393493652, 221.58810424804688, 2.6419482231140137, -49.10493469238281, -14.710769653320312, 1.8156356811523438, -9.766735076904297, 37.26362609863281, 47.583621978759766, -20.849498748779297, -43.65044021606445, 2.778024673461914, 57.88835144042969, 3.2067055702209473, 23.296222686767578, -21.510541915893555, 78.12460327148438, -351.1181945800781, 263.08319091796875, -65.45857238769531, 33.54856491088867, -9.481391906738281, -12.822580337524414, 49.163047790527344, -7.885939598083496, 111.76287078857422, -16.228105545043945, 21.358814239501953, -95.62633514404297, -37.934791564941406, -251.16281127929688, 75.19953918457031, -5.184228897094727, 26.456830978393555, -40.03184509277344, 0.5743617415428162, -0.1493547111749649, -35.344635009765625, -22.188861846923828, -0.12532615661621094, 0.18940353393554688, 21.875534057617188, -15.212968826293945, 15.048280715942383, -72.54690551757812, 46.42668151855469, -75.04730224609375, 32.03343963623047, -1.9321861267089844, 13.245295524597168, -57.45684051513672, 64.75835418701172, -62.671241760253906, 107.21160125732422, 34.90950012207031, -3.7178096771240234, -5.855672836303711, 6.579456329345703, 5.020599842071533, 35.662841796875, -7.221343994140625, -49.145172119140625, -4.39354133605957, 59.146080017089844, -16.341121673583984, -12.298759460449219, -145.1287841796875, -6.232296943664551, -35.636837005615234, 77.87464141845703, -21.873003005981445, -0.0662778913974762, 27.09320068359375, 54.439178466796875, -3.4698777198791504, 40.96799087524414, 6.602602005004883, 33.9286003112793, 63.57648849487305, 296.8650817871094, -13.087291717529297, 1.6816444396972656, 37.03954315185547, 0.35330379009246826, 45.52525329589844, -22.56214714050293, -16.31020736694336, -38.126190185546875, -27.799816131591797, -99.29557800292969, -35.02483367919922, -4.382043838500977, 43.65678024291992, -58.37477493286133, 120.25099182128906, 52.516666412353516, 42.992584228515625, 25.527469635009766, 32.35282516479492, -35.3423957824707, 3.877941131591797, 83.44031524658203, -4.069208145141602, -60.184024810791016, 124.89881896972656, -14.207029342651367, 13.63467025756836, -37.584228515625, -25.96527862548828, 9.075613021850586, 83.9340591430664, -34.67000198364258, 2.609818935394287, 37.77056884765625, -37.21150207519531, 6.2101149559021, -16.048372268676758, -55.004859924316406, 66.00587463378906, 5.275063514709473, 3.903378963470459, -38.45958709716797, 33.104759216308594, -49.79115676879883, 50.45953369140625, -78.15145111083984, -0.41681674122810364, -4.351007461547852, -1.5653133392333984, 50.65003204345703, -0.3176480531692505, 1.1548148393630981, -57.569339752197266, 25.882915496826172, 7.171817779541016, -63.519798278808594, -48.752296447753906, 1.0654213428497314, 82.88040161132812, 1219.90966796875, 0.8311448693275452, 58.41001510620117, 17.405445098876953, -0.6218099594116211, 23.135021209716797, 31.19855499267578, -12.292604446411133, -72.2952651977539, -19.595293045043945, -36.0428352355957, 19.24756622314453, -47.5412712097168, 0.1266917586326599, 9.857332229614258, 11.559885025024414, 33.03531265258789, 30.221832275390625, -48.266048431396484, 34.05353546142578, -27.22261619567871, 25.76719093322754, 51.18366622924805, -67.35462951660156, -9.983053207397461, -0.0825411006808281, -23.560497283935547, -10.948698043823242, -16.377241134643555, -12.096736907958984, -0.19537998735904694, 14.521647453308105, -21.132905960083008, 56.43393325805664, 2.355642795562744, -10.287904739379883, 27.924163818359375, -57.23124694824219, 26.660194396972656, -76.55155944824219, 54.48527145385742, 25.87187957763672, 73.79033660888672, -47.761634826660156, 41.12846374511719, -25.12198257446289, -68.21842956542969, -14.847991943359375, -32.13494873046875, 56.01690673828125, -55.97311019897461, -70.31171417236328, 276.5026550292969, -32.62818145751953, -279.946044921875, -55.70988464355469, -60.07709884643555, -0.013029039837419987, -9.41350269317627, -114.57389068603516, -178.904296875, -36.99287033081055, 1.9503458738327026, 2.1072163581848145, -76.4054946899414, -38.12508010864258, 1000.9453125, 7.37164306640625, 6.559460163116455, 1.238943338394165, -2.9499266147613525, -5.640209197998047, -1.5303391218185425, -2.5197055339813232, 3.384399890899658, 10.24461841583252, 0.6667060852050781, -1.4776533842086792, 1.156678557395935, -4.959485054016113, -0.03811478614807129, 1.1429598331451416, -6.379024505615234, 1.7402079105377197, -2.4486162662506104, 8.605560302734375, 8.753421783447266, 11.511053085327148, 1.2317969799041748, 2.7815909385681152, -1.039469838142395, -6.7796735763549805, -6.741102695465088, 50.7037467956543, -5.643825531005859, -0.1423242688179016, -2.408771514892578, -5.531959056854248, 38.82514572143555, 0.0696927011013031, 6.704566955566406, 2.399704694747925, -0.7108256220817566, 6.740926742553711, -3.703972339630127, -0.5550365447998047, 3.097588300704956, -5.9249982833862305, 8.310264587402344, 1.7235305309295654, 4.398860931396484, -4.3839006423950195, -101.47434997558594, -0.7967492341995239, 8.137274742126465, 3.410461902618408, -9.75484848022461, -1.538393497467041, 0.16572979092597961, -28.422653198242188, 2.580463171005249, -1.0641921758651733, -1.47780442237854, -0.14264941215515137, -0.23556935787200928, -5.071495056152344, 22.511459350585938, -1.1182969808578491, 4.314584255218506, -0.7319396734237671, -4.475289821624756, -2.102792978286743, -2.77443790435791, 4.595921516418457, -8.71833610534668, -11.978079795837402, 61.04373550415039, 5.801028251647949, -3.8505020141601562, 0.9726576805114746, 3.481261968612671, -6.030104160308838, 6.759061813354492, -15.173686981201172, 2.3132336139678955, -6.558693885803223, 10.54084300994873, 7.453264236450195, -20.465238571166992, -9.382917404174805, 5.831439971923828, -2.785733461380005, 8.642684936523438, 0.10739830881357193, 0.042150016874074936, 4.077600002288818, 2.226396322250366, 2.467984676361084, -4.650571346282959, -2.745100736618042, 0.49394598603248596, -1.3325492143630981, 9.328340530395508, -3.9524991512298584, 1.4484418630599976, -8.22176456451416, 1.6825532913208008, -1.4080009460449219, 6.1997857093811035, -14.815975189208984, 6.483511924743652, -10.071194648742676, -5.156352519989014, 0.20125938951969147, -0.2041003704071045, 2.5415825843811035, -2.4816718101501465, -14.701859474182129, 4.296908378601074, 4.742912292480469, 1.4180835485458374, -7.35154390335083, 2.3598430156707764, -1.7082481384277344, -4.670736789703369, -2.963973045349121, 1.5597542524337769, -5.275999069213867, -0.3358786106109619, 0.016554713249206543, -2.2436721324920654, -8.407157897949219, 1.27225923538208, -6.305078506469727, -2.6188199520111084, -2.956341505050659, -3.0896077156066895, 34.656982421875, -2.6957321166992188, -1.6980654001235962, -4.1131134033203125, -0.09333258867263794, -2.237140417098999, 1.1933038234710693, 2.0180492401123047, -0.10773050785064697, 3.91025972366333, 14.032407760620117, 8.468679428100586, -1.050473690032959, -1.7382010221481323, 7.346059322357178, -9.3855619430542, -5.074535846710205, -2.3490638732910156, -5.800705432891846, -3.879220485687256, -0.7264333367347717, 2.485461711883545, -6.745455741882324, 2.7987112998962402, 10.460070610046387, -18.198993682861328, -3.7588131427764893, -4.719611644744873, 4.566415786743164, 3.260158061981201, -6.32301139831543, -25.67505645751953, -0.7541090250015259, 0.04721641540527344, -2.5598397254943848, 3.2694268226623535, -0.9022495746612549, -0.560271143913269, 4.037667274475098, 0.11263498663902283, -2.676180601119995, -3.0862789154052734, 3.5288877487182617, 15.993762016296387, 3.4629836082458496, -4.674019813537598, 8.560730934143066, 0.022492315620183945, 4.545328617095947, -9.712448120117188, -5.618287086486816, 0.007826684974133968, -0.03632916882634163, 3.857065439224243, -3.246777057647705, -3.659583330154419, 6.810246467590332, 6.411569118499756, 3.0786306858062744, -4.653994560241699, -264.875244140625, -0.02625364251434803, -8.89733600616455, -1.4142401218414307, 0.027109365910291672, -2.875817060470581, -7.758746147155762, 1.9604132175445557, 6.804194450378418, 1.4023520946502686, 2.8716089725494385, -9.62987232208252, 12.271714210510254, -0.007670876104384661, -0.5765678882598877, -2.4680516719818115, -3.3375906944274902, -6.662055492401123, 6.76686954498291, -3.3931546211242676, 5.329128742218018, -6.4040069580078125, -7.766719818115234, 1.8857529163360596, 4.207149505615234, -0.0022360989823937416, 4.485420227050781, 3.7328548431396484, 1.4201419353485107, 3.1030356884002686, 3.7113150028744712e-06, -2.5657551288604736, 1.935488224029541, -22.186725616455078, -3.979017972946167, 2.719677686691284, -2.5316247940063477, 7.080904960632324, -2.845754623413086, 6.773228645324707, -6.555789947509766, -1.2706449031829834, -7.425076484680176, 4.897762298583984, -2.9432215690612793, -1.5099314451217651, 3.2306137084960938, 1.6117992401123047, 2.1385245323181152, -4.481544017791748, 1.4909460544586182, 11.251167297363281, 69.4215087890625, 4.680032730102539, 74.11354064941406, 4.970050811767578, 8.167186737060547, -1.1783927078568013e-07, 1.0857596397399902, 14.493063926696777, -20.274110794067383, 1.0660805702209473, 2.4382529258728027, -0.3404160737991333, 6.736888885498047, 3.8371434211730957, -66.78359985351562, 17.431495666503906, 8.948712348937988, 9.00187873840332, -20.535547256469727, -31.1002140045166, -26.758127212524414, -19.068309783935547, 40.66886901855469, 71.69170379638672, 30.726078033447266, 4.965892791748047, 7.862181186676025, -16.11328887939453, -7.808158874511719, 33.09532928466797, -34.156070709228516, 15.01502513885498, 11.055230140686035, 21.26540756225586, 39.93418884277344, 57.77803039550781, 10.434369087219238, -2.884336471557617, 9.075913429260254, 4.404903411865234, -19.50980567932129, -538.46630859375, -29.02346420288086, 7.248724460601807, -3.8472864627838135, -1.8205623626708984, -745.5738525390625, -2.7301557064056396, 17.608278274536133, 10.91841983795166, 7.096687316894531, 15.987990379333496, -37.42866516113281, -21.955894470214844, -22.427104949951172, -8.307638168334961, 50.25849914550781, 0.4171018600463867, 31.04463005065918, 45.98237609863281, 164.62771606445312, -15.451650619506836, 33.56922149658203, 13.664281845092773, -49.37516403198242, 18.68084144592285, 3.17295503616333, -225.33753967285156, -6.9323930740356445, 44.60207748413086, 15.659173011779785, 0.7192363739013672, 10.605938911437988, -25.644390106201172, -22.73432731628418, 17.954404830932617, 30.687820434570312, -6.9738006591796875, -43.58651351928711, 0.2158195972442627, -21.39326286315918, 13.43226146697998, -52.77024841308594, 322.6177978515625, -350.9145202636719, 49.23051452636719, -26.00166130065918, 4.591033935546875, 5.156650543212891, -31.61404037475586, -1.4377212524414062, -74.28797149658203, 10.110050201416016, -6.082240581512451, 65.65081787109375, 21.055892944335938, 156.15948486328125, -52.0965576171875, -0.7491955757141113, -17.82118797302246, 27.782306671142578, -0.8084833025932312, 0.04398459568619728, 25.792551040649414, 13.699942588806152, -3.981790542602539, 6.0625386238098145, -10.342185974121094, 19.51282501220703, -8.41258430480957, 52.21432876586914, -33.82552719116211, 63.39949035644531, -19.570249557495117, 4.916357040405273, -7.589649200439453, 40.888301849365234, -35.98134231567383, 41.78429412841797, -73.34291076660156, -26.63357162475586, 3.609424114227295, 8.816852569580078, -10.942411422729492, -3.8414394855499268, -4.042746067047119, 0.7884054183959961, 35.59157943725586, 1.2525177001953125, -38.81260681152344, 12.569646835327148, 7.868483066558838, 122.98663330078125, 7.654900074005127, 28.734539031982422, -54.636409759521484, 13.579320907592773, 0.08072977513074875, -21.37484359741211, -35.269691467285156, 3.848874092102051, -23.042402267456055, -5.2970709800720215, -24.477317810058594, -48.78682327270508, -344.0894775390625, 12.594185829162598, -1.4498100280761719, -29.98344612121582, -0.22040466964244843, -30.70741081237793, 16.134998321533203, 11.617439270019531, 30.975589752197266, 12.118568420410156, 66.90304565429688, 21.167617797851562, 6.100275993347168, -32.98651123046875, 42.627227783203125, -88.00595092773438, -33.56843566894531, -25.849897384643555, -17.533985137939453, -16.441726684570312, 22.123065948486328, -7.101982116699219, -55.785064697265625, -1.6203336715698242, 38.77263641357422, -79.61463165283203, 13.060868263244629, 0.06279754638671875, 26.924184799194336, 16.414827346801758, -1.3049883842468262, -54.663848876953125, 30.650903701782227, 3.6581308841705322, -18.447099685668945, 29.51766014099121, -8.89759349822998, 14.994633674621582, 41.09416198730469, -52.16969299316406, 0.18357473611831665, 0.3943767547607422, 31.924861907958984, -43.92041778564453, 41.06304168701172, -40.44535827636719, 55.36306381225586, 0.3969584107398987, -0.14261913299560547, 9.677780151367188, -30.60326385498047, 0.3185898959636688, -1.169289231300354, 44.17904281616211, -11.67105484008789, 1.3181531429290771, 43.951351165771484, 33.86693572998047, -5.993862152099609, -61.58195495605469, -705.898193359375, -0.8408879637718201, -33.7515869140625, -12.79403305053711, 0.6029036641120911, -12.670150756835938, -16.430177688598633, 5.936201095581055, 47.16164779663086, 15.641077995300293, 26.43045425415039, -4.250628471374512, 28.526187896728516, -0.1185850203037262, -2.5663957595825195, -7.972953796386719, -21.09210968017578, -15.841320037841797, 32.258155822753906, -21.998634338378906, 10.847930908203125, -11.352082252502441, -28.020559310913086, 54.0831413269043, 2.4444470405578613, 0.09277939796447754, 14.143856048583984, 4.003630638122559, 11.35737419128418, 8.080876350402832, 0.20828303694725037, -10.406947135925293, 16.913127899169922, -59.53044128417969, 0.1248936653137207, 8.182316780090332, -16.325075149536133, 43.07506561279297, -20.614444732666016, 57.21434020996094, -36.67150115966797, -22.220022201538086, -50.30754852294922, 33.55527877807617, -35.03913116455078, 24.543249130249023, 55.12348937988281, 9.269438743591309, 23.318437576293945, -41.966026306152344, 45.78913116455078, 44.090030670166016, -335.4775390625, 24.737781524658203, 140.254638671875, 43.63377380371094, 42.1240119934082, 0.013890507631003857, 5.127123832702637, 80.6323013305664, 162.9267120361328, 33.95280838012695, -6.12788200378418, 1.6357512474060059, 54.68158721923828, 29.858734130859375, -877.7095947265625, 3.214609146118164, 4.365120887756348, 0.7952957153320312, -7.054893970489502, -6.321001052856445, -4.634289741516113, -1.2999215126037598, 7.2651872634887695, 12.630579948425293, 2.9334232807159424, 0.5130747556686401, -0.24757897853851318, -5.8545379638671875, -0.6372551918029785, 3.037921190261841, -6.243785858154297, 4.919254779815674, 1.759479284286499, 3.0745115280151367, 7.986565589904785, 8.685783386230469, 2.921797752380371, 0.16704106330871582, 0.34492605924606323, -2.071350574493408, -2.810051202774048, -70.3338623046875, -4.78134822845459, 0.003421821864321828, 0.7820572853088379, -2.007077217102051, -26.797704696655273, -0.0011099553667008877, 3.0688464641571045, 4.498748302459717, 3.0951459407806396, 2.5394420623779297, -7.95803165435791, -1.8954026699066162, -5.286247730255127, 1.8035554885864258, 11.009689331054688, -1.507841944694519, 3.993621349334717, 5.0857462882995605, -7.165889263153076, -2.9582135677337646, 9.085123062133789, 3.0042543411254883, -7.6583404541015625, 1.9142757654190063, 0.04689747840166092, 8.166793823242188, -2.3552544116973877, 7.309446811676025, 1.15187406539917, 0.5847079753875732, -0.7515547275543213, -1.9114553928375244, -19.56283187866211, 3.3286802768707275, 4.502984046936035, 0.19996976852416992, -8.793561935424805, -0.7972438335418701, 0.6775484085083008, 3.6614551544189453, -9.237009048461914, 41.70461654663086, -15.52135944366455, 6.323387145996094, -6.455690383911133, 2.6621100902557373, 3.6503281593322754, -4.83823299407959, 0.3503451347351074, -13.726276397705078, 2.2355217933654785, -0.6448171138763428, 10.476604461669922, 6.035832405090332, 58.6157341003418, -4.813589572906494, 0.4591990113258362, -4.739863872528076, 4.867670059204102, 0.012435218319296837, 0.003992282785475254, 6.807182312011719, 4.116100788116455, -2.4956045150756836, 2.768557071685791, -2.872713088989258, 3.9657838344573975, -2.7773759365081787, 8.316256523132324, -6.9433979988098145, 13.90661334991455, 0.7824032306671143, 0.02715146541595459, -3.7084102630615234, 5.850550174713135, -8.032798767089844, 6.060454845428467, -16.34431266784668, -5.259496688842773, 0.018372392281889915, 2.462371826171875, 0.05826592445373535, -0.14669574797153473, -5.107889652252197, 1.177308440208435, 4.331623077392578, -1.0031871795654297, -4.35618782043457, 1.4654295444488525, -0.4825282394886017, 18.510812759399414, 2.5969161987304688, 4.883646488189697, -9.736600875854492, 2.0667564868927, -0.01249090489000082, -4.630579948425293, -5.463737964630127, 1.076378583908081, -4.608409404754639, -2.3306756019592285, -4.353050708770752, -5.318721771240234, -13.025819778442383, 1.2873499393463135, 2.7432498931884766, -2.0140271186828613, -0.00789629016071558, -5.482823371887207, 3.1685285568237305, 0.749809741973877, 3.6556248664855957, 2.5601887702941895, 11.568856239318848, -0.18047833442687988, 2.0447587966918945, -7.134271144866943, 3.302478075027466, -12.561752319335938, -5.562984943389893, -6.267930507659912, -3.115251064300537, -5.846815586090088, 2.280460834503174, -0.9083338975906372, -7.007813930511475, 0.06066107749938965, 5.789893627166748, -18.53502082824707, 3.3041725158691406, -3.416268825531006, 4.670499324798584, 1.2582511901855469, 0.2850666046142578, -9.165301322937012, 7.253162384033203, -0.8951953649520874, -5.809051036834717, 1.0004479885101318, 1.587285041809082, 2.930668830871582, 8.779792785644531, -4.49968147277832, 0.5887811183929443, -1.276029348373413, 4.948770046234131, -9.127815246582031, 3.084174156188965, -2.800048589706421, 7.852591514587402, 0.008245540782809258, 1.5665156841278076, 0.9978828430175781, -6.982653617858887, 0.005223448388278484, -0.003113532206043601, 6.575877666473389, -3.583059072494507, -2.427999258041382, 6.700970649719238, 7.461336135864258, -1.7388944625854492, -9.08981704711914, -137.0790252685547, -0.0027391475159674883, -7.603658199310303, -1.6483683586120605, 0.012180913239717484, -2.788039445877075, -4.518730640411377, 2.952375888824463, 8.764262199401855, 0.7591081261634827, 4.154048919677734, 5.624048709869385, 6.214665412902832, -0.0030819522216916084, 1.2565032243728638, 1.3896682262420654, -5.384016036987305, -4.846578121185303, 4.338711738586426, -5.213906288146973, 4.0328688621521, -4.470144271850586, -4.609732627868652, 8.658238410949707, 3.32897686958313, -0.0009217610349878669, 3.9485180377960205, -0.768420934677124, 2.3831305503845215, 3.344674587249756, -5.848738055647118e-06, -1.479921579360962, 2.4841911792755127, 6.873178958892822, -0.17805743217468262, 0.7441497445106506, -3.6194214820861816, 5.66257905960083, -0.7889317870140076, 7.969967842102051, -6.757850646972656, -4.275134086608887, -12.020096778869629, 2.3658828735351562, -5.793289661407471, 2.831308364868164, 4.887022972106934, 1.2157655954360962, 4.054938316345215, -5.990417957305908, 7.275425434112549, 6.689784049987793, -28.8387393951416, 6.147106170654297, 49.103702545166016, 3.9049715995788574, 7.625328540802002, -4.05163200412062e-06, 0.8059188723564148, 17.510028839111328, 30.777395248413086, 9.262489318847656, 2.3153200149536133, 1.6872291564941406, 8.400762557983398, 4.897152423858643, -116.48450469970703, -1.2669243812561035, -2.741992473602295, -2.8087453842163086, -0.3830372095108032, 1.4416815042495728, 1.2162582874298096, 1.9240608215332031, -1.4703729152679443, -6.281060218811035, -3.246493101119995, -1.2918270826339722, -2.0604655742645264, 2.9731674194335938, 0.8694882392883301, -4.2193474769592285, 4.497645378112793, 1.0404386520385742, -2.2011499404907227, -2.3773417472839355, -5.2938666343688965, -6.34106969833374, 0.6157371997833252, 0.44620639085769653, 0.6082248091697693, 1.0203907489776611, 3.035867691040039, -10.337541580200195, 2.949502468109131, -0.05564025416970253, 2.2610020637512207, 0.2700819969177246, -1.297916293144226, -0.008018774911761284, -2.2062807083129883, 0.04393644630908966, -0.6548711061477661, -2.5477030277252197, 1.0047123432159424, 3.5176634788513184, 1.1716384887695312, 4.055577278137207, -3.4954605102539062, -0.4053078889846802, -4.284907817840576, -0.17677906155586243, 27.45562171936035, 2.5537285804748535, -1.837244987487793, -2.1040165424346924, 5.238691806793213, 0.09635412693023682, -0.025127645581960678, 18.638357162475586, -2.896843910217285, -0.9676815271377563, -0.6676219701766968, -0.29474008083343506, -1.3676432371139526, 4.688356876373291, -18.992734909057617, -1.4815037250518799, -3.847747802734375, 2.44758677482605, 2.3888535499572754, 3.319244384765625, 1.7198084592819214, -1.0045957565307617, 5.422328472137451, 2.8772854804992676, -3.246891736984253, -5.402363300323486, -0.9102671146392822, -1.1497751474380493, 0.4894944429397583, 3.634692668914795, -2.1790881156921387, 7.986937999725342, -3.660952568054199, 2.6462159156799316, -8.317009925842285, -3.0737900733947754, 12.883048057556152, 7.197189807891846, -0.19281867146492004, 2.342541456222534, -0.32092610001564026, -0.010941702872514725, 0.011629082262516022, -4.124141693115234, -1.9680660963058472, -0.8471522331237793, 1.6700704097747803, 0.5641252994537354, 3.007661819458008, -0.21784555912017822, -7.1392822265625, 3.443781852722168, -2.1305174827575684, 3.5193958282470703, -1.125438928604126, 0.2876863479614258, -2.637176513671875, 4.54770565032959, -5.632767677307129, 8.859904289245605, 3.4038150310516357, -0.07831026613712311, 0.8576023578643799, 1.9434586763381958, 0.3734462261199951, 4.7164435386657715, -0.12355083227157593, -5.274597644805908, -0.8448631763458252, 4.83519172668457, -0.5910724997520447, -3.2740838527679443, 14.615557670593262, 2.5898990631103516, -3.3280508518218994, 3.6282665729522705, -1.9787110090255737, -0.013524048961699009, -0.3146495819091797, 3.3774678707122803, 0.7670555114746094, 2.87410306930542, -1.4281858205795288, 0.8131400346755981, 4.089037895202637, -7.684826850891113, 0.08783602714538574, 2.5630369186401367, 3.0022945404052734, 0.023919492959976196, 5.192599296569824, -0.8353754281997681, -1.579815149307251, -2.8835463523864746, -3.0098793506622314, -8.865245819091797, -5.679645538330078, 0.09550344944000244, 3.6822853088378906, -4.464138031005859, 9.282109260559082, 4.268747329711914, 4.591882705688477, 0.84068363904953, 2.0506138801574707, -3.615875482559204, -0.270410418510437, 6.14155912399292, -0.6955268383026123, -4.02017068862915, 4.078171730041504, 0.5935474634170532, 3.2959747314453125, -1.3515690565109253, -4.185349464416504, 2.439385414123535, 9.382159233093262, -3.562425374984741, -0.03896099328994751, 0.42384910583496094, -4.0985565185546875, -0.20838041603565216, 0.6787708401679993, -0.6106486320495605, 3.314122200012207, 0.06012248992919922, 0.9214105606079102, -1.2311177253723145, -3.7099883556365967, -6.0734734535217285, 5.7293806076049805, -4.396430969238281, -0.009677396155893803, 1.3787407875061035, 1.6549336910247803, 1.6652804613113403, -0.005331619177013636, 0.020808229222893715, -1.8088613748550415, 1.3476109504699707, 0.6687166690826416, -5.412208557128906, -0.8643170595169067, -4.0460028648376465, 8.021242141723633, 67.95077514648438, 0.015231098979711533, 4.362115859985352, 0.6047276258468628, -0.013606376014649868, 2.4716708660125732, 2.649202346801758, -0.5470539331436157, -4.395151615142822, -1.4803518056869507, -2.7392163276672363, -4.804434299468994, -5.337703704833984, 0.0032912364695221186, 2.402214527130127, 1.9170849323272705, 1.4912540912628174, 0.5189468264579773, -3.2970244884490967, 2.3778958320617676, 0.7158483266830444, 2.5382096767425537, 2.9152474403381348, -2.700064182281494, -1.6064411401748657, -0.0004314156831242144, 0.3739444613456726, -0.7805607318878174, 0.8783161640167236, 0.32307279109954834, -0.0022351788356900215, 3.2141380310058594, -1.5258023738861084, 17.422359466552734, 1.778839111328125, 0.7322104573249817, 3.1918346881866455, -2.9088292121887207, 4.844175338745117, -8.543724060058594, 4.435610771179199, 0.6657919883728027, 3.037559986114502, -3.64996337890625, 2.1174070835113525, -1.3283504247665405, -7.402185916900635, -1.3667938709259033, -0.7338651418685913, 2.502183437347412, -3.1813673973083496, -5.350485324859619, -25.612075805664062, -2.480011224746704, -27.340986251831055, -3.6325912475585938, -4.79387092590332, -0.00014930825273040682, -2.053584575653076, -7.39466667175293, 5.885537624359131, 1.0845739841461182, 0.043264687061309814, 1.5337523221969604, -4.4468889236450195, -3.1590256690979004, 35.69509506225586, 1.856907606124878, 2.51274037361145, -0.22269633412361145, -0.4509009122848511, -5.430580139160156, -1.6086745262145996, 0.3990389108657837, 1.2446955442428589, 4.089043617248535, 1.46837317943573, 0.6150703430175781, -0.09708353877067566, -4.173286437988281, 1.6095783710479736, -0.29487061500549316, -2.328665018081665, 1.6659225225448608, -1.258683443069458, 6.23344612121582, 5.030666351318359, 4.426459789276123, -0.5080347061157227, 1.7439219951629639, -1.9923765659332275, -4.413175106048584, -1.7876452207565308, -12.965524673461914, -5.3487324714660645, -0.16977368295192719, -1.651065468788147, -2.9088268280029297, 17.32147979736328, 0.04546210542321205, 3.2786307334899902, 3.8611226081848145, 2.739765167236328, 4.433799743652344, -3.0142722129821777, 0.8412966132164001, 7.266868591308594, -5.757888317108154, 4.307881832122803, 0.9871922135353088, 1.3315898180007935, -4.601036071777344, -67.54014587402344, -3.5179052352905273, 4.7621049880981445, -0.02104043960571289, -7.009510040283203, 1.3183770179748535, 0.18579095602035522, -3.0585031509399414, 1.323726773262024, -4.981996536254883, 0.12822818756103516, -2.115333318710327, -0.365348756313324, 0.05199146270751953, -27.23630714416504, -4.4564032554626465, 2.630772113800049, 1.9605345726013184, -2.1800785064697266, 2.1704297065734863, 0.5867633819580078, 3.218871593475342, -4.529468059539795, -1.223721981048584, 84.02687072753906, 2.111407995223999, 0.495413601398468, 0.5550798773765564, 0.6046851873397827, -3.067686080932617, 3.2866249084472656, -4.534201145172119, -0.22748875617980957, -5.037299156188965, 1.3586236238479614, 2.738466501235962, -11.44196891784668, -2.8280768394470215, 3.5632035732269287, -2.9231467247009277, 1.1174864768981934, 0.09943763166666031, 0.058751221746206284, -5.013718605041504, 3.906069040298462, 2.1487765312194824, -3.465634822845459, -3.5905473232269287, -2.8378117084503174, -3.9245223999023438, 2.696082592010498, -1.7801862955093384, -10.738962173461914, -4.28008508682251, -0.42224153876304626, -1.7407100200653076, 3.3697383403778076, -5.136542797088623, 2.5098371505737305, -0.6985224485397339, 1.3413809537887573, 0.14497900009155273, -1.0030022859573364, 3.4512524604797363, -0.5063192844390869, -10.776253700256348, 2.7219185829162598, -2.8350749015808105, 3.4850873947143555, -5.307596206665039, 1.851938247680664, 0.10510429739952087, 16.14113998413086, -2.1493873596191406, -4.040189266204834, -3.762324810028076, 5.376483917236328, -0.006163767538964748, 1.0805764198303223, -4.7698845863342285, -2.188281774520874, -8.743308067321777, 1.0975114107131958, -1.3364503383636475, -0.6763998866081238, 23.613300323486328, -0.3008999228477478, -2.703711748123169, 3.2671589851379395, -0.07284151762723923, 0.09012800455093384, -1.7349274158477783, 1.6051453351974487, -1.630326271057129, 4.916615009307861, 4.364794731140137, 0.52718186378479, -3.7931418418884277, 3.4894065856933594, 4.378204345703125, -0.5248368382453918, -2.7066922187805176, -1.3244619369506836, -3.9592549800872803, -4.258461952209473, -0.47852301597595215, 2.339602470397949, -5.817998886108398, 3.308298349380493, 3.3955492973327637, -12.97723388671875, -1.3204716444015503, -2.2807724475860596, 1.2183996438980103, 2.183361291885376, -4.640719413757324, -3.5056958198547363, -3.494753837585449, -2.2133944034576416, -2.7587177753448486, -0.20491290092468262, 2.0567235946655273, -1.4969128370285034, 0.9400849938392639, 0.24472886323928833, -2.162200450897217, -0.8548105359077454, -0.0032326579093933105, 6.470640182495117, 1.2594355344772339, 0.5808035731315613, -1.0796040296554565, 0.018293416127562523, 2.7066569328308105, -2.8423986434936523, -5.07771635055542, 0.006249348167330027, -0.020786210894584656, 2.6114895343780518, -3.0161452293395996, -1.5933306217193604, 2.792980670928955, 4.724182605743408, 1.7264189720153809, 0.5872796773910522, -107.2390365600586, -0.015351727604866028, -6.318373680114746, -0.21780312061309814, 0.022162504494190216, -1.2884703874588013, -4.223625659942627, 1.4065172672271729, 5.892611980438232, -2.570741653442383, 0.6693251729011536, -21.057104110717773, 3.4673945903778076, -0.006423472426831722, -1.8700199127197266, -1.6258355379104614, -4.828707218170166, -3.802396774291992, 4.7131123542785645, -2.3880372047424316, 5.383055686950684, -4.18837833404541, -6.664872169494629, -1.8913466930389404, 1.18209707736969, -0.0028056714218109846, 1.6361933946609497, 2.1306233406066895, 1.4039063453674316, 0.7084353566169739, -0.0014773948350921273, 1.0895462036132812, 0.32934921979904175, 9.946737289428711, -1.3484735488891602, 2.4808146953582764, -2.593174934387207, 0.8794751167297363, 0.00993800163269043, -3.375110149383545, -2.849740982055664, -0.6280965209007263, -2.885512590408325, 6.162108421325684, 2.1293907165527344, -2.2298905849456787, -3.321636199951172, 4.802841663360596, 0.9614403247833252, -1.2442655563354492, -0.7045146822929382, 6.366767883300781, 36.476078033447266, -1.9596261978149414, 24.91034507751465, 3.079531192779541, -0.8630534410476685, -9.858327393885702e-05, -0.6405048966407776, 4.0029096603393555, 3.7459492683410645, -1.7821301221847534, 3.832366704940796, -0.5987117290496826, 0.736611008644104, -1.7469353675842285, 47.126678466796875, 1.3890068531036377, 1.0039958953857422, -2.712564706802368, -0.5958070755004883, 0.8301367163658142, 1.9179332256317139, -0.7868365049362183, -0.9799871444702148, -2.5325255393981934, -1.2979962825775146, -0.16727888584136963, -0.26254650950431824, 0.19418929517269135, 0.4689430594444275, -3.3567817211151123, 0.8956491947174072, 0.03577983379364014, -2.099928379058838, 1.8801982402801514, -0.836338222026825, -1.8293652534484863, 0.0744418054819107, 0.9977744817733765, -0.6100720763206482, -1.986645221710205, -0.9128201603889465, 22.44955825805664, -1.24368155002594, 0.0011036774376407266, 0.2805405855178833, -1.6607922315597534, 6.850566864013672, 0.04012175276875496, 0.4293113350868225, -0.1313888430595398, -1.6547250747680664, 0.016819996759295464, 2.117199659347534, 2.6497225761413574, 2.1830050945281982, -0.5427121520042419, -1.6239583492279053, -0.5955778360366821, -1.6617867946624756, -3.005645275115967, -29.511335372924805, 2.900053024291992, -0.8732378482818604, 0.5453559756278992, 1.3740956783294678, -1.4197499752044678, -0.09249046444892883, -16.44202423095703, -0.6894834041595459, -2.629380464553833, 0.21928590536117554, 0.17052340507507324, -0.24000290036201477, 1.1241499185562134, 14.72468090057373, -1.9161399602890015, -1.0860812664031982, -0.3193567991256714, 0.9618380069732666, 1.3477270603179932, -0.5605778694152832, 0.05606198310852051, 1.4878308773040771, -15.89085578918457, 25.398555755615234, -1.8547139167785645, 0.05907374620437622, -0.6386821866035461, 0.6163793206214905, 1.631028652191162, 1.7276266813278198, 1.0421233177185059, -1.0541061162948608, 0.4102756679058075, -2.242978096008301, -0.3512858748435974, -38.170650482177734, 0.11963647603988647, 1.7633631229400635, 0.7894418239593506, 3.543346643447876, -0.007944685406982899, -0.036007676273584366, -1.5018647909164429, -1.1023921966552734, 0.5328918695449829, -0.34838682413101196, 0.8991126418113708, 2.245692014694214, -0.35195112228393555, -0.4629190266132355, 0.6733525991439819, -1.668931484222412, -0.9858613014221191, 1.2055878639221191, 0.3725813031196594, -1.4769574403762817, -1.2307578325271606, -2.269843339920044, 2.76082706451416, 0.5000647306442261, -0.023169586434960365, 0.8954846262931824, -0.09322591125965118, -1.4120287895202637, -0.48008811473846436, 1.2142319679260254, -2.7666258811950684, 1.0458279848098755, 0.0783022791147232, 0.5189334154129028, -2.6585636138916016, -1.5601704120635986, -0.5085369348526001, -1.6272417306900024, 2.1406667232513428, -1.505043387413025, 0.01533097680658102, 0.44364243745803833, -1.3633754253387451, 0.7272945642471313, -0.1294495314359665, -1.388810634613037, 0.5960030555725098, 1.3820877075195312, 7.856280326843262, -1.024863600730896, 0.11661279201507568, 0.3404792845249176, 0.002275127451866865, 2.5184757709503174, -1.4376533031463623, -1.2418254613876343, -2.3820900917053223, -2.0093560218811035, -1.1968116760253906, 0.06965422630310059, -0.7945032715797424, 2.198975086212158, -0.692389726638794, 3.414149761199951, 2.0581319332122803, 2.6304070949554443, -1.3844199180603027, 1.5152531862258911, -3.7929415702819824, 0.8394501209259033, 2.8389463424682617, 0.11898458003997803, 0.44863447546958923, 3.6068906784057617, -1.6671788692474365, 1.403273582458496, 0.44426512718200684, -1.3303099870681763, -1.3769440650939941, -5.825491905212402, -2.24118709564209, 1.6175563335418701, 2.2917943000793457, -0.4237063527107239, -0.4055618643760681, -1.165013313293457, -0.29259002208709717, 3.4168801307678223, -0.4663808345794678, -0.30388402938842773, 0.8060280680656433, 2.2570462226867676, -1.2651113271713257, 1.1852082014083862, -1.3745884895324707, -0.0017960678087547421, 1.8028522729873657, -2.7868213653564453, 0.7556205987930298, -0.0013608725275844336, 0.0035530689638108015, -0.3729739785194397, 0.5713714361190796, 0.5013959407806396, -2.1043195724487305, 0.4572279155254364, -0.4075976014137268, 3.817108154296875, -22.93268394470215, 0.002274965401738882, 0.6761007308959961, -0.1251389980316162, -0.0020904846023768187, 1.1419299840927124, -0.3404821753501892, -0.4515312910079956, -1.5750970840454102, -1.3596796989440918, -0.3227313160896301, -3.111248731613159, 1.2991011142730713, 0.0005001180688850582, 1.55531644821167, -0.6232677698135376, 1.5040234327316284, -0.8323516845703125, 0.4377519190311432, 0.5888601541519165, 0.2631009817123413, 0.0869709923863411, 1.112981915473938, -2.7797348499298096, 0.23856878280639648, -0.0001703583839116618, 1.1824562549591064, 0.3411273956298828, 0.9910855889320374, 0.7790279388427734, -0.00046662669046781957, 0.2399463653564453, 0.7055432796478271, -10.12106704711914, 0.04026348143815994, 1.53853178024292, 1.8778629302978516, 0.23159347474575043, 1.1262763738632202, -3.323723554611206, 0.5991889834403992, -0.804880678653717, 1.440912127494812, -1.370697259902954, 0.10028231143951416, 0.1498207449913025, -2.287522554397583, -0.36550194025039673, -1.1991462707519531, 1.2569457292556763, -2.232456922531128, -1.102239966392517, 26.25924301147461, 0.7203322649002075, 0.5349252820014954, 0.16111519932746887, -0.8923778533935547, -3.116816151305102e-05, -0.9910421967506409, 0.0036231130361557007, -16.795866012573242, 0.6698178052902222, 1.254288673400879, 1.345075011253357, -1.9051474332809448, -1.0686075687408447, 5.040343761444092]
1: [0.5042707920074463, -0.2496209442615509, -0.8634483814239502, -0.5835296511650085, -0.02338375151157379, -0.2088267207145691, 0.5859711170196533, -0.6936846971511841, -0.32632556557655334, -0.3555752635002136, 1.832919955253601, 0.5532146096229553, 0.46944352984428406, -0.789335310459137, -0.590792179107666, -0.16529440879821777, 0.5898351669311523, -0.3145473003387451, -0.24232378602027893, -0.13005611300468445, -0.19128508865833282, -0.12075990438461304, -0.2964746356010437, -1.2802530527114868, 1.4493800401687622, 0.4002227485179901, 2.1987807750701904, 0.7706884145736694, -0.10561208426952362, -0.0793597549200058, -0.2922525703907013, 3.678339958190918, 0.05018853396177292, -0.30327412486076355, -0.25904640555381775, 0.18435226380825043, 0.3409588038921356, -0.05941639840602875, -0.2784349322319031, 0.48298752307891846, 1.3235416412353516, 0.4982312321662903, 0.7735443711280823, -0.29628437757492065, 1.9999710321426392, -0.8430324196815491, 1.6914632320404053, -1.8466264009475708, 0.6646765470504761, 0.23247188329696655, 0.386445552110672, -0.09745574742555618, 1.4197701215744019, 0.026925720274448395, -1.1846418380737305, 1.0678149461746216, -1.513565182685852, -0.20853197574615479, 0.10581496357917786, -1.9115513563156128, -0.4035073518753052, 0.2889404296875, 0.07768580317497253, 1.366318702697754, -0.22311681509017944, 0.6785697340965271, 0.07761132717132568, -0.60233074426651, -0.7230800986289978, 1.1414939165115356, -0.23507697880268097, 0.1609722077846527, 0.10250510275363922, 0.2576727569103241, -0.5737766623497009, 0.21377907693386078, 0.040352046489715576, -1.0770361423492432, -0.015408292412757874, -0.6778712272644043, 0.16405215859413147, 2.478827714920044, 1.0748594999313354, 0.038429856300354004, 0.49815112352371216, 1.7274585962295532, -0.006528746336698532, -0.014128899201750755, 0.319521427154541, 0.013580650091171265, 0.23583656549453735, -0.19258858263492584, -0.15442992746829987, -0.38417595624923706, -1.0828975439071655, -0.7417272925376892, -0.1986495852470398, 0.500773012638092, -0.2897978127002716, 0.6293907165527344, 0.33888959884643555, 0.5845029950141907, -1.3884997367858887, 0.0690297782421112, 0.2625269889831543, -0.40331244468688965, -0.08636689931154251, -0.728306770324707, -0.46044591069221497, 0.4760928750038147, -0.7705396413803101, -0.2424839735031128, 0.1911904513835907, 0.5943835377693176, -0.07821284234523773, 0.010232985019683838, 0.05921880155801773, -2.463653564453125, -0.05039241164922714, -0.18370653688907623, -0.9799387454986572, 1.3176441192626953, -0.001148237381130457, 1.0330126285552979, 0.2204539179801941, -0.7764623761177063, -0.1689559370279312, 0.7232418060302734, 0.38721221685409546, -0.24626262485980988, 1.8957926034927368, -0.03904774785041809, -0.4113755226135254, 0.3475051522254944, 0.012430534698069096, 0.43294352293014526, 0.1861063539981842, 0.6701629757881165, -0.44788745045661926, -1.064713478088379, -0.20672962069511414, -0.4185050427913666, 0.37705186009407043, -0.21774789690971375, 1.3257365226745605, -0.7583708763122559, 0.2378472089767456, 0.24671700596809387, 0.5156338214874268, 0.6162796020507812, -0.5772536396980286, -0.06478380411863327, 0.019850190728902817, 0.5322779417037964, -0.2279811054468155, 0.10185328871011734, 0.7227009534835815, -0.5949243307113647, 0.1784552037715912, 0.4029870927333832, -1.0772063732147217, 0.8512693047523499, 0.47599875926971436, 0.7313514351844788, -0.06817133724689484, -0.2420985847711563, 0.06668852269649506, -0.7434836030006409, -0.5948327779769897, -0.04776656627655029, -0.5311173796653748, 0.3012220561504364, 0.46321919560432434, 0.5596763491630554, -0.33984676003456116, -0.41785192489624023, -0.6579662561416626, -0.010242232121527195, -0.30997735261917114, 0.11455605179071426, -0.28277331590652466, -0.007842791266739368, 0.024023093283176422, 0.7216669917106628, 0.12979504466056824, 0.8823381662368774, -0.2823732793331146, -0.487424373626709, 0.06304818391799927, 0.9695602059364319, 5.446479320526123, 0.019377626478672028, 0.2984803020954132, -0.18959465622901917, -0.015841254964470863, -0.5621031522750854, 0.2911423146724701, -0.18632818758487701, -0.1541350781917572, -0.031107410788536072, -0.24579808115959167, -0.32276618480682373, 0.5007146596908569, 0.002948021050542593, 0.8840641379356384, 0.3515886664390564, 0.30940067768096924, -0.5647003650665283, -0.4259215295314789, 0.1928844302892685, -0.5451687574386597, 0.6392655968666077, 0.20968133211135864, -0.4810240864753723, 0.09111025929450989, 0.0009405448217876256, 0.0056105852127075195, 0.10162746906280518, 0.0818910300731659, 0.6383402347564697, -0.0033350966405123472, 0.0404200404882431, -0.7070439457893372, 2.6795847415924072, 0.05403343215584755, -0.24398119747638702, 0.326947420835495, 0.0075660645961761475, 0.06384938955307007, -0.10351799428462982, -0.49991655349731445, -0.3522312045097351, 0.7256879806518555, 0.379859983921051, 0.5467348694801331, -0.6075088977813721, 1.1453020572662354, -0.6107663512229919, 0.7526310682296753, 1.0731141567230225, 0.2888669967651367, -0.42704781889915466, 1.1383273601531982, -0.3939515948295593, 0.18978065252304077, -0.1336735039949417, 0.5314117074012756, 0.00012713450996670872, -0.37233084440231323, -1.3240811824798584, 0.7905625700950623, 0.008968297392129898, 0.6585823893547058, -0.08096044510602951, 0.2486356794834137, -0.059044428169727325, 4.2997612953186035, -0.021170899271965027, 0.00862026959657669, 0.14169839024543762, 0.06665827333927155, 0.04367271438241005, 0.017131594941020012, -0.00474623404443264, 0.13815288245677948, 0.025345882400870323, 0.03439291939139366, -0.20906361937522888, -0.03975065052509308, -0.044449836015701294, 0.07584669440984726, 0.05032643303275108, 0.11510079354047775, -0.05013289302587509, 0.03181909769773483, 0.09023793786764145, 0.08564513921737671, 0.06074584275484085, 0.08310365676879883, 0.014972876757383347, 0.17577451467514038, -0.06430722028017044, -0.013311325572431087, -0.20388512313365936, -0.017951296642422676, -2.434089947200846e-05, 0.11242926120758057, 0.04943772405385971, -0.07050254940986633, 0.00018048379570245743, 0.027958575636148453, 0.06291842460632324, 0.0952136367559433, -0.03926337882876396, 0.07205406576395035, 0.05610328167676926, 0.007861554622650146, -0.03549278900027275, 0.08138644695281982, -0.021029572933912277, 0.03507464379072189, -0.2068055123090744, 0.102205790579319, -0.15234996378421783, 0.16316288709640503, -0.05067845433950424, -0.0060672275722026825, -0.031140539795160294, -0.00034783087903633714, -0.058936312794685364, -0.012486369349062443, 0.27529585361480713, -0.0004101470112800598, 0.19945210218429565, 0.13394902646541595, 0.0014625489711761475, 0.16964511573314667, 0.040600065141916275, 0.06189049780368805, -0.001857716590166092, -0.118355393409729, 0.019614022225141525, -0.05487115681171417, 0.04356546700000763, 0.07278899848461151, -0.07890163362026215, -0.07249663025140762, 0.0978461354970932, 0.09005647152662277, -0.01535651832818985, -0.023618875071406364, 0.11178940534591675, 0.01764514297246933, -0.0015989132225513458, 0.14326733350753784, -0.009056124836206436, 0.08520989120006561, -0.008687425404787064, -0.15164493024349213, -0.08080056309700012, 0.03250609338283539, -0.02280992828309536, -0.22194573283195496, -8.841370799927972e-06, -0.0001780431775841862, -0.03880416229367256, 0.043610453605651855, -0.014051609672605991, 0.1650434285402298, 0.10076119005680084, 0.08989522606134415, 0.16426289081573486, 0.1889791637659073, 0.0726676732301712, 0.12609726190567017, 0.06668515503406525, -0.028549181297421455, -0.01089298352599144, 0.01006045937538147, 0.11449417471885681, -0.013098105788230896, 0.028441641479730606, 0.04682529717683792, -9.86188679235056e-05, 0.1810378134250641, 0.15831995010375977, -0.05029483884572983, 0.08552955090999603, 0.03963283449411392, 0.0601734034717083, -0.0009698085486888885, 0.00834160577505827, 0.014733982272446156, 0.012652197852730751, 0.13764114677906036, -0.006638635881245136, 0.023935934528708458, 0.11811915785074234, -0.13425703346729279, 1.0185436622123234e-05, -0.07481934130191803, -0.018941842019557953, 0.12728315591812134, 0.035334598273038864, 0.021771883592009544, 0.04877021908760071, 0.03171544522047043, -0.07314372807741165, 0.05126948654651642, 0.054095592349767685, -0.01669890806078911, -2.6402615276310826e-06, -0.0013961533550173044, 0.0673871636390686, -0.09105923026800156, 0.038108088076114655, 0.09883686900138855, 0.09136338531970978, 0.1312193125486374, 0.0808771550655365, 0.08053386956453323, -0.10462598502635956, 0.11317979544401169, -0.005215965211391449, -0.012696308083832264, -0.030071400105953217, -0.05938487872481346, 0.1372600793838501, 0.0019934079609811306, 0.015664760023355484, -0.029530301690101624, 0.005242965184152126, -0.009103461168706417, 0.017174363136291504, 0.10452650487422943, -0.006360497325658798, -0.01953914389014244, 0.15313366055488586, -0.041922759264707565, -0.01215503178536892, 0.021677345037460327, 0.02038753405213356, 0.010824142023921013, 0.11490243673324585, 0.11707411706447601, 0.056552451103925705, -0.0004954398609697819, 0.11100715398788452, -0.014746913686394691, 0.036515526473522186, -0.01624412275850773, 0.11492060869932175, 0.11127173155546188, 0.12746070325374603, 1.2915266779600643e-05, 0.07741322368383408, 0.007452377118170261, 0.049557920545339584, 8.956764759204816e-06, 2.1760317395091988e-05, -0.08085475116968155, 0.007139716297388077, -0.0682128369808197, 0.0638786181807518, 0.08916030824184418, -0.010211852379143238, 0.02289188653230667, -0.021857749670743942, 1.0585634299786761e-05, 0.08374175429344177, 0.018730785697698593, 2.9104867280693725e-05, 0.18682587146759033, -0.014543657191097736, 0.22028782963752747, 0.07578080147504807, 0.021718818694353104, 0.009200889617204666, -0.06221313029527664, -0.003766186535358429, -7.652759450138547e-06, -0.03627181053161621, -0.018313828855752945, -0.010572363622486591, 0.10073227435350418, 0.12959524989128113, 0.09748449921607971, 0.0664902999997139, 0.029352525249123573, 0.0949622094631195, 0.0638652816414833, -0.025757478550076485, -2.6958393846143736e-06, 0.12234809994697571, 0.0998416468501091, -0.010177375748753548, -0.07213874161243439, -3.5899222439184086e-06, 0.06987012922763824, 0.12446753680706024, -0.32076671719551086, 0.017251456156373024, 0.03572967275977135, 0.11212904751300812, 0.1688065379858017, -0.005433930084109306, 0.017597630620002747, 0.047909803688526154, 0.10448168218135834, -0.06991183012723923, 0.0011737197637557983, 0.01669473946094513, 0.087221160531044, -0.04919029772281647, 0.09537764638662338, -0.05928688868880272, -0.041482359170913696, -0.03137969225645065, 0.062223680317401886, -0.1455288827419281, 0.11076132953166962, -0.002442047232761979, 0.07510967552661896, -0.040158987045288086, -1.7202059776622036e-09, 0.03387068584561348, 0.12918996810913086, -0.05482678487896919, 0.04039941728115082, -0.05582547187805176, 0.06342430412769318, -0.026573799550533295, -0.005841828882694244, -0.09457060694694519, 0.006810860708355904, 0.013301840052008629, 0.02574027143418789, -0.010994390584528446, 0.04473600909113884, -0.00018962984904646873, 0.016476623713970184, 0.07055278867483139, 0.0020709331147372723, -0.0020074821077287197, 0.03762330487370491, 0.002107268199324608, 0.002083922503516078, -0.009304780513048172, -0.004703993443399668, 0.07475960999727249, 0.021174516528844833, -0.0020666669588536024, 0.06544956564903259, 0.0805387794971466, 0.055559828877449036, 0.06284907460212708, 0.002347479807212949, 0.005451075732707977, 0.04462458938360214, -0.005125260911881924, -0.09733831137418747, 0.04079970717430115, 0.011072544381022453, 0.10027723014354706, 0.02114160545170307, -0.3119656443595886, -0.005305600818246603, -0.005970462691038847, 0.010707213543355465, 0.07724396884441376, 0.009840923361480236, 0.08087095618247986, 0.053848035633563995, 0.06428701430559158, 0.08042215555906296, 0.08722881972789764, 0.06252496689558029, -0.0040565188974142075, 0.05041063576936722, 0.04156484454870224, 0.04030730947852135, -0.008664370514452457, 0.010408692993223667, 0.020910032093524933, 0.02149207890033722, 0.009896116331219673, -0.12481436878442764, 0.003467389615252614, 0.13156171143054962, 0.09793534129858017, 0.03792035952210426, 0.10220649838447571, 0.008655269630253315, 0.0023862107191234827, -0.0022444315254688263, 0.08224758505821228, -0.0009163307258859277, 0.007140644360333681, -0.002793943276628852, -0.002919282764196396, 0.05647964030504227, -0.01960127241909504, 0.10023877024650574, -0.09770453721284866, 0.03738408908247948, 0.03912859410047531, 0.004138064105063677, 0.013617735356092453, 0.017619390040636063, 0.049479372799396515, 0.013353743590414524, 0.03098157048225403, 0.003889005398377776, 0.003409056458622217, 0.004683832637965679, 0.020093079656362534, 0.006123908795416355, 0.00921275932341814, 0.03955543786287308, 0.03294864296913147, 0.0005243122577667236, 0.0014599000569432974, 0.017992114648222923, 0.05136841535568237, 0.024076109752058983, 0.1293637752532959, 0.08452059328556061, 0.0793648362159729, 0.0679212287068367, 0.13084453344345093, 0.008510220795869827, -0.05895012617111206, 0.02189764566719532, 0.009903066791594028, 0.043801434338092804, 0.05304621905088425, 0.005960490088909864, 0.004113100003451109, 0.06945804506540298, 0.041199758648872375, 0.008741460740566254, 0.08641014993190765, 0.12170380353927612, 0.007271489594131708, -0.011694960296154022, 0.023778805509209633, 0.0847550481557846, 0.040561094880104065, 0.00561939412727952, -0.0006013051606714725, -0.0016121193766593933, 0.06494800001382828, 0.005361001007258892, -0.005114348605275154, 0.030231861397624016, 0.01145525835454464, 0.00013097780174575746, 0.02087634615600109, 0.020509770140051842, 0.05917789414525032, -0.012634892016649246, 0.06050393730401993, 0.09249287098646164, 0.009837746620178223, -0.11818119138479233, 0.05420415848493576, 0.016234228387475014, 0.03686323016881943, -0.0011829565046355128, -0.004403876140713692, 0.09834393858909607, 0.015087887644767761, 0.0003342796990182251, -0.007699452340602875, 0.055405836552381516, 0.07377921044826508, 0.10663974285125732, 0.04210063815116882, 0.028471095487475395, 0.05732347071170807, -0.007352063432335854, 0.020279591903090477, 0.003929657395929098, 0.020824536681175232, 0.03135855868458748, -0.0006866417825222015, 0.036587443202733994, 0.019101662561297417, 0.007835468277335167, 0.005516975186765194, 0.08939368277788162, 0.04313044622540474, 0.006936501711606979, 0.04800627380609512, 0.04979310557246208, -0.019641105085611343, 0.03343529999256134, 0.09136045724153519, 0.007427002303302288, 0.009995108470320702, 0.12755186855793, 0.025875570252537727, -0.005688079632818699, 0.005116034299135208, 0.05206485092639923, -0.006617444567382336, 0.07359560579061508, -0.04342780262231827, 0.07882071286439896, 0.04809485003352165, 0.0651254877448082, 0.0010118978098034859, 0.05455874651670456, -0.005987765267491341, 0.01529947854578495, 0.0007875033770687878, -0.0024488887283951044, 0.013583371415734291, 0.014623100869357586, 0.01093110628426075, 0.015432543121278286, 0.040582332760095596, 0.0007301500299945474, 0.11863882839679718, -0.12599003314971924, -0.0019736229442059994, 0.09791477024555206, 0.000667766435071826, 0.001567342085763812, 0.08488970994949341, -0.0027087805792689323, 0.1984623521566391, 0.046526096761226654, -0.0014385140966624022, 0.0015804776921868324, 0.04480280727148056, 0.06361078470945358, -0.00028570243739522994, 0.06542360782623291, 0.000537005951628089, -0.0019807661883533, 0.0709172934293747, 0.07452262938022614, 0.08026450872421265, 0.048014573752880096, 0.0784502774477005, 0.08680583536624908, 0.01846153475344181, 0.002908135997131467, -9.148754179477692e-05, 0.10349033772945404, 0.11299744993448257, 0.0028455588035285473, 0.013431942090392113, 0.0003469056391622871, 0.07790769636631012, 0.05476387217640877, -0.036940641701221466, -0.01764616183936596, -0.008822191506624222, 0.16284865140914917, 0.1374136209487915, -0.0040039075538516045, 0.01960005983710289, -0.005914526060223579, 0.057502925395965576, 0.01176769845187664, 0.05286022275686264, 0.06286854296922684, 0.02293005958199501, 0.04201051592826843, 0.035138439387083054, 0.02312644198536873, 0.026339668780565262, 0.0017731031402945518, 0.052281517535448074, 0.019060635939240456, 0.10064774006605148, 0.0020700963214039803, 0.06334188580513, 0.06595036387443542, -1.3099184798193164e-05, -0.004822188522666693, -0.010965120047330856, -0.01115427352488041, 0.0329221747815609, 0.009950479492545128, 0.06032123416662216, 0.005048105493187904, 0.052803169935941696, -0.06188470125198364, -0.08523252606391907, 0.0704842135310173, 0.18197566270828247, 0.08594590425491333, 0.06103555113077164, 0.039579130709171295, -0.08999530971050262, 0.2233971655368805, 0.06389379501342773, 0.059818334877491, -0.2885058522224426, -0.09804746508598328, -0.07664584368467331, 0.1395132839679718, 0.10446135699748993, 0.11974221467971802, -0.0705697238445282, 0.04633873701095581, 0.12102147936820984, 0.11578433960676193, 0.10539615154266357, 0.1085241287946701, 0.05957362800836563, 0.23163247108459473, -0.20518620312213898, -0.09034701436758041, -0.21229466795921326, -0.08072583377361298, 0.010648424737155437, 0.12780827283859253, 0.08025630563497543, -0.4037233591079712, -0.005117276217788458, 0.05184009671211243, 0.054945945739746094, 0.04304317757487297, -0.05589649826288223, 0.10384993255138397, 0.12283294647932053, -0.01830354332923889, -0.15502123534679413, 0.008032742887735367, -0.05307340249419212, 0.04904849827289581, -0.3022301495075226, -0.020656488835811615, -0.268180251121521, 0.3206174373626709, -0.11512431502342224, -0.023603573441505432, -0.037168167531490326, 0.010701218619942665, -0.1465790718793869, 0.0016268682666122913, 0.3660636842250824, -0.08346627652645111, 0.3053695857524872, 0.1443254053592682, -0.009471781551837921, 0.28190895915031433, 0.0852542370557785, 0.04610469192266464, -0.022715339437127113, -0.24742817878723145, 0.042169272899627686, -0.11823642253875732, 0.051171474158763885, 0.08995316177606583, 0.14462901651859283, -0.003838786156848073, 0.07586124539375305, 0.017223984003067017, -0.014751479029655457, -0.037016868591308594, 0.12190727144479752, 0.03832745924592018, -0.0018145684152841568, 0.24225552380084991, 0.016968905925750732, 0.12777890264987946, -0.03242139145731926, -0.5256739854812622, -0.1999237984418869, 0.0014319568872451782, -0.05207882076501846, -0.23992325365543365, 0.0009561319020576775, 0.001622444367967546, -0.03489936515688896, 0.05788993090391159, -0.008362085558474064, 0.16291317343711853, 0.12885898351669312, 0.16433677077293396, 0.2856992483139038, 0.29340770840644836, 0.024560512974858284, -0.22580666840076447, 0.08883113414049149, -0.10233006626367569, -0.02267947420477867, -0.04491466283798218, 0.24782875180244446, -0.007669318467378616, 0.04371466487646103, 0.1338927000761032, 0.009388165548443794, 0.23274129629135132, 0.22823220491409302, -0.07524117082357407, 0.12178312987089157, 0.06177569925785065, 0.07695408165454865, -0.05626632273197174, 0.02663835883140564, -0.006962823681533337, -0.00979517586529255, 0.3450455665588379, 0.01260164100676775, 0.028646191582083702, 0.2068101018667221, -0.2164933979511261, 0.00010765839397208765, -0.1530287116765976, -0.017194868996739388, 0.21856512129306793, 0.017256813123822212, -0.059367965906858444, 0.04674569517374039, 0.045671917498111725, -0.2316877394914627, 0.06834185123443604, 0.08953522890806198, -0.020604819059371948, -0.001481289742514491, -0.0829724594950676, 0.08456115424633026, -0.08807485550642014, 0.08323603868484497, 0.18818871676921844, 0.10564578324556351, 0.16531699895858765, 0.05320652946829796, 0.08813655376434326, -0.2049565613269806, 0.21682286262512207, -0.05594261735677719, -0.022786451503634453, -0.08786454051733017, -0.08914497494697571, 0.13438522815704346, 0.016923485323786736, 0.05348007380962372, -0.08303026109933853, 0.045356299728155136, -0.04122190549969673, -0.006799619644880295, 0.14307934045791626, -0.024439021944999695, -0.020518947392702103, 0.2437007576227188, -0.19779488444328308, -0.05972381681203842, -0.023887932300567627, 0.01405220665037632, 0.04314401000738144, 0.13877110183238983, 0.1615859717130661, 0.10022422671318054, 0.007626090198755264, 0.14925016462802887, -0.05308051407337189, -0.00042298436164855957, -0.058449313044548035, 0.16587889194488525, 0.116156667470932, 0.19229228794574738, 0.0011299006873741746, 0.11421898007392883, -0.033667273819446564, 0.06067010760307312, 0.0008418465731665492, -0.0025728389155119658, -0.10993867367506027, -0.009364515542984009, -0.15711921453475952, 0.05852450802922249, 0.13733170926570892, -0.0027662571519613266, -0.02967984974384308, -1.3963520526885986, -0.0020694213453680277, 0.05475417152047157, 0.03023742511868477, 0.0017317121382802725, 0.18941664695739746, -0.05710490420460701, 0.27843043208122253, 0.06790944188833237, -0.011711876839399338, 0.05588433891534805, 0.11382340639829636, 0.004478901624679565, -0.0003310632018838078, -0.08963736891746521, -0.06312372535467148, -0.07786744087934494, 0.18395927548408508, 0.15792983770370483, 0.07115078717470169, 0.16439273953437805, -0.03783881291747093, 0.05289292708039284, 0.11765597015619278, 0.0027275532484054565, -0.00010441560880281031, 0.1254977285861969, 0.13171900808811188, -0.01549367606639862, -0.0981818214058876, 0.0003447204944677651, 0.09220041334629059, 0.19456633925437927, -0.3068840801715851, -0.012758444994688034, 0.034010063856840134, 0.1387263834476471, 0.14168044924736023, -0.011232420802116394, 0.03950014337897301, 0.08751676976680756, 0.13448354601860046, -0.13156968355178833, -0.0013559013605117798, -0.02786051668226719, 0.137159526348114, -0.15009327232837677, 0.1597268432378769, -0.10713811218738556, -0.1687840223312378, -0.04502258822321892, 0.14213934540748596, -0.13981102406978607, 0.19267335534095764, -0.064721018075943, 0.09771263599395752, 0.0038000643253326416, -1.3171530554245692e-05, 0.06215705722570419, 0.22665509581565857, -0.09280769526958466, 0.03715135157108307, -0.1076032966375351, 0.08934254199266434, -0.04189494997262955, 0.08550143241882324, -0.8365615010261536, -0.03357666730880737, 0.01944354735314846, 0.16194689273834229, 0.08304425328969955, 0.054041408002376556, 0.021503524854779243, -0.030999068170785904, 0.1718001514673233, 0.03393184766173363, 0.04235384613275528, -0.2554456889629364, -0.05735953152179718, -0.05630713328719139, 0.10020569711923599, 0.07308708131313324, 0.12079921364784241, -0.059212133288383484, 0.03923635184764862, 0.09912341088056564, 0.09551168233156204, 0.07328702509403229, 0.09398333728313446, 0.027984745800495148, 0.20785145461559296, -0.10743921250104904, -0.03604293242096901, -0.15129362046718597, -0.032411690801382065, -0.0002634775300975889, 0.11403149366378784, 0.06365671753883362, -0.06611248105764389, 0.00010142653627553955, 0.0437270849943161, 0.06277866661548615, 0.07708734273910522, -0.051578205078840256, 0.07659582793712616, 0.07749516516923904, -0.003655705600976944, -0.08091117441654205, 0.06461643427610397, -0.030871275812387466, 0.035653337836265564, -0.25227874517440796, 0.07180611044168472, -0.20238874852657318, 0.21804198622703552, -0.07372350990772247, -0.01231299713253975, -0.03913296386599541, 0.00031094488804228604, -0.0038931809831410646, -0.0065813688561320305, 0.31470081210136414, -0.03821837157011032, 0.23226019740104675, 0.13168030977249146, -0.004162836819887161, 0.2277059406042099, 0.059293538331985474, 0.05795200169086456, -0.0044251373037695885, -0.16002345085144043, 0.02766750380396843, -0.06625628471374512, 0.04483175277709961, 0.09439259022474289, -0.036470234394073486, -0.022529780864715576, 0.09901637583971024, 0.07520537078380585, -0.017978336662054062, -0.03159152716398239, 0.13149231672286987, 0.024484826251864433, -0.005585823208093643, 0.18068169057369232, -0.005856454372406006, 0.10962790250778198, -0.027716154232621193, -0.2907291352748871, -0.12856820225715637, 0.025436360388994217, -0.03612126410007477, -0.2405278980731964, 0.00019350233196746558, 5.986992982798256e-05, -0.05386142432689667, 0.04234394058585167, -0.01661788672208786, 0.16324995458126068, 0.10778900235891342, 0.10877852886915207, 0.20439359545707703, 0.22138643264770508, 0.06250372529029846, 0.018248561769723892, 0.07728134095668793, -0.0547613762319088, -0.026822810992598534, -0.009409390389919281, 0.14413262903690338, -0.01409284770488739, 0.03560161963105202, 0.07170772552490234, 0.00022731302306056023, 0.20675605535507202, 0.17514684796333313, -0.06416600197553635, 0.10393878072500229, 0.04340514540672302, 0.06863361597061157, -0.014091148972511292, 0.019526666030287743, 0.008816417306661606, 0.012731553986668587, 0.2302032858133316, -0.0018177276942878962, 0.026449043303728104, 0.14101675152778625, -0.16058647632598877, -3.422221925575286e-05, -0.09940680861473083, -0.025276482105255127, 0.15776778757572174, 0.03569822758436203, 0.0022218339145183563, 0.043115198612213135, 0.038471415638923645, -0.08430106937885284, 0.0613812692463398, 0.05785970389842987, -0.020683109760284424, -0.00012372211494948715, -0.02013867162168026, 0.06369534134864807, -0.09737071394920349, 0.04874999821186066, 0.12768396735191345, 0.10473133623600006, 0.15096628665924072, 0.07434553653001785, 0.08810369670391083, -0.13917283713817596, 0.14740101993083954, -0.013469431549310684, -0.015912769362330437, -0.0433049276471138, -0.08149924874305725, 0.148276686668396, 0.00767655810341239, 0.027650147676467896, -0.05076099559664726, 0.014460188336670399, -0.007981138303875923, 0.009290307760238647, 0.11984197050333023, -0.013323217630386353, -0.025846054777503014, 0.1829606592655182, -0.052321236580610275, -0.03178771212697029, 0.008819177746772766, 0.018228955566883087, 0.014352528378367424, 0.12038545310497284, 0.13799594342708588, 0.07749733328819275, -0.0005573192611336708, 0.12484537810087204, -0.02703282982110977, 0.015007715672254562, -0.012918741442263126, 0.13534291088581085, 0.10848288238048553, 0.14601556956768036, 5.0143531552748755e-05, 0.08885950595140457, -0.004325400106608868, 0.05595280975103378, 2.340693026781082e-05, -3.553218994056806e-05, -0.10085830837488174, 0.0041689518839120865, -0.10329261422157288, 0.06852424144744873, 0.10804066807031631, -0.009024659171700478, -0.001251809298992157, -0.37359553575515747, -2.9609229386551306e-05, 0.07318945974111557, 0.018375208601355553, 7.301966252271086e-05, 0.19438213109970093, -0.02649739198386669, 0.2366293966770172, 0.07174099236726761, 0.003870949149131775, 0.023496370762586594, -0.021146703511476517, -0.009512901306152344, -2.032763950410299e-05, -0.06529542058706284, -0.03621010482311249, -0.029498092830181122, 0.12348485738039017, 0.14195504784584045, 0.09922737628221512, 0.0911940187215805, 0.0031634047627449036, 0.07850499451160431, 0.08294211328029633, -0.015782451257109642, -6.166086677694693e-06, 0.12490294873714447, 0.10763232409954071, -0.011663977056741714, -0.09110654890537262, -3.540567604431999e-06, 0.07749628275632858, 0.15049031376838684, -0.26582157611846924, 0.017282698303461075, 0.03970741480588913, 0.11276837438344955, 0.16108086705207825, -0.004551338031888008, 0.023335088044404984, 0.061128538101911545, 0.11790231615304947, -0.09521138668060303, -0.0018910225480794907, -0.0007976759225130081, 0.107426717877388, -0.07644326239824295, 0.11726231127977371, -0.07607667148113251, -0.07949350774288177, -0.03539963439106941, 0.08911384642124176, -0.1673012524843216, 0.13041344285011292, -0.02134159579873085, 0.08062125742435455, -0.03855234384536743, -1.3828707956520248e-08, 0.049440737813711166, 0.1624538153409958, -0.08892687410116196, 0.04143819212913513, -0.07745055854320526, 0.06784451007843018, -0.036212895065546036, 0.01060258224606514, -0.2792291045188904, -0.10234669595956802, 0.09691165387630463, 0.15889184176921844, 0.07181330025196075, 0.05601951479911804, 0.03965897485613823, -0.115927554666996, 0.20703482627868652, 0.06236647814512253, 0.06030740961432457, -0.1937033087015152, -0.10910708457231522, -0.08083942532539368, 0.1131911501288414, 0.10438303649425507, 0.0988064557313919, -0.07244820147752762, 0.0458306260406971, 0.13173717260360718, 0.13221631944179535, 0.11067105829715729, 0.08762773126363754, 0.08133666217327118, 0.1858045607805252, -0.23924872279167175, -0.10519459843635559, -0.7530287504196167, -0.11625777184963226, 0.0672268494963646, 0.13719581067562103, 0.07711697369813919, -2.0131142139434814, -0.03227073699235916, 0.038706373423337936, 0.033919572830200195, 0.046798426657915115, -0.02991957776248455, 0.12557858228683472, 0.13776984810829163, -0.008780986070632935, -0.1432151347398758, -0.02212277054786682, -0.050526026636362076, 0.04815969243645668, -0.22320345044136047, 0.4209395945072174, -0.22296541929244995, 0.3295363187789917, -0.10283100605010986, -0.002711348235607147, -0.03362546116113663, 0.060968946665525436, -0.7516912221908569, 0.017358945682644844, 0.35316139459609985, -0.059791430830955505, 0.31955665349960327, 0.17098429799079895, -0.01105278916656971, 0.4362746775150299, 0.06104358658194542, 0.04635849595069885, -0.02365555427968502, -0.24379239976406097, 0.03329496830701828, -0.14251235127449036, 0.06744294613599777, 0.041028689593076706, 0.5763152837753296, -0.7701829075813293, 0.05012835934758186, -0.045192256569862366, -0.002530224621295929, -0.020509880036115646, 0.07118234038352966, 0.03093675896525383, 0.024344634264707565, 0.21773365139961243, 0.025884585455060005, 0.10630565881729126, -0.013824520632624626, -0.4530980885028839, -0.1903257519006729, -0.024365514516830444, -0.02306259423494339, -0.19944830238819122, 0.0035075265914201736, 0.009039758704602718, 0.0013327151536941528, 0.06619275361299515, 0.002962580882012844, 0.20217716693878174, 0.13665902614593506, 0.2019529938697815, 0.2929152548313141, 0.317682683467865, 0.019163426011800766, -0.36398157477378845, 0.06208847463130951, -0.12107445299625397, 0.02688302844762802, -0.04503512382507324, 0.31617680191993713, 0.006460230797529221, 0.04701010137796402, 0.15028110146522522, 0.05372604727745056, 0.20971816778182983, 0.24338001012802124, -0.06047013774514198, 0.09597751498222351, 0.09331808984279633, 0.07359268516302109, -0.07416281849145889, 0.016467880457639694, -0.0174576248973608, -0.049703050404787064, 0.8222234845161438, 0.03855563700199127, 0.01756691187620163, 0.23530027270317078, -0.2174556851387024, 0.0007487391703762114, -0.17211998999118805, 0.018987223505973816, 0.21689319610595703, -0.01609772816300392, -0.08030547201633453, 0.050732262432575226, 0.05646779388189316, -0.8567036390304565, 0.06680069118738174, 0.1048823818564415, -0.0007201358675956726, -0.0074071926064789295, -0.12842798233032227, 0.11792612820863724, -0.0618169866502285, 0.07674604654312134, 0.18269875645637512, 0.09502154588699341, 0.15450653433799744, 0.05996527895331383, 0.07110445946455002, -0.20178963243961334, 0.21684379875659943, -0.08473679423332214, -0.016100285574793816, -0.10190826654434204, -0.04810340702533722, 0.10487792640924454, 0.010971895419061184, 0.06509889662265778, -0.07309421896934509, 0.07887856662273407, -0.001017903909087181, -0.016285769641399384, 0.17167922854423523, -0.028801731765270233, 0.014792345464229584, 0.26544344425201416, -0.2473127692937851, -0.030127428472042084, -0.021098896861076355, 0.010202018544077873, 0.08615709841251373, 0.1532498449087143, 0.1508442908525467, 0.10449954867362976, 0.02802969329059124, 0.15480580925941467, -0.08667829632759094, 0.01080339401960373, -0.289310097694397, 0.1510389745235443, 0.12672516703605652, 0.208581805229187, 0.0062562027014791965, 0.1380215436220169, -0.04639401659369469, 0.06322447210550308, 0.00484443036839366, -0.01501180324703455, -0.09376484900712967, -0.00753609836101532, -0.14137324690818787, 0.04412981495261192, 0.13266417384147644, -0.007671413943171501, -0.022131651639938354, -1.7235933542251587, -0.012099098414182663, 0.05977972596883774, 0.036496780812740326, 0.009681519120931625, 0.16638609766960144, -0.07909911870956421, 0.2747705280780792, 0.08137063682079315, 0.003758169710636139, 0.056555286049842834, 0.26766127347946167, -0.0045044273138046265, -0.001775318174622953, -0.04652083292603493, -0.07953958958387375, -0.06874190270900726, 0.2217060625553131, 0.15769727528095245, 0.01576811820268631, 0.2023865431547165, -0.02194589003920555, 0.05670730769634247, 0.10483694076538086, -0.0026716403663158417, -0.0005681101465597749, 0.10925202071666718, 0.12519827485084534, -0.01030251756310463, -0.06920677423477173, 0.0021131651010364294, 0.0921991616487503, 0.18916845321655273, -0.606664776802063, -0.06857920438051224, 0.00275576114654541, 0.1708010733127594, 0.15858319401741028, -0.021281348541378975, 0.06223165616393089, 0.0858699306845665, 0.12337233126163483, -0.09261267632246017, 0.006906203925609589, -0.02111368253827095, 0.1280757486820221, -0.17482581734657288, 0.15160538256168365, -0.09879894554615021, -0.18790465593338013, -0.04942743480205536, 0.1798250824213028, -0.14991654455661774, 0.23091231286525726, -0.01964539662003517, 0.1107458844780922, 0.05079559609293938, -8.002455433597788e-05, 0.05686977505683899, 0.2169753909111023, -0.2515121400356293, 0.030964089557528496, -0.10841668397188187, 0.09744568169116974, -0.02934093028306961, 0.1479371339082718, -1.385569453239441, -0.005380988121032715, 0.005435928236693144, 0.08549752831459045, 0.03193851560354233, 0.04817842319607735, 0.007913368754088879, -0.0004469212144613266, 0.11361151188611984, 0.01662076637148857, 0.016056686639785767, -0.1020125076174736, -0.01910070702433586, -0.020100772380828857, 0.0391475148499012, 0.026685316115617752, 0.09735231101512909, -0.01215203758329153, 0.018545949831604958, 0.07651667296886444, 0.08262461423873901, 0.0621395967900753, 0.0775255560874939, 0.008027484640479088, 0.10270173102617264, -0.010304313153028488, -0.012506323866546154, -0.0835263580083847, 0.01886228658258915, 0.0007215095101855695, 0.10515455156564713, 0.038512084633111954, -0.04392783343791962, -0.0003233277820982039, 0.01542586088180542, 0.03526642918586731, 0.08189039677381516, -0.020094329491257668, 0.07697847485542297, 0.058850549161434174, 0.03552659600973129, 0.014399047940969467, 0.08599260449409485, 0.022746548056602478, 0.014126292429864407, -0.08694089204072952, 0.02732711471617222, -0.0676775798201561, 0.08232178539037704, -0.026313789188861847, 0.002620462328195572, -0.007287817075848579, 0.0007468531257472932, -0.025635233148932457, -0.004773701541125774, 0.21264636516571045, 0.03727567940950394, 0.11354679614305496, 0.11138677597045898, 0.0043199313804507256, 0.08684223145246506, 0.025250153616070747, 0.07231588661670685, -0.0009029586799442768, -0.06158106029033661, 0.013049590401351452, -0.027369283139705658, 0.05098389834165573, 0.04185013100504875, -0.02384590171277523, -0.022171813994646072, 0.06999024748802185, 0.06705239415168762, -0.005622419063001871, -0.00885266438126564, 0.07580289989709854, 0.038472145795822144, 0.0012857289984822273, 0.09452202916145325, -0.0034210514277219772, 0.05240894481539726, -0.009079596027731895, -0.1057940348982811, -0.04911172017455101, 0.022897295653820038, 0.006344666704535484, -0.09793950617313385, 9.271226736018434e-05, 9.105002391152084e-05, -0.022213930264115334, 0.04477299004793167, 0.0051967669278383255, 0.14115528762340546, 0.09234196692705154, 0.08404278755187988, 0.12135066092014313, 0.1624068319797516, 0.03702586889266968, 0.026682132855057716, 0.04508921876549721, -0.016654975712299347, 0.0041163619607687, 0.03161914646625519, 0.05207034572958946, -0.006063826382160187, 0.053917765617370605, 0.05044758319854736, 0.0006966379005461931, 0.1437484622001648, 0.1403224915266037, -0.026646271347999573, 0.04080704599618912, 0.027335472404956818, 0.07788170129060745, 0.02163807675242424, 0.014424013905227184, 0.004536382853984833, 0.011844375170767307, 0.07682501524686813, -0.0024725557304918766, 0.008842221461236477, 0.07244053483009338, -0.059640154242515564, 3.4654947285162052e-06, -0.02585696242749691, -0.0047208890318870544, 0.09822498261928558, 0.01359544973820448, 0.04113207384943962, 0.06855349242687225, 0.02273651212453842, -0.04134706035256386, 0.05862009525299072, 0.02868078276515007, 0.0057442933320999146, -0.00012680968211498111, -0.00448242062702775, 0.07614597678184509, -0.04046012833714485, 0.016343707218766212, 0.04655881226062775, 0.07751104980707169, 0.10838936269283295, 0.0971861332654953, 0.06780002266168594, -0.03995760530233383, 0.08964140713214874, -0.004344401881098747, 0.002885085064917803, -0.012808182276785374, -0.030100980773568153, 0.09061528742313385, 0.0029573473148047924, 0.027801847085356712, -0.010190987959504128, 0.004152130335569382, -0.0026683195028454065, 0.053196363151073456, 0.07335229218006134, -0.0006333882920444012, 0.01332803163677454, 0.10056720674037933, -0.015097805298864841, 0.002939550206065178, 0.05281328037381172, 0.015932632610201836, 0.006365586072206497, 0.12089600414037704, 0.07335233688354492, 0.02957254648208618, -0.00036251614801585674, 0.08111518621444702, -0.008462177589535713, 0.04526675492525101, -0.006224482320249081, 0.10117365419864655, 0.07185738533735275, 0.09546196460723877, 9.022792801260948e-05, 0.0672035664319992, 0.0008759857155382633, 0.03404131531715393, 6.542510527651757e-05, -0.00018660392379388213, -0.03939172625541687, 0.01221349649131298, -0.03745541349053383, 0.04260852560400963, 0.07042425870895386, -0.0034539790358394384, 0.06619611382484436, -0.1262170374393463, -0.0001514967589173466, 0.08792721480131149, 0.008165182545781136, 0.00013944126840215176, 0.13966283202171326, -0.007138666696846485, 0.21298526227474213, 0.05878865346312523, 0.002251585014164448, 0.009932444430887699, -0.016915637999773026, 0.029073242098093033, -2.7785266865976155e-05, 0.006127879023551941, -0.011109442450106144, -0.01044091209769249, 0.08466272801160812, 0.10405908524990082, 0.09569437801837921, 0.053612738847732544, 0.04661383852362633, 0.08580251038074493, 0.04519011825323105, -0.005994446109980345, -8.823395546642132e-06, 0.1122245267033577, 0.10934068262577057, -0.004028560593724251, -0.03541523218154907, 2.38154134422075e-05, 0.07677420228719711, 0.09549246728420258, -0.12063387036323547, 0.006088096648454666, 0.01855771616101265, 0.13557220995426178, 0.145441934466362, 0.0027929949574172497, 0.019275397062301636, 0.021217945963144302, 0.08487238734960556, -0.036128804087638855, 0.026757001876831055, 0.03717639297246933, 0.059608325362205505, -0.0035943128168582916, 0.06654604524374008, -0.02219419553875923, -0.013564005494117737, -0.012350638397037983, 0.058914922177791595, -0.06737811118364334, 0.10409006476402283, -0.004034081473946571, 0.06912273168563843, 0.007255349308252335, -9.586656233295798e-07, 0.017671220004558563, 0.0614982545375824, -0.027657615020871162, 0.03688551485538483, -0.027391742914915085, 0.06184650957584381, -0.012008273042738438, 0.01871950551867485, -0.06664764881134033, -0.0404825434088707, 0.011083893477916718, 0.1893688142299652, 0.10108470916748047, 0.0501408576965332, 0.022522535175085068, -0.03222262114286423, 0.17813801765441895, 0.04138513654470444, 0.05102122575044632, -0.3179014027118683, -0.06510492414236069, -0.06870175898075104, 0.11601835489273071, 0.07819048315286636, 0.13054949045181274, -0.0794907882809639, 0.05432703346014023, 0.10049092769622803, 0.09233109652996063, 0.07208320498466492, 0.09050177782773972, 0.02438364550471306, 0.25872766971588135, -0.1310744285583496, -0.02952558547258377, -0.2815491557121277, -0.04131085425615311, 0.006188897415995598, 0.1151672899723053, 0.0680777058005333, -0.2364571988582611, -0.002899924758821726, 0.04716954380273819, 0.07679674029350281, 0.09051154553890228, -0.06232573837041855, 0.07855431735515594, 0.06913931667804718, -0.007467273622751236, -0.09695534408092499, 0.06913729757070541, -0.0560525543987751, 0.04512684792280197, -0.3143720328807831, 0.1188337504863739, -0.24184265732765198, 0.2569982707500458, -0.08594579994678497, -0.019547641277313232, -0.05158325284719467, 0.005801517050713301, -0.12597762048244476, -0.016329141333699226, 0.3487483859062195, -0.059438854455947876, 0.27325695753097534, 0.1439175009727478, -0.0020784251391887665, 0.2400216907262802, 0.05980891361832619, 0.05066109448671341, 0.0016771117225289345, -0.18276605010032654, 0.030813809484243393, -0.0847567692399025, 0.041580893099308014, 0.11672446131706238, -0.057026125490665436, -0.08498651534318924, 0.11992994695901871, 0.09322258830070496, -0.020324405282735825, -0.03406772017478943, 0.1583455502986908, 0.007077598944306374, -0.009298888966441154, 0.20172642171382904, -0.016488783061504364, 0.12563498318195343, -0.024816500023007393, -0.2576896548271179, -0.14134475588798523, 0.034393876791000366, -0.04719807207584381, -0.3143268823623657, 0.00045572896488010883, 0.0007970381993800402, -0.07572313398122787, 0.04416579008102417, -0.027805116027593613, 0.17835009098052979, 0.10628800094127655, 0.10830669105052948, 0.21715378761291504, 0.2285005748271942, 0.0890066921710968, 0.10548967868089676, 0.08040489256381989, -0.06627451628446579, -0.03582864999771118, -0.014016591012477875, 0.1658790409564972, -0.017827820032835007, 0.023379452526569366, 0.06542394310235977, 0.005249069072306156, 0.23727566003799438, 0.18552298843860626, -0.08017310500144958, 0.12723107635974884, 0.0491659939289093, 0.05633524805307388, -0.022904880344867706, 0.018391449004411697, 0.015029601752758026, 0.02224304899573326, 0.23399531841278076, -0.009397754445672035, 0.03084627166390419, 0.15958693623542786, -0.19604770839214325, 5.9786376368720084e-05, -0.12067392468452454, -0.03434287756681442, 0.17199188470840454, 0.04553883150219917, -0.005224641412496567, 0.03343214839696884, 0.04830971732735634, -0.15778188407421112, 0.06521470099687576, 0.06464698910713196, -0.033816859126091, -0.0008037155494093895, -0.01652158610522747, 0.051837339997291565, -0.13263888657093048, 0.0578097440302372, 0.14858722686767578, 0.10793429613113403, 0.16128265857696533, 0.06966312974691391, 0.10310307890176773, -0.1666366159915924, 0.15272647142410278, -0.007445313036441803, -0.019791848957538605, -0.05208513140678406, -0.10271792113780975, 0.17620758712291718, 0.0057618264108896255, 0.009088942781090736, -0.056258685886859894, 0.01196399237960577, -0.0035861670039594173, -0.01765580102801323, 0.13614754378795624, -0.016910025849938393, -0.03915420174598694, 0.20708030462265015, -0.06403137743473053, -0.04120628535747528, -0.0075935423374176025, 0.027995966374874115, 0.018536590039730072, 0.1167064979672432, 0.15684428811073303, 0.08920325338840485, 0.0018986407667398453, 0.13961289823055267, -0.02941088378429413, 0.005017939954996109, -0.031241493299603462, 0.1370232254266739, 0.12901237607002258, 0.161016047000885, 0.0006332891643978655, 0.09663444757461548, 0.0029845917597413063, 0.06867179274559021, 0.00048001628601923585, -0.0014449935406446457, -0.1190175861120224, 0.003467114642262459, -0.11661059409379959, 0.08571001142263412, 0.11764814704656601, -0.015953144058585167, -0.024750761687755585, -0.22393567860126495, -0.0011687488295137882, 0.07023751735687256, 0.028174569830298424, 0.000981581280939281, 0.22765380144119263, -0.023561928421258926, 0.23624607920646667, 0.08675867319107056, 0.016185106709599495, 0.02129906229674816, -0.05979686602950096, -0.032908305525779724, -0.00018530765373725444, -0.0860908031463623, -0.03593192994594574, -0.01891554892063141, 0.12822823226451874, 0.1606382578611374, 0.09810788929462433, 0.0854882299900055, 0.003633275628089905, 0.08451880514621735, 0.08901859819889069, -0.028644882142543793, -5.9372916439315304e-05, 0.1288696527481079, 0.09571946412324905, -0.01664479821920395, -0.11041636765003204, 0.00019743088341783732, 0.0707143023610115, 0.1632997691631317, -0.4274892807006836, 0.018063638359308243, 0.05478058382868767, 0.09780894964933395, 0.17201577126979828, -0.004174979403614998, 0.023239616304636, 0.06958343088626862, 0.1256391555070877, -0.10980799794197083, -0.01508353091776371, -0.008218711242079735, 0.11888974905014038, -0.09950219839811325, 0.1253066509962082, -0.09260724484920502, -0.09050597250461578, -0.04149048402905464, 0.08303813636302948, -0.18797560036182404, 0.1267598420381546, -0.013430776074528694, 0.08242511749267578, -0.0797773227095604, -7.66193898016354e-06, 0.05353507399559021, 0.19119104743003845, -0.08863618969917297, 0.043168406933546066, -0.08835627138614655, 0.06464501470327377, -0.04045833274722099, -0.013613216578960419, -0.21584919095039368, -0.05654122680425644, 0.05176272243261337, 0.13963891565799713, 0.062208641320466995, 0.05836823955178261, 0.029172750189900398, -0.053948383778333664, 0.1808556616306305, 0.04596678912639618, 0.04292823001742363, -0.20868012309074402, -0.06979614496231079, -0.054468587040901184, 0.09825257956981659, 0.07603468745946884, 0.1105080246925354, -0.04511015862226486, 0.03365151584148407, 0.10631970316171646, 0.108782559633255, 0.09071291983127594, 0.09758308529853821, 0.042390722781419754, 0.1712774932384491, -0.1302148848772049, -0.060517191886901855, -0.15589502453804016, -0.04087231308221817, 0.00606415094807744, 0.11992116272449493, 0.0650087296962738, -0.26061469316482544, -0.0029180620331317186, 0.039621613919734955, 0.0437377393245697, 0.05122177302837372, -0.03808121010661125, 0.09546171128749847, 0.09960513561964035, 0.0037979967892169952, -0.08313281834125519, 0.03696364164352417, -0.018262382596731186, 0.030311748385429382, -0.20875924825668335, -0.0265069380402565, -0.18086600303649902, 0.22574132680892944, -0.08223706483840942, -0.012649595737457275, -0.0231487937271595, 0.006289434619247913, -0.0812518522143364, 0.0003856462426483631, 0.30052807927131653, -0.03611556440591812, 0.22705663740634918, 0.12801948189735413, -0.004064902663230896, 0.2111748605966568, 0.06241763010621071, 0.05621802434325218, -0.015261149033904076, -0.17007321119308472, 0.02655024640262127, -0.08021774888038635, 0.049339331686496735, 0.06161288917064667, 0.09214941412210464, 0.04096048325300217, 0.06298255920410156, 0.02963642030954361, -0.008944133296608925, -0.019451595842838287, 0.09761518239974976, 0.03712695837020874, 0.005404883995652199, 0.1824108213186264, 0.006547874771058559, 0.09418080747127533, -0.02628186158835888, -0.39187949895858765, -0.14127014577388763, 0.0058327317237854, -0.02856488712131977, -0.17162740230560303, 0.0006182221695780754, 0.0009591637062840164, -0.0264630988240242, 0.05661127343773842, 0.004362301900982857, 0.15423011779785156, 0.11603902280330658, 0.13564729690551758, 0.220027357339859, 0.24199461936950684, 0.01864982210099697, -0.1561790108680725, 0.06852170079946518, -0.06781874597072601, -0.006014492362737656, -0.016548842191696167, 0.16455401480197906, -0.0063086263835430145, 0.05088074877858162, 0.10356877744197845, 0.00548945227637887, 0.19220346212387085, 0.197172150015831, -0.05264433100819588, 0.08709903061389923, 0.04852019622921944, 0.07979343086481094, -0.022681578993797302, 0.02507600374519825, -0.0017472058534622192, -0.003479698905721307, 0.26470786333084106, 0.00991853792220354, 0.020746467635035515, 0.15124128758907318, -0.1532779335975647, 5.3298164857551455e-05, -0.10060618072748184, -0.01140928827226162, 0.1681790053844452, 0.011248253285884857, -0.025586389005184174, 0.05808734893798828, 0.04066462442278862, -0.1617848426103592, 0.06644317507743835, 0.06489796191453934, -0.0058329664170742035, -0.0008933036006055772, -0.0579633004963398, 0.080355204641819, -0.0641917809844017, 0.06318958103656769, 0.131038099527359, 0.08999636769294739, 0.141866534948349, 0.07278382778167725, 0.07674019038677216, -0.1383470892906189, 0.17084677517414093, -0.03631624951958656, -0.009866006672382355, -0.057907938957214355, -0.06271006911993027, 0.10496365278959274, 0.01137207355350256, 0.04548069089651108, -0.05486224964261055, 0.033973876386880875, -0.030824115499854088, 0.020376525819301605, 0.11404753476381302, -0.01690075173974037, -0.002734443172812462, 0.18334685266017914, -0.14106300473213196, -0.034107107669115067, 0.012415960431098938, 0.01609889790415764, 0.029613403603434563, 0.1332162469625473, 0.1252230405807495, 0.062123946845531464, 