0: [7.483138324460015e-05, 0.0012975792633369565, 0.004868106916546822, -0.0008394162287004292, -0.003321921918541193, -0.002042903797701001, -0.0006434810347855091, 0.002856732113286853, 0.0009090452804230154, 0.004106048960238695, 0.0007327746716327965, 0.0010436532320454717, -0.003230402944609523, 0.0017193321837112308, 0.0018811100162565708, -0.010280103422701359, 0.0022690577898174524, 0.00024246846442110837, 0.002592103322967887, 0.005105187185108662, 0.0035587127786129713, -0.0010933513985946774, 0.0003475551784504205, 0.0008327614050358534, 0.0024154905695468187, 0.0017868062714114785, 3.3102185170719167e-06, -0.0013096298789605498, 0.0, 0.000746309116948396, -0.0026590684428811073, -5.792715569441498e-07, 0.0, 0.002271166304126382, 0.0012688280548900366, -0.0003666150150820613, 0.0023814234882593155, -0.0029783386271446943, -0.00545000284910202, 0.002568410709500313, -0.0019097072072327137, 0.004411808680742979, -0.0006250139558687806, 0.002088947920128703, 0.000873665907420218, -4.302190791349858e-05, -0.00040393296512775123, -0.0024921647273004055, 0.0014329104451462626, -0.002042212290689349, 0.002404613420367241, 0.0, -1.7895555259883622e-08, -0.000958230288233608, 0.001955469837412238, 0.0009600879857316613, -0.0008958231192082167, 0.002555666258558631, 1.1057383744628169e-05, -1.9110193534288555e-05, 0.0016886359080672264, 0.0021598474122583866, -0.001895487541332841, -0.0023330904077738523, -0.00073841935954988, -0.0030000803526490927, -0.0014152351068332791, -0.005528414621949196, 4.8313737352145836e-05, -2.762301664915867e-05, 0.005289376247674227, 0.0020507352892309427, -0.0018023541197180748, 0.0023096061777323484, -0.0035960471723228693, -0.0020853744354099035, -0.0032699136063456535, -0.0008604795439168811, 0.00013048388063907623, 0.004681194666773081, 0.0037951157428324223, 0.0001432671706425026, -0.0028452440164983273, 0.0009814001386985183, -0.0008416312630288303, 0.0008399856742471457, 0.0, 0.0, 0.000961259298492223, 0.0022830283269286156, -0.0036386102437973022, 0.0005453923367895186, 0.0006805474986322224, 0.0014235215494409204, -0.0029378444887697697, -0.0022172422613948584, -0.00025407469365745783, -4.973515387973748e-06, -0.0021250536665320396, -0.0005259976023808122, -0.0011300112819299102, 0.0016393621917814016, -8.094919758150354e-05, 0.0027415978256613016, -0.004139705561101437, -0.001830584486015141, 0.0, -0.0012252881424501538, 0.00024434702936559916, -0.00046920785098336637, 0.00012242459342814982, 0.0017791605787351727, 0.0044052740558981895, 0.0024876315146684647, -0.00368109461851418, 4.071509829373099e-05, 0.0010642255656421185, 5.018472074880265e-05, 0.000570701202377677, 0.0006018903804942966, -0.0039496528916060925, 0.003043847857043147, 0.0, -0.0006069052615202963, -0.005174137186259031, -0.0009538053418509662, -0.0044437008909881115, 0.0010545708937570453, -0.000924578111153096, -0.004422346595674753, -2.473657332302537e-06, 0.003611958585679531, 0.0007866600644774735, -0.00024265384126920253, 0.0, -0.006401260383427143, 0.0013382361503317952, -0.0032981529366225004, 0.0028110959101468325, 0.0012513723922893405, 0.0038436418399214745, 0.003830511588603258, -0.0013171469327062368, -0.002823223825544119, -4.7610094043193385e-05, -0.0071762120351195335, -0.002927700523287058, -0.0039716786704957485, 0.0002102881990140304, -0.003382173366844654, -0.0013944964157417417, -0.0001762329920893535, -0.004195322282612324, -0.00011088709288742393, 0.0006861527217552066, -0.00033559411531314254, 0.001559939351864159, 0.0019357942510396242, 0.002215686719864607, 0.001566820777952671, 0.0004429547116160393, -0.0003300615062471479, 0.002489559119567275, -0.0011828079586848617, -0.0018106026109308004, 0.00010215515794698149, -0.0016857306472957134, 0.0014008608413860202, 0.0016369487857446074, -0.002606783527880907, -0.0010105562396347523, 0.000793487299233675, 0.001805718056857586, -1.0202480780208134e-06, 0.0035744195338338614, -0.004085871856659651, 0.0005191198433749378, 0.0, -0.0013399723684415221, 0.00293159787543118, -0.0044124675914645195, 0.0, 0.0, 0.0009084343910217285, -0.0035852259024977684, -0.00047134034684859216, 0.0015809086617082357, -0.0003399045090191066, -0.0012935606064274907, -0.005403570830821991, -0.0002321000793017447, 0.0, -0.004831364378333092, 0.003988271579146385, 0.0, -0.0018305745907127857, -0.0036009037867188454, -0.0004622029955498874, -0.002209230326116085, 0.0006935489363968372, 0.004048543516546488, -2.118876545864623e-05, 0.005951054859906435, 0.0, -0.00036555007682181895, -0.002881827065721154, -0.0006415338139049709, -0.0037029003724455833, 0.001420894986949861, -0.0022303564473986626, 0.0001741276792017743, -0.0021965112537145615, -0.003361365059390664, 0.0016679338878020644, 0.0003123691421933472, 0.0, 0.0028322162106633186, 0.0015570884570479393, -0.0012207046383991838, 0.002936412114650011, 0.0, -0.0031654571648687124, -0.0003979650209657848, 2.508180659788195e-05, -0.00020599625713657588, 0.0020025616977363825, -0.0003884953912347555, 0.0019415643764659762, -0.0007102398085407913, 0.0041276197880506516, -0.002778125461190939, -0.002257881686091423, -0.002400732599198818, 0.002848977455869317, -0.0016988019924610853, 0.0005282859783619642, -6.26456385361962e-05, 0.0003406885080039501, 0.0013525013346225023, -0.003132353536784649, 0.0007804562337696552, 0.003207846311852336, -1.8327791622141376e-05, -0.00038208990008570254, 0.0004899054765701294, 0.0012611207785084844, 0.00171840435359627, 0.0, 0.004390671383589506, 0.0020553129725158215, 1.529248766019009e-05, 0.005331504624336958, 0.001365344855003059, -0.0021272001322358847, 0.0037702275440096855, 0.0007898675394244492, -0.00032330924295820296, -0.00021846343588549644, -0.0037879887968301773, -0.014211348257958889, 0.0024504803586751223, 0.009697576984763145, 0.0059638055972754955, 0.0018784907879307866, -0.00833957176655531, -0.002653758507221937, -0.011986678466200829, -0.002139180665835738, -0.003046726807951927, 0.009430468082427979, -0.005019214935600758, -0.005491485353559256, 0.030010510236024857, -0.006624010391533375, -0.0007078266935423017, -0.0075670573860406876, -0.01490346435457468, -0.010388868860900402, 0.0031917905434966087, -0.0010146155254915357, -0.0024310096632689238, -0.007051510736346245, -0.005216191057115793, -9.663413948146626e-06, 0.0038231604266911745, 0.0, -0.002178717637434602, 0.0077625662088394165, 1.6910370277400943e-06, 0.0, -0.0066301519982516766, -0.003704062895849347, 0.0010702323634177446, -0.00695201987400651, 0.008694561198353767, 0.015910059213638306, -0.0074978978373110294, 0.0055749486200511456, -0.01287928782403469, 0.001824578852392733, -0.006098221056163311, -0.002550473203882575, 0.00012559292372316122, 0.00117918208707124, 0.007275308482348919, -0.004183050710707903, 0.005961791146546602, -0.007019738666713238, 0.0, 5.224168830864073e-08, 0.0027973586693406105, -0.005708520300686359, -0.002802787348628044, 0.0026151591446250677, -0.0074606905691325665, -3.2273761462420225e-05, 5.5788408644730225e-05, -0.00492962496355176, -0.006305208895355463, 0.005533444695174694, 0.00681093567982316, 0.0021556445863097906, 0.008758055046200752, 0.004131433553993702, 0.01613897830247879, -0.00014104091678746045, 8.063916902756318e-05, -0.015441140159964561, -0.00598666537553072, 0.005261566024273634, -0.006742368917912245, 0.01049785129725933, 0.006087806541472673, 0.009545772336423397, 0.002511980477720499, -0.0003809054906014353, -0.0136657003313303, -0.011079002171754837, -0.0004182369739282876, 0.008306053467094898, -0.002864972921088338, 0.002456929534673691, -0.0024521532468497753, 0.0, 0.0, -0.0028061773627996445, -0.006664779037237167, 0.010622132569551468, -0.0015921220183372498, -0.00198669102974236, -0.0041556591168046, 0.008576391264796257, 0.006472726818174124, 0.0007417343440465629, 1.4519123396894429e-05, 0.0062036411836743355, 0.0015355515060946345, 0.0032988020684570074, -0.004785684868693352, 0.00023631301883142442, -0.008003488183021545, 0.01208492647856474, 0.005343990866094828, 0.0, 0.00357689056545496, -0.0007133176550269127, 0.0013697512913495302, -0.0003573955036699772, -0.00519385002553463, -0.012860234826803207, -0.00726205063983798, 0.010746154002845287, -0.00011887896107509732, -0.0031067649833858013, -0.0001465028472011909, -0.001666032476350665, -0.0017570808995515108, 0.011530153453350067, -0.008885841816663742, 0.0, 0.001771721406839788, 0.015104680322110653, 0.002784407464787364, 0.012972393073141575, -0.003078582463786006, 0.0026991020422428846, 0.012910033576190472, 7.221361101983348e-06, -0.010544267483055592, -0.0022964731324464083, 0.000708369945641607, 0.0, 0.018687045201659203, -0.003906660247594118, 0.009628201834857464, -0.008206379599869251, -0.0036530967336148024, -0.011220679618418217, -0.011182312853634357, 0.003845079569146037, 0.008241778239607811, 0.0001389991375617683, 0.020949359983205795, 0.008546778932213783, 0.01159446407109499, -0.0006138805183582008, 0.009873496368527412, 0.0040709516033530235, 0.0005144666647538543, 0.012247350066900253, 0.0003237208293285221, -0.002003064379096031, 0.0009796925587579608, -0.004553880076855421, -0.005651128478348255, -0.006468215957283974, -0.004573980811983347, -0.0012931071687489748, 0.0009635402238927782, -0.007267708424478769, 0.003452929435297847, 0.005285640712827444, -0.00029822721262462437, 0.004921080078929663, -0.004089510068297386, -0.004778704605996609, 0.007609918713569641, 0.0029501121025532484, -0.002316413214430213, -0.005271377041935921, 2.9783650461467914e-06, -0.010434732772409916, 0.011927792802453041, -0.0015154622960835695, 0.0, 0.00391177274286747, -0.00855815876275301, 0.012881203554570675, 0.0, 0.0, -0.00265196873806417, 0.010466232895851135, 0.0013759818393737078, -0.004615115001797676, 0.000992274610325694, 0.00377627182751894, 0.01577451452612877, 0.0006775647052563727, 0.0, 0.014104071073234081, -0.01164285372942686, 0.0, 0.00534394383430481, 0.010512039996683598, 0.0013493038713932037, 0.006449341773986816, -0.002024665242061019, -0.01181882619857788, 6.185587699292228e-05, -0.01737278327345848, 0.0, 0.0010671631898730993, 0.008412851020693779, 0.0018728208960965276, 0.010809782892465591, -0.004147940780967474, 0.006511079613119364, -0.0005083444411866367, 0.006412219721823931, 0.009812787175178528, -0.004869160242378712, -0.0009118926827795804, 0.0, -0.008268032222986221, -0.004545553587377071, 0.0035635705571621656, -0.008572200313210487, 0.0, 0.009240870364010334, 0.001161761931143701, -7.322084275074303e-05, 0.0006013501551933587, -0.005846034735441208, 0.0011341151548549533, -0.005667929071933031, 0.0020733990240842104, -0.012049631215631962, 0.008110114373266697, 0.006591370329260826, 0.007008404470980167, -0.008316956460475922, 0.00495926896110177, -0.001542234211228788, 0.00018285227997694165, -0.000994552276097238, -0.003948332276195288, 0.009144133888185024, -0.002278365194797516, -0.009364605881273746, 5.350401988835074e-05, 0.0011154315434396267, -0.0014301680494099855, -0.0036815747153013945, -0.005016508512198925, 0.0, -0.012817597016692162, -0.00600002845749259, -4.4642943976214156e-05, -0.015564116649329662, -0.0039858128875494, 0.006209882907569408, -0.011006336659193039, -0.002305826637893915, 0.00094384461408481, -0.0017127633327618241, -0.029698742553591728, -0.11142034828662872, 0.0192123930901289, 0.0760314017534256, 0.04675765708088875, 0.014727823436260223, -0.06538425385951996, -0.0208060871809721, -0.09397841989994049, -0.016771668568253517, -0.023887109011411667, 0.0739370658993721, -0.03935183584690094, -0.04305455461144447, 0.23528952896595, -0.05193385109305382, -0.005549549125134945, -0.05932752043008804, -0.11684668809175491, -0.08145121484994888, 0.02502441219985485, -0.00795481912791729, -0.01905973069369793, -0.055285487323999405, -0.04089619219303131, -7.5763717177324e-05, 0.029974516481161118, 0.0, -0.017081625759601593, 0.06086036190390587, 1.3258147191663738e-05, 0.0, -0.05198199301958084, -0.029040751978754997, 0.008390901610255241, -0.05450555309653282, 0.06816746294498444, 0.1247386634349823, -0.05878540128469467, 0.043708935379981995, -0.10097663104534149, 0.01430515106767416, -0.04781150072813034, -0.019996320828795433, 0.000984678277745843, 0.009245125576853752, 0.05704016983509064, -0.03279617428779602, 0.04674185439944267, -0.05503642186522484, 0.0, 4.0958011027214525e-07, 0.0219319686293602, -0.04475628584623337, -0.021974464878439903, 0.02050347439944744, -0.05849362909793854, -0.0002530351630412042, 0.00043739346438087523, -0.03864937275648117, -0.049434319138526917, 0.043383557349443436, 0.05339936167001724, 0.016900774091482162, 0.0686652734875679, 0.0323914960026741, 0.12653346359729767, -0.0011057945666834712, 0.0006322304834611714, -0.1210622489452362, -0.04693688079714775, 0.04125196114182472, -0.052861783653497696, 0.08230569213628769, 0.04772987216711044, 0.07484113425016403, 0.019694508984684944, -0.002986428327858448, -0.1071423590183258, -0.0868619903922081, -0.0032790768891572952, 0.06512142717838287, -0.02246207371354103, 0.01926296018064022, -0.019225463271141052, 0.0, 0.0, -0.022001110017299652, -0.05225345492362976, 0.08328007906675339, -0.012482707388699055, -0.01557613629847765, -0.032581351697444916, 0.06724094599485397, 0.05074770376086235, 0.0058153350837528706, 0.00011383332457626238, 0.04863801226019859, 0.012039081193506718, 0.025863397866487503, -0.03752095624804497, 0.001852750196121633, -0.06274925172328949, 0.09474878758192062, 0.04189816117286682, 0.0, 0.028043728321790695, -0.005592580884695053, 0.010739187709987164, -0.002802064176648855, -0.04072101414203644, -0.10082730650901794, -0.05693632364273071, 0.08425239473581314, -0.0009320106473751366, -0.02435777708888054, -0.0011486177099868655, -0.01306209433823824, -0.01377592608332634, 0.09039914608001709, -0.06966713815927505, 0.0, 0.013890706934034824, 0.11842435598373413, 0.021830463781952858, 0.10170667618513107, -0.02413683570921421, 0.021161610260605812, 0.10121770948171616, 5.6617216614540666e-05, -0.08266960829496384, -0.01800490729510784, 0.005553807131946087, 0.0, 0.14651094377040863, -0.030629200860857964, 0.07548742741346359, -0.06433995068073273, -0.028641171753406525, -0.08797275274991989, -0.08767200261354446, 0.03014637529850006, 0.06461754441261292, 0.00108980608638376, 0.16424807906150818, 0.06700879335403442, 0.09090328216552734, -0.004812976345419884, 0.07741058617830276, 0.03191720321774483, 0.004033543635159731, 0.09602212905883789, 0.0025380298029631376, -0.015704501420259476, 0.007681023329496384, -0.03570352494716644, -0.04430617392063141, -0.05071232467889786, -0.035861097276210785, -0.010138270445168018, 0.007554387208074331, -0.056980572640895844, 0.027071895077824593, 0.0414406917989254, -0.0023381677456200123, 0.03858247771859169, -0.032062701880931854, -0.03746618703007698, 0.059663593769073486, 0.023129574954509735, -0.0181612279266119, -0.04132890701293945, 2.3351063646259718e-05, -0.08181077241897583, 0.0935167446732521, -0.011881510727107525, 0.0, 0.030669232830405235, -0.06709799915552139, 0.10099175572395325, 0.0, 0.0, -0.020792067050933838, 0.08205778151750565, 0.010788028128445148, -0.03618362918496132, 0.007779672276228666, 0.029606854543089867, 0.12367596477270126, 0.005312270484864712, 0.0, 0.11057936400175095, -0.09128279983997345, 0.0, 0.04189780727028847, 0.08241692185401917, 0.010578799992799759, 0.05056446045637131, -0.015873845666646957, -0.09266242384910583, 0.00048496417002752423, -0.1362067461013794, 0.0, 0.00836680643260479, 0.06595877557992935, 0.014683356508612633, 0.08475128561258316, -0.03252086788415909, 0.05104830488562584, -0.0039854939095675945, 0.05027332901954651, 0.07693455368280411, -0.03817538544535637, -0.00714946398511529, 0.0, -0.06482335925102234, -0.0356382317841053, 0.027939248830080032, -0.06720808893442154, 0.0, 0.07245057076215744, 0.009108509868383408, -0.0005740689230151474, 0.004714738577604294, -0.04583432897925377, 0.008891677483916283, -0.0444379523396492, 0.016255931928753853, -0.09447205066680908, 0.06358522921800613, 0.05167793855071068, 0.05494756996631622, -0.06520690023899078, 0.038881853222846985, -0.012091454118490219, 0.0014336591120809317, -0.007797555066645145, -0.030955862253904343, 0.0716923251748085, -0.017862938344478607, -0.0734207034111023, 0.0004194841021671891, 0.008745242841541767, -0.01121286116540432, -0.028864368796348572, -0.039330609142780304, 0.0, -0.10049299895763397, -0.04704165458679199, -0.000350011425325647, -0.12202642858028412, -0.031249748542904854, 0.04868694394826889, -0.08629230409860611, -0.018078232184052467, 0.00739998510107398, -0.02612546645104885, -0.4530000388622284, -1.6995140314102173, 0.2930496335029602, 1.159719705581665, 0.7132026553153992, 0.22464603185653687, -0.9973171353340149, -0.31735900044441223, -1.433469295501709, -0.2558212876319885, -0.36435356736183167, 1.1277753114700317, -0.6002403497695923, -0.6567185521125793, 3.588911771774292, -0.7921556234359741, -0.08464808762073517, -0.9049336910247803, -1.7822831869125366, -1.242389440536499, 0.3817017674446106, -0.12133617699146271, -0.29072150588035583, -0.8432794809341431, -0.6237965226173401, -0.001155634643509984, 0.45720627903938293, 0.0, -0.2605490982532501, 0.9283134937286377, 0.00020222885359544307, 0.0, -0.7928904294967651, -0.44296345114707947, 0.12798766791820526, -0.8313822746276855, 1.0397701263427734, 1.9026601314544678, -0.8966627717018127, 0.6666999459266663, -1.5402147769927979, 0.21819891035556793, -0.7292771935462952, -0.30500733852386475, 0.01501946710050106, 0.141016885638237, 0.8700436949729919, -0.500245213508606, 0.7129616141319275, -0.8394801616668701, 0.0, 6.247416422411334e-06, 0.3345317542552948, -0.6826745271682739, -0.3351808190345764, 0.31274303793907166, -0.892212986946106, -0.0038596796803176403, 0.006671643350273371, -0.5895260572433472, -0.7540302276611328, 0.6617366671562195, 0.8145096898078918, 0.25779038667678833, 1.0473631620407104, 0.49407288432121277, 1.9300363063812256, -0.016866877675056458, 0.009643523953855038, -1.846583366394043, -0.7159364223480225, 0.6292229890823364, -0.8063099980354309, 1.2554229497909546, 0.7280314564704895, 1.141564965248108, 0.300403892993927, -0.04555227980017662, -1.6342610120773315, -1.3249212503433228, -0.050016336143016815, 0.9933086037635803, -0.3426178991794586, 0.29382097721099854, -0.29324936866760254, 0.0, 0.0, -0.33558669686317444, -0.7970313429832458, 1.27028489112854, -0.19040018320083618, -0.23758567869663239, -0.4969693124294281, 1.0256377458572388, 0.7740641236305237, 0.08870240300893784, 0.00173632160294801, 0.7418838739395142, 0.18363404273986816, 0.3944990336894989, -0.572313666343689, 0.028260331600904465, -0.9571251273155212, 1.4452191591262817, 0.6390799283981323, 0.0, 0.42775610089302063, -0.08530458807945251, 0.16380658745765686, -0.042740337550640106, -0.6211250424385071, -1.5379362106323242, -0.8684587478637695, 1.2851163148880005, -0.014216066338121891, -0.37153345346450806, -0.01752006635069847, -0.19923840463161469, -0.21012674272060394, 1.378873586654663, -1.0626444816589355, 0.0, 0.21187743544578552, 1.806347131729126, 0.3329833745956421, 1.551349401473999, -0.36816340684890747, 0.32278162240982056, 1.5438921451568604, 0.0008635917329229414, -1.2609738111495972, -0.27463194727897644, 0.08471307903528214, 0.0, 2.234755754470825, -0.46719250082969666, 1.1514225006103516, -0.9813885688781738, -0.4368685781955719, -1.3418638706207275, -1.3372762203216553, 0.4598276913166046, 0.985622227191925, 0.016622625291347504, 2.5053040981292725, 1.0220966339111328, 1.3865643739700317, -0.07341311126947403, 1.1807570457458496, 0.4868384897708893, 0.06152435764670372, 1.4646421670913696, 0.038713064044713974, -0.23954349756240845, 0.11715999990701675, -0.5445920825004578, -0.6758099794387817, -0.7735242247581482, -0.5469955801963806, -0.1546407788991928, 0.11522836238145828, -0.8691345453262329, 0.4129313826560974, 0.6321021318435669, -0.035664401948451996, 0.5885055065155029, -0.4890582263469696, -0.5714783072471619, 0.9100589752197266, 0.35279911756515503, -0.27701637148857117, -0.6303965449333191, 0.0003561782941687852, -1.247874140739441, 1.4264270067214966, -0.18123206496238708, 0.0, 0.46780288219451904, -1.023457407951355, 1.540444254875183, 0.0, 0.0, -0.31714504957199097, 1.2516417503356934, 0.1645515412092209, -0.5519148111343384, 0.11866473406553268, 0.4515986144542694, 1.886451244354248, 0.08102896809577942, 0.0, 1.68668532371521, -1.3923521041870117, 0.0, 0.6390745639801025, 1.2571195363998413, 0.1613607257604599, 0.771267831325531, -0.24212661385536194, -1.413395881652832, 0.007397246081382036, -2.077585220336914, 0.0, 0.127620130777359, 1.0060802698135376, 0.22396782040596008, 1.2927261590957642, -0.4960465133190155, 0.7786494493484497, -0.06079179048538208, 0.7668279409408569, 1.1734962463378906, -0.5822957158088684, -0.109051913022995, 0.0, -0.9887617826461792, -0.5435963273048401, 0.4261621832847595, -1.025136947631836, 0.0, 1.1051017045974731, 0.13893356919288635, -0.008756373077630997, 0.07191471010446548, -0.6991187334060669, 0.13562729954719543, -0.6778198480606079, 0.24795453250408173, -1.4409984350204468, 0.9698765277862549, 0.7882522940635681, 0.8381247520446777, -0.9946122765541077, 0.5930717587471008, -0.1844330132007599, 0.02186768315732479, -0.11893723905086517, -0.47217515110969543, 1.0935345888137817, -0.2724664509296417, -1.119898796081543, 0.00639846408739686, 0.13339294493198395, -0.17103171348571777, -0.4402737021446228, -0.5999165177345276, 0.0, -1.5328372716903687, -0.7175345420837402, -0.005338782910257578, -1.8612899780273438, -0.4766577184200287, 0.7426308989524841, -1.316231608390808, -0.2757505178451538, 0.11287274211645126, 0.0001052036095643416, 0.001824260805733502, 0.006844049785286188, -0.0011801341315731406, -0.004670277237892151, -0.002872111974284053, -0.0009046653285622597, 0.004016260150820017, 0.0012780232354998589, 0.0057726711966097355, 0.0010302062146365643, 0.0014672755496576428, -0.004541614092886448, 0.002417203737422824, 0.002644646679982543, -0.01445276103913784, 0.003190060146152973, 0.00034088591928593814, 0.0036442335695028305, 0.007177365478128195, 0.005003179889172316, -0.0015371401095762849, 0.0004886253154836595, 0.0011707642115652561, 0.0033959317952394485, 0.002512066625058651, 4.653834366763476e-06, -0.0018412007484585047, 0.0, 0.0010492384899407625, -0.0037383725866675377, -8.143919103531516e-07, 0.0, 0.003193022683262825, 0.001783842919394374, -0.0005154171958565712, 0.0033480371348559856, -0.004187227692455053, -0.007662126794457436, 0.0036109231878072023, -0.002684845356270671, 0.006202537100762129, -0.000878704828210175, 0.0029368423856794834, 0.0012282835086807609, -6.0484304412966594e-05, -0.0005678882589563727, -0.003503725165501237, 0.002014525467529893, -0.0028711387421935797, 0.003380636917427182, 0.0, -2.5157238070505628e-08, -0.0013471778947860003, 0.0027491897344589233, 0.0013497879263013601, -0.0012594358995556831, 0.00359299941919744, 1.5544927009614184e-05, -2.6866957341553643e-05, 0.002374047413468361, 0.0030365220736712217, -0.002664858242496848, -0.0032800822518765926, -0.001038139103911817, -0.004217799752950668, -0.0019896782469004393, -0.007772381417453289, 6.79240474710241e-05, -3.883511453750543e-05, 0.007436313200742006, 0.002883120207116008, -0.0025339198764413595, 0.003247062675654888, -0.005055671092122793, -0.0029318230226635933, -0.004597156308591366, -0.0012097432045266032, 0.0001834480935940519, 0.006581273395568132, 0.005335536785423756, 0.00020141882123425603, -0.004000116139650345, 0.0013797447318211198, -0.0011832427699118853, 0.0011809327406808734, 0.0, 0.0, 0.0013514303136616945, 0.0032096998766064644, -0.005115514621138573, 0.000766765559092164, 0.0009567759116180241, 0.002001329092308879, -0.004130306653678417, -0.0031172060407698154, -0.00035720161395147443, -6.9922944021527655e-06, -0.0029876073822379112, -0.0007395005668513477, -0.0015886753099039197, 0.0023047553841024637, -0.00011380621435819194, 0.0038544023409485817, -0.005819996353238821, -0.002573613543063402, 0.0, -0.001722619403153658, 0.00034352668444626033, -0.0006596603780053556, 0.00017211704107467085, 0.0025013117119669914, 0.006193360313773155, 0.003497352125123143, -0.00517523568123579, 5.724054426536895e-05, 0.0014961895067244768, 7.055447349557653e-05, 0.0008023460395634174, 0.0008461937541142106, -0.005552801303565502, 0.004279335495084524, 0.0, -0.0008532418287359178, -0.007274288684129715, -0.0013409488601610065, -0.0062473854050040245, 0.0014826218830421567, -0.00129986263345927, -0.006217355839908123, -3.4777367545757443e-06, 0.005078030750155449, 0.001105961506254971, -0.000341147679137066, 0.0, -0.008999507874250412, 0.0018814284121617675, -0.004636857658624649, 0.003952112048864365, 0.0017593001248314977, 0.005403761751949787, 0.00538529921323061, -0.0018517610151320696, -0.003969167824834585, -6.693961768178269e-05, -0.010089026764035225, -0.00411604531109333, -0.005583772901445627, 0.0002956401149276644, -0.004754983354359865, -0.001960521098226309, -0.0002477634116075933, -0.005898200441151857, -0.00015589597751386464, 0.0009646575781516731, -0.0004718108393717557, 0.002193110529333353, 0.0027215273585170507, 0.0031150260474532843, 0.002202785573899746, 0.0006227481062524021, -0.0004640322003979236, 0.0035000601783394814, -0.0016629141755402088, -0.002545516472309828, 0.00014362053479999304, -0.002369960304349661, 0.0019694629590958357, 0.0023013795726001263, -0.003664865856990218, -0.0014207392232492566, 0.0011155620450153947, 0.0025386521592736244, -1.4343515886139357e-06, 0.005025263410061598, -0.005744310561567545, 0.0007298336131498218, 0.0, -0.00188386847730726, 0.004121523350477219, -0.00620347261428833, 0.0, 0.0, 0.0012771636247634888, -0.005040442571043968, -0.00066265749046579, 0.002222597599029541, -0.00047787142102606595, -0.0018186131492257118, -0.007596865296363831, -0.0003263088583480567, 0.0, -0.006792393047362566, 0.005607096012681723, 0.0, -0.002573595615103841, -0.005062499083578587, -0.0006497993017546833, -0.0031059556640684605, 0.000975057773757726, 0.005691832862794399, -2.9789063773932867e-05, 0.008366566151380539, 0.0, -0.0005139288841746747, -0.004051550757139921, -0.0009019309654831886, -0.005205891095101833, 0.00199761800467968, -0.003135652979835868, 0.00024480532738380134, -0.003088065655902028, -0.0047257328405976295, 0.0023449426516890526, 0.00043915919377468526, 0.0, 0.003981805872172117, 0.0021891009528189898, -0.001716183265671134, 0.004128290340304375, 0.0, -0.004450308624655008, -0.00055949721718207, 3.5262452001916245e-05, -0.0002896076184697449, 0.002815395127981901, -0.0005461820983327925, 0.0027296338230371475, -0.0009985265787690878, 0.005803000647574663, -0.0039057547692209482, -0.0031743443105369806, -0.003375179832801223, 0.00400536460801959, -0.00238833692856133, 0.0007427142118103802, -8.807397534837946e-05, 0.00047897122567519546, 0.001901478273794055, -0.004403752274811268, 0.001097241067327559, 0.004509895108640194, -2.5766988983377814e-05, -0.0005371842416934669, 0.0006887560011819005, 0.0017730019753798842, 0.0024158961605280638, 0.0, 0.006172829773277044, 0.002889556111767888, 2.1499588910955936e-05, 0.007495537865906954, 0.0019195341737940907, -0.00299062323756516, 0.005300547927618027, 0.0011104661971330643, -0.00045454231440089643, 0.028544079512357712, 0.4949484169483185, 1.8568907976150513, -0.3201868534088135, -1.2671122550964355, -0.7792459726333618, -0.24544864892959595, 1.089669942855835, 0.346746563911438, 1.5662100315093994, 0.27951037883758545, 0.39809322357177734, -1.2322074174880981, 0.6558230519294739, 0.7175312638282776, -3.9212474822998047, 0.865510106086731, 0.0924869030714035, 0.9887324571609497, 1.9473241567611694, 1.357435941696167, -0.41704803705215454, 0.1325717270374298, 0.3176436424255371, 0.9213671684265137, 0.6815605163574219, 0.0012626503594219685, -0.49954426288604736, 0.0, 0.284675270318985, -1.0142759084701538, -0.0002209558297181502, 0.0, 0.8663132190704346, 0.4839824438095093, -0.13983981311321259, 0.9083700180053711, -1.1360547542572021, -2.078848123550415, 0.9796954393386841, -0.7284373044967651, 1.6828397512435913, -0.238404780626297, 0.7968087196350098, 0.33325129747390747, -0.016410280019044876, -0.1540757119655609, -0.9506111145019531, 0.5465692281723022, -0.7789823412895203, 0.9172165989875793, 0.0, -6.825775926699862e-06, -0.3655094802379608, 0.7458927035331726, 0.3662181794643402, -0.3417033553123474, 0.9748330116271973, 0.004217272158712149, -0.00728942546993494, 0.6441155076026917, 0.8238536715507507, -0.7230145335197449, -0.8899341821670532, -0.2816621661186218, -1.144350290298462, -0.5398262143135071, -2.108760118484497, 0.018428776413202286, -0.010536527261137962, 2.0175793170928955, 0.7822327613830566, -0.6874896287918091, 0.8809753060340881, -1.3716766834259033, -0.7954473495483398, -1.2472749948501587, -0.32822132110595703, 0.04977114871144295, 1.7855952978134155, 1.447609782218933, 0.054647888988256454, -1.0852900743484497, 0.37434473633766174, -0.3210298717021942, 0.32040444016456604, 0.0, 0.0, 0.36666250228881836, 0.8708376884460449, -1.3879144191741943, 0.20803281664848328, 0.2595866918563843, 0.5429894328117371, -1.1206127405166626, -0.8457432389259338, -0.09691543132066727, -0.0018971092067658901, -0.8105824589729309, -0.20063818991184235, -0.4310303032398224, 0.6253117322921753, -0.03087727352976799, 1.0457559823989868, -1.5790488719940186, -0.6982592344284058, 0.0, -0.4673687517642975, 0.0932038351893425, -0.17897537350654602, 0.046698037534952164, 0.6786419749259949, 1.6803503036499023, 0.9488805532455444, -1.4041186571121216, 0.01553159300237894, 0.40593793988227844, 0.019142447039484978, 0.21768814325332642, 0.2295846939086914, -1.5065577030181885, 1.1610465049743652, 0.0, -0.23149727284908295, -1.9736182689666748, -0.3638184666633606, -1.695006251335144, 0.40225616097450256, -0.35267165303230286, -1.6868587732315063, -0.0009435612009838223, 1.3777422904968262, 0.3000633120536804, -0.092557892203331, 0.0, -2.441697120666504, 0.5104566216468811, -1.25804603099823, 1.0722659826278687, 0.47732338309288025, 1.4661208391189575, 1.4611097574234009, -0.5024088621139526, -1.0768924951553345, -0.018161864951252937, -2.7372987270355225, -1.116743564605713, -1.514960527420044, 0.0802113264799118, -1.2900962829589844, -0.5319193601608276, -0.06722167879343033, -1.600268840789795, -0.04229750856757164, 0.2617255747318268, -0.1280091553926468, 0.5950222611427307, 0.7383904457092285, 0.8451529145240784, 0.5976479649543762, 0.16896067559719086, -0.12589864432811737, 0.949617326259613, -0.45117083191871643, -0.690635621547699, 0.03896673768758774, -0.6430028676986694, 0.5343449711799622, 0.6243977546691895, -0.9943314790725708, -0.38546818494796753, 0.30266836285591125, 0.6887726187705994, -0.0003891606174875051, 1.3634282350540161, -1.5585155487060547, 0.1980142742395401, 0.0, -0.5111216306686401, 1.1182303428649902, -1.683091640472412, 0.0, 0.0, 0.346513032913208, -1.367545247077942, -0.1797890067100525, 0.6030229330062866, -0.12965328991413116, -0.49341678619384766, -2.0611393451690674, -0.08853235095739365, 0.0, -1.8428747653961182, 1.521286129951477, 0.0, -0.6982537508010864, -1.3735300302505493, -0.17630164325237274, -0.8426893353462219, 0.2645476460456848, 1.5442776679992676, -0.008082225918769836, 2.2699718475341797, 0.0, -0.13943736255168915, -1.0992445945739746, -0.24470730125904083, -1.4124341011047363, 0.5419816970825195, -0.8507512211799622, 0.06642038375139236, -0.8378371596336365, -1.2821621894836426, 0.6362171173095703, 0.11915027350187302, 0.0, 1.0803221464157104, 0.5939344167709351, -0.4656253755092621, 1.1200655698776245, 0.0, -1.2074347734451294, -0.1517992913722992, 0.009567219763994217, -0.07857435196638107, 0.7638578414916992, -0.14818665385246277, 0.7405877113342285, -0.270915150642395, 1.5744373798370361, -1.0596883296966553, -0.8612455129623413, -0.9157358407974243, 1.0867141485214233, -0.6479907631874084, 0.2015107125043869, -0.02389388531446457, 0.1299513578414917, 0.5158990025520325, -1.1947990655899048, 0.2976972758769989, 1.2236018180847168, -0.0069909654557704926, -0.14574550092220306, 0.18686948716640472, 0.4810425639152527, 0.655468761920929, 0.0, 1.6747794151306152, 0.7839789986610413, 0.005833157338202, 2.0336480140686035, 0.520797073841095, -0.8113994002342224, 1.438116192817688, 0.30128544569015503, -0.12332463264465332, 0.0006460957229137421, 0.011203188449144363, 0.04203084111213684, -0.007247450761497021, -0.02868116833269596, -0.017638280987739563, -0.005555745679885149, 0.0246647447347641, 0.007848630659282207, 0.035451263189315796, 0.006326733157038689, 0.009010864421725273, -0.027891088277101517, 0.014844593591988087, 0.016241366043686867, -0.08875767886638641, 0.019590873271226883, 0.002093447605147958, 0.02238002046942711, 0.0440777949988842, 0.030725644901394844, -0.009439908899366856, 0.003000768134370446, 0.007189886178821325, 0.020855199545621872, 0.015427163802087307, 2.8580172511283308e-05, -0.011307215318083763, 0.0, 0.006443639751523733, -0.022958194836974144, -5.001349563826807e-06, 0.0, 0.019609052687883377, 0.010954972356557846, -0.003165283240377903, 0.020561013370752335, -0.025714674964547157, -0.04705485329031944, 0.022175468504428864, -0.016488224267959595, 0.038091178983449936, -0.005396307911723852, 0.01803581416606903, 0.007543163374066353, -0.0003714477352332324, -0.00348751456476748, -0.021517140790820122, 0.012371629476547241, -0.017632313072681427, 0.02076125331223011, 0.0, -1.545013645909421e-07, -0.008273329585790634, 0.016883332282304764, 0.008289369754493237, -0.007734476588666439, 0.022065406665205956, 9.545870125293732e-05, -0.00016499654157087207, 0.0145795913413167, 0.018647978082299232, -0.016365477815270424, -0.020143715664744377, -0.006375440396368504, -0.025902438908815384, -0.012219005264341831, -0.047731913626194, 0.0004171364998910576, -0.00023849494755268097, 0.04566803574562073, 0.0177058856934309, -0.015561368316411972, 0.019940931349992752, -0.031047986820340157, -0.018004998564720154, -0.02823215164244175, -0.007429309654980898, 0.001126574701629579, 0.040417060256004333, 0.032766737043857574, 0.001236958196386695, -0.02456560730934143, 0.008473316207528114, -0.007266533095389605, 0.0072523741982877254, 0.0, 0.0, 0.008299428969621658, 0.019711466506123543, -0.03141552582383156, 0.004708839114755392, 0.005875762086361647, 0.012290599755942822, -0.025365140289068222, -0.019143451005220413, -0.0021936839912086725, -4.294118480174802e-05, -0.01834758184850216, -0.004541455768048763, -0.009756399318575859, 0.014153974130749702, -0.0006989089888520539, 0.023670749738812447, -0.03574186936020851, -0.015805140137672424, 0.0, -0.010578924790024757, 0.002109674271196127, -0.004051119089126587, 0.0010570127051323652, 0.015361103229224682, 0.0380348302423954, 0.021477971225976944, -0.03178230673074722, 0.0003515561402309686, 0.00918843038380146, 0.0004332904645707458, 0.004927384201437235, 0.005196663551032543, -0.03410102054476738, 0.02628035843372345, 0.0, -0.005239954683929682, -0.044672977179288864, -0.008235053159296513, -0.03836657106876373, 0.009105093777179718, -0.007982744835317135, -0.038182154297828674, -2.1357562218327075e-05, 0.03118528611958027, 0.006791951600462198, -0.002095054369419813, 0.0, -0.05526796728372574, 0.01155422069132328, -0.02847594954073429, 0.024270806461572647, 0.010804244317114353, 0.03318573161959648, 0.03307231143116951, -0.011372056789696217, -0.02437552995979786, -0.000411094690207392, -0.0619589239358902, -0.025277558714151382, -0.03429122269153595, 0.0018155885627493262, -0.029201410710811615, -0.012040026485919952, -0.0015215672319754958, -0.0362221822142601, -0.0009574054856784642, 0.0059241740964353085, -0.0028974951710551977, 0.013468367978930473, 0.016713513061404228, 0.019130084663629532, 0.013527796603739262, 0.003824434941634536, -0.0028497239109128714, 0.02149464562535286, -0.010212281718850136, -0.01563257910311222, 0.0008820138755254447, -0.01455441303551197, 0.012094929814338684, 0.014133282005786896, -0.022506752982735634, -0.008725094608962536, 0.006850916426628828, 0.01559041254222393, -8.808674465399235e-06, 0.030861278995871544, -0.035277094691991806, 0.004482066258788109, 0.0, -0.011569268070161343, 0.02531120926141739, -0.03809688612818718, 0.0, 0.0, 0.007843343541026115, -0.030954468995332718, -0.004069534596055746, 0.013649461790919304, -0.0029347108211368322, -0.011168518103659153, -0.04665401950478554, -0.0020039351657032967, 0.0, -0.04171358048915863, 0.03443440422415733, 0.0, -0.015805015340447426, -0.031089939177036285, -0.003990595694631338, -0.0190743301063776, 0.005988051649183035, 0.034954823553562164, -0.00018294164328835905, 0.0513809472322464, 0.0, -0.003156171413138509, -0.024881470948457718, -0.00553896464407444, -0.03197053074836731, 0.012267790734767914, -0.019256800413131714, 0.0015034277457743883, -0.0189644955098629, -0.029021816328167915, 0.014400812797248363, 0.0026969737373292446, 0.0, 0.024453159421682358, 0.013443742878735065, -0.010539459064602852, 0.025352751836180687, 0.0, -0.02733035758137703, -0.0034359872806817293, 0.0002165546320611611, -0.001778536126948893, 0.017289968207478523, -0.003354215295985341, 0.01676325313746929, -0.00613218080252409, 0.03563748672604561, -0.023986106738448143, -0.019494347274303436, -0.0207277350127697, 0.024597840383648872, -0.014667309820652008, 0.004561204928904772, -0.0005408427095972002, 0.0029414575546979904, 0.011677403934299946, -0.027044357731938362, 0.0067383963614702225, 0.02769629843533039, -0.00015824093134142458, -0.00329895899631083, 0.004229802638292313, 0.010888426564633846, 0.014836574904620647, 0.0, 0.037908729165792465, 0.017745409160852432, 0.00013203387788962573, 0.04603175073862076, 0.011788275092840195, -0.018366077914834023, 0.0325518473982811, 0.006819615140557289, -0.002791459672152996, -0.0007352123502641916, -0.012748311273753643, -0.04782767593860626, 0.008246997371315956, 0.03263680636882782, 0.02007092721760273, 0.006321982946246862, -0.028066473081707954, -0.008931105956435204, -0.040340643376111984, -0.007199314422905445, -0.010253630578517914, 0.031737808138132095, -0.016891950741410255, -0.018481355160474777, 0.10099909454584122, -0.022292813286185265, -0.002382163889706135, -0.025466620922088623, -0.05015695095062256, -0.03496329113841057, 0.010741839185357094, -0.003414641600102186, -0.008181466720998287, -0.023731544613838196, -0.017554866150021553, -3.25218825310003e-05, 0.012866693548858166, 0.0, -0.007332376670092344, 0.026124564930796623, 5.691116257366957e-06, 0.0, -0.022313499823212624, -0.012465870939195156, 0.0036018320824950933, -0.023396745324134827, 0.02926120162010193, 0.05354459583759308, -0.025233875960111618, 0.01876225136220455, -0.043344683945178986, 0.0061405496671795845, -0.020523298531770706, -0.008583507500588894, 0.0004226774035487324, 0.003968498203903437, 0.02448474057018757, -0.014077895320951939, 0.02006414346396923, -0.02362462505698204, 0.0, 1.7581506028818694e-07, 0.009414383210241795, -0.01921181194484234, -0.009432644583284855, 0.008801206015050411, -0.025108622387051582, -0.00010862122144317254, 0.0001877531612990424, -0.016590410843491554, -0.021219896152615547, 0.01862258091568947, 0.022921906784176826, 0.007254729513078928, 0.029474865645170212, 0.013904194347560406, 0.05431503430008888, -0.0004746672639157623, 0.0002713877474889159, -0.05196649953722954, -0.020147858187556267, 0.017707563936710358, -0.0226911474019289, 0.03533006086945534, 0.02048823982477188, 0.03212588280439377, 0.008453949354588985, -0.0012819325784221292, -0.04599132388830185, -0.03728589415550232, -0.0014075583312660456, 0.027953660115599632, -0.00964194256812334, 0.008268698118627071, -0.008252615109086037, 0.0, 0.0, -0.009444071911275387, -0.02243003249168396, 0.03574833646416664, -0.005358235910534859, -0.006686124484986067, -0.01398568693548441, 0.02886347472667694, 0.02178368531167507, 0.0024962546303868294, 4.886371243628673e-05, 0.020878082141280174, 0.005167820956557989, 0.011101978830993176, -0.01610603556036949, 0.0007952998275868595, -0.026935389265418053, 0.040671318769454956, 0.017984969541430473, 0.0, 0.012037914246320724, -0.0024006327148526907, 0.0046098493039608, -0.0012027977500110865, -0.017479680478572845, -0.04328056052327156, -0.024440152570605278, 0.03616571053862572, -0.00040006072958931327, -0.010455685667693615, -0.000493049097713083, -0.005606962367892265, -0.005913380067795515, 0.03880420699715614, -0.029904913157224655, 0.0, 0.005962642375379801, 0.05083417147397995, 0.009370805695652962, 0.04365804046392441, -0.010360845364630222, 0.009083711542189121, 0.04344816878437996, 2.4303193640662357e-05, -0.03548629581928253, -0.007728684693574905, 0.002383994869887829, 0.0, 0.0628904476761818, -0.01314773689955473, 0.03240329027175903, -0.02761821262538433, -0.012294345535337925, -0.03776269406080246, -0.037633590400218964, 0.012940463609993458, 0.027737364172935486, 0.00046779520926065743, 0.07050421833992004, 0.02876381203532219, 0.039020638912916183, -0.0020659882575273514, 0.03322882950305939, 0.013700596056878567, 0.0017314195865765214, 0.04121791571378708, 0.0010894619626924396, -0.006741224322468042, 0.003297113347798586, -0.015325897373259068, -0.01901862770318985, -0.021768491715192795, -0.015393530018627644, -0.004351894371211529, 0.0032427532132714987, -0.02445915900170803, 0.0116207180544734, 0.0177886001765728, -0.0010036708554252982, 0.016561707481741905, -0.013763053342700005, -0.0160825252532959, 0.025610854849219322, 0.009928470477461815, -0.007795787416398525, -0.017740609124302864, 1.0023549293691758e-05, -0.03511764109134674, 0.04014246165752411, -0.005100227426737547, 0.0, 0.013164900243282318, -0.028802108019590378, 0.043351128697395325, 0.0, 0.0, -0.008925086818635464, 0.03522365540266037, 0.004630805924534798, -0.015531974844634533, 0.0033394594211131334, 0.012708875350654125, 0.053088463842868805, 0.0022803149186074734, 0.0, 0.047466665506362915, -0.039183538407087326, 0.0, 0.017984816804528236, 0.03537781909108162, 0.0045409733429551125, 0.0217050202190876, -0.006813920568674803, -0.039775747805833817, 0.00020817294716835022, -0.05846735090017319, 0.0, 0.003591492073610425, 0.028313087299466133, 0.00630289688706398, 0.036379870027303696, -0.013959730044007301, 0.021912725642323494, -0.0017107927706092596, 0.021580062806606293, 0.03302450105547905, -0.01638694852590561, -0.0030689353588968515, 0.0, -0.02782570570707321, -0.015297869220376015, 0.011993040330708027, -0.028849374502897263, 0.0, 0.031099757179617882, 0.003909865394234657, -0.0002464215795043856, 0.002023825654760003, -0.019674580544233322, 0.00381681602448225, -0.0190751813352108, 0.0069779278710484505, -0.0405525378882885, 0.027294239029288292, 0.022182973101735115, 0.023586483672261238, -0.027990350499749184, 0.0166902095079422, -0.005190304014831781, 0.0006153986323624849, -0.003347129561007023, -0.01328793540596962, 0.030774198472499847, -0.007667742669582367, -0.03151616454124451, 0.0001800653844838962, 0.003753938479349017, -0.004813169129192829, -0.012390166521072388, -0.016882823780179024, 0.0, -0.043137066066265106, -0.020192835479974747, -0.00015024386812001467, -0.05238037556409836, -0.01341408770531416, 0.0208990927785635, -0.037041354924440384, -0.007760162465274334, 0.003176473081111908, -0.0005399401998147368, -0.00936213880777359, -0.03512381389737129, 0.00605644378811121, 0.023967865854501724, 0.014739740639925003, 0.0046427492052316666, -0.020611532032489777, -0.006558852270245552, -0.02962547168135643, -0.00528705632314086, -0.00753008620813489, 0.023307714611291885, -0.012405157089233398, -0.013572387397289276, 0.07417197525501251, -0.016371464356780052, -0.0017494144849479198, -0.018702231347560883, -0.03683439642190933, -0.025676432996988297, 0.0078886142000556, -0.002507657976821065, -0.006008315831422806, -0.017428047955036163, -0.012891991063952446, -2.3883407266112044e-05, 0.00944906659424305, 0.0, -0.0053847786039114, 0.019185438752174377, 4.179451025265735e-06, 0.0, -0.016386639326810837, -0.009154712781310081, 0.002645116299390793, -0.017182141542434692, 0.02148888260126114, 0.03932224214076996, -0.018531303852796555, 0.013778666034340858, -0.03183159604668617, 0.00450950488448143, -0.015071960166096687, -0.006303579546511173, 0.00031040702015161514, 0.002914379583671689, 0.017981164157390594, -0.010338547639548779, 0.014734763652086258, -0.017349518835544586, 0.0, 1.2912016700283857e-07, 0.006913767196238041, -0.014108778908848763, -0.006927188485860825, 0.006463452707976103, -0.018439333885908127, -7.976430788403377e-05, 0.0001378829765599221, -0.01218373328447342, -0.01558353379368782, 0.01367609016597271, 0.01683345064520836, 0.0053277467377483845, 0.021645819768309593, 0.010210970416665077, 0.03988801687955856, -0.00034858722938224673, 0.00019930233247578144, -0.038163281977176666, -0.014796238392591476, 0.013004136271774769, -0.01666398160159588, 0.025945784524083138, 0.015046223066747189, 0.023592691868543625, 0.006208443082869053, -0.0009414179367013276, -0.03377522900700569, -0.027382120490074158, -0.0010336864506825805, 0.02052868716418743, -0.007080871611833572, 0.006072378717362881, -0.006060578860342503, 0.0, 0.0, -0.006935561075806618, -0.016472218558192253, 0.02625294215977192, -0.003934973385185003, -0.004910171031951904, -0.010270842351019382, 0.021196838468313217, 0.01599755883216858, 0.001833232119679451, 3.5884550015907735e-05, 0.015332518145442009, 0.0037951688282191753, 0.008153095841407776, -0.011827980168163776, 0.0005840552039444447, -0.01978088542819023, 0.029868286103010178, 0.013207845389842987, 0.0, 0.008840390481054783, -0.0017629866488277912, 0.0033853850327432156, -0.000883315282408148, -0.012836769223213196, -0.03178450092673302, -0.017948387190699577, 0.026559485122561455, -0.0002938200195785612, -0.007678472902625799, -0.00036208657547831535, -0.004117655102163553, -0.004342684522271156, 0.028497159481048584, -0.021961655467748642, 0.0, 0.004378866404294968, 0.0373317115008831, 0.006881752982735634, 0.03206169232726097, -0.007608817890286446, 0.006670920178294182, 0.031907565891742706, 1.784784581104759e-05, -0.026060497388243675, -0.005675807129591703, 0.0017507586162537336, 0.0, 0.04618564248085022, -0.00965543370693922, 0.023796405643224716, -0.020282335579395294, -0.009028748609125614, -0.027732282876968384, -0.027637450024485588, 0.009503236040472984, 0.020369824022054672, 0.00034354013041593134, 0.051777034997940063, 0.021123651415109634, 0.02865610271692276, -0.0015172268031165004, 0.024402670562267303, 0.01006149873137474, 0.0012715200427919626, 0.030269747599959373, 0.000800088862888515, -0.004950636997818947, 0.0024213423021137714, -0.011255066841840744, -0.01396694965660572, -0.015986410900950432, -0.011304743587970734, -0.0031959565822035074, 0.0023814209271222353, -0.01796238124370575, 0.0085340216755867, 0.013063633814454079, -0.000737080117687583, 0.012162595987319946, -0.01010735984891653, -0.011810725554823875, 0.018808167427778244, 0.007291308604180813, -0.005725093185901642, -0.013028371147811413, 7.3611245170468464e-06, -0.025789793580770493, 0.029479922726750374, -0.0037455144338309765, 0.0, 0.009668074548244476, -0.021151777356863022, 0.031836315989494324, 0.0, 0.0, -0.006554427556693554, 0.0258676465600729, 0.0034007863141596317, -0.011406412348151207, 0.0024524396285414696, 0.009333182126283646, 0.038987234234809875, 0.0016746236942708492, 0.0, 0.03485867753624916, -0.028775693848729134, 0.0, 0.013207733631134033, 0.02598085254430771, 0.0033348528668284416, 0.01593976654112339, -0.005004027858376503, -0.029210619628429413, 0.00015287887072190642, -0.04293740540742874, 0.0, 0.0026375348679721355, 0.0207926407456398, 0.00462874211370945, 0.02671673893928528, -0.010251759551465511, 0.016092369332909584, -0.0012563907075673342, 0.015848005190491676, 0.0242526326328516, -0.01203429140150547, -0.0022537726908922195, 0.0, -0.02043471857905388, -0.011234477162361145, 0.008807482197880745, -0.021186476573348045, 0.0, 0.022839121520519257, 0.0028713340871036053, -0.00018096767598763108, 0.0014862550888210535, -0.014448672533035278, 0.002803004812449217, -0.01400846242904663, 0.005124474875628948, -0.02978106215596199, 0.020044414326548576, 0.016290782019495964, 0.017321504652500153, -0.020555630326271057, 0.012257000431418419, -0.003811686299741268, 0.00045192003017291427, -0.002458069007843733, -0.009758436121046543, 0.02260001190006733, -0.005631055682897568, -0.023144930601119995, 0.00013223697897046804, 0.0027568235527724028, -0.0035347063094377518, -0.009099140763282776, -0.012398473918437958, 0.0, -0.03167911618947983, -0.014829269610345364, -0.00011033647751901299, -0.03846722096204758, -0.009851068258285522, 0.01534791849553585, -0.027202527970075607, -0.005698924884200096, 0.0023327479138970375, -3.9014754293020815e-05, -0.0006764035206288099, -0.0025376584380865097, 0.0004375661665108055, 0.0017316393787041306, 0.0010649302275851369, 0.0003354315413162112, -0.0014891577884554863, -0.0004738712159451097, -0.0021404072176665068, -0.00038198690162971616, -0.0005440390668809414, 0.0016839677700772882, -0.0008962617139331996, -0.000980591168627143, 0.0053588575683534145, -0.0011828193673864007, -0.00012639105261769146, -0.0013512088917195797, -0.0026612451765686274, -0.0018550945678725839, 0.0005699407192878425, -0.00018117885338142514, -0.0004340814193710685, -0.0012591658160090446, -0.0009314343915320933, -1.7255320017284248e-06, 0.0006826812168583274, 0.0, -0.00038905281689949334, 0.0013861317420378327, 3.019575842699851e-07, 0.0, -0.0011839134385809302, -0.0006614169687964022, 0.00019110429275315255, -0.001241385005414486, 0.0015525418566539884, 0.0028409946244210005, -0.0013388579245656729, 0.000995490700006485, -0.0022998054046183825, 0.0003258031792938709, -0.001088937046006322, -0.0004554272163659334, 2.2426598661695607e-05, 0.00021055614342913032, 0.0012991122202947736, -0.0007469431729987264, 0.0010645730653777719, -0.001253485563211143, 0.0, 9.330303640808779e-09, 0.0004995136987417936, -0.0010193234775215387, -0.0005004884442314506, 0.0004669777990784496, -0.0013322194572538137, -5.761463398812339e-06, 9.962059266399592e-06, -0.0008802726515568793, -0.0011258992599323392, 0.0009880791185423732, 0.001216197619214654, 0.0003849230706691742, 0.001563884550705552, 0.0007377167930826545, 0.0028818638529628515, -2.5184977857861668e-05, 1.4399318388313986e-05, -0.0027572507970035076, -0.001069012563675642, 0.0009395320666953921, -0.0012039524735882878, 0.0018745497800409794, 0.001087077776901424, 0.001704543479718268, 0.0004485545796342194, -6.800955452490598e-05, -0.0024402225390076637, -0.001978333108127117, -7.468280091416091e-05, 0.001483175903558731, -0.0005115846870467067, 0.0004387138469610363, -0.0004378707380965352, 0.0, 0.0, -0.0005010853055864573, -0.0011900935787707567, 0.0018967505311593413, -0.0002842875546775758, -0.0003547508385963738, -0.0007420569891110063, 0.0015314508927986026, 0.0011558020487427711, 0.00013245787704363465, 2.5926437956513837e-06, 0.001107760239392519, 0.0002742017386481166, 0.000589048839174211, -0.0008545443997718394, 4.219718903186731e-05, -0.001429147319868207, 0.002157943556085229, 0.0009542556363157928, 0.0, 0.0006386898458003998, -0.00012737420911435038, 0.0002445902209728956, -6.381982530001551e-05, -0.0009274408803321421, -0.0022964030504226685, -0.001296736067160964, 0.0019189020385965705, -2.1237199689494446e-05, -0.0005547604523599148, -2.616027632029727e-05, -0.0002974949893541634, -0.00031375413527712226, 0.00205889786593616, -0.001586706843227148, 0.0, 0.00031637048232369125, 0.0026971623301506042, 0.0004971972666680813, 0.002316417871043086, -0.0005497240927070379, 0.0004819653695449233, 0.002305281814187765, 1.2894895462522982e-06, -0.0018828317988663912, -0.00041007078834809363, 0.00012648786650970578, 0.0, 0.003336855908855796, -0.000697581097483635, 0.0017192581435665488, -0.0014653780963271856, -0.0006523149786517024, -0.002003635512664914, -0.001996770966798067, 0.000686591723933816, 0.001471692812629044, 2.4821276383590885e-05, 0.003740826155990362, 0.0015261640073731542, 0.0020703799091279507, -0.00010961604857584462, 0.0017630659276619554, 0.0007269418565556407, 9.186505485558882e-05, 0.002186959609389305, 5.7809826103039086e-05, -0.0003576774033717811, 0.00017493919585831463, -0.0008131625363603234, -0.0010090995347127318, -0.001155005069449544, -0.000816754880361259, -0.00023090433387551457, 0.00017205467156600207, -0.0012977616861462593, 0.0006165610393509269, 0.0009438320994377136, -5.325510574039072e-05, 0.0008787204860709608, -0.0007302513113245368, -0.0008533113286830485, 0.0013588685542345047, 0.0005267938249744475, -0.0004136321949772537, -0.0009412802755832672, 5.318336206983076e-07, -0.0018632905557751656, 0.0021298928186297417, -0.0002706132363528013, 0.0, 0.0006985130603425205, -0.0015281963860616088, 0.0023001311346888542, 0.0, 0.0, -0.0004735496477223933, 0.0018689058488234878, 0.00024570582900196314, -0.0008240980096161366, 0.0001771847455529496, 0.0006743160192854702, 0.002816778374835849, 0.00012098964361939579, 0.0, 0.002518496010452509, -0.0020790058188140392, 0.0, 0.0009542418993078172, 0.001877088681794703, 0.00024094918626360595, 0.0011516171507537365, -0.0003615369787439704, -0.002110438421368599, 1.1045422979805153e-05, -0.0031021814793348312, 0.0, 0.00019056446035392582, 0.0015022446168586612, 0.0003344230353832245, 0.0019302525324746966, -0.000740672170650214, 0.0011626749765127897, -9.078182483790442e-05, 0.0011450026649981737, 0.0017522352281957865, -0.000869462382979691, -0.00016283232253044844, 0.0, -0.0014763864455744624, -0.0008116732933558524, 0.0006363291176967323, -0.0015307009452953935, 0.0, 0.001650111167691648, 0.00020744696666952223, -1.3074735761620104e-05, 0.00010737739648902789, -0.001043900614604354, 0.0002025098365265876, -0.0010120850056409836, 0.00037024012999609113, -0.002151637803763151, 0.0014481868129223585, 0.0011769880075007677, 0.001251460867933929, -0.0014851243468001485, 0.000885554647538811, -0.0002754004090093076, 3.2639538403600454e-05, -0.00017758909962140024, -0.0007050373824313283, 0.0016328024212270975, -0.00040683613042347133, -0.0016722073778510094, 9.554019925417379e-06, 0.00019917417375836521, -0.0002553780213929713, -0.0006574106519110501, -0.0008957826066762209, 0.0, -0.002288784831762314, -0.0010713983792811632, -7.97172288002912e-06, -0.0027792088221758604, -0.000711725268047303, 0.0011088656028732657, -0.0019653518684208393, -0.00041173939825966954, 0.00016854319255799055]
1: [0.003860809840261936, -0.0014779308112338185, 0.0018822606652975082, 0.0001265029568457976, -0.001580344745889306, -0.0006546630756929517, 0.004165880847722292, -0.003391594858840108, -5.964270712865982e-06, -0.0034633916802704334, 0.0038204940501600504, 0.002603689907118678, 0.006500770803540945, -0.003443620866164565, 0.00023603183217346668, -0.0024457278195768595, 0.00571776507422328, 7.491900032619014e-05, -0.00354666612111032, 0.002335246419534087, -0.0016713562654331326, 0.001044139382429421, 0.0003911428211722523, -0.00588229252025485, 0.010511406697332859, 0.0033614051062613726, -1.5280942534445785e-05, 0.0005961579736322165, 0.0, -0.0029943562112748623, -0.003681161440908909, 9.988070814870298e-06, 0.0, -0.003681756090372801, -0.0023020554799586535, 0.005873829126358032, 0.0053217122331261635, -0.002953632501885295, -0.005870468448847532, 0.0010876961750909686, 0.00592751894146204, 0.004685009829699993, 0.0020862568635493517, 0.0005009302985854447, 0.00514242984354496, -9.344039426650852e-05, 0.010424711741507053, -0.01054141391068697, 0.005082170478999615, -0.002841126173734665, -0.0003755397046916187, 0.0, 1.6397486035657494e-07, 0.0005605444312095642, -0.004977119155228138, 0.0036036029923707247, -0.007195181213319302, -0.0041836840100586414, 0.0015869990456849337, 3.494600605336018e-05, 0.0028683426789939404, -0.0010811358224600554, -0.001769059686921537, 0.011320555582642555, -0.000796388543676585, -0.00013152006431482732, -0.002614854369312525, -0.0038296233396977186, -2.1713647583965212e-05, 0.00011777790496125817, 0.002355273813009262, -0.0031071151606738567, 0.004138764925301075, 0.0007835160358808935, -0.007148608565330505, 0.0026593494694679976, 0.001335367327556014, -0.005585133098065853, -0.0009334621718153358, -0.00046946623479016125, 0.0025788561906665564, 0.0001513620954938233, 0.0031589253339916468, 0.005843380466103554, 0.005597766023129225, 0.0026618323754519224, 0.0, 0.0, 0.0020930804312229156, -0.002114051952958107, 0.0032300841994583607, -0.005193349439650774, -0.0040071806870400906, -0.002458336064592004, -0.006575800012797117, -0.005201030522584915, 0.003440630156546831, 0.0005085233715362847, -0.003922829870134592, 0.0035598548129200935, -0.0016233720816671848, -0.0016887300880625844, -0.0006983248167671263, -0.00047552777687087655, -0.002418076153844595, 0.0009282876271754503, 0.0, -0.005133624654263258, -0.009850621223449707, 0.005733978934586048, -0.00028433118131943047, -0.00015171064296737313, -0.002053685951977968, 0.001334255444817245, 0.003292485373094678, 0.003160035703331232, 0.0002896158257499337, -4.2106366890948266e-05, -0.0013576801866292953, -0.0027189385145902634, -0.0015193707076832652, 0.0026983171701431274, 0.0, 0.0006095321150496602, 0.000727341917809099, -0.003494700649753213, 0.004439612850546837, 0.0037056677974760532, -0.00611245259642601, 0.0027661772910505533, 1.7056128854164854e-05, -0.0001213389914482832, 0.0032163215801119804, -0.0016220132820308208, 0.0, 0.004594061523675919, -0.0055592795833945274, 0.0016646233852952719, -0.0008186540217138827, -0.0013834601268172264, 0.000748714548535645, 0.0004495187313295901, -0.002163237426429987, -0.004714819137006998, 0.006098694168031216, -0.012026224285364151, 0.00041714205872267485, 0.0021077876444905996, 0.006038615480065346, 0.004280481953173876, 0.0024304711259901524, 0.0006028967327438295, -0.0026705446653068066, 0.004460307769477367, -3.670087971840985e-05, -0.0007272980874404311, 0.000622559105977416, -0.0011037420481443405, 0.007178858853876591, -0.0024011144414544106, -0.0051395888440310955, 0.001657853601500392, 0.0009130816906690598, -0.0015715168556198478, 0.0006474299007095397, -0.0018688971176743507, -0.0023417167831212282, -0.007075261324644089, 4.702301157522015e-05, -0.002939285011962056, -0.006620058324187994, -0.00045127831981517375, 0.00313390395604074, 2.0574914287863066e-06, -0.005079649854451418, 0.0018316740170121193, -0.010699005797505379, 0.0, -0.0015183222712948918, -0.0002438413503114134, -0.0013089360436424613, 0.0, 0.0, 0.0024977305438369513, -7.989910227479413e-05, 0.002597284037619829, 0.003747364738956094, -0.006842759903520346, 0.002268868498504162, 0.0002761117648333311, 0.0005792264128103852, 0.0, 0.0042815860360860825, -0.0003855571849271655, 0.0, -0.0031681221444159746, 0.003344639902934432, -0.0024932341184467077, -0.002440975047647953, 0.004546535201370716, 0.0027748870197683573, -4.58205340692075e-06, -0.00011099606490461156, 0.0, 0.006445369217544794, 0.0030398848466575146, 0.00010296900290995836, -0.008315988816320896, -0.0013672212371602654, 0.003821764374151826, -0.002129526808857918, 0.0013364636106416583, 0.004786733537912369, -0.0031855979468673468, -0.0006402870058082044, 0.0, 0.005527758505195379, -0.00015631270071025938, 0.003906805533915758, 0.003980828449130058, 0.0, 0.0008637382416054606, -0.004300989676266909, 7.904730409791227e-06, 0.0022997159976512194, 0.0016511507565155625, 0.0009028433123603463, 0.003971347119659185, 0.0011315111769363284, 0.0019932431168854237, -0.00033455310040153563, -0.004116605501621962, 0.002079965779557824, -0.001286066952161491, 0.0007843889179639518, -0.004722299054265022, 0.004392412956804037, 0.00028703318093903363, 0.00532981613650918, 0.010644873604178429, 0.004531777463853359, -0.005026325583457947, 9.639734344091266e-06, -0.006999434903264046, 0.00017334125004708767, 0.002622149186208844, 0.0017106246668845415, 0.0, 0.0036600101739168167, 0.0005705944495275617, 3.1210794986691326e-05, -0.0011897559743374586, 0.004320897161960602, -0.004152157809585333, 0.002959910314530134, -0.0027400872204452753, 0.0003578918403945863, -2.9795523005304858e-05, 1.14058229883085e-05, -1.4526189261232503e-05, -9.762829904502723e-07, 1.2196256648167036e-05, 5.0523067329777405e-06, -3.214987009414472e-05, 2.6174366212217137e-05, 4.6026098488027856e-08, 2.6728472221293487e-05, -2.9484397600754164e-05, -2.0093784769414924e-05, -5.016923387302086e-05, 2.657588993315585e-05, -1.8215474710814306e-06, 1.887470716610551e-05, -4.41264382970985e-05, -5.781913614555378e-07, 2.73711011686828e-05, -1.8022104995907284e-05, 1.2898574823339004e-05, -8.058077582973056e-06, -3.0186256481101736e-06, 4.5396172936307266e-05, -8.112100476864725e-05, -2.5941399144358e-05, 1.179295523456858e-07, -4.6008512981643435e-06, 0.0, 2.3108786990633234e-05, 2.8409103833837435e-05, -7.70822339291044e-08, 0.0, 2.841367677319795e-05, 1.7765933080227114e-05, -4.5330838474910706e-05, -4.1069935832638294e-05, 2.2794461983721703e-05, 4.5304885134100914e-05, -8.394228643737733e-06, -4.5745175157207996e-05, -3.61563143087551e-05, -1.6100573702715337e-05, -3.865894086629851e-06, -3.968633973272517e-05, 7.211196475509496e-07, -8.045196591410786e-05, 8.135259849950671e-05, -3.922127143596299e-05, 2.1926181943854317e-05, 2.8981944524275605e-06, 0.0, -1.2654568504189e-09, -4.3259542508167215e-06, 3.841057332465425e-05, -2.7810507162939757e-05, 5.552823131438345e-05, 3.228726563975215e-05, -1.2247545782884117e-05, -2.696936576285225e-07, -2.2136200641398318e-05, 8.343515219166875e-06, 1.3652608686243184e-05, -8.736556628718972e-05, 6.1460709730454255e-06, 1.0150021125809872e-06, 2.0179930288577452e-05, 2.9554852517321706e-05, 1.6757364562636212e-07, -9.089428658626275e-07, -1.817665179260075e-05, 2.3978936951607466e-05, -3.19406135531608e-05, -6.046733233233681e-06, 5.516888268175535e-05, -2.0523357306956314e-05, -1.0305603609594982e-05, 4.310288204578683e-05, 7.20392563380301e-06, 3.6230660498404177e-06, -1.990213422686793e-05, -1.168126459560881e-06, -2.4378776288358495e-05, -4.5095872337697074e-05, -4.320037623983808e-05, -2.0542502170428634e-05, 0.0, 0.0, -1.6153198885149322e-05, 1.6315054381266236e-05, -2.4927949198172428e-05, 4.007931056548841e-05, 3.0925151804694906e-05, 1.8971997633343562e-05, 5.0748327339533716e-05, 4.013854049844667e-05, -2.6552801500656642e-05, -3.9244928302650806e-06, 3.027417005796451e-05, -2.7472908186609857e-05, 1.2528221304819454e-05, 1.3032671631663106e-05, 5.389270882005803e-06, 3.669860689115012e-06, 1.866139064077288e-05, -7.163985628722003e-06, 0.0, 3.961841866839677e-05, 7.60213952162303e-05, -4.425157749210484e-05, 2.194306034652982e-06, 1.1708063993864926e-06, 1.584918391017709e-05, -1.0297018889104947e-05, -2.5409502995898947e-05, -2.4387358280364424e-05, -2.2350868675857782e-06, 3.249529356708081e-07, 1.0477796422492247e-05, 2.0983217837056145e-05, 1.1725622243830003e-05, -2.082407081616111e-05, 0.0, -4.704026196122868e-06, -5.613219855149509e-06, 2.6970088583766483e-05, -3.4262393455719575e-05, -2.859824598999694e-05, 4.717242336482741e-05, -2.1347770598367788e-05, -1.3162951972844894e-07, 9.363999424749636e-07, -2.482173658790998e-05, 1.2517782124632504e-05, 0.0, -3.545434447005391e-05, 4.290328797651455e-05, -1.2846608115069102e-05, 6.317904080788139e-06, 1.0676756573957391e-05, -5.778179911430925e-06, -3.4691154269239632e-06, 1.6694539226591587e-05, 3.638628186308779e-05, -4.706621984951198e-05, 9.281152597395703e-05, -3.2192638173000887e-06, -1.6266694728983566e-05, -4.6602592192357406e-05, -3.303429912193678e-05, -1.8756985809886828e-05, -4.652808911487227e-06, 2.06097374757519e-05, -3.442208981141448e-05, 2.8322850198492233e-07, 5.61287151867873e-06, -4.804563559446251e-06, 8.51805270940531e-06, -5.540233541978523e-05, 1.8530421584728174e-05, 3.966437725466676e-05, -1.2794363101420458e-05, -7.046621249173768e-06, 1.2128098205721471e-05, -4.996483767172322e-06, 1.4423084394366015e-05, 1.8072043530992232e-05, 5.460284955915995e-05, -3.628993567872385e-07, 2.2683729184791446e-05, 5.108980985824019e-05, 3.4827119179681176e-06, -2.418567419226747e-05, -1.5878505621458316e-08, 3.920183007721789e-05, -1.4135839592199773e-05, 8.25687384349294e-05, 0.0, 1.1717558663804084e-05, 1.8818254829966463e-06, 1.0101638508785982e-05, 0.0, 0.0, -1.9276059902040288e-05, 6.166153525555274e-07, -2.004435009439476e-05, -2.8920037948410027e-05, 5.2808511100010946e-05, -1.7509839381091297e-05, -2.130842631231644e-06, -4.4701373553834856e-06, 0.0, -3.30427719745785e-05, 2.9755199193459703e-06, 0.0, 2.444979145366233e-05, -2.581200169515796e-05, 1.9241335394326597e-05, 1.8838045434677042e-05, -3.508755980874412e-05, -2.141499862773344e-05, 3.536174730811581e-08, 8.566146334487712e-07, 0.0, -4.974165858584456e-05, -2.346010114706587e-05, -7.946564437588677e-07, 6.417803524527699e-05, 1.0551464583841152e-05, -2.949420377262868e-05, 1.6434451026725583e-05, -1.0314101018593647e-05, -3.6941284633940086e-05, 2.458460585330613e-05, 4.941360202792566e-06, 0.0, -4.266004543751478e-05, 1.2063600252076867e-06, -3.0150484235491604e-05, -3.072176332352683e-05, 0.0, -6.665800356131513e-06, 3.319256938993931e-05, -6.10042008020173e-08, -1.774788324837573e-05, -1.274263377126772e-05, -6.9677021201641764e-06, -3.0648578103864565e-05, -8.73236967890989e-06, -1.538269680168014e-05, 2.5818867470661644e-06, 3.176960308337584e-05, -1.6051981219789013e-05, 9.925124686560594e-06, -6.053474862710573e-06, 3.64439983968623e-05, -3.3898144465638325e-05, -2.215161202911986e-06, -4.113250179216266e-05, -8.215103298425674e-05, -3.497366196825169e-05, 3.879028372466564e-05, -7.439384575036456e-08, 5.40176552021876e-05, -1.3377516552282032e-06, -2.0236231648596004e-05, -1.3201653928263113e-05, 0.0, -2.8245864086784422e-05, -4.403524599183584e-06, -2.408671093689918e-07, 9.181831956084352e-06, -3.334620123496279e-05, 3.204393942723982e-05, -2.284287620568648e-05, 2.11464284802787e-05, -2.7620126274996437e-06, -0.0003267795837018639, 0.00012509235239122063, -0.0001593144697835669, -1.0707266483223066e-05, 0.00013376135029830039, 5.54106809431687e-05, -0.00035260056029073894, 0.00028706499142572284, 5.048117373007699e-07, 0.0002931420458480716, -0.00032336730509996414, -0.00022037670714780688, -0.0005502264830283821, 0.00029146860470063984, -1.9977576812379993e-05, 0.00020700687309727073, -0.00048395260819233954, -6.341244898067089e-06, 0.0003001904988195747, -0.00019765553588513285, 0.00014146413013804704, -8.837621135171503e-05, -3.310660758870654e-05, 0.0004978784709237516, -0.0008896870422177017, -0.00028450990794226527, 1.2933816151416977e-06, -5.045943908044137e-05, 0.0, 0.00025344357709400356, 0.00031157396733760834, -8.453920372630819e-07, 0.0, 0.0003116243169642985, 0.00019484639051370323, -0.0004971617599949241, -0.0004504306416492909, 0.0002499959373380989, 0.0004968770663253963, -9.206303366227075e-05, -0.0005017057992517948, -0.0003965420473832637, -0.00017658168508205563, -4.239878398948349e-05, -0.000435256224591285, 7.908813131507486e-06, -0.0008823494426906109, 0.0008922269917093217, -0.00043015574919991195, 0.00024047342594712973, 3.17857411573641e-05, 0.0, -1.3878877602735429e-08, -4.7444464144064113e-05, 0.0004212640051264316, -0.00030500933644361794, 0.0006090009119361639, 0.0003541076148394495, -0.00013432376726996154, -2.957843207695987e-06, -0.0002427765866741538, 9.150652476819232e-05, 0.00014973377983551472, -0.0009581736521795392, 6.740639946656302e-05, 1.113190137402853e-05, 0.00022132103913463652, 0.0003241400991100818, 1.837848230934469e-06, -9.968744052457623e-06, -0.00019935081945732236, 0.00026298678130842745, -0.0003503057232592255, -6.631702854065225e-05, 0.0006050595548003912, -0.00022508774418383837, -0.00011302575148874894, 0.00047272659139707685, 7.900834316387773e-05, 3.9735597965773195e-05, -0.00021827493037562817, -1.2811310625693295e-05, -0.00026737203006632626, -0.0004945847322233021, -0.00047379633178934455, -0.00022529797570314258, 0.0, 0.0, -0.00017715875583235174, 0.00017893401673063636, -0.0002733950095716864, 0.00043956542504020035, 0.0003391682403162122, 0.00020807437249459326, 0.0005565782776102424, 0.0004402155755087733, -0.00029121534316800535, -4.304150934331119e-05, 0.0003320289251860231, -0.00030130657250992954, 0.0001374018902424723, 0.00014293479034677148, 5.910632899031043e-05, 4.0248818550026044e-05, 0.00020466795831453055, -7.857032323954627e-05, 0.0, 0.00043451078818179667, 0.0008337566978298128, -0.0004853250866290182, 2.4065859179245308e-05, 1.2840757335652597e-05, 0.000173825173988007, -0.00011293168790871277, -0.0002786764525808394, -0.0002674660936463624, -2.4513030439266004e-05, 3.5638931876746938e-06, 0.00011491431359900162, 0.00023013146710582078, 0.0001285997568629682, -0.00022838599397800863, 0.0, -5.1590999646577984e-05, -6.156231393106282e-05, 0.0002957917167805135, -0.00037576956674456596, -0.0003136487503070384, 0.0005173598183318973, -0.00023412970767822117, -1.443635255782283e-06, 1.0270025086356327e-05, -0.0002722300123423338, 0.00013728762860409915, 0.0, -0.0003888421051669866, 0.000470537634100765, -0.00014089394244365394, 6.929103255970404e-05, 0.00011709627870004624, -6.337175727821887e-05, -3.8046695408411324e-05, 0.00018309502047486603, 0.00039906310848891735, -0.0005161943845450878, 0.0010179016971960664, -3.530698813847266e-05, -0.00017840341024566442, -0.00051110953791067, -0.00036230043042451143, -0.0002057152014458552, -5.1029182941420004e-05, 0.0002260354085592553, -0.000377521151676774, 3.10623477162153e-06, 6.155863229651004e-05, -5.269371467875317e-05, 9.342117118649185e-05, -0.0006076199933886528, 0.00020323040371295065, 0.0004350150702521205, -0.00014032098988536745, -7.72831408539787e-05, 0.00013301405124366283, -5.479836181621067e-05, 0.00015818385872989893, 0.00019820344459731132, 0.0005988518241792917, -3.980088422395056e-06, 0.0002487815509084612, 0.0005603229510597885, 3.819631820078939e-05, -0.0002652542607393116, -1.7414576802821102e-07, 0.00042994218529202044, -0.00015503322356380522, 0.0009055649279616773, 0.0, 0.00012851125211454928, 2.063876308966428e-05, 0.00011078875832026824, 0.0, 0.0, -0.00021140833268873394, 6.762416433048202e-06, -0.00021983457554597408, -0.00031717773526906967, 0.0005791725707240403, -0.00019203756528440863, -2.33694190683309e-05, -4.9025813495973125e-05, 0.0, -0.0003623937664087862, 3.2633834052830935e-05, 0.0, 0.00026815070305019617, -0.00028309060144238174, 0.00021102694154251367, 0.00020660432346630841, -0.0003848196065519005, -0.00023486705322284251, 3.8782374645052187e-07, 9.39498841034947e-06, 0.0, -0.0005455369246192276, -0.0002572963712736964, -8.715222065802664e-06, 0.0007038667099550366, 0.00011572179209906608, -0.0003234753094147891, 0.0001802433980628848, -0.00011311868001939729, -0.00040515000000596046, 0.00026962929405272007, 5.419390799943358e-05, 0.0, -0.0004678700352087617, 1.323047217738349e-05, -0.0003306725702714175, -0.0003369380719959736, 0.0, -7.31065811123699e-05, 0.0003640365903265774, -6.690575560241996e-07, -0.000194648266187869, -0.00013975361071061343, -7.64179349062033e-05, -0.000336135970428586, -9.577142191119492e-05, -0.00016870837134774774, 2.8316504540271126e-05, 0.0003484302433207631, -0.00017604859021957964, 0.0001088527133106254, -6.63908213027753e-05, 0.00039969614590518177, -0.0003717744257301092, -2.42947007791372e-05, -0.0004511169099714607, -0.0009009839268401265, -0.0003835704119410366, 0.0004254287341609597, -8.159077538039128e-07, 0.0005924334400333464, -1.4671657481812872e-05, -0.00022193914628587663, -0.00014478786033578217, 0.0, -0.00030978373251855373, -4.829527097172104e-05, -2.641691025928594e-06, 0.00010070096323033795, -0.000365721236448735, 0.0003514390846248716, -0.000250527256866917, 0.00023192136723082513, -3.0291766961454414e-05, -0.00047500841901637614, 0.00018183478096034378, -0.000231580575928092, -1.5564162822556682e-05, 0.00019443586643319577, 8.054524369072169e-05, -0.0005125419702380896, 0.00041727907955646515, 7.33779302208859e-07, 0.0004261126450728625, -0.0004700483113992959, -0.0003203405358362943, -0.0007998116197995842, 0.0004236801469232887, -2.9039641958661377e-05, 0.00030090557993389666, -0.0007034757290966809, -9.217669685313012e-06, 0.0004363573680166155, -0.00028731266502290964, 0.00020563261932693422, -0.00012846397294197232, -4.812372208107263e-05, 0.0007237180252559483, -0.0012932532699778676, -0.00041356493602506816, 1.880064701254014e-06, -7.334791007451713e-05, 0.0, 0.00036840629763901234, 0.0004529056022875011, -1.2288659263504087e-06, 0.0, 0.0004529785073827952, 0.00028322901926003397, -0.0007226767484098673, -0.0006547480588778853, 0.00036339572397992015, 0.0007222628919407725, -0.00013382303586695343, -0.0007292820373550057, -0.0005764137022197247, -0.0002566796902101487, -6.163110811030492e-05, -0.0006326902657747269, 1.1496284059830941e-05, -0.0012825872981920838, 0.0012969453819096088, -0.000625276064965874, 0.00034955324372276664, 4.620379695552401e-05, 0.0, -2.0174285353391497e-08, -6.896556442370638e-05, 0.0006123513448983431, -0.00044336231076158583, 0.0008852463215589523, 0.0005147322663106024, -0.00019525375682860613, -4.299527972762007e-06, -0.0003529014647938311, 0.00013301435683388263, 0.00021765365090686828, -0.001392805716022849, 9.798237442737445e-05, 1.618136047909502e-05, 0.0003217141784261912, 0.0004711714282166213, 2.671506535989465e-06, -1.4490614375972655e-05, -0.00028977717738598585, 0.0003822783473879099, -0.0005092059727758169, -9.639865311328322e-05, 0.0008795172325335443, -0.00032718913280405104, -0.00016429471725132316, 0.0006871582008898258, 0.00011484694550745189, 5.775998579338193e-05, -0.00031728530302643776, -1.8622589777805842e-05, -0.00038865304668433964, -0.0007189305615611374, -0.0006887121708132327, -0.00032749417005106807, 0.0, 0.0, -0.00025751866633072495, 0.000260099332081154, -0.00039740809006616473, 0.0006389548070728779, 0.0004930177237838507, 0.0003024563775397837, 0.0008090429473668337, 0.0006399008561857045, -0.00042331183794885874, -6.256533379200846e-05, 0.0004826388612855226, -0.0004379803140182048, 0.0001997282524826005, 0.00020777052850462496, 8.591725054429844e-05, 5.850593151990324e-05, 0.00029750479734502733, -0.00011421000090194866, 0.0, 0.0006316075450740755, 0.0012119539314880967, -0.0007054706220515072, 3.498222940834239e-05, 1.8665481547941454e-05, 0.00025267127784900367, -0.00016415794380009174, -0.00040508515667170286, -0.00038878980558365583, -3.563235804904252e-05, 5.1804890972562134e-06, 0.0001670398487476632, 0.00033452018396928906, 0.00018693305901251733, -0.00033198297023773193, 0.0, -7.499292405555025e-05, -8.948760660132393e-05, 0.0004299644788261503, -0.0005462202243506908, -0.00045592087553814054, 0.0007520356448367238, -0.0003403320733923465, -2.098472350553493e-06, 1.4928240489098243e-05, -0.0003957149456255138, 0.0001995618804357946, 0.0, -0.0005652226391248405, 0.0006839761626906693, -0.00020480422244872898, 0.00010072172881336883, 0.00017021172970999032, -9.211673750542104e-05, -5.5305674322880805e-05, 0.00026614931994117796, 0.0005800799699500203, -0.0007503423257730901, 0.001479626982472837, -5.1322291255928576e-05, -0.000259328109677881, -0.000742951175197959, -0.0005266418447718024, -0.0002990293432958424, -7.417629240080714e-05, 0.00032856615143828094, -0.0005487664020620286, 4.515376076597022e-06, 8.948191680246964e-05, -7.659550465177745e-05, 0.00013579727965407073, -0.0008832392049953341, 0.00029541683034040034, 0.0006323406123556197, -0.00020397122716531157, -0.00011233915574848652, 0.00019334898388478905, -7.965533586684614e-05, 0.00022993674792815, 0.00028810955700464547, 0.0008704935316927731, -5.785392659163335e-06, 0.0003616300818976015, 0.0008144876337610185, 5.55224614799954e-05, -0.00038557450170628726, -2.5313931928394595e-07, 0.0006249662837944925, -0.00022535742027685046, 0.0013163336552679539, 0.0, 0.00018680487119127065, 3.0000579499755986e-05, 0.0001610431500012055, 0.0, 0.0, -0.00030730420257896185, 9.83034260571003e-06, -0.00031955252052284777, -0.00046105089131742716, 0.0008418875513598323, -0.00027914662496186793, -3.3970194635912776e-05, -7.126414857339114e-05, 0.0, -0.0005267769447527826, 4.743644967675209e-05, 0.0, 0.0003897852438967675, -0.00041150194010697305, 0.0003067514335270971, 0.0003003214078489691, -0.0005593753885477781, -0.00034140373463742435, 5.637551225845527e-07, 1.3656256669491995e-05, 0.0, -0.0007929947460070252, -0.0003740073589142412, -1.2668682757066563e-05, 0.0010231438791379333, 0.00016821407189127058, -0.00047020427882671356, 0.00026200266438536346, -0.00016443035565316677, -0.0005889277090318501, 0.00039193459087982774, 7.877653115428984e-05, 0.0, -0.0006800978444516659, 1.9231931219110265e-05, -0.0004806672513950616, -0.0004897746839560568, 0.0, -0.00010626799485180527, 0.0005291652632877231, -9.72545990407525e-07, -0.0002829415025189519, -0.00020314654102548957, -0.00011108104808954522, -0.0004886079113930464, -0.000139213923830539, -0.00024523516185581684, 4.116116906516254e-05, 0.0005064793513156474, -0.0002559051790740341, 0.00015822912973817438, -9.650603169575334e-05, 0.0005810002912767231, -0.0005404133698903024, -3.531469337758608e-05, -0.0006557453889399767, -0.001309674116782844, -0.0005575596005655825, 0.0006184050580486655, -1.1860074664582498e-06, 0.0008611638913862407, -2.1326803107513115e-05, -0.0003226117987651378, -0.00021046421898063272, 0.0, -0.0004503033123910427, -7.020214980002493e-05, -3.839970304397866e-06, 0.0001463793305447325, -0.0005316141177900136, 0.0005108533659949899, -0.00036416738294065, 0.00033712212461978197, -4.4033156882505864e-05, -4.020090273115784e-05, 1.5389028703793883e-05, -1.9599117877078243e-05, -1.3172348189982586e-06, 1.6455522199976258e-05, 6.81670508129173e-06, -4.3377443944336846e-05, 3.5315115383127704e-05, 6.209945979662734e-08, 3.6062752769794315e-05, -3.978112727054395e-05, -2.7111063900520094e-05, -6.768965249648318e-05, 3.585688682505861e-05, -2.4576766008976847e-06, 2.5466233637416735e-05, -5.9536556364037097e-05, -7.801165224918805e-07, 3.692981044878252e-05, -2.4315913833561353e-05, 1.7403095625923015e-05, -1.0872177881537937e-05, -4.072809588251403e-06, 6.124970968812704e-05, -0.00010945058602374047, -3.5000812204089016e-05, 1.5911363959730807e-07, -6.207585101947188e-06, 0.0, 3.117899541393854e-05, 3.8330312236212194e-05, -1.040013799524786e-07, 0.0, 3.833648224826902e-05, 2.3970267648110166e-05, -6.116158328950405e-05, -5.54126308998093e-05, 3.075488348258659e-05, 6.112655682954937e-05, -1.1325721970933955e-05, -6.172058783704415e-05, -4.878304753219709e-05, -2.1723319150623865e-05, -5.215964392846217e-06, -5.354585300665349e-05, 9.72953557720757e-07, -0.00010854790161829442, 0.0001097630665753968, -5.291837442200631e-05, 2.95833724521799e-05, 3.910317445843248e-06, 0.0, -1.7073849001292274e-09, -5.836690434080083e-06, 5.182456152397208e-05, -3.752265911316499e-05, 7.492014265153557e-05, 4.356280987849459e-05, -1.6524716556887142e-05, -3.63877830977799e-07, -2.986673644045368e-05, 1.1257299775024876e-05, 1.8420456399326213e-05, -0.00011787592666223645, 8.292441634694114e-06, 1.3694691460841568e-06, 2.7227304599364288e-05, 3.987617674283683e-05, 2.260947269405733e-07, -1.2263697044545552e-06, -2.4524413674953394e-05, 3.235302210669033e-05, -4.309511132305488e-05, -8.158411219483241e-06, 7.443529466399923e-05, -2.7690664865076542e-05, -1.3904584193369374e-05, 5.815555778099224e-05, 9.719724403112195e-06, 4.888330295216292e-06, -2.6852480004890822e-05, -1.5760668929942767e-06, -3.289248707005754e-05, -6.084454071242362e-05, -5.828709254274145e-05, -2.7716483600670472e-05, 0.0, 0.0, -2.1794316126033664e-05, 2.2012696717865765e-05, -3.3633452403591946e-05, 5.4076099331723526e-05, 4.172503759036772e-05, 2.559751010267064e-05, 6.847098120488226e-05, 5.415594932856038e-05, -3.582573481253348e-05, -5.2950290410080925e-06, 4.084671672899276e-05, -3.706716961460188e-05, 1.690341014182195e-05, 1.7584032320883125e-05, 7.271346021298086e-06, 4.951477421855088e-06, 2.517843313398771e-05, -9.665830475569237e-06, 0.0, 5.345421959646046e-05, 0.00010257007670588791, -5.970539496047422e-05, 2.960614438052289e-06, 1.5796820207469864e-06, 2.1384128558565862e-05, -1.3892999959352892e-05, -3.428316631470807e-05, -3.290406311862171e-05, -3.0156384127622005e-06, 4.384350518193969e-07, 1.4136921890894882e-05, 2.831111487466842e-05, 1.5820520275156014e-05, -2.8096384994569235e-05, 0.0, -6.346786449284991e-06, -7.57350426283665e-06, 3.6388748412718996e-05, -4.6227723942138255e-05, -3.858553827740252e-05, 6.364627188304439e-05, -2.880296960938722e-05, -1.7759802517502976e-07, 1.2634129689104157e-06, -3.3490137866465375e-05, 1.6889322068891488e-05, 0.0, -4.783593976753764e-05, 5.7886230933945626e-05, -1.733297722239513e-05, 8.52428001962835e-06, 1.4405359252123162e-05, -7.796087629685644e-06, -4.6806208047200926e-06, 2.2524707674165256e-05, 4.909331619273871e-05, -6.350298644974828e-05, 0.00012522375618573278, -4.343513865023851e-06, -2.1947444110992365e-05, -6.287744326982647e-05, -4.457075192476623e-05, -2.5307417672593147e-05, -6.2776898630545475e-06, 2.7807198421214707e-05, -4.644318323698826e-05, 3.8213909192563733e-07, 7.573034963570535e-06, -6.482426215370651e-06, 1.1492775229271501e-05, -7.475029269699007e-05, 2.5001736503327265e-05, 5.3516210755333304e-05, -1.726249320199713e-05, -9.50748744799057e-06, 1.6363555914722383e-05, -6.741387551301159e-06, 1.9460005205473863e-05, 2.43832928390475e-05, 7.367160287685692e-05, -4.896352265859605e-07, 3.0605486244894564e-05, 6.89317166688852e-05, 4.6989616748760454e-06, -3.263194230385125e-05, -2.1423705476308896e-08, 5.289214095682837e-05, -1.9072447685175575e-05, 0.00011140389688080177, 0.0, 1.5809633623575792e-05, 2.5390070277353516e-06, 1.3629395652969833e-05, 0.0, 0.0, -2.6007764972746372e-05, 8.319567541548167e-07, -2.704436337808147e-05, -3.901968011632562e-05, 7.125062984414399e-05, -2.3624734240002e-05, -2.8749796001648065e-06, -6.0312263485684525e-06, 0.0, -4.458217154024169e-05, 4.01465058530448e-06, 0.0, 3.298832234577276e-05, -3.4826225601136684e-05, 2.596091690065805e-05, 2.5416780772502534e-05, -4.734105823445134e-05, -2.8893678972963244e-05, 4.7711200323874436e-08, 1.1557694961084053e-06, 0.0, -6.71127563691698e-05, -3.1652987672714517e-05, -1.0721693115556263e-06, 8.659066952532157e-05, 1.4236326023819856e-05, -3.979436223744415e-05, 2.2173784600454383e-05, -1.3916056559537537e-05, -4.98421723023057e-05, 3.3170195820275694e-05, 6.667011348326923e-06, 0.0, -5.75580561417155e-05, 1.627658434699697e-06, -4.067982081323862e-05, -4.1450606659054756e-05, 0.0, -8.993663868750446e-06, 4.478427945286967e-05, -8.230849601886803e-08, -2.3945909561007284e-05, -1.719269494060427e-05, -9.401004717801698e-06, -4.1351886466145515e-05, -1.1781944522226695e-05, -2.0754738216055557e-05, 3.4835486530937487e-06, 4.286439434508793e-05, -2.1657757315551862e-05, 1.3391239917837083e-05, -8.167503438016865e-06, 4.9171205318998545e-05, -4.573627666104585e-05, -2.988749201904284e-06, -5.549705383600667e-05, -0.00011084033758379519, -4.718738637166098e-05, 5.2336872613523155e-05, -1.0037415165697894e-07, 7.28820450603962e-05, -1.8049299796984997e-06, -2.7303234674036503e-05, -1.7812026271712966e-05, 0.0, -3.811006172327325e-05, -5.941350536886603e-06, -3.249841995511815e-07, 1.2388371033011936e-05, -4.4991571485297754e-05, 4.3234518670942634e-05, -3.082020703004673e-05, 2.8531312636914663e-05, -3.726584964169888e-06, -0.002242133254185319, 0.0008582952432334423, -0.00109310622792691, -7.34662389731966e-05, 0.0009177783504128456, 0.00038018939085304737, -0.002419299678876996, 0.001969636883586645, 3.4635454539966304e-06, 0.002011335687711835, -0.0022187207359820604, -0.0015120712341740727, -0.003775268793106079, 0.0019998534116894007, -0.00013707307516597211, 0.001420332002453506, -0.003320544259622693, -4.3510077375685796e-05, 0.0020596932154148817, -0.001356178312562406, 0.0009706260170787573, -0.0006063758628442883, -0.0002271535195177421, 0.003416091436520219, -0.0061044092290103436, -0.0019521071808412671, 8.87427813722752e-06, -0.0003462171589490026, 0.0, 0.0017389522399753332, 0.0021378044039011, -5.800490271212766e-06, 0.0, 0.0021381487604230642, 0.0013368988875299692, -0.0034111777786165476, -0.0030905401799827814, 0.0017153004882857203, 0.0034092252608388662, -0.000631672446615994, -0.0034423551987856627, -0.002720785094425082, -0.0012115791905671358, -0.00029091109172441065, -0.0029864234384149313, 5.426473944680765e-05, -0.006054065190255642, 0.006121838465332985, -0.0029514264315366745, 0.001649958430789411, 0.00021809044119436294, 0.0, -9.5226170060414e-08, -0.00032553085475228727, 0.0028904261998832226, -0.0020927595905959606, 0.004178536590188742, 0.0024296361953020096, -0.0009216368780471385, -2.0294608475524e-05, -0.0016657633241266012, 0.0006278568762354553, 0.0010273680090904236, -0.006574318278580904, 0.0004624961002264172, 7.637975068064407e-05, 0.0015185533557087183, 0.00222402298822999, 1.2610019439307507e-05, -6.83985635987483e-05, -0.0013678049435839057, 0.0018044315511360765, -0.002403552643954754, -0.00045502069406211376, 0.004151494242250919, -0.0015443979064002633, -0.0007755029946565628, 0.0032435222528874874, 0.000542099995072931, 0.000272637844318524, -0.001497649122029543, -8.790233550826088e-05, -0.0018345193238928914, -0.0033934954553842545, -0.0032508582808077335, -0.0015458373818546534, 0.0, 0.0, -0.0012155389413237572, 0.0012277186615392566, -0.0018758453661575913, 0.0030159971211105585, 0.0023271418176591396, 0.0014276551082730293, 0.003818844212219119, 0.0030204488430172205, -0.001998116262257099, -0.00029532070038840175, 0.00227815262041986, -0.0020673552062362432, 0.0009427571203559637, 0.000980716897174716, 0.000405546190449968, 0.0002761597861535847, 0.001404280192218721, -0.0005390940350480378, 0.0, 0.0029813151340931654, 0.0057206666097044945, -0.0033299613278359175, 0.00016512292495463043, 8.810362487565726e-05, 0.0011926594888791442, -0.0007748565403744578, -0.0019120818469673395, -0.0018351650796830654, -0.000168191923876293, 2.445291647745762e-05, 0.0007884616497904062, 0.001579001545906067, 0.0008823609678074718, -0.0015670255525037646, 0.0, -0.00035398107138462365, -0.0004223987052682787, 0.002029519062489271, -0.002578268526121974, -0.002152040833607316, 0.0035497555509209633, -0.0016064337687566876, -9.90521402854938e-06, 7.046430982882157e-05, -0.0018678520573303103, 0.0009419719572179019, 0.0, -0.0026679642032831907, 0.003228501882404089, -0.0009667153935879469, 0.00047542667016386986, 0.0008034334168769419, -0.000434812915045768, -0.00026105393772013485, 0.0012562749907374382, 0.0027380918618291616, -0.003541765036061406, 0.0069841318763792515, -0.00024225178640335798, -0.0012240797514095902, -0.0035068767610937357, -0.0024858538527041674, -0.0014114761725068092, -0.00035012728767469525, 0.0015508965589106083, -0.0025902846828103065, 2.131300061591901e-05, 0.0004223724245093763, -0.0003615455352701247, 0.000640988233499229, -0.00416906364262104, 0.001394427614286542, 0.00298477103933692, -0.0009627845720387995, -0.0005302626523189247, 0.0009126461227424443, -0.0003759888932108879, 0.0010853467974811792, 0.001359933870844543, 0.004108901601284742, -2.73085170192644e-05, 0.0017069667810574174, 0.0038445426616817713, 0.00026207606424577534, -0.001819986617192626, -1.1948685596507858e-06, 0.0029499658849090338, -0.001063732081092894, 0.006213350687175989, 0.0, 0.000881753396242857, 0.0001416083687217906, 0.0007601550896652043, 0.0, 0.0, -0.0014505366561934352, 4.6401837607845664e-05, -0.001508350600488484, -0.002176252892240882, 0.0039738756604492664, -0.0013176269130781293, -0.00016034762666095048, -0.0003363808209542185, 0.0, -0.0024864887818694115, 0.00022390985395759344, 0.0, 0.001839865348301828, -0.001942370436154306, 0.0014479263918474317, 0.0014175755204632878, -0.002640362363308668, -0.0016114930622279644, 2.6610114218783565e-06, 6.446178304031491e-05, 0.0, -0.0037430927623063326, -0.0017653884133324027, -5.9798272559419274e-05, 0.004829438403248787, 0.0007940055220387876, -0.002219458343461156, 0.0012367028975859284, -0.0007761435699649155, -0.00277985748834908, 0.0018500076839700341, 0.0003718408406712115, 0.0, -0.0032101969700306654, 9.078081347979605e-05, -0.002268844284117222, -0.002311832970008254, 0.0, -0.0005016070790588856, 0.00249776104465127, -4.590618118527345e-06, -0.0013355405535548925, -0.0009588919347152114, -0.0005243266932666302, -0.0023063281551003456, -0.000657116761431098, -0.0011575575917959213, 0.00019428884843364358, 0.002390683861449361, -0.0012079228181391954, 0.0007468722178600729, -0.00045552849769592285, 0.002742435783147812, -0.002550858072936535, -0.0001666919415583834, -0.0030952487140893936, -0.006181920412927866, -0.002631791401654482, 0.0029189956840127707, -5.5981836339924484e-06, 0.004064865875989199, -0.00010066676622955129, -0.001522788661532104, -0.0009934346890076995, 0.0, -0.0021255204919725657, -0.0003313681809231639, -1.812540358514525e-05, 0.00069093843922019, -0.002509324811398983, 0.002411326626315713, -0.0017189417267218232, 0.001591283711604774, -0.00020784290973097086, -6.20366190560162e-05, 2.37478016060777e-05, -3.0244669687817805e-05, -2.0327149741206085e-06, 2.539359593356494e-05, 1.0519289389776532e-05, -6.693853356409818e-05, 5.449703530757688e-05, 9.582534232777107e-08, 5.565076935454272e-05, -6.138883327366784e-05, -4.183683267910965e-05, -0.00010445628868183121, 5.5333079217234626e-05, -3.792596089624567e-06, 3.92985857615713e-05, -9.187471732730046e-05, -1.2038631211908069e-06, 5.698879613191821e-05, -3.75234849343542e-05, 2.6855832402361557e-05, -1.6777554264990613e-05, -6.285020845098188e-06, 9.451837104279548e-05, -0.00016890023835003376, -5.401200178312138e-05, 2.4553852995268244e-07, -9.579349352861755e-06, 0.0, 4.811430335394107e-05, 5.914998837397434e-05, -1.604912824859639e-07, 0.0, 5.915950168855488e-05, 3.6990059015806764e-05, -9.438241249881685e-05, -8.551080827601254e-05, 4.7459874622290954e-05, 9.432835940970108e-05, -1.7477448636782356e-05, -9.524502820568159e-05, -7.528029527748004e-05, -3.352269413881004e-05, -8.049093594308943e-06, -8.263006748165935e-05, 1.5014275049907155e-06, -0.00016750729992054403, 0.00016938248882070184, -8.166173211066052e-05, 4.5651984692085534e-05, 6.034244051988935e-06, 0.0, -2.634774398657669e-09, -9.006979780679103e-06, 7.997391367098317e-05, -5.790358773083426e-05, 0.00011561402789084241, 6.722458056174219e-05, -2.5500356059637852e-05, -5.61523222586402e-07, -4.608925519278273e-05, 1.7371839931001887e-05, 2.84258094325196e-05, -0.00018190195260103792, 1.2796611372323241e-05, 2.1133232621650677e-06, 4.201619594823569e-05, 6.15355238551274e-05, 3.489013806756702e-07, -1.8924902178696357e-06, -3.7845187762286514e-05, 4.992603135178797e-05, -6.650284922216088e-05, -1.258977317775134e-05, 0.00011486591392895207, -4.273128797649406e-05, -2.145706457667984e-05, 8.97435747901909e-05, 1.4999124687165022e-05, 7.543512765550986e-06, -4.1437797335674986e-05, -2.4321325327036902e-06, -5.075852095615119e-05, -9.389316255692393e-05, -8.994659583549947e-05, -4.2771098378580064e-05, 0.0, 0.0, -3.363220821483992e-05, 3.396921601961367e-05, -5.190194497117773e-05, 8.344834350282326e-05, 6.438868877012283e-05, 3.950114842155017e-05, 0.00010566198761807755, 8.357149636140093e-05, -5.52849996893201e-05, -8.171103218046483e-06, 6.303322152234614e-05, -5.720073386328295e-05, 2.6084704586537555e-05, 2.7135030904901214e-05, 1.1220882697671186e-05, 7.640958756383043e-06, 3.8854552258271724e-05, -1.4915959582140204e-05, 0.0, 8.248876838479191e-05, 0.00015828250616323203, -9.213526209350675e-05, 4.568713848129846e-06, 2.4376815872528823e-06, 3.299919262644835e-05, -2.1439163901959546e-05, -5.290452827466652e-05, -5.0776387070072815e-05, -4.653625637729419e-06, 6.765772013750393e-07, 2.1815600121044554e-05, 4.3688709411071613e-05, 2.4413659048150294e-05, -4.335734774940647e-05, 0.0, -9.794155630515888e-06, -1.1687160622386727e-05, 5.6153847253881395e-05, -7.133698090910912e-05, -5.95438432355877e-05, 9.82166311587207e-05, -4.4447722757468e-05, -2.740630407060962e-07, 1.949601028172765e-06, -5.168080679140985e-05, 2.6063025870826095e-05, 0.0, -7.381875911960378e-05, 8.932792115956545e-05, -2.6747627998702228e-05, 1.3154378393664956e-05, 2.2229845853871666e-05, -1.2030657671857625e-05, -7.2229649958899245e-06, 3.4759275877149776e-05, 7.575906056445092e-05, -9.799555846257135e-05, 0.00019324095046613365, -6.7027622208115645e-06, -3.386851312825456e-05, -9.703027171781287e-05, -6.878000567667186e-05, -3.905348421540111e-05, -9.687513738754205e-06, 4.291106961318292e-05, -7.166945579228923e-05, 5.896954462514259e-07, 1.1686439393088222e-05, -1.000350221147528e-05, 1.7735244909999892e-05, -0.00011535199882928282, 3.858181298710406e-05, 8.258430898422375e-05, -2.663887062226422e-05, -1.467160473112017e-05, 2.5251674742321484e-05, -1.0403065971331671e-05, 3.002999073942192e-05, 3.7627418350894004e-05, 0.00011368741979822516, -7.555875072284834e-07, 4.722931771539152e-05, 0.00010637302329996601, 7.251271199493203e-06, -5.035641152062453e-05, -3.3060274517993093e-08, 8.162127051036805e-05, -2.943197250715457e-05, 0.0001719144929666072, 0.0, 2.439685704302974e-05, 3.918099082511617e-06, 2.1032414224464446e-05, 0.0, 0.0, -4.013426951132715e-05, 1.2838676184401265e-06, -4.173390698269941e-05, -6.021379158482887e-05, 0.00010995144111802801, -3.645686592790298e-05, -4.436455583345378e-06, -9.30717487790389e-06, 0.0, -6.879761349409819e-05, 6.195265996211674e-06, 0.0, 5.090639751870185e-05, -5.374259490054101e-05, 4.0062033804133534e-05, 3.92223009839654e-05, -7.305506005650386e-05, -4.458771218196489e-05, 7.362585563441826e-08, 1.783566176527529e-06, 0.0, -0.00010356598068028688, -4.884576628683135e-05, -1.6545324115213589e-06, 0.00013362363097257912, 2.1969015506329015e-05, -6.140926416264847e-05, 3.421778092160821e-05, -2.1474847017088905e-05, -7.691468636039644e-05, 5.1187045755796134e-05, 1.0288289558957331e-05, 0.0, -8.882153633749112e-05, 2.5117503810179187e-06, -6.277563807088882e-05, -6.396510434569791e-05, 0.0, -1.38786917887046e-05, 6.91094683133997e-05, -1.2701559626293601e-07, -3.6952482332708314e-05, -2.6531160983722657e-05, -1.450744275643956e-05, -6.381276034517214e-05, -1.8181492123403586e-05, -3.2027957786340266e-05, 5.375684850150719e-06, 6.614677840843797e-05, -3.3421474654460326e-05, 2.0664867406594567e-05, -1.2603841241798364e-05, 7.587925938423723e-05, -7.05785714671947e-05, -4.612113571056398e-06, -8.564111340092495e-05, -0.0001710449141683057, -7.281790021806955e-05, 8.076438098214567e-05, -1.5489376892219298e-07, 0.00011246900976402685, -2.785306605801452e-06, -4.213332795188762e-05, -2.74869344139006e-05, 0.0, -5.8810099289985374e-05, -9.168482392851729e-06, -5.015040756006783e-07, 1.911728031700477e-05, -6.942940672161058e-05, 6.671792652923614e-05, -4.756062480737455e-05, 4.402853664942086e-05, -5.750734544562874e-06, -0.0002447039005346596, 9.367347956867889e-05, -0.00011930058826692402, -8.018039807211608e-06, 0.0001001651689875871, 4.149354936089367e-05, -0.0002640397578943521, 0.0002149638457922265, 3.7796652918586915e-07, 0.00021951498638372868, -0.0002421488316031173, -0.00016502583457622677, -0.00041202877764590085, 0.00021826184820383787, -1.4959901818656363e-05, 0.00015501389862038195, -0.0003624005476012826, -4.748540050059091e-06, 0.00022479260223917663, -0.0001480115024605766, 0.00010593307524686679, -6.617904728045687e-05, -2.4791235773591325e-05, 0.00037282879929989576, -0.0006662288797087967, -0.0002130509092239663, 9.685290933703072e-07, -3.778552854782902e-05, 0.0, 0.00018978732987307012, 0.0002333176089450717, -6.330593578240951e-07, 0.0, 0.00023335513833444566, 0.000145907630212605, -0.00037229221197776496, -0.0003372982610017061, 0.00018720577645581216, 0.0003720788226928562, -6.893988756928593e-05, -0.000375694886315614, -0.00029694350087083876, -0.0001322301832260564, -3.1749670597491786e-05, -0.00032593513606116176, 5.922394848312251e-06, -0.0006607340183109045, 0.0006681306986138225, -0.00032211560755968094, 0.000180074930540286, 2.38023312704172e-05, 0.0, -1.0392942506598501e-08, -3.5528129956219345e-05, 0.00031545734964311123, -0.0002284012734889984, 0.0004560410452540964, 0.00026516831712797284, -0.00010058636689791456, -2.2149336018628674e-06, -0.0001817997545003891, 6.852376100141555e-05, 0.00011212581739528105, -0.0007175139617174864, 5.047631202614866e-05, 8.33600734040374e-06, 0.00016573361062910408, 0.000242727342993021, 1.3762452226728783e-06, -7.464949703717139e-06, -0.0001492806914029643, 0.0001969336881302297, -0.00026232111849822104, -4.966052802046761e-05, 0.00045308974222280085, -0.0001685535244178027, -8.463764243060723e-05, 0.0003539943718351424, 5.916424561291933e-05, 2.975532152049709e-05, -0.00016345176845788956, -9.59356202656636e-06, -0.00020021750242449343, -0.00037036233698017895, -0.0003547950182110071, -0.00016871097614057362, 0.0, 0.0, -0.00013266256428323686, 0.00013399191084317863, -0.00020472772303037345, 0.0003291634493507445, 0.0002539816778153181, 0.00015581263869535178, 0.00041678466368466616, 0.00032964861020445824, -0.00021807223674841225, -3.223100065952167e-05, 0.00024863501312211156, -0.00022562887170352042, 0.00010289168858435005, 0.0001070345169864595, 4.4260890717851e-05, 3.0139799491735175e-05, 0.0001532613387098536, -5.883624544367194e-05, 0.0, 0.0003253769828006625, 0.0006243469542823732, -0.00036342834937386215, 1.8021350115304813e-05, 9.615581802790985e-06, 0.00013016587763559073, -8.456718205707148e-05, -0.0002086825988953933, -0.00020028790459036827, -1.835626426327508e-05, 2.6687673653214006e-06, 8.605179755249992e-05, 0.000172330517671071, 9.630007843952626e-05, -0.00017102346464525908, 0.0, -3.8632966607110575e-05, -4.610005998983979e-05, 0.00022149935830384493, -0.00028138936613686383, -0.00023487082216888666, 0.0003874167159665376, -0.00017532450146973133, -1.081042796613474e-06, 7.690446182095911e-06, -0.00020385539392009377, 0.00010280578135279939, 0.0, -0.0002911785850301385, 0.00035235509858466685, -0.00010550635488471016, 5.1887564040953293e-05, 8.768581028562039e-05, -4.74550761282444e-05, -2.849137490557041e-05, 0.00013710847997572273, 0.0002988322521559894, -0.0003865445323754102, 0.0007622402627021074, -2.6439072826178744e-05, -0.00013359467266127467, -0.00038273673271760345, -0.0002713034045882523, -0.00015404711302835494, -3.8212463550735265e-05, 0.00016926310490816832, -0.00028270098846405745, 2.326095909666037e-06, 4.609727329807356e-05, -3.945872958865948e-05, 6.995705189183354e-05, -0.00045500707346946, 0.00015218618500512093, 0.00032575486693531275, -0.00010507726256037131, -5.787231930298731e-05, 9.960539318853989e-05, -4.103508763364516e-05, 0.0001184535794891417, 0.0001484219974372536, 0.00044844101648777723, -2.980427098009386e-06, 0.00018629641272127628, 0.00041958934161812067, 2.8602727979887277e-05, -0.0001986316783586517, -1.3040663304764166e-07, 0.00032195582753047347, -0.00011609461216721684, 0.000678118783980608, 0.0, 9.623381629353389e-05, 1.5455036191269755e-05, 8.29624041216448e-05, 0.0, 0.0, -0.00015830996562726796, 5.064021024736576e-06, -0.00016461980703752488, -0.0002375138719798997, 0.0004337046993896365, -0.00014380439824890345, -1.7499854948255233e-05, -3.67122411262244e-05, 0.0, -0.0002713733119890094, 2.4437293177470565e-05, 0.0, 0.00020080087415408343, -0.0002119882992701605, 0.00015802402049303055, 0.00015471271763090044, -0.00028816628037020564, -0.0001758765720296651, 2.9041677862551296e-07, 7.03505975252483e-06, 0.0, -0.00040851731318980455, -0.00019267261086497456, -6.52637345410767e-06, 0.0005270798574201763, 8.66569607751444e-05, -0.00024222930369433016, 0.00013497256441041827, -8.470732427667826e-05, -0.00030339075601659715, 0.00020190807117614895, 4.0582359360996634e-05, 0.0, -0.000350357498973608, 9.907789717544802e-06, -0.0002476191730238497, -0.00025231100153177977, 0.0, -5.474474164657295e-05, 0.0002726032689679414, -5.01013346365653e-07, -0.00014575934619642794, -0.00010465244122315198, -5.722362038795836e-05, -0.00025170951266773045, 