0: [0.03819084167480469, 0.04405784606933594, 0.03896617889404297, -0.04917097091674805, -0.08431339263916016, -0.06515979766845703, -0.02195906639099121, 0.061614036560058594, 0.16112327575683594, 0.084503173828125, -0.031650543212890625, 0.012237548828125, -0.05830955505371094, -0.004125684499740601, 0.10332679748535156, -0.07866859436035156, 0.032529354095458984, 0.007176876068115234, 0.06226778030395508, 0.08223533630371094, 0.11870384216308594, 0.016585111618041992, -0.011527538299560547, 0.009419441223144531, -0.004579901695251465, -0.028456687927246094, 0.023862600326538086, -0.0838937759399414, 0.0, -0.024597883224487305, -8.498132228851318e-05, -0.08225345611572266, 0.0, 0.04134511947631836, 0.034699201583862305, 0.03274965286254883, 0.03166675567626953, -0.07202816009521484, -0.0662074089050293, -0.04013490676879883, -0.05358695983886719, 0.12500476837158203, -0.004293084144592285, 0.048388004302978516, 0.06522226333618164, 0.04738664627075195, -0.06261301040649414, 0.07229804992675781, 0.015870213508605957, -0.12456417083740234, 0.03959798812866211, 0.0, -0.011813759803771973, -0.014009952545166016, 0.06862545013427734, 0.013499736785888672, 0.013418912887573242, 0.01697063446044922, -0.05716657638549805, -0.0483393669128418, 0.04616069793701172, 0.057550907135009766, 0.008019685745239258, -0.07802677154541016, -0.014348864555358887, -0.048390865325927734, 0.0425262451171875, -0.1417703628540039, 0.08560848236083984, -0.23500633239746094, 0.10684871673583984, -0.02667832374572754, 0.003313601016998291, 0.02257251739501953, -0.08274364471435547, -0.0030718520283699036, -0.18081283569335938, 0.0240476131439209, -0.02390432357788086, 0.13114070892333984, 0.07562255859375, 0.25375938415527344, -0.10922718048095703, 0.006414890289306641, -0.06915140151977539, 0.07252120971679688, 0.0, 0.0, 0.03419828414916992, 0.03774738311767578, -0.02315545082092285, 0.015428781509399414, -0.03365778923034668, 0.01514279842376709, -0.02097797393798828, 0.057364463806152344, -0.068115234375, -0.03337383270263672, -0.02927875518798828, -0.020154237747192383, -0.04925203323364258, 0.07404804229736328, -0.09465789794921875, 0.08902740478515625, -0.20919036865234375, -0.06170320510864258, 0.0, 0.01198887825012207, -0.024840116500854492, -0.00736391544342041, -0.08433246612548828, -0.011268854141235352, 0.0894765853881836, 0.0011990107595920563, -0.10839271545410156, 0.03858375549316406, 0.06487798690795898, 0.022139310836791992, 0.015371084213256836, 0.060266971588134766, -0.14801788330078125, 0.06666851043701172, 0.0, -0.03439593315124512, -0.10523414611816406, -0.021314620971679688, -0.09156131744384766, -0.010478734970092773, -0.0565180778503418, -0.1131277084350586, -0.09528446197509766, 0.00918126106262207, 0.034601688385009766, -0.017202377319335938, 0.0, -0.07954788208007812, 0.03995466232299805, -0.006776154041290283, 0.08788204193115234, 0.05578470230102539, 0.15331268310546875, 0.04706096649169922, -0.009067535400390625, -0.09530925750732422, 0.05456113815307617, -0.21280860900878906, -0.09752082824707031, -0.08634376525878906, -0.03163027763366699, -0.0668344497680664, 0.04595804214477539, -0.004501551389694214, -0.15469741821289062, 0.01115274429321289, 0.1022958755493164, -0.151824951171875, 0.036885738372802734, -0.024914264678955078, 0.05802297592163086, 0.033220529556274414, -0.03616809844970703, -0.08809375762939453, 0.08833026885986328, 0.005106866359710693, -0.0919189453125, 0.03626871109008789, -0.015285491943359375, 0.03262734413146973, 0.09305667877197266, -0.1167745590209961, 0.0077803730964660645, 0.019893884658813477, 0.05150747299194336, -0.015115618705749512, 0.09237289428710938, -0.066925048828125, 0.10929489135742188, 0.0, -0.0033594369888305664, 0.03796720504760742, -0.08059978485107422, 0.0, 0.0, 0.09308052062988281, -0.061800479888916016, -0.027186155319213867, 0.0890512466430664, 0.08304309844970703, 0.004422098398208618, -0.13625240325927734, -0.67352294921875, 0.0, -0.0995931625366211, -0.029285669326782227, 0.0, -0.04451274871826172, -0.07156562805175781, 0.011573076248168945, 0.1305217742919922, 0.03378868103027344, 0.05713462829589844, -0.062071800231933594, 0.05843687057495117, 0.0, -0.06861734390258789, -0.022015094757080078, -0.05511760711669922, -0.06882905960083008, 0.07959747314453125, -0.07403564453125, 0.036266326904296875, -0.006761908531188965, -0.10826396942138672, 0.1052408218383789, 0.041960716247558594, 0.0, 0.02918839454650879, 0.017277240753173828, -0.012482404708862305, 0.017071247100830078, 0.0, -0.044689178466796875, 0.012581229209899902, -0.08880901336669922, 0.0017737671732902527, 0.013322234153747559, -0.04736471176147461, 0.07920169830322266, -0.05037832260131836, 0.12822628021240234, -0.09685611724853516, -0.06698226928710938, -0.1105499267578125, 0.08425521850585938, -0.07578849792480469, 0.036163330078125, 0.1142425537109375, 0.027817964553833008, 0.06137990951538086, -0.09961223602294922, 0.07586956024169922, 0.1200571060180664, -0.11977481842041016, 0.03526449203491211, 0.37908935546875, 0.10839366912841797, 0.08570098876953125, 0.0, 0.023655176162719727, 0.1845531463623047, 0.08631038665771484, 0.06495237350463867, -0.006485462188720703, -0.027290821075439453, 0.10574054718017578, 0.03867340087890625, -0.6725234985351562, -0.039549827575683594, -0.04482412338256836, -0.0397038459777832, 0.0485997200012207, 0.08356189727783203, 0.06458759307861328, 0.02334451675415039, -0.05708885192871094, -0.16314315795898438, -0.08430290222167969, 0.03243517875671387, -0.01476752758026123, 0.0639028549194336, 0.0030249059200286865, -0.10068798065185547, 0.07917213439941406, -0.030907869338989258, -0.008565366268157959, -0.06453943252563477, -0.08306121826171875, -0.11639785766601562, -0.01608443260192871, 0.01178741455078125, -0.00871574878692627, 0.008250057697296143, 0.02527308464050293, -0.02696371078491211, 0.08197784423828125, 0.0, 0.02450275421142578, 0.0030914098024368286, 0.08311748504638672, 0.0, -0.041303157806396484, -0.03250408172607422, -0.03811073303222656, -0.03181028366088867, 0.07184314727783203, 0.061679840087890625, 0.03778266906738281, 0.05465269088745117, -0.11771106719970703, 0.005276143550872803, -0.04996061325073242, -0.06531238555908203, -0.040130615234375, 0.0637660026550293, -0.07399845123291016, -0.01350259780883789, 0.12230491638183594, -0.039290428161621094, 0.0, 0.01194620132446289, 0.013551473617553711, -0.06699180603027344, -0.013506174087524414, -0.01509249210357666, -0.012883901596069336, 0.05616188049316406, 0.04463958740234375, -0.046092987060546875, -0.05642414093017578, -0.010249853134155273, 0.07917213439941406, 0.01512908935546875, 0.045228004455566406, -0.04224061965942383, 0.13893508911132812, -0.09272480010986328, 0.22545433044433594, -0.10832500457763672, 0.02611374855041504, -0.0005706101655960083, -0.022908449172973633, 0.081756591796875, -0.0018750280141830444, 0.18103981018066406, -0.02239990234375, 0.023616313934326172, -0.13078022003173828, -0.07563304901123047, -0.24770545959472656, 0.10840129852294922, -0.00718611478805542, 0.06833219528198242, -0.07320594787597656, 0.0, 0.0, -0.03153657913208008, -0.03583335876464844, 0.023580074310302734, -0.014157533645629883, 0.033400535583496094, -0.016665220260620117, 0.02097487449645996, -0.06119871139526367, 0.06658220291137695, 0.02773761749267578, 0.02935314178466797, 0.0169219970703125, 0.04722785949707031, -0.07196044921875, 0.09256458282470703, -0.09116649627685547, 0.2137126922607422, 0.06252336502075195, 0.0, -0.014692187309265137, 0.0266263484954834, 0.00920403003692627, 0.08734416961669922, 0.01279759407043457, -0.09059524536132812, 0.0004082508385181427, 0.10780811309814453, -0.03836345672607422, -0.06486940383911133, -0.022913455963134766, -0.014664053916931152, -0.05721902847290039, 0.15015792846679688, -0.06629085540771484, 0.0, 0.035996437072753906, 0.10550785064697266, 0.022769451141357422, 0.0902252197265625, 0.009995579719543457, 0.05795431137084961, 0.11036396026611328, 0.09321880340576172, -0.009365677833557129, -0.03671741485595703, 0.01842331886291504, 0.0, 0.07987499237060547, -0.041942596435546875, 0.006994783878326416, -0.08699989318847656, -0.05545663833618164, -0.14817428588867188, -0.04167652130126953, 0.001093745231628418, 0.09664440155029297, -0.05603742599487305, 0.21525192260742188, 0.09917545318603516, 0.08798694610595703, 0.030014514923095703, 0.06657075881958008, -0.040198326110839844, 0.0022451281547546387, 0.1565418243408203, -0.01011812686920166, -0.10199356079101562, 0.1532306671142578, -0.040282249450683594, 0.024692058563232422, -0.05881929397583008, -0.03380250930786133, 0.03443622589111328, 0.08610725402832031, -0.08758354187011719, -0.007258236408233643, 0.09560585021972656, -0.038387298583984375, 0.013565540313720703, -0.030809402465820312, -0.09289360046386719, 0.11748790740966797, -0.007810235023498535, -0.01863551139831543, -0.053719520568847656, 0.016695261001586914, -0.09300041198730469, 0.06704568862915039, -0.11034393310546875, 0.0, 0.0021599233150482178, -0.03934335708618164, 0.07938671112060547, 0.0, 0.0, -0.09615898132324219, 0.06658172607421875, 0.03033590316772461, -0.090576171875, -0.08246135711669922, -0.0038927197456359863, 0.13900470733642578, 0.6740570068359375, 0.0, 0.10270118713378906, 0.027769804000854492, 0.0, 0.04516029357910156, 0.07172489166259766, -0.009662270545959473, -0.1329793930053711, -0.03427600860595703, -0.05598020553588867, 0.06602668762207031, -0.05611848831176758, 0.0, 0.06313610076904297, 0.02217698097229004, 0.05555915832519531, 0.06693172454833984, -0.07938957214355469, 0.07735824584960938, -0.03648948669433594, 0.011965274810791016, 0.10492897033691406, -0.10635852813720703, -0.040615081787109375, 0.0, -0.02998638153076172, -0.01989126205444336, 0.011496424674987793, -0.018338918685913086, 0.0, 0.04520416259765625, -0.00930178165435791, 0.08535003662109375, 0.00029318034648895264, -0.015619158744812012, 0.047544002532958984, -0.076416015625, 0.051560401916503906, -0.12924861907958984, 0.09612083435058594, 0.06483650207519531, 0.10851860046386719, -0.082550048828125, 0.07732582092285156, -0.03634214401245117, -0.12158966064453125, -0.028200864791870117, -0.06046867370605469, 0.094940185546875, -0.07537841796875, -0.11935710906982422, 0.1227884292602539, -0.03429841995239258, -0.388214111328125, -0.1118011474609375, -0.08677482604980469, 0.0, -0.021431446075439453, -0.18012046813964844, -0.0845022201538086, -0.06407356262207031, 0.008782267570495605, 0.017976045608520508, -0.10527801513671875, -0.038922786712646484, 0.48694610595703125, -0.05370903015136719, -0.06094551086425781, -0.054015159606933594, 0.06634950637817383, 0.11409664154052734, 0.0882258415222168, 0.031595706939697266, -0.07869577407836914, -0.22205734252929688, -0.11498832702636719, 0.04410362243652344, -0.01968526840209961, 0.08609151840209961, 0.004327356815338135, -0.1378307342529297, 0.10785961151123047, -0.042427778244018555, -0.011427700519561768, -0.08764934539794922, -0.11316490173339844, -0.15906810760498047, -0.02203071117401123, 0.016030550003051758, -0.012013435363769531, 0.01058584451675415, 0.03507351875305176, -0.03622937202453613, 0.11212635040283203, 0.0, 0.033448219299316406, 0.0036689788103103638, 0.11319828033447266, 0.0, -0.05635499954223633, -0.04475092887878418, -0.05101919174194336, -0.04337668418884277, 0.09807205200195312, 0.08495616912841797, 0.05193376541137695, 0.0743865966796875, -0.1618633270263672, 0.0070168375968933105, -0.0678720474243164, -0.08906984329223633, -0.056026458740234375, 0.0867919921875, -0.10064411163330078, -0.01885080337524414, 0.16719436645507812, -0.05366659164428711, 0.0, 0.01625645160675049, 0.018565654754638672, -0.09163904190063477, -0.018422245979309082, -0.020279884338378906, -0.018304824829101562, 0.07677459716796875, 0.06161022186279297, -0.0628805160522461, -0.07712697982788086, -0.013577103614807129, 0.10776042938232422, 0.02048671245574951, 0.06229877471923828, -0.057674407958984375, 0.1900157928466797, -0.12508010864257812, 0.3091773986816406, -0.14739131927490234, 0.035746097564697266, -0.0012770891189575195, -0.031180143356323242, 0.11162757873535156, -0.0016572773456573486, 0.24693679809570312, -0.030841588973999023, 0.032236337661743164, -0.17835140228271484, -0.10317230224609375, -0.33885955810546875, 0.1479625701904297, -0.009659945964813232, 0.09339141845703125, -0.09968185424804688, 0.0, 0.0, -0.04351806640625, -0.049234867095947266, 0.032074689865112305, -0.01954948902130127, 0.04562187194824219, -0.02245008945465088, 0.028609752655029297, -0.08277225494384766, 0.09112405776977539, 0.038854360580444336, 0.0400240421295166, 0.023664474487304688, 0.06479406356811523, -0.0984945297241211, 0.12660789489746094, -0.12394332885742188, 0.2906475067138672, 0.08514261245727539, 0.0, -0.019535064697265625, 0.03599047660827637, 0.012221157550811768, 0.11856555938720703, 0.017185568809509277, -0.12337112426757812, 0.00026407092809677124, 0.14721012115478516, -0.05234956741333008, -0.08850765228271484, -0.031101465225219727, -0.02013230323791504, -0.07862091064453125, 0.204345703125, -0.09047412872314453, 0.0, 0.048804521560668945, 0.1437673568725586, 0.03081965446472168, 0.1233358383178711, 0.013718247413635254, 0.07879018783569336, 0.15100669860839844, 0.12746143341064453, -0.012734532356262207, -0.04968094825744629, 0.024910330772399902, 0.0, 0.10891246795654297, -0.056832313537597656, 0.009497582912445068, -0.11871623992919922, -0.07565546035766602, -0.203033447265625, -0.05777168273925781, 0.002942025661468506, 0.13152599334716797, -0.076141357421875, 0.2931785583496094, 0.13500213623046875, 0.11968517303466797, 0.04122447967529297, 0.09086942672729492, -0.055863380432128906, 0.0034719109535217285, 0.21312713623046875, -0.013989925384521484, -0.13921260833740234, 0.20861244201660156, -0.054331302642822266, 0.03372669219970703, -0.08006763458251953, -0.04600119590759277, 0.04728984832763672, 0.11781501770019531, -0.1196298599243164, -0.009511232376098633, 0.12980365753173828, -0.05196380615234375, 0.018811345100402832, -0.04236149787902832, -0.1268482208251953, 0.16008567810058594, -0.010646581649780273, -0.025658607482910156, -0.07288455963134766, 0.022491097450256348, -0.12672805786132812, 0.09140443801879883, -0.1502828598022461, 0.0, 0.00316426157951355, -0.0534210205078125, 0.1084890365600586, 0.0, 0.0, -0.1306915283203125, 0.08993339538574219, 0.040778398513793945, -0.12322998046875, -0.11252117156982422, -0.005402356386184692, 0.1891641616821289, 0.9192428588867188, 0.0, 0.13951587677001953, 0.038140296936035156, 0.0, 0.06145763397216797, 0.09779548645019531, -0.01352691650390625, -0.1809091567993164, -0.046683311462402344, -0.07658052444458008, 0.08938264846801758, -0.0769805908203125, 0.0, 0.08715391159057617, 0.030231475830078125, 0.07569742202758789, 0.09160518646240234, -0.10841751098632812, 0.10493087768554688, -0.049721717834472656, 0.015374064445495605, 0.1438140869140625, -0.14478588104248047, -0.055623531341552734, 0.0, -0.04076695442199707, -0.026668548583984375, 0.015857219696044922, -0.024785518646240234, 0.0, 0.06156349182128906, -0.013285040855407715, 0.11699962615966797, 2.473592758178711e-05, -0.02088797092437744, 0.06486177444458008, -0.10471248626708984, 0.07014608383178711, -0.1760425567626953, 0.13134765625, 0.0888528823852539, 0.14846324920654297, -0.11290359497070312, 0.10516357421875, -0.049538612365722656, -0.16443824768066406, -0.03841543197631836, -0.08262777328491211, 0.13028907775878906, -0.10286808013916016, -0.16295146942138672, 0.16686725616455078, -0.046942710876464844, -0.5277900695800781, -0.15187454223632812, -0.11816215515136719, 0.0, -0.029643774032592773, -0.24638938903808594, -0.11557197570800781, -0.08758211135864258, 0.011557817459106445, 0.026205062866210938, -0.1436138153076172, -0.053055763244628906, 0.69781494140625, -0.20827674865722656, -0.23759078979492188, -0.21036720275878906, 0.2606782913208008, 0.44777393341064453, 0.3461742401123047, 0.12163901329040527, -0.31463098526000977, -0.8664760589599609, -0.4505043029785156, 0.17151689529418945, -0.07335424423217773, 0.32898616790771484, 0.018545418977737427, -0.5435667037963867, 0.42162227630615234, -0.16853618621826172, -0.04270792007446289, -0.3397808074951172, -0.4417304992675781, -0.6262893676757812, -0.08698976039886475, 0.062384963035583496, -0.048058271408081055, 0.03607892990112305, 0.14193201065063477, -0.13730502128601074, 0.44191551208496094, 0.0, 0.13102173805236816, 0.009983927011489868, 0.4419879913330078, 0.0, -0.22063779830932617, -0.17834067344665527, -0.19194293022155762, -0.16958189010620117, 0.3840961456298828, 0.33930253982543945, 0.20684194564819336, 0.28955602645874023, -0.6443967819213867, 0.026035845279693604, -0.26340723037719727, -0.34865522384643555, -0.22991657257080078, 0.33803892135620117, -0.39142799377441406, -0.07726621627807617, 0.6579771041870117, -0.21052265167236328, 0.0, 0.06346571445465088, 0.07334494590759277, -0.3611598014831543, -0.07211470603942871, -0.07695567607879639, -0.07765734195709229, 0.3020668029785156, 0.24653148651123047, -0.2462611198425293, -0.30370235443115234, -0.04989361763000488, 0.42026233673095703, 0.07907724380493164, 0.24842357635498047, -0.22620105743408203, 0.748051643371582, -0.47955799102783203, 1.2243156433105469, -0.5750131607055664, 0.14066505432128906, -0.00899699330329895, -0.12158393859863281, 0.43858814239501953, 0.0007217377424240112, 0.9663200378417969, -0.12318611145019531, 0.12665343284606934, -0.699000358581543, -0.4039440155029297, -1.3355751037597656, 0.5806465148925781, -0.036685287952423096, 0.3666539192199707, -0.38935136795043945, 0.0, 0.0, -0.17419075965881348, -0.19549775123596191, 0.12497234344482422, -0.07835578918457031, 0.17892146110534668, -0.08568191528320312, 0.11203527450561523, -0.3185129165649414, 0.358980655670166, 0.16039013862609863, 0.15653705596923828, 0.09736013412475586, 0.25654029846191406, -0.38870763778686523, 0.4987020492553711, -0.4819669723510742, 1.1312274932861328, 0.33210229873657227, 0.0, -0.07256269454956055, 0.13829350471496582, 0.04516184329986572, 0.4598712921142578, 0.06501615047454834, -0.48138904571533203, -0.0013075396418571472, 0.577052116394043, -0.20530080795288086, -0.3464484214782715, -0.12067389488220215, -0.07984471321105957, -0.31219053268432617, 0.7968902587890625, -0.3546133041381836, 0.0, 0.18876981735229492, 0.5627307891845703, 0.11842536926269531, 0.48479557037353516, 0.05442643165588379, 0.3063321113586426, 0.5951671600341797, 0.5019664764404297, -0.049604058265686035, -0.19140958786010742, 0.09573447704315186, 0.0, 0.4259176254272461, -0.2196640968322754, 0.03686171770095825, -0.46619224548339844, -0.2967529296875, -0.8022403717041016, -0.23412466049194336, 0.02314382791519165, 0.5130214691162109, -0.29593896865844727, 1.143667221069336, 0.5259666442871094, 0.4663410186767578, 0.16375064849853516, 0.35609006881713867, -0.22703981399536133, 0.016878217458724976, 0.8318138122558594, -0.05626702308654785, -0.5452585220336914, 0.8148193359375, -0.2077784538269043, 0.13236570358276367, -0.31234121322631836, -0.17926502227783203, 0.18762588500976562, 0.46439456939697266, -0.46930980682373047, -0.03408658504486084, 0.5026454925537109, -0.20037078857421875, 0.07615256309509277, -0.16844463348388672, -0.4964923858642578, 0.6259088516235352, -0.0416446328163147, -0.10225558280944824, -0.2820158004760742, 0.08575129508972168, -0.4953498840332031, 0.35773324966430664, -0.5869550704956055, 0.0, 0.01413765549659729, -0.2071371078491211, 0.4264411926269531, 0.0, 0.0, -0.5068521499633789, 0.3451371192932129, 0.15510916709899902, -0.48026084899902344, -0.44147205352783203, -0.021930396556854248, 0.7363595962524414, 3.5977401733398438, 0.0, 0.541834831237793, 0.1515355110168457, 0.0, 0.2397298812866211, 0.38263368606567383, -0.05573737621307373, -0.7047252655029297, -0.1820237636566162, -0.30144786834716797, 0.3440432548522949, -0.3048067092895508, 0.0, 0.3490934371948242, 0.11806631088256836, 0.2956962585449219, 0.36146974563598633, -0.4243440628051758, 0.4059000015258789, -0.19434714317321777, 0.052605628967285156, 0.5676374435424805, -0.5654067993164062, -0.21976757049560547, 0.0, -0.15842866897583008, -0.10056805610656738, 0.06354737281799316, -0.09517145156860352, 0.0, 0.24033737182617188, -0.05681157112121582, 0.4628725051879883, -0.002917259931564331, -0.0784146785736084, 0.2535133361816406, -0.41401004791259766, 0.27288389205932617, -0.6877841949462891, 0.5149831771850586, 0.3508424758911133, 0.58404541015625, -0.44451045989990234, 0.40960216522216797, -0.19368362426757812, -0.6332435607910156, -0.14974117279052734, -0.3247222900390625, 0.5171165466308594, -0.4035634994506836, -0.6388158798217773, 0.6489896774291992, -0.18520212173461914, -2.053497314453125, -0.5894527435302734, -0.4612398147583008, 0.0, -0.11925268173217773, -0.970733642578125, -0.45504283905029297, -0.3440275192260742, 0.04190385341644287, 0.11619091033935547, -0.5629911422729492, -0.20730972290039062, 3.002521514892578, -0.0011963844299316406, -0.0009489059448242188, -0.0008788108825683594, 0.0004138946533203125, 0.0006961822509765625, 0.000545501708984375, 0.0009729862213134766, 0.0014996528625488281, -0.0030975341796875, -0.0009918212890625, 0.0007979869842529297, -0.0014482736587524414, 0.003581523895263672, -0.0005028843879699707, -1.52587890625e-05, 0.0012292861938476562, 0.0004322528839111328, -0.000794529914855957, -0.0019283294677734375, -0.0014848709106445312, -0.00034332275390625, 3.731250762939453e-05, 0.00027370452880859375, 0.00023853778839111328, 0.0019202232360839844, -0.0012519359588623047, -0.001863718032836914, 9.059906005859375e-05, 0.0, 0.0002713203430175781, 0.0015230029821395874, 0.0014600753784179688, 0.0, -0.000514984130859375, 0.0006635189056396484, -0.0031404495239257812, -0.00045680999755859375, 0.0008268356323242188, -0.001476287841796875, -0.0006971359252929688, 0.0012607574462890625, 0.0020895004272460938, 0.0005530118942260742, -0.0013985633850097656, -0.0008540153503417969, 0.0030803680419921875, 0.0013680458068847656, -0.0017976760864257812, 0.0009895563125610352, 0.00038623809814453125, -0.0003509521484375, 0.0, 0.00021767616271972656, -5.733966827392578e-05, -3.8623809814453125e-05, -0.0001857280731201172, -0.0010181665420532227, 0.001862645149230957, 0.0002636909484863281, -0.0012392997741699219, -0.0005664825439453125, -0.00013971328735351562, -0.0012359619140625, 0.0015459060668945312, 0.0005713701248168945, -0.0009665489196777344, -0.00040912628173828125, 0.00040149688720703125, -0.004731178283691406, -0.0018634796142578125, -0.0020895004272460938, 7.390975952148438e-05, 0.0013478249311447144, -0.00046896934509277344, 0.0005445480346679688, -0.0024657100439071655, 0.0024280548095703125, 0.0005233287811279297, 0.0001583099365234375, -0.001445770263671875, -0.0009984970092773438, -0.0005035400390625, 0.0009984970092773438, -0.00046712160110473633, 0.0004820823669433594, -0.0013113021850585938, 0.0, 0.0, 0.0009169578552246094, 0.00048542022705078125, 0.0005016326904296875, 0.00043976306915283203, 0.00029659271240234375, -0.0009608268737792969, 0.000274658203125, -0.002636432647705078, 0.0001163482666015625, -0.0024309158325195312, 0.0004010200500488281, -0.0013744831085205078, -0.0003724098205566406, 0.00011444091796875, 7.534027099609375e-05, -0.002162933349609375, 0.0050373077392578125, 0.0012059211730957031, 0.0, -0.0015211105346679688, 0.0012097358703613281, 0.0010312199592590332, 0.0026102066040039062, 0.0009238719940185547, -0.0017118453979492188, 0.0007982365787029266, 0.0010776519775390625, -0.0003719329833984375, -0.0008258819580078125, -0.0006563663482666016, 0.00016927719116210938, 0.0007424354553222656, 0.00296783447265625, -0.0006537437438964844, 0.0, 0.0012521743774414062, 0.0014371871948242188, 0.0010597705841064453, 0.0004901885986328125, -0.00011539459228515625, 0.001445770263671875, 0.00012111663818359375, 0.00022220611572265625, -0.00020778179168701172, -0.0015034675598144531, 0.0008366107940673828, 0.0, 0.00121307373046875, -0.0014977455139160156, 0.00019341707229614258, -0.0006208419799804688, -0.0005087852478027344, 0.0006008148193359375, 0.002166271209716797, -0.003922760486602783, 0.0019063949584960938, -0.0014109611511230469, 0.004001617431640625, 0.0020542144775390625, 0.00194549560546875, -0.00041747093200683594, 0.0006952285766601562, 0.002353668212890625, -0.0010836124420166016, 0.002841949462890625, 0.0003782510757446289, -0.0011577606201171875, 0.0025959014892578125, -0.00217437744140625, 0.00019288063049316406, -0.0011191368103027344, -0.0007357597351074219, -0.00041103363037109375, 7.62939453125e-05, -0.0007028579711914062, -0.0011652112007141113, 0.003032684326171875, -0.0015597343444824219, -0.0006730556488037109, 0.0004990100860595703, -0.001148223876953125, 0.0018339157104492188, -0.00011736154556274414, 0.0003592967987060547, -0.00177764892578125, 0.0009868144989013672, -0.0015058517456054688, 0.0009336471557617188, -0.0018939971923828125, 0.0, -0.0005632936954498291, -0.0011758804321289062, 0.00043392181396484375, 0.0, 0.0, -0.0027322769165039062, 0.003204822540283203, 0.0019283294677734375, -0.0019283294677734375, -0.0007867813110351562, 0.00021126866340637207, 0.0031099319458007812, 0.00868988037109375, 0.0, 0.0027685165405273438, -0.0004134178161621094, 0.0, 0.0009264945983886719, 0.0010280609130859375, 0.000819087028503418, -0.0028162002563476562, -0.0007054805755615234, -0.00012683868408203125, 0.00283050537109375, 0.0004229545593261719, 0.0, -0.0018906593322753906, 0.00035071372985839844, 0.00090789794921875, -5.245208740234375e-05, -0.00101470947265625, 0.0026388168334960938, -0.0005960464477539062, 0.0027213096618652344, -0.0002994537353515625, -0.0018606185913085938, 0.00015592575073242188, 0.0, -0.0007889270782470703, -0.0015401840209960938, -0.00034499168395996094, -0.0008609294891357422, 0.0, 0.0008535385131835938, 0.001506209373474121, -0.0006198883056640625, 0.001024387776851654, -0.001344442367553711, 0.0007047653198242188, 0.0003719329833984375, 0.0012373924255371094, -0.002105712890625, 0.001018524169921875, -0.00019598007202148438, 0.00042819976806640625, -0.00021457672119140625, 0.0017442703247070312, -0.000560760498046875, -0.00511932373046875, -0.000545501708984375, -0.0003542900085449219, -0.0011119842529296875, -0.00069427490234375, -0.0012559890747070312, 0.003032684326171875, 4.601478576660156e-05, -0.00931549072265625, -0.0031261444091796875, -0.0016117095947265625, 0.0, 0.0008308887481689453, -0.000225067138671875, -0.00014781951904296875, -0.0003762245178222656, 0.0012438297271728516, -0.004326820373535156, -0.0011653900146484375, -0.00063323974609375, -0.08536529541015625, 0.26320695877075195, 0.30119752883911133, 0.26662111282348633, -0.3320755958557129, -0.5701570510864258, -0.4407615661621094, -0.15306782722473145, 0.4051346778869629, 1.099203109741211, 0.5729255676269531, -0.21715617179870605, 0.09036433696746826, -0.4119114875793457, -0.02482542395591736, 0.6939516067504883, -0.5354499816894531, 0.21610641479492188, 0.05272233486175537, 0.42931604385375977, 0.5605974197387695, 0.7988777160644531, 0.11114466190338135, -0.07902276515960693, 0.06190621852874756, -0.04167890548706055, -0.18403267860412598, 0.17103290557861328, -0.5639743804931641, 0.0, -0.16666293144226074, -0.009276151657104492, -0.5608882904052734, 0.0, 0.28052854537963867, 0.22920536994934082, 0.23791837692260742, 0.21544623374938965, -0.48853302001953125, -0.43646907806396484, -0.26563453674316406, -0.3668546676635742, 0.8275699615478516, -0.03198099136352539, 0.33309364318847656, 0.44309520721435547, 0.3005537986755371, -0.4284048080444336, 0.49561023712158203, 0.10090494155883789, -0.8390588760375977, 0.2679600715637207, 0.0, -0.08053255081176758, -0.09378492832183838, 0.4609999656677246, 0.0916602611541748, 0.09593164920806885, 0.10336959362030029, -0.3851289749145508, -0.3175773620605469, 0.3131837844848633, 0.38746118545532227, 0.06088733673095703, -0.5330448150634766, -0.0996408462524414, -0.3193798065185547, 0.28788328170776367, -0.9540309906005859, 0.6014900207519531, -1.5673675537109375, 0.7292795181274414, -0.17943024635314941, 0.014554619789123535, 0.15418219566345215, -0.5586996078491211, -0.0065375640988349915, -1.2280426025390625, 0.15844345092773438, -0.1613483428955078, 0.8891801834106445, 0.5135259628295898, 1.7047595977783203, -0.7392158508300781, 0.045763611793518066, -0.46695470809936523, 0.4942302703857422, 0.0, 0.0, 0.22449874877929688, 0.25069475173950195, -0.15839815139770508, 0.10104537010192871, -0.227736234664917, 0.10717952251434326, -0.1424112319946289, 0.40054893493652344, -0.4581165313720703, -0.21027183532714844, -0.19890284538269043, -0.12743401527404785, -0.328402042388916, 0.4965171813964844, -0.6363391876220703, 0.6102304458618164, -1.4327259063720703, -0.42125988006591797, 0.0, 0.08917045593261719, -0.1737957000732422, -0.055325329303741455, -0.5812206268310547, -0.08091402053833008, 0.6108303070068359, 0.00348798930644989, -0.7341823577880859, 0.2612323760986328, 0.44045066833496094, 0.1525261402130127, 0.10231363773345947, 0.40031862258911133, -1.0107173919677734, 0.4512295722961426, 0.0, -0.238142728805542, -0.7151575088500977, -0.1488664150238037, -0.617706298828125, -0.06974244117736816, -0.3877534866333008, -0.7596864700317383, -0.6404361724853516, 0.06284832954406738, 0.2409348487854004, -0.12030172348022461, 0.0, -0.5410242080688477, 0.27701759338378906, -0.046619296073913574, 0.5935945510864258, 0.377596378326416, 1.025634765625, 0.30381202697753906, -0.03848576545715332, -0.6506881713867188, 0.37450265884399414, -1.4510650634765625, -0.6668577194213867, -0.5908985137939453, -0.21002745628356934, -0.4530329704284668, 0.2952446937561035, -0.024020642042160034, -1.0554485321044922, 0.07269859313964844, 0.6933879852294922, -1.0343132019042969, 0.26027679443359375, -0.16852641105651855, 0.39624547958374023, 0.22723650932312012, -0.2404780387878418, -0.5925683975219727, 0.5975942611694336, 0.0408933162689209, -0.6347503662109375, 0.2523517608642578, -0.09875762462615967, 0.21618008613586426, 0.631434440612793, -0.7948579788208008, 0.05289304256439209, 0.13140201568603516, 0.3560032844543457, -0.10721778869628906, 0.6289539337158203, -0.45459747314453125, 0.7450246810913086, 0.0, -0.019328683614730835, 0.2617459297180176, -0.5435018539428711, 0.0, 0.0, 0.6407184600830078, -0.43338441848754883, -0.1936187744140625, 0.6088886260986328, 0.5618934631347656, 0.028483837842941284, -0.932948112487793, -4.572761535644531, 0.0, -0.6853141784667969, -0.19436311721801758, 0.0, -0.3040342330932617, -0.48624420166015625, 0.07301986217498779, 0.8931665420532227, 0.23084092140197754, 0.3845252990722656, -0.43283939361572266, 0.3901553153991699, 0.0, -0.45001792907714844, -0.14994263648986816, -0.37542295455932617, -0.46163177490234375, 0.5395832061767578, -0.5122604370117188, 0.246795654296875, -0.060971856117248535, -0.7255401611328125, 0.7176284790039062, 0.28088808059692383, 0.0, 0.20047760009765625, 0.12488317489624023, -0.08190500736236572, 0.11953949928283691, 0.0, -0.304934024810791, 0.07594835758209229, -0.5922622680664062, 0.006057478487491608, 0.0970916748046875, -0.3220787048339844, 0.5295076370239258, -0.34555912017822266, 0.8733158111572266, -0.655517578125, -0.44837236404418945, -0.7448005676269531, 0.5670204162597656, -0.5190229415893555, 0.24602127075195312, 0.7967805862426758, 0.18991518020629883, 0.41377830505371094, -0.6628704071044922, 0.5136146545410156, 0.8128156661987305, -0.8216466903686523, 0.2365121841430664, 2.6000633239746094, 0.7454547882080078, 0.5850887298583984, 0.0, 0.154127836227417, 1.2392539978027344, 0.580535888671875, 0.43833255767822266, -0.0506594181060791, -0.15830111503601074, 0.7162036895751953, 0.2632608413696289, -4.02728271484375, 0.0777888298034668, 0.08929824829101562, 0.0790247917175293, -0.09894084930419922, -0.16986370086669922, -0.1313018798828125, -0.045044898986816406, 0.12204837799072266, 0.32617759704589844, 0.1704883575439453, -0.06430625915527344, 0.025984883308410645, -0.12052536010742188, -0.0077683329582214355, 0.2073507308959961, -0.15904712677001953, 0.06484341621398926, 0.015195667743682861, 0.1268630027770996, 0.16643047332763672, 0.23835277557373047, 0.033232808113098145, -0.02341437339782715, 0.018660545349121094, -0.011103451251983643, -0.055863380432128906, 0.04977583885192871, -0.16842365264892578, 0.0, -0.049613237380981445, -0.0017031729221343994, -0.16652870178222656, 0.0, 0.08344268798828125, 0.06893110275268555, 0.06887006759643555, 0.06403422355651855, -0.1453571319580078, -0.13140344619750977, -0.07984304428100586, -0.10874319076538086, 0.24874305725097656, -0.009166955947875977, 0.0985102653503418, 0.13176345825195312, 0.09191083908081055, -0.12701416015625, 0.14679718017578125, 0.030844449996948242, -0.2503509521484375, 0.07981252670288086, 0.0, -0.023908495903015137, -0.028054118156433105, 0.13768339157104492, 0.027254223823547363, 0.027946829795837402, 0.03217494487762451, -0.11489200592041016, -0.09572410583496094, 0.0931696891784668, 0.11560869216918945, 0.017325758934020996, -0.1581096649169922, -0.029356718063354492, -0.0960693359375, 0.0857076644897461, -0.28472137451171875, 0.1763439178466797, -0.4694252014160156, 0.21640300750732422, -0.05356884002685547, 0.0052930861711502075, 0.04571700096130371, -0.16651344299316406, -0.003681756556034088, -0.3650226593017578, 0.047707557678222656, -0.0480952262878418, 0.2645406723022461, 0.15270614624023438, 0.5091018676757812, -0.22006797790527344, 0.013344883918762207, -0.13913774490356445, 0.14675617218017578, 0.0, 0.0, 0.06769537925720215, 0.07523345947265625, -0.04694938659667969, 0.030489802360534668, -0.06782174110412598, 0.031346917152404785, -0.04235982894897461, 0.11775445938110352, -0.13680553436279297, -0.0645134449005127, -0.05912494659423828, -0.03903627395629883, -0.0983738899230957, 0.14839935302734375, -0.1900501251220703, 0.18076610565185547, -0.42452239990234375, -0.12500333786010742, 0.0, 0.025569558143615723, -0.051053762435913086, -0.015810132026672363, -0.17177486419677734, -0.023520469665527344, 0.18122291564941406, 0.001601777970790863, -0.21860218048095703, 0.07776403427124023, 0.1309657096862793, 0.04509758949279785, 0.03067922592163086, 0.1201329231262207, -0.2998065948486328, 0.13434219360351562, 0.0, -0.07027769088745117, -0.2126750946044922, -0.04375410079956055, -0.18417644500732422, -0.02090919017791748, -0.1148080825805664, -0.22685527801513672, -0.19113540649414062, 0.01863110065460205, 0.07090377807617188, -0.03534865379333496, 0.0, -0.16075515747070312, 0.0816793441772461, -0.013786375522613525, 0.1768789291381836, 0.11243724822998047, 0.30682373046875, 0.09223604202270508, -0.014248073101043701, -0.19303512573242188, 0.11089658737182617, -0.4306774139404297, -0.19775104522705078, -0.175079345703125, -0.06303644180297852, -0.13486480712890625, 0.08984375, -0.00793430209159851, -0.3132781982421875, 0.021982431411743164, 0.20636558532714844, -0.30707550048828125, 0.07622814178466797, -0.05021214485168457, 0.11756706237792969, 0.06735920906066895, -0.0721273422241211, -0.176910400390625, 0.17799663543701172, 0.011403143405914307, -0.18752098083496094, 0.07430362701416016, -0.029970765113830566, 0.06493616104125977, 0.18778038024902344, -0.2361469268798828, 0.01571446657180786, 0.039527177810668945, 0.10509634017944336, -0.03133594989776611, 0.18680858612060547, -0.13516616821289062, 0.2211742401123047, 0.0, -0.006167978048324585, 0.07737064361572266, -0.16205787658691406, 0.0, 0.0, 0.18943500518798828, -0.12721586227416992, -0.05648994445800781, 0.1805877685546875, 0.16733741760253906, 0.008658617734909058, -0.2765178680419922, -1.3598480224609375, 0.0, -0.20272350311279297, -0.058327674865722656, 0.0, -0.09016275405883789, -0.14452552795410156, 0.02238750457763672, 0.26482391357421875, 0.06848716735839844, 0.11474466323852539, -0.12730741500854492, 0.11686134338378906, 0.0, -0.13573741912841797, -0.0445246696472168, -0.11148929595947266, -0.13796377182006836, 0.16050338745117188, -0.15116119384765625, 0.07332420349121094, -0.016306161880493164, -0.21694660186767578, 0.2130565643310547, 0.08401870727539062, 0.0, 0.05932211875915527, 0.036225080490112305, -0.02470993995666504, 0.03510236740112305, 0.0, -0.0904994010925293, 0.02374863624572754, -0.17737293243408203, 0.002527974545955658, 0.028077006340026855, -0.09574699401855469, 0.1584758758544922, -0.10233879089355469, 0.25939464569091797, -0.19519519805908203, -0.13411188125610352, -0.22220134735107422, 0.16924381256103516, -0.15381908416748047, 0.0731039047241211, 0.2344655990600586, 0.05632376670837402, 0.12337684631347656, -0.19883346557617188, 0.1529102325439453, 0.2419595718383789, -0.24332427978515625, 0.0706644058227539, 0.770263671875, 0.2204437255859375, 0.17358875274658203, 0.0, 0.04660630226135254, 0.3700294494628906, 0.1733112335205078, 0.13068246841430664, -0.014263272285461426, -0.05034470558166504, 0.2131175994873047, 0.07819700241088867, -1.262786865234375, -0.046164512634277344, -0.052356719970703125, -0.046362876892089844, 0.05687999725341797, 0.09783267974853516, 0.07561922073364258, 0.027184486389160156, -0.06714248657226562, -0.19061851501464844, -0.0986175537109375, 0.03788137435913086, -0.01705610752105713, 0.07425165176391602, 0.0036324262619018555, -0.1180410385131836, 0.0925750732421875, -0.03629016876220703, -0.009897410869598389, -0.07536458969116211, -0.09708023071289062, -0.13626670837402344, -0.01886904239654541, 0.013771414756774902, -0.010251283645629883, 0.009345531463623047, 0.02983880043029785, -0.03129291534423828, 0.09608650207519531, 0.0, 0.028684139251708984, 0.003361910581588745, 0.097137451171875, 0.0, -0.04831266403198242, -0.03822636604309082, -0.04413914680480957, -0.037195444107055664, 0.08406734466552734, 0.07255887985229492, 0.04437398910522461, 0.06388235092163086, -0.13832855224609375, 0.006087839603424072, -0.05833292007446289, -0.0764474868774414, -0.047533512115478516, 0.0745081901550293, -0.08640193939208984, -0.01600170135498047, 0.1432504653930664, -0.045992374420166016, 0.0, 0.013951539993286133, 0.015883684158325195, -0.07849407196044922, -0.015810489654541016, -0.017517447471618652, -0.015421628952026367, 0.0657649040222168, 0.05256175994873047, -0.05391693115234375, -0.06605958938598633, -0.01180720329284668, 0.09254646301269531, 0.017632365226745605, 0.053180694580078125, -0.04944753646850586, 0.1627798080444336, -0.1078176498413086, 0.26446533203125, -0.12659072875976562, 0.030600547790527344, -0.0008992254734039307, -0.02678704261779785, 0.0956716537475586, -0.001773051917552948, 0.21197891235351562, -0.026358366012573242, 0.027626514434814453, -0.15296173095703125, -0.0885305404663086, -0.29021644592285156, 0.12691783905029297, -0.008335351943969727, 0.08005046844482422, -0.08557796478271484, 0.0, 0.0, -0.03712630271911621, -0.042087554931640625, 0.027552127838134766, -0.016681909561157227, 0.03911590576171875, -0.019360780715942383, 0.02454233169555664, -0.07124567031860352, 0.07804536819458008, 0.032944440841674805, 0.03431248664855957, 0.020062923431396484, 0.05544328689575195, -0.08434867858886719, 0.10846614837646484, -0.10646915435791016, 0.2496356964111328, 0.07309722900390625, 0.0, -0.016949772834777832, 0.030987024307250977, 0.010615885257720947, 0.1019277572631836, 0.014849066734313965, -0.10590076446533203, 0.000340782105922699, 0.1262531280517578, -0.044875144958496094, -0.07590246200561523, -0.02674078941345215, -0.017210841178894043, -0.06721353530883789, 0.17547988891601562, -0.07753896713256836, 0.0, 0.04197096824645996, 0.12331199645996094, 0.02651834487915039, 0.10573768615722656, 0.011731266975402832, 0.06767416000366211, 0.1292896270751953, 0.10918140411376953, -0.010936617851257324, -0.042765140533447266, 0.02144598960876465, 0.0, 0.09342193603515625, -0.048885345458984375, 0.008160293102264404, -0.10179710388183594, -0.06489419937133789, -0.1737842559814453, -0.04920196533203125, 0.0019578933715820312, 0.11290454864501953, -0.06538152694702148, 0.25166893005371094, 0.11591625213623047, 0.10276222229003906, 0.03524661064147949, 0.07790756225585938, -0.047473907470703125, 0.002817094326019287, 0.1828899383544922, -0.011923670768737793, -0.119354248046875, 0.17914390563964844, -0.04683828353881836, 0.028929710388183594, -0.06872081756591797, -0.03951764106750488, 0.040419816970825195, 0.10100364685058594, -0.10256004333496094, -0.008308112621307373, 0.1115255355834961, -0.04472494125366211, 0.016022205352783203, -0.03619194030761719, -0.10873889923095703, 0.13744163513183594, -0.009134948253631592, -0.02190995216369629, -0.06267690658569336, 0.019407272338867188, -0.1088113784790039, 0.07840919494628906, -0.12895774841308594, 0.0, 0.0026289522647857666, -0.04593515396118164, 0.09295845031738281, 0.0, 0.0, -0.11228561401367188, 0.0774831771850586, 0.035210371017456055, -0.10573577880859375, -0.09648799896240234, -0.004596114158630371, 0.16246414184570312, 0.7884368896484375, 0.0, 0.11984539031982422, 0.03259015083312988, 0.0, 0.05279350280761719, 0.08391571044921875, -0.011466026306152344, -0.1553659439086914, -0.04010462760925293, -0.06557416915893555, 0.07691478729248047, -0.06590843200683594, 0.0, 0.07432889938354492, 0.025931596755981445, 0.06496953964233398, 0.07844352722167969, -0.0929727554321289, 0.09020042419433594, -0.04267168045043945, 0.01355290412902832, 0.12310504913330078, -0.12432861328125, -0.04762077331542969, 0.0, -0.03503561019897461, -0.02305316925048828, 0.013543963432312012, -0.021351337432861328, 0.0, 0.052849769592285156, -0.011168956756591797, 0.10010719299316406, 0.00016807019710540771, -0.018080711364746094, 0.05562305450439453, -0.0896463394165039, 0.06023359298706055, -0.15108394622802734, 0.11255741119384766, 0.07603025436401367, 0.12710857391357422, -0.09670352935791016, 0.09031295776367188, -0.042513370513916016, -0.14161968231201172, -0.03296995162963867, -0.07079887390136719, 0.1114511489868164, -0.0882110595703125, -0.13968753814697266, 0.14339351654052734, -0.04019951820373535, -0.45372772216796875, -0.13044166564941406, -0.10145950317382812, 0.0, -0.025260210037231445, -0.21094131469726562, -0.09897422790527344, -0.07506752014160156, 0.01007544994354248, 0.021814346313476562, -0.12321662902832031, -0.04552745819091797, 0.58563232421875, -0.026152610778808594, -0.029499053955078125, -0.026155948638916016, 0.03174638748168945, 0.05461692810058594, 0.04225873947143555, 0.015549898147583008, -0.036637306213378906, -0.10727500915527344, -0.055202484130859375, 0.02140498161315918, -0.010110735893249512, 0.042813777923583984, 0.0017942190170288086, -0.06554031372070312, 0.051937103271484375, -0.019966840744018555, -0.0058533549308776855, -0.04268217086791992, -0.05460071563720703, -0.07590198516845703, -0.010460972785949707, 0.007768869400024414, -0.005588531494140625, 0.006047666072845459, 0.016020774841308594, -0.01822686195373535, 0.05338859558105469, 0.0, 0.016028881072998047, 0.0025444775819778442, 0.05460071563720703, 0.0, -0.02707386016845703, -0.020921945571899414, -0.025923967361450195, -0.020860910415649414, 0.04707908630371094, 0.03966856002807617, 0.024343490600585938, 0.036045074462890625, -0.07583808898925781, 0.003625631332397461, -0.033023834228515625, -0.04284095764160156, -0.025009632110595703, 0.04199838638305664, -0.048821449279785156, -0.008438587188720703, 0.07974720001220703, -0.025707244873046875, 0.0, 0.00785362720489502, 0.008795022964477539, -0.043636322021484375, -0.008860111236572266, -0.010172605514526367, -0.007733702659606934, 0.03663444519042969, 0.02866649627685547, -0.030187129974365234, -0.03678321838378906, -0.007105469703674316, 0.05208587646484375, 0.010037899017333984, 0.029109477996826172, -0.027654647827148438, 0.09066200256347656, -0.06195831298828125, 0.14602279663085938, -0.07127857208251953, 0.017022132873535156, 0.00010003149509429932, -0.015065908432006836, 0.05340099334716797, -0.0020812228322029114, 0.11878585815429688, -0.014398813247680664, 0.015429258346557617, -0.08558177947998047, -0.04957008361816406, -0.16138839721679688, 0.0709371566772461, -0.0048406124114990234, 0.044686317443847656, -0.04808998107910156, 0.0, 0.0, -0.020215272903442383, -0.023175716400146484, 0.015514612197875977, -0.009070754051208496, 0.021851539611816406, -0.011184334754943848, 0.013757705688476562, -0.04076242446899414, 0.04339456558227539, 0.017200469970703125, 0.019229888916015625, 0.010537385940551758, 0.030590057373046875, -0.04679393768310547, 0.060265541076660156, -0.060082435607910156, 0.14089584350585938, 0.041094303131103516, 0.0, -0.010092496871948242, 0.01773977279663086, 0.006349503993988037, 0.05773162841796875, 0.008655071258544922, -0.05962944030761719, 0.0005444139242172241, 0.07063007354736328, -0.02509450912475586, -0.04253578186035156, -0.015156030654907227, -0.009485602378845215, -0.036984920501708984, 0.09871482849121094, -0.043367862701416016, 0.0, 0.02387237548828125, 0.06916236877441406, 0.015174388885498047, 0.05891895294189453, 0.006464600563049316, 0.03825664520263672, 0.07189655303955078, 0.06075572967529297, -0.006167054176330566, -0.024419784545898438, 0.012288331985473633, 0.0, 0.05245208740234375, -0.0278167724609375, 0.004617631435394287, -0.056884765625, -0.03624773025512695, -0.0962982177734375, -0.026382923126220703, -0.000658571720123291, 0.0635223388671875, -0.036991119384765625, 0.14136695861816406, 0.06531429290771484, 0.05802631378173828, 0.019395112991333008, 0.043605804443359375, -0.025328636169433594, 0.001083970069885254, 0.10294151306152344, -0.006455659866333008, -0.0668478012084961, 0.10058784484863281, -0.027004718780517578, 0.016155242919921875, -0.03869009017944336, -0.022272348403930664, 0.02228069305419922, 0.05617713928222656, -0.05720329284667969, -0.005127012729644775, 0.06331062316894531, -0.025531768798828125, 0.008599519729614258, -0.019871950149536133, -0.06085777282714844, 0.07709121704101562, -0.005124151706695557, -0.01200413703918457, -0.03558063507080078, 0.011217474937438965, -0.06110572814941406, 0.04399538040161133, -0.07244682312011719, 0.0, 0.0012089908123016357, -0.02603769302368164, 0.051830291748046875, 0.0, 0.0, -0.0636434555053711, 0.04446268081665039, 0.020427942276000977, -0.059576988220214844, -0.053948402404785156, -0.002458900213241577, 0.09162139892578125, 0.44162750244140625, 0.0, 0.06779289245605469, 0.017918109893798828, 0.0, 0.029682636260986328, 0.04705810546875, -0.006006717681884766, -0.08750343322753906, -0.02256321907043457, -0.03652000427246094, 0.04395914077758789, -0.03638458251953125, 0.0, 0.0404362678527832, 0.014570236206054688, 0.03650236129760742, 0.043538570404052734, -0.052089691162109375, 0.05128288269042969, -0.02396678924560547, 0.008739590644836426, 0.06819438934326172, -0.0698404312133789, -0.026375770568847656, 0.0, -0.019804000854492188, -0.01349782943725586, 0.007373690605163574, -0.012236714363098145, 0.0, 0.02974987030029297, -0.005536317825317383, 0.055357933044433594, 0.0005482658743858337, -0.010622143745422363, 0.03121328353881836, -0.049625396728515625, 0.03402423858642578, -0.08482933044433594, 0.062896728515625, 0.0421299934387207, 0.07084083557128906, -0.0537872314453125, 0.05094337463378906, -0.023850440979003906, -0.08095264434814453, -0.018545866012573242, -0.039505958557128906, 0.06145477294921875, -0.049285888671875, -0.07814788818359375, 0.08105087280273438, -0.02229595184326172, -0.2558708190917969, -0.07384777069091797, -0.05710601806640625, 0.0, -0.013657331466674805, -0.11721992492675781, -0.055047035217285156, -0.0418543815612793, 0.006151080131530762, 0.010174036026000977, -0.0689229965209961, -0.025562286376953125, 0.2871551513671875, -0.01411294937133789, -0.01575326919555664, -0.013972282409667969, 0.016632080078125, 0.028652191162109375, 0.022133350372314453, 0.00852203369140625, -0.018260478973388672, -0.057003021240234375, -0.029068946838378906, 0.011473417282104492, -0.005930781364440918, 0.02393054962158203, 0.0006877481937408447, -0.03399085998535156, 0.02753734588623047, -0.010155916213989258, -0.0034117698669433594, -0.023044586181640625, -0.028970718383789062, -0.03951072692871094, -0.005403995513916016, 0.004151582717895508, -0.002776622772216797, 0.004058420658111572, 0.007714033126831055, -0.010327577590942383, 0.027693748474121094, 0.0, 0.00843954086303711, 0.002052024006843567, 0.029006004333496094, 0.0, -0.01425790786743164, -0.010513782501220703, -0.014936447143554688, -0.011044740676879883, 0.02477264404296875, 0.019877910614013672, 0.012279033660888672, 0.019249916076660156, -0.03825187683105469, 0.002145528793334961, -0.01779794692993164, -0.02261972427368164, -0.011487960815429688, 0.022426605224609375, -0.026157379150390625, -0.0038907527923583984, 0.04155921936035156, -0.013474464416503906, 0.0, 0.0041692256927490234, 0.004528403282165527, -0.0226287841796875, -0.004667758941650391, -0.005766391754150391, -0.0031218528747558594, 0.019077301025390625, 0.01421213150024414, -0.015900135040283203, -0.019132614135742188, -0.004273176193237305, 0.02773571014404297, 0.0054819583892822266, 0.014604568481445312, -0.014505386352539062, 0.04711341857910156, -0.034338951110839844, 0.07481575012207031, -0.03795337677001953, 0.008862495422363281, 0.000700831413269043, -0.008017778396606445, 0.027912139892578125, -0.0022666603326797485, 0.06283187866210938, -0.007203102111816406, 0.008061647415161133, -0.045098304748535156, -0.02618408203125, -0.08353996276855469, 0.037212371826171875, -0.00273817777633667, 0.023367881774902344, -0.025490760803222656, 0.0, 0.0, -0.010024785995483398, -0.011783123016357422, 0.008287668228149414, -0.004485011100769043, 0.011473894119262695, -0.006254315376281738, 0.007248878479003906, -0.02239513397216797, 0.022530555725097656, 0.00774383544921875, 0.010162591934204102, 0.004788637161254883, 0.015670299530029297, -0.0241851806640625, 0.03133869171142578, -0.032245635986328125, 0.07534027099609375, 0.021909236907958984, 0.0, -0.005959153175354004, 0.009761333465576172, 0.003788769245147705, 0.031156539916992188, 0.004934906959533691, -0.03167438507080078, 0.0006669200956821442, 0.03705406188964844, -0.013200759887695312, -0.02241373062133789, -0.008177518844604492, -0.004829525947570801, -0.018779277801513672, 0.052631378173828125, -0.022773265838623047, 0.0, 0.01295924186706543, 0.03647136688232422, 0.00840306282043457, 0.030809402465820312, 0.0032982826232910156, 0.020495891571044922, 0.037278175354003906, 0.0316009521484375, -0.003297090530395508, -0.013389110565185547, 0.00676417350769043, 0.0, 0.027754783630371094, -0.015152454376220703, 0.0024863481521606445, -0.02975940704345703, -0.019029617309570312, -0.04953193664550781, -0.012639522552490234, -0.002230703830718994, 0.03387737274169922, -0.01987457275390625, 0.07525062561035156, 0.03485107421875, 0.030965805053710938, 0.009845733642578125, 0.022930622100830078, -0.01197957992553711, 3.698468208312988e-05, 0.05475044250488281, -0.0031603574752807617, -0.03513050079345703, 0.05344390869140625, -0.015033245086669922, 0.00848078727722168, -0.0205841064453125, -0.011883020401000977, 0.011325836181640625, 0.029094696044921875, -0.02995586395263672, -0.003214418888092041, 0.03429603576660156, -0.013946056365966797, 0.004134178161621094, -0.010059118270874023, -0.032052040100097656, 0.04088306427001953, -0.0027126073837280273, -0.006040096282958984, -0.019295215606689453, 0.006295442581176758, -0.03241443634033203, 0.023230552673339844, -0.038460731506347656, 0.0, 0.00035458803176879883, -0.014063358306884766, 0.027034759521484375, 0.0, 0.0, -0.03423023223876953, 0.024555683135986328, 0.011513948440551758, -0.03177165985107422, -0.02833080291748047, -0.001171112060546875, 0.04900074005126953, 0.2332916259765625, 0.0, 0.03650665283203125, 0.009082794189453125, 0.0, 0.015848159790039062, 0.024855613708496094, -0.0027121305465698242, -0.046698570251464844, -0.01203012466430664, -0.019002437591552734, 0.024122238159179688, -0.018627166748046875, 0.0, 0.020049571990966797, 0.00772404670715332, 0.01936960220336914, 0.0225372314453125, -0.027437210083007812, 0.02782440185546875, -0.012685298919677734, 0.0058400630950927734, 0.035208702087402344, -0.037133216857910156, -0.013617992401123047, 0.0, -0.010638236999511719, -0.007733345031738281, 0.003651261329650879, -0.006759166717529297, 0.0, 0.015836238861083984, -0.002151012420654297, 0.028400421142578125, 0.0007773786783218384, -0.00616610050201416, 0.016511917114257812, -0.025519371032714844, 0.018224716186523438, -0.044925689697265625, 0.032980918884277344, 0.021748065948486328, 0.03687858581542969, -0.027996063232421875, 0.027223587036132812, -0.012622356414794922, -0.04440021514892578, -0.009894132614135742, -0.020644187927246094, 0.031208038330078125, -0.025879859924316406, -0.04100513458251953, 0.04349803924560547, -0.011545181274414062, -0.1371917724609375, -0.03981590270996094, -0.030397415161132812, 0.0, -0.006690025329589844, -0.06085777282714844, -0.028577804565429688, -0.02184581756591797, 0.003787517547607422, 0.003162384033203125, -0.036194801330566406, -0.0135498046875, 0.107635498046875]
1: [0.00797206163406372, -0.004877358675003052, -0.007822781801223755, -0.0036466270685195923, -0.0010473616421222687, -0.002736032009124756, 0.008536010980606079, -0.007917344570159912, -0.00500081479549408, -0.005549371242523193, 0.011649608612060547, 0.008078128099441528, 0.006704926490783691, -0.007446914911270142, -0.007065117359161377, -0.0016429275274276733, 0.005211681127548218, -0.0032774358987808228, -0.0043710023164749146, -0.002790108323097229, -0.003829389810562134, -0.00045740604400634766, -0.005348891019821167, -0.010541796684265137, 0.018924295902252197, 0.005969434976577759, -0.005964934825897217, 0.009630143642425537, 0.0, -0.001880146563053131, -0.0036742836236953735, 0.009332805871963501, 0.0, -0.0025434792041778564, -0.000746898353099823, 0.002698153257369995, 0.002615198493003845, -0.005327135324478149, -0.005114048719406128, 0.0024047493934631348, 0.014471173286437988, 0.007571220397949219, 0.00816422700881958, -0.002887636423110962, 0.015327811241149902, -0.012283563613891602, 0.015433013439178467, -0.020970702171325684, 0.008777916431427002, 0.001570485532283783, 0.0033021122217178345, 0.0, 0.0013866052031517029, -0.00041959434747695923, -0.011363744735717773, 0.010667085647583008, -0.016969501972198486, -0.004155293107032776, 0.002092815935611725, -0.00976303219795227, -0.003337457776069641, 0.00346982479095459, 0.0005406327545642853, 0.015127718448638916, -0.0019946470856666565, 0.009913891553878784, 0.0007225498557090759, -0.001131441444158554, 6.063026376068592e-05, 0.013435721397399902, 0.0010617263615131378, 0.00597718358039856, 0.0010550394654273987, 0.0012195706367492676, -0.0028262436389923096, 0.0011506788432598114, -0.001650482416152954, -0.00956028699874878, -0.0020102858543395996, -0.0038844943046569824, 0.001932971179485321, 0.010847866535186768, 0.010993003845214844, 0.003266245126724243, 0.004875153303146362, 0.010221481323242188, 0.0, 0.0, 0.0021371692419052124, -0.0013117417693138123, 0.0028074532747268677, -0.0046322643756866455, -0.003920212388038635, -0.007034093141555786, -0.014935135841369629, -0.008835792541503906, 0.0008027218282222748, 0.0170554518699646, -0.002753421664237976, 0.010132312774658203, 0.00023841485381126404, 0.008443593978881836, -0.01758939027786255, 0.0011099204421043396, 0.0005564801394939423, -0.007994353771209717, 0.0, -0.008082449436187744, -0.007195562124252319, 0.003848060965538025, -0.004890903830528259, -0.0030332058668136597, 0.000564873218536377, 0.006606101989746094, -0.0016133636236190796, 0.0008853226900100708, 0.0017495900392532349, -0.015364646911621094, -0.0021497979760169983, -0.0008775554597377777, -0.011864066123962402, 0.01155996322631836, 0.0, 0.010162413120269775, 0.0007110424339771271, -0.01010674238204956, 0.003066226840019226, 0.010286569595336914, 0.0010593309998512268, -0.002964898943901062, 0.004871249198913574, -0.00206650048494339, -0.006375044584274292, -0.0016581714153289795, 0.0, 0.008082270622253418, -0.0020025596022605896, 0.00488908588886261, -0.0067653656005859375, -0.011699438095092773, -0.0010168179869651794, -0.0032587945461273193, 0.0032287389039993286, -0.0010344870388507843, 0.015883684158325195, -0.011131346225738525, 0.006182491779327393, 0.001385420560836792, 0.007832109928131104, 0.004550918936729431, -0.0009499751031398773, -0.0013022050261497498, -0.0005737710744142532, 0.0052693188190460205, -0.005117505788803101, -0.0015948638319969177, 0.004559934139251709, -0.007421731948852539, 0.0028122663497924805, 0.0004894528537988663, -0.011838138103485107, 0.01406627893447876, 0.002386331558227539, 0.005453884601593018, 0.0010554343461990356, -0.004820480942726135, -0.0024086609482765198, -0.007699728012084961, -0.005337417125701904, -0.002305269241333008, -0.006312191486358643, 0.003896474838256836, 0.005564093589782715, 0.0036945194005966187, -0.0035922974348068237, -0.004112064838409424, -0.009144484996795654, 0.0, -0.004613503813743591, 0.003085613250732422, -0.003669366240501404, 0.0, 0.0, 0.005501359701156616, 0.0018290206789970398, 0.010015696287155151, -0.0022671371698379517, -0.006682336330413818, 0.0002448149025440216, 0.007848352193832397, 0.03702199459075928, 0.0, 0.0024675801396369934, -0.0033315718173980713, 0.0, -0.00469517707824707, 0.005527853965759277, -0.005694836378097534, -0.0011284947395324707, 0.001633666455745697, -0.002423316240310669, -0.008408308029174805, 0.004644796252250671, 0.0, 0.008680909872055054, 0.004454195499420166, 0.004796937108039856, -0.011364161968231201, -0.005249977111816406, 0.005800813436508179, -0.008930951356887817, 0.005101919174194336, 0.004213482141494751, -0.004349365830421448, -0.0010984763503074646, 0.0, 0.00025056395679712296, -0.00043973512947559357, 0.0013622269034385681, 0.004117071628570557, 0.0, 0.001478835940361023, -0.006974548101425171, 0.00867357850074768, 0.004560142755508423, -0.0003309231251478195, -0.0011991895735263824, 0.0015479698777198792, 0.001609504222869873, -0.0023097842931747437, -0.005036205053329468, -0.0033504068851470947, 0.005029827356338501, 0.0009785853326320648, 0.005291581153869629, -0.006907284259796143, 0.014055371284484863, -0.007578343152999878, 0.006399035453796387, 0.014632761478424072, 0.004181236028671265, -0.008747965097427368, -0.000294647179543972, -0.00761297345161438, 0.002659216523170471, -0.0036858469247817993, 0.001739203929901123, 0.0, -0.0038433969020843506, -0.011217594146728516, 0.00199262797832489, 0.0003712363541126251, 0.008183896541595459, -0.002029821276664734, 0.003043264150619507, -0.0060765743255615234, 0.03560590744018555, -0.000652015209197998, 0.00040200352668762207, 0.0006411969661712646, 0.0003021061420440674, 8.163601160049438e-05, 0.00022834539413452148, -0.0007035434246063232, 0.0006660819053649902, 0.00041365623474121094, 0.00045305490493774414, -0.000964045524597168, -0.0006642341613769531, -0.0005595684051513672, 0.0006136000156402588, 0.0005797147750854492, 0.00013652443885803223, -0.0004241764545440674, 0.0002747476100921631, 0.00035509467124938965, 0.00023074448108673096, 0.00031672418117523193, 3.4829601645469666e-05, 0.0004375278949737549, 0.0008733868598937988, -0.0015612244606018066, -0.000490337610244751, 0.0004912316799163818, -0.0008030831813812256, 0.0, 0.0001569688320159912, 0.0003042370080947876, -0.0007690489292144775, 0.0, 0.00020457804203033447, 5.762651562690735e-05, -0.00021696090698242188, -0.00021705031394958496, 0.00043588876724243164, 0.0004201233386993408, -0.00020573288202285767, -0.001177370548248291, -0.0006207823753356934, -0.0006733238697052002, 0.00023615360260009766, -0.00127488374710083, 0.0010262727737426758, -0.0012781620025634766, 0.0017240047454833984, -0.0007260739803314209, -0.00012578070163726807, -0.0002727806568145752, 0.0, -0.00011526793241500854, 3.139488399028778e-05, 0.0009104609489440918, -0.0008710026741027832, 0.001403212547302246, 0.00034646689891815186, -0.00017598271369934082, 0.0008030831813812256, 0.00027433037757873535, -0.0002886354923248291, -4.4833868741989136e-05, -0.0012468695640563965, 0.00016511231660842896, -0.000822603702545166, -6.19255006313324e-05, 9.310618042945862e-05, 8.168863132596016e-06, -0.0011082291603088379, -9.517371654510498e-05, -0.0004912912845611572, -8.645281195640564e-05, -0.00010328367352485657, 0.00023564696311950684, -9.449943900108337e-05, 0.0001356080174446106, 0.0007911324501037598, 0.0001677870750427246, 0.00032223761081695557, -0.0001605004072189331, -0.000885307788848877, -0.0009006261825561523, -0.0002700239419937134, -0.0003961622714996338, -0.0008391141891479492, 0.0, 0.0, -0.0001816973090171814, 0.00010985136032104492, -0.00024697184562683105, 0.0003820359706878662, 0.00032107532024383545, 0.0005686581134796143, 0.001231551170349121, 0.0006914138793945312, -6.806477904319763e-05, -0.0014078021049499512, 0.00022804737091064453, -0.0008286237716674805, -3.1497329473495483e-05, -0.0006947517395019531, 0.0014466047286987305, -9.153410792350769e-05, -2.9316172003746033e-05, 0.0006570219993591309, 0.0, 0.0006718039512634277, 0.0006073117256164551, -0.0003151744604110718, 0.0004017651081085205, 0.00024665892124176025, -5.1530078053474426e-05, -0.0005415678024291992, 0.0001253858208656311, -6.908178329467773e-05, -0.0001447424292564392, 0.0012613534927368164, 0.00018261373043060303, 7.245689630508423e-05, 0.0009721517562866211, -0.0009530186653137207, 0.0, -0.0008415579795837402, -6.235018372535706e-05, 0.00083160400390625, -0.0002490431070327759, -0.0008386969566345215, -8.610263466835022e-05, 0.0002460777759552002, -0.0003883242607116699, 0.00017962604761123657, 0.0005271732807159424, 0.00013571977615356445, 0.0, -0.0006555914878845215, 0.00015662610530853271, -0.00040665268898010254, 0.0005615055561065674, 0.0009624361991882324, 9.932368993759155e-05, 0.00026667118072509766, -0.00025910139083862305, 8.980929851531982e-05, -0.001311182975769043, 0.0009139776229858398, -0.0005073845386505127, -0.00011139363050460815, -0.0006477832794189453, -0.0003733336925506592, 8.724629878997803e-05, 0.00010772049427032471, 5.1058828830718994e-05, -0.0004272162914276123, 0.000420987606048584, 0.0001290738582611084, -0.00037007033824920654, 0.0006113946437835693, -0.00023396313190460205, -4.559941589832306e-05, 0.0009663105010986328, -0.001149296760559082, -0.0002009570598602295, -0.0004514753818511963, -8.189678192138672e-05, 0.0004013478755950928, 0.00019086897373199463, 0.0006359219551086426, 0.0004397928714752197, 0.00018718838691711426, 0.0005183517932891846, -0.0003187507390975952, -0.0004686415195465088, -0.00030325353145599365, 0.0002992302179336548, 0.00033582746982574463, 0.0007502436637878418, 0.0, 0.0003882944583892822, -0.00025363266468048096, 0.000303611159324646, 0.0, 0.0, -0.0004601478576660156, -0.0001574382185935974, -0.000825345516204834, 0.00018119066953659058, 0.0005534887313842773, -2.2124499082565308e-05, -0.0006404221057891846, -0.0030432939529418945, 0.0, -0.00019499659538269043, 0.00026938319206237793, 0.0, 0.0003865659236907959, -0.00045552849769592285, 0.00046628713607788086, 9.320303797721863e-05, -0.00013639777898788452, 0.0001998022198677063, 0.0006941854953765869, -0.0003813058137893677, 0.0, -0.000724107027053833, -0.0003663599491119385, -0.0003954470157623291, 0.0009350180625915527, 0.0004284977912902832, -0.0004940032958984375, 0.0007303357124328613, -0.0004152059555053711, -0.0003465414047241211, 0.0003609657287597656, 9.253621101379395e-05, 0.0, -2.5045126676559448e-05, 4.3354928493499756e-05, -0.00012152642011642456, -0.00034151971340179443, 0.0, -0.0001275092363357544, 0.0005843043327331543, -0.0006943643093109131, -0.00037530064582824707, 2.9535964131355286e-05, 0.00011400505900382996, -0.00011834502220153809, -0.00013262033462524414, 0.0001901388168334961, 0.0004072040319442749, 0.00028568506240844727, -0.0004082322120666504, -8.215755224227905e-05, -0.0004343092441558838, 0.0005648434162139893, -0.0011600852012634277, 0.0006310045719146729, -0.0005278289318084717, -0.0012088418006896973, -0.00034399330615997314, 0.0007239878177642822, 2.4693086743354797e-05, 0.0006320178508758545, -0.00022938847541809082, 0.0003056377172470093, -0.00014600157737731934, 0.0, 0.0003154873847961426, 0.0009216070175170898, -0.0001749172806739807, -2.658739686012268e-05, -0.0006709694862365723, 0.00016402453184127808, -0.0002526193857192993, 0.0004998445510864258, -0.0029959678649902344, 0.0001856982707977295, -0.0001109093427658081, -0.0001818835735321045, -8.150935173034668e-05, -2.8099864721298218e-05, -5.97834587097168e-05, 0.00019416213035583496, -0.00016757845878601074, -0.00011266767978668213, -0.00012999773025512695, 0.0002611875534057617, 0.00018531084060668945, 0.00014644861221313477, -0.00016954541206359863, -0.00016313791275024414, -3.6269426345825195e-05, 0.00012353062629699707, -7.051229476928711e-05, -0.00010426342487335205, -6.271898746490479e-05, -8.594989776611328e-05, -1.2988224625587463e-05, -0.00012478232383728027, -0.00023621320724487305, 0.0004292726516723633, 0.00013747811317443848, -0.00013595819473266602, 0.0002110004425048828, 0.0, -4.094839096069336e-05, -8.241832256317139e-05, 0.0002124011516571045, 0.0, -6.243586540222168e-05, -2.0567327737808228e-05, 6.622076034545898e-05, 5.796551704406738e-05, -0.00012424588203430176, -0.00011777877807617188, 4.782527685165405e-05, 0.00034308433532714844, 0.00017523765563964844, 0.00018468499183654785, -6.750226020812988e-05, 0.0003381967544555664, -0.00026661157608032227, 0.0003459453582763672, -0.00048148632049560547, 0.00019687414169311523, 3.9070844650268555e-05, 7.468461990356445e-05, 0.0, 3.065913915634155e-05, -1.2425705790519714e-05, -0.0002822279930114746, 0.00024968385696411133, -0.00038301944732666016, -9.097158908843994e-05, 4.442036151885986e-05, -0.0002231001853942871, -7.653236389160156e-05, 7.645785808563232e-05, 1.2051314115524292e-05, 0.0003433823585510254, -4.4696033000946045e-05, 0.00022011995315551758, 1.430511474609375e-05, -2.588331699371338e-05, 1.3268087059259415e-05, 0.0003045797348022461, 1.7289072275161743e-05, 0.00013744831085205078, 2.4460256099700928e-05, 2.5294721126556396e-05, -6.176531314849854e-05, 2.6423484086990356e-05, -3.7901103496551514e-05, -0.00021454691886901855, -4.378706216812134e-05, -8.662045001983643e-05, 4.299730062484741e-05, 0.000254213809967041, 0.0002548098564147949, 7.359683513641357e-05, 0.00011578202247619629, 0.0002352595329284668, 0.0, 0.0, 4.345923662185669e-05, -2.8312206268310547e-05, 4.9933791160583496e-05, -0.00010517239570617676, -9.086728096008301e-05, -0.00016990303993225098, -0.00033986568450927734, -0.00023418664932250977, 1.6547739505767822e-05, 0.00038552284240722656, -6.142258644104004e-05, 0.0002359151840209961, -5.268491804599762e-06, 0.0001933574676513672, -0.00040280818939208984, 2.5212764739990234e-05, 2.757832407951355e-05, -0.00018352270126342773, 0.0, -0.00017902255058288574, -0.00015079975128173828, 8.925795555114746e-05, -0.00011231005191802979, -7.197260856628418e-05, 8.337199687957764e-06, 0.0001531541347503662, -4.357099533081055e-05, 2.3614615201950073e-05, 3.929436206817627e-05, -0.0003542900085449219, -4.407763481140137e-05, -1.9840896129608154e-05, -0.0002754330635070801, 0.00026279687881469727, 0.0, 0.00022733211517333984, 1.2774020433425903e-05, -0.00023132562637329102, 7.31348991394043e-05, 0.00024271011352539062, 2.5175511837005615e-05, -6.590783596038818e-05, 0.00012277066707611084, -3.854185342788696e-05, -0.00014352798461914062, -3.8586556911468506e-05, 0.0, 0.00019305944442749023, -5.315244197845459e-05, 0.00010813772678375244, -0.00015026330947875977, -0.00026744604110717773, -9.175390005111694e-06, -7.583200931549072e-05, 7.964670658111572e-05, -1.9438564777374268e-05, 0.00036013126373291016, -0.00025600194931030273, 0.00014251470565795898, 3.399699926376343e-05, 0.00017601251602172852, 0.00010500848293304443, -1.3541430234909058e-05, -2.9265880584716797e-05, -9.655952453613281e-06, 0.00012630224227905273, -0.00011709332466125488, -3.843754529953003e-05, 0.00010901689529418945, -0.00016924738883972168, 6.206333637237549e-05, 6.387010216712952e-06, -0.0002777576446533203, 0.00032824277877807617, 5.0358474254608154e-05, 0.0001221299171447754, 2.8606504201889038e-05, -0.00010617077350616455, -6.162375211715698e-05, -0.00017452239990234375, -0.00012189149856567383, -5.503743886947632e-05, -0.00014507770538330078, 9.077787399291992e-05, 0.0001176297664642334, 8.508563041687012e-05, -7.870793342590332e-05, -9.635090827941895e-05, -0.00021117925643920898, 0.0, -9.776651859283447e-05, 7.101893424987793e-05, -8.240342140197754e-05, 0.0, 0.0, 0.0001195669174194336, 3.5569071769714355e-05, 0.0002281665802001953, -5.6743621826171875e-05, -0.00014951825141906738, 3.7997961044311523e-06, 0.0001844465732574463, 0.0008462667465209961, 0.0, 6.364285945892334e-05, -8.04215669631958e-05, 0.0, -0.00010730326175689697, 0.0001258552074432373, -0.00013241171836853027, -2.5466084480285645e-05, 3.549456596374512e-05, -5.498528480529785e-05, -0.00019046664237976074, 0.00010685622692108154, 0.0, 0.00018998980522155762, 0.00010186433792114258, 0.00010873377323150635, -0.00025975704193115234, -0.0001232922077178955, 0.00011751055717468262, -0.00020831823348999023, 0.00012072920799255371, 9.642541408538818e-05, -9.66489315032959e-05, -2.316012978553772e-05, 0.0, 1.7369166016578674e-06, -3.60049307346344e-06, 2.2627413272857666e-05, 9.170174598693848e-05, 0.0, 2.864748239517212e-05, -0.00015047192573547363, 0.00021576881408691406, 0.0001043081283569336, -5.48921525478363e-06, -1.3612210750579834e-05, 4.353374242782593e-05, 3.6656856536865234e-05, -5.2832067012786865e-05, -0.00012166798114776611, -6.762146949768066e-05, 0.00011995434761047363, 2.086535096168518e-05, 0.00012201070785522461, -0.00016137957572937012, 0.0003178715705871582, -0.00016647577285766602, 0.00014519691467285156, 0.00033032894134521484, 9.56505537033081e-05, -0.00019672513008117676, -6.341375410556793e-06, -0.00016883015632629395, 5.145370960235596e-05, -8.207559585571289e-05, 3.715604543685913e-05, 0.0, -8.837878704071045e-05, -0.0002582669258117676, 3.557652235031128e-05, 1.2064352631568909e-05, 0.00018969178199768066, -4.915893077850342e-05, 6.759166717529297e-05, -0.00013870000839233398, 0.0007530450820922852, -0.0010652244091033936, 0.0006550252437591553, 0.00104600191116333, 0.0004913359880447388, 0.00013573095202445984, 0.0003703683614730835, -0.0011465251445770264, 0.0010775625705718994, 0.0006732791662216187, 0.0007410347461700439, -0.0015688538551330566, -0.0010830163955688477, -0.00090751051902771, 0.00099983811378479, 0.0009461343288421631, 0.0002218782901763916, -0.0006942152976989746, 0.0004450082778930664, 0.0005815476179122925, 0.00037550926208496094, 0.0005156397819519043, 5.842186510562897e-05, 0.0007147789001464844, 0.001420140266418457, -0.002542555332183838, -0.0007999241352081299, 0.0008008182048797607, -0.0013028383255004883, 0.0, 0.0002546533942222595, 0.0004948824644088745, -0.0012535452842712402, 0.0, 0.0003363192081451416, 9.6149742603302e-05, -0.00035668909549713135, -0.00035281479358673096, 0.0007118284702301025, 0.0006853640079498291, -0.00033099204301834106, -0.001927018165588379, -0.0010128915309906006, -0.0010972321033477783, 0.0003857165575027466, -0.0020697712898254395, 0.0016646981239318848, -0.0020789504051208496, 0.002810359001159668, -0.001181870698928833, -0.00020700693130493164, -0.00044383108615875244, 0.0, -0.00018721818923950195, 5.3005293011665344e-05, 0.0014984607696533203, -0.0014240741729736328, 0.0022823214530944824, 0.0005622357130050659, -0.00028476864099502563, 0.0013098418712615967, 0.0004473179578781128, -0.00046876072883605957, -7.285550236701965e-05, -0.002032339572906494, 0.00026857852935791016, -0.001337289810180664, -9.95248556137085e-05, 0.00015176460146903992, 5.657551810145378e-06, -0.001805424690246582, -0.00015053153038024902, -0.0008008778095245361, -0.0001411736011505127, -0.00016665831208229065, 0.0003824084997177124, -0.00015424937009811401, 0.00022115558385849, 0.001287013292312622, 0.00027214735746383667, 0.0005237609148025513, -0.0002606809139251709, -0.0014475584030151367, -0.0014709234237670898, -0.0004392564296722412, -0.0006489455699920654, -0.0013695955276489258, 0.0, 0.0, -0.000292852520942688, 0.00017800182104110718, -0.0003932863473892212, 0.0006224513053894043, 0.0005242824554443359, 0.0009329915046691895, 0.002005338668823242, 0.0011482536792755127, -0.00010982900857925415, -0.002293109893798828, 0.00037109851837158203, -0.0013537406921386719, -4.4432468712329865e-05, -0.0011326372623443604, 0.002358734607696533, -0.0001490861177444458, -5.739927291870117e-05, 0.0010716021060943604, 0.0, 0.001090705394744873, 0.000981360673904419, -0.0005147308111190796, 0.0006555318832397461, 0.00040380656719207764, -8.109025657176971e-05, -0.0008837580680847168, 0.00020866841077804565, -0.00011483579874038696, -0.00023553520441055298, 0.0020580291748046875, 0.0002942606806755066, 0.00011800974607467651, 0.0015868544578552246, -0.0015529394149780273, 0.0, -0.001369178295135498, -9.93870198726654e-05, 0.0013558268547058105, -0.00040796399116516113, -0.0013710856437683105, -0.00014099478721618652, 0.00039999186992645264, -0.0006402730941772461, 0.0002874135971069336, 0.0008579492568969727, 0.00022169947624206543, 0.0, -0.0010748207569122314, 0.00026022642850875854, -0.0006603747606277466, 0.000912398099899292, 0.0015696883201599121, 0.00015278160572052002, 0.00043557584285736084, -0.0004264414310455322, 0.00014371797442436218, -0.002134263515472412, 0.0014908313751220703, -0.0008282363414764404, -0.00018315762281417847, -0.0010541081428527832, -0.0006091147661209106, 0.00013689324259757996, 0.00017536431550979614, 8.099712431430817e-05, -0.0006999373435974121, 0.0006865262985229492, 0.00021167099475860596, -0.0006063282489776611, 0.0009962022304534912, -0.0003800243139266968, -7.12461769580841e-05, 0.0015795230865478516, -0.001878499984741211, -0.00032494962215423584, -0.0007346868515014648, -0.00013640150427818298, 0.0006514042615890503, 0.00031541287899017334, 0.0010350346565246582, 0.0007165968418121338, 0.0003065839409828186, 0.0008458197116851807, -0.0005207210779190063, -0.0007576644420623779, -0.0004949420690536499, 0.0004858076572418213, 0.0005490034818649292, 0.0012245476245880127, 0.0, 0.0006278455257415771, -0.0004135817289352417, 0.0004941374063491821, 0.0, 0.0, -0.0007453560829162598, -0.00025260448455810547, -0.0013447403907775879, 0.00029850006103515625, 0.0009004771709442139, -3.4928321838378906e-05, -0.0010470151901245117, -0.004964947700500488, 0.0, -0.0003226175904273987, 0.0004419684410095215, 0.0, 0.0006300061941146851, -0.000742107629776001, 0.0007617473602294922, 0.00015177205204963684, -0.00022132694721221924, 0.0003255680203437805, 0.0011304616928100586, -0.000622287392616272, 0.0, -0.0011746585369110107, -0.0005973577499389648, -0.0006445199251174927, 0.0015244483947753906, 0.0007006227970123291, -0.0007957220077514648, 0.0011932551860809326, -0.0006799399852752686, -0.0005651712417602539, 0.0005865991115570068, 0.00014965608716011047, 0.0, -3.8242898881435394e-05, 6.650388240814209e-05, -0.0001925826072692871, -0.000555381178855896, 0.0, -0.00020451098680496216, 0.0009462833404541016, -0.0011439323425292969, -0.0006116330623626709, 4.6795234084129333e-05, 0.00017698854207992554, -0.00019819289445877075, -0.00021606683731079102, 0.0003099292516708374, 0.0006680190563201904, 0.00045987963676452637, -0.0006689727306365967, -0.00013302266597747803, -0.0007087588310241699, 0.0009226799011230469, -0.0018894672393798828, 0.0010249018669128418, -0.0008597671985626221, -0.001968681812286377, -0.0005606859922409058, 0.0011777281761169434, 4.000496119260788e-05, 0.0010273456573486328, -0.0003676414489746094, 0.0004969537258148193, -0.00023628771305084229, 0.0, 0.0005148947238922119, 0.0015031099319458008, -0.00027883797883987427, -4.565715789794922e-05, -0.001095205545425415, 0.00026920437812805176, -0.0004107356071472168, 0.0008153021335601807, -0.004845142364501953, -0.0006424784660339355, 0.00039654970169067383, 0.0006312727928161621, 0.0002976357936859131, 8.04215669631958e-05, 0.00022511184215545654, -0.0006936192512512207, 0.0006567835807800293, 0.0004079192876815796, 0.00044664740562438965, -0.0009507536888122559, -0.0006547868251800537, -0.0005515515804290771, 0.0006045997142791748, 0.0005710721015930176, 0.00013465434312820435, -0.00041791796684265137, 0.000270843505859375, 0.00034959614276885986, 0.00022751092910766602, 0.0003123283386230469, 3.429502248764038e-05, 0.0004309713840484619, 0.0008605122566223145, -0.0015382170677185059, -0.00048300623893737793, 0.00048404932022094727, -0.000791400671005249, 0.0, 0.00015481561422348022, 0.00029981136322021484, -0.0007589459419250488, 0.0, 0.0002015531063079834, 5.671754479408264e-05, -0.00021372735500335693, -0.00021404027938842773, 0.000429689884185791, 0.0004140138626098633, -0.00020297616720199585, -0.001160264015197754, -0.0006114542484283447, -0.0006638765335083008, 0.000232696533203125, -0.0012566447257995605, 0.0010120868682861328, -0.001259922981262207, 0.001698613166809082, -0.0007159709930419922, -0.00012382864952087402, -0.0002687126398086548, 0.0, -0.00011362135410308838, 3.0895695090293884e-05, 0.0008970499038696289, -0.0008587837219238281, 0.0013813972473144531, 0.0003416091203689575, -0.00017351657152175903, 0.000791400671005249, 0.00027017295360565186, -0.000284343957901001, -4.419684410095215e-05, -0.0012293457984924316, 0.00016280263662338257, -0.0008109211921691895, -6.106123328208923e-05, 9.175390005111694e-05, 8.227769285440445e-06, -0.0010923147201538086, -9.381398558616638e-05, -0.0004838407039642334, -8.521601557731628e-05, -0.00010179728269577026, 0.0002324432134628296, -9.318441152572632e-05, 0.00013366341590881348, 0.0007799863815307617, 0.00016535818576812744, 0.0003174245357513428, -0.00015811622142791748, -0.0008721351623535156, -0.0008878111839294434, -0.0002660900354385376, -0.0003905445337295532, -0.0008273720741271973, 0.0, 0.0, -0.00017925351858139038, 0.00010827183723449707, -0.00024361908435821533, 0.00037682056427001953, 0.0003165006637573242, 0.000560462474822998, 0.0012130141258239746, 0.0006811916828155518, -6.7099928855896e-05, -0.0013871192932128906, 0.00022488832473754883, -0.0008170604705810547, -3.120489418506622e-05, -0.0006849765777587891, 0.0014258027076721191, -9.020045399665833e-05, -2.8684735298156738e-05, 0.0006477236747741699, 0.0, 0.0006621479988098145, 0.0005986690521240234, -0.0003105849027633667, 0.0003960132598876953, 0.00024300813674926758, -5.086138844490051e-05, -0.0005336403846740723, 0.00012347102165222168, -6.805732846260071e-05, -0.00014257431030273438, 0.0012431144714355469, 0.00018002837896347046, 7.141754031181335e-05, 0.0009574294090270996, -0.0009394288063049316, 0.0, -0.0008301734924316406, -6.15045428276062e-05, 0.0008200407028198242, -0.00024540722370147705, -0.0008260607719421387, -8.489936590194702e-05, 0.00024259090423583984, -0.00038254261016845703, 0.00017723441123962402, 0.0005200505256652832, 0.00013374537229537964, 0.0, -0.0006463229656219482, 0.00015434622764587402, -0.000400736927986145, 0.0005533099174499512, 0.0009490251541137695, 9.806826710700989e-05, 0.00026279687881469727, -0.00025556981563568115, 8.857622742652893e-05, -0.0012911558151245117, 0.0009004473686218262, -0.0005001723766326904, -0.00010973960161209106, -0.0006383955478668213, -0.00036785006523132324, 8.607283234596252e-05, 0.00010623782873153687, 5.038641393184662e-05, -0.0004208087921142578, 0.0004152655601501465, 0.00012712925672531128, -0.00036457180976867676, 0.0006026625633239746, -0.00023059546947479248, -4.5008957386016846e-05, 0.0009524226188659668, -0.0011330246925354004, -0.00019805878400802612, -0.0004451274871826172, -8.061528205871582e-05, 0.0003957003355026245, 0.0001881122589111328, 0.0006264150142669678, 0.00043335556983947754, 0.0001843869686126709, 0.000510871410369873, -0.0003141164779663086, -0.00046184659004211426, -0.00029893219470977783, 0.00029496848583221436, 0.0003307610750198364, 0.0007395744323730469, 0.0, 0.0003827214241027832, -0.0002499222755432129, 0.0002994537353515625, 0.0, 0.0, -0.00045299530029296875, -0.0001552477478981018, -0.0008135437965393066, 0.00017840415239334106, 0.0005456209182739258, -2.18292698264122e-05, -0.0006312131881713867, -0.003001570701599121, 0.0, -0.00019206851720809937, 0.0002655237913131714, 0.0, 0.0003809332847595215, -0.0004490315914154053, 0.000459522008895874, 9.187683463096619e-05, -0.00013447552919387817, 0.0001968666911125183, 0.0006843209266662598, -0.00037556886672973633, 0.0, -0.0007138252258300781, -0.0003610551357269287, -0.0003898143768310547, 0.0009214878082275391, 0.0004222989082336426, -0.0004871487617492676, 0.0007197856903076172, -0.0004095137119293213, -0.00034148991107940674, 0.000355646014213562, 9.128451347351074e-05, 0.0, -2.4732202291488647e-05, 4.282407462596893e-05, -0.0001198798418045044, -0.0003367960453033447, 0.0, -0.00012576580047607422, 0.0005758106708526611, -0.0006847083568572998, -0.0003697723150253296, 2.9120594263076782e-05, 0.0001126416027545929, -0.0001165047287940979, -0.00013070553541183472, 0.0001872330904006958, 0.00040121376514434814, 0.00028161704540252686, -0.0004024207592010498, -8.105859160423279e-05, -0.0004279613494873047, 0.0005567371845245361, -0.0011438727378845215, 0.0006219446659088135, -0.0005200803279876709, -0.0011914372444152832, -0.0003390759229660034, 0.0007132589817047119, 2.4341046810150146e-05, 0.0006233751773834229, -0.00022591650485992432, 0.00030131638050079346, -0.00014390796422958374, 0.0, 0.00031091272830963135, 0.0009077787399291992, -0.0001725032925605774, -2.615712583065033e-05, -0.0006608963012695312, 0.00016150623559951782, -0.0002490133047103882, 0.0004930496215820312, -0.002952098846435547, -0.001803666353225708, 0.0011072158813476562, 0.0017705559730529785, 0.0008293688297271729, 0.0002323649823665619, 0.0006241351366043091, -0.001937568187713623, 0.0018125474452972412, 0.0011364370584487915, 0.0012547969818115234, -0.002648472785949707, -0.001831144094467163, -0.0015292465686798096, 0.0016894638538360596, 0.0016003847122192383, 0.0003741532564163208, -0.001176595687866211, 0.0007489025592803955, 0.0009861737489700317, 0.0006341338157653809, 0.0008704811334609985, 0.00010056234896183014, 0.0012101531028747559, 0.002396881580352783, -0.004295289516448975, -0.0013526678085327148, 0.0013532042503356934, -0.002195984125137329, 0.0, 0.0004290342330932617, 0.0008353143930435181, -0.002118319272994995, 0.0, 0.0005716383457183838, 0.00016502663493156433, -0.0006062537431716919, -0.0005952268838882446, 0.0012053847312927246, 0.001158684492111206, -0.000554308295249939, -0.0032666921615600586, -0.0017141997814178467, -0.0018538832664489746, 0.0006531178951263428, -0.003491342067718506, 0.002804100513458252, -0.003509044647216797, 0.004753589630126953, -0.0019954144954681396, -0.0003522112965583801, -0.0007499754428863525, 0.0, -0.0003158450126647949, 9.159371256828308e-05, 0.002549290657043457, -0.002412259578704834, 0.003855466842651367, 0.0009474754333496094, -0.0004789680242538452, 0.002213895320892334, 0.0007562488317489624, -0.0007905066013336182, -0.00012297183275222778, -0.003433525562286377, 0.0004535689949989319, -0.0022559165954589844, -0.00016668066382408142, 0.00025663524866104126, 1.171370968222618e-06, -0.0030501484870910645, -0.0002495869994163513, -0.0013547539710998535, -0.00023883581161499023, -0.00027987733483314514, 0.0006445348262786865, -0.00026084110140800476, 0.0003740862011909485, 0.002173304557800293, 0.00045862048864364624, 0.0008839666843414307, -0.0004399493336677551, -0.002451777458190918, -0.0024890899658203125, -0.0007420331239700317, -0.0010999590158462524, -0.0023162364959716797, 0.0, 0.0, -0.0004914626479148865, 0.00029963254928588867, -0.0006547868251800537, 0.0010516643524169922, 0.0008874833583831787, 0.0015835165977478027, 0.0033892393112182617, 0.0019634366035461426, -0.00018434971570968628, -0.0038734078407287598, 0.0006263405084609985, -0.0022917985916137695, -6.754137575626373e-05, -0.00191497802734375, 0.003987610340118408, -0.0002518966794013977, -0.00010757148265838623, 0.0018122494220733643, 0.0, 0.0018406212329864502, 0.0016492009162902832, -0.0008709877729415894, 0.0011084973812103271, 0.0006845295429229736, -0.00013381242752075195, -0.0014957189559936523, 0.0003574788570404053, -0.0001965165138244629, -0.0003976374864578247, 0.0034806132316589355, 0.0004938989877700806, 0.0001993142068386078, 0.002685546875, -0.002624034881591797, 0.0, -0.0023109912872314453, -0.00016558170318603516, 0.0022921860218048096, -0.0006917417049407959, -0.002323150634765625, -0.0002391040325164795, 0.0006749182939529419, -0.00109061598777771, 0.00047957152128219604, 0.0014487802982330322, 0.0003751888871192932, 0.0, -0.001822054386138916, 0.000445045530796051, -0.0011135488748550415, 0.0015396177768707275, 0.0026533007621765137, 0.00024830177426338196, 0.0007372200489044189, -0.0007250308990478516, 0.00023989751935005188, -0.0036063194274902344, 0.0025220513343811035, -0.0014008581638336182, -0.00031128525733947754, -0.0017794966697692871, -0.001030653715133667, 0.00022569671273231506, 0.00029600411653518677, 0.0001345071941614151, -0.0011877715587615967, 0.001160651445388794, 0.00035922229290008545, -0.0010282695293426514, 0.001683950424194336, -0.00064067542552948, -0.00011701881885528564, 0.002675950527191162, -0.00318145751953125, -0.0005464330315589905, -0.0012399852275848389, -0.00023370608687400818, 0.0010984838008880615, 0.0005379617214202881, 0.0017482340335845947, 0.0012111961841583252, 0.0005197525024414062, 0.0014306604862213135, -0.0008816421031951904, -0.0012738704681396484, -0.0008370727300643921, 0.0008188635110855103, 0.0009296536445617676, 0.0020718276500701904, 0.0, 0.0010560303926467896, -0.0006992965936660767, 0.0008341223001480103, 0.0, 0.0, -0.0012554824352264404, -0.0004226267337799072, -0.002272665500640869, 0.0005081072449684143, 0.001519709825515747, -5.777087062597275e-05, -0.0017736554145812988, -0.008394122123718262, 0.0, -0.0005506202578544617, 0.0007503777742385864, 0.0, 0.0010649710893630981, -0.0012543797492980957, 0.0012888908386230469, 0.0002562962472438812, -0.0003727748990058899, 0.0005500838160514832, 0.0019093453884124756, -0.0010521560907363892, 0.0, -0.0019797980785369873, -0.0010100901126861572, -0.0010889768600463867, 0.0025777816772460938, 0.0011865794658660889, -0.0013346374034881592, 0.0020196735858917236, -0.00115203857421875, -0.000955536961555481, 0.0009897798299789429, 0.00025163590908050537, 0.0, -6.182491779327393e-05, 0.00010784529149532318, -0.00031966716051101685, -0.0009369105100631714, 0.0, -0.0003418922424316406, 0.0015934407711029053, -0.0019454360008239746, -0.0010341107845306396, 7.765553891658783e-05, 0.00028940290212631226, -0.00034083425998687744, -0.0003652498126029968, 0.000523880124092102, 0.001134037971496582, 0.000771254301071167, -0.0011345595121383667, -0.0002238340675830841, -0.0011989474296569824, 0.0015625357627868652, -0.003191709518432617, 0.001727372407913208, -0.0014526546001434326, -0.0033242106437683105, -0.0009481459856033325, 0.0019886791706085205, 6.734207272529602e-05, 0.0017329156398773193, -0.0006148815155029297, 0.0008385777473449707, -0.00039762258529663086, 0.0, 0.0008708089590072632, 0.0025417208671569824, -0.0004642754793167114, -7.96932727098465e-05, -0.0018528997898101807, 0.000456981360912323, -0.0006927698850631714, 0.0013782382011413574, -0.008149862289428711, -0.0001036226749420166, 6.657838821411133e-05, 0.00010269880294799805, 5.117058753967285e-05, 9.883195161819458e-06, 3.986060619354248e-05, -0.00011616945266723633, 0.00012105703353881836, 6.951391696929932e-05, 7.170438766479492e-05, -0.00016289949417114258, -0.00010854005813598633, -9.78708267211914e-05, 0.00010123848915100098, 9.420514106750488e-05, 2.3499131202697754e-05, -6.601214408874512e-05, 4.890561103820801e-05, 5.4776668548583984e-05, 3.869831562042236e-05, 5.340576171875e-05, 3.563240170478821e-06, 6.988644599914551e-05, 0.00014704465866088867, -0.00025916099548339844, -7.954239845275879e-05, 8.097290992736816e-05, -0.00013968348503112793, 0.0, 2.7574598789215088e-05, 5.145370960235596e-05, -0.00012746453285217285, 0.0, 2.9996037483215332e-05, 6.489455699920654e-06, -3.167986869812012e-05, -3.72081995010376e-05, 6.985664367675781e-05, 6.842613220214844e-05, -3.987550735473633e-05, -0.00018298625946044922, -9.998679161071777e-05, -0.00011202692985534668, 3.746151924133301e-05, -0.00021958351135253906, 0.00018042325973510742, -0.00021606683731079102, 0.00028204917907714844, -0.00012248754501342773, -1.7978250980377197e-05, -4.544854164123535e-05, 0.0, -1.981109380722046e-05, 2.7511268854141235e-06, 0.00013065338134765625, -0.0001380443572998047, 0.00023490190505981445, 6.03795051574707e-05, -3.188103437423706e-05, 0.0001316368579864502, 4.474818706512451e-05, -4.982948303222656e-05, -7.631257176399231e-06, -0.0002060532569885254, 2.7798116207122803e-05, -0.0001404881477355957, -1.2062489986419678e-05, 1.5303492546081543e-05, 1.1502765119075775e-05, -0.00018388032913208008, -2.1595507860183716e-05, -7.990002632141113e-05, -1.395493745803833e-05, -1.921132206916809e-05, 4.112720489501953e-05, -1.5418976545333862e-05, 2.215057611465454e-05, 0.0001334547996520996, 2.934783697128296e-05, 5.5089592933654785e-05, -2.734363079071045e-05, -0.00013947486877441406, -0.0001456141471862793, -4.5165419578552246e-05, -6.130337715148926e-05, -0.00013589859008789062, 0.0, 0.0, -3.4332275390625e-05, 1.9527971744537354e-05, -5.283951759338379e-05, 6.343424320220947e-05, 5.155801773071289e-05, 8.52346420288086e-05, 0.00020313262939453125, 8.64267349243164e-05, -1.2751668691635132e-05, -0.0002345442771911621, 3.871321678161621e-05, -0.0001322627067565918, -1.4358200132846832e-05, -0.0001138150691986084, 0.00023674964904785156, -1.5150755643844604e-05, 7.869675755500793e-06, 0.00010752677917480469, 0.0, 0.00011512637138366699, 0.00011146068572998047, -5.061924457550049e-05, 6.552040576934814e-05, 3.822147846221924e-05, -1.2373551726341248e-05, -8.723139762878418e-05, 1.4871358871459961e-05, -8.42660665512085e-06, -2.431124448776245e-05, 0.00020438432693481445, 3.437697887420654e-05, 1.2129545211791992e-05, 0.00015562772750854492, -0.00015777349472045898, 0.0, -0.00014227628707885742, -1.31949782371521e-05, 0.00013697147369384766, -3.832578659057617e-05, -0.00013124942779541016, -1.3310462236404419e-05, 4.220008850097656e-05, -5.391240119934082e-05, 3.7029385566711426e-05, 8.860230445861816e-05, 2.1696090698242188e-05, 0.0, -0.00010034441947937012, 1.9438564777374268e-05, -7.005035877227783e-05, 9.551644325256348e-05, 0.00015789270401000977, 2.8382986783981323e-05, 4.2572617530822754e-05, -3.7729740142822266e-05, 1.835450530052185e-05, -0.00021857023239135742, 0.00014841556549072266, -8.228421211242676e-05, -1.6361474990844727e-05, -0.00010892748832702637, -6.0424208641052246e-05, 2.1301209926605225e-05, 1.817941665649414e-05, 1.1371448636054993e-05, -6.496906280517578e-05, 6.902217864990234e-05, 1.9475817680358887e-05, -5.696713924407959e-05, 0.00010102987289428711, -4.038214683532715e-05, -1.1602416634559631e-05, 0.00015217065811157227, -0.00018334388732910156, -3.6582350730895996e-05, -7.63237476348877e-05, -9.641051292419434e-06, 6.918609142303467e-05, 2.574920654296875e-05, 0.00010579824447631836, 7.25090503692627e-05, 2.8699636459350586e-05, 8.425116539001465e-05, -5.105137825012207e-05, -8.511543273925781e-05, -4.912912845611572e-05, 5.196034908294678e-05, 5.321204662322998e-05, 0.00012180209159851074, 0.0, 7.042288780212402e-05, -4.139542579650879e-05, 5.117058753967285e-05, 0.0, 0.0, -8.088350296020508e-05, -3.11732292175293e-05, -0.00013616681098937988, 2.559274435043335e-05, 9.369850158691406e-05, -5.1585957407951355e-06, -0.00010082125663757324, -0.0004992485046386719, 0.0, -2.5860965251922607e-05, 4.073977470397949e-05, 0.0, 6.338953971862793e-05, -7.519125938415527e-05, 7.495284080505371e-05, 1.5556812286376953e-05, -2.3946166038513184e-05, 3.316253423690796e-05, 0.0001156926155090332, -6.182491779327393e-05, 0.0, -0.00012600421905517578, -6.034970283508301e-05, -6.577372550964355e-05, 0.00015354156494140625, 6.756186485290527e-05, -9.41157341003418e-05, 0.00011608004570007324, -6.48796558380127e-05, -5.6877732276916504e-05, 6.160140037536621e-05, 1.6923993825912476e-05, 0.0, -7.505528628826141e-06, 1.2641772627830505e-05, -2.724677324295044e-05, -5.824863910675049e-05, 0.0, -2.5413930416107178e-05, 0.00010380148887634277, -9.98377799987793e-05, -6.149709224700928e-05, 6.623566150665283e-06, 3.0588358640670776e-05, -1.2427568435668945e-05, -2.1904706954956055e-05, 3.124028444290161e-05, 6.155669689178467e-05, 5.462765693664551e-05, -6.282329559326172e-05, -1.4774501323699951e-05, -7.05718994140625e-05, 8.982419967651367e-05, -0.00019276142120361328, 0.00010955333709716797, -8.77082347869873e-05, -0.0002021193504333496, -5.6371092796325684e-05, 0.00012192130088806152, 4.395842552185059e-06, 0.00010818243026733398, -4.5612454414367676e-05, 5.1915645599365234e-05, -2.6181340217590332e-05, 0.0, 5.131959915161133e-05, 0.0001494884490966797, -3.723055124282837e-05, -1.2870877981185913e-06, -0.0001080930233001709, 2.4646520614624023e-05, -4.315376281738281e-05, 8.228421211242676e-05, -0.0005437135696411133, -0.0008958578109741211, 0.0005514770746231079, 0.000879824161529541, 0.000413745641708374, 0.00011356547474861145, 0.000312119722366333, -0.0009648501873016357, 0.0009089112281799316, 0.0005666762590408325, 0.0006229281425476074, -0.0013206005096435547, -0.0009114742279052734, -0.000764697790145874, 0.0008411407470703125, 0.0007958412170410156, 0.000186920166015625, -0.000583350658416748, 0.000375211238861084, 0.0004887282848358154, 0.0003163665533065796, 0.0004340857267379761, 4.87547367811203e-05, 0.0006008446216583252, 0.001195669174194336, -0.0021402835845947266, -0.0006728768348693848, 0.000674128532409668, -0.0010977089405059814, 0.0, 0.0002146586775779724, 0.00041672587394714355, -0.001054912805557251, 0.0, 0.0002823472023010254, 8.033588528633118e-05, -0.00029952824115753174, -0.0002972334623336792, 0.0005986988544464111, 0.000576317310333252, -0.0002795010805130005, -0.0016194581985473633, -0.000852048397064209, -0.0009236037731170654, 0.000324442982673645, -0.0017442107200622559, 0.0014023184776306152, -0.001750648021697998, 0.002367258071899414, -0.0009945929050445557, -0.0001736953854560852, -0.00037370622158050537, 0.0, -0.00015770643949508667, 4.414096474647522e-05, 0.001257181167602539, -0.00119781494140625, 0.0019215941429138184, 0.0004737377166748047, -0.00024018436670303345, 0.0011020004749298096, 0.00037626922130584717, -0.00039489567279815674, -6.136111915111542e-05, -0.0017095208168029785, 0.0002262890338897705, -0.0011263787746429443, -8.408352732658386e-05, 0.00012775138020515442, 6.684800609946251e-06, -0.0015192627906799316, -0.0001277923583984375, -0.0006739795207977295, -0.0001187548041343689, -0.00014060363173484802, 0.0003223121166229248, -0.00012976676225662231, 0.00018614530563354492, 0.0010840296745300293, 0.00022939592599868774, 0.0004411637783050537, -0.00021961331367492676, -0.001216888427734375, -0.0012375712394714355, -0.00036998093128204346, -0.0005455464124679565, -0.0011518001556396484, 0.0, 0.0, -0.0002473071217536926, 0.0001500844955444336, -0.00033333897590637207, 0.000523790717124939, 0.00044108927249908447, 0.0007835030555725098, 0.001687467098236084, 0.0009604692459106445, -9.273737668991089e-05, -0.0019294023513793945, 0.0003124922513961792, -0.001138448715209961, -3.912393003702164e-05, -0.0009535253047943115, 0.0019843578338623047, -0.00012548640370368958, -4.591234028339386e-05, 0.0009016692638397217, 0.0, 0.0009190142154693604, 0.0008280277252197266, -0.00043292343616485596, 0.0005515366792678833, 0.0003393888473510742, -6.896443665027618e-05, -0.0007433593273162842, 0.00017447024583816528, -9.6101313829422e-05, -0.00019827485084533691, 0.0017313361167907715, 0.0002484917640686035, 9.930506348609924e-05, 0.0013346672058105469, -0.0013066530227661133, 0.0, -0.0011528730392456055, -8.421018719673157e-05, 0.0011408627033233643, -0.0003429800271987915, -0.0011524558067321777, -0.00011847168207168579, 0.00033690035343170166, -0.0005369782447814941, 0.00024320930242538452, 0.0007224678993225098, 0.00018639862537384033, 0.0, -0.0009031295776367188, 0.00021781772375106812, -0.000556260347366333, 0.0007684528827667236, 0.0013202428817749023, 0.00013084709644317627, 0.0003663599491119385, -0.00035803020000457764, 0.0001216009259223938, -0.0017964839935302734, 0.0012541413307189941, -0.000697016716003418, -0.00015370547771453857, -0.0008876025676727295, -0.0005123764276504517, 0.00011651217937469482, 0.00014760345220565796, 6.874836981296539e-05, -0.0005883276462554932, 0.0005775690078735352, 0.0001777932047843933, -0.0005095005035400391, 0.0008387267589569092, -0.00032010674476623535, -6.070546805858612e-05, 0.0013279914855957031, -0.001579880714416504, -0.0002740398049354553, -0.0006185173988342285, -0.00011406838893890381, 0.00054912269115448, 0.000264488160610199, 0.0008711814880371094, 0.0006029307842254639, 0.00025759637355804443, 0.0007116794586181641, -0.0004379153251647949, -0.0006392300128936768, -0.00041624903678894043, 0.0004092603921890259, 0.0004612952470779419, 0.0010304749011993408, 0.0, 0.0005296319723129272, -0.000347822904586792, 0.00041607022285461426, 0.0, 0.0, -0.0006282031536102295, -0.00021364539861679077, -0.0011326372623443604, 0.0002503916621208191, 0.0007582008838653564, -2.9671937227249146e-05, -0.0008801519870758057, -0.004177451133728027, 0.0, -0.00027041882276535034, 0.0003713071346282959, 0.0, 0.0005301088094711304, -0.0006248950958251953, 0.0006407201290130615, 0.00012773647904396057, -0.00018643587827682495, 0.00027389824390411377, 0.0009514093399047852, -0.0005233585834503174, 0.0, -0.0009898543357849121, -0.0005027800798416138, -0.0005425363779067993, 0.001282811164855957, 0.000589221715927124, -0.0006722807884216309, 0.0010033845901489258, -0.0005714297294616699, -0.0004755854606628418, 0.0004941970109939575, 0.00012623891234397888, 0.0, -3.2813288271427155e-05, 5.699135363101959e-05, -0.00016339123249053955, -0.000467643141746521, 0.0, -0.00017292797565460205, 0.0007978379726409912, -0.0009596943855285645, -0.0005146712064743042, 3.9730221033096313e-05, 0.00015117600560188293, -0.00016547739505767822, -0.0001818537712097168, 0.00026072561740875244, 0.0005614012479782104, 0.0003883540630340576, -0.0005621016025543213, -0.00011217594146728516, -0.0005961954593658447, 0.0007762908935546875, -0.0015900135040283203, 0.000863194465637207, -0.000723719596862793, -0.0016571283340454102, -0.0004718303680419922, 0.00099143385887146, 3.372039645910263e-05, 0.0008651316165924072, -0.00031082332134246826, 0.00041869282722473145, -0.00019921362400054932, 0.0, 0.00043314695358276367, 0.0012646317481994629, -0.00023626536130905151, -3.783218562602997e-05, -0.0009209513664245605, 0.0002260357141494751, -0.0003458559513092041, 0.0006861388683319092, -0.0040863752365112305, -0.0006678104400634766, 0.0004118233919143677, 0.0006558001041412354, 0.00030937790870666504, 8.367747068405151e-05, 0.00023373961448669434, -0.0007204711437225342, 0.0006816983222961426, 0.00042329728603363037, 0.0004639625549316406, -0.0009873509407043457, -0.0006800591945648193, -0.0005727112293243408, 0.0006282925605773926, 0.0005935430526733398, 0.00013984739780426025, -0.00043451786041259766, 0.00028114020824432373, 0.00036372244358062744, 0.0002362579107284546, 0.0003244727849960327, 3.573670983314514e-05, 0.00044786930084228516, 0.0008935332298278809, -0.0015978217124938965, -0.0005019903182983398, 0.00050315260887146, -0.0008221268653869629, 0.0, 0.00016073137521743774, 0.0003115832805633545, -0.0007880330085754395, 0.0, 0.00020962953567504883, 5.908310413360596e-05, -0.00022223591804504395, -0.0002221614122390747, 0.0004464685916900635, 0.0004302859306335449, -0.0002105310559272766, -0.0012058615684509277, -0.0006353855133056641, -0.0006895065307617188, 0.00024168193340301514, -0.00130462646484375, 0.0010508298873901367, -0.0013087987899780273, 