0: [2.2776429653167725, 2.2776272296905518, 2.2857673168182373, 2.2857885360717773, 2.2858595848083496, 2.285881519317627, 2.285479784011841, 2.2840492725372314, 2.2840280532836914, 2.2838377952575684, 2.284757137298584, 2.324295997619629, 2.3243560791015625, 2.325747013092041, 2.325828790664673, 2.322852849960327, 2.322577714920044, 2.31917142868042, 2.2956063747406006, 2.294715404510498, 2.2950501441955566, 2.296268939971924, 2.2949323654174805, 2.2949891090393066, 2.278831958770752, 2.1574690341949463, 2.160460948944092, 2.160457134246826, 2.178739309310913, 2.1914830207824707, 2.1785776615142822, 2.178287982940674, 2.1781632900238037, 2.0741233825683594, 2.073636054992676, 2.051284074783325, 2.0502421855926514, 2.0502448081970215, 2.0503122806549072, 2.0435245037078857, 2.043137788772583, 2.043045997619629, 2.037642240524292, 2.040884017944336, 2.045412063598633, 2.0452773571014404, 2.0353879928588867, 2.038339853286743, 2.284471273422241, 2.253218412399292, 2.2869820594787598, 2.286355972290039, 2.2863457202911377, 2.273730516433716, 2.272899627685547, 2.2503256797790527, 2.2502431869506836, 2.256181240081787, 2.256401538848877, 2.2561135292053223, 2.2566421031951904, 2.2570559978485107, 2.256866693496704, 2.256120204925537, 2.255993604660034, 2.260401725769043, 2.2599546909332275, 2.2599434852600098, 2.2589058876037598, 2.2587733268737793, 2.3476197719573975, 2.34814453125, 2.348179817199707, 2.348172664642334, 2.3415629863739014, 2.3370089530944824, 2.340473175048828, 2.3405206203460693, 2.3387060165405273, 2.3377978801727295, 2.360253095626831, 2.3572280406951904, 2.357430934906006, 2.3561413288116455, 2.3550565242767334, 2.3342597484588623, 2.311286449432373, 2.3098249435424805, 2.3097987174987793, 2.3098461627960205, 2.3099234104156494, 2.310678243637085, 2.3114013671875, 2.3115715980529785, 2.308537483215332, 2.3084843158721924, 2.307453155517578, 2.3075296878814697, 2.3162710666656494, 2.3156213760375977, 2.2711334228515625, 2.2715067863464355, 2.271334171295166, 2.270885944366455, 2.270998477935791, 2.270899534225464, 2.2740464210510254, 2.2751142978668213, 2.2716081142425537, 2.0327672958374023, 2.032773017883301, 2.0301265716552734, 2.0301764011383057, 2.0302088260650635, 2.0301966667175293, 2.0301923751831055, 2.030402183532715, 2.0513384342193604, 2.0632612705230713, 2.0632760524749756, 2.134622573852539, 2.1335928440093994, 2.1362602710723877, 2.1364059448242188, 2.135101318359375, 2.069133758544922, 2.069265365600586, 2.0758938789367676, -0.0004680532729253173, -0.0007667698664590716, -0.006191282998770475, -0.006284913048148155, 0.4145444631576538, 0.4085816740989685, 0.39729824662208557, 0.3978933095932007, 0.4046444892883301, 0.42862454056739807, 0.44255366921424866, 0.44264498353004456, 0.4544624984264374, 0.4524405598640442, 0.4519667625427246, 0.4479163587093353, 0.4346011281013489, 0.4344177842140198, 0.4280754625797272, 0.4303658902645111, 0.3985121548175812, 0.39919787645339966, 0.40061572194099426, 0.4011704623699188, 0.40095406770706177, 0.40076249837875366, 0.3802526593208313, 0.3803134560585022, 0.3686622381210327, 0.3683948218822479, 0.41311943531036377, 0.41595131158828735, 0.41457098722457886, 0.4147605895996094, 0.4142236113548279, 0.414095938205719, 0.4141981601715088, 0.4142085909843445, 0.4139968752861023, 0.41400715708732605, 0.44853144884109497, 0.4485204517841339, 0.4465804100036621, 0.4624856412410736, 0.42782342433929443, 0.35460764169692993, 0.35420888662338257, 0.3526705503463745, 0.3549932539463043, 0.3553053140640259, 0.28073573112487793, 0.2945029139518738, 0.28953754901885986, 0.22418877482414246, 0.736088216304779, 0.7341659069061279, 0.7339256405830383, 0.7338558435440063, 0.7082933187484741, 0.7083550691604614, 0.7073360681533813, 0.7103981971740723, 0.7059969305992126, 0.7085668444633484, 0.7090172171592712, 0.7089982032775879, 0.7086486220359802, 0.7081731557846069, 0.7083917856216431, 0.7070680260658264, 0.687809944152832, 0.6875737309455872, 0.6879271268844604, 0.6879622936248779, 0.8507318496704102, 0.8581069707870483, 0.8743972182273865, 0.8743990063667297, 0.8767437934875488, 0.8398252725601196, 0.8383227586746216, 0.8383938074111938, 0.846278965473175, 0.8462291955947876, 0.7771813273429871, 0.7771900296211243, 0.7766808867454529, 0.7767912149429321, 0.7968194484710693, 0.7968189716339111, 0.7967965602874756, 0.7982069253921509, 0.798180103302002, 0.7981565594673157, 0.798789918422699, 0.7988489270210266, 0.8406090140342712, 0.819568395614624, 0.8186215758323669, 0.8108326196670532, 1.5467904806137085, 1.5467922687530518, 1.5465326309204102, 1.5465288162231445, 1.6012873649597168, 1.6013048887252808, 1.5961072444915771, 1.5961897373199463, 1.6008026599884033, 1.600759744644165, 1.6050466299057007, 1.6963645219802856, 1.6246774196624756, 1.6243629455566406, 1.6253142356872559, 1.625009536743164, 1.6177438497543335, 1.6161613464355469, 1.7101881504058838, 1.7175933122634888, 1.7165435552597046, 1.7167421579360962, 2.04263973236084, 2.042454719543457, 2.032703161239624, 2.0328540802001953, 2.150519847869873, 2.1511127948760986, -0.1256221979856491, -0.12560676038265228, -0.12224747985601425, -0.11605454981327057, -0.09115125238895416, -0.09250843524932861, -0.5190589427947998, -0.5190704464912415, -0.5485257506370544, -0.5476292967796326, -0.6032892465591431, -0.6017623543739319, -0.5789267420768738, -0.5790367126464844, -0.5769579410552979, -0.5769047737121582, -0.5801205635070801, -0.44743749499320984, -0.5284635424613953, -0.5284804701805115, -0.5285154581069946, -0.5299891233444214, -1.3919357061386108, -1.3950046300888062, -1.3944852352142334, -1.3944827318191528, -1.7425096035003662, -1.7425038814544678, -1.6060742139816284, -1.6135766506195068, -1.6135194301605225, -1.7081210613250732, -1.7080342769622803, -1.7080230712890625, -1.707891583442688, -1.7113131284713745, -1.7099220752716064, -1.7098908424377441, -1.7106165885925293, -1.7104922533035278, -1.7104889154434204, -1.7105216979980469, -1.7106276750564575, -1.7106599807739258, -1.7161530256271362, -1.7163939476013184, -1.7162641286849976, -1.716262698173523, -1.760724425315857, -1.7596890926361084, -1.772803783416748, -1.7734630107879639, -1.7734674215316772, -1.7735487222671509, -1.7735817432403564, -1.775547742843628, -1.7727103233337402, -1.7719006538391113, -1.7687047719955444, -1.7687182426452637, -1.7391806840896606, -1.739208698272705, -1.7392362356185913, -1.7393265962600708, -1.7396962642669678, -1.7392892837524414, -1.7398799657821655, -1.7368876934051514, -1.7409358024597168, -1.7407461404800415, -1.74056077003479, -1.7422888278961182, -1.6400187015533447, -1.639970064163208, -1.648353934288025, -1.6530547142028809, -1.641428828239441, -1.641198992729187, -1.6409755945205688, -1.6507833003997803, -1.6505427360534668, -1.650457739830017, -1.65115487575531, -1.6512771844863892, -1.7089605331420898, -1.7091069221496582, -1.7090052366256714, -1.709963083267212, -1.7037259340286255, -1.7037873268127441, -1.867003083229065, -1.8670743703842163, -1.8634172677993774, -1.8634246587753296, -1.862892746925354, -1.8638917207717896, -1.756967544555664, -1.7582560777664185, -1.7592171430587769, -1.759244680404663, -1.7556430101394653, -1.756078839302063, -1.755998969078064, -1.7560051679611206, -1.7564500570297241, -1.7553660869598389, -1.755574107170105, -1.7555397748947144, -1.7562429904937744, -1.7562429904937744, -1.7562191486358643, -1.7563730478286743, -1.7170047760009766, -1.717024564743042, -1.7201673984527588, -1.7202739715576172, -1.7190842628479004, -1.7190816402435303, -1.726475477218628, -1.7265193462371826, -1.4952690601348877, -1.4953502416610718, -1.4953469038009644, -1.4952216148376465, -1.495243787765503, -1.4953471422195435, -1.496536374092102, -1.4964547157287598, 0.00556988688185811, 0.005550534464418888, 0.0091690169647336, 0.009259872138500214, -0.015815936028957367, -0.015963952988386154, 0.009033378213644028, -0.10356776416301727, -0.10335100442171097, -0.1056475043296814, -0.09775194525718689, -0.09771107137203217, -0.11674497276544571, -0.11665651202201843, -0.11674509197473526, -0.11674285680055618, -0.11581820249557495, -0.11921246349811554, -0.119015172123909, -0.11060022562742233, -0.14624720811843872, -0.1474379450082779, -0.1474257856607437, -0.129349485039711, -0.1294924020767212, -0.1307287961244583, -0.13179828226566315, -0.13155382871627808, -0.12438289821147919, -0.12459579110145569, -0.12083378434181213, -0.12250165641307831, -0.1224866583943367, -0.0556456483900547, 0.2609555721282959, 0.2610849440097809, 0.828051745891571, 0.8273515701293945, 0.8270657062530518, 0.827100932598114, 0.8316500186920166, 0.7542949318885803, 0.7496036887168884, 0.7496054768562317, 0.7495356798171997, 0.7495344877243042, 0.7537216544151306, 0.754344642162323, 0.7560800313949585, 0.7588518857955933, 0.7663145661354065, 0.7663792967796326, 0.7730926275253296, 0.7853501439094543, 0.7853280901908875, 0.785325288772583, 0.7807682752609253, 0.7814006805419922, 0.7816174030303955, 0.7825738191604614, 0.7868954539299011, 0.7870515584945679, 0.7353144288063049, 0.7353740930557251, 0.734455943107605, 0.7300571203231812, 0.7301011085510254, 0.7301247119903564, 0.736178994178772, 0.73671555519104, 0.7368465662002563, 0.7378181219100952, 0.7381281852722168, 0.7378625273704529, 0.7379190921783447, 0.8217482566833496, 0.8219470977783203, 0.8219817876815796, 0.8219688534736633, 0.8568594455718994, 0.8586799502372742, 0.8588611483573914, 0.8590545058250427, 0.859071671962738, 0.8765165209770203, 0.8482237458229065, 0.7513101100921631, 0.7510930299758911, 0.7375596165657043, 0.7368714809417725, 0.7391510009765625, 0.7395962476730347, 0.7395563125610352, 0.7369664907455444, 0.7369701862335205, 0.7306893467903137, 1.0550276041030884, 1.0544209480285645, 1.0397624969482422, 1.03976309299469, 1.039512038230896, 1.0079705715179443, 1.0080541372299194, 1.0131503343582153, 1.2840685844421387, 1.299551248550415, 1.3000074625015259, 1.2995504140853882, 1.29947829246521, 1.3021268844604492, 1.309287190437317, 1.3101718425750732, 1.3164794445037842, 1.3138765096664429, 1.3159338235855103, 1.3163669109344482, 0.7811353206634521, 0.8052807450294495, -0.14495469629764557, -0.14548112452030182, -0.28559350967407227, -0.28558892011642456, -0.29507213830947876, -0.29598039388656616, -0.297061026096344, -0.3356477916240692, -0.3359670639038086, -0.33625298738479614, -0.06399926543235779, -0.06310635805130005, -0.2832149565219879, -0.284274160861969, -0.26844003796577454, -0.3177608549594879, -0.31830519437789917, -0.3183061182498932, -0.31795552372932434, -0.317125529050827, -0.3170543909072876, -0.3167334198951721, -0.3175864517688751, -0.31671205163002014, -0.316676527261734, -0.31348100304603577, -0.2632584869861603, -0.2616153657436371, -0.23512881994247437, -0.23598593473434448, -0.24383310973644257, -0.2445346713066101, -0.24453923106193542, -0.24446335434913635, -0.2507533133029938, -0.26032933592796326, -0.2598259150981903, -0.2568691670894623, -0.018498733639717102, -0.018153095617890358, -0.018337327986955643, 0.005778178572654724, 4.327454090118408, 4.327417373657227, 4.3263421058654785, 4.41796875, 4.420662879943848, 4.412426471710205, 4.412396430969238, 4.410353183746338, 4.409896373748779, 4.410256862640381, 4.4067463874816895, 4.406625747680664, 4.406867027282715, 4.400272846221924, 4.367690086364746, 4.275955677032471, 4.293444633483887, 4.10653018951416, 4.106619358062744, 4.082624912261963, 4.076990604400635, 3.9842846393585205, 3.984025239944458, 3.9840359687805176, 3.9837403297424316, 3.983694076538086, 3.9835681915283203, 3.983386993408203, 3.983242988586426, 3.983297348022461, 3.957373857498169, 3.9569456577301025, 3.9663796424865723, 3.966230869293213, 3.9053361415863037, 3.901050567626953, 3.9019064903259277, 3.88912296295166, 3.890279769897461, 3.890880584716797, 3.899635076522827, 3.899862051010132, 3.8997602462768555, 3.899810791015625, 3.9286582469940186, 3.9291374683380127, 3.9262475967407227, 3.9280776977539062, 3.934373140335083, 3.934434413909912, 3.8291900157928467, 3.8224899768829346, 3.823357582092285, 3.8213999271392822, 3.823528289794922, 3.821727752685547, 3.8204123973846436, 3.820547342300415, 3.80940318107605, 3.8091189861297607, 3.8080081939697266, 3.8001530170440674, 3.8027493953704834, 3.7227537631988525, 3.7530088424682617, 3.753025531768799, 3.687589645385742, 3.6493642330169678, 3.649374485015869, 3.878403663635254, 4.04685640335083, 4.045453071594238, 4.046544075012207, 4.046793460845947, 4.046414852142334, 4.048961162567139, 4.049300670623779, 4.049713134765625, 3.9925107955932617, 4.085452556610107, 4.08550500869751, 4.070492267608643, 4.072003364562988, 4.03038215637207, 4.042779922485352, 3.7574641704559326, 3.636895179748535, 3.6090917587280273, 3.609027862548828, 3.611327648162842, 3.610835552215576, 3.3128092288970947, 3.3143258094787598, 3.314511775970459, 3.314610481262207, 3.314617156982422, 0.00016541089280508459, -0.000437391921877861, 0.0031868545338511467, -0.010268447920680046, -0.01791994273662567, -0.027675867080688477, -0.027208808809518814, -0.034727200865745544, -0.03543289750814438, -0.03602718934416771, -0.03602976351976395, -0.03597366064786911, 0.02796235680580139, 0.0485149621963501, 0.04872039705514908, 0.04857160896062851, 0.048462092876434326, 0.04809429496526718, 0.06281987577676773, -0.5504510998725891, -0.5516142249107361, -0.5541515350341797, -0.5539727807044983, -0.5544482469558716, -0.5556364059448242, -0.530960202217102, -0.5311099886894226, -0.4817832112312317, -0.48149341344833374, -0.4814058542251587, -0.13429602980613708, -0.13422247767448425, -0.13425590097904205, -0.1338484287261963, -0.13358362019062042, -0.13466446101665497, -0.134609654545784, -0.1336308717727661, -0.13413691520690918, -0.11025838553905487, -0.12045413255691528, -0.1208677813410759, -0.12160821259021759, -0.12160386145114899, -0.12160457670688629, -0.12239100784063339, -0.12223589420318604, -0.12222111970186234, -0.08322755992412567, -0.08303540199995041, 0.32994601130485535, 0.33045172691345215, 0.33047640323638916, 0.3207149803638458, 0.3347514569759369, 0.33641916513442993, 0.33075064420700073, 0.33698850870132446, 0.33656632900238037, 0.3895036280155182, 0.3354852497577667, 0.33456599712371826, 0.33453068137168884, 0.33432072401046753, 0.33551716804504395, 0.3349234163761139, 0.3425716757774353, 0.34275633096694946, 0.32047268748283386, 0.32012292742729187, 0.3199935257434845, 0.3198215663433075, 0.3440207839012146, 0.3448909521102905, 0.344585120677948, 0.3427491784095764, 0.32105129957199097, 0.32118016481399536, 0.29838624596595764, 0.2987830638885498, 0.2747201919555664, 0.2745251953601837, 0.2629082500934601, 0.2640872001647949, 0.26410973072052, 0.2630273103713989, 0.25580763816833496, 0.2572776973247528, 0.25821614265441895, 0.3006453812122345, 0.30293452739715576, 0.30787086486816406, 0.30555957555770874, 0.30686941742897034, 0.3078995645046234, 0.30860593914985657, 0.30471503734588623, 0.30451151728630066, 0.3032081127166748, 0.2996000349521637, -0.3371448218822479, -0.33659788966178894, -0.3399925231933594, -0.34005945920944214, -0.2964422404766083, -0.29551512002944946, -0.29557567834854126, -0.2955697774887085, 1.0989093780517578, 1.1231497526168823, 1.1224257946014404, 1.1277974843978882, 1.1323672533035278, 1.1327779293060303, 1.1304702758789062, 1.1318182945251465, 1.1324864625930786, 1.1324774026870728, 1.1337891817092896, 1.134277105331421, 1.269773006439209, 1.2697467803955078, 1.263235330581665, 1.26322603225708, 1.2631168365478516, 1.2631359100341797, 1.2639328241348267, 1.2726101875305176, 0.05898470804095268, 0.061643362045288086, 0.05738226696848869, 0.05955084413290024, 0.05951674282550812, 0.05950170010328293, 0.05974339693784714, 0.08720474690198898, 0.08695104718208313, 0.08612558245658875, -1.3389900922775269, -1.3389767408370972, -1.3389256000518799, -1.3388909101486206, -1.341480016708374, -1.3414121866226196, -1.3330399990081787, -1.3329963684082031, -1.3203530311584473, -1.3203130960464478, -1.3624613285064697, -1.3790695667266846, -1.4647972583770752, -1.4648067951202393, -1.473589539527893, -1.473609209060669, -1.4735331535339355, -1.473383903503418, -1.4722732305526733, -1.4723856449127197, -1.4722952842712402, -1.456455945968628, -1.454835295677185, -1.5100159645080566, -1.5107311010360718, -1.5109374523162842, -1.51124107837677, -1.493855595588684, -1.490447759628296, -1.4900121688842773, -1.7530094385147095, -1.753005027770996, -1.7518150806427002, -1.7430195808410645, -1.743395447731018, -1.7589738368988037, -1.7587331533432007, -1.6974188089370728, -1.6974937915802002, -1.7329468727111816, -1.7317544221878052, -1.7318923473358154, -1.7325856685638428, -1.7326650619506836, -1.7262723445892334, -1.7250864505767822, -1.7246577739715576, -1.7240411043167114, -1.7240493297576904, -1.728581428527832, -1.6977927684783936, -1.6979432106018066, -1.6566405296325684, -1.656459093093872, 0.6291366219520569, 0.6289014220237732, 0.6289078593254089, 0.6288992166519165, 1.2905536890029907, 1.3242334127426147, 1.3225648403167725, 1.322572112083435, 1.3258562088012695, 1.3259261846542358, 1.3257304430007935, 0.9446195960044861, 0.9069808125495911, 0.9192309975624084, 0.9225534796714783, 0.9225950241088867, 0.9300508499145508, 0.9300619959831238, 0.9154933094978333, 0.9152096509933472, 0.9153852462768555, 0.915890097618103, 0.7995438575744629, 0.800558865070343, 0.8915561437606812, 0.8820115327835083, 0.8994847536087036, 0.8985904455184937, 0.8985179662704468, 1.4016163349151611, 1.401394009590149, 1.404566764831543, 1.3915557861328125, 1.3918440341949463, 1.6451421976089478, 1.6103575229644775, 1.6126219034194946, 1.6116876602172852, 1.5938788652420044, 1.5939360857009888, 1.5937672853469849, 1.5933864116668701, 1.5922335386276245, 1.5923353433609009, 1.6226308345794678, 1.6225852966308594, 1.7473852634429932, 1.7348649501800537, 1.7348700761795044, 1.7319308519363403, 1.7324976921081543, 1.7323392629623413, 1.7273215055465698, 1.7272021770477295, 1.575826644897461, 1.5755553245544434, 1.566880226135254, 1.6410305500030518, 1.6060216426849365, 1.6062134504318237, 0.834715723991394, 0.8245124816894531, 0.8190547823905945, 0.8037580847740173, 0.002019421197474003, 0.00231083482503891, 0.002770562656223774, 0.1218772754073143, 0.12499044090509415, 0.12462165951728821, 0.03947445750236511, 0.18119488656520844, 0.1812342405319214, 0.18131905794143677, 0.18768686056137085, 0.1877533197402954, 0.18835437297821045, 0.18898874521255493, 0.20850828289985657, 0.20862866938114166, 0.21524283289909363, 0.21636591851711273, 0.2162557989358902, 0.22015300393104553, 1.0790756940841675, 1.0791350603103638, 1.0701035261154175, 1.0700653791427612, 1.0697932243347168, 1.0774869918823242, 1.061434030532837, 1.0615732669830322, 0.6734555959701538, 0.6739786267280579, 0.6740403175354004, 0.6741000413894653, 0.6744545698165894, 0.6739404797554016, 0.6742876172065735, 0.6779189109802246, 0.6775912642478943, 0.710810124874115, 0.7204848527908325, 0.7273558378219604, 0.7328338623046875, 0.7326688170433044, 0.7332053184509277, 0.6649630069732666, 0.6645666360855103, 0.6645836234092712, 0.6644483208656311, 0.6592758297920227, 0.6600455641746521, 0.6600185036659241, 0.6549810767173767, 0.6622609496116638, 0.6592100858688354, 0.6581774950027466, 0.6581709384918213, 0.6581940650939941, 0.6570420861244202, 0.6945255994796753, 0.6955690979957581, 0.7014281749725342, 0.7551275491714478, 0.7551448345184326, 0.768115758895874, 0.76816326379776, 0.7721183896064758, 0.7721776366233826, 0.7721776366233826, 0.7735682129859924, 0.990944504737854, 0.9820839762687683, 0.18068060278892517, 0.18275871872901917, 0.18092718720436096, 0.17924514412879944, -0.08182255923748016, -0.08173287659883499, -0.08174914121627808, -0.08262890577316284, -0.08032349497079849, -0.08028827607631683, -0.079588882625103, -0.08902450650930405, -0.10017211735248566, -0.09996805340051651, -0.10232406854629517, -0.10251876711845398, -0.10282175242900848, -0.06527674198150635, -0.06431818753480911, -0.06519222259521484, -0.05870161950588226, -0.05869491398334503, -0.05701304227113724, -0.05895450711250305, -0.05838176608085632, -0.08052347600460052, -0.08254704624414444, -0.08255070447921753, -0.08254408836364746, -0.2351498007774353, -0.22636757791042328, -0.22721374034881592, -0.254923939704895, -0.2581472396850586]
1: [-1.6315530956489965e-05, 5.4063915740698576e-05, 5.384180985856801e-05, 5.684626376023516e-05, 4.761981836054474e-05, 5.79522893531248e-05, 5.764109664596617e-05, 5.6063319789245725e-05, 5.618017166852951e-05, 5.608570063486695e-05, 5.666803917847574e-05, -2.9501126846298575e-05, -2.9504182748496532e-05, -2.5179091608151793e-05, -2.5577042833901942e-05, -2.5905541406245902e-05, -4.6078366722213104e-05, -4.5534012315329164e-05, -4.933022864861414e-05, -5.4215051932260394e-05, -5.401115049608052e-05, 4.5432301703840494e-05, 3.6517041735351086e-05, 3.7191552110016346e-05, 0.0004253140650689602, -0.0001654340885579586, -0.00017418607603758574, -0.00017418607603758574, 5.400687223300338e-05, -1.4563673175871372e-05, -2.5783723685890436e-05, -1.740164589136839e-05, -1.4112622011452913e-05, -6.072269752621651e-05, -0.0001440232153981924, -0.00020025577396154404, -0.00020209630019962788, -0.00019898917526006699, -0.00020942441187798977, -0.00021193851716816425, -0.00021297368220984936, -0.00021984660997986794, -0.00022298982366919518, -0.00022546574473381042, -0.0002243306953459978, -0.00022426852956414223, -0.00023875059559941292, -0.00024766987189650536, 5.7586003094911575e-05, 6.330618634819984e-05, 6.286241114139557e-05, 7.97775574028492e-05, 8.002249523997307e-05, 0.00013575213961303234, 0.00013573886826634407, 8.22148285806179e-05, 8.446397259831429e-05, 8.532963693141937e-05, 8.491473272442818e-05, 8.463673293590546e-05, 6.892858073115349e-05, 6.396463140845299e-05, 3.5836827009916306e-05, -0.00017478177323937416, -0.00012719258666038513, -0.0001257280819118023, -0.00012441817671060562, -0.00012441258877515793, 0.0007788385264575481, 0.0007625524885952473, 0.0005696928128600121, 0.0005690790712833405, 0.0005689463578164577, 0.0005689957179129124, 0.0005678897723555565, 0.0007487651892006397, 0.000537751242518425, 0.000537102110683918, 0.0005384734831750393, 0.0005408967845141888, 0.010232769884169102, 0.010328700765967369, 0.010329023003578186, 0.01032491959631443, 0.01032480038702488, 0.010380411520600319, 0.010396396741271019, 0.01039836835116148, 0.01043617818504572, 0.01043589599430561, 0.010436185635626316, 0.010437391698360443, 0.01043616235256195, 0.010438358411192894, 0.01043928973376751, 0.010441739112138748, 0.010441704653203487, 0.010434038937091827, 0.010434182360768318, 0.010478107258677483, 0.010421998798847198, 0.010422025807201862, 0.010421773418784142, 0.010421032086014748, 0.01041528768837452, 0.010415993630886078, 0.010445881634950638, 0.0104427020996809, 0.010285133495926857, 0.010376708582043648, 0.010375799611210823, 0.010376055724918842, 0.010375386103987694, 0.01037455815821886, 0.010373716242611408, 0.010373491793870926, 0.010375327430665493, 0.010603489354252815, 0.01252414658665657, 0.01252654381096363, 0.012050892226397991, 0.011975172907114029, 0.01197202317416668, 0.01197210606187582, 0.011969061568379402, 0.011979539878666401, 0.011973394080996513, 0.011987768113613129, -5.677713943441631e-07, -9.20517686608946e-06, -9.816566489462275e-06, -1.2470125511754304e-05, 0.0014926078729331493, 0.0014889376470819116, 0.0018129394156858325, 0.0018123554764315486, 0.0018106731586158276, 0.0018079542787745595, 0.0019935471937060356, 0.001993556274101138, 0.0020058597438037395, 0.002002846449613571, 0.0020037207286804914, 0.0021340816747397184, 0.002176867565140128, 0.002168940380215645, 0.0021211926359683275, 0.0021259854547679424, 0.002197872381657362, 0.002198026515543461, 0.0021715802140533924, 0.0021713441237807274, 0.0021670497953891754, 0.00216141389682889, 0.002128376392647624, 0.0021284264512360096, 0.0022166045382618904, 0.002214209409430623, 0.002216575900092721, 0.0022754394449293613, 0.0022398135624825954, 0.002237629611045122, 0.0022363499738276005, 0.0022362261079251766, 0.002236295025795698, 0.0022363662719726562, 0.002236326690763235, 0.0022364971227943897, 0.0022716233506798744, 0.002282793167978525, 0.0022829067893326283, 0.0022663266863673925, 0.0022272979840636253, 0.0023049009032547474, 0.002304770052433014, 0.002291684038937092, 0.0022868155501782894, 0.0022878912277519703, -0.0014491705223917961, -0.0014562960714101791, -0.0012078629806637764, -0.0011677797883749008, -0.00150198582559824, -0.001500469632446766, -0.0015009306371212006, -0.0015012184157967567, -0.0015085935592651367, -0.0014327075332403183, -0.0014615533873438835, -0.0013462556526064873, -0.0013389000669121742, -0.001328825019299984, -0.0013226978480815887, -0.001322813332080841, -0.0013239188119769096, -0.0013239961117506027, -0.0013238843530416489, -0.001325385645031929, -0.0012615332379937172, -0.0012568775564432144, -0.0012573963031172752, -0.0012537799775600433, -0.0009470060467720032, -0.0009535816498100758, -0.00093131884932518, -0.0009321887046098709, -0.0008562421426177025, -5.35142607986927e-05, -5.34961000084877e-05, -6.434274837374687e-05, 0.0012835902161896229, 0.0012833867222070694, 0.0013269460760056973, 0.0013271169736981392, 0.001327145379036665, 0.001325562596321106, 0.0006634145975112915, 0.0006635831668972969, 0.000664721243083477, 0.0006689960137009621, 0.0006696935743093491, 0.0006693433970212936, 0.0006765085272490978, 0.0006766696460545063, 0.00067181047052145, 0.0007125954143702984, 0.0007153237238526344, 0.0007166890427470207, 0.00019390322268009186, 0.00021235598251223564, 0.00021074386313557625, 0.00021097250282764435, -0.0060499366372823715, -0.006049519404768944, -0.004504676908254623, -0.004506245721131563, -0.00450197234749794, -0.004501887131482363, -0.004490097519010305, -0.004522481933236122, -0.004486738704144955, -0.0044624581933021545, -0.004464046098291874, -0.004464485216885805, -0.005753171630203724, -0.005753095727413893, -0.0049539729952812195, -0.004951271694153547, -0.004950189962983131, -0.004974853713065386, -0.004343165084719658, -0.004342737607657909, -0.00426788255572319, -0.00426817312836647, -0.004186793230473995, -0.004186784848570824, 0.0002212521358160302, 0.00022109666315373033, 0.00022009230451658368, 0.00019320292631164193, -5.201988824410364e-05, -5.118603439768776e-05, 0.00010429598478367552, 0.0001043306547217071, 9.70072578638792e-05, 9.720516391098499e-05, 0.00043963571079075336, 0.0004417099989950657, -0.0008360501378774643, -0.0008350193966180086, -0.0008368461858481169, -0.000837098341435194, -0.0008376659825444221, -0.0008391889277845621, -0.0009071927051991224, -0.0009088264778256416, -0.0009089084342122078, -0.0009174845181405544, -9.186123497784138e-05, -8.267373777925968e-05, -8.086813613772392e-05, -8.101225830614567e-05, 0.0008108885958790779, 0.0008082189597189426, 0.0006021843291819096, 0.0006033689714968204, 0.0005992106162011623, 0.0005669305101037025, 0.0005671526305377483, 0.0005671149119734764, 0.000567867886275053, 0.0005590100772678852, 0.0005584121681749821, 0.0005589020438492298, 0.0005578729324042797, 0.0005574650131165981, 0.0005689030513167381, 0.0005689794197678566, 0.0005676783621311188, 0.000567468348890543, 0.0006120502948760986, 0.0006113350391387939, 0.0006113555282354355, 0.0006118356250226498, 0.0006219944916665554, 0.0006204172968864441, 0.0008214856497943401, 0.0008210544474422932, 0.0008208202198147774, 0.0008271187543869019, 0.0008265618234872818, 0.0008308119140565395, 0.000833551399409771, 0.0008318913169205189, 0.0008340845815837383, 0.0008331025019288063, 0.0006311433389782906, 0.0006308769807219505, 0.0006506983190774918, 0.0006466871127486229, 0.0006404020823538303, 0.0006383229047060013, 0.0006400551646947861, 0.0006428463384509087, 0.0006349794566631317, 0.0006341580301523209, 0.0006673568859696388, 0.0006674919277429581, 0.00046649016439914703, 0.0004663271829485893, 0.00044912658631801605, 0.00044958945363759995, 0.0004463498480618, 0.00042803771793842316, 0.00042663048952817917, 0.0004326784983277321, 0.0004284726455807686, 0.00042841117829084396, 0.00041259080171585083, 0.0004122769460082054, 0.0005059069953858852, 0.0005057482048869133, 0.0005033267661929131, 0.0005010636523365974, 0.0005543096922338009, 0.0005505825392901897, 0.0005245357751846313, 0.0005240566097199917, 0.0005267099477350712, 0.000526671763509512, 0.0005246829241514206, 0.0005162595771253109, 0.00023168092593550682, 0.00023312773555517197, 0.00023956038057804108, 0.00024274922907352448, 0.00024302257224917412, 0.00024290941655635834, 0.00024179136380553246, 0.00024325121194124222, 0.000247457530349493, 0.00024777837097644806, 0.0002441932447254658, 0.00024385424330830574, 0.00024231383576989174, 0.00024197902530431747, 0.0002413005568087101, 0.0002546892501413822, 0.00027673179283738136, 0.0002766558900475502, 0.0002834019251167774, 0.00027966639026999474, 0.00027600862085819244, 0.0002759448252618313, 0.00030420999974012375, 0.0003042556345462799, 0.00025438424199819565, 0.0002542240545153618, 0.0002542063593864441, 0.00025421101599931717, 0.0002638353034853935, 0.00026462040841579437, 0.00026364997029304504, 0.0002626366913318634, -7.388706580968574e-05, -7.445503433700651e-05, -7.125733827706426e-05, -7.16033173375763e-05, 6.23278901912272e-06, 7.04995181877166e-06, 9.065763151738793e-05, 0.00029399010236375034, 0.00030340172816067934, 0.0003020474687218666, 0.00029722467297688127, 0.0003077313012909144, 0.00023290090030059218, 0.0002323075314052403, 0.00023256872373167425, 0.00023258087458088994, 0.0002313248551217839, 0.0002265926741529256, 0.0002264413342345506, 0.0002369988796999678, -9.366427548229694e-06, -8.433315088041127e-06, -9.892159141600132e-06, 8.05352465249598e-06, 7.502079824917018e-06, 1.700129359960556e-05, 2.845493145287037e-05, 2.8392125386744738e-05, 3.9834907511249185e-05, 3.995953011326492e-05, 0.000446799531346187, 0.00044699630234390497, 0.0004449538537301123, 0.0005382810486480594, 0.0006920435698702931, 0.0006955967983230948, 0.0008947139140218496, 0.0008980149868875742, 0.0008980785496532917, 0.0008942726999521255, 0.000879999715834856, 0.0010001545306295156, 0.0009962241165339947, 0.000996250193566084, 0.0009966192301362753, 0.0009965603239834309, 0.000973996240645647, 0.000979541102424264, 0.000980112235993147, 0.0009803574066609144, 0.000978174270130694, 0.00097887241281569, 0.0009778420208021998, 0.000800286652520299, 0.0007996185449883342, 0.0007997257634997368, 0.0008096549427136779, 0.0008098202524706721, 0.0008038370870053768, 0.0007897811010479927, -0.00010845554061233997, -0.00010815239511430264, -0.00029883929528295994, -0.00029806955717504025, -0.0003243531100451946, -0.0003248548600822687, -0.00032406230457127094, -0.0003223799867555499, -0.0003211153671145439, -0.0002073737559840083, -0.00020804000087082386, -0.00020809215493500233, -0.00020486162975430489, -0.0002004242269322276, -0.00019770232029259205, -0.00015536556020379066, -0.00016153953038156033, -0.00016150018200278282, -0.0001615497749298811, -0.0001713847741484642, -8.35927203297615e-05, -8.409842848777771e-05, -8.786888793110847e-05, -8.788309060037136e-05, -0.00034317304380238056, -0.000344456871971488, 0.00044616684317588806, 0.00044585089199244976, 0.001268389169126749, 0.001309976913034916, 0.0012968250084668398, 0.0012968007940798998, 0.001297252019867301, 0.0012958238366991282, 0.0012958063744008541, 0.001298180315643549, 0.0007954579778015614, 0.0007976533379405737, 0.0008167626801878214, 0.0008095181547105312, 0.0008083442226052284, 0.0008766084210947156, 0.0008778538322076201, 0.0008788589620962739, 0.000989436754025519, 4.3777807150036097e-05, 4.329206421971321e-05, 4.57206042483449e-05, 4.932191222906113e-05, -3.305845893919468e-06, 0.00106861162930727, 0.0010703759035095572, 0.0010395206045359373, 0.0009640941862016916, 0.0009639066411182284, 0.0009637578623369336, 0.0007664086297154427, 0.0007654543151147664, 0.0002206166973337531, 0.0002202661707997322, 0.0003861990990117192, 0.0003860390279442072, 0.00035896123154088855, 0.0003565059741958976, 0.0003555871080607176, 0.0003272435278631747, 0.00032768602250143886, 0.0003272765898145735, -0.00031463211053051054, -0.00031586457043886185, -0.00017013662727549672, -0.0001651783677516505, -0.00013484767987392843, -0.00013393317931331694, -9.84960061032325e-05, -9.710410085972399e-05, -9.726585994940251e-05, -9.557938028592616e-05, -9.557582961861044e-05, -9.703950490802526e-05, -0.0001065406104316935, -0.00010360403393860906, -0.00010714522795751691, -0.00012757128570228815, -0.0005589935462921858, -0.000557678984478116, -0.0005268064560368657, -0.0005278158350847661, -0.0004898580373264849, -0.0004926477558910847, -0.000499306246638298, -0.000494995852932334, -0.0004958059871569276, -0.00047663634177297354, -0.00047736274427734315, -0.0004792687250301242, -0.0005990571808069944, -0.0005993282538838685, -0.0006716286297887564, -0.0006446728366427124, -0.0015320435632020235, -0.0015308980364352465, -0.0015317803481593728, -0.0015036447439342737, -0.0015065850457176566, -0.0015186639502644539, -0.001518032979220152, -0.0015186754753813148, -0.0015193694271147251, -0.0015197776956483722, -0.0013609158340841532, -0.0013327845372259617, -0.0013331561349332333, -0.001332868356257677, -0.0008712210110388696, -0.0010343310423195362, -0.001032637432217598, -0.0009197795297950506, -0.0009204296511597931, -0.0012040332658216357, -0.0012237473856657743, -0.0012047711061313748, -0.001205694628879428, -0.0012081916211172938, -0.0012075826525688171, -0.0012073415564373136, -0.0012101921020075679, -0.001210394431836903, -0.0012104762718081474, -0.0012107216753065586, -0.0012049770448356867, -0.001206505112349987, -0.0011670306557789445, -0.0011623231694102287, -0.0009895045077428222, -0.0010031764395534992, -0.001001668511889875, -0.0009752744808793068, -0.0011562865693122149, -0.0011563204461708665, -0.0012692740419879556, -0.0012691824231296778, -0.0013015451841056347, -0.0013013160787522793, -0.002124558901414275, -0.0021103564649820328, -0.002097423654049635, -0.002126752631738782, -0.002101287944242358, -0.0021006460301578045, -0.0021871826611459255, -0.002193985739722848, -0.0021129248198121786, -0.0021277936175465584, -0.0020989568438380957, -0.0021001319400966167, -0.00210229167714715, -0.0021070013754069805, -0.002102878876030445, -0.0020738118328154087, -0.002044755034148693, -0.0020462307147681713, -0.0020474870689213276, -0.0019246770534664392, -0.0018902296433225274, -0.0018906735349446535, -0.001999758882448077, -0.0020424919202923775, -0.002034801756963134, -0.0019601196981966496, -0.0017868643626570702, -0.001782621955499053, -0.0017810072749853134, -0.0017800682689994574, -0.001780474092811346, -0.0017741089686751366, -0.0017555314116179943, -0.0017546582967042923, -0.0017800815403461456, -0.0018619380425661802, -0.00186057947576046, -0.0019072587601840496, -0.0015937809366732836, -0.0017200203146785498, -0.0017681668978184462, -0.0017635365948081017, -0.0018542588222771883, -0.0018245554529130459, -0.0018245135433971882, -0.0018861442804336548, -0.0018907515332102776, -0.001395750092342496, -0.0013940420467406511, -0.001393074868246913, -0.0013933368027210236, -0.001378191402181983, 2.6527573027124163e-07, 8.206581696867943e-06, 5.55283622816205e-06, 2.1432642824947834e-06, -3.893356188200414e-05, -4.148983862251043e-05, -8.28829943202436e-05, -9.42990300245583e-05, -9.430834325030446e-05, -9.399835835210979e-05, -7.331024971790612e-05, -7.313181413337588e-05, 3.834342351183295e-06, -3.239054058212787e-05, -3.238841600250453e-05, -3.226086846552789e-05, -5.71206328459084e-06, 1.4223478501662612e-06, 1.619686372578144e-05, 0.0003762089181691408, 0.0005699095781892538, 0.0005554937524721026, 0.0005894645000807941, 0.0005856215138919652, 0.0006674991454929113, 0.0015219124034047127, 0.0016562361270189285, 0.0016700365813449025, 0.0016155170742422342, 0.0016229418106377125, 0.0008396137272939086, 0.0008394496981054544, 0.0008386491681449115, 0.0008379345526918769, 0.00111280323471874, 0.0011130367638543248, 0.0011129842605441809, 0.0011163093149662018, 0.0011161332949995995, 0.0010733224917203188, 0.001153338118456304, 0.001150948228314519, 0.001144616981036961, 0.0011446576099842787, 0.0011446529533714056, 0.0011501178378239274, 0.0011502592824399471, 0.0011504406575113535, 0.002461574040353298, 0.002408845815807581, 0.0016701958375051618, 0.0016705937450751662, 0.0016706997994333506, 0.0016535400645807385, 0.0016435207799077034, 0.0016430335817858577, 0.0016188432928174734, 0.0016046015080064535, 0.0016020267503336072, 0.0014260218013077974, 0.0014800208155065775, 0.0014813212910667062, 0.001477397745475173, 0.0014766640961170197, 0.0014974569203332067, 0.0014995635719969869, 0.0014844894176349044, 0.0014829982537776232, 0.0014806378167122602, 0.0015269436407834291, 0.0015254395548254251, 0.0015247196424752474, -0.0002163442550227046, -0.0002182705793529749, -0.00021092582028359175, -0.00021048937924206257, -0.00020210829097777605, -0.00020544964354485273, -0.00020560016855597496, -0.0002043063286691904, -0.00021035620011389256, -0.0002176356501877308, -0.00023828563280403614, -0.00023787724785506725, -0.0002378735225647688, -0.00022985553368926048, -0.00025387085042893887, -0.0002537495456635952, -0.0002546070609241724, -0.00018858234398066998, -0.00016850465908646584, -0.00016846973448991776, -0.0001640056725591421, -0.00015994347631931305, -0.00015906267799437046, -0.00015905778855085373, 0.00011222180910408497, 0.00010896613821387291, 0.00010631093755364418, 0.00010502315126359463, 0.00019409623928368092, 0.00021528382785618305, 0.0001325008925050497, 0.00013333745300769806, 0.00013864459469914436, 0.0001183762215077877, 0.00011605443432927132, 0.00011707167141139507, 4.1620805859565735e-06, -5.288189277052879e-05, -5.124136805534363e-05, -4.130881279706955e-05, -3.9733946323394775e-05, -3.990856930613518e-05, -4.81652095913887e-05, -5.870172753930092e-05, -5.804700776934624e-05, -1.958431676030159e-05, -1.9181054085493088e-05, -2.3012980818748474e-05, -2.15042382478714e-06, -2.250075340270996e-06, 2.7191825211048126e-05, 2.63960100710392e-05, 2.649286761879921e-05, 2.333708107471466e-05, 2.3393891751766205e-05, 3.323284909129143e-05, -3.0665127269458026e-05, -3.8894115277798846e-05, 1.437147511751391e-05, 2.051605042652227e-05, 5.9194862842559814e-06, 5.991751095280051e-06, 6.583839422091842e-06, 0.0003314745263196528, 0.00030141713796183467, 0.00030041515128687024, 0.0005911833140999079, 0.0005901302793063223, 0.0005898146773688495, 0.0005898323142901063, 0.00035640946589410305, 0.00035508553264662623, 0.00032358174212276936, 0.00032349611865356565, 0.000320817984174937, 0.00032787752570584416, 0.001727796858176589, 0.00173961091786623, 0.0015121125616133213, 0.0015104652848094702, 0.0015351916663348675, 0.0015350829344242811, 0.0015351064503192902, 0.0015374277718365192, 0.0015370999462902546, 0.0015369723550975323, 0.0015369332395493984, 0.0015257368795573711, 0.0015320207457989454, 0.0016989947762340307, 0.001703676301985979, 0.001703963615000248, 0.0017038737423717976, 0.0016823764890432358, 0.0017033694311976433, 0.0016794940456748009, 0.0016780644655227661, 0.0016756318509578705, 0.0016758076380938292, 0.0016762677114456892, 0.0016807278152555227, 0.0017444840632379055, 0.0017445147968828678, 0.0017832312732934952, 0.0017827434930950403, 0.0017703240737318993, 0.0021600755862891674, 0.0021603438071906567, 0.002160452539101243, 0.002160991309210658, 0.0021470438223332167, 0.002145542996004224, 0.0021468792110681534, 0.002180566778406501, 0.002243970986455679, 0.0022178860381245613, 0.0017652506940066814, 0.001765250926837325, 0.0016707906033843756, 0.0016712984070181847, 0.0011305208317935467, 0.0011326174717396498, 0.0011325913947075605, 0.0011301396880298853, 0.0005614925175905228, 0.000552901066839695, 0.0005522356368601322, 0.0005521434359252453, 0.0005520549602806568, 0.0005519851110875607, 0.0005193985998630524, 0.0005465412978082895, 3.670062869787216e-05, -3.159511834383011e-06, -0.0013947319239377975, -0.0013948846608400345, -0.0013855630531907082, -0.0013889102265238762, -0.0015082466416060925, -0.001513372641056776, -0.001513082068413496, -0.0015139440074563026, -0.0013907409738749266, -0.0013919733464717865, -0.001382801914587617, -0.0013792095705866814, -0.0013758183922618628, -0.0014303743373602629, -0.0014140515122562647, -0.0013447529636323452, -0.0013437573798000813, -0.001346460310742259, -0.0012681554071605206, -0.0012657474726438522, -0.0012692385353147984, -0.0012531420215964317, -0.0012481124140322208, -0.0011550025083124638, -0.0011141952127218246, -0.0011139046400785446, -0.0010814433917403221, -0.001081978902220726, -0.001081002876162529, -0.0010816976428031921, -0.001023339107632637, -0.0010233940556645393, -0.0010658013634383678, -0.0009488239884376526, -0.000948798842728138, -0.0009403419680893421, -0.0009362506680190563, -0.0009358329698443413, -0.000806739553809166, -0.000806919764727354, -0.0006814207881689072, -0.0006815721280872822, -0.0006802435964345932, -0.0007136445492506027, -0.00071362080052495, -0.0007143900729715824, -0.001958500361070037, -0.001893395557999611, -0.0018967422656714916, -0.0019040168263018131, -5.359470378607512e-07, -6.959890015423298e-07, -4.2724423110485077e-07, -0.0005581121658906341, -0.0005624503246508539, -0.0005617224960587919, -0.015076598152518272, -0.013363737612962723, -0.013363838195800781, -0.013363919220864773, -0.013364722952246666, -0.013364190235733986, -0.013363325968384743, -0.013363554142415524, -0.012515938840806484, -0.01251593790948391, -0.012528412975370884, -0.012549526989459991, -0.012547608464956284, -0.012372284196317196, -0.013762881979346275, -0.013761714100837708, -0.013752628117799759, -0.013752431608736515, -0.013752337545156479, -0.013636639341711998, -0.01360119879245758, -0.013601209968328476, -0.013847628608345985, -0.01384824886918068, -0.013848642818629742, -0.013831863179802895, -0.01383065152913332, -0.013819906860589981, -0.013819478452205658, -0.013818877749145031, -0.013848726637661457, -0.013941017910838127, -0.013939769938588142, -0.013937272131443024, -0.013937737792730331, -0.013937929645180702, -0.013636905699968338, -0.01363314501941204, -0.01363760232925415, -0.013638729229569435, -0.013639266602694988, -0.012905105017125607, -0.012906772084534168, -0.012906743213534355, -0.013344323262572289, -0.013330901972949505, -0.01331323105841875, -0.013253080658614635, -0.013253576122224331, -0.013253306970000267, -0.01329820230603218, -0.013316737487912178, -0.01331639289855957, -0.013307023793458939, -0.013325287029147148, -0.013555251993238926, -0.013588177040219307, -0.013588547706604004, -0.013590442016720772, -0.013591073453426361, -0.013591041788458824, -0.013596462085843086, -0.013632850721478462, -0.013571130111813545, -0.01303587481379509, -0.013036271557211876, -0.01305695716291666, -0.013066760264337063, -0.01302411686629057, -0.013031162321567535, -0.013031144626438618, -0.013031154870986938, -0.01297688763588667, -0.012976914644241333, -0.012977218255400658, -0.012949616648256779, -0.012905273586511612, -0.01292551402002573, -0.012928394600749016, -0.012928608804941177, -0.012930845841765404, -0.012892618775367737, -0.012914000079035759, -0.012844129465520382, -0.01283092238008976, -0.012831198051571846, -0.012828050181269646, -0.012821242213249207, -0.012824766337871552, -0.012710748240351677, -0.012711023911833763, -0.012713102623820305, -0.012713055126369, -0.012204775586724281, -0.012180235236883163, -0.01210286095738411, -0.012713106349110603, -0.012714389711618423]
2: [0.008150767534971237, 0.008150743320584297, 5.435174465179443, 5.4354567527771, 5.4191179275512695, 5.4202752113342285, 5.419813632965088, 5.419243335723877, 5.419291019439697, 5.419652462005615, 5.4196648597717285, 5.4194254875183105, 5.419423580169678, 5.415196418762207, 5.415217399597168, 5.4198222160339355, 5.422786712646484, 5.4221510887146, 5.453149318695068, 5.466520309448242, 5.462557315826416, 5.46257209777832, 5.510518550872803, 5.5107269287109375, 5.396131992340088, 5.402832508087158, 5.540312767028809, 5.540315628051758, 5.631356716156006, 5.659603595733643, 5.651105880737305, 5.651215076446533, 5.651439189910889, 5.616203784942627, 5.616128444671631, 5.616917133331299, 5.616828441619873, 5.616831302642822, 5.610560417175293, 5.614426612854004, 5.614388465881348, 5.614142417907715, 5.610686779022217, 5.610221862792969, 5.610908508300781, 5.611311912536621, 5.608651161193848, 5.607679843902588, 5.56151008605957, 5.564314365386963, 5.566364288330078, 5.5663628578186035, 5.5667314529418945, 5.725283622741699, 5.723804473876953, 5.724218368530273, 5.724216461181641, 5.722734451293945, 5.726655960083008, 5.726232528686523, 5.771767616271973, 5.7573370933532715, 5.756518363952637, 5.756490230560303, 5.850147247314453, 5.850154876708984, 5.850063800811768, 5.85001277923584, 5.844090461730957, 5.8440327644348145, 5.731868743896484, 5.733543872833252, 5.733583450317383, 5.733280181884766, 5.732059478759766, 5.732776165008545, 5.732285499572754, 5.732304096221924, 5.732390403747559, 5.732220649719238, 5.698443412780762, 5.698420524597168, 5.698444366455078, 5.698393821716309, 5.6964569091796875, 5.704079627990723, 5.578616619110107, 5.578216552734375, 5.578184127807617, 5.580656051635742, 5.58063268661499, 5.583439350128174, 5.60139274597168, 5.601677894592285, 5.601510524749756, 5.601510524749756, 5.601308822631836, 5.6016435623168945, 5.60431432723999, 5.6047186851501465, 5.603580951690674, 5.6023101806640625, 5.602382659912109, 5.602626323699951, 5.602518558502197, 5.603113651275635, 5.604528427124023, 5.604745864868164, 5.6029887199401855, 5.502686500549316, 5.501562118530273, 5.501412391662598, 5.501354217529297, 5.501229286193848, 5.501233100891113, 5.501961708068848, 5.525691032409668, 5.4854230880737305, 5.4870710372924805, 5.487069606781006, 5.500423908233643, 5.500635623931885, 5.505068302154541, 5.505183696746826, 5.505535125732422, 5.505518913269043, 5.5051422119140625, 5.510636806488037, -0.0005384035757742822, -0.00043146367534063756, -0.00019355997210368514, -0.0016032103449106216, 0.04177994281053543, 0.04066428542137146, 0.0011912137269973755, 0.001265842467546463, -0.004331074655056, -0.0037050098180770874, -0.009157516062259674, -0.009439382702112198, -0.0063000209629535675, 0.00586048886179924, 0.004387442022562027, 0.009525127708911896, 0.008422672748565674, 0.008602648973464966, 0.009190920740365982, 0.007618822157382965, 0.24056434631347656, 0.24031373858451843, 0.4411943852901459, 0.439488023519516, 0.4392898976802826, 0.4357379376888275, 0.41673925518989563, 0.4167196750640869, 0.416830837726593, 0.4163398742675781, 0.3660223186016083, 0.36574918031692505, 0.18883544206619263, 0.1889376938343048, 0.19767075777053833, 0.19440868496894836, 0.19572696089744568, 0.19572699069976807, 0.19309918582439423, 0.19169792532920837, 0.18468055129051208, 0.18466882407665253, 0.18414650857448578, 0.1852327585220337, 0.10414683818817139, 0.10155153274536133, 0.10146212577819824, 0.10102331638336182, 0.09909844398498535, 0.09918081760406494, 0.01178121566772461, 0.0010905265808105469, -0.053237318992614746, -0.1311657428741455, -0.15330934524536133, -0.15382897853851318, -0.15389668941497803, -0.15443003177642822, -0.12189316749572754, -0.12086176872253418, -0.1239246129989624, -0.11189484596252441, -0.11487972736358643, -0.11489081382751465, -0.11455297470092773, -0.1139838695526123, -0.10463166236877441, -0.10745358467102051, -0.10649919509887695, -0.10571956634521484, -0.11013293266296387, -0.11026334762573242, -0.11038327217102051, -0.1092919111251831, -0.10203123092651367, -0.1044684648513794, -0.1240072250366211, -0.12421214580535889, -0.12436974048614502, -0.1503504514694214, -0.1503826379776001, -0.15041041374206543, -0.15037894248962402, -0.150598406791687, -0.15847182273864746, -0.15847361087799072, -0.15832817554473877, -0.15833497047424316, -0.1574002504348755, -0.1585448980331421, -0.1587601900100708, -0.1587744951248169, -0.15884864330291748, -0.15878498554229736, -0.20207035541534424, -0.20205140113830566, -0.2058560848236084, -0.20160150527954102, -0.20250850915908813, -0.20144104957580566, -0.5293474197387695, -0.5292912721633911, -0.5298119783401489, -0.5299449563026428, -0.5178325176239014, -0.5177493095397949, -0.5164860486984253, -0.516559362411499, -0.5165730118751526, -0.5180405378341675, -0.5248398184776306, -0.5347580313682556, -0.528836190700531, -0.5288467407226562, -0.5285292863845825, -0.5286182165145874, -0.5246566534042358, -0.5245624780654907, -0.5253682136535645, -0.5456366539001465, -0.5456579327583313, -0.5428658127784729, -0.7917289137840271, -0.7924498319625854, -0.7937036752700806, -0.7936456799507141, -0.6813119053840637, -0.6808264255523682, 0.01483485009521246, 0.015000922605395317, 0.015118841081857681, 0.015130268409848213, 0.00944687332957983, 0.013672148808836937, 0.09062141180038452, 0.09062401205301285, 0.3327690362930298, 0.33195269107818604, 0.34011876583099365, 0.34358203411102295, 0.4464200735092163, 0.44653207063674927, 0.4477881193161011, 0.4472765326499939, 0.3774232864379883, 0.39186185598373413, 0.46196043491363525, 0.463958203792572, 0.46396487951278687, 0.46394866704940796, 0.47978949546813965, 0.47985392808914185, 0.4818139374256134, 0.48180752992630005, 0.49037790298461914, 0.4903745651245117, 0.47838103771209717, 0.47786247730255127, 0.4778405427932739, 0.48745036125183105, 0.4875086545944214, 0.4873141050338745, 0.48751509189605713, 0.48632073402404785, 0.4935044050216675, 0.4935002326965332, 0.49813783168792725, 0.4989011287689209, 0.49891114234924316, 0.4993935823440552, 0.4977869987487793, 0.4977390766143799, 0.49058377742767334, 0.491382360458374, 0.49154675006866455, 0.4915471076965332, 0.534409761428833, 0.534447431564331, 0.5313104391098022, 0.5311540365219116, 0.5311686992645264, 0.5320448875427246, 0.5320022106170654, 0.5360229015350342, 0.5381898880004883, 0.5419360399246216, 0.5972690582275391, 0.5971184968948364, 0.6010134220123291, 0.6015899181365967, 0.6020870208740234, 0.5921564102172852, 0.5921726226806641, 0.5924605131149292, 0.5918287038803101, 0.5938150882720947, 0.600123405456543, 0.6001347303390503, 0.6002085208892822, 0.5995107889175415, 0.6062675714492798, 0.6064393520355225, 0.6075611114501953, 0.5632426738739014, 0.5631927251815796, 0.5632171630859375, 0.5415682792663574, 0.5424492359161377, 0.548804759979248, 0.5488688945770264, 0.5193511247634888, 0.5193387269973755, 0.522009015083313, 0.5220736265182495, 0.521302342414856, 0.5217010974884033, 0.6360284090042114, 0.6361011266708374, 0.6521155834197998, 0.6521298885345459, 0.652193546295166, 0.6521580219268799, 0.6543152332305908, 0.6539819240570068, 0.6544828414916992, 0.6556434631347656, 0.6612503528594971, 0.6608283519744873, 0.6542291641235352, 0.6548821926116943, 0.6550257205963135, 0.6550288200378418, 0.6561243534088135, 0.6554238796234131, 0.7225074768066406, 0.7206559181213379, 0.666780948638916, 0.6668217182159424, 0.6669304370880127, 0.6669514179229736, 0.70135498046875, 0.701873779296875, 0.6413860321044922, 0.6416683197021484, 0.6417672634124756, 0.6418895721435547, 1.0178377628326416, 1.01784086227417, 1.022704839706421, 1.0227088928222656, 1.0227017402648926, 1.0226325988769531, 1.0404210090637207, 1.0404045581817627, 1.0408728122711182, 1.0381784439086914, -0.12975868582725525, -0.1297464817762375, -0.12824152410030365, -0.12775090336799622, -0.12582628428936005, -0.12226608395576477, -0.12067784368991852, -0.024821676313877106, -0.025689098984003067, -0.025691930204629898, -0.024930788204073906, -0.025190245360136032, -0.03268638998270035, -0.03269312530755997, -0.03279179334640503, -0.032802239060401917, -0.03281756117939949, -0.03357198089361191, -0.031129179522395134, -0.03130999207496643, -0.005345873534679413, -0.005321703851222992, -0.005036842077970505, -0.005570750683546066, -0.0056624822318553925, -0.03397767245769501, -0.03461329638957977, -0.03449143469333649, 0.007448501884937286, 0.008234485983848572, -0.10606252402067184, -0.10607806593179703, -0.10621792823076248, -0.10725294798612595, -0.13850407302379608, -0.14097577333450317, 0.000983119010925293, 0.0038491487503051758, 0.0037671327590942383, 0.008720993995666504, 0.0007659196853637695, 0.038346171379089355, 0.02653205394744873, 0.026532769203186035, 0.026521801948547363, 0.026522040367126465, 0.0197676420211792, 0.020907580852508545, 0.020817220211029053, 0.021236717700958252, -0.008626312017440796, -0.008626222610473633, -0.004451751708984375, -0.004391461610794067, -0.0024489164352416992, -0.0024592578411102295, -0.001841813325881958, -0.0016940534114837646, -0.033856600522994995, -0.03495875000953674, -0.07397991418838501, -0.07383105158805847, -0.044451355934143066, -0.043835222721099854, -0.06106138229370117, -0.0645415186882019, -0.0653643012046814, -0.0654563307762146, -0.06548404693603516, -0.06541329622268677, -0.06544601917266846, -0.06542402505874634, -0.06438839435577393, -0.06955987215042114, -0.06955993175506592, 0.006911635398864746, 0.006128668785095215, 0.004954099655151367, 0.00495302677154541, 0.005409836769104004, 0.004876255989074707, 0.004875838756561279, 0.004867255687713623, 0.004895687103271484, 0.003064572811126709, 0.002719402313232422, 0.0010886788368225098, 0.0008920431137084961, -0.0026847124099731445, -0.0026766061782836914, -0.0026820898056030273, -0.00254976749420166, 0.00030308961868286133, 0.0005802512168884277, 0.0006024837493896484, 0.0035434365272521973, 0.014820575714111328, 0.015368819236755371, -0.01145946979522705, -0.011458784341812134, -0.011434435844421387, -0.010781943798065186, -0.012569963932037354, -0.009829223155975342, -0.011718958616256714, -0.013129740953445435, -0.01305687427520752, -0.009872674942016602, -0.009559601545333862, -0.015570908784866333, 0.10497155785560608, 0.10444816946983337, 0.10439062118530273, 0.1043095588684082, 0.10493287444114685, 0.10487857460975647, 0.29232439398765564, 0.26747825741767883, 0.2877506613731384, 0.29062420129776, 0.30105364322662354, 0.30068400502204895, 0.31405869126319885, 0.3141169548034668, 0.3147103488445282, 0.23226749897003174, 0.23498591780662537, 0.22943365573883057, -0.004778899252414703, -0.004775790497660637, 0.049988482147455215, 0.04975106567144394, 0.04971364885568619, 0.0348866805434227, 0.03442975878715515, 0.03442829102277756, 0.03664504736661911, 0.037936098873615265, 0.03790844604372978, 0.037657059729099274, 0.03758568316698074, 0.04015132784843445, 0.040151260793209076, 0.040381722152233124, 0.031316861510276794, 0.03487379848957062, 0.032038718461990356, 0.03516872227191925, 0.03555397689342499, 0.03650255501270294, 0.036684513092041016, 0.038946837186813354, 0.03431923687458038, 0.03407229483127594, 0.03500668704509735, 0.03493721783161163, 0.0916772335767746, 0.09209053963422775, 0.09159955382347107, 0.09135755896568298, -0.008386634290218353, -0.008134767413139343, -0.00789942592382431, 0.4874463677406311, 0.4872528910636902, 0.48803335428237915, 0.48909807205200195, 0.4890972375869751, 0.48873481154441833, 0.4881935715675354, 0.4898379445075989, 0.4822869896888733, 0.4820776879787445, 0.48202934861183167, 0.5030645728111267, 0.5022841095924377, 0.5008277893066406, 0.5888873934745789, 0.588860034942627, 0.582065761089325, 0.5162949562072754, 0.5138176679611206, 0.5116369724273682, 0.5117090940475464, 0.5117937922477722, 0.5116252303123474, 0.5113338232040405, 0.5112899541854858, 0.5112839341163635, 0.5112808346748352, 0.5214760899543762, 0.5212914943695068, 0.6178846955299377, 0.6178793907165527, 0.6129278540611267, 0.6125174760818481, 0.6266064047813416, 0.689893364906311, 0.6900733709335327, 0.682004451751709, 0.6581213474273682, 0.6617926955223083, 0.6636977195739746, 0.6633793115615845, 0.630494236946106, 0.6645694971084595, 0.7078070044517517, 0.7068256139755249, 0.6764929294586182, 0.676554799079895, 0.6710381507873535, 0.6730809211730957, 0.6731199622154236, 0.6699056029319763, 0.6679589748382568, 0.6673755645751953, 0.6734141111373901, 0.672332763671875, 0.6667792797088623, 0.6667385101318359, 0.6635013818740845, 0.6456004977226257, 0.6845622062683105, 0.6824859380722046, 0.648732602596283, 0.6488195061683655, 0.632461667060852, 0.6081015467643738, 0.6081176996231079, 0.648284912109375, 0.461222767829895, 0.46192678809165955, 0.4928726255893707, 0.4924063980579376, 0.4926077723503113, 0.4922361373901367, 0.49232566356658936, 0.5009595155715942, 0.4976901412010193, 0.5393809676170349, 0.5391883850097656, 0.5411731004714966, 0.7207682132720947, 0.6987676024436951, 0.6980063915252686, 0.6892382502555847, 0.8180122375488281, 0.8650601506233215, 0.8648643493652344, 0.8649312257766724, 0.8649700880050659, 0.7456483244895935, 0.7467031478881836, 0.7468668222427368, 0.7467188835144043, 0.7467254400253296, -5.3638825193047523e-05, 0.006725788116455078, 0.007140852510929108, 0.007371962070465088, -0.008366454392671585, -0.003982489928603172, 0.014904908835887909, 0.05543782189488411, 0.055585041642189026, 0.05597476661205292, 0.055175114423036575, 0.054567601531744, 0.056203074753284454, 0.05314648523926735, 0.05325287953019142, 0.057952992618083954, 0.057703305035829544, 0.0557413324713707, 0.057527702301740646, -0.14617836475372314, -0.13153812289237976, -0.049302227795124054, -0.04926159977912903, -0.0508563369512558, 0.017847508192062378, 0.21357393264770508, 0.21342313289642334, 0.21412548422813416, 0.214162677526474, 0.21416664123535156, 0.19882416725158691, 0.19886720180511475, 0.19909363985061646, 0.19902345538139343, 0.223282128572464, 0.2232779860496521, 0.22319296002388, 0.2036069929599762, 0.20382168889045715, 0.2030327022075653, 0.2014811635017395, 0.19936862587928772, 0.958957314491272, 0.9588732123374939, 0.9588776230812073, 0.9587790966033936, 0.9590697884559631, 0.954944908618927, 0.9724516868591309, 0.9724602103233337, 0.9985598921775818, 0.9988508224487305, 1.023535966873169, 1.0245124101638794, 1.0082752704620361, 1.008190631866455, 1.0125430822372437, 1.0001230239868164, 1.000465750694275, 1.003122329711914, 1.0301417112350464, 1.030843734741211, 1.0307773351669312, 1.0306193828582764, 1.0926015377044678, 1.0926146507263184, 1.1251959800720215, 1.132562518119812, 1.1296745538711548, 1.1295799016952515, 1.1293598413467407, 1.1294771432876587, 1.1291728019714355, 1.129029393196106, 1.1318809986114502, 1.13155996799469, 1.105712890625, 1.1098883152008057, 0.9569928646087646, 0.9570026397705078, 0.9617581367492676, 0.9616063833236694, 0.9617538452148438, 0.9609639048576355, 0.9610139727592468, 0.9610226154327393, 0.9561036229133606, 0.9507774114608765, 0.9504302740097046, 0.7561124563217163, 0.756027102470398, 0.7566107511520386, 0.7566823959350586, 0.7566875219345093, 0.756233811378479, 0.7573349475860596, 0.7804354429244995, 0.7803261280059814, 0.7807744145393372, 0.779231607913971, 0.777712881565094, 0.768486738204956, 1.0160099267959595, 1.0160225629806519, 1.058948040008545, 1.0589556694030762, 1.0869133472442627, 1.0869463682174683, 0.9551007747650146, 0.890466034412384, 0.894075870513916, 0.89423668384552, 0.8909996151924133, 0.8911663889884949, 0.9507689476013184, 0.9558383226394653, 0.9558128118515015, 0.9563717842102051, 0.9563297629356384, 0.9600256085395813, 1.008577585220337, 1.008581280708313, 1.0025311708450317, 0.9985814094543457, 0.997728168964386, 0.997520387172699, 0.9976273775100708, 0.997730553150177, -0.0001732432283461094, -0.0004220027185510844, -0.0025439108721911907, -0.0025527402758598328, 0.014615997672080994, 0.014626070857048035, 0.014544427394866943, 0.015944302082061768, 0.016085892915725708, 0.016131296753883362, -0.5957561731338501, -0.5958841443061829, -0.59586501121521, -0.5958608388900757, -0.5668159127235413, -0.5668506622314453, -0.5049353241920471, -0.5048666000366211, -0.511876106262207, -0.5118751525878906, -0.41376662254333496, -0.4167556166648865, -0.41559457778930664, -0.41559648513793945, -0.4159959554672241, -0.41498398780822754, -0.4149675965309143, -0.41499459743499756, -0.4145779013633728, -0.41449904441833496, -0.4145130515098572, -0.41450971364974976, -0.3970482349395752, -0.30627167224884033, -0.3149213194847107, -0.3151710629463196, -0.2879753112792969, -0.28225618600845337, -0.2215496301651001, -0.22717559337615967, -0.19365525245666504, -0.19308769702911377, -0.19429051876068115, -0.18304777145385742, -0.17762720584869385, -0.17752158641815186, -0.1773284673690796, -0.17105793952941895, -0.17112863063812256, -0.17982745170593262, -0.17988061904907227, -0.1798703670501709, -0.17661333084106445, -0.17660152912139893, -0.1796858310699463, -0.1796356439590454, -0.17969560623168945, -0.1797252893447876, -0.1837754249572754, -0.12039613723754883, 0.6624765396118164, 0.6625146865844727, 0.6688036918640137, 0.6688038110733032, 0.6919407844543457, 0.6921267509460449, 0.6916751861572266, 0.6917483806610107, 0.6777114868164062, 0.6743974685668945, 0.6744973659515381, 0.6745126247406006, 0.6743824481964111, 0.674384593963623, 0.7299526929855347, 1.1312904357910156, 1.1254761219024658, 1.1242363452911377, 1.294625163078308, 1.293961763381958, 1.3517037630081177, 1.3517093658447266, 1.2686601877212524, 1.2578165531158447, 1.2615351676940918, 1.2608546018600464, 1.2065399885177612, 1.2040361166000366, 1.225730299949646, 1.2172869443893433, 1.2335071563720703, 1.23350191116333, 1.2335050106048584, 1.0973601341247559, 1.0971887111663818, 0.7948505878448486, 0.8197733163833618, 0.8197448253631592, 0.8492416143417358, 0.8363723754882812, 0.8381862640380859, 0.8381458520889282, 0.8550480604171753, 0.8550288677215576, 0.8547391891479492, 0.8546960353851318, 0.8547388315200806, 0.8542149066925049, 0.8526391983032227, 0.8540904521942139, 0.8370485901832581, 0.8511115312576294, 0.8511291742324829, 0.8530573844909668, 0.8212239146232605, 0.8211265802383423, 0.7671838998794556, 0.7671669721603394, 0.7652069330215454, 0.765252947807312, 0.767139196395874, 0.7641749382019043, 0.7701597213745117, 0.7700066566467285, 1.0029864311218262, 1.0046947002410889, 0.9863125681877136, 0.9860826730728149, -0.17008090019226074, -0.17033761739730835, -0.16927573084831238, -0.15100392699241638, -0.1964607834815979, -0.19647999107837677, 0.08202916383743286, 0.10604298114776611, 0.10499835014343262, 0.10489022731781006, 0.17562663555145264, 0.17561542987823486, 0.1740620732307434, 0.17393797636032104, 0.12994176149368286, 0.12994331121444702, 0.12998944520950317, 0.129966139793396, 0.14563262462615967, 0.1457887887954712, 0.11898094415664673, 0.11238139867782593, 0.11482566595077515, 0.11486560106277466, 0.11476963758468628, 0.11495471000671387, 0.13221877813339233, 0.1322174072265625, 0.13686949014663696, 0.1368669867515564, 0.1421545147895813, 0.14223110675811768, 0.14274543523788452, 0.144062340259552, 0.1440436840057373, 0.1540764570236206, 0.03247332572937012, -0.24081361293792725, -0.24023038148880005, -0.23723173141479492, -0.23962533473968506, -0.2396165132522583, -0.23593395948410034, -0.2194305658340454, -0.24988913536071777, -0.24994564056396484, -0.24960696697235107, -0.25635600090026855, -0.24277526140213013, -0.2425108551979065, -0.1766986846923828, -0.1778188943862915, -0.17859768867492676, -0.1785932183265686, -0.17859739065170288, -0.17850983142852783, -0.17860567569732666, -0.1691875457763672, -0.170052170753479, -0.18159407377243042, -0.17150330543518066, -0.17126059532165527, -0.18503451347351074, -0.18521034717559814, -0.18522125482559204, -0.18532896041870117, -0.1853269338607788, -0.18642723560333252, -0.17664605379104614, -0.17637991905212402, -0.5638797283172607, -0.5637275576591492, -0.5612469911575317, -0.561316728591919, -0.556010365486145, -0.5509404540061951, -0.5509487390518188, -0.5507591366767883, -0.6417560577392578, -0.6416752338409424, -0.641345739364624, -0.6320702433586121, -0.6316754817962646, -0.6316021680831909, -0.632847785949707, -0.6327593326568604, -0.6348215341567993, -0.6185782551765442, -0.6190170049667358, -0.6175194978713989, -0.6244546175003052, -0.624001145362854, -0.6446328163146973, -0.6348884105682373, -0.6304908394813538, -0.8206438422203064, -0.8206182718276978, -0.8204927444458008, -0.8204914331436157, 0.39206379652023315, 0.3962240517139435, 0.39577215909957886, 0.4115319550037384, 0.4115786552429199]
3: [9.088331353268586e-06, 1.213523864862509e-05, 0.00028329179622232914, 0.0387793593108654, 0.038055263459682465, 0.038060061633586884, 0.0377042330801487, 0.03770475089550018, 0.03850230947136879, 0.03850797191262245, 0.038472436368465424, 0.038804180920124054, 0.03880419209599495, 0.03878244012594223, 0.04018903523683548, 0.04017613083124161, 0.04075927287340164, 0.04142139479517937, 0.041336365044116974, 0.04216817393898964, 0.0421907901763916, 0.04216722026467323, 0.042238783091306686, 0.06712350249290466, 0.01815182715654373, 0.017341211438179016, 0.017040589824318886, 0.01704077608883381, 0.004186619073152542, -0.0008739540353417397, 0.0010607102885842323, 0.0009924224577844143, 0.000996540766209364, 0.0010374709963798523, 0.0013227201998233795, -0.0020553618669509888, -0.002031460404396057, -0.0020314697176218033, -0.0015290267765522003, -0.0015206895768642426, -0.0022572949528694153, -0.0020386427640914917, -0.00222979299724102, -0.0024152379482984543, -0.0027986112982034683, -0.002881985157728195, -0.005018496885895729, -0.00503399595618248, -0.02454143390059471, -0.02455317974090576, -0.024610981345176697, -0.02462729439139366, -0.024618789553642273, -0.03041703999042511, -0.029717758297920227, -0.02584964781999588, -0.025849655270576477, -0.025855153799057007, -0.02585495635867119, -0.008226528763771057, -0.007890067994594574, -0.008401524275541306, -0.008564893156290054, -0.008624415844678879, -0.010941941291093826, -0.010995090007781982, -0.010986264795064926, -0.009881041944026947, -0.009344112128019333, -0.009346980601549149, 0.006288602948188782, 0.006362095475196838, 0.006407931447029114, 0.006435271352529526, 0.006387103348970413, 0.0063140541315078735, 0.006530359387397766, 0.016827885061502457, 0.013990767300128937, 0.014061905443668365, 0.011123768985271454, 0.011118169873952866, 0.011121615767478943, 0.011185631155967712, 0.011147536337375641, 0.013305500149726868, 0.014451589435338974, 0.014452174305915833, 0.014446020126342773, 0.014444563537836075, 0.014445450156927109, 0.014491889625787735, 0.01446695625782013, 0.014468252658843994, 0.014461658895015717, 0.014462091028690338, 0.01443084329366684, 0.014515712857246399, 0.014516770839691162, 0.055365655571222305, 0.055555619299411774, 0.05555109307169914, 0.05641428008675575, 0.056434083729982376, 0.05844759941101074, 0.0543660931289196, 0.054350148886442184, 0.05433671548962593, 0.05409351736307144, 0.05416099354624748, 0.05412314087152481, 0.054091110825538635, 0.05363970622420311, 0.049683578312397, 0.049683310091495514, 0.049691908061504364, 0.04956578463315964, 0.04735613986849785, 0.04729766771197319, 0.04729725420475006, 0.04589834064245224, 0.04594869911670685, 0.04668627679347992, 0.046687252819538116, 0.04901602491736412, 0.04634547978639603, 0.04638981074094772, 0.04626009985804558, -0.0014175600372254848, -0.001377713866531849, -0.0013361284509301186, -0.0013551436131820083, 0.0738164559006691, 0.07338669151067734, -0.1496250033378601, -0.1496330201625824, -0.14950525760650635, -0.179423987865448, -0.17476457357406616, -0.1747606098651886, -0.17402394115924835, -0.17281664907932281, -0.17282167077064514, -0.17287637293338776, -0.1715727597475052, -0.17158125340938568, -0.17175063490867615, -0.17175105214118958, -0.17663708329200745, -0.1766493022441864, -0.17569555342197418, -0.17569537460803986, -0.17593435943126678, -0.17580467462539673, -0.17834526300430298, -0.1783449500799179, -0.17832940816879272, -0.17838403582572937, -0.17844675481319427, -0.1785312294960022, -0.18103156983852386, -0.1811521202325821, -0.18113860487937927, -0.18118885159492493, -0.18119210004806519, -0.18118920922279358, -0.1811906397342682, -0.18124713003635406, -0.18318478763103485, -0.1831865906715393, -0.18313021957874298, -0.18292398750782013, -0.18378755450248718, -0.18363596498966217, -0.184180349111557, -0.1842201203107834, -0.18413132429122925, -0.17629089951515198, -0.17775890231132507, -0.17723900079727173, -0.33821356296539307, -0.3375719487667084, -0.3375879228115082, -0.33748558163642883, -0.338157594203949, -0.33816301822662354, -0.33828550577163696, -0.3383132219314575, -0.3388458788394928, -0.3389657735824585, -0.3400930166244507, -0.34006908535957336, -0.3400826156139374, -0.3400881886482239, -0.34008127450942993, -0.339998722076416, -0.34000363945961, -0.3461940884590149, -0.34627482295036316, -0.34633326530456543, -0.3462020456790924, -0.3067968785762787, -0.30568575859069824, -0.3058362901210785, -0.3056698739528656, -0.3063446581363678, -0.30634602904319763, -0.3085933327674866, -0.31072261929512024, -0.3107226490974426, -0.31101927161216736, -0.3114185631275177, -0.3391823470592499, -0.33918246626853943, -0.3391833007335663, -0.339187353849411, -0.3386891782283783, -0.33868980407714844, -0.3385330140590668, -0.33854079246520996, -0.3385371267795563, -0.3385387063026428, -0.338545024394989, -0.33854350447654724, -0.6561852097511292, -0.655630886554718, -0.6553603410720825, -0.6546474099159241, -0.653452455997467, -0.6534408330917358, -0.6534257531166077, -0.6526324152946472, -0.653197705745697, -0.653208315372467, -0.6543067097663879, -0.6542978882789612, -0.6541698575019836, -0.6541716456413269, -0.6539413928985596, -0.6539484858512878, -0.49707022309303284, -0.4970570504665375, -0.49715352058410645, -0.4971539378166199, -0.5053032636642456, -0.5052543878555298, -0.504973292350769, -0.5055487155914307, -0.5065861940383911, -0.5066007375717163, -0.5046745538711548, -0.5068656802177429, -0.5061290860176086, -0.5061323046684265, -0.5055254697799683, -0.5055697560310364, 0.00969972275197506, 0.009700235910713673, 0.009696921333670616, 0.009634490124881268, 0.009897464886307716, 0.009909534826874733, -0.0025397043209522963, -0.0025396132841706276, -0.006823154166340828, -0.006749305874109268, -0.004045842215418816, -0.003773745149374008, -0.01503654383122921, -0.014594733715057373, -0.01099390722811222, -0.010994808748364449, -0.010791512206196785, -0.010804593563079834, -0.010371875017881393, -0.010373644530773163, -0.011694209650158882, -0.011761127039790154, -0.011530784890055656, -0.011367443948984146, -0.01217474415898323, -0.012174954637885094, -0.017852038145065308, -0.01785210147500038, -0.01800673082470894, -0.0210149846971035, -0.02104087918996811, -0.02100108191370964, -0.021002143621444702, -0.021002110093832016, -0.022121306508779526, -0.022160489112138748, -0.022115197032690048, -0.02211514487862587, -0.022063933312892914, -0.022297758609056473, -0.022297494113445282, -0.022298060357570648, -0.02230098843574524, -0.02226756140589714, -0.045072849839925766, -0.04509778693318367, -0.04506658390164375, -0.045066654682159424, -0.04648458957672119, -0.04652281850576401, -0.04654337465763092, -0.04655919969081879, -0.04655931144952774, -0.04257243871688843, -0.042728714644908905, -0.042720429599285126, -0.04271921515464783, -0.04218459129333496, -0.042395204305648804, -0.04092396795749664, -0.04127424955368042, -0.04126930236816406, -0.04221748560667038, -0.041840843856334686, -0.041843339800834656, -0.041824743151664734, -0.04178175330162048, -0.041703686118125916, -0.04164762794971466, -0.041650451719760895, -0.04164477437734604, -0.041988663375377655, -0.04208808392286301, -0.04208904504776001, -0.04208289831876755, -0.04178072512149811, -0.04187881946563721, -0.04197314381599426, -0.042086005210876465, -0.042086079716682434, -0.04209955036640167, -0.04210656136274338, -0.04168388247489929, -0.04168611764907837, -0.04064510017633438, -0.040658608078956604, -0.0406683012843132, -0.03296602517366409, -0.030020851641893387, -0.023013494908809662, -0.015821240842342377, -0.015825428068637848, -0.015191271901130676, -0.015190958976745605, -0.015220008790493011, 0.013747651129961014, 0.012957941740751266, 0.012948468327522278, 0.01297602429986, 0.015478506684303284, 0.01559382677078247, 0.015067655593156815, 0.018269993364810944, 0.01827029511332512, 0.018298111855983734, 0.018341101706027985, 0.01973792538046837, 0.01974136009812355, 0.02142731472849846, 0.02142644301056862, 0.021326251327991486, 0.021323468536138535, 0.04481016844511032, 0.044810011982917786, 0.0925792008638382, 0.09257706999778748, 0.09241131693124771, 0.09241112321615219, 0.09457571059465408, 0.09457555413246155, 0.09713297337293625, 0.0971372127532959, 0.09713704138994217, 0.09714289754629135, 0.09732837229967117, 0.09733627736568451, 0.09805141389369965, 0.09807288646697998, 0.0003893728135153651, 0.00039188674418255687, 0.0009085338679142296, 0.0008900265675038099, 0.0011364887468516827, 0.000946442480199039, -0.004009081982076168, -0.018373774364590645, -0.018340811133384705, -0.018426544964313507, -0.006838884204626083, -0.006834339816123247, -0.00626246677711606, -0.003197437385097146, -0.0028888313099741936, -0.0028885251376777887, -0.0028782326262444258, -0.003002338344231248, -0.0030021928250789642, -0.0030092753004282713, -0.0023046727292239666, -0.002311908407136798, -0.0017564649460837245, -0.001745699904859066, -0.0026971623301506042, -0.0019391016103327274, -0.0020371440332382917, -0.00205223192460835, -0.002861530752852559, -0.0028624883852899075, -0.006430791690945625, -0.006486323196440935, -0.015874812379479408, -0.016358980908989906, -0.03614700585603714, -0.03583970665931702, -0.044530026614665985, -0.04453544318675995, -0.04453519359230995, -0.044350117444992065, -0.04341176897287369, -0.04393676668405533, -0.044042374938726425, -0.044042326509952545, -0.044100865721702576, -0.04410087317228317, -0.04402679204940796, -0.04401662200689316, -0.04403965175151825, -0.04402291029691696, -0.043948620557785034, -0.04394911974668503, -0.04399682581424713, -0.04401373118162155, -0.04403891786932945, -0.043850746005773544, -0.04385405778884888, -0.04410260543227196, -0.04400341212749481, -0.03687272220849991, 0.06357022374868393, 0.06349144876003265, 0.06346622109413147, 0.06891433894634247, 0.06872593611478806, 0.06899981945753098, 0.06755246967077255, 0.06755489110946655, 0.0675598606467247, 0.06753034889698029, 0.06755351275205612, 0.07096296548843384, 0.07120008766651154, 0.07120377570390701, 0.07120354473590851, 0.07274393737316132, 0.07257302850484848, 0.0725720226764679, 0.07257183641195297, 0.07265753298997879, 0.07263467460870743, 0.07264051586389542, 0.07831303775310516, 0.07831286638975143, 0.07834865152835846, 0.07883180677890778, 0.059516046196222305, 0.05952828377485275, 0.016813330352306366, 0.016807930544018745, 0.016799822449684143, 0.022317640483379364, 0.02207670919597149, 0.022059395909309387, 0.022060103714466095, 0.022145818918943405, 0.018111132085323334, 0.018137773498892784, 0.02347641810774803, 0.023456454277038574, 0.02408968098461628, 0.024787262082099915, 0.024740172550082207, 0.024668937548995018, 0.02039143443107605, 0.020671240985393524, 0.020671600475907326, 0.032594941556453705, 0.0823902115225792, 0.08240465819835663, 0.07656412571668625, 0.07656785845756531, 0.07657837867736816, 0.07626768201589584, 0.07638488709926605, 0.07646708190441132, 0.08352897316217422, 0.08727292716503143, 0.07904461026191711, 0.26659446954727173, 0.26643988490104675, 0.2664435803890228, 0.2662287652492523, 0.2746691107749939, 0.28439363837242126, 0.2812449336051941, 0.2753653824329376, 0.27884262800216675, -0.003623220371082425, -0.003595653921365738, -0.003971212077885866, -0.003980368375778198, -0.004024903289973736, -0.0049376701936125755, -0.004583944566547871, -0.004583742935210466, -0.00430333474650979, -0.004320445004850626, -0.004322107881307602, -0.004757272079586983, -0.00475765997543931, -0.004766279831528664, -0.004767463542521, -0.004849949851632118, 0.0048865363933146, 0.002696865238249302, 0.001324320212006569, 0.001347347628325224, 0.0017645489424467087, 0.024097446352243423, 0.024101100862026215, 0.043581772595644, 0.04415563866496086, 0.0441272146999836, 0.04015142098069191, 0.04003220051527023, 0.04067545756697655, 0.04064170643687248, 0.04064524918794632, 0.040373191237449646, 0.0402202308177948, 0.04033586382865906, 0.04024624079465866, 0.03617677837610245, 0.03572119399905205, 0.035677023231983185, 0.0356670618057251, 0.03567499667406082, 0.03394214063882828, 0.03837873786687851, 0.03279970958828926, 0.03290688619017601, 0.031246665865182877, 0.0312555693089962, 0.041411418467760086, 0.041211020201444626, 0.04160195589065552, 0.04289042577147484, 0.042895376682281494, 0.04256121441721916, 0.04269598424434662, 0.04192766919732094, 0.041975636035203934, 0.04196291044354439, 0.04196711257100105, 0.04199031740427017, 0.04188205301761627, 0.0418449304997921, 0.04213767126202583, 0.05082915350794792, 0.0457293875515461, 0.04598057642579079, 0.045446716248989105, 0.04544595256447792, 0.04570481926202774, 0.045735765248537064, 0.04554921016097069, 0.04570110887289047, 0.04568414017558098, 0.04576661437749863, 0.04941011965274811, 0.049448709934949875, 0.04965931177139282, 0.054772574454545975, 0.01067802682518959, 0.010269108228385448, 0.01072243507951498, 0.010711872950196266, 0.011357264593243599, 0.013306709937751293, 0.016541950404644012, 0.01693299412727356, 0.01693316549062729, 0.015844160690903664, 0.015803923830389977, 0.015879150480031967, 0.015904968604445457, 0.016405588015913963, 0.02470814622938633, 0.02472289465367794, 0.019381225109100342, 0.01958879455924034, 0.01951766386628151, 0.020085960626602173, 0.020061299204826355, 0.03412419930100441, 0.03443726524710655, 0.04670020937919617, 0.046700455248355865, 0.049655258655548096, 0.05071943625807762, 0.0506594255566597, 0.050801292061805725, 0.05080603063106537, 0.05394849553704262, 0.05400332435965538, 0.05397391319274902, 0.05397994816303253, 0.05361662432551384, 0.0523030087351799, 0.0522424578666687, 0.05228959769010544, 0.04868903011083603, 0.050450440496206284, 0.04684801772236824, 0.044773317873477936, -0.032311830669641495, -0.033800721168518066, -0.033798664808273315, -0.033752404153347015, -0.0337422639131546, -0.023279458284378052, -0.023214925080537796, 0.023206448182463646, 0.023272667080163956, 0.023271026089787483, -4.685538442572579e-06, 0.02555209770798683, 0.025561071932315826, 0.02543751709163189, 0.012397786602377892, 0.012483987957239151, -0.000852696131914854, -0.0008918975945562124, 0.0016352278180420399, 0.001657883869484067, -0.005933010950684547, -0.005934713874012232, -0.005479875020682812, -0.003958911634981632, -0.003961223643273115, -0.003965239506214857, -0.003952809143811464, -0.003955175168812275, -0.00529840774834156, -0.011481218039989471, -0.010513391345739365, -0.011793730780482292, -0.011807899922132492, -0.011784856207668781, -0.012658126652240753, -0.007614936213940382, -0.0075970543548464775, -0.007937834598124027, -0.007968339137732983, -0.007966842502355576, -0.026270098984241486, -0.01972351409494877, -0.019724853336811066, -0.019695691764354706, 0.00700006727129221, 0.00700230011716485, 0.003865034319460392, 0.0038682520389556885, 0.0032305577769875526, 0.0032486040145158768, 0.003572746179997921, 0.0035862866789102554, 0.0035506272688508034, 0.003551667556166649, 0.003551339730620384, 0.0003282735124230385, 0.00032126158475875854, 0.00024852342903614044, -0.002030186355113983, -0.0020366087555885315, -0.004086911678314209, 0.0036003924906253815, 0.0036024218425154686, 0.003510403446853161, 0.02306623011827469, 0.02307351678609848, 0.027707330882549286, 0.02652376890182495, 0.03424961119890213, 0.034329116344451904, 0.03278084844350815, 0.03276573866605759, 0.03276435658335686, 0.03273703157901764, 0.03280094265937805, 0.032959360629320145, 0.032672204077243805, 0.03269808366894722, 0.025945371016860008, 0.02597208321094513, 0.025916870683431625, 0.030559111386537552, 0.026173893362283707, 0.02621648460626602, 0.02062094956636429, 0.02062605693936348, 0.0226281825453043, 0.022628188133239746, 0.022430121898651123, 0.02244262956082821, -0.06344017386436462, -0.06345941126346588, -0.06346428394317627, -0.06344687938690186, -0.06344760954380035, -0.06354747712612152, -0.06096966564655304, -0.06079890578985214, -0.06074664741754532, -0.06037738919258118, -0.06026507914066315, -0.060265351086854935, -0.0602179691195488, -0.06022078916430473, -0.06028998643159866, -0.06028349697589874, -0.0674610584974289, -0.06745246052742004, -0.0661056861281395, -0.06610291451215744, -0.05668018013238907, -0.056513525545597076, -0.05656317248940468, -0.05655890330672264, -0.055792175233364105, -0.05579476058483124, -0.05583098158240318, -0.052427202463150024, -0.05227602273225784, -0.05129498615860939, -0.051285386085510254, -0.05126965045928955, -0.05119448900222778, -0.05120079964399338, -0.052040938287973404, -0.05203155428171158, -0.052004266530275345, -0.05203297734260559, -0.05210849270224571, -0.05209897458553314, -0.052059076726436615, -0.05206967145204544, -0.05197368934750557, -0.05204237252473831, -0.05203612148761749, -0.051691073924303055, -0.05182141810655594, -0.051800601184368134, -0.0009882106678560376, -0.0016179281519725919, -0.00044417992467060685, -0.0004411853733472526, 4.873145371675491e-07, 5.601905286312103e-07, -5.43682835996151e-06, -4.219869151711464e-05, 8.919276297092438e-06, -2.198317088186741e-05, -0.006646493449807167, -0.0069221872836351395, -0.006464729085564613, -0.006464708596467972, 0.0022348864004015923, -0.0007657269015908241, -0.003846880979835987, -0.0038417046889662743, -0.003986533731222153, -0.003985192626714706, 0.007082026451826096, 0.007071308791637421, 0.006792005151510239, 0.0066835470497608185, 0.006491301581263542, 0.006767388433218002, 0.006773199886083603, 0.006766375154256821, 0.007560376077890396, 0.007547792047262192, 0.007547346875071526, 0.0075272805988788605, 0.007717743515968323, 0.030684825032949448, 0.030680805444717407, 0.030675522983074188, 0.0306730754673481, 0.030489150434732437, 0.03404854238033295, 0.03411104902625084, 0.033218204975128174, 0.03865745663642883, 0.03835346922278404, 0.0382862463593483, 0.03828087076544762, 0.037328965961933136, 0.03733863681554794, 0.03734346479177475, 0.03734366595745087, 0.025290600955486298, 0.025322120636701584, 0.025317445397377014, 0.02533370815217495, 0.028762580826878548, 0.028407037258148193, 0.028337989002466202, 0.028389617800712585, 0.02837488427758217, 0.027429424226284027, 0.027096789330244064, 0.02834399789571762, 0.028340235352516174, 0.03141988813877106, 0.03141969069838524, 0.03300851583480835, 0.03586070239543915, 0.03586094453930855, 0.03301762416958809, 0.027749918401241302, 0.027754072099924088, 0.023739870637655258, 0.023738279938697815, 0.023729629814624786, 0.023730311542749405, 0.023801062256097794, 0.026818368583917618, 0.026905909180641174, 0.02686743438243866, 0.024101365357637405, 0.02410179376602173, 0.022749561816453934, 0.022757291793823242, 0.02318597584962845, 0.02312665432691574, 0.02339545637369156, 0.02337782457470894, 0.03468162566423416, 0.03467969596385956, 0.03418635204434395, 0.03419598191976547, 0.029824551194906235, 0.029828472062945366, 0.02982945367693901, 0.0296414103358984, 0.029601475223898888, 0.020150084048509598, 0.02785656228661537, 0.02788781374692917, 0.017150811851024628, 0.01710083708167076, 0.01742914691567421, 0.017515704035758972, -0.01159399002790451, -0.008087623864412308, -0.007986370474100113, -0.00796525552868843, -0.007988136261701584, -0.007966481149196625, -0.008857917040586472, -0.008858013898134232, -0.008340653032064438, -0.00836421549320221, -0.008364282548427582, -0.008360236883163452, -0.00850922241806984, -0.00850062444806099, -0.017421890050172806, -0.017420459538698196, -0.01846398413181305, -0.0184614434838295, -0.01823759637773037, -0.018440332263708115, -0.018642902374267578, -0.01738581620156765, -0.032679233700037, -0.03279459476470947, -0.03223248943686485, -0.032225433737039566, 0.00021166191436350346, 0.00021679559722542763, 0.00022314954549074173, 0.0007897024042904377, -6.100558675825596e-05, -4.9850670620799065e-05, 0.008541546761989594, 0.008942987769842148, 0.008936682716012001, 0.012395380064845085, 0.012998204678297043, 0.01297849789261818, 0.012983150780200958, 0.01297326385974884, 0.015065353363752365, 0.015069784596562386, 0.015665531158447266, 0.015848852694034576, 0.01577422022819519, 0.015399158000946045, 0.01799045130610466, 0.01794554479420185, 0.018582452088594437, 0.02139274589717388, 0.01539185643196106, 0.015370825305581093, 0.015798676759004593, 0.015790406614542007, 0.01647384837269783, 0.016460584476590157, 0.016475079581141472, 0.01647009514272213, 0.016489770263433456, 0.016622595489025116, 0.01750556007027626, 0.01760323904454708, 0.0161509420722723, 0.014886753633618355, 0.014976533129811287, 0.02990475296974182, 0.030474809929728508, 0.030470430850982666, 0.018451765179634094, 0.01881829835474491, 0.018355583772063255, 0.020505212247371674, 0.02050613984465599, 0.020757997408509254, 0.020718367770314217, 0.020714830607175827, 0.020920414477586746, 0.020972369238734245, 0.02118777297437191, 0.021184898912906647, 0.02117937244474888, 0.025233304128050804, 0.025329608470201492, 0.025514943525195122, 0.025778289884328842, 0.02557927556335926, 0.025625893846154213, 0.025718629360198975, 0.025575989857316017, 0.026157286018133163, 0.02617482841014862, 0.02792060375213623, 0.027921251952648163, 0.026369428262114525, 0.026263676583766937, 0.026189465075731277, 0.026021016761660576, 0.02602982521057129, 0.026103956624865532, 0.02611873857676983, 0.026104116812348366, 0.026070838794112206, 0.026079697534441948, 0.025988664478063583, 0.03205851837992668, 0.032057978212833405, 0.03207128494977951, 0.03205178678035736, 0.030680445954203606, 0.030689679086208344, 0.031050704419612885, 0.03103853575885296, 0.03629656136035919, 0.0374177023768425, 0.03746746852993965, 0.03724239021539688, 0.03735433891415596, 0.037357550114393234, 0.037293098866939545, 0.037466369569301605, 0.037487924098968506, 0.03566174581646919, 0.03566122055053711, 0.040262721478939056, 0.04026300832629204, 0.03917796164751053, 0.03925006836652756, 0.03914151340723038, 0.039527878165245056, 0.03947550430893898]
